{"params":{"params":{"Dense_0":{"0+":{"bias":[-0.11141251027584076,0.238386332988739,0.44924402236938477,-0.5668930411338806,0.06880750507116318,-0.6529883146286011,-0.019541407003998756,-0.7409793138504028,0.979947030544281,-1.2780390977859497,0.3883039653301239,-0.31802332401275635,-0.8329668045043945,-1.2683615684509277,0.16641369462013245,0.4335142970085144,-0.2475132942199707,0.2808750867843628,-1.0771292448043823,0.6038773655891418,0.2449975162744522,0.3992222547531128,0.5220783352851868,-0.19302497804164886,0.3970564007759094,1.0349769592285156,-0.6650177836418152,0.5486234426498413,-0.6297600865364075,0.028241639956831932,-1.1209017038345337,0.962958812713623,-0.17578992247581482,1.022408127784729,-0.23144684731960297,-0.25326135754585266,0.0664057731628418,0.6793434023857117,0.30420875549316406,-0.7434640526771545,0.5337731838226318,-0.15264345705509186,0.4485425055027008,-0.05166620761156082,-0.5476358532905579,0.5930957198143005,0.9876372218132019,-0.09422753751277924,0.5832289457321167,-0.4894197881221771,-0.8127536773681641,0.08784431964159012,-0.10491761565208435,-0.25392913818359375,0.6222265362739563,-0.7177931666374207,-0.18578897416591644,0.6216704845428467,0.831096351146698,0.979088544845581,0.8884453177452087,0.32158729434013367,-0.7456536293029785,-0.45430096983909607],"kernel":[[0.0620967298746109,0.17855530977249146,-0.20079585909843445,-0.08880672603845596,-0.14707118272781372,-0.1312762349843979,-0.10242846608161926,-0.06265595555305481,0.2153380811214447,0.13708016276359558,-0.26724177598953247,0.43075498938560486,-0.09828481823205948,0.09701109677553177,-0.3658865988254547,0.21837782859802246,0.24705073237419128,0.3837377727031708,0.1759619563817978,-0.020622912794351578,-0.29094505310058594,-0.05808057636022568,0.46116718649864197,-0.12142159789800644,-0.03494665026664734,0.035287801176309586,-0.16629403829574585,-0.0691143125295639,-0.21436868607997894,-0.14221253991127014,0.0984223484992981,0.15987913310527802,-0.20832854509353638,0.10375724732875824,0.049497827887535095,-0.10071572661399841,0.0446024127304554,0.010099396109580994,0.19035793840885162,0.47020217776298523,-0.11659126728773117,0.344440758228302,-0.23936110734939575,-0.03549746051430702,-0.13869811594486237,-0.3735431134700775,-0.36838188767433167,0.0688670426607132,-0.27055346965789795,-0.07560547441244125,-0.15256008505821228,0.4650411605834961,-0.17389298975467682,-0.3408636152744293,0.07644467055797577,-0.08750300109386444,0.6078012585639954,-0.2646692097187042,0.24335703253746033,0.06618036329746246,-0.24321995675563812,0.05743195116519928,0.1968049556016922,-0.18290215730667114],[0.27568984031677246,-0.5818402171134949,0.05531967431306839,0.08033572137355804,0.09726954996585846,0.07563748210668564,0.08863752335309982,0.21659311652183533,-0.08358117938041687,-0.05550674349069595,0.12832865118980408,0.05582011491060257,0.2513278126716614,-0.09246274828910828,-0.4113646149635315,0.20808105170726776,-0.3481048047542572,-0.008051482029259205,0.39833909273147583,0.24242956936359406,-0.036056630313396454,0.24437065422534943,-0.21872484683990479,-0.06521766632795334,-0.18601572513580322,-0.18747445940971375,0.1316264271736145,0.06727763265371323,0.6658143997192383,-0.09369651228189468,-0.2640150189399719,0.16451960802078247,0.1593615859746933,0.08116938173770905,-0.07893563061952591,0.3998352885246277,0.03549535945057869,-0.12092305719852448,-0.2379142791032791,-0.13516506552696228,-0.15132050216197968,0.3842110335826874,-0.05196883901953697,-0.0011714240536093712,0.30377423763275146,-0.04619436338543892,0.27590903639793396,0.3507274389266968,0.14480815827846527,0.2756713330745697,0.0022252879571169615,0.055433038622140884,0.022911150008440018,0.008279651403427124,-0.38493359088897705,-0.0736958384513855,-0.21998053789138794,0.1816660463809967,0.2612956166267395,0.2955915629863739,0.24503198266029358,0.5096769332885742,-0.3022978901863098,0.20771253108978271],[-0.18094168603420258,0.15968860685825348,-0.26437705755233765,-0.16893529891967773,-0.33440810441970825,-0.07584011554718018,0.24855540692806244,0.253750205039978,-0.03795788809657097,0.20646673440933228,0.2663298547267914,0.13752645254135132,0.3051009476184845,0.22410006821155548,-0.2634543478488922,-0.11905678361654282,0.1743171364068985,0.22743196785449982,-0.1548941284418106,-0.08483263850212097,-0.1261582374572754,0.1450379490852356,0.13515210151672363,0.00734140956774354,-0.037697963416576385,0.1637967973947525,0.16511797904968262,0.16117221117019653,0.18975640833377838,0.14274674654006958,-0.4575623869895935,0.022668316960334778,0.14497920870780945,0.4221050441265106,-0.1456838697195053,0.3053874373435974,-0.0888473242521286,0.4047299027442932,0.09113416075706482,0.1027047410607338,0.03455942124128342,-1.0002923011779785,0.14495739340782166,0.18933965265750885,0.13880115747451782,-0.20368318259716034,0.17746137082576752,0.07268635928630829,0.220235213637352,0.1387862265110016,0.06843778491020203,0.1756218820810318,0.31658244132995605,0.0642739087343216,0.17284612357616425,-0.10295871645212173,-0.12610213458538055,0.21091781556606293,-0.03534790500998497,0.026645995676517487,-0.1853669285774231,-0.06898854672908783,0.23438043892383575,-0.07993815839290619],[-0.1376671940088272,-0.3444303870201111,-0.8540759086608887,-0.32192155718803406,0.18604780733585358,0.20909884572029114,0.04688696190714836,-0.1085796058177948,-0.1847374439239502,-0.2712898254394531,-0.06077750027179718,0.41379666328430176,0.46689721941947937,-0.042216844856739044,0.017291218042373657,0.10615358501672745,-0.461765319108963,0.26654160022735596,-0.03158130496740341,0.32446321845054626,-0.2570749521255493,-0.09325838834047318,-0.5076270699501038,0.01799876056611538,-0.4950026273727417,0.23101520538330078,-0.21808432042598724,0.1287984848022461,0.2820638120174408,0.2724137306213379,-0.15486112236976624,-0.14283443987369537,-0.39648088812828064,0.07301013171672821,0.14763003587722778,-0.1653483808040619,-0.05822806432843208,-0.3355264961719513,0.09738671779632568,-0.28601548075675964,-0.18503238260746002,0.22054171562194824,-0.004864805843681097,0.020417213439941406,0.007626444101333618,-0.054367758333683014,-0.14570313692092896,-0.09439417719841003,-0.1311407834291458,0.025762857869267464,-0.10144198685884476,0.13280509412288666,0.08639854937791824,0.44805216789245605,0.18035469949245453,-0.116631418466568,-0.02266305312514305,-0.16475367546081543,-0.6321709156036377,-0.10697511583566666,0.11802114546298981,-0.6500737071037292,0.059134114533662796,-0.1071782261133194],[-0.14132805168628693,0.32533517479896545,0.24423035979270935,0.15725156664848328,-0.6181174516677856,0.10717955976724625,0.2907896339893341,0.00025613029720261693,-0.24155554175376892,0.05600983649492264,0.255354642868042,-0.05503164604306221,0.07305184006690979,-0.18421712517738342,0.5220627784729004,-0.07075639814138412,0.10463769733905792,-0.48148202896118164,0.10304166376590729,0.32831740379333496,0.1548890769481659,-0.07001489400863647,-0.0652475580573082,0.3305688798427582,0.02981087937951088,-0.12339399755001068,0.2897241711616516,-0.13652504980564117,-0.13299432396888733,-0.2565666139125824,-0.09817244112491608,-0.06518862396478653,-0.33650875091552734,-0.06470458954572678,0.012341717258095741,-0.16994234919548035,-0.026070348918437958,0.036503225564956665,0.25949010252952576,0.015386361628770828,0.15313464403152466,-0.19286750257015228,-0.005820172373205423,0.2747335135936737,-0.28709495067596436,0.18264850974082947,0.07007575035095215,0.408905953168869,0.10864078998565674,0.004630961921066046,-0.31204473972320557,-0.17066249251365662,0.04217615723609924,-0.2174462527036667,-0.38571685552597046,-0.3469317853450775,-0.3258022665977478,0.24538861215114594,0.10361472517251968,-0.1423003375530243,0.24756188690662384,-0.029465587809681892,0.14847810566425323,0.4835303723812103],[0.04947112500667572,-0.44326111674308777,0.4758065640926361,-0.02128906361758709,0.019436722621321678,-0.11248656362295151,0.0019187319558113813,0.19725969433784485,0.18924589455127716,-0.10010278224945068,-0.45252713561058044,-0.3044525384902954,-0.006626646500080824,-0.17553620040416718,0.42472735047340393,0.1199289932847023,0.11038635671138763,0.3971864581108093,0.1289142370223999,-0.16716137528419495,0.2504199743270874,0.05629493296146393,0.1115768775343895,-0.1414443999528885,-0.23090693354606628,-0.30242449045181274,-0.11849764734506607,-0.11962968111038208,0.12191727757453918,0.11169818043708801,0.03518455848097801,-0.3336295783519745,-0.31350094079971313,-0.029967740178108215,0.06782308220863342,-0.2221301943063736,-0.12706561386585236,-0.01779189333319664,0.04797804728150368,0.109174944460392,0.09224501252174377,0.17002907395362854,0.07789992541074753,-0.046619217842817307,0.1422453373670578,-0.1379595547914505,-0.28736555576324463,-0.015766993165016174,0.4894314110279083,-0.3640266954898834,-0.28439199924468994,-0.08478929847478867,-0.11414982378482819,0.3897435963153839,-0.5701422095298767,0.09377161413431168,0.18926702439785004,-0.09954547137022018,0.5300981402397156,0.10813518613576889,0.015686005353927612,-0.2161230891942978,-0.012252416461706161,-0.22555574774742126],[-0.09574511647224426,-0.027656730264425278,-0.42995452880859375,0.09406411647796631,0.43313974142074585,-0.5107201933860779,-0.19432857632637024,0.1449074149131775,-0.014425423927605152,-0.1715814769268036,-0.05406996235251427,-0.08123920112848282,-0.2567814588546753,-0.10866209119558334,0.2753278315067291,-0.3466113805770874,0.011484358459711075,0.12921889126300812,0.24122942984104156,0.28775349259376526,-0.22843974828720093,0.1547350138425827,0.0620143786072731,-0.12049341201782227,0.02275674417614937,0.21944844722747803,-0.021075112745165825,-0.027533220127224922,0.035415470600128174,0.34156179428100586,-0.049692220985889435,-0.054641298949718475,-0.32912737131118774,0.1449442058801651,-0.5593723058700562,0.024714268743991852,0.32007890939712524,-0.24064908921718597,0.13450562953948975,-0.26720088720321655,0.31197428703308105,-0.2092653065919876,0.0064433966763317585,0.25117626786231995,-0.009399151429533958,-0.014383571222424507,0.17850151658058167,-0.3116180896759033,-0.07297094911336899,0.2077062577009201,0.0660616010427475,-0.08623286336660385,-0.7449356317520142,-0.04667380452156067,-0.126132994890213,-0.17363843321800232,-0.3645012676715851,0.016246913000941277,0.115997813642025,-0.0271076038479805,-0.5801998972892761,-0.4494299292564392,0.08756300061941147,0.06497327983379364],[-0.35488930344581604,0.5252773761749268,0.3331778049468994,-8.56930564623326e-05,0.25160494446754456,0.2158132940530777,0.20231981575489044,-0.5024845004081726,0.47536033391952515,0.02113323099911213,0.20015402138233185,-0.05146786943078041,0.5794415473937988,-0.43386444449424744,0.1653737723827362,-0.28465959429740906,0.5097586512565613,0.4338012933731079,0.24901141226291656,-0.23093797266483307,-0.010130558162927628,0.2822003662586212,-0.23044103384017944,-0.3703553378582001,-0.28107309341430664,-0.014299757778644562,0.05340750142931938,0.229513481259346,0.24837899208068848,0.004783024080097675,0.3496263921260834,-0.2433796226978302,-0.18149729073047638,-0.18545027077198029,0.08558104932308197,0.3915961682796478,-0.36968475580215454,0.06959034502506256,-0.07349604368209839,-0.08171271532773972,-0.33724483847618103,-0.3221428692340851,0.03745081648230553,-0.014233139343559742,0.01199504267424345,-0.13238781690597534,-0.30611151456832886,0.26033660769462585,-0.20956125855445862,-0.14617399871349335,0.15051795542240143,0.3235582411289215,-0.0952698215842247,-0.13341468572616577,-0.11155467480421066,-0.13136865198612213,-0.36318376660346985,0.22729045152664185,1.0508813858032227,0.15817193686962128,0.07525764405727386,0.5108194351196289,0.10297815501689911,0.21245457231998444],[-1.1053295135498047,-0.3501783013343811,-0.14478035271167755,0.20454351603984833,0.18710535764694214,0.23085707426071167,0.05104931443929672,-0.15079177916049957,-0.43331512808799744,0.1501113772392273,0.16029828786849976,-0.03397843614220619,0.1253213882446289,0.03166510537266731,0.2110663503408432,-0.2196793258190155,-0.0286802276968956,0.3342766761779785,0.26435333490371704,0.3707062005996704,0.28609251976013184,-0.03438173234462738,0.025775577872991562,-0.18896429240703583,-0.2412199229001999,-0.10297971218824387,-0.19074282050132751,0.2787395715713501,0.16307145357131958,0.2604479193687439,0.17932197451591492,-0.12523362040519714,-0.027994511649012566,-0.18824757635593414,-0.3514808118343353,-0.2532239556312561,-0.1283009946346283,0.19084839522838593,0.19789336621761322,-0.7878139615058899,0.09374216198921204,0.22736816108226776,-0.08368074893951416,-0.37551361322402954,-0.12183890491724014,-0.1336618810892105,0.029741419479250908,-0.4469775855541229,-0.2791455090045929,-0.2353174388408661,0.0542743057012558,-0.24073092639446259,0.08923942595720291,0.36747443675994873,0.2643113434314728,0.15439853072166443,0.004707621410489082,-0.09268531203269958,0.055984869599342346,-0.13386045396327972,0.1436982899904251,-0.34091314673423767,0.06521454453468323,0.27548497915267944],[-0.1793377548456192,-0.17076414823532104,0.1090090349316597,-0.11075517535209656,-0.24254198372364044,-0.42680370807647705,-0.05994381383061409,0.18031927943229675,-0.11233290284872055,-0.09826608002185822,0.1710616648197174,-0.1954493671655655,0.15237939357757568,-0.046919193118810654,0.4332278370857239,-0.2954978346824646,-0.24735412001609802,-0.30874234437942505,-0.28637024760246277,0.028819093480706215,0.4952850937843323,-0.10221001505851746,0.17988452315330505,0.2724379003047943,0.23836714029312134,-0.1557159572839737,0.13100075721740723,-0.0495956689119339,0.20006725192070007,0.636379063129425,-0.42993223667144775,-0.19716471433639526,-0.12613849341869354,0.0943814069032669,-0.3238811194896698,0.1525120586156845,0.13810402154922485,0.28161147236824036,-0.2655758559703827,0.28941330313682556,-0.061744313687086105,-0.18189272284507751,-0.13341562449932098,0.1469927430152893,-0.06403833627700806,0.005619718227535486,0.011052197776734829,0.07754641026258469,0.48691800236701965,0.04959908872842789,0.06173112988471985,-0.21701672673225403,-0.05861593037843704,-0.24986793100833893,-0.041199516505002975,0.01070928294211626,-0.15173287689685822,0.04359288513660431,0.22749286890029907,0.2592875063419342,0.2392764836549759,0.3607345223426819,0.1638863980770111,0.21103480458259583],[-0.43124157190322876,0.32618245482444763,0.12850169837474823,0.1662803739309311,-0.31552204489707947,-0.32710570096969604,0.05868867412209511,-0.16644206643104553,-0.11487934738397598,-0.05683884769678116,-0.1886613816022873,-0.21418772637844086,0.011197314597666264,-0.006731069181114435,-0.09539203345775604,0.003039979375898838,-0.3353646695613861,-0.1819370687007904,-0.11338762938976288,-0.31478044390678406,-0.3948846757411957,0.08579903841018677,-0.4787762761116028,-0.01205092016607523,0.21248407661914825,0.16705597937107086,0.29033413529396057,-0.08160153031349182,0.3190525472164154,-0.11800095438957214,0.07838334143161774,0.03828340768814087,0.06889953464269638,-0.09251853823661804,-0.23306132853031158,-0.03961312770843506,0.11082028597593307,0.0697721317410469,0.16023069620132446,-0.38945960998535156,-0.22207845747470856,0.25481152534484863,0.1824672669172287,-0.029495075345039368,0.05076104775071144,-0.2887238562107086,-0.06882616877555847,0.03190155699849129,0.18370303511619568,0.11573107540607452,0.07329932600259781,-0.3365965485572815,0.1763119399547577,0.45527341961860657,-0.4699028432369232,0.15628543496131897,-0.21336154639720917,0.1522296816110611,-0.26083922386169434,0.10125177353620529,-0.09159953892230988,-0.16023479402065277,-0.04887498915195465,0.04463235288858414],[-0.4303159713745117,0.5009748339653015,-0.09473427385091782,0.028555545955896378,-0.17520539462566376,-0.20592455565929413,0.12026676535606384,0.10354353487491608,0.18699635565280914,0.12008287012577057,0.1102568507194519,-0.13621704280376434,0.05187271535396576,-0.17341148853302002,0.4968761205673218,0.4154926836490631,-0.17520324885845184,0.2499258667230606,0.001755705219693482,-0.15798799693584442,0.27499398589134216,-0.32445183396339417,-0.23508867621421814,-0.030061522498726845,-0.04252771660685539,0.22197295725345612,0.20310673117637634,0.022477978840470314,-0.3064254820346832,0.025091683492064476,0.027403082698583603,-0.5093867778778076,0.09175362437963486,0.30371883511543274,-0.3080882728099823,0.6470597386360168,-0.10842183977365494,-0.23650126159191132,-0.4297150671482086,0.23592057824134827,-0.38891324400901794,-0.427786648273468,-0.6623906493186951,0.14918649196624756,0.6880396008491516,-0.496521532535553,0.04349718615412712,-0.08115948736667633,0.05486933887004852,0.07237910479307175,-0.08228588849306107,-0.5001752376556396,-0.4275936782360077,0.03391425684094429,0.43340209126472473,-0.12445216625928879,-0.03273960202932358,-0.3280697166919708,-0.2127683311700821,-0.296407550573349,-0.09667660295963287,-0.053062599152326584,0.1595446914434433,-0.0007266785250976682],[-0.4966558814048767,0.11500294506549835,-0.047812145203351974,-0.22326728701591492,-0.22228215634822845,-0.08133532106876373,-0.08658114075660706,-0.15115252137184143,0.2416408658027649,0.21582520008087158,-0.7058420777320862,0.33444836735725403,0.006935130804777145,-0.15555505454540253,-0.09572947025299072,-0.07906652241945267,-0.0828007161617279,0.2659781575202942,0.11798520386219025,-0.03337441384792328,0.05684995651245117,0.029328064993023872,-0.40493661165237427,0.21125614643096924,0.03488714620471001,0.03430553153157234,0.0194963701069355,0.06690487265586853,-0.07570691406726837,0.012862389907240868,0.1549576371908188,0.09197738766670227,0.06800473481416702,0.04160887375473976,0.14415457844734192,0.10818839818239212,-0.03863392397761345,-0.02341615967452526,0.06088611111044884,-0.11648615449666977,-0.22624272108078003,-0.17780530452728271,0.186839297413826,-0.09462428838014603,0.006002484355121851,-0.04476890712976456,0.24179783463478088,0.03406936302781105,-0.23861965537071228,-0.013695434667170048,0.11553533375263214,0.26577886939048767,0.2816047668457031,-0.09072663635015488,0.04127707704901695,0.5730196833610535,0.09421654790639877,0.005022041499614716,0.09221440553665161,0.09534583240747452,-0.14016517996788025,0.3553644120693207,0.02332201786339283,0.22644922137260437],[-0.0020753799472004175,-0.4094252288341522,-0.5602937340736389,0.5606725811958313,-0.15476536750793457,0.025403058156371117,-0.3545001745223999,0.21884088218212128,-0.43961721658706665,0.2622760534286499,-0.16751551628112793,-0.17217615246772766,-0.041138000786304474,-0.17014849185943604,0.24887634813785553,-0.2748093008995056,-0.4423041045665741,-0.1851809173822403,-0.11321243643760681,-0.400541216135025,0.136847123503685,0.06840487569570541,0.1062728688120842,-0.26536238193511963,-0.09067831933498383,-0.08768898248672485,0.22128009796142578,-0.3628244400024414,0.3352314531803131,-0.009248066693544388,-0.09388551115989685,-0.4726891815662384,-0.0002539713750593364,-0.17961809039115906,-0.14518272876739502,0.03720023110508919,-0.5770857334136963,-0.13155867159366608,-0.5269259810447693,0.13361512124538422,0.2803204655647278,0.23791420459747314,-0.3193359076976776,0.16337929666042328,0.3288586139678955,-0.0005081874551251531,-0.5296046733856201,-0.10670898109674454,-0.18582552671432495,0.20866988599300385,0.20505142211914062,-0.11187894642353058,-0.4273640811443329,-0.11455804854631424,-0.258263498544693,-0.03210679069161415,0.16587966680526733,-0.02377920225262642,-0.2812547981739044,-0.25203967094421387,-0.5842803716659546,0.21481908857822418,-0.4123504161834717,0.5173770189285278],[-0.11796952784061432,0.13504712283611298,0.292691171169281,-0.38031134009361267,-0.33031994104385376,-0.01699913665652275,0.29464682936668396,0.12683320045471191,-0.03223619610071182,-0.06267242878675461,-0.20570513606071472,0.17816264927387238,0.11462446302175522,0.2590581476688385,-0.04309525713324547,0.5069189667701721,0.17521612346172333,-0.3635178208351135,-0.09922447800636292,-0.341909795999527,0.4620882272720337,0.3158212900161743,-0.03669717162847519,0.5044386386871338,0.35353755950927734,-0.4167099595069885,-0.022001421079039574,-0.2614154815673828,-0.003886474296450615,0.47240447998046875,0.00902865082025528,-0.29504895210266113,-0.3882395923137665,0.48112577199935913,0.5399037599563599,-0.4526809751987457,-0.06118153780698776,0.16101647913455963,-0.40288034081459045,0.46772924065589905,0.06718519330024719,-0.2597998082637787,-0.043632131069898605,0.6435285806655884,-0.37524282932281494,-0.10737839341163635,-0.07068460434675217,0.49738022685050964,-0.25995588302612305,-0.48145413398742676,-0.644680380821228,0.11766529083251953,0.392062783241272,-0.39673322439193726,-0.20882481336593628,-0.30992770195007324,-4.445827653398737e-05,0.1668577641248703,-0.20147712528705597,0.4364694058895111,-0.26852190494537354,0.051550280302762985,-0.552395761013031,0.13249950110912323],[0.20480290055274963,0.062100209295749664,0.14609046280384064,-0.37000909447669983,-0.4367653727531433,-0.13657203316688538,0.08610329777002335,-0.08527585119009018,-0.2612150311470032,0.14031808078289032,-0.16541557013988495,0.06867444515228271,0.196168914437294,0.15663474798202515,-0.2871295213699341,-0.14568592607975006,-0.2195698469877243,0.25831139087677,0.0669853612780571,0.264446496963501,0.3208736181259155,-0.4358266294002533,0.1489572823047638,0.06695864349603653,0.16062836349010468,-0.13476872444152832,-0.10413894802331924,0.03280390426516533,0.11072706431150436,-0.0809464231133461,0.08462872356176376,-0.19543956220149994,-0.24189281463623047,-0.1237078309059143,0.14079853892326355,-0.14393101632595062,0.05053650960326195,0.19735698401927948,0.020173639059066772,-0.13499565422534943,0.07874643802642822,-0.05156610161066055,0.15761065483093262,-0.2315923273563385,0.02845936268568039,0.1618756651878357,0.1887572854757309,0.1210048571228981,-0.11165110766887665,0.057983044534921646,0.023679513484239578,-0.03499165177345276,0.5689486265182495,-0.01737246848642826,0.08746878802776337,-0.05848909169435501,0.23072224855422974,-0.008780972100794315,0.04629777371883392,0.36176738142967224,0.03221183270215988,-0.1743418276309967,-0.20143204927444458,-0.05584760382771492],[0.3627840578556061,-0.020246999338269234,0.11187127977609634,-0.11983536928892136,0.7258354425430298,-0.41214078664779663,-0.028224127367138863,0.13649459183216095,0.4925795793533325,-0.026472102850675583,-0.6044031381607056,0.10194035619497299,0.003965470008552074,-0.26695165038108826,0.3108116686344147,0.1335579752922058,-0.19993442296981812,0.12593120336532593,-0.19942809641361237,0.14311358332633972,0.020712614059448242,0.06128706410527229,0.14128880202770233,-0.20958414673805237,-0.14784763753414154,-0.0785212591290474,-0.14331118762493134,0.09475710988044739,-0.29940569400787354,-0.2725982367992401,0.10600654780864716,0.025731263682246208,-0.427894651889801,-0.2539263367652893,0.1460811197757721,-0.054544366896152496,0.25454235076904297,-0.2803279459476471,0.17946280539035797,0.08847931027412415,-0.052778881043195724,0.05585099756717682,0.09576497226953506,-0.09845943748950958,-0.08015399426221848,0.33893951773643494,-0.16385453939437866,0.5184823274612427,0.020241016522049904,0.02453303337097168,-0.09292540699243546,0.3865150809288025,-0.036471255123615265,-0.04269015043973923,0.14939460158348083,-0.12420278787612915,-0.00364368106238544,-0.12235020846128464,0.05872337147593498,-0.29728615283966064,0.40623313188552856,0.04754903167486191,-0.015737732872366905,0.3225928544998169],[-0.4839363694190979,-0.07195968180894852,-0.14828182756900787,-0.16076508164405823,0.2732667922973633,0.27154892683029175,-0.2149205058813095,0.2082129269838333,-0.058008015155792236,0.28599247336387634,0.2393423616886139,0.25836673378944397,-0.1638289988040924,0.31345781683921814,0.16188205778598785,-0.096212238073349,-0.301901638507843,0.18007081747055054,-0.3190932869911194,0.12279386818408966,0.09624109417200089,0.49254217743873596,0.032835766673088074,-0.2570474147796631,-0.2225102186203003,0.05147434398531914,-0.1328994780778885,0.026284515857696533,-0.03651786223053932,-0.08045346289873123,-0.1813647449016571,0.17286263406276703,-0.051401253789663315,-0.13308577239513397,-0.038141101598739624,-0.20236627757549286,-0.37518346309661865,-0.00484288576990366,0.012031074613332748,0.03452294319868088,-0.09953725337982178,-0.4275914430618286,0.09877093136310577,-0.3140764534473419,-0.05675841495394707,-0.11325100064277649,0.17397376894950867,0.09898313134908676,0.07112327218055725,0.09136942028999329,-0.005682206247001886,0.12090381234884262,0.12044928222894669,0.20360040664672852,0.1275312751531601,0.010021720081567764,-0.42840155959129333,0.11462703347206116,-0.1335010528564453,0.07921374589204788,0.3628966808319092,-0.5915413498878479,-0.015808328986167908,-0.021163148805499077],[-0.1528666615486145,0.11666242778301239,-0.0584975928068161,-0.1449344903230667,-0.0577298142015934,-0.0014423364773392677,0.13713355362415314,0.05807552859187126,-0.14669500291347504,0.3030796945095062,-0.11200303584337234,0.29384320974349976,0.30380186438560486,0.2061864584684372,-0.2286708652973175,-0.26022088527679443,-0.01742464303970337,0.0324413888156414,-0.06042289733886719,-0.23965199291706085,-0.15765909850597382,-0.09174777567386627,-0.2619435489177704,-0.009230580180883408,-0.3706255555152893,-0.25492140650749207,-0.09652198851108551,-0.08185262233018875,0.0362890250980854,-0.11033285409212112,0.12319624423980713,-0.42757314443588257,-0.23029841482639313,-0.08443555235862732,0.19995467364788055,-0.14652355015277863,-0.17431169748306274,-0.30929315090179443,-0.2708396911621094,0.30289334058761597,-0.2593296766281128,-0.15901504456996918,0.08560840040445328,-0.23620206117630005,-0.16420690715312958,-0.0643409714102745,-0.10030779987573624,0.2644568681716919,-0.12484395503997803,-0.2327238917350769,-0.16226907074451447,0.18362678587436676,0.21515420079231262,-0.04534263163805008,0.2635866403579712,0.13358037173748016,0.05483539402484894,-0.49923327565193176,-0.4272471070289612,-0.3928000330924988,-0.23426002264022827,-0.22798343002796173,0.17484557628631592,-0.0874113067984581],[-0.19311222434043884,0.0042870789766311646,0.1664862334728241,0.1783745139837265,-0.4087335467338562,-0.05808762460947037,-0.06413290649652481,0.05509454011917114,0.3235225975513458,0.04696981608867645,-0.06307743489742279,0.38958680629730225,0.05614684149622917,-0.028684213757514954,0.4783637523651123,-0.23577746748924255,-0.10642600059509277,-0.05289506912231445,0.3293207883834839,-0.012829724699258804,0.2286461740732193,0.18399788439273834,-0.25698673725128174,-0.1455233246088028,-0.09062661230564117,-0.04142569750547409,-0.2598729729652405,0.008163455873727798,0.04667441174387932,0.15640789270401,0.2042512148618698,-0.08797112107276917,-0.06239753216505051,-0.12375112622976303,-0.03133530914783478,0.08475127816200256,-0.07087002694606781,-0.3350904583930969,-0.10246916860342026,-0.027219586074352264,-0.22074037790298462,0.012923325411975384,0.18669970333576202,0.12760397791862488,0.037832871079444885,-0.21559862792491913,-0.0968504250049591,-0.0440375842154026,0.39731916785240173,0.18973217904567719,-0.08716107904911041,0.020096097141504288,-0.04929489642381668,-0.08242112398147583,0.030236508697271347,0.184664785861969,0.23408380150794983,-0.0397159606218338,0.16515886783599854,-0.018252532929182053,0.19990628957748413,-0.05740182846784592,-0.0617343969643116,0.03873542323708534],[-0.33305221796035767,0.3821840286254883,0.0025448219384998083,-0.005486896261572838,0.10996557772159576,-0.020568065345287323,0.32356399297714233,-0.18525950610637665,0.11162419617176056,0.0048110513016581535,-0.11991340667009354,0.21908710896968842,0.23906011879444122,0.02067769132554531,-0.26703429222106934,-0.19993725419044495,0.23355546593666077,0.32673075795173645,-0.35094889998435974,0.5038477182388306,0.29246777296066284,0.13910719752311707,0.11537974327802658,-0.08333868533372879,-0.16767621040344238,-0.1490825116634369,-0.39049115777015686,0.011021960526704788,0.008266061544418335,-0.12312280386686325,-0.2007112056016922,0.01817493699491024,0.030283331871032715,-0.0791878029704094,-0.07730831205844879,-0.018470164388418198,0.34896790981292725,-0.1361897587776184,-0.7090885043144226,-0.12433107942342758,0.19726979732513428,-0.14271366596221924,0.13648933172225952,-0.04238176718354225,0.11359963566064835,0.04387916624546051,0.19629763066768646,-0.1088363379240036,0.2972698509693146,-0.0022597117349505424,0.08721429109573364,-0.036557868123054504,0.0466448999941349,0.021646320819854736,0.018174288794398308,0.2242678552865982,0.2894667088985443,-0.22820603847503662,0.3629153370857239,0.08976440131664276,0.17229044437408447,0.010072554461658001,0.011731614358723164,-0.11003880202770233],[0.6480547189712524,-0.22411257028579712,0.09667199105024338,-0.026186473667621613,0.14517436921596527,-0.003706906223669648,0.14348675310611725,0.2820892333984375,0.02329179272055626,-0.30584490299224854,0.23501484096050262,-0.24954238533973694,-0.803989589214325,0.025593619793653488,-0.17418693006038666,-0.06536620110273361,-0.2189367115497589,-0.40990597009658813,-0.11933275312185287,0.025776777416467667,-0.17751766741275787,0.1850712150335312,0.07408163696527481,-0.24514441192150116,0.16651800274848938,-0.14740118384361267,0.03615405410528183,0.2259225845336914,-0.04107975587248802,-0.1347217708826065,0.23183032870292664,-0.16254642605781555,0.13917754590511322,-0.11022941023111343,0.20735663175582886,-0.05402594059705734,0.31339120864868164,-0.14178717136383057,-0.057760704308748245,0.20071209967136383,0.08134812861680984,0.4030100107192993,0.43080273270606995,0.4844566881656647,0.08751183748245239,0.18932095170021057,0.1797153651714325,-0.05729339271783829,-0.206918865442276,-0.01447207573801279,0.06750122457742691,0.10634797066450119,0.335187703371048,0.09976906329393387,0.23861297965049744,0.18646754324436188,-0.5094553828239441,-0.18914836645126343,-0.20339277386665344,0.1240563914179802,0.08381436765193939,-0.16378477215766907,-0.24821028113365173,-0.2962636947631836],[-0.23275397717952728,-0.024255622178316116,0.09283619374036789,-0.06803756952285767,0.17902059853076935,0.49249088764190674,0.07028843462467194,0.11648987233638763,0.11044389754533768,0.11668834835290909,-0.09336363524198532,-0.16515465080738068,0.1365344077348709,-0.1622835397720337,-0.09730599075555801,0.20835454761981964,0.23580467700958252,0.19741521775722504,0.04471937566995621,0.010059605352580547,-0.09838557243347168,-0.1408349722623825,-0.7171853184700012,-0.37430569529533386,0.01583785004913807,0.059084851294755936,0.12839779257774353,-0.15707167983055115,0.17437578737735748,-0.5436413884162903,-0.31107190251350403,0.03208845853805542,-0.06530169397592545,-0.04459017142653465,-0.35771846771240234,0.024007320404052734,-0.25900158286094666,-0.11419939249753952,-0.028950490057468414,0.06322503089904785,-0.044820159673690796,0.005807341542094946,0.14275017380714417,-0.24557316303253174,-0.016384737566113472,0.1220756471157074,-0.011153561063110828,-0.17819397151470184,-0.25514811277389526,-0.06886018067598343,0.15844759345054626,0.06689577549695969,0.05045704171061516,-0.05450020357966423,0.09316849708557129,-0.21747443079948425,0.018128877505660057,-0.2417437881231308,-0.23311550915241241,-0.0018648910336196423,0.144623264670372,0.11715181171894073,-0.2290942370891571,-0.009004514664411545],[-0.18994511663913727,-0.0013445386430248618,0.0724802017211914,-0.26193657517433167,-0.2287134826183319,0.22107167541980743,-0.2587931752204895,0.3168451189994812,0.2918732762336731,0.04703423008322716,-0.3026273250579834,0.18869321048259735,-0.1446142941713333,0.07332738488912582,-0.3489464223384857,-0.6317112445831299,0.28227272629737854,0.0918748676776886,-0.01353964488953352,-0.5861798524856567,0.36605629324913025,-0.25088071823120117,-0.07148850709199905,-0.2737855017185211,0.1348091959953308,-0.2817491292953491,-0.24550499022006989,-0.0745021253824234,0.24213914573192596,0.09392090886831284,0.14535728096961975,-0.0854763463139534,-0.20584283769130707,-0.0017314163269475102,-0.08701097965240479,-0.22423981130123138,0.4584660232067108,-0.12025348842144012,0.025621598586440086,0.18982769548892975,-0.13581867516040802,-0.07764515280723572,0.18750986456871033,-0.029655642807483673,0.3421880304813385,0.10003196448087692,0.03327169269323349,0.18301674723625183,0.10648660361766815,-0.3297251760959625,0.2750585675239563,0.11417567729949951,0.3457372486591339,0.1032206192612648,0.09927733242511749,-0.043940700590610504,-0.3337051272392273,0.19085484743118286,-0.3365715742111206,-0.23866111040115356,0.718316912651062,-0.06623829901218414,0.02182425558567047,-0.08892400562763214],[0.21064794063568115,-0.19707544147968292,-0.11932673305273056,0.15377546846866608,0.11833939701318741,0.16516408324241638,-0.4504437744617462,-0.1436433345079422,0.195834219455719,-0.05403057858347893,0.2928958237171173,-0.1505039781332016,-0.3827511966228485,-0.09853951632976532,-0.24872161448001862,0.33935466408729553,-0.04674820974469185,-0.03961894288659096,-0.030496980994939804,-0.2705812156200409,0.5132040977478027,0.16051876544952393,-0.04963311180472374,0.4641798734664917,-0.9254477024078369,-0.06777568906545639,-0.04129350930452347,0.048627059906721115,-0.16713708639144897,0.028311213478446007,0.14863523840904236,0.4557804465293884,0.06697744131088257,-0.3027472198009491,0.06816133111715317,0.08973833173513412,-0.15156994760036469,-0.2805798649787903,0.07936882972717285,-0.3082268238067627,0.25613296031951904,-0.054388731718063354,-0.10302983224391937,0.024585401639342308,0.26430070400238037,0.3292404115200043,-0.24314641952514648,0.1934584230184555,-0.06567893177270889,0.3269489109516144,-0.05487668141722679,0.05135897174477577,0.4110998511314392,0.0723361223936081,0.2303021252155304,-0.5339421629905701,-0.08654741197824478,-0.06798402965068817,0.10971824079751968,-0.21739263832569122,-0.24309808015823364,0.1974155604839325,0.14593105018138885,0.12488312274217606],[-0.2630707621574402,-0.16721561551094055,-0.1375245302915573,0.052454352378845215,0.2971849739551544,0.005723980721086264,0.01608990505337715,0.038706738501787186,0.36858639121055603,-0.0846138522028923,-0.13026517629623413,-0.0005070643965154886,-0.3375219702720642,0.1436617076396942,0.09598179906606674,0.01724579557776451,-0.08957971632480621,0.28147023916244507,0.12789861857891083,0.024889297783374786,-0.10789362341165543,0.08036764711141586,0.3490864038467407,0.016169896349310875,-0.03317960724234581,-0.025186602026224136,-0.17894497513771057,-0.11576422303915024,0.050221074372529984,-0.13220058381557465,-0.31583455204963684,-0.13541379570960999,0.3807859420776367,0.15177437663078308,0.30613651871681213,0.2696611285209656,-0.2028999775648117,-0.1890672743320465,-0.12365087121725082,0.09732314944267273,0.12101002782583237,0.27750062942504883,0.011441666632890701,0.3942515552043915,-0.48273447155952454,-0.265382319688797,0.017609229311347008,0.22241614758968353,0.012067526578903198,-0.1995297521352768,0.12324129045009613,0.06392445415258408,0.19907647371292114,0.0075898729264736176,0.5194821953773499,0.12325923144817352,-0.022274792194366455,-0.586772084236145,0.271970272064209,0.09885375946760178,-0.19504736363887787,0.13049735128879547,0.3045734763145447,-0.5965195298194885],[-0.33330297470092773,-0.16349780559539795,0.19658337533473969,0.3760145604610443,0.27455276250839233,-0.4522441327571869,0.057918474078178406,0.028280936181545258,0.12029758840799332,-0.03712952509522438,-0.08075687289237976,-0.13595068454742432,0.4325334429740906,-0.1787918210029602,-0.09549558162689209,-0.08137913793325424,-0.4201430380344391,0.15044082701206207,0.0976242944598198,0.04142751917243004,-0.05745597556233406,-0.4254361689090729,0.08928219228982925,0.05388825386762619,-0.2829512059688568,-0.20907339453697205,-0.20662595331668854,0.6899958848953247,0.09856545925140381,-0.18734313547611237,0.15952512621879578,-0.21460197865962982,-0.25522053241729736,0.04267555847764015,-0.30568134784698486,0.20595690608024597,-0.17164862155914307,-0.06268090009689331,0.016426384449005127,-0.14850133657455444,-0.028820769861340523,0.07926452904939651,-0.07625020295381546,-0.012690972536802292,0.4877450466156006,0.05474920570850372,0.06540129333734512,0.08041936159133911,-0.6069707274436951,0.1912267804145813,-0.23734764754772186,0.08285827189683914,0.21863490343093872,0.3078283667564392,-0.17668166756629944,0.1048601046204567,0.031333837658166885,0.41069936752319336,0.29938268661499023,-0.0913991630077362,-0.05306236073374748,-0.05375593528151512,-0.2892759144306183,-0.4956652820110321],[0.14543701708316803,0.06264697015285492,0.05492628365755081,0.00428691366687417,0.114718496799469,0.10224423557519913,-0.12208157032728195,-0.2915515899658203,0.3144995868206024,-0.024034058675169945,-0.35054343938827515,0.07277966290712357,0.5265244245529175,-0.1893119513988495,-0.2344246506690979,0.1711597591638565,0.037876956164836884,-0.2061787247657776,0.38371023535728455,-0.04900788888335228,0.08808060735464096,0.5572918057441711,0.3023751676082611,-0.3746817708015442,0.13963299989700317,0.23955120146274567,-0.15152983367443085,-0.3382156193256378,0.48379451036453247,-0.016439136117696762,0.10586143285036087,0.21587730944156647,-0.1036699116230011,0.0291913952678442,0.1873096078634262,-0.2586389482021332,0.035508543252944946,-0.27385109663009644,-0.022121375426650047,0.3209480345249176,-0.03919839486479759,0.268783837556839,-0.09549693018198013,-0.11242801696062088,-0.26636722683906555,-0.24328593909740448,-0.35195714235305786,0.2163245975971222,-0.2447633594274521,-0.19869351387023926,0.39511221647262573,0.625961422920227,0.2678968906402588,-0.3221942186355591,-0.6049045920372009,-0.18459884822368622,0.14314724504947662,-0.10773441195487976,0.6972499489784241,0.10316058248281479,-0.4966350495815277,0.1704281121492386,0.047015395015478134,-0.3214154541492462],[0.08048403263092041,-0.020244771614670753,-0.0734601765871048,-0.021218040958046913,-0.2244880050420761,0.14033909142017365,0.038011591881513596,0.08157847076654434,-0.3445608913898468,0.24248257279396057,-0.0726337730884552,0.2870086431503296,0.13444280624389648,0.06276252120733261,-0.15994995832443237,-0.4149130880832672,-0.10863650590181351,0.027716074138879776,0.09422361105680466,0.21107089519500732,0.036613043397665024,-0.0031168521381914616,-0.06375199556350708,-0.010693036951124668,0.21421588957309723,-0.26207172870635986,-0.16615818440914154,0.3047935962677002,-0.33920931816101074,0.11091721802949905,-0.011242290958762169,0.01789630390703678,-0.017796970903873444,-0.1047874391078949,0.08506550639867783,-0.029586689546704292,-0.2946167588233948,-0.011163677088916302,0.373643696308136,0.348685085773468,-0.008989324793219566,-0.1252182424068451,-0.14098985493183136,-0.20616525411605835,0.04894084855914116,-0.15105795860290527,-0.2666601538658142,-0.12067443132400513,-0.017432795837521553,0.07267897576093674,0.2221897542476654,-0.08944842964410782,0.41157329082489014,-0.19907765090465546,-0.14374975860118866,-0.10961369425058365,0.07331126183271408,-0.06095277890563011,-0.12264334410429001,-0.23687249422073364,-0.040303248912096024,-0.1789776086807251,0.3690643310546875,0.23259927332401276],[-0.13176988065242767,0.17103157937526703,-0.34547141194343567,0.16503562033176422,-0.3600876033306122,-0.0706254243850708,0.11306669563055038,-0.3819437623023987,-0.10286453366279602,-0.07683166861534119,0.42085903882980347,0.30629080533981323,-0.028796136379241943,-0.08718761056661606,0.14935757219791412,0.22528515756130219,-0.13592872023582458,0.07899444550275803,-0.1930318921804428,0.15824027359485626,-0.205549955368042,0.28631943464279175,0.4659513831138611,-0.18949845433235168,0.07835864275693893,0.1784220039844513,-0.03038901649415493,-0.2526402771472931,0.18045996129512787,-0.17842668294906616,-0.011786296032369137,0.01915557309985161,-0.030744094401597977,-0.030124612152576447,0.06790965050458908,0.08083157986402512,0.010310337878763676,-0.3029867112636566,-0.12613265216350555,-0.1833428144454956,-0.055039338767528534,-0.21428319811820984,-0.007540910970419645,0.07235345244407654,-0.17719656229019165,-0.18095916509628296,-0.02935337834060192,0.004915307275950909,-0.005248550325632095,0.09317148476839066,0.216392382979393,0.22457121312618256,-0.0022832928225398064,0.11653023213148117,0.1579204946756363,-0.024288076907396317,0.04836326092481613,0.2200470268726349,-0.08496035635471344,0.042438410222530365,-0.3234159052371979,0.03328509256243706,-0.12959572672843933,0.18083883821964264],[-0.2945423722267151,0.5436184406280518,0.10470707714557648,0.032933417707681656,-0.1174844279885292,0.23241187632083893,-0.1490849107503891,0.09204170852899551,0.08830714225769043,0.010601934045553207,0.07609033584594727,0.24645228683948517,0.13386179506778717,-0.16287152469158173,0.6739853024482727,-0.02960086427628994,-0.3060653805732727,0.043341025710105896,-0.01910478062927723,0.3922623097896576,0.13503241539001465,0.16640442609786987,0.1670951098203659,-0.004367215558886528,0.30116724967956543,0.06294461339712143,0.24173954129219055,0.29727494716644287,-0.15718279778957367,-0.07833918929100037,-0.4066559970378876,-0.07203617691993713,-0.21134468913078308,-0.27924981713294983,0.34748321771621704,0.1462666094303131,0.1683199256658554,-0.11274849623441696,0.06721124798059464,-0.11349178850650787,-0.10237796604633331,-0.015251354314386845,-0.07769184559583664,-0.053237248212099075,-0.21087533235549927,0.3483206331729889,-0.04550375044345856,0.15614794194698334,0.36734020709991455,0.050453055649995804,0.12909340858459473,-0.1879129409790039,-0.08782070875167847,-0.02173992246389389,-0.39377760887145996,0.04712063819169998,0.2830227017402649,-0.21007396280765533,0.6117445826530457,0.1074589192867279,-0.008852900005877018,-0.08559819310903549,0.1293301284313202,0.2522129416465759],[0.13568101823329926,0.3208101689815521,0.030931012704968452,0.051837258040905,-0.013978204689919949,-0.06393811106681824,-0.10640715062618256,0.019350742921233177,0.017778128385543823,0.06272584944963455,0.20018702745437622,0.09300916641950607,0.42757508158683777,-0.2349502593278885,0.3227769136428833,0.14178302884101868,-0.19113411009311676,-0.23650941252708435,0.07584421336650848,-0.10288123041391373,-0.13408398628234863,-0.09177883714437485,-0.04802743345499039,-0.05966835096478462,0.09735497832298279,0.28051409125328064,-0.2523708939552307,-0.23547543585300446,-0.0802454873919487,0.036738812923431396,0.23136945068836212,-0.15286985039710999,-0.1196831464767456,-0.06049148738384247,-0.29840385913848877,-0.15173262357711792,-0.08429478853940964,0.08283992856740952,0.2523532211780548,-0.06882058084011078,-0.3429320752620697,0.43884941935539246,-0.008107071742415428,0.04503578320145607,-0.21112023293972015,0.03721754625439644,-0.13784867525100708,-0.2683034837245941,0.026857635006308556,-0.025277016684412956,-0.04701024666428566,0.20466163754463196,-0.21373216807842255,0.044995445758104324,0.2197265774011612,0.0022503873333334923,0.0821627601981163,0.24449560046195984,-0.003912708256393671,0.20947904884815216,-0.0680546835064888,0.3269141912460327,-0.32566460967063904,0.07613014429807663],[0.041679345071315765,-0.3725392520427704,-0.20065894722938538,0.04005200415849686,0.4577413499355316,0.394921213388443,0.11096499115228653,0.04467232525348663,-0.2480684071779251,-0.184840127825737,0.21940003335475922,-0.1442093402147293,-0.16134926676750183,0.2991524040699005,0.3952799439430237,-0.4950402081012726,-0.3270050585269928,-0.23329167068004608,-0.44339919090270996,-0.12305277585983276,0.5898075103759766,0.9147632718086243,0.2856226861476898,0.41178226470947266,0.23898664116859436,-0.1676594763994217,-0.02329358272254467,0.3685462176799774,0.07225964963436127,0.4026447534561157,-0.1738160103559494,0.4679829776287079,0.17895035445690155,-0.015669962391257286,0.022523505613207817,-0.4087768495082855,-0.25208157300949097,-0.2736195921897888,0.05911584571003914,-0.15288794040679932,-0.2586677670478821,-0.37912285327911377,-0.07243910431861877,-0.02101089432835579,-0.4628058969974518,-0.2396174669265747,-0.4393918514251709,-0.27763333916664124,0.1984718143939972,-0.18628528714179993,0.07296416908502579,0.4852791130542755,-0.43823757767677307,0.10892634838819504,0.5097218155860901,-0.8602701425552368,0.11869630217552185,-0.09612918645143509,0.3730013370513916,-0.1873060017824173,0.00782486330717802,0.3711494505405426,-0.0207325741648674,0.23830083012580872],[0.372688353061676,0.06092996150255203,-0.10116110742092133,-0.03720639646053314,0.21254879236221313,0.13100233674049377,0.18986552953720093,0.21290598809719086,0.17095664143562317,0.08922984451055527,0.16648423671722412,0.14648588001728058,0.13686737418174744,0.15197215974330902,0.21300020813941956,-0.15596599876880646,0.12904788553714752,0.08044782280921936,0.19090969860553741,-0.07471074163913727,0.22088895738124847,0.12626585364341736,0.17746824026107788,0.0017667452339082956,0.2534964382648468,0.14305728673934937,-0.5886271595954895,0.5009763240814209,0.09879550337791443,-0.1001974493265152,0.3486417829990387,0.3148926794528961,-0.4101720452308655,-0.12506118416786194,0.098356693983078,-0.08093421161174774,-0.20843786001205444,0.3566945195198059,0.008380530402064323,0.16604721546173096,0.3274397552013397,-0.08367911726236343,0.16162709891796112,-0.10954128950834274,-0.16426506638526917,0.004760955460369587,0.2811744511127472,0.45067912340164185,0.33857035636901855,0.3580400049686432,0.009288221597671509,0.1977013647556305,0.10268480330705643,0.5479800701141357,-0.00793500803411007,0.112808458507061,0.15763355791568756,0.03014812432229519,0.034985341131687164,0.11795150488615036,-0.1681162565946579,0.2772442400455475,-0.29853326082229614,0.07324632257223129],[-0.5194210410118103,-0.1667497754096985,0.21460925042629242,0.03902062773704529,-0.46112382411956787,-0.5113223791122437,-0.36049485206604004,0.15376214683055878,0.1642480045557022,0.09736987203359604,-0.30732983350753784,-0.09221198409795761,0.176113098859787,-0.12988270819187164,-0.17936748266220093,0.24034014344215393,0.0678316131234169,0.2561377286911011,-0.012845850549638271,-0.007119137793779373,0.28473204374313354,-0.0681501105427742,0.1578311324119568,-0.34257635474205017,0.32075637578964233,0.06709039211273193,0.2021082192659378,0.23694612085819244,0.4607318937778473,-0.09397367388010025,-0.42466163635253906,-0.0737147256731987,0.02117876335978508,0.22645145654678345,0.024384060874581337,0.45964428782463074,0.10847100615501404,0.08372976630926132,-0.22903621196746826,0.24015524983406067,0.1625462919473648,0.1146727204322815,0.025654928758740425,0.07579143345355988,0.25839969515800476,-0.2266867607831955,-0.18596449494361877,0.01570066623389721,-0.331693172454834,0.06704006344079971,0.3540875315666199,-0.3278762400150299,-0.22973476350307465,0.26443299651145935,-0.1770954430103302,0.22120854258537292,-0.19804131984710693,0.51081383228302,0.6950969696044922,0.05748507380485535,0.07389438897371292,0.3274418115615845,0.21465642750263214,-0.4007413983345032],[-0.08875510096549988,0.027765274047851562,0.5494058132171631,-0.09391072392463684,-0.08537565916776657,0.5241064429283142,0.39799728989601135,0.17628157138824463,-0.22321699559688568,0.2805006504058838,0.6373888850212097,-0.6538482904434204,0.16491802036762238,-0.08688900619745255,-0.11632201075553894,-0.26835203170776367,0.0002747976977843791,-0.07968588173389435,0.05970194563269615,-0.43677687644958496,0.151403546333313,-0.09888950735330582,-0.2525171935558319,0.181204691529274,0.16916050016880035,-0.17361114919185638,0.14310097694396973,-0.11631341278553009,0.319562166929245,0.05280057340860367,0.020575841888785362,0.07585245370864868,0.07309471070766449,0.10003248602151871,0.02622114308178425,0.13049083948135376,-0.32965293526649475,0.2825720012187958,-0.2005590796470642,0.01843961887061596,-0.13469718396663666,-0.10806990414857864,-0.039422083646059036,0.05840782821178436,0.1590462327003479,0.3622839152812958,-0.4634062647819519,0.15925824642181396,-0.17788584530353546,-0.2538520395755768,0.02865401655435562,-0.3503907024860382,0.5104523301124573,-0.017123743891716003,-0.25826773047447205,-0.07048920542001724,-0.2993115186691284,0.16782207787036896,0.4152596592903137,-0.2555677890777588,-0.030261429026722908,0.4660710096359253,-0.07770779728889465,-0.09518006443977356],[0.2915094196796417,-0.35837700963020325,-0.18710587918758392,0.12006297707557678,0.03597863018512726,-0.310522198677063,-0.44339650869369507,0.14896021783351898,-0.19965676963329315,-0.10921727865934372,-0.125340536236763,0.1491764932870865,-0.1351458579301834,0.25980082154273987,-0.46167612075805664,0.24549813568592072,-0.17343974113464355,-0.1764650195837021,0.2236303836107254,-0.21214774250984192,0.24975371360778809,-0.2757551372051239,-0.16413892805576324,0.09959521144628525,0.19592203199863434,-0.0704040378332138,-0.30408430099487305,-0.2014024406671524,0.20931971073150635,0.35489121079444885,-0.049093641340732574,0.3145277798175812,0.04134470224380493,0.014437993057072163,0.09095101058483124,-0.14018824696540833,-0.14267002046108246,0.39654073119163513,-0.31383925676345825,0.1664222627878189,0.04420487582683563,0.3763449192047119,-0.26564231514930725,0.08653546124696732,0.02791907824575901,-0.24056172370910645,0.24375134706497192,-0.07062172889709473,0.15475647151470184,-0.0019087105756625533,0.1449964940547943,0.029444385319948196,0.661925196647644,-0.21889328956604004,0.07093042135238647,0.09891512989997864,-0.07288563251495361,-0.06510952860116959,-0.022014126181602478,-0.02525724284350872,0.05760066956281662,0.010047397576272488,0.06842527538537979,0.08772676438093185],[0.2084839940071106,-0.06582675874233246,-0.2846350073814392,0.022429265081882477,0.06237911805510521,0.06474108248949051,-0.28874829411506653,-0.30183419585227966,-0.12552307546138763,-0.11063938587903976,-0.06495805829763412,0.13156819343566895,0.5317871570587158,0.059517279267311096,-0.028970615938305855,0.07161989063024521,0.09120181947946548,-0.19444119930267334,0.05391009896993637,-0.22208638489246368,-0.24688369035720825,-0.14650067687034607,0.005435673985630274,0.6741456985473633,0.04419057443737984,-0.3722727596759796,-0.20391996204853058,0.3125850260257721,0.05144280567765236,0.2576015293598175,0.10111647844314575,-0.22382374107837677,-0.08343035727739334,-0.15210393071174622,0.014103665016591549,-0.2868633568286896,-0.2571144700050354,-0.29408857226371765,0.06299801915884018,0.16836628317832947,0.462248295545578,-0.2149047553539276,0.15747803449630737,-0.5224559903144836,-0.15612740814685822,0.0942518562078476,-0.2709348499774933,-0.21322539448738098,0.12127222865819931,-0.27831369638442993,-0.2198067307472229,0.03556986153125763,0.1519501507282257,-0.30215147137641907,-0.12046653777360916,0.7986528277397156,-0.3467694818973541,0.05318203940987587,-0.24539850652217865,0.6405739188194275,-0.6369179487228394,0.22921936213970184,0.11798682063817978,-0.03200215846300125],[-0.046823348850011826,-0.38881421089172363,-0.15926435589790344,0.29644227027893066,0.10537498444318771,0.14181175827980042,-0.04373776912689209,-0.040621377527713776,-0.20464348793029785,-0.3110277056694031,0.27589869499206543,-0.6999058127403259,-0.5832843780517578,0.2248210459947586,-0.43651115894317627,-0.03055025450885296,-0.20762336254119873,-0.2921220660209656,0.16694611310958862,-0.021947119385004044,0.0985121876001358,-0.4143919050693512,-0.1595706194639206,0.13893377780914307,0.37918713688850403,-0.07175464928150177,-0.19854231178760529,-0.03197319060564041,-0.0921163409948349,-0.13693487644195557,0.14223557710647583,-0.006431080400943756,-0.20917825400829315,-0.15675590932369232,-0.10396997630596161,0.4941871762275696,0.001958567416295409,0.1298903375864029,-0.4226016402244568,0.11712155491113663,-0.1361987441778183,0.13343514502048492,-0.08101486414670944,0.09326345473527908,0.035011742264032364,0.02124669961631298,-0.0034778036642819643,-0.1323343813419342,-0.035818248987197876,-0.032317254692316055,-0.0368083119392395,-0.5714806914329529,0.08093725144863129,-0.11199504882097244,-0.01900811493396759,0.06746275722980499,-0.27232348918914795,0.053581688553094864,0.09089098125696182,-0.1344255954027176,0.0475037544965744,-0.22487947344779968,0.1575363427400589,-0.43484267592430115],[0.28926363587379456,0.16139420866966248,0.03304476663470268,-0.34365496039390564,0.4567123353481293,0.28432971239089966,-0.1409642994403839,-0.36909356713294983,0.14499904215335846,-0.39151591062545776,0.10343920439481735,0.08868049830198288,0.24061456322669983,-0.1970955729484558,0.11367913335561752,-0.012861491180956364,0.033683765679597855,0.3387777805328369,0.2357502579689026,0.14139407873153687,0.45497754216194153,0.16974854469299316,0.060079969465732574,0.3295561671257019,0.3677150309085846,0.1241680309176445,0.3576837480068207,0.07304040342569351,-0.24183987081050873,0.08031035959720612,0.6075934171676636,-0.02852141484618187,0.4382433295249939,-0.48469632863998413,-0.06084635108709335,-0.23611034452915192,0.16100245714187622,-0.12387779355049133,0.032481372356414795,-0.13428206741809845,0.0002792793093249202,0.03488996997475624,0.19626861810684204,0.16772505640983582,-0.3873593211174011,-0.16766831278800964,-0.0696323961019516,-0.20991826057434082,0.1253465712070465,0.7912495136260986,-0.009261062368750572,0.09862509369850159,0.26490113139152527,0.4569415748119354,0.17332954704761505,-0.27914687991142273,0.35066869854927063,0.24547991156578064,-0.0638914406299591,-0.29033225774765015,0.021243255585432053,0.2214953601360321,-0.061318282037973404,0.2072773426771164],[-0.48920953273773193,-0.2571828067302704,0.05174046382308006,0.013559660874307156,-0.3721112012863159,0.3316582441329956,-0.32705309987068176,-0.4173060357570648,-0.07153208553791046,-0.1841726005077362,0.35980668663978577,-0.03245362639427185,-0.1278837025165558,-0.37351101636886597,0.3475916385650635,0.6848917603492737,-0.3986717462539673,0.07719486206769943,0.4301445782184601,0.06796948611736298,0.2927626371383667,0.02961021661758423,-0.13782095909118652,0.39286166429519653,-0.07723789662122726,-0.05059643089771271,-0.021761350333690643,0.4156496524810791,0.1624506413936615,-0.067193903028965,-0.32562458515167236,0.05878075584769249,-0.12471363693475723,0.10403487831354141,0.20791850984096527,0.02326786518096924,0.08528228849172592,0.33519238233566284,-0.04532879218459129,0.09556222707033157,0.054920606315135956,0.24836428463459015,0.23620112240314484,0.08491835743188858,0.12587404251098633,0.2233498990535736,-0.012124569155275822,0.13511702418327332,0.44216352701187134,-0.1464478224515915,-0.4500654637813568,-0.5172120332717896,-0.18759296834468842,-0.1009410098195076,-0.050455376505851746,0.0920562669634819,0.17876562476158142,-0.2509029507637024,0.0719798281788826,-0.12026819586753845,-0.2788332402706146,-0.14180487394332886,-0.1196853443980217,0.42131853103637695],[-0.10670396685600281,-0.5716983675956726,0.2749420702457428,-0.034325893968343735,-0.363040566444397,-0.12322679162025452,-0.36450889706611633,0.4182088077068329,-0.4372417628765106,0.2300954908132553,0.00418865866959095,-0.07958543300628662,0.05304986611008644,-0.3115624189376831,0.10428392142057419,-0.15505482256412506,0.03376675024628639,-0.3655451834201813,-0.09595296531915665,0.041617099195718765,0.030974706634879112,-0.14196935296058655,-0.15886740386486053,-0.036870427429676056,0.24123495817184448,-0.10738721489906311,-0.01536236796528101,-0.31716665625572205,0.22919657826423645,0.16065704822540283,0.1149640753865242,-0.1984291672706604,0.028768019750714302,0.08027980476617813,-0.16989608108997345,-0.10388918966054916,-0.38816943764686584,-0.06360438466072083,0.14936313033103943,0.049287099391222,-0.3379348814487457,-0.26955682039260864,0.15566885471343994,-0.00686340918764472,0.17323903739452362,-0.21733328700065613,-0.22786596417427063,-0.5678415894508362,-0.08220289647579193,0.14194700121879578,0.4036140739917755,-0.6504500508308411,-0.016001753509044647,0.11623946577310562,-0.2951849699020386,0.2557426989078522,-0.5146540403366089,0.2932530343532562,-0.39936548471450806,-0.02948998473584652,0.16688553988933563,0.10586273670196533,0.2646595239639282,0.060898590832948685],[-0.20194105803966522,-0.30452942848205566,0.41933539509773254,-0.06424077600240707,-0.1275223046541214,-0.052779003977775574,0.23280960321426392,0.07634950429201126,-0.0021047734189778566,0.06169060617685318,-0.11643653362989426,-0.07151824980974197,0.4143458306789398,-0.015516006387770176,0.05554141476750374,0.4752902686595917,-0.0005186719936318696,0.2801898419857025,-0.1260543167591095,-0.22923605144023895,0.2510713040828705,-0.12929609417915344,-0.08658625185489655,0.16424722969532013,0.16123336553573608,0.17637041211128235,-0.3078727126121521,-0.1851484328508377,-0.45676684379577637,0.2608988881111145,-0.05050675570964813,0.0253872312605381,-0.025712240487337112,0.1931261569261551,0.05555078014731407,-0.2304052710533142,-0.06048623472452164,-0.14614219963550568,-0.3311811089515686,0.026586484163999557,-0.3806111514568329,0.01690247654914856,0.026645103469491005,-0.05507209524512291,-0.08776572346687317,0.1411217451095581,-0.12691998481750488,0.06516699492931366,-0.05643884465098381,-0.23329992592334747,-0.2241663932800293,0.017081571742892265,-0.23959581553936005,0.4118691086769104,-0.46821704506874084,-0.308809369802475,-0.11959869414567947,0.08231452107429504,0.1826999932527542,-0.05522199347615242,0.271509051322937,-0.26059484481811523,-0.08050579577684402,0.23009507358074188],[0.060395803302526474,0.12655122578144073,-0.11573313176631927,0.008018062449991703,-0.18151336908340454,-0.19885997474193573,0.02998921647667885,-0.14460167288780212,0.08607006818056107,-0.17831970751285553,-0.35699358582496643,-0.2733429968357086,-0.055195581167936325,-0.029743492603302002,-0.3820977807044983,0.1519951969385147,0.052976373583078384,0.04766717553138733,-0.03519849106669426,-0.1996365338563919,-0.010873619467020035,-0.12731797993183136,-0.36499980092048645,0.0678739920258522,0.27139416337013245,-0.22763077914714813,-0.019047444686293602,-0.4227067828178406,-0.02255048044025898,-0.05283726006746292,0.3778737187385559,0.23339086771011353,0.0977405235171318,-0.11749937385320663,0.20237454771995544,-0.32915735244750977,0.002627992769703269,0.19243714213371277,0.037614595144987106,-0.16320116817951202,0.11581593751907349,0.16903726756572723,0.12122517079114914,-0.010005083866417408,0.15265756845474243,-0.3253256380558014,0.08680986613035202,-0.20355606079101562,-0.17408452928066254,0.006637817248702049,0.011009535752236843,-0.08761638402938843,0.3434619605541229,-0.02673119120299816,-0.33100906014442444,-0.00782330334186554,-0.3611963987350464,0.15004265308380127,-0.24882176518440247,0.14957188069820404,-0.10504026710987091,-0.2822553813457489,-0.13064244389533997,-0.13236069679260254],[-0.11738402396440506,-0.16061913967132568,-0.3369470536708832,0.24533094465732574,-0.03318503126502037,-0.03658116236329079,0.04390501230955124,0.25131848454475403,-0.16801482439041138,0.023444944992661476,0.20852531492710114,-0.3773801624774933,-0.1286037713289261,-0.12345512956380844,0.14716432988643646,-0.25587934255599976,-0.3594028353691101,-0.6369707584381104,-0.014415477402508259,0.06328075379133224,-0.06559965759515762,-0.40278950333595276,0.20027953386306763,0.08903314918279648,0.36027708649635315,-0.25827187299728394,0.14056174457073212,-0.20177936553955078,0.30744946002960205,-0.22024032473564148,-0.04184548556804657,-0.5284577012062073,-0.02450437843799591,0.2610762119293213,-0.08775714784860611,0.4194675385951996,0.10183108597993851,0.1586870551109314,-0.4105442762374878,0.19154603779315948,0.028011124581098557,-0.03508647903800011,0.08995752781629562,-0.2691041827201843,-0.3012913167476654,0.0013898314209654927,-0.21428951621055603,-0.17318421602249146,-0.3100316822528839,0.01530223898589611,-0.13010482490062714,-0.3534456789493561,0.03402966260910034,-0.10901996493339539,-0.14580166339874268,0.31123074889183044,-0.521350085735321,-0.11201387643814087,0.13321195542812347,-0.24697358906269073,-0.10655643790960312,-0.01361615676432848,0.2544550597667694,-0.1352643072605133],[0.1418568193912506,0.09411469846963882,0.5149919986724854,-0.3208255469799042,-0.005900396499782801,-0.1826975792646408,0.0810711607336998,-0.015451240353286266,-0.07082349061965942,0.32264575362205505,-0.013352258130908012,-0.2725644111633301,0.6062064170837402,-0.013767748139798641,-0.13055364787578583,0.0751601904630661,0.39774391055107117,-0.12082519382238388,-0.08410847932100296,0.13650628924369812,0.20359323918819427,0.0041205487214028835,-0.2055778056383133,0.07407849282026291,0.1623309999704361,0.06427001953125,-0.37837204337120056,-0.31481626629829407,0.24982011318206787,-0.06692913174629211,-0.05480542033910751,0.306179016828537,0.10377983003854752,0.136465921998024,-0.07212230563163757,0.38523977994918823,-0.3084937036037445,0.14781828224658966,-0.3488985598087311,-0.1558234989643097,-0.0695008933544159,-0.4838677644729614,0.0018955032574012876,0.24546487629413605,0.2829280495643616,-0.2906530499458313,-0.3262120187282562,0.40450817346572876,0.05169261246919632,0.27396002411842346,-0.06458750367164612,-0.09122151881456375,-0.09066462516784668,-0.11192144453525543,0.4344142973423004,-0.1219523698091507,0.5986465811729431,-0.06920983642339706,0.2586953639984131,-0.3803751468658447,-0.11068905889987946,0.3581545352935791,-0.4648284912109375,-0.5064057111740112],[0.3478248715400696,0.24391207098960876,0.02880573831498623,0.1350078582763672,-0.4159373939037323,0.033762723207473755,-0.39507219195365906,0.21790429949760437,0.12421967834234238,-0.065329909324646,0.14091737568378448,0.008614744991064072,-0.26123982667922974,0.13503210246562958,-0.16843146085739136,-0.6558783650398254,-0.061849284917116165,-0.1322425901889801,-0.17929312586784363,0.20207032561302185,0.38108181953430176,0.5661808252334595,0.06733711063861847,-0.3001915514469147,0.48044291138648987,-0.2159481942653656,-0.10659070312976837,-0.1722133904695511,0.20513193309307098,0.3596111238002777,0.1467459350824356,0.01590169034898281,0.283917635679245,0.19528773427009583,-0.2968653440475464,0.059658706188201904,-0.025911858305335045,0.040295179933309555,0.18733161687850952,0.05291833356022835,0.08427843451499939,0.10145643353462219,-0.13844454288482666,0.18556006252765656,0.1416017860174179,-0.21679113805294037,-0.491436243057251,-0.23847520351409912,-0.21213611960411072,0.09681618958711624,-0.037572216242551804,-0.014809620566666126,0.0714292824268341,-0.06550195813179016,-0.006941698025912046,-0.15853916108608246,-0.14835695922374725,-0.225152850151062,0.07818923145532608,0.16138780117034912,-0.19573810696601868,-0.004750266671180725,-0.07353570312261581,0.14126624166965485],[-0.14259302616119385,0.3763653635978699,-0.029110772535204887,0.0709279254078865,-0.6002464890480042,0.015594174154102802,0.054329514503479004,0.1475142389535904,0.029445186257362366,-0.32542917132377625,-0.2690719962120056,0.312391459941864,0.17381779849529266,-0.1066872775554657,0.9832488894462585,0.020260531455278397,0.3191160559654236,0.07308837026357651,-0.14346514642238617,0.4289342164993286,-0.38671720027923584,-0.12371764332056046,0.2345345914363861,-0.06579340994358063,-0.11116576939821243,0.5615987181663513,-0.2386014759540558,0.22555476427078247,-0.09901448339223862,0.49594569206237793,-0.13459187746047974,-0.3164660632610321,-0.2626807391643524,0.1861276626586914,-0.24876286089420319,-0.4360312521457672,-0.3832906186580658,0.10306259989738464,0.13786596059799194,0.12554150819778442,0.5663807392120361,0.15796726942062378,0.29173171520233154,-0.06124689057469368,-0.4311523139476776,-0.3443731963634491,0.061918869614601135,-0.04777748882770538,-0.49567097425460815,-0.025660838931798935,0.0005153449601493776,0.2112336903810501,-0.7188512682914734,-0.024765459820628166,-0.001418007886968553,0.8781023621559143,-0.05256260931491852,0.041057854890823364,0.16858363151550293,0.6218132376670837,0.11622389405965805,-0.11899445950984955,-0.11562775075435638,-0.536343514919281],[-0.14784592390060425,-0.061079081147909164,-0.06627384573221207,0.013503178022801876,-0.24612806737422943,0.28399142622947693,-0.34166550636291504,-0.038226399570703506,0.5564463138580322,0.1237553283572197,-0.5742576718330383,-0.049511950463056564,0.09955215454101562,-0.03297699615359306,0.12189382314682007,-0.11430170387029648,0.13170261681079865,-0.11839807778596878,-0.027720259502530098,-0.39484307169914246,0.3279048502445221,-0.09980878233909607,0.132972851395607,0.11593825370073318,-0.044380076229572296,0.049914900213479996,0.36938029527664185,0.018999680876731873,-0.22777967154979706,-0.21890243887901306,0.3905965983867645,0.2111968994140625,0.22456490993499756,0.08723797649145126,0.15239056944847107,0.5813911557197571,-0.21313133835792542,0.034460656344890594,0.15839692950248718,0.15179647505283356,-0.4822993874549866,-0.40161609649658203,-0.25256025791168213,0.46110212802886963,0.4392673075199127,0.06383981555700302,-0.271185964345932,-0.4148394465446472,-0.12368685752153397,-0.030414078384637833,-0.36173707246780396,0.5727772116661072,0.26305511593818665,-0.10291744768619537,-0.5218508243560791,-0.5209112167358398,-0.1702389270067215,0.10325771570205688,-0.02636007033288479,-0.5936009287834167,0.10686682909727097,0.016502490267157555,0.6740132570266724,0.04876614734530449],[0.19186308979988098,0.16714142262935638,-0.17332999408245087,-0.43205320835113525,0.4303174912929535,0.3278139531612396,0.23177561163902283,-0.2297343611717224,0.3033909201622009,-0.31407973170280457,0.09974836558103561,0.12288016080856323,0.3996448516845703,-0.14044257998466492,0.011611022055149078,-0.1287347674369812,0.16255885362625122,0.3482588827610016,0.47551748156547546,0.2170792669057846,0.6234725117683411,0.05925024673342705,0.12440290302038193,0.30080127716064453,0.4737957715988159,0.07114022225141525,0.08119215816259384,0.012340688146650791,-0.1415828913450241,0.4140608012676239,0.4529155194759369,0.11431261152029037,0.43179619312286377,-0.2499576061964035,0.06828557699918747,-0.1315191090106964,0.3937847316265106,-0.1773853749036789,-0.08001964539289474,0.3304823637008667,0.08490215986967087,0.2440347522497177,0.18993720412254333,0.12446543574333191,-0.10104245692491531,-0.03612331300973892,0.09318117797374725,-0.09228664636611938,0.25920194387435913,0.39800941944122314,-0.5020755529403687,0.09526850283145905,0.22692683339118958,0.6696487069129944,0.26166531443595886,-0.15948769450187683,0.32694539427757263,0.19549055397510529,0.24738986790180206,-0.013703866861760616,0.05887753888964653,0.2715413272380829,-0.17134855687618256,0.22111263871192932],[0.10661336779594421,-0.09468136727809906,-0.18272893130779266,0.2116653323173523,0.7886033654212952,-0.01796296238899231,-0.5590754747390747,-0.03774503245949745,0.28714025020599365,-0.24597886204719543,-0.496640682220459,-0.02744654007256031,0.028266439214348793,-0.7241554260253906,-0.27604424953460693,0.4370515048503876,0.055619992315769196,0.17201760411262512,0.1753232479095459,-0.09436061978340149,-0.3532645106315613,-0.33763477206230164,-0.5116920471191406,-0.1301550567150116,-0.22793662548065186,0.1143546998500824,-0.351548969745636,-0.11946652829647064,0.22973230481147766,-0.02298419177532196,-0.5420656800270081,-0.15408861637115479,-0.06269326061010361,-0.1023375615477562,-0.17791607975959778,0.18346083164215088,-0.6231311559677124,0.18142664432525635,-0.21664778888225555,-0.13696826994419098,-0.37218186259269714,-0.07975955307483673,0.1469114124774933,0.22781279683113098,-0.12084893137216568,0.06247897073626518,0.019287923350930214,0.488655686378479,0.4138452708721161,-0.01606852561235428,-0.03271213173866272,0.01302084419876337,0.11267074197530746,-0.3363034427165985,0.2899743318557739,0.1659262627363205,-0.12904855608940125,0.23906934261322021,-0.030255001038312912,-0.0104272635653615,0.2921369671821594,0.30814579129219055,-0.13601499795913696,0.25423282384872437],[-0.00785254780203104,0.29680147767066956,-0.06761204451322556,0.49718382954597473,-0.052968624979257584,0.049245685338974,0.0906105563044548,0.39548876881599426,-0.08392279595136642,0.5177698731422424,-0.21047665178775787,-0.14303132891654968,-0.2532225549221039,0.00275274645537138,0.2894907593727112,-0.4669560492038727,0.0538540817797184,0.13326017558574677,0.15352383255958557,-0.5431106090545654,0.1355610489845276,-0.14678476750850677,-0.2415381669998169,-0.1102975606918335,-0.12761111557483673,-0.18880991637706757,0.4572584927082062,0.028043383732438087,-0.12788225710391998,-0.03533056005835533,-0.045637354254722595,0.18749810755252838,0.06594759970903397,-0.4156900942325592,-0.5064930319786072,0.24170470237731934,0.2766498029232025,-0.6296347379684448,-0.39259496331214905,-0.28457215428352356,-0.11282791942358017,-0.12274164706468582,-0.43704953789711,-0.02802582085132599,-0.12830913066864014,-0.22943027317523956,0.05315980315208435,-0.4389534294605255,-0.01838931068778038,0.4993044137954712,0.5246025919914246,-0.060551371425390244,-0.758204996585846,0.02439742721617222,-0.20879092812538147,0.22437945008277893,0.05088703706860542,-0.08782831579446793,0.23751568794250488,-0.4237200617790222,-0.36524277925491333,0.07411666214466095,-0.37675538659095764,0.11054405570030212],[0.18631885945796967,0.1177675649523735,0.00033175203134305775,-0.07520539313554764,-0.22719068825244904,0.01653340645134449,0.16233722865581512,0.06300541013479233,0.1912638247013092,0.14568869769573212,-0.0007882902282290161,0.6154020428657532,0.09942018985748291,0.17441686987876892,0.11241708695888519,-0.11345203965902328,-0.008185755461454391,0.1643446534872055,0.11910860240459442,-0.14113247394561768,0.04601164534687996,0.18659812211990356,-0.08570503443479538,0.18632599711418152,-0.31159332394599915,-0.06369248777627945,0.0872054174542427,0.47193238139152527,-0.23308834433555603,0.25316593050956726,-0.037101373076438904,-0.16909609735012054,-0.15542510151863098,-0.1583559662103653,0.34105488657951355,0.2549755573272705,0.09794838726520538,0.002008108887821436,0.1996547132730484,0.1057395413517952,-0.16478994488716125,-0.09664501249790192,-0.1841517835855484,-0.025340216234326363,-0.187723308801651,0.10016719996929169,0.004121661186218262,0.3933112621307373,0.11838614195585251,0.03742207586765289,-0.09427585452795029,0.383610337972641,-0.50843346118927,-0.2139815092086792,-0.14040468633174896,-0.13164927065372467,0.09433252364397049,0.21799319982528687,-0.04242025688290596,-0.17956048250198364,0.2712617814540863,0.09725191444158554,0.1197623610496521,0.13409294188022614],[0.34045958518981934,-0.21555934846401215,0.17135117948055267,-0.09026166051626205,-0.14539988338947296,0.0716928243637085,-0.3991023600101471,-0.09469339996576309,0.3810354769229889,0.20446620881557465,0.10596548020839691,0.5907472968101501,-0.0747552290558815,-0.16417384147644043,-1.0515869855880737,-0.2546636760234833,0.49043214321136475,0.1797270029783249,0.4063505232334137,-0.0021406784653663635,0.6030057072639465,-0.21350005269050598,0.4177291989326477,0.21694739162921906,-0.21911773085594177,0.23743975162506104,-0.08070981502532959,0.2063678801059723,-0.23576731979846954,0.25215184688568115,-0.12118469178676605,-0.03746814280748367,0.42808789014816284,0.5933435559272766,0.2773520350456238,0.1730077564716339,0.3995130956172943,0.35967981815338135,-0.08311647921800613,0.019722703844308853,0.16891369223594666,0.0014259840827435255,0.5061221122741699,0.3404756784439087,0.34891119599342346,0.045236095786094666,0.2533469796180725,-0.48375779390335083,-0.32931405305862427,-0.36591365933418274,-0.22852806746959686,0.23414459824562073,0.5387922525405884,-0.4801359474658966,0.3337491750717163,0.112579844892025,-0.12528488039970398,0.0167765561491251,0.128289133310318,-0.4223233759403229,0.04611419886350632,-0.21171100437641144,-0.011433322913944721,-0.1439184844493866],[-0.08009073138237,-0.07863137125968933,0.1265600025653839,-0.002160596428439021,-0.08201489597558975,0.3754726052284241,-0.24875718355178833,0.16249236464500427,-0.47829416394233704,-0.18175217509269714,-0.18536046147346497,-0.3441244661808014,-0.21383588016033173,-0.17689736187458038,-0.07617626339197159,0.21145206689834595,0.0210361797362566,0.09576789289712906,-0.08592048287391663,0.1825939565896988,0.2300926148891449,-0.16060321033000946,-0.32539960741996765,-0.034064166247844696,0.031097520142793655,-0.17020578682422638,-0.2968599200248718,-0.032936759293079376,-0.5259482264518738,0.15268774330615997,0.1348954737186432,0.07533777505159378,0.12313519418239594,0.1633233278989792,0.038788091391325,0.09673997759819031,-0.15456680953502655,0.2536986172199249,-0.09548737853765488,-0.040741339325904846,0.24501867592334747,0.13125747442245483,0.3444215655326843,0.3905656337738037,0.06441684812307358,-0.012216750532388687,-0.0051165297627449036,-0.09129800647497177,-0.27998343110084534,0.020526347681879997,-0.19409556686878204,-0.2448924034833908,-0.3751898407936096,-7.787588401697576e-05,0.03197651728987694,0.4039170444011688,-0.21493643522262573,-0.33186158537864685,-0.13872836530208588,-0.236565962433815,0.015835996717214584,-0.29431936144828796,0.19283512234687805,0.20947353541851044],[0.08700322359800339,0.06691837310791016,0.05120420455932617,0.08639509230852127,0.17421193420886993,-0.24473975598812103,0.05001196637749672,-0.050772830843925476,0.008383838459849358,-0.14257380366325378,-0.13626332581043243,-0.22294621169567108,-0.12044217437505722,0.023313557729125023,-0.14045818150043488,0.004646215122193098,0.3676152229309082,-0.08703815191984177,-0.4619595408439636,-0.02419731579720974,-0.20496612787246704,-0.26490864157676697,-0.28960180282592773,-0.22549189627170563,0.24269594252109528,-0.16603393852710724,0.04109072685241699,-0.05806344747543335,-0.1522635668516159,-0.1539517045021057,0.46819624304771423,-0.05251418054103851,0.030689474195241928,-0.2366170734167099,-0.2722916305065155,-0.37620338797569275,0.05683888494968414,0.10520195960998535,0.02331535890698433,-0.34333887696266174,-0.12614984810352325,-0.08725102990865707,-0.03920857608318329,0.1718139350414276,-0.02544936165213585,-0.14234724640846252,-0.1440764218568802,0.04348747804760933,-0.608969509601593,-0.10916507244110107,0.03825811669230461,-0.03687169775366783,0.25596749782562256,0.2525556683540344,0.21474970877170563,-0.3231033682823181,-0.2776574492454529,-0.05831504613161087,-0.35766077041625977,0.06171313300728798,-0.35306161642074585,-0.3939550817012787,-0.3891921639442444,-0.49010640382766724],[-0.24550193548202515,-0.13979651033878326,-0.15463052690029144,0.09215418994426727,-0.22566398978233337,-0.13430528342723846,0.2740589380264282,0.09198634326457977,0.28974732756614685,0.051214978098869324,-0.1679920256137848,-0.3229389488697052,-0.34927886724472046,-0.1673237681388855,0.41146621108055115,-0.29596105217933655,0.15165963768959045,-0.3482864201068878,0.12961536645889282,-0.01323904749006033,0.18548008799552917,0.0165916346013546,-0.18764883279800415,0.2833150625228882,0.07388712465763092,0.3516136407852173,0.31920990347862244,0.38194307684898376,0.2904582917690277,-0.15490518510341644,0.11376947164535522,0.15339991450309753,0.16101700067520142,0.02694454975426197,-0.04614150896668434,0.5755423903465271,0.05839945748448372,-0.29385921359062195,0.08662836253643036,0.04631385952234268,-0.03148733824491501,-0.23344510793685913,-0.5316760540008545,0.17699545621871948,0.11323247104883194,-0.2329898625612259,0.011068984866142273,0.18828372657299042,-0.19905918836593628,0.06051011011004448,-0.15405696630477905,0.21057747304439545,-0.16089242696762085,0.2417331039905548,0.13167744874954224,-0.022144490852952003,-0.3972606360912323,-0.28313368558883667,0.029178380966186523,0.003334624692797661,0.20625174045562744,-0.15810003876686096,0.1629764437675476,-0.3122701346874237],[-0.28981658816337585,-0.29224324226379395,0.36769434809684753,0.20176583528518677,-0.19718711078166962,-0.06617092341184616,-0.31157758831977844,0.2529306709766388,-0.3633915185928345,-0.36632370948791504,-0.1896790713071823,-0.4215258061885834,0.17131054401397705,-0.20527790486812592,-0.39734071493148804,0.02732333168387413,-0.04331536218523979,0.2806541323661804,0.25349995493888855,-0.26412785053253174,-0.3414853811264038,0.27183717489242554,-0.24110761284828186,0.33135244250297546,0.4035477638244629,0.054237280040979385,-0.09202994406223297,0.49088212847709656,0.009910181164741516,-0.086540587246418,0.08844882249832153,-0.11949291080236435,0.11280688643455505,-0.15361392498016357,0.2572380602359772,0.41829028725624084,0.025746002793312073,0.2794269621372223,0.3501374125480652,-0.029085366055369377,0.3522091209888458,-0.056570906192064285,0.1280878633260727,-0.02977728471159935,0.05865030735731125,0.11353948712348938,-0.3588949143886566,0.35320204496383667,0.0413709357380867,0.28796592354774475,-0.1374192088842392,0.030666867271065712,0.20835311710834503,0.2004067450761795,-0.2629508376121521,0.15661905705928802,-0.003118308261036873,-0.5678576827049255,0.34089329838752747,0.08287601917982101,-0.022755028679966927,0.10172799229621887,0.2458769977092743,-0.5577300786972046],[0.04489687457680702,-0.017060736194252968,0.05720276013016701,-0.11360599845647812,0.002207807032391429,-0.5258939266204834,0.3817225992679596,0.03953389823436737,-0.060057204216718674,0.13429993391036987,-0.03848167136311531,0.11203625053167343,0.11664024740457535,-0.020815031602978706,-0.5000877976417542,0.17399264872074127,0.011249670758843422,0.030562616884708405,-0.06938167661428452,0.057050671428442,-0.06372657418251038,-0.23728245496749878,-0.01711270399391651,0.21474385261535645,0.24740618467330933,-0.1500220149755478,0.1545385867357254,0.1762431114912033,0.24715326726436615,0.07759127765893936,-0.2771035134792328,0.636543333530426,-0.24041686952114105,0.020602373406291008,-0.1778893768787384,0.5179126262664795,0.8760398626327515,-0.14415480196475983,-0.27385810017585754,-0.012511814944446087,0.4405800998210907,0.09289868175983429,-0.4651506543159485,-0.3734945058822632,0.34054872393608093,0.22915790975093842,0.2875872850418091,0.16870443522930145,0.12982413172721863,0.1834946721792221,0.04276625066995621,0.13460581004619598,0.45711567997932434,0.4761827290058136,-0.29677891731262207,-0.04060661420226097,0.27650660276412964,-0.20080971717834473,-0.058039505034685135,0.10331074148416519,-0.13700324296951294,-0.40172630548477173,0.06174032762646675,-0.16624735295772552],[-0.38031554222106934,-0.07685517519712448,0.32865655422210693,-0.005307987332344055,0.3467976748943329,0.12583501636981964,0.11966780573129654,0.3025859594345093,-0.0011079208925366402,0.10708773881196976,-0.20058980584144592,0.05173603072762489,0.2569601833820343,-0.4203736484050751,0.08783265948295593,-0.47912418842315674,0.05945969745516777,0.43813711404800415,0.053176943212747574,0.1273195892572403,0.1898784339427948,-0.06932128220796585,-0.8415751457214355,0.07474341988563538,-0.03394559770822525,0.17177733778953552,-0.04415212199091911,-0.17310447990894318,-0.12993524968624115,-0.27810409665107727,0.09121113270521164,0.19383648037910461,-0.06366682797670364,0.05561935529112816,0.4094233512878418,0.035516735166311264,0.0021019645500928164,-0.22706834971904755,0.014553704299032688,0.2227168083190918,-0.0535050630569458,0.06546706706285477,0.1939942091703415,-0.20743517577648163,-0.2859959304332733,-0.11298882216215134,-0.03300827369093895,-0.025097625330090523,-0.30266550183296204,0.0703398585319519,-0.054372843354940414,0.055575765669345856,0.26397398114204407,-0.4305320382118225,0.22595006227493286,-0.5945980548858643,-0.5328211784362793,-0.11815258115530014,0.14934015274047852,-0.002267947420477867,0.20659594237804413,0.1919783651828766,-0.2384534478187561,-0.16388455033302307],[-0.2615158259868622,-0.2722827196121216,-0.09337574243545532,0.13838155567646027,0.08357834815979004,-0.15065240859985352,0.14218921959400177,0.04179229959845543,0.06990470737218857,0.02063213661313057,0.11444474011659622,0.11911073327064514,0.23702861368656158,-0.4687870144844055,0.2333049476146698,-0.005660354625433683,-0.6871716380119324,-0.07401146739721298,0.11734601855278015,-0.11957200616598129,0.07590886205434799,-0.3131442964076996,0.34225448966026306,0.00031190289882943034,-0.056454092264175415,-0.08047888427972794,0.032636575400829315,-0.0568004809319973,-0.32646656036376953,-0.2793111801147461,-0.08956627547740936,-0.3689771294593811,-0.24332432448863983,-0.23855215311050415,-0.08430580049753189,-0.10971438139677048,-0.37295347452163696,0.033741649240255356,0.3001410961151123,0.035051073879003525,-0.23905929923057556,0.2177056074142456,-0.23106886446475983,0.179057776927948,-0.2601163983345032,0.34485873579978943,0.07152188569307327,0.0777498334646225,0.037490103393793106,-0.2464613914489746,0.11092199385166168,-0.03262365981936455,-0.32164376974105835,0.41875481605529785,0.44740381836891174,0.22066183388233185,-0.30240005254745483,0.47332629561424255,-0.018056418746709824,-0.22907529771327972,-0.1485074758529663,0.40569642186164856,-0.24138431251049042,0.3385472893714905],[0.06583563983440399,-0.09034557640552521,0.31714531779289246,-0.20951862633228302,-0.5876949429512024,0.1792013943195343,-0.06565779447555542,0.05588319152593613,0.014878708869218826,0.19481748342514038,-0.23421716690063477,0.3753415644168854,0.6063799262046814,0.4447021484375,0.2403889298439026,0.1583363562822342,0.25524836778640747,0.05441154167056084,0.2961536943912506,-0.0575057677924633,0.4423312842845917,0.3974379599094391,0.08993832021951675,-0.06674080342054367,0.3006371557712555,-0.3238784670829773,0.2645553946495056,-0.0699286088347435,0.4275659918785095,0.17346099019050598,-0.17736484110355377,-0.08056094497442245,-0.19501329958438873,0.06438352912664413,0.4502992033958435,0.28140655159950256,-0.25039616227149963,-0.18621280789375305,-0.039090581238269806,0.15756769478321075,-0.14971260726451874,-0.24103079736232758,-0.4876043498516083,0.0361926294863224,-0.0841650515794754,0.09042703360319138,-0.0403415709733963,0.4330137073993683,0.1871357560157776,-0.1779862344264984,-0.08198656141757965,-0.08305919915437698,0.2906583845615387,0.0007402334013022482,-0.45309457182884216,0.08424603939056396,-0.07827754318714142,-0.002390126930549741,0.07111354172229767,0.005611847620457411,0.09507999569177628,-0.11202632635831833,-0.19514226913452148,0.10810770839452744],[0.0014581725699827075,-0.08907172828912735,-0.2952061891555786,-0.3323967456817627,-0.06394396722316742,-0.1241980567574501,-0.33742135763168335,0.2456607073545456,-0.1402159333229065,0.2680659890174866,-0.45428702235221863,-0.35939109325408936,-0.17861689627170563,-0.08005496859550476,-1.8020757124759257e-05,0.03925027325749397,-0.27301499247550964,-0.08874999731779099,-0.02836586721241474,0.033510614186525345,0.1429419368505478,-0.4038742780685425,-0.07602989673614502,-0.6278906464576721,0.16199356317520142,0.21626143157482147,0.2533784508705139,-0.08715160191059113,-0.08286689966917038,-0.4408055245876312,-0.07852110266685486,-0.17528648674488068,-0.1511327475309372,-0.18685434758663177,0.018630731850862503,-0.24827547371387482,0.4557682275772095,0.2775439918041229,-0.14946115016937256,0.14613060653209686,-0.15357045829296112,0.08711828291416168,0.16020919382572174,-0.16588041186332703,-0.18801841139793396,-0.6585586071014404,0.06577294319868088,0.06668847799301147,-0.23912814259529114,0.025300614535808563,0.21259060502052307,0.23285800218582153,-0.1562252640724182,-0.11962992697954178,0.2851329445838928,-0.018936386331915855,0.19237440824508667,-0.2897856533527374,0.1927584856748581,-0.1287727952003479,-0.40859001874923706,-0.05923973396420479,-0.15264040231704712,0.27674490213394165],[-0.2113318294286728,-0.008475786074995995,-0.27867546677589417,0.17234690487384796,0.3210372030735016,0.08464857190847397,0.3140237033367157,0.009002416394650936,0.14242501556873322,-0.08637364953756332,0.0020777438767254353,0.09795485436916351,-0.0024354541674256325,-0.1448983997106552,0.05129683390259743,-0.21307022869586945,0.2503257989883423,-0.11804277449846268,-0.0005343679222278297,-0.3413982689380646,0.006210259161889553,-0.006919489242136478,-0.19561851024627686,0.26137927174568176,-0.16698391735553741,0.0025593540631234646,0.13563460111618042,0.2596074938774109,0.09313791245222092,0.2997218072414398,-0.00661094905808568,-0.20163698494434357,-0.008400510996580124,0.25344809889793396,-0.3022558093070984,-0.0858171284198761,0.09225150942802429,-0.1904291808605194,-0.19559308886528015,-0.1667226105928421,-0.16276009380817413,0.010459991171956062,-0.2646849453449249,0.4639609754085541,0.13269150257110596,-0.30202633142471313,0.1638355702161789,-0.45572102069854736,-0.13853846490383148,-0.06698429584503174,0.08656052500009537,0.11103159189224243,0.16316349804401398,-0.0391010120511055,-0.1708860993385315,-0.31917819380760193,-0.5090392827987671,0.0512189082801342,0.24970367550849915,0.40952327847480774,0.06607268750667572,0.057669833302497864,-0.08954028785228729,-0.1550527811050415]]},"1-":{"kernel":[[-0.26743626594543457,-0.045450858771800995,0.11679524928331375,0.2761901319026947,-0.015738805755972862,0.2657572329044342,-0.3108308017253876,-0.33893880248069763,0.2016131430864334,-0.06123536452651024,-0.01408855989575386,0.06675797700881958,0.1141224279999733,-0.4850253462791443,-0.048313189297914505,-0.4631669819355011,-0.3216460943222046,-0.2875167727470398,0.25646671652793884,-0.17623841762542725,-0.1803867369890213,0.06439608335494995,-0.06277147680521011,-0.1867392361164093,0.31495508551597595,0.05533337965607643,0.005797234363853931,-0.1128426045179367,-0.03475402295589447,0.20108038187026978,0.22844542562961578,-0.04956851899623871,0.0692010372877121,-0.09935309737920761,0.02558581344783306,0.09448088705539703,-0.025995710864663124,-0.10071517527103424,-0.0784577950835228,0.12945377826690674,0.007968653924763203,-0.04494510963559151,-0.2806192636489868,-0.05239206179976463,-0.04406510666012764,-0.04300824552774429,0.05748021975159645,-0.2536121904850006,0.22864075005054474,0.01996566914021969,-0.35575616359710693,0.04548037797212601,0.04930390045046806,-0.027075178921222687,0.3632258176803589,-0.18607132136821747,0.06709210574626923,-0.014487965032458305,-0.06913875043392181,0.09009240567684174,-0.26383155584335327,0.20724312961101532,-0.5637626647949219,0.011090355925261974],[0.3291241526603699,-0.019349796697497368,-0.37660443782806396,-0.17377686500549316,-0.004009638912975788,0.1259789913892746,-0.46438068151474,0.1303778886795044,0.40181371569633484,0.10865318030118942,-0.13576678931713104,-0.31302523612976074,0.3510534465312958,-0.09790397435426712,0.007583316881209612,0.09072849899530411,-0.048597078770399094,-0.18280479311943054,0.5602684020996094,0.27251824736595154,-0.4878624975681305,-0.472932368516922,-0.06771063059568405,0.23587940633296967,0.356583833694458,0.10285603255033493,-0.23695732653141022,-0.0499393604695797,-0.04648875072598457,-0.7362135648727417,-0.14069466292858124,-0.6644201874732971,0.033355314284563065,0.17083099484443665,-0.3315642476081848,-0.38079193234443665,-0.09924176335334778,-0.38134536147117615,-0.1828860342502594,-0.059059105813503265,-0.4735894203186035,0.08358392119407654,0.049893736839294434,-0.09548027813434601,0.09925520420074463,0.2871626913547516,-0.302077054977417,0.1529335379600525,0.09312194585800171,0.27902188897132874,0.21407611668109894,-0.0711771622300148,0.09543879330158234,0.24502894282341003,-0.3849114775657654,-0.00016342727758456022,-0.13256439566612244,0.11355256289243698,0.12188101559877396,0.14270082116127014,-0.048593465238809586,-0.25785765051841736,-0.036464620381593704,0.3268452286720276],[-0.0436934195458889,0.14090029895305634,-0.39892175793647766,-0.1256905496120453,-0.08739309757947922,-0.2504299283027649,-0.1210881695151329,-0.04793814942240715,-0.02019219659268856,0.14622502028942108,0.0036641100887209177,0.2731722593307495,0.1168762668967247,0.257917195558548,0.14872333407402039,0.23655784130096436,-0.05372932553291321,0.16130825877189636,0.30548349022865295,0.1178942546248436,0.002783255884423852,0.0064104110933840275,-0.10542523115873337,-0.4051705002784729,-0.1677452176809311,-0.046259183436632156,0.26239436864852905,-0.1059265062212944,0.15116436779499054,0.04609803482890129,-0.3371734619140625,-0.16237381100654602,-0.15766912698745728,0.01107314508408308,-0.2479499876499176,0.14183805882930756,-0.06350918859243393,-0.17342427372932434,0.05157986283302307,0.4014239013195038,-0.15491731464862823,-0.32006049156188965,-0.14625848829746246,0.3706331253051758,-0.03154098987579346,-0.024055805057287216,-0.026650525629520416,0.31753814220428467,-0.23136228322982788,-0.06629335135221481,0.07509589940309525,-0.17006196081638336,0.03114229068160057,-0.1413520872592926,0.10968222469091415,0.03855779021978378,0.2466915249824524,0.2594064176082611,0.22454902529716492,0.002874875208362937,-0.027195502072572708,-0.0656510442495346,-0.03561113402247429,0.08478052169084549],[-0.36830711364746094,-0.039626043289899826,-0.022345401346683502,-0.46198365092277527,-0.029066355898976326,-0.09180481731891632,0.06658425182104111,-0.05800991132855415,0.11417541652917862,0.20712809264659882,0.10919508337974548,0.11216196417808533,0.1670193076133728,-0.22688758373260498,-0.0055608744733035564,-0.0782572478055954,0.000253179925493896,0.06858190894126892,-0.23283396661281586,-0.011466193944215775,0.10262896120548248,-0.03954687342047691,0.17250379920005798,-0.39310377836227417,0.16601575911045074,-0.32554343342781067,0.2841035723686218,-0.19289430975914001,0.15658392012119293,0.154367133975029,-0.3573194444179535,0.02109498530626297,-0.05587860196828842,0.19974081218242645,0.17090535163879395,0.03807355836033821,-0.3362828493118286,-0.012943328358232975,0.19064565002918243,-0.1555209457874298,-0.06857441365718842,0.14967583119869232,0.14828643202781677,-0.2147284597158432,-0.054919302463531494,0.07980596274137497,0.0039337328635156155,0.010538746602833271,-0.07520833611488342,0.056700944900512695,0.2679133713245392,-0.006193401291966438,0.027861781418323517,0.1656377613544464,0.20443175733089447,-0.024123888462781906,0.05597065016627312,-0.053558867424726486,-0.19719620048999786,0.061035387217998505,-0.03687335550785065,-0.42268678545951843,0.16502560675144196,-0.6332774758338928],[-0.18614542484283447,0.027843067422509193,-0.09753675013780594,0.28762078285217285,-0.13214103877544403,-0.24558645486831665,0.07453759014606476,-0.11143351346254349,-0.10132899880409241,-0.28035423159599304,0.22075949609279633,0.06788189709186554,0.001770990900695324,-0.025780154392123222,0.06966181844472885,0.011834194883704185,-0.11971821635961533,0.10836280882358551,-0.3503061532974243,0.022478068247437477,-0.12393611669540405,0.14950649440288544,0.0017896428471431136,0.1320422887802124,-0.18158477544784546,-0.47050511837005615,0.1467563807964325,0.18106721341609955,-0.09993287175893784,-0.00688561424612999,0.12143807858228683,-0.04901856184005737,-0.2692728042602539,-0.0636596530675888,0.26619064807891846,0.08450224250555038,-0.5002183318138123,0.19116467237472534,0.010329640470445156,-0.039336297661066055,-0.14434529840946198,-0.11292362213134766,-0.2187645435333252,0.5513550639152527,0.12838225066661835,0.03694707527756691,-0.07495251297950745,-0.06604235619306564,-0.43185335397720337,-0.07495780289173126,0.23973001539707184,-0.20470817387104034,-0.27861878275871277,-0.2549920678138733,0.020044388249516487,-0.08772288262844086,-0.06455447524785995,-0.04334202781319618,0.0017278020968660712,0.17359210550785065,0.11002839356660843,0.1198016107082367,-0.10879980027675629,0.15950031578540802],[-0.3643198013305664,0.05759911984205246,0.07263310998678207,0.2857157289981842,0.05202551931142807,-0.016332974657416344,0.2989010214805603,0.22241435945034027,-0.24597401916980743,-0.07763122767210007,-0.16693083941936493,0.005896305199712515,-0.036695655435323715,-0.06663268059492111,0.11142117530107498,-0.24947743117809296,-0.6210442781448364,0.05619688704609871,0.0737682580947876,-0.36654189229011536,0.19527404010295868,-0.22059284150600433,-0.07584181427955627,0.06226373463869095,-0.237465038895607,-0.060477856546640396,0.2958969473838806,0.30093809962272644,0.23395921289920807,0.31237828731536865,-0.006575702223926783,-0.09420768916606903,0.17255528271198273,0.002065388485789299,-0.10628219693899155,0.16555999219417572,-0.026425126940011978,-0.10192712396383286,0.24409665167331696,0.0030341167002916336,-0.3201633393764496,-0.05518477410078049,-0.5111134648323059,0.02322019636631012,0.33057913184165955,0.17567209899425507,-0.13676415383815765,0.09737082570791245,0.16017961502075195,0.03879712149500847,0.06069653108716011,0.44184988737106323,-0.06614940613508224,-0.015793142840266228,-0.05324941873550415,0.16048365831375122,-0.041062477976083755,-0.2451333999633789,-0.30305227637290955,-0.36931556463241577,-0.1096445620059967,-0.1745721399784088,0.0022502667270600796,-0.17196790874004364],[-0.027697432786226273,0.07255055010318756,-0.08049818128347397,-0.07090035080909729,0.08500698953866959,0.16841021180152893,0.141435906291008,-0.07534342259168625,0.2969614565372467,0.006775519344955683,0.2210845947265625,0.2308795154094696,-0.518779993057251,0.025103434920310974,0.0074713267385959625,-0.09635302424430847,-0.10363908857107162,-0.3322764039039612,-0.17622829973697662,-0.14843519032001495,0.025827690958976746,-0.32508862018585205,-0.11558207869529724,-0.45866483449935913,-0.01833818480372429,-0.10343074798583984,0.06878001987934113,-0.08274557441473007,0.12090004980564117,0.20742368698120117,0.01775515079498291,0.051610950380563736,-0.16666604578495026,0.036481115967035294,-0.12994714081287384,-0.11875002831220627,-0.21507374942302704,-0.17056824266910553,0.04647849127650261,-0.3348298668861389,0.0024030408822000027,-0.23871102929115295,-0.0739004984498024,0.02969861589372158,0.1796654611825943,0.15349572896957397,0.10197514295578003,-0.4893631041049957,-0.050025563687086105,-0.10132608562707901,0.03817063570022583,-0.310038298368454,-0.4359849691390991,0.6162744760513306,0.19219501316547394,-0.27032408118247986,-0.2652655839920044,0.2918093502521515,-0.14988909661769867,-0.18749423325061798,0.13660190999507904,0.19661137461662292,-0.2592012584209442,0.09456371515989304],[0.1052938774228096,0.12065160274505615,-0.05361735820770264,0.5521624684333801,0.030068956315517426,0.6666072607040405,0.013437983579933643,-0.5923601388931274,0.29468172788619995,-0.25773417949676514,-0.15599097311496735,0.007967347279191017,0.018788812682032585,0.5417439341545105,0.07644592970609665,-0.5619966983795166,-0.3296848237514496,-0.31727007031440735,-0.03304644301533699,-0.08785971999168396,-0.15804018080234528,0.13222630321979523,0.31648755073547363,0.09011980146169662,-0.2559255063533783,-0.2253107875585556,0.3050757348537445,0.7380853295326233,-0.040737710893154144,0.36793485283851624,0.2196718007326126,0.017939185723662376,0.021730860695242882,-0.0783960372209549,-0.14808739721775055,0.43720245361328125,-0.02964303083717823,0.24483637511730194,-0.33840930461883545,0.03239365667104721,-0.40660762786865234,-0.10105833411216736,-0.0634654238820076,0.248740553855896,0.7957949042320251,-0.3234988749027252,0.32653114199638367,0.26578375697135925,-0.320022851228714,-0.04236673563718796,-0.11018981039524078,0.13351532816886902,0.11599016934633255,0.07729709893465042,0.06829062104225159,0.23131833970546722,0.0033867615275084972,0.02052549459040165,-0.2568856179714203,-0.01930275745689869,0.38318338990211487,0.1468512862920761,-0.32290560007095337,0.15072579681873322],[0.2080536186695099,-0.24047616124153137,0.02180837094783783,-0.00939906295388937,-0.42290228605270386,-0.02432839386165142,0.1148785725235939,-0.30442532896995544,0.009067730978131294,0.17954860627651215,0.22423212230205536,0.08008087426424026,-0.021203044801950455,-0.7209808826446533,0.0811237096786499,0.31229284405708313,-0.14376142621040344,-0.29375243186950684,0.11631797254085541,0.12631341814994812,-0.054289158433675766,0.047109805047512054,-0.30617207288742065,0.06809300929307938,-0.229570209980011,-0.06261604279279709,-0.015552562661468983,-0.011483028531074524,-0.08230596780776978,-0.04743136838078499,0.01954956166446209,-0.14324061572551727,0.08544530719518661,0.2989117205142975,0.14615342020988464,-0.13964296877384186,-0.21396465599536896,0.024345753714442253,-0.07873869687318802,-0.18435806035995483,0.18546423316001892,0.19778144359588623,-0.03993528336286545,0.3217064440250397,0.1309048980474472,-0.1797427535057068,0.07454788684844971,0.20242853462696075,0.00952130276709795,-0.030930470675230026,0.20142149925231934,-0.11007588356733322,0.06720225512981415,-0.40425142645835876,0.32025861740112305,0.022005492821335793,0.05290667340159416,-0.005494378041476011,0.47384530305862427,-0.15768134593963623,-0.15373599529266357,0.08674130588769913,0.19761349260807037,0.14968696236610413],[-0.0007909057312645018,0.23866327106952667,0.11116695404052734,0.6021950840950012,0.11413966119289398,-0.24077221751213074,-0.28087079524993896,0.42524346709251404,0.09014894813299179,0.04314917325973511,-0.03703123331069946,-0.037900522351264954,0.05711221694946289,-0.2124212384223938,-0.3444691002368927,0.2051137089729309,0.10247451812028885,-0.17466257512569427,-0.04440908133983612,0.04347701370716095,0.19444513320922852,-0.4260897934436798,0.14881977438926697,0.05461360141634941,0.24091321229934692,-0.060243286192417145,-0.3292699456214905,-0.12436486780643463,0.0882217213511467,0.0015559119638055563,0.1190003827214241,-0.03057045489549637,0.27694424986839294,0.04295249655842781,0.7052561640739441,-0.165618896484375,-0.02035907283425331,-0.2512781023979187,0.013584359548985958,0.20497678220272064,-0.018342137336730957,0.05093057081103325,-0.1389419287443161,0.16623763740062714,0.48384010791778564,0.12111283838748932,-0.2738769054412842,0.301069438457489,-0.38884004950523376,-0.712998628616333,0.34862202405929565,0.2312387079000473,0.4544243812561035,0.05064701661467552,0.199254110455513,0.12968847155570984,-0.0865856185555458,-0.1216379776597023,-0.1194024607539177,-0.10231497138738632,0.3085429072380066,0.11682945489883423,-0.17115534842014313,-0.07055845111608505],[-0.11253907531499863,0.09016972035169601,0.047363054007291794,0.439392626285553,0.08896669000387192,0.48770833015441895,-0.0609353631734848,0.08753371238708496,0.40023648738861084,0.7145130038261414,-0.2624756395816803,0.07898204773664474,0.3072021007537842,-0.22333957254886627,0.5550687313079834,-0.25342172384262085,0.20721009373664856,0.07917243242263794,0.20510460436344147,-0.05629454925656319,0.26321184635162354,-0.02465403638780117,0.054106563329696655,-0.377140074968338,-0.1834397166967392,0.054667163640260696,0.21580636501312256,-0.11763118207454681,-0.3916243314743042,-0.2118798941373825,-0.03859031945466995,-0.06232185289263725,0.17979386448860168,-0.1412298083305359,0.17540335655212402,0.06738101691007614,-0.36719629168510437,-0.3106410503387451,-0.38422197103500366,-0.12707123160362244,-0.010179679840803146,-0.5602110028266907,-0.0588340163230896,0.23740029335021973,-0.08113216608762741,-0.02154865302145481,-0.10853590816259384,-0.36506757140159607,-0.6349090337753296,0.14874321222305298,0.31110766530036926,-0.21231365203857422,0.0644022673368454,0.07506179064512253,-0.07991592586040497,0.08754673600196838,0.4543735682964325,-0.11587056517601013,-0.13193362951278687,0.12949250638484955,-0.16299012303352356,-0.38908883929252625,-0.15321753919124603,0.0528806671500206],[-0.13727927207946777,-0.3214471936225891,-0.0886259377002716,0.034188706427812576,0.44525086879730225,0.013745706528425217,0.01582491770386696,-0.09872020781040192,0.09032091498374939,0.005749200005084276,-0.29839399456977844,-0.4313685894012451,-0.11711698770523071,-0.06559453904628754,-0.3694491684436798,0.00585772143676877,0.2726167142391205,-0.353315144777298,0.20866072177886963,-0.09161365777254105,-0.32414233684539795,0.24542637169361115,0.2577638328075409,0.6062048673629761,-0.29253828525543213,0.10749474167823792,-0.22416187822818756,0.17361357808113098,-0.09609131515026093,-0.051008909940719604,0.1739605814218521,-0.235229030251503,-0.39932817220687866,0.2865469753742218,-0.06179778277873993,-0.02394331432878971,0.2925029397010803,0.016936983913183212,-0.22743761539459229,0.15386518836021423,-0.17800430953502655,-0.10550976544618607,0.07075589895248413,-0.028893234208226204,-0.23144100606441498,0.2659548223018646,0.46412888169288635,-0.45122408866882324,-0.24003084003925323,-0.11445128917694092,