{"params": {"Dense_0": {"0+": {"bias": [-5.1515180530259386e-06, -0.00029823611839674413, 7.060092320898548e-05, 0.00010652555647538975, -0.00019370802328921854, 0.00026939244708046317, 0.00014595761604141444, 9.129507088800892e-05, 0.00025109329726547003, -0.00029796070884913206, 9.034646063810214e-05, -1.4751132766832598e-05, -6.440696597564965e-05, -7.609068416059017e-05, -0.00023619562853127718, 0.00017123266297858208, 3.5199795092921704e-05, 3.681380803755019e-06, -0.00012922468886245042, -0.0005587596679106355, -0.00020839303033426404, 0.0002108332992065698, -2.7210486223339103e-05, -0.00041446308023296297, -0.00044620188418775797, 0.00022673768398817629, -0.00013102998491376638, 0.00013057813339401037, 0.000358753080945462, 0.00033695739693939686, -0.0005062437267042696, -3.324573117424734e-05, -0.0002978812553919852, 0.0002855219936463982, -0.0002793459570966661, 0.00032574753277003765, 0.000476618210086599, -9.454432438360527e-05, 8.214078661694657e-06, -4.68444632133469e-05, -6.364523869706318e-05, -4.304345202399418e-05, -0.00023455974587704986, -0.00019329127098899335, 0.00013951348955743015, -0.00023629298084415495, -0.00013251839845906943, 8.20673958514817e-05, -0.00032624026061967015, 0.00010403856867924333, 0.00029346669907681644, -3.5914996260544285e-05, 0.00015263418026734143, -0.00014600757276639342, -5.0266731705050915e-05, -0.00015650465502403677, -0.00017895364726427943, 3.801859202212654e-05, 6.339846731862053e-05, -0.00019944731320720166, -0.0003651650913525373, -0.00032087607542052865, -0.00022683014685753733, 0.0002144186437362805], "kernel": [[0.12597255408763885, -0.0646653026342392, 0.11332082003355026, -0.05585436150431633, -0.04573133960366249, -0.14049747586250305, 0.1071954071521759, -0.029714658856391907, -0.1254013478755951, -0.2289837747812271, -0.24409829080104828, -0.14333869516849518, -0.06414652615785599, -0.03662113845348358, 0.1333777755498886, 0.13591095805168152, 0.008057056926190853, -0.02025098167359829, -0.0065769930370152, 0.02760099060833454, -0.2621268033981323, -0.09011272341012955, 0.10006320476531982, 0.054867785423994064, -0.1357247531414032, 0.04149734228849411, -0.08811748027801514, 0.23654426634311676, -0.07825037837028503, -0.035124771296978, 0.12520791590213776, -0.1015826016664505, 0.2079845815896988, -0.22086499631404877, 0.0429239422082901, -0.044236522167921066, 0.07238809764385223, -0.1504448652267456, -0.15328335762023926, 0.08797042816877365, -0.13624697923660278, -0.21206703782081604, 0.006242841947823763, 0.1652616560459137, -0.11785531044006348, 0.1205754429101944, 0.009145616553723812, 0.22882190346717834, -0.036654986441135406, 0.1172218769788742, -0.15510046482086182, 0.24338482320308685, 0.146868035197258, 0.07936301082372665, 0.014979982748627663, 0.09108790010213852, 0.12879301607608795, -0.0652206614613533, -0.07774398475885391, -0.1405361145734787, 0.1142461895942688, 0.1996239721775055, 0.07919082045555115, 0.10682568699121475], [0.06227949261665344, 0.027688130736351013, 0.01531334687024355, 0.10036496818065643, 0.06537813693284988, -0.026351772248744965, -0.05499304085969925, 0.07013009488582611, -0.23474639654159546, -0.06547589600086212, 0.23082178831100464, 0.21147660911083221, 0.24754412472248077, 0.17286139726638794, -0.008243711665272713, 0.06291118264198303, 0.14167314767837524, -0.07297957688570023, 0.025674322620034218, -0.17119427025318146, 0.015639573335647583, 0.05163074657320976, 0.09682425111532211, 0.02229408733546734, 0.00164519133977592, 0.029734790325164795, -0.10012377798557281, -0.05108170583844185, -0.07847100496292114, 0.1019614040851593, -0.04856511950492859, -0.035218678414821625, -0.10551682114601135, 0.052571989595890045, 0.17720727622509003, 0.18876110017299652, -0.16667458415031433, -0.017208445817232132, -0.062413256615400314, -0.18227127194404602, -0.060873813927173615, -0.12258511036634445, -0.05990210548043251, -0.07650917023420334, -0.14279422163963318, 0.0819702073931694, -0.051335155963897705, -0.14207814633846283, -0.09719783812761307, -0.006684192456305027, 0.006979271303862333, 0.04838309437036514, 0.027048124000430107, -0.014258303679525852, -0.19371864199638367, 0.01198867242783308, 0.06621909886598587, -0.15492947399616241, 0.14517050981521606, 0.08786173164844513, -0.14812850952148438, 0.02558077685534954, 0.14029143750667572, -0.08132075518369675], [0.10700976848602295, -0.10466135293245316, 0.1715480089187622, 0.16580109298229218, 0.061580490320920944, 0.00871125515550375, -0.04048238694667816, -0.07872015237808228, -0.27519890666007996, 0.017120908945798874, 0.009053072892129421, -0.06110584735870361, -0.2102341502904892, -0.06289733201265335, 0.13843877613544464, 0.07728943228721619, -0.1224994882941246, 0.18863479793071747, 0.0699390321969986, 0.1160009503364563, -0.12697657942771912, 0.12553466856479645, 0.1935397982597351, 0.07763165980577469, -0.10630448907613754, -0.06510455906391144, 0.06638865917921066, 0.06330028176307678, -0.16362111270427704, -0.16577830910682678, 0.19920063018798828, -0.18434467911720276, -0.20042510330677032, 0.1946951150894165, -0.07021752744913101, -0.03585359454154968, -0.11416894942522049, -0.036886412650346756, -0.011694027110934258, 0.10987434536218643, -0.06552629172801971, -0.058107923716306686, -0.01000720914453268, -0.13513724505901337, -0.09814120084047318, 0.04570230841636658, -0.20293903350830078, 0.00911463238298893, -0.02257978916168213, -0.06669986248016357, -0.08795737475156784, -0.08204113692045212, 0.22939182817935944, 0.13653749227523804, -0.038057491183280945, 0.061415895819664, -0.17469662427902222, 0.2835586667060852, -0.21982966363430023, -0.18106578290462494, 0.05283462628722191, -0.0575326569378376, 0.18413971364498138, 0.10711263865232468], [-0.003305143676698208, 0.038934625685214996, 0.10855104774236679, 0.22144430875778198, -0.06584801524877548, 0.2176734060049057, -0.17997115850448608, -0.19345523416996002, 0.057635821402072906, 0.016209891065955162, -0.14016908407211304, 0.1471608579158783, 0.17946076393127441, 0.18949010968208313, 0.2508673071861267, 0.14203178882598877, 0.017243416979908943, -0.26206058263778687, 0.10596323013305664, -0.11723005771636963, -0.0930938646197319, 0.1008903905749321, 0.04378284513950348, 0.028579486533999443, -0.049843911081552505, 0.07697001844644547, -0.004573210142552853, 0.044411223381757736, -0.1818343997001648, -0.036763980984687805, -0.024251608178019524, -0.050112057477235794, -0.14799770712852478, -0.052214913070201874, -0.10074954479932785, -0.05083072930574417, 0.11022040247917175, -0.14449068903923035, -0.18577173352241516, -0.13059665262699127, -0.16427883505821228, -0.0611976720392704, -0.047378815710544586, -0.04126119986176491, -0.06359010189771652, -0.08319559693336487, -0.027761125937104225, -0.015189757570624352, 0.027842240408062935, -0.24035045504570007, 0.22912654280662537, 0.0733347237110138, 0.1306244283914566, 0.16152016818523407, -0.09267068654298782, -0.026014920324087143, -0.025424016639590263, 0.1020384207367897, 0.004926866851747036, 0.2351689487695694, -0.25856661796569824, 0.07817023247480392, -0.08534423261880875, -0.1638709008693695], [-0.049141090363264084, -0.21980364620685577, 0.21626655757427216, 0.2656748592853546, -0.08242299407720566, 0.0020515883807092905, -0.02043941058218479, 0.21194928884506226, 0.05896630138158798, 0.012300382368266582, -0.061836205422878265, 0.11775918304920197, 0.002516380278393626, -0.07242850959300995, 0.11473296582698822, 0.25936806201934814, 0.026369385421276093, -0.09644310176372528, -0.0936751663684845, 0.06380743533372879, 0.05754667520523071, -0.06405329704284668, -0.08747968077659607, -0.09099258482456207, -0.22370897233486176, 0.06121881306171417, -0.12329600006341934, 0.0322890467941761, -0.12699353694915771, -0.15427321195602417, 0.01669234037399292, 0.05376003682613373, -0.07620158791542053, 0.028739357367157936, -0.062071409076452255, 0.28191739320755005, 0.15043550729751587, -0.015061978250741959, 0.034072600305080414, 0.1594608873128891, 0.03641427308320999, 0.08777198940515518, -0.0303221195936203, -0.18463557958602905, -0.02977590635418892, 0.08200612664222717, -0.08571929484605789, -0.08339907228946686, 0.03760718181729317, -0.19566403329372406, 0.09954144060611725, 0.1328199952840805, 0.0744977667927742, -0.044531598687171936, -0.27467936277389526, -0.2373557835817337, 0.022091813385486603, -0.06562916189432144, -0.0542614720761776, -0.19172713160514832, -0.11306362599134445, -0.09683467447757721, -0.024354945868253708, 0.14958921074867249], [-0.004685495514422655, 0.053842540830373764, 0.06985073536634445, -0.11291970312595367, 0.07638391107320786, -0.057113729417324066, 0.08755046874284744, 0.11422229558229446, -0.1305822879076004, -0.004074426367878914, 0.16636128723621368, -0.004960362333804369, 0.22149920463562012, 0.20878179371356964, 0.00809420831501484, -0.06573226302862167, -0.03372178599238396, 0.1355023980140686, 0.1469910889863968, 0.22405870258808136, 0.006559392903000116, -0.2077447474002838, 0.1693192571401596, 0.0916452407836914, 0.21143124997615814, 0.20127113163471222, 0.11672476679086685, 0.10114140808582306, 0.07294539362192154, -0.021783525124192238, 0.14787717163562775, -0.0557631179690361, -0.12841758131980896, 0.13190817832946777, 0.0054689128883183, 0.22311633825302124, 0.15469695627689362, -0.09530441462993622, 0.06541106849908829, 0.08084692060947418, -0.08996596187353134, 0.060443293303251266, 0.01905594952404499, 0.19817398488521576, -0.06753914803266525, 0.07117245346307755, 0.06581951677799225, -0.0659824088215828, 0.027429668232798576, 0.19622193276882172, -0.029913153499364853, 0.10054497420787811, -0.10457559674978256, 0.17145642638206482, 0.259484201669693, -0.06274925172328949, -0.08435268700122833, -0.05061390623450279, -0.21542920172214508, -0.12895815074443817, -0.0754326581954956, -0.035097964107990265, -0.02833474986255169, -0.009636922739446163], [0.12530995905399323, -0.061923492699861526, -0.005245270673185587, 0.050093427300453186, 0.07642646133899689, -0.21849018335342407, 0.04412047564983368, 0.11234033852815628, -0.011517364531755447, -0.22841963171958923, 0.2707841098308563, -0.18543773889541626, -0.08194496482610703, -0.05885060131549835, -0.2115100920200348, -0.04335293173789978, -0.07242389768362045, 0.21760620176792145, 0.1442120522260666, 0.23288321495056152, 0.10991330444812775, -0.021657658740878105, -0.0782780796289444, -0.07209153473377228, -0.25319987535476685, -0.20187345147132874, 0.000872002390678972, -0.08551055192947388, 0.12762247025966644, 0.10499706864356995, 0.1175946518778801, -0.2387228161096573, 0.0863928273320198, -0.021234765648841858, 0.21375320851802826, -0.015323194675147533, -0.10892925411462784, -0.22519123554229736, -0.14250048995018005, -0.005480374209582806, 0.2162691205739975, -0.20878782868385315, -0.03508233278989792, 0.04835335537791252, 0.09466208517551422, 0.06943213194608688, -0.09207579493522644, -0.12933668494224548, -0.25751936435699463, -0.11204501241445541, -0.024300700053572655, -0.07697854936122894, -0.0922483429312706, -0.03951326385140419, 0.12117500603199005, -0.03647060692310333, 0.006134849041700363, -0.10227639973163605, 0.06788525730371475, -0.015147009864449501, -0.021041152998805046, 0.06934522092342377, 0.12485317140817642, 0.2459549456834793], [0.20994409918785095, -0.027403775602579117, -0.1665361523628235, -0.08485767245292664, 0.09737446159124374, 0.004490415100008249, -0.08348768204450607, 0.028743792325258255, 0.0019061076454818249, 0.15953798592090607, -0.01367957703769207, -0.06133444979786873, 0.05923076719045639, 0.11663112044334412, 0.1354973316192627, -0.1668536216020584, 0.09316837787628174, 0.06475092470645905, 0.14912495017051697, -0.09159061312675476, -0.2358073592185974, 0.18562553822994232, 0.13831214606761932, 0.0031451887916773558, -0.002987972926348448, -0.02564375288784504, 0.19311276078224182, 0.10242118686437607, -0.06573989242315292, -0.1575554758310318, -0.24667665362358093, 0.07440818101167679, 0.0725768581032753, 0.01523254718631506, 0.10680276155471802, 0.11547273397445679, 0.1577165573835373, -0.03850594907999039, -0.04526218771934509, -0.16947995126247406, -0.11383620649576187, -0.0071434578858315945, 0.27827969193458557, 0.16613346338272095, 0.14780175685882568, 0.1098957508802414, 0.09776932746171951, -0.021011142060160637, 0.07053185999393463, -0.007321447134017944, -0.008986145257949829, -0.07378274947404861, 0.16705942153930664, -0.15509632229804993, -0.11025471985340118, -0.008154814131557941, -0.0010201846016570926, -0.02027895301580429, -0.006512687541544437, 0.2267555296421051, 0.21220216155052185, -0.1181776151061058, 0.2246919721364975, 0.1368590146303177], [-0.07540416717529297, 0.17166616022586823, -0.04979405924677849, -0.03394833579659462, -0.06605231761932373, 0.10628114640712738, 0.0519203320145607, -0.090370774269104, 0.15082167088985443, -0.010483436286449432, -0.020823335275053978, -0.106669582426548, -0.001958634937182069, 0.16742157936096191, 0.19180737435817719, -0.08688274770975113, 0.20853975415229797, 0.07166232913732529, -0.05277743563055992, 0.1995048224925995, -0.018179306760430336, 0.08479377627372742, -0.03641602769494057, 0.005450162570923567, -0.08282094448804855, 0.026234425604343414, -0.055990561842918396, 0.0806102603673935, -0.023460453376173973, 0.07924546301364899, -0.2394494265317917, 0.12117709964513779, 0.07791180163621902, 0.11974480003118515, 0.060786813497543335, 0.1596425324678421, -0.08204840868711472, -0.032111331820487976, -0.16530311107635498, 0.12774284183979034, 0.059215232729911804, -0.16917064785957336, 0.21103018522262573, 0.13301636278629303, -0.2115655243396759, 0.00010970499715767801, -0.10105787962675095, -0.009744898416101933, 0.03115900419652462, -0.14608967304229736, 0.052308887243270874, -0.003942124545574188, -0.003206732915714383, -0.14344851672649384, -0.17209982872009277, 0.10634070634841919, 0.15939195454120636, 0.09234701097011566, -0.03272341191768646, -0.01466840784996748, 0.029391122981905937, 0.18587352335453033, -0.09194828569889069, 0.002645388012751937], [0.22392524778842926, -0.018816694617271423, 0.0004196060763206333, -0.13675768673419952, 0.09812682121992111, 0.02662600576877594, 0.21376532316207886, 0.06519803404808044, 0.0620121955871582, -0.1438523679971695, 0.10746416449546814, 0.14941753447055817, -0.04470256343483925, 0.01587867923080921, 0.017828792333602905, -0.023894691839814186, 0.23100294172763824, 0.2468237429857254, -0.1545662134885788, 0.048016007989645004, -0.16950269043445587, -0.21455687284469604, -0.1587621420621872, -0.11626218259334564, 0.06999200582504272, 0.014573924243450165, 0.03576130047440529, -0.18369276821613312, -0.03849915787577629, 0.031257499009370804, 0.05843054875731468, -0.06663430482149124, 0.24447749555110931, -0.031217653304338455, -0.05275031551718712, -0.18584728240966797, -0.10368309170007706, -0.09458315372467041, 0.1572462022304535, 0.24816855788230896, -0.12995842099189758, 0.010292154736816883, -0.05844821780920029, 0.03310520574450493, 0.04003429412841797, 0.16344702243804932, -0.17796795070171356, 0.04828770458698273, 0.034674737602472305, 0.21717414259910583, -0.051330726593732834, -0.20695586502552032, 0.19623439013957977, 0.1664934754371643, -0.11248234659433365, -0.03690330684185028, -0.04852450639009476, -0.12686994671821594, 0.04295162856578827, 0.15624591708183289, 0.06728024035692215, -0.0618271604180336, 0.13620898127555847, 0.1820654720067978], [0.22480803728103638, -0.0962425172328949, -0.048973627388477325, 0.0021051953081041574, 0.09132051467895508, 0.1544535607099533, -0.028399867936968803, -0.12136179953813553, -0.04092277213931084, 0.16274027526378632, 0.037576694041490555, 0.11934039741754532, 0.00041366764344275, -0.08223675936460495, -0.08755450695753098, -0.09725102037191391, -0.06287509202957153, 0.06655069440603256, -0.07821612805128098, 0.12589941918849945, 0.04079948365688324, -0.17981143295764923, -0.019864428788423538, 0.2803152799606323, 0.2591016888618469, -0.19734793901443481, -0.05239386484026909, -0.07110080868005753, 0.05874025449156761, -0.2099323570728302, -0.20348012447357178, 0.1869964897632599, -0.010587265715003014, -0.018300415948033333, 0.027022309601306915, 0.20423004031181335, 0.14748363196849823, -0.24077337980270386, -0.048453159630298615, -0.04392974078655243, -0.026874838396906853, 0.029279565438628197, 0.14342862367630005, -0.09784836322069168, 0.12164563685655594, -0.13863173127174377, 0.12146692723035812, 0.12148945778608322, -0.0697241872549057, 0.06580886244773865, -0.10903839021921158, 0.10074508935213089, -0.09951609373092651, 0.006123073399066925, -0.1239379346370697, 0.007804459426552057, 0.01798170804977417, 0.10391692072153091, 0.043485693633556366, 0.2302265167236328, -0.09007351845502853, -0.027004903182387352, 0.13120730221271515, 0.05116197094321251], [0.13091735541820526, 0.15606136620044708, 0.00956764630973339, 0.0995170995593071, -0.034285321831703186, 0.2414356768131256, 0.038061413913965225, -0.04216182976961136, 0.1833813339471817, -0.02475850284099579, -0.03659927472472191, -0.12097691744565964, -0.08122032880783081, -0.045580074191093445, 0.0035313693806529045, -0.20764127373695374, 0.10754058510065079, -0.041223689913749695, -0.012366308830678463, 0.0987386628985405, -0.03574155271053314, 0.2178872525691986, 0.14788752794265747, -0.004540903028100729, 0.25607699155807495, 0.1775597482919693, -0.02222890593111515, -0.060449760407209396, 0.13703595101833344, -0.27446892857551575, -0.10668199509382248, 0.18632842600345612, 0.07803945988416672, -0.17154474556446075, 0.07134125381708145, 0.08461227267980576, -0.10355157405138016, 0.10656628757715225, 0.20539380609989166, -0.11062581092119217, 0.0751008465886116, -0.05106610804796219, 0.04778166487812996, 0.1982516199350357, 0.10644586384296417, -0.130848228931427, 0.08191008120775223, 0.10704659670591354, -0.12812241911888123, -0.153519868850708, 0.1045292541384697, -0.07149939984083176, -0.05725402384996414, -0.022579273208975792, -0.055193934589624405, 0.015832634642720222, -0.018103543668985367, 0.245014026761055, 0.011475926265120506, 0.14153249561786652, 0.039517953991889954, 0.20245356857776642, 0.005301253870129585, -0.0016171112656593323], [-0.06695447862148285, -0.0189472995698452, -0.09137113392353058, -0.1309085488319397, -0.10533048957586288, 0.12277813255786896, 0.18021781742572784, 0.01704619824886322, -0.2105150669813156, -0.09649845957756042, -0.013435217551887035, -0.17819556593894958, 0.227860227227211, -0.2099330574274063, 0.09899159520864487, -0.03676275536417961, 0.028224894776940346, 0.17158296704292297, 0.10740332305431366, 0.11268696188926697, 0.22665265202522278, -0.2750462591648102, -0.03171669319272041, -0.038612399250268936, -0.09346038848161697, -0.09270636737346649, -0.061458785086870193, 0.00357773806899786, 0.2015659064054489, -0.07476697117090225, -0.02129075489938259, -0.029516154900193214, 0.09027332812547684, -0.0631713718175888, -0.1809491515159607, 0.22343507409095764, -0.008203496225178242, 0.17278432846069336, 0.12415986508131027, -0.017871903255581856, -0.12895722687244415, 0.13620342314243317, 0.0355491079390049, -0.02799457125365734, -0.06485787034034729, -0.06469279527664185, -0.03596047684550285, 0.03955418989062309, -0.16553959250450134, -0.08405234664678574, -0.011323009617626667, 0.17791980504989624, -0.08325124531984329, -0.096192866563797, -0.11897394061088562, 0.083494171500206, 0.21121607720851898, -0.1478990912437439, -0.017551692202687263, 0.10139548033475876, -0.08123031258583069, 0.04370138421654701, -0.08490000665187836, -0.06520529836416245], [-0.016865713521838188, 0.09728451073169708, 0.009921472519636154, -0.045991793274879456, -0.2223246693611145, 0.01755412667989731, -0.12432942539453506, 0.06767831742763519, -0.06704802066087723, -0.03267679736018181, -0.08881687372922897, -0.2481057494878769, -0.08542034775018692, 0.06177309900522232, -0.019557178020477295, -0.22037598490715027, 0.10516338795423508, -0.17520500719547272, 0.005737118422985077, 0.1719227433204651, 0.2235555201768875, 0.015887165442109108, 0.12266791611909866, 0.06832683086395264, 0.018959887325763702, -0.10450762510299683, -0.17215481400489807, 0.2515842914581299, -0.1086457148194313, 0.0345277301967144, 0.03390473499894142, -0.049577612429857254, 0.2392204850912094, 0.013136339373886585, 0.17884092032909393, -0.023704370483756065, -0.10429695248603821, 0.030776670202612877, 0.05028703808784485, -0.016508767381310463, 0.16209690272808075, 0.20536786317825317, -0.07146412879228592, -0.053005315363407135, -0.19010676443576813, 0.14697322249412537, 0.06898532807826996, 0.24000932276248932, 0.07003586739301682, 0.10197950899600983, -0.1069740578532219, -0.02420535497367382, 0.04591776803135872, -0.27365806698799133, 0.038506798446178436, 0.19023115932941437, 0.03715983405709267, 0.21486255526542664, -0.014731742441654205, -0.1442227065563202, 0.015330937691032887, 0.06737181544303894, -0.04347788542509079, -0.03534764051437378], [0.09380540251731873, 0.16389252245426178, 0.09799309819936752, 0.2369886040687561, 0.012758555822074413, -0.026334570720791817, 0.0941733866930008, -0.27267080545425415, -0.24219220876693726, -0.03743142634630203, -0.006673755589872599, -0.01828986220061779, -0.14241541922092438, -0.07674497365951538, -0.1173335611820221, -0.06762044131755829, -0.04731568321585655, -0.18443584442138672, 0.15886609256267548, -0.11534146964550018, 0.053768057376146317, -0.2258962243795395, 0.07603193819522858, 0.10764552652835846, 0.01894921250641346, 0.06962496787309647, 0.09869051724672318, -0.12580421566963196, -0.18036328256130219, 0.0563449002802372, 0.02254524827003479, -0.16919465363025665, -0.17102929949760437, 0.08479222655296326, -0.2528862953186035, -0.020393215119838715, 0.05076755955815315, 0.09632053971290588, 0.06678289920091629, -0.12158891558647156, -0.07383735477924347, 0.03870924189686775, -0.11810428649187088, 0.1903143972158432, 0.1813216656446457, -0.0745270624756813, -0.2556840181350708, -0.023978333920240402, -0.06841721385717392, 0.23432394862174988, -0.07837564498186111, 0.0394643098115921, 0.1250828504562378, 0.0884285569190979, 0.04282888397574425, -0.2150629311800003, 0.004338671453297138, 0.019774094223976135, -0.04389125481247902, -0.01383901759982109, -0.1360391080379486, 0.16518118977546692, -0.06857644766569138, -0.05241113528609276], [-0.01260461937636137, 0.11845490336418152, -0.02335100807249546, 0.05746981129050255, -0.0765233039855957, -0.000595562276430428, 0.1463102549314499, -0.24244904518127441, 0.11516813933849335, -0.1848607212305069, -0.11502524465322495, 0.015452360734343529, -0.2186315506696701, 0.19001458585262299, 0.023804200813174248, -0.09880291670560837, -0.05662795901298523, -0.003279786091297865, 0.00014229706721380353, 0.19502004981040955, -0.03679676726460457, -0.013869854621589184, -0.009493750520050526, -0.12501226365566254, -0.10146109759807587, 0.02945062704384327, -0.00990606565028429, -0.17675167322158813, 0.18780533969402313, 0.06670026481151581, -0.21211734414100647, 0.02494017593562603, 0.05662224814295769, -0.16098709404468536, -0.0855967178940773, -0.20685218274593353, 0.031126106157898903, -0.15608949959278107, -0.04029238224029541, -0.02627001702785492, -0.03417360037565231, -0.22984184324741364, 0.20642952620983124, 0.11368127912282944, 0.07708162814378738, 0.006898264400660992, 0.0009646191028878093, 0.05619709938764572, 0.15151187777519226, -0.012792705558240414, -0.07570653408765793, -0.2029602825641632, -0.08231821656227112, -0.07235919684171677, 0.1392185539007187, 0.05472695082426071, 0.014894210733473301, -0.0006136451265774667, 0.07554343342781067, -0.08055227994918823, 0.12119069695472717, -0.03367619961500168, 0.14995229244232178, -0.12039004266262054], [-0.06065620481967926, -0.026761965826153755, 0.06212621182203293, -0.2502107620239258, 0.07450807094573975, -0.16212968528270721, 0.16694384813308716, 0.19149795174598694, 0.16229380667209625, 0.11426977813243866, 0.10431908071041107, 0.10388554632663727, -0.043250590562820435, 0.17301414906978607, 0.15355601906776428, -0.04320184513926506, 0.07581348717212677, 0.025042708963155746, 0.21907418966293335, 0.014291542582213879, -0.04126444831490517, -0.053401798009872437, -0.1503952592611313, 0.0778556764125824, -0.23313266038894653, 0.047876376658678055, -0.10287562757730484, -0.07013672590255737, -0.026729915291070938, -0.01856924407184124, 0.06476784497499466, -0.22749057412147522, 0.07446639984846115, 0.11395570635795593, 0.008740108460187912, 0.013035624288022518, -0.02230062149465084, 0.24148331582546234, -0.2710845470428467, 0.15502417087554932, 0.15073004364967346, -0.12151006609201431, -0.05864550918340683, 0.08449988812208176, -0.010288561694324017, -0.21947813034057617, 0.15501908957958221, 0.02899071015417576, 0.01171297486871481, -0.09963878244161606, -0.22267146408557892, 0.18662072718143463, -0.018202653154730797, 0.07848791033029556, -0.20395655930042267, 0.07889481633901596, 0.18037913739681244, -0.13724318146705627, -0.08846832066774368, 0.09151683002710342, 0.13720819354057312, 0.026723774150013924, -0.16018657386302948, 0.04195018485188484], [-0.05059609189629555, 0.15067726373672485, 0.033067554235458374, 0.2031211405992508, 0.05544859915971756, -0.11883950978517532, -0.04558071494102478, -0.08965059369802475, 0.13469216227531433, -0.010148979723453522, -0.20797346532344818, 0.1007583811879158, 0.09208300709724426, 0.10375110059976578, -0.19454295933246613, 0.07898875325918198, -0.059773121029138565, 0.18823087215423584, -0.10314920544624329, 0.03000628761947155, -0.02026461251080036, -0.19477450847625732, 0.10521455854177475, 0.1797676831483841, -0.019038591533899307, 0.13535888493061066, -0.14449048042297363, 0.18835686147212982, 0.05024974048137665, -0.06871170550584793, -0.0950317531824112, -0.20785756409168243, 0.06772541999816895, 0.20954839885234833, -0.14086997509002686, -0.039620157331228256, -0.07549988478422165, -0.1273898184299469, 0.2696909010410309, -0.1103384792804718, -0.0783676952123642, -0.03223719447851181, 0.09910779446363449, 0.14626380801200867, -0.029302433133125305, -0.036827173084020615, 0.1950284242630005, -0.26458796858787537, 0.03177103400230408, -0.07169913500547409, 0.02840747870504856, -0.10530528426170349, 0.19565783441066742, 0.19892114400863647, -0.10356499254703522, 0.07433953136205673, 0.06506671011447906, 0.1808670461177826, 0.2373540699481964, -0.1664329618215561, 0.010519753210246563, 0.07004430145025253, -0.07860911637544632, -0.13432306051254272], [0.06813796609640121, -0.17604553699493408, 0.25788798928260803, 0.012629537843167782, 0.051925357431173325, -0.08055215328931808, 0.11190187186002731, 0.06258779019117355, -0.1933017373085022, -0.17183637619018555, -0.12751135230064392, 0.23712238669395447, 0.08646778017282486, 0.047446515411138535, 0.04397520795464516, 0.11736000329256058, 0.144124835729599, -0.08464272320270538, 0.08943470567464828, 0.20808646082878113, -0.12495902925729752, 0.01092860009521246, -0.21736861765384674, 0.09125428646802902, -0.13615931570529938, -0.1127476841211319, 0.10084807872772217, 0.10936079174280167, -0.23395231366157532, -0.046587903052568436, -0.011430159211158752, -0.04320640116930008, 0.13083931803703308, -0.03600331395864487, 0.03529072925448418, -0.1325557380914688, -0.09495383501052856, 0.17788781225681305, 0.07522701472043991, 0.22291237115859985, 0.08064351975917816, -0.10458104312419891, 0.0036864103749394417, 0.002507147379219532, 0.03352409228682518, 0.12547513842582703, -0.10210589319467545, 0.024453820660710335, 0.027916505932807922, 0.09720204025506973, -0.10525740683078766, 0.05184594914317131, -0.024045554921030998, -0.002510823542252183, -0.02600800059735775, 0.12202810496091843, -0.10862814635038376, -0.0451691672205925, 0.0224076509475708, 0.18278449773788452, 0.12770919501781464, 0.11005515605211258, -0.18439513444900513, -0.05358342453837395], [-0.02581120654940605, 0.08510995656251907, -0.17078140377998352, 0.03572637587785721, 0.22901177406311035, 0.24236953258514404, -0.028222613036632538, -0.26053324341773987, 0.11195650696754456, -0.020943481475114822, -0.23117110133171082, -0.10326015949249268, 0.14098533987998962, -0.28164929151535034, 0.100328229367733, -0.17302031815052032, 0.10655862092971802, -0.07084962725639343, 0.040095727890729904, 0.07732250541448593, -0.2694690227508545, -0.003807435045018792, -0.0029516220092773438, -0.031864408403635025, 0.08102522790431976, 0.06007332727313042, 0.27399083971977234, -0.0901547446846962, 0.23426690697669983, -0.022574853152036667, -0.13518275320529938, -0.08154276758432388, -0.18051846325397491, -0.10573013126850128, -0.15856115520000458, 0.13803352415561676, 0.023311791941523552, 0.12908796966075897, -0.00265843840315938, 0.11121249943971634, 0.001205485314130783, 0.06674454361200333, 0.1406509280204773, -0.1210380345582962, -0.20432789623737335, -0.05819686874747276, 0.20925478637218475, -0.17529051005840302, -0.12895320355892181, -0.06435858458280563, 0.1248977854847908, -0.013367736712098122, -0.21239794790744781, -0.1701650768518448, 0.029264677315950394, 0.17393198609352112, 0.13316383957862854, 0.0813780277967453, -0.0513305701315403, -0.09349813312292099, 0.09867406636476517, 0.016198448836803436, -0.05418527498841286, -0.060556475073099136], [-0.08974967896938324, 0.010052558965981007, -0.15646305680274963, -0.15418502688407898, -0.10799553245306015, 0.1655000001192093, -0.2070770114660263, -0.2343323677778244, 0.25193873047828674, 0.02132435515522957, 0.17082573473453522, 0.2146676480770111, -0.08950741589069366, -0.04006015136837959, -0.10207995027303696, -0.09733401983976364, -0.12608805298805237, -0.005015961360186338, -0.09168396890163422, 0.013242507353425026, 0.1398099809885025, -0.0673171654343605, -0.1170201376080513, -0.06382342427968979, -0.10900174826383591, -0.01872067153453827, 0.01106569729745388, -0.0071366629563272, 0.18232841789722443, -0.26193782687187195, 0.060827791690826416, -0.008264116942882538, -0.07161561399698257, 0.09393958002328873, -0.1700688600540161, 0.20989172160625458, 0.16036979854106903, 0.013574887067079544, 0.01240366417914629, -0.052928272634744644, -0.1903972178697586, 0.19110539555549622, -0.010059388354420662, -0.01701940782368183, 0.2394261211156845, 0.14536607265472412, -0.010825514793395996, -0.1402057707309723, 0.07430783659219742, 0.09224679321050644, -0.02560834400355816, -0.19136661291122437, 0.21268756687641144, -0.10843911021947861, -0.0879368931055069, 0.2649289667606354, 0.06402488797903061, -0.02667553722858429, 0.26076218485832214, 0.0778060257434845, -0.05994848534464836, -0.008661437779664993, -0.17501994967460632, -0.2152295708656311], [-0.04376860707998276, -0.05381929874420166, -0.02761154994368553, 0.22791734337806702, -0.011062010191380978, -0.1992168128490448, -0.1853068768978119, 0.1578223705291748, 0.04774266108870506, 0.0381251685321331, -0.12794433534145355, 0.07261167466640472, -0.11263346672058105, -0.060418713837862015, -0.18307717144489288, -0.06521642953157425, -0.07101181149482727, 0.008328752592206001, -0.06779981404542923, -0.242904394865036, 0.04799024015665054, -0.0951433777809143, 0.14815489947795868, -0.0687287226319313, -0.11799163371324539, 0.04029574245214462, -0.028574878349900246, 0.06290464848279953, -0.03302465379238129, 0.18193753063678741, -0.15437474846839905, 0.17704837024211884, 0.1758205145597458, -0.03895963355898857, -0.11011527478694916, -0.04033307358622551, -0.17456887662410736, 0.00035272559034638107, -0.07097989320755005, 0.21549513936042786, 0.16822251677513123, 0.010031163692474365, 0.01862124539911747, -0.06512021273374557, -0.13972873985767365, 0.07390676438808441, -0.07428757101297379, 0.07518352568149567, -0.07696586847305298, 0.23076465725898743, 0.0754878893494606, 0.023286793380975723, 0.19385583698749542, -0.010137427598237991, 0.070386603474617, -0.020579887554049492, 0.26264655590057373, -0.07297967374324799, -0.027741672471165657, 0.2504740357398987, 0.05730122700333595, 0.15833231806755066, 0.17651334404945374, 0.15002715587615967], [-0.013506748713552952, 0.1717398315668106, 0.00777808390557766, -0.126699298620224, 0.06134967878460884, 0.21442343294620514, -0.19820092618465424, -0.1590188443660736, -0.12919093668460846, -0.21161213517189026, -0.04624959081411362, -0.0354885570704937, 0.15920355916023254, 0.010852130129933357, 0.047047682106494904, 0.2678517997264862, 0.03408670797944069, 0.026263950392603874, 0.050356000661849976, -0.018482612445950508, 0.02680131047964096, 0.09690358489751816, -0.10083824396133423, -0.18532223999500275, 0.11681299656629562, 0.12024564296007156, 0.05384984239935875, -0.1922837644815445, 0.05307789146900177, 0.07250408083200455, -0.0032261728774756193, 0.09989560395479202, 0.062248244881629944, -0.04075589030981064, -0.1279752105474472, 0.17888294160366058, 0.23346567153930664, 0.012599670328199863, 0.19888050854206085, -0.16890345513820648, -0.012558212503790855, 0.20361275970935822, -0.17066287994384766, 0.22540433704853058, -0.03819451108574867, -0.03840481489896774, 0.0030279995407909155, -0.09421216696500778, 0.13432015478610992, 0.18434613943099976, -0.0038215857930481434, 0.25016069412231445, 0.04296572133898735, 0.013581632636487484, -0.13352392613887787, -0.22015033662319183, -0.03420142084360123, 0.10571944713592529, 0.07537654787302017, -0.1446746587753296, 0.14331328868865967, 0.2018539160490036, -0.05336450785398483, -0.273427814245224], [-0.010820946656167507, -0.011598712764680386, -0.2165995091199875, -0.10120397061109543, -0.05121796205639839, -0.20171251893043518, -0.11098279058933258, 0.24386346340179443, 0.010844896547496319, -0.2096172422170639, -0.24408414959907532, 0.14692921936511993, 0.09228973835706711, -0.16082166135311127, -0.17399723827838898, -0.11798360198736191, 0.05506732314825058, -0.01915828511118889, 0.22702819108963013, -0.2447790503501892, -0.27664828300476074, 0.0374898761510849, 0.06931451708078384, -0.0027805741410702467, 0.15292240679264069, 0.1099603921175003, -0.026758307591080666, 0.03192739561200142, 0.016454165801405907, -0.09910251945257187, 0.14769862592220306, -0.2127106636762619, -0.047988876700401306, -0.09339582175016403, 0.07171354442834854, 0.006607363000512123, -0.05895505100488663, 0.01706813834607601, -0.16873987019062042, 0.15343447029590607, -0.078175388276577, 0.10220938175916672, 0.09988244622945786, 0.10960127413272858, -0.10517721623182297, 0.14485691487789154, 0.15289852023124695, -0.033476829528808594, -0.1745719313621521, 0.13271783292293549, 0.16255232691764832, -0.023410582914948463, 0.12774932384490967, -0.03812661021947861, 0.13668712973594666, 0.06489592045545578, 0.07037706673145294, 0.019163932651281357, 0.16340763866901398, -0.029673701152205467, 0.13145504891872406, 0.1632997840642929, -0.1363939791917801, 0.04858311265707016], [-0.10070621222257614, -0.163376122713089, -0.06869377940893173, -0.03197441250085831, -0.13387243449687958, -0.1014024168252945, 0.042307835072278976, 0.114792101085186, -0.08445971459150314, -0.05015216022729874, -0.07895839959383011, 0.010790644213557243, 0.03504277020692825, -0.04405343160033226, 0.0008186113554984331, -0.20193469524383545, -0.09219028800725937, -0.06807556748390198, 0.022865204140543938, 0.005008828826248646, -0.21968728303909302, -0.19490262866020203, -0.09648161381483078, 0.04119829833507538, -0.08521106094121933, 0.06488265097141266, -0.08748195320367813, 0.03137744590640068, 0.13746969401836395, 0.20698431134223938, 0.0017613193485885859, -0.020107369869947433, -0.041976556181907654, 0.06050452962517738, 0.022615278139710426, -0.20904214680194855, -0.08868085592985153, 0.17441421747207642, 0.14013342559337616, 0.10253141820430756, 0.19527505338191986, 0.08359485864639282, -0.0058053890243172646, 0.14872337877750397, 0.12564720213413239, -0.00279535842128098, 0.19849349558353424, -0.07993663102388382, -0.2336345762014389, -0.2607305943965912, -0.03181972727179527, -0.18969208002090454, -0.2708562910556793, 0.1420472413301468, 0.018465900793671608, -0.14560966193675995, 0.19499561190605164, 0.05933710187673569, 0.06766319274902344, 0.059905458241701126, -0.2266644984483719, -0.01681487262248993, -0.20882578194141388, 0.04237562045454979], [-0.004879069980233908, -0.14641930162906647, -0.12961316108703613, -0.10206633806228638, -0.16949844360351562, 0.13296058773994446, 0.036619238555431366, 0.01984485238790512, -0.08783961832523346, -0.0028041675686836243, 0.05938420444726944, 0.07316624373197556, -0.08851113170385361, -0.1304841935634613, -0.012546864338219166, -0.1581941843032837, -0.1899898797273636, -0.007395731285214424, -0.15541379153728485, 0.18119826912879944, -0.14556457102298737, -0.17946681380271912, -0.27873823046684265, 0.1374495029449463, -0.1089276373386383, 0.013305993750691414, -0.18050388991832733, 0.05215022340416908, -0.08690761029720306, -0.001941545633599162, 0.021815646439790726, 0.16311371326446533, -0.09414657205343246, 0.165505051612854, 0.0407889150083065, -0.16902194917201996, 0.020921414718031883, -0.030796214938163757, -0.05521097406744957, -0.19015441834926605, -0.13589610159397125, 0.08726273477077484, 0.19107452034950256, -0.06946700066328049, 0.07387862354516983, -0.04934018850326538, 0.03928935527801514, -0.1609768122434616, 0.015018167905509472, -0.021106159314513206, -0.06070325896143913, 0.09836619347333908, -0.04286767169833183, 0.021789029240608215, -0.2608073651790619, -0.09054051339626312, -0.11335337162017822, -0.1313982605934143, -0.03270268812775612, -0.10509667545557022, -0.1907350867986679, 0.11981741338968277, 0.11783123016357422, -0.2267475128173828], [-0.1762569099664688, -0.07017946243286133, 0.16438671946525574, 0.07556651532649994, -0.20910511910915375, 0.17785397171974182, -0.09762965887784958, 0.12393800169229507, -0.26880794763565063, -0.16063131392002106, -0.0707116648554802, 0.010912413708865643, 0.12591557204723358, -0.0052820974960923195, -0.0622655414044857, -0.19036303460597992, 0.24699673056602478, -0.041857894510030746, -0.07000479847192764, -0.08874079585075378, -0.0360553078353405, -0.032559800893068314, 0.17340771853923798, -0.11394660919904709, 0.012462685815989971, 0.0600317046046257, 0.027333522215485573, 0.035995449870824814, 0.21463431417942047, -0.04528459161520004, 0.06268098205327988, 0.11581230163574219, 0.20628070831298828, 0.04048420488834381, 0.13882023096084595, -0.19390487670898438, -0.2794927954673767, -0.06194500997662544, 0.08069629222154617, -0.06733568012714386, -0.15399542450904846, 0.05423695594072342, -0.14045879244804382, 0.03211226314306259, -0.038809530436992645, -0.022529616951942444, 0.18839937448501587, -0.21778644621372223, 0.07205207645893097, 0.15094809234142303, -0.14829032123088837, 0.09810947626829147, 0.14287464320659637, -0.11471499502658844, 0.021659288555383682, 0.005013462156057358, -0.05394600331783295, 0.12864014506340027, -0.07505505532026291, 0.28005021810531616, -0.007961696945130825, 0.06041198968887329, 0.07205795496702194, -0.05006084591150284], [0.0949200689792633, 0.11791038513183594, -0.037013012915849686, -0.03446154296398163, -0.24986104667186737, 0.029236331582069397, 0.14296209812164307, -0.15090374648571014, 0.11293480545282364, 0.020340053364634514, 0.11989553272724152, -0.17773599922657013, -0.05422172322869301, -0.2566507160663605, -0.008399146609008312, -0.17788803577423096, -0.1451725959777832, -0.07350902259349823, -0.21013619005680084, 0.1858195811510086, 0.02085023932158947, 0.03725442662835121, 0.037791650742292404, 0.22860416769981384, -0.010111433453857899, 0.1866866499185562, -0.05949079990386963, -0.05699107050895691, -0.15227900445461273, 0.06048335134983063, 0.2268146425485611, -0.16799582540988922, 0.22725315392017365, 0.12406176328659058, 0.2254830300807953, -0.14313414692878723, 0.24876423180103302, -0.10491642355918884, -0.023416714742779732, 0.09058905392885208, 0.1208764985203743, -0.12825262546539307, -0.036426931619644165, 0.17433559894561768, 0.08081229031085968, -0.153297558426857, -0.11048710346221924, 0.04693816229701042, -0.14954492449760437, 0.14682389795780182, -0.07668909430503845, -0.06815299391746521, 0.09242236614227295, -0.020374462008476257, 0.07942372560501099, -0.014694479294121265, 0.13835011422634125, -0.23914238810539246, -0.04006291180849075, 0.05710793659090996, 0.18500155210494995, 0.05444656312465668, -0.24941468238830566, 0.03627784550189972], [0.08557640761137009, 0.07758274674415588, -0.12973132729530334, 0.109798364341259, 0.07989998906850815, -0.0991625040769577, -0.09175840020179749, 0.09417200833559036, -0.048223596066236496, -0.18124815821647644, -0.004036976955831051, -0.14197281002998352, 0.03297412768006325, -0.21528132259845734, 0.047663364559412, 0.06057360768318176, -0.05738990753889084, 0.27022504806518555, 0.046187873929739, -0.12149408459663391, -0.15551522374153137, -0.06505049020051956, 0.06739534437656403, -0.15800516307353973, 0.032954681664705276, 0.13278691470623016, -0.0017319698818027973, -0.08403882384300232, 0.0010979290818795562, -0.12932778894901276, -0.03261246532201767, 0.04179289564490318, -0.11797350645065308, -0.024307476356625557, -0.07779978960752487, -0.044749267399311066, 0.03214796632528305, -0.28248894214630127, 0.04087841138243675, -0.05374928563833237, 0.1764141023159027, 0.22244757413864136, -0.03215758502483368, -0.26957210898399353, -0.1559586077928543, -0.17272455990314484, -0.23434340953826904, -0.18878091871738434, 0.12499681860208511, -0.019543621689081192, -0.2194945067167282, -0.009321286343038082, 0.027666455134749413, 0.22051270306110382, 0.2029934674501419, 0.12206264585256577, 0.21217665076255798, -0.05984153971076012, -0.0048706140369176865, -0.12441910803318024, -0.1313595026731491, 0.10674459487199783, -0.15327447652816772, -0.15736258029937744], [-0.010085804387927055, 0.2203281819820404, 0.17972123622894287, -0.15842017531394958, -0.12391426414251328, -0.005494642071425915, -0.21261608600616455, 0.11768560111522675, -0.08163002133369446, -0.07064530998468399, -0.2242954522371292, -0.0008806203841231763, 0.2299034595489502, 0.12770907580852509, -0.057605378329753876, -0.09614744782447815, -0.008304564282298088, -0.14672088623046875, 0.08935736864805222, 0.0961187556385994, 0.14865559339523315, -0.13330891728401184, -0.15918301045894623, -0.08275333791971207, -0.10740074515342712, -0.1316421627998352, -0.06755977869033813, 0.08644687384366989, -0.04399365559220314, 0.12560483813285828, 0.08818262815475464, -0.024566318839788437, 0.11801140010356903, -0.03576020896434784, 0.20758889615535736, 0.10391314327716827, 0.10051409155130386, 0.14848852157592773, -0.002829384058713913, 0.13841183483600616, -0.10227390378713608, 0.04874255135655403, -0.10731589049100876, -0.030581029132008553, -0.0349888913333416, 0.2456861436367035, 0.03872629255056381, -0.04568145051598549, -0.015293773263692856, -0.08389300107955933, 0.10595446079969406, -0.027834400534629822, 0.04320110008120537, 0.002574535319581628, 0.07419434934854507, 0.17293767631053925, 0.042580023407936096, 0.06648202985525131, 0.030998006463050842, 0.14404204487800598, 0.19130121171474457, 0.016009513288736343, 0.12666283547878265, -0.018865162506699562], [0.23329485952854156, 0.005473285913467407, 0.026878422126173973, 0.15016664564609528, 0.12116564810276031, 0.11197201162576675, -0.06595300883054733, 0.0578155480325222, 0.09391514211893082, 0.039060503244400024, 0.05625087767839432, 0.09974202513694763, 0.24143724143505096, 0.08472885191440582, 0.037219736725091934, 0.20934997498989105, -0.020035026594996452, 0.1370914727449417, 0.22998617589473724, -0.07407688349485397, 0.11038060486316681, 0.12076511234045029, -0.17366762459278107, 0.06116997450590134, 0.12207596004009247, -0.17740708589553833, 0.10573529452085495, -0.08198308199644089, 0.24256762862205505, -0.03982074558734894, -0.12077643722295761, 0.008592819795012474, -0.27712878584861755, 0.1778637319803238, 0.22565869987010956, -0.14334425330162048, -0.1982114464044571, 0.0032800864428281784, -0.13178539276123047, -0.19803287088871002, -0.060513027012348175, -0.12344635277986526, -0.13191922008991241, -0.09278936684131622, 0.25797078013420105, 0.24765554070472717, 0.015738360583782196, 0.19639262557029724, -0.17959299683570862, -0.12915123999118805, -0.1289251297712326, 0.07274612039327621, -0.2186947911977768, 0.13730289041996002, -0.06465420126914978, -0.03891247883439064, -0.24352513253688812, 0.15231895446777344, 0.05509502813220024, -0.18104523420333862, -0.007430633995682001, -0.0819249302148819, -0.21386635303497314, -0.04606838896870613], [-0.055921413004398346, 0.2498818188905716, 0.09422487765550613, -0.07669727504253387, 0.2197047770023346, -0.2660646438598633, 0.06919785588979721, 0.10208249092102051, -0.06868045777082443, -0.13610346615314484, 0.11469505727291107, 0.07220984250307083, -0.055415984243154526, 0.011335608549416065, -0.14278587698936462, 0.007592660840600729, 0.08180250972509384, -0.025433694943785667, 0.007666344288736582, -0.06587739288806915, -0.018034404143691063, 0.09458975493907928, 0.07626259326934814, 0.23909206688404083, 0.012815509922802448, 0.23200903832912445, 0.171876922249794, 0.024348443374037743, -0.06653081625699997, 0.03520217165350914, 0.09856323897838593, 0.010535539127886295, -0.1969805806875229, 0.0008536298992112279, -0.11518269777297974, -0.15294866263866425, -0.16866345703601837, -0.11960971355438232, -0.1332237273454666, -0.02097221650183201, -0.04232153668999672, -0.04267963021993637, 0.13945864140987396, 0.2014954835176468, -0.16771762073040009, 0.11639600992202759, -0.03535819053649902, 0.13838671147823334, 0.07234895974397659, 0.12406513839960098, -0.08912600576877594, 0.1775575578212738, -0.1440490186214447, -0.040849242359399796, -0.04845903068780899, 0.05727887526154518, 0.23038870096206665, 0.05518312752246857, -0.24645428359508514, 0.10664940625429153, 0.18341805040836334, 0.009013533592224121, 0.001150362309999764, -0.07256405800580978], [0.22679418325424194, 0.136390820145607, -0.10271987318992615, -0.18773645162582397, 0.03205287456512451, -0.05775003507733345, -0.009795218706130981, -0.13714782893657684, 0.25459349155426025, 0.11798081547021866, 0.08906559646129608, 0.04329906031489372, 0.23158228397369385, -0.020607005804777145, 0.09460358321666718, -0.07766831666231155, -0.1301955282688141, 0.06106366217136383, 0.14717957377433777, 0.04945922642946243, 0.05861708149313927, 0.14452649652957916, -0.10045193135738373, -0.11933083087205887, 0.12603524327278137, -0.10646456480026245, 0.08426328003406525, -0.007339245639741421, -0.19084395468235016, -0.0797877237200737, -0.2237742692232132, -0.191292867064476, -0.05523164942860603, -0.06681045889854431, 0.03294673562049866, 0.2274489402770996, 0.13126356899738312, -0.053678274154663086, 0.023980697616934776, -0.012787867337465286, 0.024164805188775063, -0.026347851380705833, -0.22569820284843445, -0.007989645004272461, -0.1635579913854599, -0.005938070826232433, 0.09283315390348434, -0.03833353519439697, -0.01379259955137968, -0.1502823829650879, -0.052964646369218826, -0.2515621483325958, -0.008284743875265121, -0.001714195590466261, -0.02337624505162239, 0.24341975152492523, 0.04394323006272316, -0.01151262503117323, 0.23315079510211945, 0.18473194539546967, -0.026189906522631645, 0.24790218472480774, -0.00859808549284935, 0.02697167545557022], [0.039704322814941406, -0.08208482712507248, -0.007367502897977829, 0.07710739970207214, -0.025396129116415977, -0.06711088865995407, -0.2567671537399292, -0.09320040047168732, -0.12847232818603516, -0.2246742844581604, -0.03313472867012024, -0.1660645753145218, -0.0632481575012207, 0.15290458500385284, 0.06655184179544449, 0.1517801731824875, -0.0015208167023956776, 0.017080029472708702, -0.011540990322828293, -0.10846374928951263, -0.20797771215438843, -0.034455280750989914, -0.06693456321954727, -0.013592869974672794, -0.0767315924167633, 0.03769860044121742, 0.19123679399490356, -0.07820600271224976, -0.13326683640480042, 0.08483724296092987, 0.03086479753255844, 0.27633902430534363, -0.06593237072229385, -0.011647960171103477, 0.09222983568906784, -0.1515870988368988, 0.14521503448486328, -0.0719948336482048, 0.006977992132306099, 0.021001102402806282, -0.08733971416950226, 0.023709382861852646, -0.11736045032739639, -0.15068356692790985, 0.10810280591249466, 0.07524148374795914, 0.07098767906427383, 0.062124766409397125, -0.07068350166082382, 0.05678621679544449, -0.03648719564080238, 0.042170796543359756, 0.13488134741783142, -0.056771934032440186, 0.045123886317014694, -0.09490826725959778, 0.05578984320163727, -0.003953133709728718, 0.15095996856689453, -0.005342446733266115, -0.12125714868307114, -0.00940658338367939, 0.1296866536140442, 0.18236537277698517], [0.18807640671730042, -0.02125280536711216, -0.0019373828545212746, -0.28342533111572266, 0.08534623682498932, -0.06942335516214371, 0.02383578196167946, -0.13108858466148376, -0.007265616673976183, 0.17351695895195007, -0.07499280571937561, -0.07511430978775024, -0.020213671028614044, 0.034315671771764755, 0.1649620682001114, -0.157717764377594, 0.04663672670722008, -0.14445224404335022, 0.21282494068145752, -0.18645751476287842, -0.08192559331655502, 0.2399875521659851, 0.14132758975028992, 0.20495286583900452, 0.22681643068790436, 0.027593174949288368, 0.12680783867835999, -0.15116345882415771, 0.25228291749954224, -0.04986437410116196, 0.07036902010440826, -0.029823122546076775, -0.05498100072145462, -0.22820457816123962, 0.12426359206438065, 0.20899400115013123, 0.04290038347244263, -0.12017221748828888, 0.2565445005893707, 0.1274157166481018, 0.11476768553256989, -0.06574558466672897, -0.0023316945880651474, 0.05984221026301384, 0.11058928817510605, -0.09771820157766342, 0.20517247915267944, 0.007835956290364265, -0.2519724369049072, 0.006007550284266472, -0.004100633319467306, -0.2237904816865921, -0.10534723103046417, -0.08426995575428009, -0.007109573110938072, 0.10202687233686447, 0.14114423096179962, 0.19275721907615662, -0.059001632034778595, 0.04403885453939438, -0.02855610102415085, -0.23771552741527557, 0.047101400792598724, 0.21183763444423676], [-0.19483911991119385, 0.036751892417669296, 0.1689758449792862, 0.14712920784950256, 0.23059967160224915, 0.18213333189487457, -0.12289860844612122, -0.1036902666091919, -0.005341915413737297, -0.19389739632606506, 0.19074217975139618, 0.06053299084305763, -0.07946622371673584, 0.012629690580070019, -0.03747418522834778, 0.06165647879242897, 0.11975141614675522, -0.010759045369923115, -0.014288606122136116, 0.151060551404953, 0.08327914774417877, -0.13731038570404053, 0.04297622665762901, -0.123692587018013, -0.11473214626312256, 0.01406211219727993, -0.07091519236564636, -0.11800923943519592, 0.05494709685444832, -0.17925886809825897, -0.0018209423869848251, -0.12672676146030426, 0.07390693575143814, 0.06332486122846603, 0.02109924890100956, 0.15935064852237701, -0.17914262413978577, -0.10380586236715317, -0.09402503073215485, -0.005967906676232815, 0.2188033163547516, -0.17735768854618073, 0.08584129065275192, 0.059596505016088486, -0.2075468748807907, 0.029904810711741447, -0.0432308167219162, -0.04055966064333916, 0.10233615338802338, 0.18503306806087494, -0.1911584734916687, -0.21536050736904144, -0.2285705953836441, 0.018724119290709496, 0.020673085004091263, -0.05529165267944336, -0.04224991798400879, 0.026050982996821404, -0.08688195794820786, 0.07675167173147202, -0.15984144806861877, -0.010229513980448246, -0.029706226661801338, 0.20804686844348907], [-0.02459266595542431, -0.04214071109890938, -0.00589006906375289, 0.13080187141895294, -0.18106429278850555, -0.14019037783145905, 0.17775875329971313, -0.04547203704714775, -0.13567520678043365, 0.08103634417057037, -0.16084496676921844, -0.1978253275156021, 0.08948801457881927, 0.2766464650630951, 0.0849209874868393, -0.11659520119428635, -0.11485506594181061, -0.04220970347523689, -0.08864373713731766, -0.1778612583875656, -0.006537610199302435, -0.09313079714775085, -0.004211280960589647, -0.12822547554969788, 0.14121243357658386, 0.045599713921546936, 0.0698186382651329, -0.07808662205934525, 0.1520586609840393, 0.22461038827896118, -0.03212221711874008, -0.007238251622766256, -0.00610771682113409, -0.12499859929084778, 0.1437072902917862, 0.030465688556432724, 0.1806652694940567, 0.12094472348690033, 0.0302475206553936, 0.06387548893690109, 0.17630796134471893, -0.07054106146097183, 0.024831265211105347, -0.22792433202266693, -0.14864581823349, 0.1451728641986847, -0.00011464730050647631, 0.1070559099316597, 0.16118943691253662, -0.14267121255397797, -0.046023786067962646, 0.27977725863456726, -0.031018899753689766, -0.1953393667936325, 0.19323617219924927, -0.2752613127231598, -0.028319181874394417, 0.0299796424806118, -0.27446475625038147, -0.07642862200737, 0.12053372710943222, 0.16425879299640656, -0.06372726708650589, -0.06847340613603592], [0.13293008506298065, 0.04166792333126068, 0.11659256368875504, -0.22987692058086395, 0.013265394605696201, 0.2000390738248825, -0.04534228891134262, 0.20974726974964142, -0.22771985828876495, 0.015394004061818123, -0.054505959153175354, 0.00688545498996973, 0.21118848025798798, 0.05526303872466087, 0.09686380624771118, -0.17198780179023743, 0.1530030071735382, -0.21382702887058258, 0.05876879766583443, 0.001381297828629613, 0.2245122790336609, 0.09163130074739456, 0.06434830278158188, 0.005800236482173204, -0.22643405199050903, 0.07830788195133209, 0.18060877919197083, -0.1099758893251419, 0.14295914769172668, -0.08789943158626556, -0.12687139213085175, -0.009214850142598152, -0.01936502940952778, -0.026265058666467667, 0.27642199397087097, 0.047991231083869934, -0.015336374752223492, 0.18212781846523285, 0.1664983332157135, -0.10863195359706879, 0.06657925248146057, -0.08483295887708664, -0.1986783742904663, -0.23541447520256042, 0.10364418476819992, 0.08187472075223923, 0.014152204617857933, -0.030065614730119705, 0.04043683409690857, -0.011130726896226406, 0.09867759048938751, 0.0641893595457077, 0.061953406780958176, -0.0706661194562912, -0.1582358330488205, -0.07099411636590958, 0.1404733806848526, -0.1045815497636795, 0.12731580436229706, -0.00684657646343112, 0.12490024417638779, -0.08747529238462448, -0.19052346050739288, -0.22722409665584564], [-0.16039137542247772, 0.11816973239183426, 0.07164455950260162, 0.06318584829568863, -0.08224519342184067, -0.061413057148456573, -0.09473972022533417, -0.014896885491907597, -0.095351442694664, 0.016799092292785645, -0.24042735993862152, -0.020831342786550522, 0.16543985903263092, 0.07567200809717178, -0.2600926458835602, 0.2824479341506958, -0.005718406289815903, -0.17127807438373566, 0.040735986083745956, 0.050401099026203156, 0.01396268792450428, 0.1465788036584854, 0.10277186334133148, 0.14191581308841705, -0.07281675189733505, 0.16489775478839874, -0.01127325277775526, 0.06726957112550735, 0.08700917661190033, 0.05688922479748726, 0.12354230880737305, 0.06505681574344635, 0.24717406928539276, -0.26967403292655945, -0.13358689844608307, 0.15432140231132507, -0.1579696089029312, 0.0031775448005646467, -0.07138653099536896, -0.13794508576393127, -0.06820549815893173, 0.15471598505973816, -0.19549325108528137, -0.025942059233784676, -0.16252222657203674, -0.038168083876371384, 0.15832573175430298, 0.051795653998851776, 0.05062465742230415, -0.02276475541293621, -0.04047708958387375, 0.11295706033706665, -0.08135873824357986, 0.19370655715465546, -0.03305299952626228, -0.06472993642091751, 0.15560699999332428, 0.008919436484575272, -0.024656562134623528, -0.09660559147596359, 0.004950265400111675, -0.07378571480512619, 0.027438247576355934, 0.09145515412092209], [-0.1736794263124466, 0.25945624709129333, 0.08318573981523514, -0.16237525641918182, 0.12412997335195541, 0.16823069751262665, -0.10064716637134552, 0.23085792362689972, -0.14680266380310059, 0.08343607932329178, -0.0038246556650847197, -0.02058085799217224, 0.011633598245680332, 0.08813481032848358, -0.22249457240104675, 0.09232648462057114, -0.1410522162914276, -0.06828422844409943, 0.10525481402873993, 0.048385780304670334, 0.07164021581411362, 0.11649017035961151, 0.034239716827869415, -0.012411152943968773, 0.06384266912937164, -0.09926442801952362, -0.10493514686822891, 0.022623449563980103, -0.09926153719425201, 0.13253998756408691, -0.20329540967941284, -0.10629525035619736, 0.0640609934926033, -0.13515004515647888, -0.26798388361930847, -0.021091680973768234, 0.015302788466215134, 0.2271166890859604, 0.060889482498168945, -0.21173225343227386, 0.12284893542528152, -0.1698802262544632, -0.05348857864737511, 0.21104250848293304, 0.008832364343106747, 0.041027847677469254, 0.045077838003635406, -0.23057402670383453, 0.08069402724504471, -0.2656688094139099, 0.03790472075343132, -0.02771752141416073, -0.16949687898159027, 0.015549412928521633, -0.13621625304222107, -0.0726482942700386, -0.00934456568211317, -0.1108051985502243, 0.017546921968460083, -0.08117008209228516, -0.1034383773803711, 0.12618952989578247, -0.005768014118075371, 0.14734655618667603], [-0.18745267391204834, 0.02611427754163742, -0.186019629240036, -0.09248197823762894, 0.15739186108112335, -0.030768148601055145, 0.08247289061546326, 0.25012069940567017, -0.14642997086048126, -0.13440018892288208, 0.029076047241687775, -0.17803972959518433, 0.049539610743522644, -0.010178664699196815, -0.0147326048463583, -0.04170536622405052, -0.06449905037879944, 0.10962294787168503, 0.057708654552698135, -0.11790725588798523, 0.07180415093898773, -0.014566886238753796, -0.15434345602989197, 0.18564735352993011, 0.019340431317687035, -0.13908888399600983, 0.23879887163639069, -0.08726806193590164, -0.057922594249248505, -0.07054511457681656, -0.03069317154586315, -0.04116886109113693, 0.02172851376235485, 0.18208450078964233, 0.2727591097354889, -0.0807923674583435, 0.0289225522428751, 0.19660432636737823, 0.03720271959900856, 0.09562473744153976, 0.2565195858478546, -0.04765653982758522, 0.010090764611959457, 0.0364244282245636, -0.013877155259251595, -0.21117931604385376, -0.13571757078170776, -0.05793176218867302, 0.14451280236244202, -0.061151258647441864, -0.07122676074504852, -0.1074504554271698, 0.17034584283828735, 0.029537536203861237, -0.03577659651637077, -0.06086035817861557, -0.1144614890217781, -0.23480136692523956, 0.022250883281230927, 0.09493536502122879, 0.00356232444755733, -0.12447923421859741, 0.03820463642477989, 0.027385137975215912], [-0.03505844622850418, 0.03677327558398247, 0.09301311522722244, -0.035069145262241364, -0.017904039472341537, 0.010194162838160992, 9.926132770488039e-05, 0.0899348184466362, -0.07108436524868011, -0.19110865890979767, 0.06773761659860611, -0.05272039771080017, 0.25527673959732056, 0.11089589446783066, -0.15513202548027039, -0.030235672369599342, 0.12522204220294952, -0.12258048355579376, 0.04219106212258339, 0.09799740463495255, 0.21155115962028503, 0.11459825932979584, -0.15331576764583588, 0.22543726861476898, 0.0140708452090621, -0.052282750606536865, -0.15504753589630127, -0.04517107829451561, -0.16326357424259186, 0.17288269102573395, -0.07875422388315201, 0.09157316386699677, 0.06640560179948807, -0.02919597551226616, -0.13143905997276306, -0.0839071050286293, 0.15613031387329102, 0.2698464095592499, -0.08488532900810242, 0.06291480362415314, 0.025146055966615677, 0.10361099988222122, -0.05179869383573532, -0.04225528612732887, 0.06691136956214905, 0.04547421261668205, 0.10804742574691772, 0.12004163861274719, 0.1926196813583374, -0.16177773475646973, 0.21442516148090363, 0.05570795759558678, 0.062022313475608826, 0.07008113712072372, 0.07703018933534622, 0.005264338105916977, -0.04804999753832817, 0.0321233868598938, 0.0015381325501948595, 0.09955091029405594, -0.1260208785533905, 0.04248110204935074, 0.012522122822701931, 0.18355365097522736], [0.06328942626714706, 0.16833488643169403, -0.07008911669254303, -0.19607765972614288, 0.09029880166053772, -0.02192501537501812, -0.04608994349837303, -0.19992093741893768, -0.002227327786386013, -0.03081591986119747, -0.06670796871185303, 0.1832490712404251, 0.18650703132152557, -0.15876905620098114, 0.04327002540230751, -0.07823885232210159, -0.015768228098750114, -0.1700821965932846, 0.08080752938985825, -0.1536596566438675, 0.07863954454660416, 0.11003825813531876, -0.14257413148880005, -0.21578332781791687, 0.015982236713171005, 0.187633216381073, 0.15374721586704254, 0.24597077071666718, -0.20216266810894012, -0.0036916895769536495, -0.16354672610759735, -0.09321647882461548, 0.06183486059308052, -0.09767650812864304, -0.10900091379880905, -0.2264796942472458, 0.13764911890029907, 0.03251919895410538, -0.13033318519592285, -0.022504599764943123, -0.15788722038269043, -0.07599799335002899, -0.11978772282600403, 0.27192941308021545, 0.07789065688848495, -0.10097584128379822, -0.1098327785730362, -0.06469711661338806, 0.09569115191698074, 0.10536893457174301, 0.27546197175979614, 0.12601429224014282, -0.002090910216793418, -0.14092308282852173, -0.06788341701030731, 0.0744403675198555, 0.05058063194155693, 0.14214441180229187, 0.14703966677188873, -0.11632836610078812, 0.282806932926178, -0.11528235673904419, -0.2005418986082077, 0.030969558283686638], [0.06537076830863953, -0.008240889757871628, 0.04804664105176926, 0.1710718274116516, 0.0487109050154686, -0.07254945486783981, 0.09362228214740753, -0.03454642370343208, -0.16544261574745178, 0.1781259924173355, -0.16167157888412476, 0.20789943635463715, 0.0047271596267819405, -0.016690745949745178, 0.018465664237737656, 0.06898897141218185, 0.0007633739151060581, -0.18296222388744354, -0.1268111765384674, 0.0713634118437767, -0.026911016553640366, -0.06307285279035568, 0.22632719576358795, -0.09775951504707336, 0.15050385892391205, -0.1312248259782791, -0.06876729428768158, 0.09887897968292236, 0.07434525340795517, -0.024134621024131775, -0.0003141875204164535, 0.21592038869857788, -0.24240122735500336, 0.17023441195487976, -0.13460171222686768, -0.08391130715608597, -0.22510766983032227, 0.24445447325706482, -0.015288708731532097, -0.05736770108342171, -0.08962702006101608, -0.17002838850021362, -0.19552764296531677, 0.20994940400123596, -0.05733829364180565, -0.07583073526620865, -0.2628474831581116, -0.02971516363322735, 0.05460403859615326, 0.054712675511837006, 0.07631891220808029, 0.012488359585404396, 0.18532906472682953, -0.08889258652925491, 0.04658849164843559, -0.041466183960437775, -0.1492493897676468, -0.03462905436754227, 0.011377931572496891, -0.06469647586345673, 0.18450593948364258, -0.013860921375453472, 0.040303800255060196, -0.09143899381160736], [-0.14840282499790192, 0.03279207646846771, 0.2747105360031128, -0.21843016147613525, -0.11380104720592499, -0.1804862767457962, 0.15011446177959442, -0.03910234197974205, 0.04236554726958275, -0.016432911157608032, 0.1549072116613388, -0.12321121990680695, 0.13126353919506073, 0.019090689718723297, -0.09294029325246811, -0.035908348858356476, 0.12285368144512177, 0.011210955679416656, -0.23439253866672516, -0.06194956600666046, 0.18445420265197754, 0.022401804104447365, -0.04723816737532616, 0.06312248855829239, -0.16090285778045654, 0.0812462791800499, -0.0691857859492302, 0.04618686065077782, -0.0007001825724728405, -0.0038152437191456556, -0.06803634017705917, 0.019175902009010315, 0.005657747853547335, 0.037399765104055405, -0.021160542964935303, -0.08161722868680954, 0.21993137896060944, 0.05501476675271988, 0.21287286281585693, -0.02894202619791031, -0.0675724446773529, -0.1692272573709488, -0.15362411737442017, 0.09495487809181213, -0.001282854238525033, -0.029130887240171432, 0.1044992059469223, 0.23257184028625488, 0.14890341460704803, -0.030573450028896332, 0.2170300930738449, -0.18502293527126312, 0.17594192922115326, -0.1689915508031845, 0.05292869359254837, -0.017459789291024208, 0.06555625051259995, 0.06315641105175018, 0.01823313720524311, 0.1431485265493393, 0.016681870445609093, 0.23372814059257507, 0.09302099049091339, 0.08304326981306076], [0.20980316400527954, -0.07150258123874664, 0.04614623263478279, -0.1232956126332283, 0.21724072098731995, 0.19712434709072113, 0.027504410594701767, -0.06708531826734543, -0.09479998052120209, -0.19670304656028748, -0.02371322363615036, -0.09120142459869385, -0.05963136628270149, -0.020270468667149544, 0.2654707431793213, -0.06499306857585907, -0.10604730248451233, -0.16388076543807983, 0.23299872875213623, 0.004433113615959883, -0.0998762771487236, -0.21975082159042358, -0.11882409453392029, 0.06383460015058517, -0.16046211123466492, 0.08717317134141922, 0.0466487742960453, 0.13170559704303741, -0.22218868136405945, 0.03153033182024956, -0.05215434357523918, 0.21484443545341492, 0.20359347760677338, -0.13710127770900726, 0.2285870909690857, 0.03645627945661545, -0.21716806292533875, 0.049599818885326385, 0.14102396368980408, -0.025535088032484055, 0.010196718387305737, 0.23001493513584137, 0.03298674896359444, 0.09496466815471649, -0.1809757500886917, 0.07033241540193558, 0.2083040326833725, -0.13441069424152374, -0.03183718025684357, 0.05691737309098244, 0.06587940454483032, 0.16026613116264343, 0.1090783178806305, -0.0377652533352375, 0.01601650007069111, -0.06502678990364075, -0.04757435992360115, -0.1662646234035492, 0.2653995454311371, 0.021692505106329918, -0.08439043909311295, 0.1754540354013443, -0.09250891953706741, 0.05672462284564972], [-0.04324072599411011, 0.09497856348752975, 0.006746831815689802, 0.02698167972266674, 0.10463011264801025, -0.031120290979743004, -0.2390764355659485, 0.054387595504522324, -0.13507820665836334, -0.13232244551181793, 0.06599097698926926, 0.02444552071392536, -0.0021472114603966475, -0.06385829299688339, 0.16644196212291718, -0.08645375818014145, 0.01957474648952484, 0.041763223707675934, 0.20936934649944305, 0.22928117215633392, -0.14713793992996216, 0.017210660502314568, 0.13190768659114838, -0.04883363097906113, 0.1285761296749115, -0.06122935935854912, -0.1054624542593956, 0.050279345363378525, -0.2148905247449875, -0.11849867552518845, 0.10774736106395721, -0.1900644153356552, 0.06318200379610062, -0.11388859152793884, -0.03411731496453285, 0.05006379261612892, 0.03272943198680878, 0.24545714259147644, 0.13606707751750946, -0.13242991268634796, -0.10182234644889832, -0.11643579602241516, -0.16951389610767365, -0.266039103269577, 0.23102426528930664, 0.10337701439857483, 0.10306597501039505, -0.04923837631940842, 0.09490977227687836, 0.08447135984897614, 0.16869314014911652, -0.05860491842031479, 0.05551743879914284, -0.10030762106180191, -0.017138199880719185, -0.1343650370836258, 0.11705449223518372, 0.21448847651481628, 0.13490214943885803, -0.0007032286375761032, 0.008446767926216125, -0.050542037934064865, -0.21571066975593567, -0.07592792809009552], [0.06550931185483932, 0.08842567354440689, -0.0725594237446785, -0.1481306254863739, 0.06096305698156357, -0.08896539360284805, 0.016929714009165764, -0.025133220478892326, -0.012747598811984062, 0.13749553263187408, 0.043209150433540344, -0.10479502379894257, -0.10950379073619843, 0.13018810749053955, -0.04162212461233139, 0.27785810828208923, -0.17264175415039062, 0.1396651417016983, 0.045144740492105484, -0.08467857539653778, -0.006109917536377907, 0.17365866899490356, -0.0641435757279396, 0.1913272738456726, -0.08411826938390732, 0.003947560675442219, 0.14724214375019073, -0.09587929397821426, 0.04795209318399429, -0.03362269327044487, -0.1543274223804474, -0.08703228831291199, -0.0601956881582737, -0.21624106168746948, 0.14929641783237457, 0.07992267608642578, -0.12784549593925476, 0.1208495944738388, -0.03167235851287842, -0.2118077278137207, 0.05432499572634697, 0.1339649111032486, -0.10436106473207474, -0.017677146941423416, -0.14295199513435364, 0.07221291959285736, -0.09124394506216049, 0.0776037722826004, -0.0677422359585762, 0.1968565434217453, 0.011899943463504314, -0.1260736733675003, -0.17135226726531982, -0.038307879120111465, 0.058425549417734146, 0.028742700815200806, 0.016622407361865044, -0.14428795874118805, -0.09787745028734207, 0.117686428129673, -0.11753563582897186, 0.02830379828810692, -0.05427327752113342, 0.23824147880077362], [0.096211276948452, 0.15394745767116547, 0.028692128136754036, -0.13634876906871796, 0.09319598227739334, -0.038292232900857925, 0.10574569553136826, 0.2380094975233078, 0.14197276532649994, 0.062078844755887985, -0.0030169629026204348, -0.03081735596060753, -0.02697393111884594, 0.05295807495713234, -0.06900731474161148, 0.0658479779958725, -0.1055508479475975, 0.25249508023262024, -0.1318860501050949, 0.061818428337574005, -0.01684231497347355, -0.039286065846681595, -0.08933309465646744, -0.01983415149152279, -0.26618579030036926, -0.006703533232212067, -0.018241552636027336, 0.25357046723365784, -0.06224649026989937, 0.04363793879747391, -0.180719792842865, -0.007224455010145903, 0.013431297615170479, -0.029254525899887085, -0.03139493614435196, -0.06579630821943283, -0.1675499528646469, -0.07273774594068527, 0.09352248907089233, -0.04160771891474724, 0.1638333648443222, -0.019445553421974182, 0.030777785927057266, -0.2379572093486786, -0.11643682420253754, 0.009853264316916466, -0.10231297463178635, -0.02365260012447834, 0.21137148141860962, 0.23935116827487946, 0.12775076925754547, 0.08103907108306885, -0.09758152067661285, -0.20873604714870453, -0.21470870077610016, 0.1535077840089798, 0.09497532248497009, 0.08428584784269333, 0.05089711397886276, 0.19081708788871765, -0.14086243510246277, -0.15524810552597046, -0.27832528948783875, 0.10659892112016678], [-0.23032689094543457, 0.06333388388156891, 0.19775010645389557, -0.028923507779836655, 0.03194747120141983, -0.02260550484061241, 0.054226528853178024, 0.018571700900793076, 0.006330272648483515, -0.014322172850370407, -0.08719658106565475, -0.204451322555542, -0.11968465894460678, -0.0253981314599514, -0.22537626326084137, -0.16001856327056885, -0.02396494895219803, 0.1110721305012703, 0.07371906191110611, 0.13659153878688812, 0.08010239154100418, 0.04726317524909973, -0.10822127014398575, 0.047354280948638916, -0.14729149639606476, 0.15767446160316467, 0.11588101089000702, -0.10684261471033096, 0.16690926253795624, -0.016572067514061928, 0.08274602890014648, 0.11445662379264832, -0.0606277696788311, 0.10017116367816925, -0.1327534317970276, 0.08731091767549515, 0.17596518993377686, -0.06251534074544907, -0.21631787717342377, 0.07148879021406174, 0.015394432470202446, 0.0016882444033399224, -0.11460070312023163, 0.19358602166175842, 0.02835695445537567, -0.07210507243871689, -0.13648273050785065, 0.12387948483228683, -0.13825835287570953, -0.031464457511901855, 0.029522648081183434, 0.04940655827522278, -0.07285407930612564, 0.1431041657924652, 0.2220126837491989, -0.18537472188472748, 0.22587662935256958, -0.15732158720493317, -0.06249520555138588, 0.0542479008436203, 0.1539185792207718, 0.007501138839870691, 0.07556219398975372, 0.07649774104356766], [-0.0027037528343498707, -0.05791078507900238, 0.19316788017749786, -0.004592496436089277, -0.05757492780685425, -0.05902954563498497, 0.18831613659858704, 0.10587012767791748, -0.13531917333602905, 0.07544083893299103, 0.08199382573366165, 0.00010627759911585599, -0.03625568002462387, -0.14496120810508728, -0.20870910584926605, -0.18299637734889984, -0.08978169411420822, 0.23841288685798645, -0.06945880502462387, 0.0054971459321677685, 0.02303958870470524, 0.037965476512908936, 0.01044541597366333, -0.07973676919937134, 0.03637925907969475, -0.0894867405295372, 0.26923269033432007, -0.02338966354727745, -0.16178128123283386, 0.12547729909420013, -0.24599473178386688, -0.06286335736513138, 0.031159190461039543, -0.008863612078130245, -0.18993830680847168, -0.03192155808210373, 0.02832140401005745, 0.2744506895542145, 0.21338295936584473, 0.2433522790670395, -0.15116114914417267, -0.11005236208438873, 0.08851686865091324, -0.058982424437999725, -0.11255094408988953, -0.07345079630613327, -0.16037142276763916, -0.022565891966223717, 0.05219358205795288, -0.14575955271720886, -0.07364469766616821, 0.014513582922518253, -0.2619370222091675, -0.07912150770425797, -0.05674419552087784, 0.03280803561210632, -0.13381028175354004, -0.003003524849191308, 0.03759158402681351, -0.12680013477802277, -0.1760740727186203, 0.12914444506168365, -0.07681501656770706, 0.1031169444322586], [-0.19925656914710999, 0.02551116608083248, 0.06568127870559692, -0.16308115422725677, 0.009739678353071213, -0.1361543834209442, 0.01451646164059639, -0.075779490172863, -0.05377703160047531, -0.07355699688196182, -0.0568290650844574, 0.22722995281219482, -0.09395074099302292, 0.038589637726545334, 0.10943710803985596, -0.029066434130072594, -0.15153080224990845, -0.18401946127414703, -0.13763456046581268, 0.031946830451488495, -0.060889944434165955, -0.028546562418341637, 0.014924093149602413, 0.0015104104531928897, 0.1253419816493988, -0.03438132628798485, 0.028646156191825867, -0.07426054775714874, -0.017716147005558014, 0.0782017931342125, 0.004449443891644478, -0.1750945746898651, -0.12017872184515, 0.08119841665029526, -0.15133196115493774, -0.03974822163581848, -0.13174213469028473, -0.10126793384552002, 0.002821641508489847, -0.1880422979593277, 0.06987852603197098, -0.0009874028619378805, -0.04907948151230812, 0.16024859249591827, -0.14698991179466248, 0.05535771697759628, 8.351907308679074e-05, 0.19411885738372803, -0.0791747197508812, 0.11671030521392822, 0.12697455286979675, -0.1479901373386383, -0.25930607318878174, -0.017736762762069702, 0.14972607791423798, -0.1309432089328766, 0.1044066920876503, 0.15303480625152588, -0.14944042265415192, -0.14370669424533844, 0.06818470358848572, -0.10518181324005127, -0.043007493019104004, 0.02519342303276062], [-0.14307710528373718, -0.09937524050474167, -0.09719319641590118, -0.13618560135364532, 0.002533008810132742, -0.1913059502840042, -0.07760048657655716, -0.10275263339281082, -0.07295134663581848, 0.19483430683612823, 0.1234622448682785, 0.013247926719486713, 0.16117918491363525, -0.12406731396913528, -0.11350921541452408, 0.04120893031358719, 0.021795952692627907, -0.1025834009051323, 0.01280895248055458, -0.021442735567688942, -0.16339877247810364, -0.027552178129553795, -0.06709738075733185, 0.04825419560074806, 0.2322041094303131, 0.10643365234136581, 0.11602335423231125, -0.2615499198436737, -0.08106347173452377, 0.282144695520401, -0.04893093183636665, -0.01700005866587162, -0.12858609855175018, 0.21883396804332733, 0.05096220597624779, 0.07224223762750626, 0.16176681220531464, 0.05059484392404556, -0.14803481101989746, -0.12265758961439133, 0.05123903974890709, -0.20129609107971191, -0.13238771259784698, -0.06938432157039642, 0.05370032414793968, 0.02205985225737095, -0.053169481456279755, 0.021796023473143578, -0.055446598678827286, 0.13131405413150787, 0.12691189348697662, 0.014482297003269196, -0.24422785639762878, 0.19912412762641907, 0.21737051010131836, 0.14596854150295258, -0.02257903292775154, -0.009172557853162289, -0.07489491999149323, 0.0188974067568779, -0.10708288848400116, -0.14875206351280212, 0.009961008094251156, -0.10562870651483536], [0.006569046527147293, 0.06810121238231659, 0.004480308853089809, -0.06355154514312744, 0.035619501024484634, 0.24772338569164276, 0.12018531560897827, -0.0269397534430027, -0.1261618286371231, -0.16612736880779266, 0.19466285407543182, 0.023086337372660637, 0.021274426952004433, -0.26117485761642456, -0.18544015288352966, 0.018025262281298637, -0.05013424530625343, 0.0848926529288292, 0.014808141626417637, 0.16326835751533508, 0.03256414830684662, 0.0032791835255920887, 0.013746993616223335, -0.23339229822158813, -0.08820410817861557, -0.009100732393562794, -0.19248376786708832, 0.10723765939474106, 0.005605970975011587, -0.21784955263137817, -0.11957231909036636, -0.09735788404941559, 0.14030081033706665, 0.1043536439538002, -0.061361849308013916, 0.04513196274638176, -0.07261791825294495, -0.057263217866420746, -0.026250459253787994, -0.13375809788703918, -0.14765161275863647, 0.135652095079422, 0.0046433634124696255, -0.0032665682956576347, 0.024108942598104477, 0.012551497668027878, -0.01965700462460518, -0.022051729261875153, -0.03238609433174133, 0.041052766144275665, -0.042580217123031616, -0.13318245112895966, -0.16412211954593658, 0.1966320276260376, 0.0733240619301796, 0.00787463877350092, 0.1432770937681198, 0.12635937333106995, -0.16651669144630432, 0.07765837013721466, -0.022180482745170593, 0.006646208465099335, 0.1566026359796524, 0.03739779070019722], [0.15180431306362152, 0.004683902952820063, -0.15212354063987732, 0.08722994476556778, -0.13066516816616058, 0.07397258281707764, 0.023553092032670975, -0.12460452318191528, 0.0031000394374132156, -0.25655269622802734, -0.06250699609518051, 0.11305537819862366, -0.004096082411706448, -0.0936286523938179, -0.01230558194220066, -0.19949661195278168, -0.21589519083499908, 0.25558173656463623, 0.12444509565830231, -0.2658754587173462, -0.04596562311053276, 0.03165392205119133, 0.149515762925148, 0.031510528177022934, 0.01408204436302185, 0.06862545013427734, 0.09840482473373413, -0.19161757826805115, -0.1136426031589508, -0.05300610139966011, -0.02810785174369812, 0.012648078612983227, 0.11627167463302612, 0.03994239121675491, -0.013209608383476734, 0.047736719250679016, -0.2835443913936615, 0.016672397032380104, -0.06669389456510544, 0.1596808284521103, 0.11062177270650864, -0.19236798584461212, 0.04148982837796211, -0.25277188420295715, 0.13490767776966095, 0.21656782925128937, 0.04510224238038063, 0.14579690992832184, -0.09864479303359985, -0.06619113683700562, 0.038238275796175, 0.1109255999326706, 0.05614348128437996, -0.1174781545996666, 0.20643366873264313, -0.11952731013298035, -0.06627464294433594, -0.2613188326358795, -0.04516813904047012, 0.07963533699512482, 0.03148243948817253, 0.07851092517375946, -0.006501194089651108, 0.002514073858037591], [-0.031623050570487976, -0.018028050661087036, 0.053450264036655426, -0.09433169662952423, -0.18351700901985168, -0.12968429923057556, -0.20861315727233887, -0.03984979912638664, 0.022207239642739296, 0.016559625044465065, -0.21283087134361267, -0.1348441243171692, -0.08663822710514069, -0.021656768396496773, -0.04064466059207916, -0.20683225989341736, 0.14065702259540558, 0.11276531219482422, -0.09239104390144348, -0.2137768566608429, 0.10375189036130905, 0.01881140097975731, 0.17278914153575897, -0.05661332607269287, 0.11016593873500824, 0.07663241773843765, 0.11654144525527954, -0.09089188277721405, 0.25715401768684387, 0.2118840366601944, -0.06746624410152435, 0.10507987439632416, 0.04166076332330704, 0.05874595418572426, -0.23197397589683533, -0.0580216646194458, 0.08866346627473831, -0.05422757565975189, -0.1771424412727356, 0.24438460171222687, 0.17422954738140106, 0.011726181022822857, -0.17105616629123688, -0.1134343072772026, 0.013836945407092571, 0.04332810267806053, -0.01352597028017044, 0.0676981657743454, -0.08540871739387512, 0.014547962695360184, -0.18072271347045898, 0.06608742475509644, -0.13246750831604004, 0.10371671617031097, -0.030724087730050087, -0.05147409811615944, 0.12151328474283218, -0.11105328798294067, 0.040154360234737396, 0.1531558781862259, -0.21150650084018707, 0.009233569726347923, -0.014105756767094135, -0.054013729095458984], [0.17214594781398773, 0.12738721072673798, -0.008931129239499569, 0.17134641110897064, -0.13709719479084015, 0.03966187313199043, 0.046531952917575836, 0.10497783124446869, 0.05558019503951073, 0.12489961832761765, -0.15933386981487274, 0.2541584372520447, -0.1450892984867096, -0.024291981011629105, -0.04359754920005798, -0.2180517464876175, 0.1940993219614029, -0.1664581447839737, -0.09218575805425644, 0.20406341552734375, -0.10318440943956375, -0.08751601725816727, -0.022770816460251808, -0.21383976936340332, -0.03259880468249321, 0.12346582114696503, 0.0663902536034584, 0.20109179615974426, 0.0636923611164093, -0.016762062907218933, -0.05450055003166199, 0.07575355470180511, 0.056013789027929306, 0.1711176484823227, 0.1537165641784668, 0.024604449048638344, -0.15160652995109558, 0.036023057997226715, -0.24902255833148956, 0.09139104187488556, -0.003876985516399145, -0.12560828030109406, 0.024553215131163597, 0.018519597128033638, -0.00446515204384923, 0.2036832720041275, 0.001921250601299107, -0.01127099059522152, 0.020043116062879562, -0.10404326766729355, -0.09432382881641388, 0.03007911890745163, -0.08117438852787018, -0.027975859120488167, -0.16642755270004272, -0.005707201547920704, -0.20637455582618713, 0.06036556139588356, 0.08020935207605362, 0.17025475203990936, -0.03575986251235008, 0.2601322531700134, -0.06883710622787476, -0.17931275069713593], [0.11316142976284027, -0.09881124645471573, 0.010429133661091328, 0.15038569271564484, -0.05340709164738655, -0.2175837904214859, 0.19670246541500092, 0.2266143262386322, 0.007765473797917366, 0.07831759005784988, -0.06580475717782974, -0.005810481030493975, 0.16532860696315765, 0.03621898218989372, -0.05401114374399185, 0.24913717806339264, -0.08163054287433624, -0.026986517012119293, 0.01776978187263012, -0.19947795569896698, 0.20600059628486633, -0.037274617701768875, 0.007899420335888863, 0.10240206867456436, 0.028467878699302673, -0.10515353083610535, 0.08657827973365784, 0.2607797086238861, 0.15901531279087067, -0.0759575366973877, -0.1926172971725464, 0.19954130053520203, 0.009991801343858242, -0.0972110703587532, 0.02035094052553177, -0.06464778631925583, -0.060355283319950104, 0.146063894033432, 0.19602973759174347, 0.023466307669878006, -0.0015227608382701874, -0.004036985337734222, -0.1389835625886917, -0.02727445960044861, -0.08538659662008286, 0.0010101892985403538, 0.1423214226961136, -0.12179264426231384, -0.027832355350255966, -0.08940661698579788, 0.10058869421482086, 0.019536547362804413, -0.08599218726158142, -0.05490390211343765, -0.0973438024520874, -0.23082196712493896, 0.049107249826192856, 0.08957212418317795, -0.08866191655397415, 0.02938675507903099, -0.23572932183742523, -0.12373602390289307, 0.1078852191567421, -0.013051352463662624], [0.12048317492008209, 0.05128765106201172, 0.08930265158414841, 0.21191196143627167, -0.24435512721538544, -0.14642487466335297, 0.023990606889128685, -0.16013510525226593, 0.08812759071588516, -0.2814318835735321, 0.21549463272094727, 0.1504746526479721, -0.2803504168987274, 0.21345928311347961, -0.03658077493309975, -0.14025618135929108, 0.2088792473077774, 0.11968518793582916, 0.17114336788654327, -0.02795199304819107, 0.03029973991215229, 0.0829048752784729, 0.0552506186068058, -0.1452658772468567, -0.23386786878108978, 0.12409068644046783, 0.13073991239070892, 0.12299593538045883, 0.07308024168014526, -0.08710445463657379, 0.052442919462919235, 0.15612737834453583, -0.07704272866249084, -0.1612168848514557, 0.23994331061840057, 0.10893166065216064, -0.2332799732685089, -0.019801011309027672, 0.21213069558143616, -0.005073149222880602, 0.14284750819206238, -0.21451812982559204, 0.07166501134634018, 0.2593720257282257, -0.18778082728385925, -0.009861305356025696, 0.0983496904373169, 0.030562587082386017, 0.11892799288034439, -0.05128366872668266, 0.008820141665637493, -0.12847161293029785, 0.0289303008466959, 0.254142165184021, -0.26349225640296936, 0.13808877766132355, 0.0839654877781868, -0.0528804287314415, 0.15189194679260254, 0.05388348922133446, 0.19524304568767548, 0.23750285804271698, 0.0011699572205543518, -0.16094133257865906], [-0.1824442744255066, -0.21522881090641022, -0.16901782155036926, 0.13538561761379242, 0.16890732944011688, 0.19750434160232544, 0.03913738206028938, -0.06643466651439667, 0.07130630314350128, 0.1553281843662262, -0.18502354621887207, -0.11564411222934723, -0.1678958237171173, -0.046309467405080795, 0.06245305389165878, -0.01281794160604477, -0.07011681795120239, -0.08362559229135513, -0.23680853843688965, -0.12547913193702698, -0.1834993213415146, 0.15822036564350128, -0.20644058287143707, -0.2644574046134949, 0.018291916698217392, -0.06243474781513214, -0.150016650557518, 0.07327984273433685, 0.031293462961912155, 0.06556189805269241, -0.1398106813430786, 0.12157236784696579, 0.09008914977312088, 0.1127517819404602, 0.14552396535873413, -0.07227784395217896, -0.07465922087430954, 0.00190588622353971, 0.2693310081958771, -0.14468379318714142, -0.14308486878871918, 0.1664491593837738, -0.027310827746987343, 0.13057738542556763, 0.12319846451282501, 0.2075451761484146, -0.06681420654058456, -0.027976475656032562, -0.03178324177861214, -0.03752846643328667, -0.02385532297194004, 0.09967190027236938, 0.058616090565919876, -0.025723174214363098, 0.0998971238732338, -0.015491949394345284, -0.15096928179264069, 0.048408739268779755, -0.05800122022628784, 0.030049923807382584, -0.06471555680036545, 0.006743215024471283, 0.2121484875679016, -0.06422071158885956], [-0.04476998746395111, 0.07192720472812653, 0.2703306972980499, 0.014406191185116768, -0.005710895173251629, 0.21150055527687073, 0.14174015820026398, -0.02332984283566475, -0.007175346836447716, -0.11329406499862671, -0.07774187624454498, -0.15605446696281433, 0.03323677182197571, 0.07411085069179535, -0.15749090909957886, 0.26409679651260376, 0.05675801634788513, -0.049649208784103394, 0.13405601680278778, -0.09529069066047668, 0.07833265513181686, 0.04112912341952324, -0.086356520652771, 0.041150398552417755, 0.14714033901691437, 0.26785215735435486, 0.07402122765779495, 0.19784891605377197, 0.13770101964473724, -0.2719489336013794, -0.030229702591896057, -0.07650557905435562, -0.1116812527179718, -0.08241144567728043, -0.04100736603140831, -0.23350246250629425, 0.05876949056982994, -0.04898842051625252, -0.11421948671340942, -0.20600526034832, -0.044369615614414215, -0.030655324459075928, -0.04237446188926697, 0.21798808872699738, -0.1375618577003479, 0.06655047088861465, -0.013427212834358215, 0.17036578059196472, -0.0482485257089138, -0.12517431378364563, -0.16367387771606445, -0.13385826349258423, 0.10711441934108734, 0.14654047787189484, 0.27135923504829407, 0.01842770352959633, 0.023945167660713196, 0.14510604739189148, -0.006210904568433762, 0.1650232970714569, -0.20362405478954315, 0.03974878042936325, 0.015632621943950653, -0.04729621484875679], [0.07887286692857742, -0.05725722014904022, -0.050678662955760956, 0.16952835023403168, -0.19624704122543335, 0.11133325845003128, -0.0536922961473465, -0.10648785531520844, -0.01928381249308586, 0.11566587537527084, -0.15170499682426453, -0.22241829335689545, -0.2573855221271515, -0.11902355402708054, -0.06943060457706451, -0.07593853026628494, 0.09751267731189728, -0.20959880948066711, 0.0380292572081089, -0.14193351566791534, -0.07974652200937271, -0.05931399017572403, -0.18233154714107513, -0.08613843470811844, 0.09333071112632751, -0.15485194325447083, 0.04876020550727844, -0.1604982167482376, 0.004492660518735647, -0.015430769883096218, 0.022936319932341576, 0.15149669349193573, 0.13419298827648163, 0.050495538860559464, -0.053390733897686005, -0.04247673973441124, 0.02029266767203808, -0.2301436811685562, 0.048927005380392075, -0.10478515923023224, 0.1479145884513855, -0.0918799638748169, -0.22051358222961426, 0.17399878799915314, -0.10954699665307999, -0.08115369081497192, -0.09152118116617203, 0.08124817162752151, -0.005442705005407333, -0.18616509437561035, -0.058841805905103683, -0.17597761750221252, 0.011195839382708073, 0.05875518172979355, -0.1839245706796646, 0.0281224325299263, 0.0785110592842102, -0.111723892390728, -0.0626266673207283, 0.1589004248380661, 0.1488332897424698, 0.14573581516742706, -0.09196768701076508, -0.049574945122003555], [0.052137263119220734, 0.017788708209991455, -0.02373778261244297, -0.09678478538990021, 0.08089010417461395, -0.24096667766571045, 0.021919608116149902, -0.1227511316537857, -0.09429008513689041, 0.04658494144678116, -0.044111523777246475, -0.025331664830446243, 0.10724854469299316, -0.007324963342398405, 0.011585159227252007, -0.0905105397105217, 0.1315787136554718, -0.14177416265010834, -0.21711307764053345, 0.1257612109184265, 0.0752507746219635, -0.030319830402731895, 0.1428898572921753, 0.10441995412111282, -0.035409655421972275, -0.02977268025279045, -0.1660590022802353, 0.07319463044404984, 0.25548192858695984, 0.017517274245619774, 0.09200827777385712, -0.2295333445072174, -0.025015518069267273, -0.07185283303260803, 0.2183011919260025, 0.08889585733413696, 0.16240157186985016, 0.06402559578418732, 0.053602367639541626, -0.06778668612241745, -0.07333174347877502, -0.07614228129386902, -0.001547640422359109, -0.024850329384207726, 0.06170760467648506, 0.22321610152721405, -0.23369641602039337, -0.27275821566581726, -0.12846218049526215, 0.2800391614437103, 0.01768171414732933, -0.010044410824775696, 0.03065587393939495, -0.0022713399957865477, 0.11801665276288986, -0.10941959172487259, 0.03738098964095116, -0.11164978891611099, 0.21831294894218445, -0.14264121651649475, -0.0014831472653895617, 0.04594176262617111, -0.06410098075866699, 0.006043977104127407], [-0.02509976178407669, -0.003579728538170457, 0.12915995717048645, -0.06832541525363922, -0.06730392575263977, 0.08094646036624908, 0.20749619603157043, -0.05723721906542778, -0.10260297358036041, 0.22430744767189026, -0.0988110676407814, 0.15496061742305756, -0.15797428786754608, -0.08306668698787689, 0.21090129017829895, -0.17208106815814972, -0.019804030656814575, 0.09191538393497467, 0.22318138182163239, 0.18254274129867554, 0.11645010858774185, -0.12603017687797546, 0.08480094373226166, -0.18273349106311798, -0.014723648317158222, 0.03503476828336716, 0.08557527512311935, -0.024833789095282555, 0.005674262531101704, -0.011432962492108345, 0.18814131617546082, -0.22996357083320618, -0.012568020261824131, -0.11802267283201218, 0.015265857800841331, -0.06473205983638763, -0.1898856908082962, -0.2117827832698822, -0.04253276064991951, -0.2778399586677551, 0.03377266228199005, -0.12030480802059174, -0.12677012383937836, 0.05456096678972244, 0.021190132945775986, 0.19258834421634674, -0.13732406497001648, -0.00525702117010951, -0.11915560066699982, 0.076248899102211, -0.011971797794103622, 0.14287886023521423, -0.06863318383693695, 0.11797633767127991, -0.17399828135967255, -0.21843086183071136, 0.1039644330739975, -0.06428065896034241, 0.007944085635244846, 0.15485797822475433, -0.14597734808921814, 0.09318456798791885, 0.06971199810504913, -0.1824915111064911]]}}, "Dense_1": {"0+": {"bias": [-0.0001421890628989786, -5.612838867818937e-05, 8.731677371542901e-05, 0.00014656208804808557, -9.493734978605062e-05, -0.0001598196686245501, 9.807018795982003e-05, -0.00024989969097077847, 0.00024631214910186827, 0.00024274650786537677, 0.00012889849313069135, 0.00025560386711731553, 0.0003345428849570453, -0.000158716895384714, -0.00042623397894203663, 0.000239088898524642, 3.636527981143445e-05, -7.406149234157056e-05, 7.512133743148297e-05, -5.951443745288998e-05, 0.0003773545322474092, -0.00017559748084750026, -0.00025500438641756773, 8.272899140138179e-05, -0.00035357699380256236, 0.00015709451690781862, 4.8359444917878136e-05, -0.0001537698262836784, 2.9866376280551776e-05, 9.482741916144732e-06, 2.9440305297612213e-05, -7.792685210006312e-05, 9.039859287440777e-05, 6.4082421886269e-05, -4.5324628445087e-05, -3.6441488191485405e-05, 0.00035902750096283853, 0.00033769430592656136, 8.86996349436231e-05, 0.00032227375777438283, 0.00014553507207892835, -0.00024668851983733475, -0.0002458867384120822, 0.00031563048833049834, 6.496482819784433e-05, 0.00012331859034020454, 7.096729677869007e-05, -8.347351104021072e-05, 0.0002091421338263899, -0.00022464683570433408, 0.00012195629824418575, 0.0001850769476732239, -0.00013020542974118143, 0.00017987402679864317, 8.615908882347867e-05, 0.00012476416304707527, -0.0003359690890647471, 7.13138360879384e-05, 0.00028412422398105264, 0.0001458194456063211, -4.74402513646055e-05, -0.000488347141072154, -0.00018259773787576705, 1.9211591279599816e-05], "kernel": [[0.20748722553253174, -0.2457708716392517, 0.18185627460479736, -0.041717804968357086, 0.07017821073532104, -0.018471283838152885, 0.2354261726140976, 0.1960756629705429, 0.04464372992515564, 0.11909513175487518, 0.062349408864974976, 0.02424459718167782, 0.09478282183408737, -0.15034638345241547, 0.046911198645830154, -0.06993237882852554, 0.017157774418592453, 0.2539598345756531, -0.2221747189760208, 0.03830832242965698, 0.2058759480714798, -0.11193794757127762, 0.01888529397547245, -0.03693785518407822, 0.17882654070854187, -0.2512562572956085, -0.06312310695648193, 0.22243933379650116, 0.15578778088092804, 0.15282435715198517, 0.16361407935619354, -0.01444749440997839, -0.10379818081855774, -0.13614609837532043, -0.00026207350310869515, 0.1370496302843094, 0.18952235579490662, 0.10447188466787338, -0.032262448221445084, -0.07260233908891678, -0.2778080105781555, -0.028702788054943085, 0.07461123168468475, -0.061210595071315765, -0.07026179879903793, 0.011848518624901772, -0.042171768844127655, 0.06368111073970795, -0.013126659207046032, -0.19011950492858887, 0.10704460740089417, 0.18254928290843964, 0.16186554729938507, -0.08386015892028809, -0.18258953094482422, 0.12538816034793854, -0.002204739721491933, -0.240625262260437, 0.13744527101516724, 0.07225567102432251, 0.09362342953681946, 0.19226156175136566, 0.0565333366394043, -0.12755320966243744], [-0.02014830894768238, 0.2609007954597473, 0.048449140042066574, -0.08984283357858658, 0.18031032383441925, -0.008722374215722084, -0.18287229537963867, 0.0028455029241740704, 0.15077193081378937, -0.2352803498506546, 0.0031025775242596865, -0.0011931211920455098, -0.0005659789894707501, 0.2384132593870163, -0.15875060856342316, 0.10100051015615463, 0.09944839030504227, 0.0637778639793396, 0.06890124827623367, 0.08339481055736542, 0.10702574998140335, 0.13825584948062897, -0.08669889718294144, -0.1087295264005661, 0.25599542260169983, 0.050214070826768875, 0.24605542421340942, 0.03907938301563263, 0.1358330100774765, 0.0526595301926136, 0.1796509027481079, -0.061368368566036224, -0.032693490386009216, 0.03378266096115112, -0.035906851291656494, 0.008517651818692684, 0.19816166162490845, -0.04863302409648895, 0.10923820734024048, 0.11571037024259567, 0.07693592458963394, -0.1410229653120041, 0.06545237451791763, -0.12305618077516556, 0.06679762899875641, -0.009545632638037205, 0.030322285369038582, -0.13411125540733337, -0.028934219852089882, 0.025875233113765717, -0.17011457681655884, -0.09866638481616974, 0.20601606369018555, -0.11235988140106201, 0.2149687111377716, 0.09208010137081146, 0.018871629610657692, 0.00937633030116558, -0.21461519598960876, 0.03597165644168854, 0.2069590836763382, 0.08899122476577759, 0.08506982028484344, -0.039583735167980194], [-0.07449068129062653, -0.014487619511783123, 0.035485439002513885, -0.10451734066009521, 0.12309374660253525, -0.11163009703159332, 0.1213376447558403, -0.017959514632821083, -0.2567620277404785, -0.07625900954008102, -0.10125955194234848, 0.02022903598845005, -0.0665193572640419, -0.021985532715916634, 0.1122848242521286, 0.12894307076931, -0.05981708690524101, 0.16077131032943726, 0.00888280849903822, -0.07631715387105942, 0.07538733631372452, -0.10431769490242004, 0.034326259046792984, 0.07167041301727295, -0.08246740698814392, -0.0976686030626297, -0.10276094824075699, 0.20514889061450958, 0.1393749713897705, -0.011059146374464035, -0.2578154504299164, 0.1667061299085617, -0.08553329110145569, 0.02935405634343624, 0.024026578292250633, 0.009602206759154797, -0.22456468641757965, -0.002957461168989539, 0.053720396012067795, 0.22670374810695648, 0.056390319019556046, -0.1540604829788208, 0.22488568723201752, -0.018854746595025063, -0.17765183746814728, -0.0884324461221695, 0.0572359673678875, -0.08333174884319305, 0.012272469699382782, -0.014431605115532875, -0.10255962610244751, 0.2674171030521393, -0.05730033665895462, 0.13820479810237885, -0.012782465666532516, 0.06847860664129257, -0.019541075453162193, 0.11259681731462479, 0.1390562802553177, -0.06421397626399994, 0.10890098661184311, -0.1481882631778717, 0.0182767566293478, -0.00640456099063158], [-0.06418320536613464, -0.06740392744541168, -0.10841140896081924, -0.005188507027924061, -0.016463732346892357, -0.04200810566544533, -0.1459023803472519, -0.05077832564711571, -0.059178151190280914, 0.14526140689849854, -0.22076068818569183, -0.10312929004430771, 0.10446524620056152, 0.03437625989317894, 0.02591533027589321, 0.0510055311024189, -0.2348565012216568, 0.03223184868693352, 0.14944559335708618, -0.04541962966322899, -0.05366422235965729, -0.24544017016887665, 0.12415634095668793, 0.11964383721351624, 0.057340268045663834, -0.09907224774360657, 0.22395050525665283, -0.020543204620480537, 0.02867555059492588, 0.038253385573625565, 0.16228415071964264, -0.029974160715937614, 0.05941152945160866, -0.043823014944791794, -0.12197397649288177, -0.0645851418375969, 0.1483170986175537, 0.11059774458408356, -0.08173692226409912, -0.09580707550048828, -0.1537185162305832, 0.04090067744255066, 0.05494885519146919, -0.05885189026594162, 0.04341528192162514, 0.2819138169288635, -0.27731648087501526, 0.12851732969284058, -0.0974976047873497, -0.15079817175865173, 0.10162761807441711, 0.13032932579517365, -0.0021298222709447145, -0.0893082544207573, 0.025844631716609, 0.18209420144557953, 0.060155268758535385, 0.1323661506175995, -0.07068111002445221, -0.22207792103290558, 0.0781976506114006, -0.13051657378673553, 0.022627636790275574, -0.17223022878170013], [-0.1856185495853424, -0.04086754843592644, -0.23712623119354248, 0.12794233858585358, -0.12636297941207886, -0.12802334129810333, 0.023567726835608482, -0.0212342981249094, -0.1612258404493332, 0.12694227695465088, 0.02668590284883976, 0.009997699409723282, -0.19414359331130981, 0.19599150121212006, 0.021340493112802505, -0.267345666885376, -0.15889112651348114, -0.056622836738824844, -0.007557510863989592, 0.07185676693916321, -0.015123972669243813, 0.06731271743774414, 0.2608645260334015, 0.06547717750072479, -0.10106674581766129, 0.005543285049498081, 0.12341168522834778, 0.035600531846284866, 0.09289377927780151, 0.14101584255695343, -0.13418938219547272, 0.188124418258667, 0.12012981623411179, -0.02281438559293747, -0.033933572471141815, 0.06969939172267914, -0.2402401864528656, 0.06179606169462204, 0.14018367230892181, -0.2370162159204483, 0.17521829903125763, -0.08900289237499237, -0.017578113824129105, -0.10922642797231674, 0.13623106479644775, -0.07784964144229889, 0.05124480277299881, -0.0185735821723938, -0.08411340415477753, -0.02503102831542492, -0.2760707139968872, -0.06051674485206604, -0.24571336805820465, 0.07428766787052155, -0.09040066599845886, -0.041409850120544434, -0.1619388312101364, -0.11077351123094559, -0.16153813898563385, 0.1479111909866333, -0.2037036269903183, 0.20437830686569214, 0.18563364446163177, -0.0586225800216198], [-0.15297071635723114, 0.008440768346190453, 0.057100810110569, 0.19304576516151428, -0.05781926214694977, -0.20478257536888123, 0.06236054375767708, -0.11356589198112488, -0.16658160090446472, 0.18948329985141754, 0.2344321608543396, -0.21379821002483368, 0.07545098662376404, -0.045890189707279205, -0.0049235704354941845, -0.23201602697372437, 0.16170617938041687, -0.11590687185525894, 0.04336145892739296, 0.0686245709657669, 0.2120322585105896, -0.0023745468351989985, 0.08518349379301071, 0.2492719143629074, 0.09163939952850342, 0.015668025240302086, 0.006789767183363438, 0.0448760986328125, -0.13316215574741364, -0.004046416375786066, 0.06509152799844742, 0.1695776730775833, 0.05029381811618805, -0.04481589049100876, 0.24899178743362427, 0.23995617032051086, -0.18559210002422333, 0.09268414229154587, 0.040796421468257904, 0.16023902595043182, -0.09690158069133759, 0.2822953760623932, -0.12348680943250656, -0.0309482179582119, 0.005111591424793005, 0.1005399227142334, -0.02159804105758667, -0.28244972229003906, -0.048986636102199554, -0.032860927283763885, 0.014897644519805908, 0.25592732429504395, -0.0592973455786705, 0.0011952512431889772, 0.06628350913524628, 0.07132087647914886, -0.07914320379495621, -0.1203727200627327, 0.17159925401210785, -0.09983886778354645, -0.18105243146419525, 0.1309216469526291, -0.02175034023821354, -0.08419497311115265], [-0.17157958447933197, -0.0031223129481077194, -0.003847378073260188, -0.24809063971042633, 0.0845361277461052, 0.16567394137382507, 