{"params": {"Dense_0": {"0+": {"bias": [-0.011258160695433617, -0.015776634216308594, 0.06283174455165863, -0.0031765764579176903, -0.03365405276417732, 0.0009115618304349482, -0.01302599161863327, 0.021147312596440315, -0.016008853912353516, 0.07292352616786957, -0.0200311541557312, -0.020234934985637665, -0.025078751146793365, -0.020254088565707207, -0.031968023627996445, -0.008572780527174473, -0.011069116182625294, -0.012177742086350918, -0.03108881786465645, -0.06836828589439392, -0.04731793701648712, 0.04004257172346115, 0.010565568692982197, -0.007264391519129276, -0.03199452906847, -0.010608662851154804, -0.0030807703733444214, -0.020644614472985268, -0.005543461535125971, -0.018158486112952232, 0.01605510339140892, -0.015843726694583893, 0.0394061878323555, -0.016810933127999306, -0.013271362520754337, 0.0013213411439210176, -0.011072112247347832, -0.023832282051444054, -0.022218530997633934, -0.005415693391114473, -0.0028589190915226936, -0.012553894892334938, -0.028064701706171036, 0.05009112507104874, -0.009595298208296299, -0.008761988952755928, -0.03316941112279892, -0.011213080026209354, 0.0014810989378020167, -0.018680695444345474, -0.00956820696592331, -0.0009963001357391477, -0.025300443172454834, -0.011820385232567787, -0.027593042701482773, -0.0241137333214283, -0.03145443648099899, -0.02207639254629612, -0.0016019821632653475, 0.016648637130856514, -0.012873183004558086, 0.05387337505817413, -0.013254236429929733, -0.03445712849497795], "kernel": [[-0.02334989793598652, 0.13660961389541626, -0.017103029415011406, 0.08851031959056854, 0.0973811075091362, 0.017441311851143837, -0.07229650020599365, 0.1558668464422226, 0.07688351720571518, -0.12729696929454803, -0.01753980852663517, 0.11220499128103256, -0.2353622168302536, -0.32122427225112915, 0.07507528364658356, -0.13794150948524475, 0.024697113782167435, 0.09328492730855942, -0.10002316534519196, 0.20366165041923523, 0.05746205151081085, 0.09354423731565475, -0.05839695408940315, 0.0715559870004654, 0.2150246798992157, 0.11668272316455841, 0.1954559087753296, -0.012913365848362446, -0.13448193669319153, -0.11807405948638916, 0.07371244579553604, 0.1668093055486679, 0.03139220178127289, -0.07160761952400208, -0.16918261349201202, -0.18269169330596924, 0.13341082632541656, 0.05018806457519531, -0.15286166965961456, -0.039017025381326675, 0.1365179717540741, 0.038448430597782135, 0.08320945501327515, -0.02886022813618183, -0.03953733667731285, 0.03510815277695656, 0.12314276397228241, -0.059889521449804306, 0.1682129204273224, -0.1846449226140976, -0.13455809652805328, -0.031746670603752136, 0.05970541760325432, 0.047516826540231705, 0.2564907371997833, -0.2056606262922287, -0.05901992693543434, -0.1100441962480545, -0.20812691748142242, -0.1317516416311264, -0.26609161496162415, -0.020134933292865753, 0.07606164366006851, 0.07701017707586288], [0.24644063413143158, -0.026597922667860985, -0.1338583528995514, -0.1844327449798584, -0.040503837168216705, -0.13045018911361694, 0.008448056876659393, 0.2232544720172882, 0.045032452791929245, -0.13702622056007385, -0.04103255271911621, -0.11731916666030884, 0.019080178812146187, 0.2870645821094513, 0.028091244399547577, 0.02142895944416523, -0.06839759647846222, -0.07514498382806778, 0.20797106623649597, 0.2471243143081665, 0.10085032880306244, 0.13672244548797607, 0.05347482115030289, 0.1463252753019333, 0.24157243967056274, -0.13426080346107483, 0.12495612353086472, 0.06095510721206665, 0.1835966557264328, 0.13862335681915283, 0.0822700783610344, 0.04487214237451553, 0.13800325989723206, 0.1000177264213562, -0.06292086839675903, 0.021237891167402267, 0.1129872277379036, 0.012510815635323524, 0.001239126198925078, -0.008309483528137207, 0.05912286043167114, -0.08785443007946014, 0.015811773017048836, 0.05289684608578682, 0.05770125240087509, 0.1359456181526184, -0.07322603464126587, 0.04304667189717293, -0.10925670713186264, -0.10797802358865738, 0.019278494641184807, -0.00828249379992485, 0.2737516462802887, 0.015262842178344727, -0.08201205730438232, -0.08116284012794495, 0.2143644094467163, -0.042187243700027466, 0.27498650550842285, -0.07706437259912491, 0.08941122889518738, -0.07000920921564102, 0.09491291642189026, -0.1441892832517624], [-0.10330948978662491, -0.03681947663426399, 0.21092143654823303, -0.05771518498659134, 0.023627394810318947, 0.02472909912467003, -0.04676160588860512, -0.12471120804548264, 0.020325088873505592, 0.05297378450632095, 0.07758969813585281, 0.0408717542886734, 0.08292117714881897, 0.11100513488054276, 0.08403332531452179, 0.05149150639772415, 0.13981285691261292, 0.13978278636932373, 0.08319193124771118, -0.03929593786597252, 0.09883970767259598, -0.0002818501670844853, -0.07273651659488678, 0.09942465275526047, -0.0672711506485939, -0.18395645916461945, -0.04913589730858803, 0.011080505326390266, 0.030556751415133476, 0.17777760326862335, -0.0756385549902916, 0.07057042419910431, 0.024715440347790718, 0.0576685406267643, 0.1109689399600029, -0.06856098026037216, 0.11647670716047287, 0.016969749704003334, -0.17944906651973724, 0.14037375152111053, -0.024906139820814133, -0.15208575129508972, -0.09231270104646683, 0.16237838566303253, 0.12531691789627075, 0.20964086055755615, 0.0046476032584905624, 0.05532432720065117, -0.16695168614387512, 0.05137016251683235, 0.10042668879032135, 0.029903247952461243, -0.10981158912181854, -0.14221134781837463, -0.1512007862329483, -0.08357341587543488, 0.035755641758441925, 0.007747892290353775, 0.09366931021213531, -0.008600964210927486, 0.05473638325929642, 0.011020329780876637, -0.1786281317472458, -0.04233723506331444], [-0.10739430785179138, -0.12372718006372452, 0.05999846011400223, -0.01288186851888895, 0.028639456257224083, 0.04821160435676575, 0.06861739605665207, 0.05539572983980179, 0.035298556089401245, -0.28008270263671875, -0.030339550226926804, 0.010536560788750648, 0.013257993385195732, -0.13130073249340057, 0.09178633242845535, 0.1364966332912445, 0.12689107656478882, -0.021177716553211212, -0.04277379438281059, 0.036341745406389236, -0.14368581771850586, 0.23953303694725037, 0.15125936269760132, 0.16170698404312134, -0.2508590817451477, 0.11139869689941406, -0.00872436910867691, -0.23893983662128448, 0.15894953906536102, -0.13868385553359985, 0.21519210934638977, 0.12808361649513245, -0.14329929649829865, 0.04379832372069359, -0.22691300511360168, -0.06426042318344116, -0.015717945992946625, 0.07520636171102524, -0.18626411259174347, -0.1053987592458725, -0.0945630744099617, 0.2523273825645447, 0.18377169966697693, 0.29050374031066895, -0.0624152272939682, -0.0005453558405861259, -0.08466669917106628, -0.10989725589752197, -0.0974884107708931, 0.13950380682945251, -0.026821549981832504, -0.01137404516339302, -0.11917883157730103, 0.03955000266432762, -0.09176784753799438, 0.2094474732875824, 0.1998286247253418, -0.18495652079582214, -0.11442527174949646, 0.06496165692806244, 0.04968562722206116, -0.003391380188986659, 0.15859586000442505, -0.12657803297042847], [-0.06363241374492645, 0.05339537560939789, -0.184031680226326, 0.07161768525838852, -0.06730355322360992, -0.21458104252815247, 0.011301983147859573, 0.008324876427650452, -0.012140549719333649, -0.08168669044971466, 0.02059374377131462, -0.1812714785337448, 0.11012466251850128, 0.050945498049259186, 0.12241796404123306, -0.05759405717253685, -0.11088543385267258, 0.0015773626510053873, -0.02805265039205551, 0.17936472594738007, -0.03351280465722084, -0.17720770835876465, 0.0791335329413414, 0.16934949159622192, 0.05766690522432327, -0.030231576412916183, 0.01085861586034298, -0.11598952859640121, 0.25047722458839417, -0.07873589545488358, 0.06513820588588715, -0.14898526668548584, 0.24286946654319763, 0.07395590096712112, 0.2136252075433731, 0.07760684192180634, 0.06392885744571686, 0.021835241466760635, -0.09699524939060211, 0.07930950820446014, -0.010272322222590446, -0.011083001270890236, -0.09092524647712708, 0.028848882764577866, -0.15189099311828613, -0.0961025133728981, -0.014318843372166157, -0.17811480164527893, -0.2673281133174896, -0.0322292223572731, 0.008030125871300697, 0.13478580117225647, -0.08851389586925507, -0.0490286611020565, 0.00582639267668128, -0.008918626233935356, -0.0238459762185812, -0.16351643204689026, 0.11264385282993317, -0.04000004380941391, -0.0755537748336792, 0.2501809298992157, -0.0662442147731781, -0.03369864821434021], [0.11272461712360382, -0.09644092619419098, -0.041655272245407104, 0.02611721120774746, -0.043464209884405136, -0.10085517913103104, 0.0790148377418518, -0.04438797011971474, -0.0242840014398098, 0.045797500759363174, 0.05956646800041199, 0.2231551855802536, 0.06427917629480362, 0.22077710926532745, 0.06031182035803795, 0.12806491553783417, -0.07584215700626373, 0.12181152403354645, -0.09644002467393875, -0.09212548285722733, -0.037384938448667526, 0.03148595243692398, -0.18925592303276062, -0.06806652992963791, 0.04301612451672554, -0.03586547076702118, -0.27428779006004333, -0.019576741382479668, 0.01758851483464241, 0.08609550446271896, 0.09915795922279358, 0.19188793003559113, 0.1363106667995453, -0.0941419005393982, 0.1861482411623001, 0.09528189897537231, -0.2566539943218231, 0.09955330193042755, 0.1783687323331833, -0.10677702724933624, 0.1319418102502823, 0.026946239173412323, 0.11174355447292328, -0.1471061110496521, -0.0994642898440361, 0.26402369141578674, 0.15683400630950928, 0.006597619969397783, 0.0354950837790966, 0.042538780719041824, -0.020328205078840256, 0.21629716455936432, 0.1309126764535904, 0.09721586108207703, -0.21055790781974792, -0.03763144090771675, -0.015843521803617477, 0.13762632012367249, -0.21309347450733185, 0.09258801490068436, 0.23707738518714905, -0.018714075908064842, 0.06395107507705688, 0.05479525029659271], [0.09639014303684235, -0.05832520127296448, -0.09738993644714355, -0.01647910289466381, 0.17567338049411774, -0.12604840099811554, 0.04051421955227852, 0.03896578401327133, 0.12614227831363678, -0.14396166801452637, -0.025834202766418457, -0.08167635649442673, -0.11476339399814606, -0.14569219946861267, -0.014339164830744267, -0.0581359937787056, -0.15079709887504578, 0.20188544690608978, -0.08021096140146255, 0.078391894698143, -0.11447691917419434, 0.038135968148708344, 0.044387198984622955, 0.03414896875619888, 0.11023217439651489, -0.13428890705108643, -0.30740898847579956, 0.09841599315404892, -0.07797057181596756, 0.05635954812169075, 0.05455871298909187, -0.05189993232488632, 0.04687128961086273, -0.09167584031820297, -0.13837291300296783, -0.13267630338668823, -0.2698895335197449, -0.09823589026927948, -0.021789656952023506, -0.05134795606136322, -0.16238977015018463, -0.021449947729706764, 0.03784181550145149, 0.24924588203430176, -0.05959727615118027, -0.14950145781040192, -0.13140739500522614, 0.1598474681377411, -0.14562049508094788, 0.15075194835662842, -0.0007683162111788988, -0.22449050843715668, 0.036673031747341156, -0.12439996749162674, -0.0761706531047821, -0.07202299684286118, 0.038937896490097046, 0.1792861819267273, 0.029413815587759018, 0.009098188020288944, 0.05995624512434006, 0.15724126994609833, -0.2617008686065674, -0.14074712991714478], [-0.0029563200660049915, -0.17281416058540344, 0.11548276245594025, -0.023623520508408546, -0.12998604774475098, -0.08497947454452515, -0.1329904943704605, -0.1523624062538147, -0.12115434557199478, 0.29041364789009094, 0.05256962403655052, -0.21949586272239685, -0.0773235559463501, 0.20866098999977112, -0.17428328096866608, -0.25375810265541077, 0.04331690073013306, 0.07798183709383011, 0.0696527361869812, 0.00954760517925024, 0.02620183303952217, 0.0647137314081192, 0.03096681274473667, -0.06215878576040268, 0.057368841022253036, 0.051774762570858, 0.03748742491006851, 0.15206937491893768, -0.2179543823003769, -0.1158590018749237, -0.18507826328277588, -0.06362989544868469, 0.13096444308757782, 0.07524902373552322, 0.17752571403980255, -0.0407644584774971, 0.1208406388759613, -0.17648543417453766, 0.07526607811450958, 0.0752309113740921, -0.09809055179357529, -0.057241290807724, -0.014818084426224232, 0.31141263246536255, 0.021831750869750977, -0.032862816005945206, 0.1435934454202652, 0.0582331120967865, -0.16235186159610748, -0.04799014329910278, 0.1725296974182129, -0.17278625071048737, -0.07241974025964737, 0.006679860409349203, 0.08892709761857986, 0.04193977639079094, 0.05472828447818756, 0.13529561460018158, 0.047291893512010574, 0.12238670140504837, 0.08158933371305466, 0.08646311610937119, -0.0919269323348999, -0.09943117201328278], [0.08237755298614502, -0.020985906943678856, 0.1666969209909439, 0.030038638040423393, 0.08766324818134308, -0.05471331998705864, -0.011852217838168144, -0.035928867757320404, 0.18355000019073486, -0.09400323778390884, -0.0480431392788887, 0.04019513726234436, 0.041650839149951935, -0.2738846242427826, -0.06668516248464584, -0.117606520652771, 0.0675790086388588, -0.048066072165966034, -0.030733034014701843, 0.12322471290826797, -0.26455703377723694, 0.09876064956188202, 0.1255675107240677, -0.22319349646568298, -0.2531595528125763, 0.0008424667757935822, 0.0801495611667633, 0.0074905999936163425, 0.046226054430007935, 0.010091738775372505, 0.054246366024017334, 0.02053195983171463, -0.22642719745635986, -0.15250791609287262, -0.04638001695275307, 0.011660170741379261, 0.15862447023391724, 0.13949929177761078, 0.056371059268713, -0.15038718283176422, -0.18712033331394196, -0.07425080239772797, -0.03963722288608551, 0.08362029492855072, -0.047495558857917786, -0.12371273338794708, -0.09883390367031097, -0.21355870366096497, -0.0064354632049798965, 0.11475227773189545, -0.004099423997104168, -0.10569723695516586, -0.027122315019369125, 0.06565764546394348, -0.04899789020419121, 0.07195347547531128, -0.032937437295913696, -0.008081948384642601, -0.047111548483371735, 0.03782004863023758, 0.005799742415547371, 0.1671847254037857, -0.07114135473966599, -0.11471150815486908], [-0.18861669301986694, -0.029681364074349403, -0.18092256784439087, 0.12819290161132812, -0.16698189079761505, 0.16492170095443726, -0.1310359686613083, -0.1607486605644226, 0.05003691837191582, -0.11299670487642288, 0.02050938457250595, -0.011057736352086067, -0.021923765540122986, -0.05760722607374191, 0.06267812103033066, 0.22959671914577484, -0.16443225741386414, -0.18816591799259186, -0.0525493249297142, -0.04763655737042427, -0.257112979888916, -0.10982745885848999, 0.2465294599533081, -0.16858850419521332, -0.11720456928014755, -0.0004932153387926519, -0.1858990341424942, -0.14094148576259613, -0.1552594006061554, -0.05299237370491028, -0.1435364931821823, 0.07422269880771637, -0.10720366984605789, -0.19498766958713531, 0.10800819844007492, 0.0028967878315597773, 0.008167359046638012, -0.1409955620765686, 0.008331574499607086, 0.0712084174156189, -0.0689816102385521, 0.1977810561656952, -0.025954796001315117, 0.17687246203422546, -0.181045264005661, -0.1632830798625946, 0.026947282254695892, -0.07321538776159286, 0.10358339548110962, 0.10917341709136963, -0.1846441924571991, -0.031160693615674973, -0.04866056889295578, -0.011195328086614609, -0.09127692878246307, -0.04082978889346123, 0.006066766567528248, -0.2286161631345749, -0.12500710785388947, 0.14353077113628387, -0.08019952476024628, -0.03020743653178215, 0.05870293453335762, 0.09444210678339005], [0.08203629404306412, 0.00996246188879013, -0.23189161717891693, 0.001720906002447009, 0.07510819286108017, 0.12823708355426788, -0.04832238331437111, 0.16757534444332123, -0.17033597826957703, 0.006091717164963484, 0.09666406363248825, 0.15601304173469543, -0.21325606107711792, 0.07625874876976013, -0.11712596565485, -0.0904146358370781, -0.06869282573461533, 0.17470578849315643, 0.03362048417329788, 0.047814588993787766, -0.06899946182966232, 0.10828423500061035, -0.09565035998821259, 0.3407902121543884, -0.14555054903030396, -0.0614011250436306, -0.07181080430746078, -0.0771721675992012, -0.08889357000589371, 0.15443894267082214, 0.17805436253547668, 0.1879488080739975, 0.05185532942414284, 0.0012489317450672388, -0.07304632663726807, -0.0005303809884935617, 0.1627381592988968, -0.062010884284973145, 0.15767458081245422, -0.1822364777326584, -0.053575605154037476, 0.10654756426811218, -0.04998235031962395, 0.11711713671684265, -0.27949994802474976, -0.19091668725013733, -0.11849084496498108, 0.25475335121154785, -0.12033525854349136, 0.03981499373912811, 0.0984717309474945, -0.1427505612373352, -0.14448140561580658, -0.1999838799238205, -0.0368800088763237, 0.10089360177516937, -0.2419874370098114, 0.08572708070278168, 0.21324756741523743, -0.12750160694122314, -0.128280371427536, -0.05423795431852341, 0.31951168179512024, -0.15424677729606628], [-0.03597933053970337, 0.06729688495397568, -0.20024563372135162, -0.06060183793306351, -0.19628283381462097, 0.19013647735118866, -0.1647554636001587, -0.13523823022842407, -0.007095636799931526, -0.02142578363418579, 0.0706542506814003, 0.029827091842889786, 0.21468938887119293, -0.089057058095932, 0.09513512998819351, 0.21420378983020782, -0.08470999449491501, -0.1086612343788147, 0.13768035173416138, -0.08745292574167252, 0.19080252945423126, -0.0235133059322834, 0.015391608700156212, -0.0822228342294693, 0.04627079516649246, -0.34024035930633545, -0.05673296004533768, 0.2381339818239212, 0.031432900577783585, -0.029634667560458183, 0.22367683053016663, 0.09782687574625015, -0.18631838262081146, 0.16780304908752441, -0.0661526471376419, -0.23111142218112946, -0.01740681380033493, 0.0009586194064468145, -0.0030844707507640123, 0.1782684475183487, 0.013026568107306957, 0.1469751000404358, 0.31371015310287476, 0.09191735833883286, -0.13144688308238983, 0.13551995158195496, -0.047375231981277466, -0.08582781255245209, 0.13525548577308655, -0.07056841254234314, -0.07086732983589172, -0.19060756266117096, 0.24023520946502686, 0.0332111120223999, 0.029416868463158607, -0.07735336571931839, 0.08082890510559082, -0.03833623230457306, 0.010586978867650032, -0.02360491454601288, -0.054860711097717285, 0.2180655300617218, -0.10449186712503433, 0.20659464597702026], [0.09800058603286743, 0.13514965772628784, -0.0009998066816478968, -0.09116517752408981, 0.3484424352645874, 0.20061679184436798, 0.1080198585987091, -0.24318188428878784, -0.18299981951713562, 0.05359533056616783, 0.00011318284668959677, -0.07966973632574081, 0.21250785887241364, -0.1691516488790512, -0.04642811790108681, -0.1353708952665329, 0.16520458459854126, -0.12401136755943298, -0.020099304616451263, 0.18896327912807465, -0.02233567275106907, 0.026809900999069214, -0.19725030660629272, 0.0755961462855339, 0.19822002947330475, 0.01694425381720066, 0.08520035445690155, -0.1812838464975357, -0.03256576508283615, -0.059927891939878464, 0.011442742310464382, -0.26110219955444336, -0.005474644713103771, -0.16100157797336578, 0.21216580271720886, 0.10304324328899384, -0.10015285760164261, 0.011045828461647034, -0.19778595864772797, -0.22516921162605286, 0.22107213735580444, -0.13111548125743866, -0.019871393218636513, -0.3679438829421997, -0.2332531213760376, 0.10419980436563492, 0.01969539001584053, -0.07289627939462662, 0.10066284239292145, -0.02456321194767952, -0.0682343989610672, 0.004233826417475939, -0.16351553797721863, -0.23663091659545898, -0.010550742037594318, -0.24446550011634827, 0.16994822025299072, -0.06850101798772812, -0.12263999879360199, -0.12302541732788086, 0.12125254422426224, 0.1668248474597931, 0.15078847110271454, -0.05237226560711861], [-0.10348961502313614, -0.01566973328590393, -0.013576405122876167, 0.19918906688690186, 0.2338867038488388, -0.03745328262448311, -0.05048670619726181, -0.23171566426753998, 0.5457570552825928, -0.005616591777652502, -0.06663192063570023, -0.15869861841201782, 0.07105889171361923, 0.0037079204339534044, -0.09944097697734833, -0.019087761640548706, 0.16267630457878113, -0.023509738966822624, 0.08908594399690628, 0.3996688723564148, -0.0719136893749237, -0.030099885538220406, 0.1348833590745926, -0.0602419339120388, 0.06242767348885536, -0.0751589834690094, 0.4506908059120178, 0.08931571990251541, -0.14878082275390625, -0.04396338760852814, 0.2631077766418457, -0.09838850051164627, 0.13245725631713867, 0.018290044739842415, 0.1698135882616043, -0.09317797422409058, -0.01078050211071968, 0.03183886408805847, -0.14275836944580078, -0.018716737627983093, 0.023197444155812263, -0.1645599603652954, -0.058004070073366165, -0.10682235658168793, 0.07893721014261246, -0.09805814176797867, 0.3748897612094879, 0.09195933490991592, 0.08315110206604004, 0.02085159905254841, 0.13319620490074158, 0.06575498729944229, 0.047085925936698914, 0.06261911988258362, 0.15655460953712463, 0.17696832120418549, 0.3254310190677643, 0.009700956754386425, -0.09455563127994537, -0.0923086628317833, 0.10700725764036179, -0.12868361175060272, -0.10869442671537399, 0.05372582748532295], [0.1419786661863327, -0.017676228657364845, -0.10858070850372314, -0.0048069157637655735, -0.0028620713856071234, -0.12729652225971222, -0.1986454576253891, 0.21333280205726624, 0.05865316838026047, 0.12761318683624268, 0.12140648066997528, -0.057161346077919006, 0.10571018606424332, 0.09610504657030106, -0.0040841964073479176, -0.14757083356380463, 0.16372862458229065, -0.15984191000461578, -0.19978152215480804, 0.13917821645736694, 0.10512769967317581, -0.04318608343601227, 0.23965571820735931, -0.05734417960047722, 0.17822015285491943, -0.017320631071925163, 0.006454005371779203, -0.1868494302034378, 0.039361946284770966, -0.11630327254533768, -0.1871536374092102, 0.13697169721126556, -0.09250863641500473, 0.1641644835472107, 0.08966796845197678, -0.13759304583072662, -0.07309148460626602, 0.12200936675071716, 0.021178895607590675, -0.02549808658659458, 0.2687719464302063, -0.09137795865535736, 0.0650964081287384, 0.04285702109336853, 0.10618852078914642, 0.10908149927854538, 0.09954110532999039, 0.03790464997291565, 0.20513729751110077, 0.022060057148337364, 0.08280234783887863, -0.05106542259454727, -0.08993180096149445, -0.07171609997749329, 0.007625422906130552, 0.17998802661895752, 0.04039262235164642, -0.16152921319007874, 0.27375057339668274, 0.0326848104596138, 0.06007050350308418, -0.0045310212299227715, 0.0075639947317540646, -0.02330976538360119], [0.04800095409154892, 0.12999677658081055, 0.08990539610385895, 0.13859675824642181, 0.17092910408973694, 0.2568686902523041, -0.20204785466194153, -0.03701027110219002, 0.0560283437371254, 0.12618738412857056, 0.10080786049365997, 0.08136871457099915, 0.17475594580173492, 0.05519978702068329, 0.08649060130119324, -0.056051358580589294, -0.06595844030380249, -0.06585400551557541, -0.02877863310277462, -0.019634798169136047, -0.06449922919273376, -0.2136608064174652, -0.12676145136356354, -0.019503239542245865, 0.0454113706946373, 0.26006150245666504, 0.03925712779164314, -0.024232978001236916, -0.1859624981880188, 0.1776437908411026, 0.2831833064556122, 0.044921983033418655, 0.11868630349636078, -0.09500161558389664, -0.22622054815292358, 0.25187796354293823, -0.03285229578614235, -0.0012107186485081911, 0.16938020288944244, 0.09613239765167236, 0.00033786529093049467, 0.2134588658809662, 0.1006307452917099, 0.1343059092760086, 0.06287936866283417, 0.0450662262737751, 0.03595208004117012, 0.08050816506147385, 0.017915979027748108, 0.036984410136938095, -0.1591717004776001, 0.0751613900065422, 0.05986829102039337, 0.11291125416755676, 0.11342258006334305, -0.03283681347966194, -0.12066588550806046, 0.08972208201885223, 0.17580348253250122, -0.20336923003196716, -0.09883265942335129, -0.11880406737327576, -0.14189688861370087, -0.033692821860313416], [-0.08501432090997696, 0.04052610322833061, -0.12195605039596558, -0.22170843183994293, 0.24695293605327606, 0.04144853353500366, -0.25132226943969727, -0.06314617395401001, -0.09850387275218964, 0.04021010547876358, -0.009734837338328362, -0.21291328966617584, -0.1325586438179016, 0.08442811667919159, -0.06517809629440308, -0.09810870885848999, 0.08368344604969025, 0.15039069950580597, -0.12534260749816895, -0.07237383723258972, 0.01304679736495018, -0.17447812855243683, -0.18595556914806366, -0.09379320591688156, -0.21225634217262268, 0.01714491657912731, -0.17074799537658691, 0.05248178541660309, 0.10435269773006439, -0.051219355314970016, -0.15135791897773743, -0.26862308382987976, -0.0030468348413705826, 0.12855017185211182, -0.08149227499961853, -0.18543632328510284, -0.04020630195736885, 0.017028933390975, -0.031431473791599274, 0.09548293054103851, -0.09882666915655136, -0.0164344385266304, -0.1644781529903412, -0.027869632467627525, 0.20090030133724213, 0.023553039878606796, 0.026809297502040863, -0.026246534660458565, -0.06731734424829483, 0.05688517913222313, -0.0145498588681221, -0.1432553380727768, 0.14974477887153625, 0.08207836747169495, 0.08128748834133148, 0.1189812421798706, -0.2693502604961395, -0.04480653628706932, 0.021902550011873245, 0.309352308511734, 0.13104462623596191, 0.17801019549369812, 0.17207053303718567, 0.03378800302743912], [0.14250090718269348, 0.16542081534862518, 0.010282988660037518, 0.07733935862779617, 0.24325965344905853, 0.09440538287162781, -0.13888083398342133, 0.21578852832317352, -0.28824111819267273, -0.13820408284664154, 0.2156900018453598, -0.023071203380823135, 0.09121278673410416, 0.1679924577474594, -0.24283857643604279, 0.24917222559452057, 0.1287059634923935, 0.11763771623373032, 0.029222557321190834, -0.2436828762292862, -0.0007708802004344761, 0.3785507380962372, 0.046196989715099335, 0.2347344309091568, 0.14650557935237885, 0.09502027928829193, -0.07011910527944565, -0.10398835688829422, 0.1309795081615448, -0.059080615639686584, -0.0033758070785552263, -0.13674460351467133, -0.02084723860025406, 0.16389568150043488, -0.09380846470594406, -0.06917811185121536, -0.03880792856216431, 0.04566561058163643, 0.2820677161216736, 0.0034329856280237436, 0.11147135496139526, 0.058226555585861206, 0.04597058892250061, -0.0045538246631622314, -0.21763981878757477, 0.13685064017772675, -0.054010603576898575, -0.13028785586357117, -0.22472673654556274, 0.20367828011512756, 0.09449222683906555, -0.037708528339862823, 0.025218037888407707, -0.10071330517530441, -0.08746759593486786, 0.03326874598860741, -0.0725201666355133, 0.08680502325296402, 0.05149611085653305, 0.18918168544769287, -0.0988791361451149, -0.2931358218193054, -0.08677458763122559, 0.01900348998606205], [-0.021505465731024742, -0.10379687696695328, 0.1358684003353119, -0.12196429818868637, 0.042621247470378876, 0.19682569801807404, -0.11136369407176971, 0.04435471445322037, 0.027849113568663597, 0.19217923283576965, 0.05771547928452492, 0.17442381381988525, -0.1389317512512207, 0.16165626049041748, 0.08974255621433258, 0.005256356205791235, -0.2559078335762024, -0.06305202096700668, -0.18340905010700226, -0.02118457481265068, 0.15323062241077423, 0.2142106592655182, 0.06537681818008423, 0.03094850294291973, -0.037995513528585434, -0.1538923680782318, 0.25018030405044556, -0.27240872383117676, -0.1422448754310608, -0.0026275061536580324, 0.20499135553836823, -0.07083618640899658, 0.07979220896959305, 0.01011319737881422, 0.12461487203836441, 0.07707057148218155, -0.16332443058490753, 0.17677253484725952, 0.14928612112998962, 0.012210552580654621, -0.13510353863239288, -0.09455905854701996, 0.09477540850639343, 0.18467892706394196, -0.011492356657981873, -0.03242449834942818, 0.12715475261211395, -0.16512277722358704, -0.18242686986923218, -0.01585313305258751, -0.13732673227787018, -0.11924850940704346, -0.21591457724571228, -0.16287614405155182, 0.11662334948778152, -0.16838553547859192, 0.13770075142383575, 0.04076552391052246, -0.09231487661600113, 0.055261485278606415, 0.04871784895658493, 0.2227398157119751, -0.005028713494539261, -0.11259491741657257], [-0.012536375783383846, 0.07361465692520142, -0.12949338555335999, 0.2473442405462265, 0.14616136252880096, 0.023573579266667366, -0.145586758852005, 0.05989712476730347, -0.2502816319465637, 0.07793936133384705, -0.03089485876262188, 0.05787549540400505, -0.08872123807668686, 0.11918829381465912, -0.08414210379123688, -0.051331523805856705, 0.03051801025867462, -0.19619257748126984, -0.02003733441233635, 0.024896489456295967, 0.0710376501083374, -0.05390312522649765, -0.014935122802853584, -0.17314183712005615, 0.0987766832113266, -0.15155750513076782, 0.04613343998789787, -0.1025664210319519, -0.05296309292316437, 0.02038034237921238, 0.011548064649105072, -0.06414209306240082, -0.19759248197078705, 0.08878552913665771, 0.1469697207212448, -0.031629033386707306, 0.14137594401836395, 0.03799472749233246, 0.09759517014026642, -0.21362604200839996, -0.05548049509525299, 0.1400243043899536, -0.07197888195514679, -0.17590118944644928, -0.15995492041110992, 0.0731324553489685, -0.10055163502693176, 0.03625084459781647, 0.04430622607469559, -0.049483463168144226, 0.042752593755722046, -0.036171894520521164, -0.15015828609466553, 0.07001706957817078, 0.10009171068668365, -0.0030238721519708633, 0.07959896326065063, -0.24762603640556335, 0.17954249680042267, 0.15982237458229065, 0.02761147730052471, 0.17749206721782684, -0.06588059663772583, -0.079906165599823], [-0.06400331109762192, 0.13255856931209564, -0.10655578225851059, -0.14140506088733673, 0.09049458801746368, -0.00783615093678236, -0.06746236234903336, 0.1578095406293869, 0.17938919365406036, 0.0521341934800148, -0.032016731798648834, -0.11599187552928925, 0.12894949316978455, -0.0225713811814785, -0.08366034924983978, -0.13642266392707825, 0.0657723918557167, 0.1731598973274231, -0.11925728619098663, 0.15740472078323364, -0.001264294027350843, 0.0342559888958931, 0.04329535365104675, -0.01811136119067669, 0.1229947954416275, -0.20982594788074493, 0.11392489075660706, -0.09229930490255356, 0.09483546763658524, -0.1342877894639969, -0.2369828075170517, -0.030717406421899796, -0.1332406997680664, 0.08567312359809875, 0.11477106809616089, 0.06030053272843361, -0.19175027310848236, 0.21142712235450745, 0.15132415294647217, -0.14606286585330963, 0.21007613837718964, -0.15431229770183563, -0.168497696518898, 0.05690472573041916, 0.05950622260570526, -0.07018173485994339, -0.18272747099399567, 0.12245067209005356, 0.14688989520072937, 0.09010819345712662, 0.07016637921333313, -0.020527634769678116, -0.08712591975927353, -0.11580610275268555, -0.2089528888463974, 0.09085395932197571, 0.20248772203922272, -0.010779502801597118, -0.041126132011413574, -0.07503959536552429, 0.07479479908943176, 0.004160797689110041, 0.007111785002052784, -0.03618548810482025], [-0.03458130732178688, -0.22595809400081635, -0.10317603498697281, 0.14983554184436798, -0.24367870390415192, 0.1110895574092865, 0.07520916312932968, -0.037845417857170105, 0.06707100570201874, -0.04662089794874191, 0.12466394901275635, 0.21313698589801788, -0.1137583777308464, -0.20917059481143951, 0.14227841794490814, -0.2617393136024475, 0.07262671738862991, -0.11929260939359665, 0.003420864697545767, 0.17743949592113495, 0.03304852545261383, -0.3132844567298889, 0.013554209843277931, -0.011365825310349464, -0.009840169921517372, 0.14991088211536407, -0.06346458941698074, 0.21317246556282043, 0.17154265940189362, 0.06366812437772751, 0.20083780586719513, -0.11938662081956863, 0.042702268809080124, -0.0464031919836998, 0.0833934098482132, 0.3722414970397949, -0.2264328896999359, 0.1325165331363678, -0.04658360779285431, 0.09441980719566345, 0.015842441469430923, 0.010156912729144096, 0.10457728058099747, -0.002336192410439253, -0.25290536880493164, 0.05509869009256363, 0.1469336897134781, 0.030840955674648285, -0.19610032439231873, -0.048960186541080475, 0.21744073927402496, -0.018858138471841812, 0.19590947031974792, 0.01245120633393526, 0.034606367349624634, -0.10512702912092209, -0.037484586238861084, 0.0149815259501338, 0.06727029383182526, -0.2289527803659439, 0.11416348814964294, -0.06904733180999756, 0.16037540137767792, 0.16981570422649384], [-0.06308633089065552, 0.18900470435619354, 0.1108970046043396, -0.09452292323112488, 0.10964319109916687, -0.15037812292575836, -0.02324838563799858, -0.11318069696426392, 0.14647483825683594, 0.2776617705821991, -0.20424234867095947, 0.055351562798023224, 0.038606271147727966, 0.02897196263074875, 0.00489667197689414, 0.007627970073372126, -0.0032551775220781565, 0.0014809091808274388, -0.25605323910713196, 0.11677593737840652, 0.07784666121006012, 0.027844294905662537, -0.09361262619495392, 0.0295723807066679, 0.03265492990612984, -0.27617427706718445, -0.11099530756473541, -0.1001913994550705, -0.05508635938167572, 0.007828157395124435, 0.19793279469013214, -0.11639760434627533, -0.2057490348815918, -0.10829316079616547, -0.09396308660507202, 0.024239549413323402, -0.0005509829497896135, 0.008356833830475807, 0.1375187188386917, -0.0196708794683218, -0.005180413369089365, -0.18538329005241394, -0.2399957925081253, 0.04292283579707146, 0.16166527569293976, 0.11217259615659714, -0.21167340874671936, 0.008678724989295006, -0.20084507763385773, -0.04880556836724281, 0.040466684848070145, -0.16870392858982086, -0.2186318039894104, 0.047910258173942566, -0.09588323533535004, 0.07206754386425018, 0.14028939604759216, 0.03081035241484642, -0.130886510014534, 0.15920045971870422, -0.2217148393392563, 0.01723129115998745, -0.03006701171398163, 0.15844450891017914], [0.04193674027919769, -0.07955300807952881, 0.07103677093982697, -0.18068481981754303, -0.08872794359922409, 0.10766640305519104, 0.003868670202791691, -0.03760017454624176, 0.3183276355266571, -0.12860965728759766, -0.23816467821598053, 0.11407741159200668, -0.10903449356555939, 0.13656958937644958, -0.16374069452285767, 0.21692438423633575, 0.033296145498752594, -0.11671555042266846, -0.0023139039985835552, 0.3375825881958008, 0.31548506021499634, 0.06612177193164825, 0.032235123217105865, 0.12997010350227356, 0.08476512879133224, -0.15390393137931824, 0.3093832731246948, -0.07282788306474686, -0.20326408743858337, 0.03811040148139, -0.029383884742856026, -0.19215020537376404, 0.1715553253889084, -0.03193037956953049, 0.28103429079055786, 0.26526179909706116, 0.019274618476629257, 0.08468199521303177, -0.04237000644207001, 0.07229814678430557, 0.14678987860679626, -0.1183842197060585, 0.1672831028699875, 0.00778470654040575, 0.17013107240200043, -0.16958211362361908, 0.07144854962825775, 0.010844191536307335, -0.2259550243616104, -0.0770067572593689, -0.03345027565956116, 0.07659609615802765, 0.02275843732059002, 0.2453843057155609, 0.31214335560798645, -0.16120676696300507, 0.15612158179283142, 0.2310960292816162, -0.1431213617324829, -0.0404416099190712, -0.057817790657281876, -0.15489736199378967, -0.08998635411262512, 0.08350979536771774], [-0.08597960323095322, 0.16248111426830292, -0.05730285495519638, 0.2388683259487152, 0.13730312883853912, -5.491450792760588e-06, 0.14519472420215607, 0.03590920940041542, 0.010844932869076729, -0.15965528786182404, 0.027741067111492157, -0.06065359339118004, 0.24914118647575378, -0.10614490509033203, -0.043481893837451935, -0.24574147164821625, -0.024413133040070534, 0.1344672441482544, -0.06832782179117203, -0.03221748396754265, -0.11762917041778564, -0.03460158780217171, -0.025480585172772408, 0.13443523645401, -0.1286298781633377, 0.11922468990087509, -0.1416756510734558, 0.1405603140592575, -0.1318187266588211, -0.09263122081756592, 0.11217313259840012, 0.16341526806354523, -0.23759342730045319, -0.0357225239276886, -0.12290380895137787, 0.0763363391160965, 0.07672563940286636, -0.13062086701393127, -0.03677741438150406, 0.1411021202802658, -0.02736656181514263, 0.16267482936382294, -0.12819886207580566, -0.1513185203075409, -0.04442256689071655, 0.12220034003257751, 0.08779103308916092, 0.1938970685005188, -0.06804349273443222, 0.09629354625940323, 0.06423615664243698, 0.0702865719795227, -0.06268646568059921, 0.274792343378067, 0.010903294198215008, -0.011889972724020481, 0.09659351408481598, -0.00955861248075962, 0.21112743020057678, 0.08611360192298889, -0.25614121556282043, -0.18001696467399597, -0.07577364891767502, -0.17594680190086365], [0.04643706977367401, -0.10127238929271698, -0.14853912591934204, -0.22432567179203033, 0.00954867247492075, -0.021938413381576538, 0.1581718474626541, 0.12679114937782288, 0.10816947370767593, -0.0420321561396122, 0.060487281531095505, 0.14994090795516968, 0.19256609678268433, 0.18290485441684723, 0.10468462109565735, 0.18874487280845642, 0.10413633286952972, -0.12372732907533646, 0.030507223680615425, 0.13640986382961273, -0.17137247323989868, -0.046726666390895844, 0.13768890500068665, 0.28978651762008667, 0.28440365195274353, -0.004801795352250338, 0.27775752544403076, -0.0221378393471241, 0.216348797082901, 0.00033174705458804965, -0.14381836354732513, 0.21562564373016357, -0.10469386726617813, -0.12576259672641754, 0.16963829100131989, -0.03132865950465202, 0.013992194086313248, -0.15033559501171112, -0.22526371479034424, -0.11459419131278992, 0.16862978041172028, 0.028202183544635773, -0.07094401121139526, -0.11081580072641373, 0.20581337809562683, -0.11628539115190506, 0.18219073116779327, 0.08179972320795059, 0.06704586744308472, 0.08401744067668915, -0.14577004313468933, 0.035216376185417175, 0.056411292403936386, 0.12022459506988525, 0.05567942559719086, -0.08822688460350037, -0.02822755090892315, -0.06230399012565613, -0.04634150117635727, 0.01613856852054596, 0.1426335871219635, 0.07963651418685913, 0.12836231291294098, -0.05978690832853317], [-0.09844781458377838, 0.025021640583872795, 0.061266422271728516, 0.11778228729963303, -0.02768544666469097, 0.015373092144727707, -0.1809941530227661, 0.08353033661842346, 0.20845751464366913, -0.2495516538619995, 0.13299749791622162, 0.02518019638955593, -0.0177707951515913, -0.015300892293453217, -0.08525827527046204, 0.11597088724374771, -0.07099533081054688, 0.04101447016000748, -0.1136627122759819, -0.016818858683109283, 0.13492360711097717, -0.12529735267162323, -0.04040323570370674, 0.2859328091144562, -0.11314467340707779, -0.20609185099601746, -0.06273501366376877, 0.05545754358172417, -0.16001825034618378, -0.08304500579833984, 0.03391995280981064, -0.07311681658029556, -0.010168906301259995, -0.06725259870290756, 0.0880468487739563, 0.16610750555992126, 0.08229667693376541, -0.037501879036426544, 0.13129504024982452, -0.2650222182273865, 0.07925973832607269, -0.039350178092718124, -0.06750376522541046, 0.1757146269083023, -0.0985218733549118, 0.07949629426002502, -0.014025384560227394, -0.15709836781024933, 0.2730075418949127, 0.16884088516235352, -0.14954528212547302, -0.08143652230501175, 0.012668130919337273, 0.06709516048431396, 0.11367642879486084, -0.1541932374238968, -0.008487958461046219, -0.07529313117265701, -0.027308093383908272, 0.05617344379425049, -0.09695779532194138, -0.30687767267227173, 0.08784423023462296, 0.04107153043150902], [-0.2444542944431305, 0.12628772854804993, -0.08130425959825516, -0.23798750340938568, 0.1156967431306839, 0.01695885695517063, 0.2522096335887909, 0.14138959348201752, -0.016045009717345238, 0.09806285798549652, -0.09506234526634216, -0.05341427028179169, 0.06851573288440704, 0.015254268422722816, 0.05966030806303024, -0.008286337368190289, -0.12304940074682236, 0.02971119061112404, -0.06632596999406815, 0.08760923892259598, -0.06039724126458168, 0.023378191515803337, 0.04560426250100136, -0.27531909942626953, 0.0054900734685361385, 0.23898664116859436, -0.04178158938884735, 0.1291041225194931, 0.012276966124773026, -0.09914019703865051, -0.13732409477233887, 0.1935182809829712, 0.20857006311416626, 0.10039487481117249, -0.18907983601093292, -0.046116240322589874, 0.09078356623649597, -0.09269802272319794, -0.06848257780075073, 0.031007306650280952, -0.09167464077472687, -0.014351310208439827, -0.14180178940296173, -0.1427210122346878, -0.025618024170398712, -0.07452265918254852, 0.006207223981618881, 0.018017930909991264, 0.011793103069067001, 0.009901548735797405, 0.14771181344985962, 0.07691234350204468, 0.06672874093055725, -0.03661275655031204, -0.019878767430782318, 0.04869707673788071, 0.23791614174842834, 0.04233603551983833, -0.009813684038817883, -0.09404749423265457, 0.10250858217477798, 0.17485038936138153, -0.2546027898788452, -0.15622150897979736], [-0.006803505122661591, -0.11528582870960236, 0.12913811206817627, 0.05589869245886803, -0.01816209778189659, 0.21841920912265778, -0.14132875204086304, -0.20813299715518951, -0.03563673794269562, -0.18868841230869293, -0.08666905015707016, -0.05991146340966225, -0.014384567737579346, 0.06424247473478317, 0.07102402299642563, 0.19353285431861877, -0.07867933809757233, -0.1379317343235016, -0.05253349244594574, -0.05980615317821503, -0.0163310244679451, -0.1240004450082779, -0.12526825070381165, -0.03868107870221138, -0.22184135019779205, 0.07780954986810684, -0.1689525544643402, 0.002346763387322426, -0.0014396224869415164, -0.0753256157040596, 0.12281785160303116, -0.009117483161389828, -0.21892023086547852, 0.07060596346855164, 0.16449737548828125, 0.01846824213862419, 0.27254724502563477, 0.02312798611819744, 0.08510054647922516, 0.172623872756958, 0.030675029382109642, 0.12106084078550339, 0.019456712529063225, 0.10844002664089203, 0.09920574724674225, -0.13509103655815125, 0.024405941367149353, -0.06187935173511505, -0.07944197952747345, -0.28651103377342224, 0.08141444623470306, 0.16037330031394958, 0.07403092086315155, 0.11112987995147705, -0.1679207682609558, -0.005783002823591232, 0.0940830335021019, 0.06088417395949364, 0.12015135586261749, 0.11063621938228607, -0.09279779344797134, -0.010508333332836628, 0.005936155561357737, -0.20409099757671356], [-0.21110177040100098, -0.04038763418793678, 0.10201793164014816, 0.2109280377626419, 0.15922939777374268, 0.15203846991062164, -0.012529623694717884, 0.09195975214242935, -0.011989234015345573, 0.019819578155875206, 0.007078830152750015, 0.020744115114212036, 0.23161248862743378, -0.02300221100449562, 0.13091498613357544, 0.20039422810077667, -0.06134357303380966, 0.06058646738529205, -0.12510418891906738, -0.13009536266326904, -0.058068789541721344, -0.07296736538410187, 0.11660897731781006, -0.14013680815696716, -0.13773217797279358, -0.14698700606822968, 0.14076876640319824, -0.14615347981452942, -0.19143852591514587, 0.15798364579677582, 0.23977454006671906, 0.18845932185649872, -0.02482079342007637, -0.007027588784694672, 0.05215579643845558, 0.01642843335866928, -0.1365170031785965, 0.015880459919571877, -0.023209847509860992, -0.02593536116182804, 0.0793595016002655, -0.013403363525867462, -0.10983536392450333, 0.015530986711382866, -0.02207946591079235, -0.026124384254217148, 0.19637048244476318, -0.10825322568416595, 0.037422094494104385, 0.15032127499580383, 0.02586703933775425, 0.04283302277326584, -0.11409506946802139, 0.13480007648468018, 0.01920786313712597, 0.2234654277563095, 0.12460925430059433, -0.2326892614364624, -0.015272201038897038, -0.05210917815566063, -0.05573800951242447, -0.10060422122478485, -0.11432929337024689, 0.013654259964823723], [-0.22154133021831512, -0.024862907826900482, -0.21221056580543518, 0.06365552544593811, -0.059184134006500244, -0.06188198924064636, -0.08035155385732651, -0.19266754388809204, 0.060046691447496414, 0.008533434011042118, -0.07249855995178223, 0.26280614733695984, -0.11194729804992676, 0.1069297045469284, 5.9174748457735404e-05, 0.1744982898235321, -0.04373767599463463, 0.09395205974578857, -0.13632379472255707, 0.19857929646968842, -0.08681642264127731, -0.08368203043937683, -0.10951055586338043, -0.15605661273002625, 0.00915161520242691, -0.06495080143213272, 0.07343249022960663, 0.06136149540543556, 0.06367847323417664, -0.03599271923303604, -0.11401346325874329, -0.12215079367160797, -0.0536721907556057, -0.039114780724048615, -0.020621957257390022, -0.16793112456798553, 0.08200893551111221, -0.2591807544231415, 0.18553633987903595, -0.1519814431667328, -0.08459562808275223, -0.16791003942489624, -0.016436612233519554, -0.06971088796854019, -0.06732873618602753, 0.08195781707763672, 0.010267768055200577, -0.0906045213341713, -0.16779960691928864, -0.15526092052459717, -0.04329339414834976, 0.038294121623039246, 0.015233049169182777, 0.06436382234096527, 0.12493103742599487, -0.14874432981014252, 0.053936392068862915, -0.11834041029214859, 0.11000209301710129, 0.08575097471475601, -0.05132516846060753, 0.02832476794719696, 0.12580494582653046, 0.04241979122161865], [0.15443095564842224, 0.002595619997009635, 0.06720369309186935, -0.13996872305870056, -0.18170547485351562, 0.1676763892173767, -0.11677586287260056, 0.2610473930835724, -0.030960813164711, 0.29307180643081665, 0.07622034847736359, 0.013777563348412514, -0.0660419762134552, -0.21314044296741486, 0.2125871479511261, -0.34478139877319336, 0.06330196559429169, 0.008695963770151138, 0.122689388692379, 0.3161812722682953, 0.09945826232433319, 0.04067283868789673, 0.1224157065153122, -0.06462045758962631, 0.30182433128356934, 0.036608245223760605, -0.0167660191655159, 0.02516314759850502, 0.03733021393418312, 0.1618536114692688, -0.045638516545295715, 0.07856639474630356, 0.12229993939399719, -0.05402114614844322, 0.05363035202026367, 0.0786755383014679, 0.06948459148406982, -0.13461898267269135, 0.2026309221982956, -0.07859485596418381, 0.13559283316135406, -0.04719563201069832, -0.11758311837911606, 0.05009844899177551, 0.010178669355809689, -0.014716573990881443, -0.14089572429656982, 0.07512720674276352, 0.09489211440086365, -0.16893064975738525, 0.15453805029392242, 0.067362479865551, -0.017890973016619682, -0.12591010332107544, 0.1616123765707016, 0.06406468152999878, 0.03592813014984131, -0.14750558137893677, 0.020825067535042763, 0.06241482496261597, 0.11351514607667923, -0.0038999340031296015, 0.232510045170784, 0.16806936264038086], [0.0488823801279068, 0.08022674918174744, -0.17144832015037537, 0.14179381728172302, 0.09096716344356537, -0.00802995078265667, -0.0011909522581845522, -0.05968445912003517, 0.10970533639192581, -0.13995468616485596, 0.08204335719347, -0.10699458420276642, 0.03173023462295532, -0.035188138484954834, -0.05188644304871559, -0.15927591919898987, 0.0931505337357521, -0.0781126543879509, 0.2246992588043213, 0.173251211643219, 0.1916283369064331, 0.009904383681714535, 0.21251678466796875, -0.008053494617342949, -0.06349921226501465, -0.10847070813179016, 0.11907151341438293, -0.09619647264480591, 0.1364496946334839, 0.1440337747335434, 0.09502236545085907, -0.09174029529094696, -0.09294209629297256, 0.08872391283512115, 0.17993199825286865, -0.2203739583492279, 0.10695682466030121, -0.018307724967598915, -0.015493744052946568, 0.17265622317790985, 0.1758301556110382, 0.138615220785141, -0.122621551156044, 0.1235068067908287, 0.024327954277396202, -0.07135602086782455, 0.22707180678844452, -0.02481289580464363, 0.14245225489139557, 0.0849633440375328, 0.1255767047405243, 0.09205920994281769, -0.1826675534248352, -0.2172553837299347, -0.11839554458856583, 0.04934758320450783, 0.15333953499794006, 0.08312338590621948, 0.22155258059501648, -0.03791427239775658, 0.028674224391579628, -0.06232251599431038, 0.18526527285575867, 0.023562701418995857], [0.01875375583767891, 0.00356508931145072, 0.12984609603881836, 0.025957267731428146, -0.09641510248184204, -0.18640415370464325, 0.14042559266090393, -0.09528244286775589, 0.011917956173419952, 0.0686846524477005, 0.010936607606709003, 0.015788044780492783, 0.03896107152104378, 0.1665918231010437, -0.08021066337823868, 0.06620549410581589, 0.060438964515924454, -0.26666054129600525, 0.08260051161050797, -0.026401283219456673, 0.05204425007104874, -0.006166596431285143, 0.17551001906394958, -0.3450084328651428, 0.10339216142892838, -0.28962892293930054, -0.0837850570678711, -0.15704575181007385, -0.04613359272480011, -0.08351029455661774, 0.039670947939157486, -0.0396537110209465, 0.10817157477140427, 0.169216588139534, -0.011631381697952747, -0.18655984103679657, -0.09948151558637619, 0.010087741538882256, -0.1011776253581047, -0.10332666337490082, -0.149781733751297, -0.26221591234207153, -0.1314578354358673, 0.07048149406909943, 0.08037501573562622, 0.00589381530880928, -0.08569659292697906, 0.01283182017505169, 0.16761691868305206, -0.30144476890563965, 0.030061976984143257, -0.0033251813147217035, -0.022732675075531006, 0.23573504388332367, 0.06341621279716492, -0.11106998473405838, 0.13755449652671814, -0.0752321109175682, 0.0661003589630127, 0.09815369546413422, -0.10331559926271439, -0.13239048421382904, -0.10253030061721802, -0.0605754591524601], [-0.0423908494412899, 0.18099386990070343, -0.04535752534866333, 0.07131243497133255, -0.10507584363222122, 0.11836013942956924, 0.23777218163013458, -0.1387295126914978, -0.15557298064231873, -0.17441008985042572, 0.1318243443965912, -0.1347852498292923, -0.029358400031924248, -0.11574570089578629, 0.3268933892250061, -0.07787543535232544, -0.009460199624300003, -0.21204665303230286, -0.01775393635034561, 0.12333573400974274, -0.19535349309444427, -0.02827465534210205, -0.13237550854682922, 0.2530210018157959, -0.0856485366821289, 0.7197688817977905, -0.10462246090173721, 0.04244950786232948, -0.009769845753908157, -0.06233871355652809, -0.11650519073009491, 0.12546631693840027, -0.09791488945484161, 0.0605558305978775, -0.03322988003492355, 0.4804345965385437, -0.06668432056903839, 0.21797072887420654, -0.014960347674787045, 0.22440719604492188, 0.22812563180923462, 0.2456406056880951, 0.19142039120197296, -0.06978805363178253, 0.10154785215854645, 0.09056860953569412, 0.007375204935669899, 0.12016439437866211, 0.1391054093837738, -0.12392269819974899, 0.08523198217153549, 0.04524236544966698, -0.14302241802215576, -0.0623665414750576, 0.15777012705802917, 0.10165275633335114, -0.11241772025823593, -0.12972630560398102, 0.050620999187231064, -0.046559665352106094, -0.14753709733486176, 0.04344196245074272, 0.03679937869310379, -0.18842405080795288], [0.0535273514688015, -0.14503750205039978, -0.04633445665240288, 0.1523737907409668, -0.030901644378900528, -0.027625326067209244, -0.004604934714734554, -0.04874086380004883, 0.15996678173542023, -0.05641699954867363, -0.0622752383351326, 0.1462467908859253, 0.10454201698303223, 0.12134072184562683, 0.003058356698602438, -0.09299114346504211, -0.04390229284763336, -0.10367253422737122, 0.08666278421878815, 0.08965062350034714, -0.005952092353254557, -0.2258664071559906, -0.17303785681724548, 0.012852727435529232, 0.17045964300632477, 0.0353052020072937, -0.07714187353849411, 0.035348691046237946, -0.0063231405802071095, -0.2514443099498749, -0.033357731997966766, -0.06991486251354218, -0.09011021256446838, -0.0046894242987036705, -0.2337000072002411, -0.24589188396930695, 0.20249351859092712, 0.11412689089775085, -0.20525965094566345, 0.03924139589071274, 0.02254600264132023, 0.18281136453151703, 0.038451313972473145, -0.14464224874973297, -0.1438281238079071, 0.14469313621520996, -0.13199202716350555, 0.15210884809494019, -0.05135531723499298, 0.006828673183917999, -0.09802982956171036, 0.055972084403038025, 0.05129065364599228, -0.1093168631196022, -0.020802918821573257, -0.2569595277309418, 0.15348604321479797, -0.24515660107135773, 0.10254041850566864, 0.06632823497056961, -0.010138928890228271, -0.21478894352912903, 0.11418692022562027, 0.14231039583683014], [-0.06945429742336273, 0.14070260524749756, -0.21982501447200775, -0.15309502184391022, -0.0035950581077486277, 0.13767723739147186, -0.1098848208785057, 0.11638833582401276, 0.17976099252700806, -0.13412407040596008, -0.09902963042259216, -0.15791814029216766, -0.0711023285984993, 0.003865788457915187, -0.009805971756577492, 0.007442064583301544, 0.034893427044153214, -0.18733075261116028, 0.10335706919431686, -0.04292329028248787, -0.04436523839831352, -0.003110303543508053, -0.13003960251808167, -0.0644584447145462, -0.229301318526268, -0.01751379296183586, 0.09298503398895264, -0.09078460186719894, -0.17550621926784515, -0.174271360039711, -0.038661010563373566, -0.1950136125087738, -0.15656962990760803, -0.0939277708530426, -0.034001048654317856, -0.11916990578174591, -0.039213184267282486, 0.08733190596103668, -0.09569326043128967, 0.14595139026641846, 0.008183922618627548, 0.020818769931793213, -0.18443915247917175, 0.1966644525527954, -0.07849881798028946, -0.12374529242515564, 0.24290727078914642, 0.0843290388584137, 0.08021853119134903, -0.1154908612370491, -0.042416684329509735, -0.07687497138977051, 0.04889265447854996, 0.08308353275060654, -0.22662730515003204, 0.06595343351364136, 0.24918974936008453, 0.023352378979325294, 0.2335699200630188, -0.22444529831409454, 0.046769045293331146, 0.17425239086151123, 0.14655694365501404, 0.14639268815517426], [0.005054923705756664, 0.2124546617269516, 0.06883346289396286, 0.08074218034744263, 0.09480517357587814, 0.024596648290753365, -0.18088433146476746, 0.1516188532114029, -0.16519856452941895, 0.08234895765781403, 0.1493874490261078, 0.09105394035577774, -0.11332274973392487, -0.16033470630645752, 0.017644116654992104, -0.10767978429794312, 0.062060363590717316, 0.017421092838048935, 0.10670729726552963, 0.028839057311415672, 0.030980968847870827, 0.17565380036830902, -0.13502559065818787, 0.2014206498861313, -0.07995443046092987, 0.017621541395783424, 0.06629025191068649, -0.0038785957731306553, -0.11392907798290253, 0.1374293863773346, 0.14691948890686035, -0.20534518361091614, -0.18525934219360352, 0.01796838268637657, -0.07698339968919754, -0.0528767891228199, -0.0163582731038332, -0.07406771928071976, -0.06038264185190201, -0.06927841901779175, -0.28401654958724976, 0.02986554242670536, -0.3205183446407318, 0.11163655668497086, -0.05925898253917694, -0.25903645157814026, 0.0603114478290081, 0.04697520658373833, -0.13212552666664124, -0.20378504693508148, -0.07563429325819016, 0.10351762920618057, 0.010512091219425201, 0.16994419693946838, 0.15707093477249146, -0.03095059096813202, -0.38122183084487915, 0.10734469443559647, 0.1717386096715927, 0.009297741577029228, 0.09643986076116562, 0.15732382237911224, 0.25336843729019165, 0.08403464406728745], [-0.06365299224853516, 0.02095004916191101, -0.11962036788463593, 0.22440896928310394, -0.13225682079792023, 0.24188560247421265, 0.13334514200687408, -0.09310676157474518, 0.14961785078048706, -0.1704672873020172, 0.0329507514834404, 0.25385111570358276, 0.030319469049572945, 0.017827680334448814, 0.15135397017002106, 0.14046446979045868, 0.2304476797580719, 0.07639633119106293, 0.09659142047166824, -0.1314353346824646, 0.00875437818467617, 0.01674012467265129, -0.23516318202018738, 0.11594989150762558, -0.20631031692028046, -0.08907939493656158, -0.05816055089235306, 0.033596694469451904, -0.04907660931348801, -0.048426397144794464, 0.006833573803305626, 0.22070111334323883, 0.0020867902785539627, 0.07619360089302063, -0.07865792512893677, -0.09468109905719757, -0.08221141248941422, -0.051861222833395004, 0.12700535356998444, -0.07972004264593124, -0.07169941812753677, 0.011399409733712673, -0.2530348002910614, -0.02064947411417961, 0.20501378178596497, -0.0835307165980339, -0.12351842224597931, -0.17149853706359863, 0.1683572232723236, -0.0010428288951516151, 0.0630837008357048, 0.0005205958150327206, 0.08298562467098236, 0.1753026694059372, 0.08889692276716232, -0.04541413113474846, 0.28946733474731445, 0.06865528225898743, -0.027521494776010513, -0.04625151678919792, -0.14275702834129333, -0.09778083860874176, 0.09703398495912552, -0.007816851139068604], [-0.20884139835834503, 0.13252975046634674, 0.07510817050933838, 0.2176767885684967, -0.09446609020233154, 0.05496961623430252, 0.11050105839967728, 0.1813735067844391, 0.29380759596824646, 0.13585419952869415, 0.060327429324388504, 0.04653475806117058, -0.04227519780397415, -0.029739629477262497, -0.023831132799386978, 0.1864263266324997, 0.16659113764762878, 0.07901512086391449, 0.149476557970047, 0.17391656339168549, 0.19857916235923767, -0.09489784389734268, -0.1976148635149002, -0.05023099482059479, 0.07997246086597443, 0.2756528854370117, -0.24155908823013306, 0.039568331092596054, 0.11179910600185394, 0.046315163373947144, -0.1711992621421814, 0.07191406935453415, -0.10662979632616043, 0.10631294548511505, 0.0057979607954621315, 0.028065193444490433, -0.03435806930065155, 0.0033028856851160526, 0.04961491376161575, -0.05419899523258209, 0.06526046246290207, -0.030798261985182762, 0.224846750497818, 0.15479350090026855, 0.118788942694664, 0.09770424664020538, 0.05432803928852081, 0.22265169024467468, 0.012265775352716446, -0.10711680352687836, 0.15917842090129852, -0.030522556975483894, -0.2142760306596756, -0.08383417129516602, -0.004351601470261812, 0.033914078027009964, -0.08491457998752594, -0.038359135389328, 0.02856329455971718, -0.1947416067123413, -0.18199226260185242, 0.02572019398212433, -0.1613919883966446, -0.057874906808137894], [0.034436095505952835, 0.12317383289337158, 0.17237132787704468, -0.053069744259119034, 0.27244317531585693, 0.000215792068047449, 0.04714273661375046, -0.062089305371046066, 0.1547057330608368, -0.2597927153110504, -0.08177461475133896, 0.05934897065162659, 0.0718226507306099, 0.012765329331159592, 0.057300932705402374, -0.07978114485740662, -0.00892147608101368, 0.10770903527736664, -0.002092648297548294, -0.12998588383197784, -0.21704928576946259, 0.24560341238975525, 0.021667247638106346, -0.08616770058870316, -0.09907983988523483, -0.22390207648277283, 0.03314915671944618, -0.04271828383207321, -0.07337869703769684, 0.1580110490322113, -0.05864103510975838, -0.11726193875074387, -0.26953452825546265, -0.15718671679496765, 0.10016334056854248, 0.0025892036501318216, 0.17204977571964264, -0.04588763043284416, -0.01174863614141941, -0.2739025950431824, 0.2668789327144623, 0.13204878568649292, 0.09349632263183594, 0.16913726925849915, 0.015843668952584267, 0.20155999064445496, 0.04471638426184654, 0.23498180508613586, 0.1546996384859085, 0.12121280282735825, 0.1220913976430893, 0.04956212267279625, 0.09331704676151276, -0.11854858696460724, 0.20612287521362305, -0.021301716566085815, -0.2098792940378189, -0.07488580793142319, -0.055455904453992844, -0.02272058092057705, 0.2044125497341156, 0.04946719855070114, 0.0033341748639941216, 0.22082257270812988], [-0.232717365026474, -0.14432106912136078, -0.13564004004001617, 0.07157327234745026, -0.27244263887405396, -0.09820497035980225, 0.17673495411872864, 0.13175801932811737, 0.10372036695480347, 0.019168272614479065, 0.23800316452980042, 0.09080404788255692, 0.09134763479232788, -0.19936758279800415, 0.03145100548863411, -0.014889565296471119, 0.11572205275297165, -0.25373896956443787, 0.08212464302778244, -0.12207159399986267, -0.1459221988916397, -0.2498171329498291, -0.02279585972428322, -0.06748277693986893, 0.046274445950984955, -0.01911030150949955, -0.03686242550611496, 0.10700807720422745, 0.1649356186389923, 0.03770117834210396, 0.1711212694644928, -0.15501786768436432, -0.06482068449258804, 0.018662497401237488, -0.16235774755477905, -0.00011558979895198718, -0.015845272690057755, -0.10620906949043274, -0.19687876105308533, -0.07398636639118195, -0.06653320789337158, 0.15040937066078186, 0.2316642850637436, 0.07625176757574081, -0.05649183690547943, -0.05686410516500473, 0.02458431012928486, -0.180365189909935, 0.04505820572376251, -0.08709095418453217, -0.14726240932941437, -0.1334831714630127, -0.0673084706068039, 0.07353508472442627, -0.033149704337120056, 0.014926084317266941, -0.16563941538333893, 0.25733038783073425, 0.13618849217891693, -0.14222452044487, -0.017586462199687958, 0.033803604543209076, -0.02157283015549183, -0.2147909551858902], [0.01667601615190506, 0.001383583527058363, 0.21862739324569702, -0.08609870821237564, -0.08086501806974411, -0.14915475249290466, -0.2697393596172333, -0.1517653614282608, -0.0343715101480484, -0.10230538994073868, -0.017736783251166344, -0.05404268577694893, -0.1441260129213333, -0.3229951560497284, 0.034527890384197235, -0.06203623116016388, -0.06739717721939087, -0.010763305239379406, -0.061832673847675323, -0.0715409442782402, 0.14093580842018127, 0.11844030022621155, -0.3650951385498047, -0.20447883009910583, 0.1499703824520111, 0.19620738923549652, -0.05674178898334503, -0.06742671877145767, -0.16554032266139984, -0.23532021045684814, 0.20596320927143097, 0.070704385638237, 0.18790262937545776, 0.029370004311203957, 0.005655199754983187, -0.09456253051757812, 0.13762658834457397, 0.04706965759396553, -0.06944964081048965, -0.007362524978816509, -0.05920448154211044, -0.0051002963446080685, -0.03341573476791382, -0.07268395274877548, -0.0258660726249218, -0.12170353531837463, -0.05625859647989273, -0.02451658621430397, 0.07706248015165329, -0.13479557633399963, 0.1660102903842926, 0.10839715600013733, -0.04711129516363144, -0.05705677717924118, 0.08740255236625671, -0.10359266400337219, 0.028313565999269485, -0.2093266248703003, -0.08655557781457901, 0.08779602497816086, 0.059956151992082596, 0.07915742695331573, -0.11147303134202957, 0.013152053579688072], [0.09442298859357834, 0.06688766926527023, -0.08435036987066269, 0.046361882239580154, 0.05931403487920761, -0.1971074789762497, -0.0014360146597027779, -0.23590782284736633, 0.0016764316242188215, -0.0719669982790947, -0.042583245784044266, -0.12060796469449997, -0.09344244003295898, -0.1657179892063141, -0.1716006100177765, -0.10106606781482697, -0.10344133526086807, -0.12680746614933014, 0.12635566294193268, -0.07579044997692108, 0.04547865316271782, -0.0368301123380661, -0.004081669729202986, -0.4772684574127197, -0.11980698257684708, -0.08387356251478195, 0.05147866532206535, 0.11463047564029694, 0.08750702440738678, 0.24820923805236816, -0.07642830163240433, 0.05085580796003342, 0.005613294895738363, 0.125497967004776, 0.04255281016230583, -0.012380994856357574, -0.12716561555862427, -0.2287910133600235, -0.17123331129550934, -0.21751779317855835, -0.07684537768363953, 0.037057556211948395, -0.20512531697750092, 0.2611798346042633, 0.05843755230307579, -0.13242192566394806, 0.1533137708902359, -0.1167694553732872, 0.0582401379942894, -0.030508603900671005, 0.028709324076771736, -0.1573350578546524, -0.08772673457860947, 0.060470517724752426, 0.2507743835449219, 0.11113898456096649, -0.07943221926689148, -0.018410203978419304, 0.10892750322818756, -0.10631970316171646, 0.1493542641401291, -0.21007494628429413, 0.0988444983959198, -0.124335877597332], [-0.025764182209968567, 0.11777611076831818, -0.04883227124810219, -0.11041209846735, -0.04951571673154831, 0.14101865887641907, 0.04842773452401161, 0.04896290972828865, 0.016601335257291794, -0.1293555498123169, -0.12933126091957092, -0.027043890208005905, 0.05972345173358917, 0.05476684123277664, -0.24048107862472534, -0.19826488196849823, 0.0040418608114123344, -0.003920193295925856, 0.07185975462198257, 0.09693363308906555, -0.08903929591178894, -0.21527251601219177, 0.19658821821212769, -0.07704959809780121, 0.06531696766614914, 0.1933840960264206, -0.22488604485988617, -0.2294236570596695, 0.017540406435728073, -0.1574801206588745, -0.25073960423469543, -0.08737081289291382, 0.014777393080294132, 0.010125248692929745, 0.12042338401079178, -0.1125044971704483, 0.08912062644958496, 0.18627946078777313, -0.10540203005075455, 0.06977672874927521, 0.18328939378261566, 0.11825226992368698, 0.08077709376811981, 0.0047935801558196545, 0.25402143597602844, 0.1499464064836502, -0.16004252433776855, 0.08988084644079208, -0.09067194908857346, -0.10876293480396271, -0.03340907767415047, 0.21600088477134705, 0.0027266733814030886, -0.06267484277486801, -0.2297532856464386, -0.09517893195152283, -0.0068750702776014805, 0.25158751010894775, -0.1445113718509674, 0.14909173548221588, -0.10149429738521576, -0.25310784578323364, -0.01754842698574066, -0.2501572370529175], [-0.0364704430103302, 0.19440549612045288, 0.11604386568069458, -0.07198916375637054, -0.03278868645429611, -0.12874862551689148, 0.07299455255270004, 0.21316829323768616, 0.021558910608291626, -0.032461777329444885, -0.1864667683839798, -0.08104148507118225, 0.19839513301849365, 0.08424266427755356, -0.12896275520324707, -0.19708451628684998, 0.22498178482055664, -0.1205562949180603, -0.004407103639096022, -0.016385231167078018, -0.06797004491090775, -0.0006534010171890259, 0.013593566603958607, -0.06381464004516602, 0.07435242086648941, -0.11681723594665527, -0.10781791806221008, 0.23294168710708618, -0.017766043543815613, 0.15982824563980103, -0.0686594769358635, 0.19116494059562683, -0.12879344820976257, -0.1310066133737564, 0.10377675294876099, -0.11832980066537857, 0.04883521795272827, 0.013425346463918686, 0.03199439495801926, -0.1112232506275177, 0.18856215476989746, -0.0455486886203289, 0.03518890589475632, -0.07576534152030945, 0.26814132928848267, 0.21269041299819946, 0.06322187185287476, 0.13000348210334778, -0.03889959305524826, 0.09117431938648224, -0.06371361017227173, -0.16472986340522766, 0.027029329910874367, -0.1421852856874466, 0.01898343302309513, -0.10503941029310226, -0.15541288256645203, 0.14693531394004822, 0.11906841397285461, -0.13031189143657684, -0.219139963388443, 0.11589287966489792, 0.11832337081432343, 0.04713327810168266], [-0.1580803096294403, 0.05846962705254555, 0.2660829722881317, -0.04465930908918381, 0.03048849105834961, -0.18893031775951385, -0.36077597737312317, -0.09984927624464035, 0.029909919947385788, 0.17106884717941284, 0.23413600027561188, 0.03888419270515442, 0.04487500339746475, 0.022100329399108887, -0.06589517742395401, -0.22619450092315674, 0.003274439601227641, -0.09203235805034637, -0.06804582476615906, 0.18214616179466248, 0.024658778682351112, 0.14107069373130798, 0.01824292540550232, 0.07694797217845917, -0.02993869036436081, -0.013220404274761677, -0.11947531253099442, -0.16889634728431702, 0.11622742563486099, 0.007674769032746553, 0.025317799299955368, -0.08727514743804932, -0.16396918892860413, -0.22017839550971985, 0.058886054903268814, -0.10522079467773438, -0.09150351583957672, -0.03755788505077362, -0.18928515911102295, -0.07470140606164932, -0.16508255898952484, -0.2785618007183075, -0.13278450071811676, -0.1157783716917038, -0.046346645802259445, -0.08589016646146774, -0.032632019370794296, -0.09050504863262177, -0.11502763628959656, 0.1088702455163002, 0.012144568376243114, -0.0078901881352067, 0.08444429934024811, 0.09845883399248123, -0.007736204192042351, -0.044585585594177246, 0.09086617827415466, -0.16522575914859772, -0.15284736454486847, 0.0033545433543622494, -0.14958550035953522, 0.07619393616914749, 0.0777248665690422, 0.11961141228675842], [0.09974704682826996, 0.05586628243327141, 0.007199436891824007, -0.08726420253515244, 0.04019015282392502, -0.013226233422756195, -0.11637195944786072, -0.05141132324934006, -0.009228445589542389, -0.0876273512840271, -0.11347697675228119, -0.066642165184021, 0.09941183775663376, 0.20957109332084656, 0.030257610604166985, -0.22111129760742188, -0.25821641087532043, 0.057021647691726685, -0.07428201287984848, 0.13283826410770416, -0.04879724979400635, 0.02717677690088749, -0.0794324204325676, 0.026457665488123894, -0.20495177805423737, -0.11853738874197006, 0.05568800866603851, 0.04697811231017113, 0.2666289806365967, 0.06547238677740097, 0.038512714207172394, 0.2415885180234909, 0.02471020072698593, -0.10694020986557007, -0.10197900235652924, 0.15903756022453308, 0.1034429520368576, -0.12580980360507965, -0.04707430303096771, 0.17476829886436462, 0.24407537281513214, 0.17940734326839447, -0.05688410997390747, -0.042284999042749405, 0.10746584832668304, -0.15743111073970795, -0.03684655949473381, 0.20501749217510223, 0.07776201516389847, -0.08505626767873764, 0.015507221221923828, 0.06577791273593903, 0.08696207404136658, 0.1282443255186081, 0.04963361471891403, 0.08795538544654846, 0.0042121694423258305, 0.03454279527068138, -0.21131844818592072, 0.21658766269683838, -0.1148066371679306, -0.08750270307064056, -0.13600751757621765, -0.05091087147593498], [-0.2502524256706238, 0.07964664697647095, 0.20578788220882416, 0.01477791927754879, 0.044073183089494705, -0.08460262417793274, -0.0039483048021793365, -0.24878720939159393, 0.1915818601846695, 0.0748862475156784, -0.08637937158346176, -0.12801119685173035, -0.05392064154148102, 0.0004176702059339732, -0.14354456961154938, 0.11081226915121078, -0.09907067567110062, 0.070859894156456, -0.19762040674686432, -0.04911285638809204, -0.02331015281379223, -0.17118774354457855, -0.6895910501480103, 0.0029501882381737232, 0.13801300525665283, 0.21554486453533173, 0.18100106716156006, -0.2120031714439392, -0.03870536759495735, -0.10875538736581802, 0.0497613362967968, 0.06105702742934227, -0.17957887053489685, 0.00623446935787797, -0.33457863330841064, 0.3776954412460327, -0.1328229308128357, 0.23598675429821014, -0.1405935436487198, -0.2572549879550934, -0.04402642324566841, -0.1032983660697937, 0.13339753448963165, -0.11357903480529785, -0.054040707647800446, -0.0008048135787248611, 0.17997416853904724, -0.13610044121742249, 0.060628872364759445, 0.02395971305668354, 0.0819900780916214, -0.13287150859832764, -0.03136526793241501, 0.12027644366025925, -0.14919674396514893, 0.23798124492168427, 0.031810421496629715, 0.007052137982100248, -0.10069184750318527, -0.21236474812030792, -0.05047009512782097, -0.2926659882068634, -0.347655713558197, -0.08477126061916351], [0.058934640139341354, 0.03335202485322952, 0.27107203006744385, -0.03661063313484192, -0.06798306107521057, 0.1971050649881363, -0.08605407178401947, -0.19257348775863647, -0.11829395592212677, 0.21148695051670074, 0.17909649014472961, 0.14410488307476044, 0.05034849792718887, -0.014242764562368393, -0.11622228473424911, 0.25591492652893066, 0.2782342731952667, 0.17355415225028992, -0.11237019300460815, -0.0432794988155365, 0.1262795329093933, 0.11019080877304077, 0.20815519988536835, -0.022749273106455803, -0.03659040480852127, 0.314256489276886, 0.008388067595660686, -0.05769737437367439, 0.1543412208557129, -0.028662703931331635, -0.17364506423473358, -0.1632668375968933, -0.0016773240640759468, 0.06790221482515335, 0.13028638064861298, 0.08186966180801392, 0.18485787510871887, 0.0752275213599205, -0.04301474615931511, -0.063187375664711, 0.2640150785446167, 0.20335111021995544, -0.04988205432891846, 0.16534675657749176, 0.11326195299625397, -0.22948266565799713, 0.10888071358203888, -0.01676199957728386, 0.07434302568435669, 0.12431400269269943, 0.002378684701398015, 0.201950341463089, -0.13326409459114075, 0.06791101396083832, 0.12921468913555145, -0.06879568099975586, -0.058546070009469986, -0.11917286366224289, -0.028461778536438942, 0.18231147527694702, 0.31609487533569336, 0.4321750998497009, -0.045268330723047256, 0.024932926520705223], [0.13695654273033142, -0.08722589910030365, -0.013724148273468018, -0.027133936062455177, -0.039821408689022064, -0.07160453498363495, -0.05919836834073067, -0.13574984669685364, -0.06934670358896255, 0.0068013546988368034, 0.05903895944356918, -0.09741427004337311, 0.0734020248055458, -0.060426849871873856, 0.19358369708061218, -0.03471611067652702, 0.026828967034816742, -0.21474868059158325, 0.07182085514068604, 0.11587949097156525, 0.05602915585041046, -0.05605345964431763, 0.2795056700706482, 0.14478479325771332, 0.014499539509415627, 0.02211831882596016, -0.020997285842895508, -0.016002198681235313, -0.023095760494470596, -0.06724723428487778, -0.06039094924926758, 0.20776721835136414, 0.006095563061535358, 0.026954732835292816, 0.18453699350357056, -0.12357030808925629, -0.1468854695558548, 0.3022996783256531, 0.2812797427177429, 0.13588249683380127, 0.12397916615009308, -0.026893673464655876, 0.012218259274959564, 0.10030452162027359, 0.14615152776241302, 0.11063234508037567, 0.07008972018957138, -0.1559305489063263, -0.12807969748973846, 0.2683922350406647, -0.2298167496919632, -0.18280641734600067, -0.0641118735074997, -0.12904398143291473, 0.09786078333854675, 0.08800598233938217, -0.0988585576415062, 0.048292696475982666, 0.12779147922992706, 0.1965203583240509, 0.04183495044708252, 0.04969439655542374, -0.20092569291591644, 0.17221058905124664], [0.024371640756726265, -0.2781204283237457, -0.4253550171852112, 0.05282678082585335, 0.15908178687095642, 0.10217735171318054, 0.08992540091276169, -0.06907793134450912, 0.11593818664550781, -0.3860698342323303, 0.19351141154766083, 0.1557932198047638, 0.14985117316246033, 0.026817983016371727, -0.04177533835172653, -0.05782793462276459, -0.01084919273853302, 0.24823902547359467, 0.19412250816822052, -0.2671350836753845, 0.10113098472356796, 0.061049748212099075, -0.3137075901031494, -0.05796679109334946, -0.19833417236804962, 0.01072104275226593, 0.0007562490063719451, -0.16250808537006378, -0.03196187689900398, -0.002528290031477809, 0.02093428745865822, -0.13677501678466797, -0.5472514629364014, -0.07175306230783463, 0.03915060684084892, -0.27864792943000793, 0.030583877116441727, -0.1136375367641449, 0.25004249811172485, 0.16200262308120728, -0.24277794361114502, -0.20389766991138458, 0.015305389650166035, 0.11928719282150269, 0.14277254045009613, -0.06809492409229279, 0.23389817774295807, 0.08523577451705933, -0.12462521344423294, 0.11741577088832855, -0.006804467178881168, -0.19717325270175934, -0.04986089468002319, 0.09413221478462219, 0.02414776384830475, -0.01766950450837612, 0.18011349439620972, 0.11697174608707428, -0.03843315690755844, 0.05875566974282265, -0.3688609004020691, -0.2479877918958664, -0.16954198479652405, -0.019372696056962013], [0.10954035073518753, -0.06913796812295914, -0.05800846591591835, -0.01424427330493927, -0.07290421426296234, 0.06325177848339081, 0.09313920885324478, -0.060279447585344315, 0.32322198152542114, -0.0027295672334730625, 0.00876567605882883, 0.22521071135997772, -0.01655725948512554, 0.23350563645362854, 0.0598873645067215, -0.10198216140270233, 0.01977071911096573, 0.03143899887800217, -0.006247046869248152, 0.20398573577404022, -0.03713351860642433, 0.13358835875988007, 0.03145058453083038, -0.858035147190094, 0.02611464262008667, -0.08524872362613678, -0.1555071324110031, -0.0015188383404165506, 0.02221374213695526, 0.09556697309017181, 0.029473211616277695, 0.22710995376110077, 0.14779391884803772, 0.018227290362119675, -0.05627548694610596, 0.060784656554460526, -0.18445082008838654, -0.01875383034348488, -0.12740053236484528, 0.15611518919467926, -0.2367452085018158, 0.062112513929605484, -0.09787926822900772, 0.32085752487182617, 0.03794901818037033, 0.1509455144405365, 0.066780224442482, 0.10627680271863937, 0.08185943961143494, 0.21109913289546967, -0.008464805781841278, -0.08630243688821793, -0.040694188326597214, 0.06280545145273209, -0.03329761326313019, 0.12015224248170853, 0.016711466014385223, 0.24136991798877716, -0.13423308730125427, 0.13214537501335144, 0.025885291397571564, -0.036581769585609436, -0.06332151591777802, -0.14292338490486145], [-0.14859148859977722, 0.06688710302114487, 0.012743446975946426, 0.20617859065532684, 0.14662721753120422, 0.09983976930379868, 0.13924232125282288, -0.12563326954841614, 0.04093446582555771, -0.021603906527161598, -0.006022496148943901, -0.04833492264151573, 0.05350225046277046, -0.02240588702261448, -0.07835881412029266, -0.06754089146852493, 0.09623856842517853, -0.1708841323852539, -0.086705781519413, -0.2500193119049072, -0.2008836269378662, -0.016595862805843353, 0.05872774124145508, -0.09678320586681366, 0.14957670867443085, 0.18434864282608032, 0.02876119874417782, 0.10302528738975525, -0.16715560853481293, -0.0944172739982605, -0.054699432104825974, -0.30424755811691284, -0.07030743360519409, 0.16090083122253418, -0.10587405413389206, -0.0722920373082161, -0.018051188439130783, -0.06804682314395905, -0.18448714911937714, -0.1736106425523758, -0.0043433732353150845, -0.0995946004986763, -0.2364405244588852, -0.18732309341430664, 0.18934491276741028, -0.09231860190629959, -0.09084703773260117, -0.007535587530583143, -0.29958653450012207, 0.1168966144323349, 0.002320330124348402, 0.12017887830734253, -0.038089167326688766, -0.14631572365760803, -0.17424049973487854, -0.1221553310751915, 0.20923809707164764, -0.09988874942064285, 0.061134666204452515, 0.33189094066619873, -0.14592455327510834, 0.012013973668217659, -0.0030029441695660353, 0.04038344696164131], [0.10150671005249023, 0.05647357925772667, 0.11495910584926605, 0.03964335471391678, 0.06031694635748863, 0.24556662142276764, 0.09795167297124863, -0.0851028710603714, 0.0735374391078949, 0.14576363563537598, -0.11280760169029236, -0.21619193255901337, -0.1910211443901062, -0.03824152424931526, 0.21647067368030548, -0.06902927905321121, 0.10338873416185379, -0.09679237753152847, 0.05894084274768829, -0.059653379023075104, 0.14631006121635437, 0.18116481602191925, -0.08379676938056946, 0.03616498038172722, -0.17499585449695587, 0.10708329826593399, -0.08933352679014206, 0.21396951377391815, 0.025416631251573563, -0.014307676814496517, -0.07297731935977936, 0.034138429909944534, -0.07730913907289505, 0.019342586398124695, -0.0005592015804722905, 0.10002581775188446, -0.06039896979928017, 0.044646911323070526, 0.14759843051433563, -0.15926885604858398, 0.01347415242344141, -0.08277641236782074, -0.06093776226043701, -0.013212854042649269, -0.1538984775543213, -0.06873094290494919, 0.06107975170016289, 0.14295819401741028, -0.05551524832844734, -0.2546701729297638, -0.12945249676704407, -0.039384033530950546, 0.20788165926933289, -0.12968814373016357, 0.08256712555885315, -0.22098663449287415, -0.006078724749386311, 0.2115635871887207, 0.020731579512357712, -0.098287433385849, -0.1298171579837799, 0.07971552014350891, 0.0036941831931471825, 0.24687525629997253], [0.14070351421833038, 0.07812881469726562, 0.10794643312692642, -0.09058179706335068, 0.16934195160865784, -0.13412560522556305, 0.17396095395088196, -0.04800064116716385, -0.17742173373699188, -0.15335878729820251, -0.08122877776622772, 0.037205446511507034, 0.11101767420768738, -0.04732696712017059, -0.036560531705617905, 0.07765456289052963, 0.019954726099967957, 0.029858602210879326, 0.014575283974409103, -0.1428699940443039, 0.073218435049057, -0.31549057364463806, 0.024318160489201546, 0.2236911952495575, -0.09122993052005768, 0.1880653202533722, -0.09736643731594086, 0.06733894348144531, 0.1119830533862114, 0.06627117097377777, 0.018913540989160538, 0.06903621554374695, 0.14551326632499695, 0.03146642819046974, -0.2506585419178009, 0.01771029829978943, -0.06614235043525696, 0.14793084561824799, 0.12540178000926971, -0.04568938910961151, 0.049037154763936996, -0.12280555069446564, 0.259346067905426, 0.049348074942827225, -0.031065683811903, 0.05305033549666405, -0.19851166009902954, -0.2492535412311554, 0.1200619786977768, 0.05360856279730797, -0.03933035954833031, 0.08652845025062561, -0.09754002839326859, 0.1276642084121704, -0.07896395772695541, -0.03840693458914757, 0.1882338672876358, 0.25255128741264343, -0.055335208773612976, 0.11911818385124207, -0.04803362488746643, -0.043840859085321426, -0.2587583363056183, -0.11261399835348129], [0.021288104355335236, -0.018547946587204933, 0.09638582915067673, 0.012447313405573368, 0.15524770319461823, -0.019660424441099167, -0.07929423451423645, 0.21994593739509583, 0.01763869635760784, 0.06683529168367386, -0.12721776962280273, 0.12224722653627396, 0.07926420867443085, -0.08345199376344681, 0.20811888575553894, -0.060309022665023804, -0.1999741792678833, 0.07260961830615997, 0.26990342140197754, 0.12743547558784485, 0.13295194506645203, 0.01491511333733797, 0.011282911524176598, -0.08591266721487045, 0.15621860325336456, -0.07652559876441956, 0.005104925483465195, 0.07154034078121185, 0.1802780032157898, -0.03903568536043167, 0.0881665050983429, 0.1509622037410736, -0.042815715074539185, 0.09804011136293411, 0.025695424526929855, 0.10459640622138977, 0.15448081493377686, 0.040928155183792114, -0.2490881383419037, -0.14547976851463318, -0.12168766558170319, 0.013067062944173813, 0.15054795145988464, -0.2231447845697403, 0.1720495969057083, 0.10228880494832993, 0.18558132648468018, 0.08829796314239502, -0.01043711043894291, -0.024150948971509933, -0.07742555439472198, 0.17098228633403778, 0.16838911175727844, -0.015510554425418377, 0.1856805980205536, -0.08413540571928024, -0.07835979014635086, -0.1218123808503151, -0.25577738881111145, 0.018633682280778885, 0.22209064662456512, -0.03744038566946983, -0.12371602654457092, -0.22594165802001953], [0.23785459995269775, 0.03232332319021225, -0.12102420628070831, 0.21794292330741882, 0.19359880685806274, 0.03692500665783882, -0.02305588126182556, -0.11787782609462738, 0.04612431675195694, -0.19792555272579193, -0.25794073939323425, -0.12017960846424103, 0.0765935629606247, 0.15071940422058105, 0.0823502466082573, -0.12227571755647659, 0.23903104662895203, -0.005581009667366743, -0.034697651863098145, 0.11108771711587906, 0.14635759592056274, 0.0791001170873642, 0.08119978755712509, -0.026003869250416756, 0.10449947416782379, 0.0037140818312764168, 0.1960689127445221, 0.09887711703777313, -0.03514834865927696, -0.1265667974948883, -0.05258670449256897, -0.045350685715675354, 0.1476115882396698, 0.15471655130386353, 0.0028050881810486317, -0.2814193069934845, 0.05124231055378914, -0.1092059463262558, 0.0070119379088282585, 0.04033719375729561, -0.15433478355407715, -0.13447964191436768, -0.014433419331908226, 0.015746787190437317, 0.04914068058133125, 0.22354425489902496, -0.08878485858440399, 0.02372550219297409, 0.09796851128339767, -0.005158148240298033, -0.08498231321573257, -0.024443136528134346, -0.025022141635417938, 0.19786523282527924, 0.07124366611242294, -0.07057616114616394, 0.23212897777557373, 0.2829829454421997, 0.08493656665086746, -0.044834062457084656, -0.057061877101659775, 0.20994240045547485, -4.619791798177175e-05, -0.09892880171537399], [-0.08316725492477417, -0.051652126014232635, -0.0009912439854815602, -0.04063611105084419, 0.08938131481409073, 0.07649075984954834, -0.10988326370716095, 0.05282878875732422, -0.1691625714302063, 0.0025585114490240812, -0.101035475730896, -0.06061679497361183, 0.013972326181828976, 0.129252627491951, -0.05435057729482651, -0.024590734392404556, -0.17574955523014069, -0.13472498953342438, 0.09621866047382355, 0.08720548450946808, -0.007410059683024883, -0.0933995172381401, -0.014446026645600796, 0.0978139117360115, -0.005034242291003466, -0.18746940791606903, -0.11428003758192062, -0.06816411018371582, -0.2891508638858795, -0.04669000580906868, 0.16437332332134247, 0.005581053905189037, 0.18003840744495392, -0.03457988053560257, 0.13602589070796967, -0.1328078657388687, -0.04427332431077957, -0.10096827894449234, 0.043386973440647125, -0.10644862055778503, 0.023351725190877914, -0.09900124371051788, 0.054544102400541306, 0.13583368062973022, -0.08804994076490402, -0.09377123415470123, -0.15193422138690948, -0.04746255278587341, -0.02473512291908264, 0.023748064413666725, -0.08955831080675125, 0.04667290300130844, 0.022266753017902374, 0.08027100563049316, 0.09860851615667343, -0.09147825092077255, -0.13323792815208435, 4.896912651020102e-05, 0.011822582222521305, 0.08398795872926712, -0.17192533612251282, 0.07016491144895554, -0.23549310863018036, -0.19199427962303162], [0.05280809476971626, -0.08685561269521713, 0.11004050821065903, -0.17600078880786896, 0.0019232499180361629, -0.16897471249103546, -0.031593985855579376, 0.16387906670570374, 0.051484305411577225, -0.15999317169189453, 0.11263252794742584, -0.07267565280199051, 0.07149273157119751, -0.17363344132900238, 0.11519023030996323, 0.015378352254629135, 0.06307224929332733, 0.04467560723423958, 0.03557124361395836, -0.016978580504655838, -0.22264841198921204, -0.2750813663005829, -0.20157088339328766, -0.19992873072624207, -0.19215929508209229, -0.07141657173633575, 0.029094401746988297, -0.19674408435821533, 0.07803598046302795, 0.16022150218486786, -0.013880746439099312, -0.004603813402354717, -0.008479350246489048, -0.01279977336525917, -0.03925517201423645, 0.09592445194721222, -0.16005514562129974, -0.10371516644954681, -0.007513501215726137, 0.0854872390627861, 0.17287704348564148, 0.23760707676410675, 0.06440993398427963, -0.15367068350315094, 0.15121790766716003, -0.14885787665843964, 0.02363145537674427, -0.18872979283332825, -0.03277779370546341, 0.0022444697096943855, -0.10331565141677856, -0.09308114647865295, -0.1611635386943817, -0.19146624207496643, -0.020572269335389137, 0.14912444353103638, 0.17639580368995667, -0.12073235213756561, -0.030953049659729004, -0.14310893416404724, -0.11733845621347427, 0.03938562422990799, -0.02635437436401844, -0.022550363093614578], [0.16501280665397644, -0.06537485867738724, 0.213783398270607, 0.2146877646446228, 0.3156692385673523, 0.07651816308498383, -0.0701908990740776, 0.19341181218624115, -0.16466191411018372, 0.22075921297073364, 0.13783857226371765, 0.007336208131164312, 0.03768307343125343, -0.10868627578020096, 0.026892350986599922, 0.045219775289297104, 0.1435321867465973, 0.05863914266228676, -0.03708154708147049, -0.1864132583141327, 0.08871281892061234, 0.23355841636657715, -0.13147230446338654, 0.277405709028244, 0.14434459805488586, 0.05907421186566353, 0.005908092949539423, -0.22455604374408722, -0.1596716344356537, -0.08302675932645798, 0.1737544983625412, 0.2283478081226349, 0.2514610290527344, -0.03145923838019371, -0.051661934703588486, -0.06520955264568329, -0.06345421075820923, 0.064079649746418, -0.03435084596276283, 0.05352441966533661, -0.08738280832767487, -0.07396528124809265, -0.018292807042598724, 0.10217511653900146, -0.0987929180264473, -0.029801523312926292, 0.08527050167322159, -0.2423224002122879, -0.12245603650808334, 0.18112429976463318, -0.07678137719631195, 0.01076133269816637, 0.089009128510952, 0.21196770668029785, -0.00872304942458868, -0.08638666570186615, 0.009600337594747543, 0.15982811152935028, 0.048958439379930496, -0.31361517310142517, 0.09508278220891953, 0.17936864495277405, 0.09996046125888824, 0.09140261262655258], [0.050638724118471146, -0.18101085722446442, -0.028597543016076088, -0.0820404514670372, 0.050165146589279175, 0.03912554681301117, -0.09420642256736755, 0.08255478739738464, -0.03013640083372593, 0.004494211636483669, 0.009114055894315243, -0.06372057646512985, -0.07206233590841293, -0.03206541761755943, -0.019581882283091545, -0.008927074261009693, 0.04748765751719475, 0.10607093572616577, 0.014430416747927666, 0.1200682744383812, -0.025946706533432007, -0.07359370589256287, -0.05905641242861748, 0.01159487571567297, 0.11793085187673569, -0.08540461212396622, -0.2958987355232239, 0.04912540689110756, 0.06479240953922272, 0.11264646053314209, -0.06765873730182648, -0.09721645712852478, -0.07099655270576477, -0.04982427507638931, -0.07205811142921448, -0.0762988030910492, -0.18151722848415375, -0.05392678081989288, -0.10047980397939682, 0.10537178814411163, 0.028480665758252144, 0.1338452845811844, -0.025502264499664307, 0.03950008749961853, 0.1159358099102974, -0.09037221223115921, -0.11792996525764465, -0.014455404132604599, 0.14762398600578308, -0.09039810299873352, 0.13777755200862885, -0.15614961087703705, -0.1297750324010849, -0.02481377124786377, -0.14468570053577423, -0.20542430877685547, -0.1282244324684143, -0.16809989511966705, 0.07203997671604156, 0.09323456138372421, 0.15039730072021484, 0.04912451282143593, -0.16052310168743134, 0.2351011037826538], [-0.17662543058395386, 0.0847637802362442, 0.007881014607846737, 0.09429686516523361, 0.15668083727359772, -0.025508375838398933, -0.1782030165195465, -0.10432398319244385, -0.055204350501298904, -0.23067092895507812, 0.049064647406339645, 0.060886066406965256, 0.09509079903364182, -0.03996121510863304, 0.06271590292453766, -0.012064330279827118, 0.2569134831428528, 0.395912766456604, 0.04262477904558182, 0.15188324451446533, -0.009582185186445713, 0.10678234696388245, -0.02997344173491001, -0.16427385807037354, -0.026965441182255745, -0.009005652740597725, 0.0839063972234726, -0.11595012247562408, -0.1631544977426529, 0.14770257472991943, -0.048426613211631775, 0.10053837299346924, -0.1189662367105484, 0.20572498440742493, -0.022355573251843452, 0.08122473955154419, 0.1956854909658432, 0.11973696947097778, -0.026073534041643143, 0.2219747006893158, -0.07536868005990982, 0.013593139126896858, 0.179256409406662, 0.10098033398389816, 0.11284993588924408, 0.034647341817617416, 0.3405967950820923, 0.04024432227015495, -0.07738030701875687, -0.1783381551504135, 0.0966741293668747, 0.02761806920170784, -0.06727586686611176, -0.11724085360765457, 0.1523265540599823, -0.06625957787036896, -0.09813638031482697, -0.014376296661794186, -0.2785397171974182, 0.00347109860740602, 0.17529113590717316, 0.12584581971168518, 0.201944500207901, 0.015585709363222122], [0.11441395431756973, 0.07796774059534073, -0.011698175221681595, 0.23547041416168213, 0.11579376459121704, 0.06342800706624985, 0.2597862482070923, 0.02145358920097351, 0.07445073872804642, -0.06854554265737534, 0.06710831075906754, -0.09033308923244476, 0.041149381548166275, 0.03842998296022415, 0.009422695264220238, 0.12872286140918732, -0.04513700678944588, -0.08940676599740982, -0.024080783128738403, -0.041219450533390045, 0.18186216056346893, -0.08339133858680725, 0.14664052426815033, 0.13699248433113098, 0.11395596712827682, 0.049159903079271317, 0.05650217831134796, 0.1495068222284317, -0.10175705701112747, 0.05480990186333656, 0.23969799280166626, 0.14874179661273956, -0.08801395446062088, -0.07267238199710846, -0.11432939022779465, 0.6324014067649841, -0.288117378950119, 0.11266128718852997, -0.023285286501049995, 0.1858672797679901, -0.031744446605443954, -0.21065713465213776, 0.3496723175048828, -0.16467270255088806, -0.15001046657562256, 0.04897785186767578, -0.028414038941264153, -0.1551959216594696, 0.2092229127883911, -0.09092091768980026, 0.17746035754680634, -0.21578006446361542, 0.18060925602912903, -0.06978751718997955, 0.11735641211271286, 0.11900955438613892, 0.17030467092990875, 0.12945757806301117, -0.11770331114530563, -0.020907429978251457, -0.2128574401140213, -0.10232651233673096, 0.07655639946460724, -0.1720050573348999]]}, "1-": {"kernel": [[-0.06436973810195923, 0.0927891805768013, -0.07875610888004303, 0.00805351510643959, 0.0341581366956234, 0.014097706414759159, -0.05798124521970749, 0.01255599781870842, 0.08487243205308914, -0.013503247871994972, -0.08796127140522003, 0.03625505417585373, 0.0035620788112282753, -0.26092207431793213, -0.09901875257492065, 0.029316255822777748, -0.16078266501426697, -0.12035616487264633, 0.01857648231089115, 0.1269262284040451, -0.07960634678602219, 0.13300210237503052, -0.09574475884437561, -0.1727895885705948, 0.07329264283180237, 0.009650636464357376, 0.035779718309640884, 0.26961180567741394, -0.03952701762318611, 0.11069976538419724, -0.024277575314044952, -0.1395355761051178, -0.06091725081205368, 0.0966578871011734, -0.24500776827335358, -0.08447977900505066, 0.11059024184942245, 0.1880975067615509, 0.008776376023888588, -0.16182933747768402, 0.10791876912117004, 0.125846266746521, -0.16255851089954376, 0.07074705511331558, -0.04112952575087547, -0.1395491063594818, 0.262505441904068, -0.04557204619050026, -0.1554519236087799, -0.018109144642949104, 0.2126506268978119, 0.016535885632038116, -0.035116977989673615, -0.05714327469468117, 0.040491458028554916, -0.08673424273729324, 0.3643355667591095, 0.03388705104589462, 0.061777353286743164, 0.0010605474235489964, -0.05186695605516434, -0.022666720673441887, 0.0476897731423378, -0.09351080656051636], [0.15590813755989075, 0.007967526093125343, -0.2385225147008896, 0.021216465160250664, 0.04627477005124092, -0.19279038906097412, -0.05074766278266907, -0.21992850303649902, 0.1675093173980713, 0.06924565136432648, 0.1475754827260971, 0.1087343767285347, 0.1891637146472931, 0.2857040762901306, -0.08809598535299301, -0.04018138349056244, 0.07962579280138016, -0.13079798221588135, 0.055122606456279755, 0.01914438232779503, 0.031800806522369385, 0.07564672082662582, 0.021179018542170525, -0.0033643473871052265, 0.16858983039855957, -0.13398532569408417, -0.012739233672618866, 0.01989354006946087, 0.14196249842643738, 0.18220561742782593, -0.16585643589496613, -0.03602371737360954, -0.005510949529707432, -0.0055346181616187096, -0.021294422447681427, -0.23479332029819489, -0.13761036098003387, -0.011823473498225212, -0.24443241953849792, -0.021597210317850113, 0.2548411786556244, 0.036755695939064026, -0.00039271224522963166, -0.09527450054883957, 0.038588352501392365, -0.05507942661643028, 0.0021667233668267727, -0.008711658418178558, -0.05643433704972267, 0.009826342575252056, -0.28106698393821716, 0.23983065783977509, 0.06234601512551308, -0.17748703062534332, -0.224787175655365, -0.2705535292625427, 0.13960829377174377, -0.08480425179004669, -0.1699884682893753, 0.26372164487838745, -0.1674276739358902, 0.10134904086589813, -0.16530634462833405, 0.08832599222660065], [0.1615571826696396, -0.023810885846614838, -0.11192410439252853, -0.020349664613604546, 0.02371184714138508, 0.22563707828521729, 0.08406313508749008, -0.187260240316391, -0.19915740191936493, -0.0061960723251104355, -0.029386097565293312, 0.20431415736675262, -0.021037111058831215, 0.09598230570554733, -0.2197575718164444, 0.06983962655067444, -0.13175995647907257, -0.08017139881849289, 0.19940051436424255, -0.02459505759179592, -0.16112986207008362, 0.09398408234119415, 0.20172521471977234, -0.09187775105237961, 0.014772984199225903, -0.08494395017623901, 0.07488264888525009, 0.022662416100502014, 0.06713413447141647, 0.0246031042188406, -0.03520368039608002, -0.06875209510326385, 0.19133365154266357, -0.02969522401690483, -0.06310439109802246, 0.27137869596481323, -0.027225099503993988, -0.06316228210926056, -0.014067134819924831, 0.1367885172367096, 0.10916971415281296, -0.011475702747702599, -0.0629635751247406, -0.23636969923973083, 0.2595736086368561, 0.2231966108083725, -0.0477764792740345, -0.05971260741353035, 0.04953203350305557, -0.016742300242185593, 0.031478218734264374, 0.06652659922838211, -0.12163275480270386, 0.004537935368716717, 0.13551808893680573, 0.06507978588342667, -0.14891882240772247, -0.03697064891457558, 0.015673302114009857, -0.1472291201353073, -0.01224040612578392, 0.08875986933708191, -0.21959583461284637, -0.24737757444381714], [-0.19201822578907013, -0.06485823541879654, 0.18544727563858032, 0.13453388214111328, -0.32354697585105896, -0.22591009736061096, -0.045027632266283035, -0.007374974898993969, 0.04457058012485504, -0.18645299971103668, -0.11302599310874939, 0.12715362012386322, -0.018166158348321915, 0.19424238801002502, 0.08822256326675415, 0.19184158742427826, 0.11415736377239227, -0.15806226432323456, -0.1387886106967926, -0.07652158290147781, 0.05872708186507225, -0.04325813800096512, 0.006170633714646101, -0.05817008018493652, -0.24780215322971344, 0.22869515419006348, 0.16885317862033844, 0.21140503883361816, 0.10004624724388123, 0.03789951279759407, -0.24554409086704254, 0.11761882156133652, 0.01030671875923872, -0.0751846507191658, 0.05982130765914917, -0.15829525887966156, 0.11824850738048553, 0.19240425527095795, 0.1365140676498413, 0.045695237815380096, 0.049121610820293427, -0.013137656264007092, -0.024135492742061615, -0.06500225514173508, 0.002314118668437004, 0.057059720158576965, 0.08881690353155136, 0.10939048230648041, -0.18789160251617432, 0.2790389657020569, 0.15035036206245422, 0.31729716062545776, 0.009539837017655373, -0.07843191176652908, -0.07373320311307907, 0.06642695516347885, 0.00034264562418684363, 0.18690872192382812, -0.05324442684650421, 0.02375386282801628, 0.019980600103735924, 0.10444649308919907, 0.09191391617059708, 0.008479363285005093], [0.032791055738925934, 0.07300877571105957, -0.24738076329231262, 0.15659336745738983, 0.18625830113887787, 0.07786966115236282, 0.16165022552013397, 0.2597823739051819, -0.024891775101423264, -0.07559805363416672, 0.052407387644052505, 0.006709031295031309, 0.17391447722911835, -0.10259776562452316, 0.26404932141304016, -0.10640077292919159, 0.011890243738889694, -0.03294406086206436, 0.09962201863527298, -0.07944295555353165, -0.13285474479198456, -0.05204402282834053, 0.046477194875478745, 0.08154870569705963, 0.028761517256498337, -0.2516196370124817, 0.06713685393333435, -0.0045554302632808685, -0.1279444396495819, -0.05761303752660751, 0.03731471300125122, 0.09244681894779205, -0.12102925777435303, -0.13391129672527313, -0.17673416435718536, 0.3661271035671234, 0.04363896697759628, 0.19390586018562317, 0.07801683247089386, 0.08825027942657471, -0.09757884591817856, -0.034076910465955734, 0.002414419548586011, -0.2035825550556183, -0.002431425265967846, -0.12926623225212097, 0.09778374433517456, 0.0566023625433445, -0.06776399910449982, 0.1906711608171463, 0.07694671303033829, 0.2415117472410202, 0.12115822732448578, 0.17496991157531738, -0.08860284090042114, -0.06701634079217911, 0.08017630875110626, 0.004475709050893784, -0.19485846161842346, 0.27009716629981995, -0.10418765246868134, 0.08418243378400803, -0.02722117491066456, 0.2475166767835617], [-0.004810049198567867, -0.07306808978319168, 0.041992492973804474, -0.007124506868422031, 0.17031718790531158, 0.08662804961204529, 0.21618546545505524, -0.22040170431137085, 0.03409523516893387, 0.00012137831799918786, 0.030615948140621185, 0.06939417123794556, -0.2274133414030075, 0.11618432402610779, 0.10391020774841309, 0.0633205771446228, 0.17746423184871674, -0.12109588086605072, -0.102210134267807, -0.00184876867569983, 0.10920353978872299, -0.01751026138663292, 0.07160670310258865, -0.11686982214450836, 0.17916326224803925, -0.12043661624193192, -0.09751521795988083, -0.23968711495399475, -0.17391476035118103, -0.19680576026439667, 0.07085300236940384, 0.15220972895622253, -0.01253095455467701, 0.06050289422273636, 0.3055926263332367, -0.3013489246368408, -0.057858213782310486, -0.1949690878391266, 0.09256387501955032, -0.06094281002879143, 0.0380939356982708, 0.013754351064562798, 0.05086008831858635, 0.0705082044005394, -0.057899102568626404, 0.06006539613008499, 0.04852474480867386, 0.04562222585082054, -0.10717853903770447, -0.10120565444231033, 0.009142404422163963, 0.21049165725708008, -0.007968307472765446, 0.10479056090116501, -0.00110551156103611, 0.1395297348499298, -0.10566079616546631, 0.17429786920547485, 0.13721638917922974, -0.04362760856747627, 0.09489788860082626, -0.02664213813841343, 0.17522060871124268, -0.11948142200708389], [0.1029282882809639, -0.11837193369865417, 0.03557875379920006, -0.09173737466335297, 0.06574906408786774, 0.06026484817266464, 0.03809624910354614, -0.010181749239563942, -0.08127594739198685, 0.027253003790974617, -0.044417425990104675, 0.06762241572141647, -0.07401423156261444, -0.0027596703730523586, -0.04643202945590019, -0.10010000318288803, -0.14955613017082214, -0.07677476108074188, -0.09058953821659088, 0.026952102780342102, -0.1153845489025116, 0.09966184943914413, -0.06275957077741623, 0.0917462408542633, 0.17142032086849213, 0.17084470391273499, -0.046642180532217026, -0.07663705945014954, 0.002831246703863144, 0.03943656384944916, 0.05218825489282608, -0.018552212044596672, 0.04528728500008583, -0.2025105357170105, 0.07702446728944778, -0.11455424875020981, 0.14179325103759766, 0.21407148241996765, 0.21160022914409637, -0.052706751972436905, 0.26881295442581177, 0.0684744119644165, -0.12604694068431854, 0.07490222901105881, 0.07422955334186554, 0.039406951516866684, 0.20360560715198517, -0.04305919259786606, 0.09111659228801727, -0.20062562823295593, 0.17718110978603363, 0.014424892142415047, -0.024523308500647545, 0.13932082056999207, 0.07197516411542892, 0.13860046863555908, -0.3334561586380005, 0.020879361778497696, 0.01540796086192131, 0.011307600885629654, 0.13312271237373352, 0.060243602842092514, -0.021823730319738388, -0.11927029490470886], [-0.10608874261379242, 0.015409348532557487, 0.08716248720884323, 0.15957000851631165, 0.11455489695072174, 0.10893813520669937, -0.1591605395078659, -0.17914752662181854, 0.17124386131763458, -0.11995411664247513, 0.3025386333465576, -0.0794968232512474, -0.19172444939613342, 0.3269369304180145, 0.10555209219455719, -0.02499227039515972, -0.2205762416124344, -0.11413499712944031, -0.058477114886045456, -0.0804952010512352, -0.006548586301505566, -0.038880132138729095, -0.13296130299568176, -0.24975734949111938, -0.06409120559692383, -0.21714100241661072, 