{"params": {"Dense_0": {"0+": {"bias": [-0.0067348238080739975, -0.012543030083179474, -0.010783523321151733, -0.05676625669002533, -0.023998351767659187, -0.040432415902614594, 0.0012054604012519121, -0.0008214624249376357, 0.001845729653723538, -0.033184196799993515, 0.0126492939889431, 0.017931146547198296, 0.013093061745166779, -0.02083703875541687, 0.011227231472730637, -0.0034312354400753975, 0.006213586777448654, -0.010874923318624496, 0.006171092391014099, 0.009506936185061932, -0.004167596809566021, 0.0024256501346826553, -0.019192587584257126, 0.003571555018424988, 0.024449262768030167, 0.0006714363116770983, 0.016519617289304733, -0.003459962084889412, 0.02482503093779087, 0.0003852563095279038, 0.0012458055280148983, 0.008447734639048576], "kernel": [[-0.016897540539503098, 0.18680879473686218, -0.07978571951389313, 0.10311666131019592, 0.14929810166358948, 0.05535148084163666, -0.1602327674627304, 0.19117110967636108, 0.10238149017095566, -0.13153554499149323, -0.014613986015319824, 0.18919368088245392, -0.3979102373123169, -0.3732314109802246, 0.04039274528622627, -0.1482754647731781, 0.03514404594898224, 0.19107845425605774, -0.1286877691745758, 0.21246391534805298, 0.153600811958313, 0.08445639908313751, -0.11203370988368988, 0.07979445159435272, 0.30327677726745605, 0.09035906195640564, 0.31502342224121094, -0.06497076153755188, -0.17314261198043823, -0.196193128824234, 0.16184666752815247, 0.2243836373090744], [0.09468406438827515, -0.12325318157672882, -0.2322186529636383, -0.38305920362472534, 0.18966588377952576, 0.10276913642883301, -0.20616251230239868, -0.08591596782207489, 0.16130931675434113, 0.013279824517667294, 0.11441050469875336, -0.004505138844251633, -0.043153222650289536, -0.022971440106630325, 0.1614474356174469, -0.1258905529975891, 0.1976214349269867, -0.2708108425140381, -0.19589126110076904, 0.05037637799978256, 0.10991306602954865, 0.09871932119131088, 0.314482718706131, -0.3190464973449707, -0.11627626419067383, -0.17269998788833618, -0.3018938899040222, -0.1853896677494049, -0.39711475372314453, -0.0593884214758873, 0.15945158898830414, 0.17017650604248047], [0.21290402114391327, -0.06530313193798065, -0.2182680368423462, -0.200165256857872, -0.06469200551509857, -0.20640215277671814, -0.01939740777015686, 0.22301170229911804, 0.008853673003613949, -0.16222015023231506, -0.13435116410255432, -0.2973404824733734, -0.023431524634361267, 0.3302140533924103, -0.04807457700371742, -0.00011011780588887632, -0.14751079678535461, -0.033136509358882904, 0.19198140501976013, 0.23693637549877167, 0.06671687215566635, 0.11334136128425598, -0.34742432832717896, 0.09312068670988083, 0.26240935921669006, -0.22178855538368225, 0.12941905856132507, 0.06812061369419098, 0.2550516128540039, 0.14765805006027222, 0.09656190872192383, 0.03500595688819885], [0.14107733964920044, 0.061332859098911285, -0.21738705039024353, 0.08600510656833649, 0.07069026678800583, -0.027661960572004318, -0.05849028378725052, 0.028730204328894615, 0.0761762484908104, -0.1318644881248474, -0.022831488400697708, 0.00597551092505455, 0.06947623193264008, 0.2325151562690735, -0.12464076280593872, 0.06680509448051453, -0.17346739768981934, -0.18682827055454254, -0.02327539399266243, -0.15434357523918152, 0.3305032253265381, -0.006141724996268749, -0.21116772294044495, -0.1506059169769287, 0.17605991661548615, -0.1346641480922699, 0.31003662943840027, -0.10583269596099854, 0.13648450374603271, -0.1323532909154892, -0.017404276877641678, -0.23227176070213318], [-0.2495528608560562, -0.036682598292827606, 0.26494690775871277, -0.15014752745628357, 0.03604091331362724, 0.04622799903154373, -0.026377227157354355, -0.1503911018371582, 0.1933923065662384, -0.036902088671922684, 0.12545816600322723, -0.02013533189892769, 0.17218801379203796, -0.10209252685308456, 0.2227402627468109, -0.0908898413181305, 0.23961158096790314, 0.15233060717582703, 0.03512202948331833, 0.2211819887161255, 0.03855564072728157, -0.21247516572475433, -0.06765130162239075, -0.08144746720790863, -0.0197940394282341, -0.18366968631744385, 0.04709557071328163, 0.015726525336503983, 0.018612608313560486, 0.2745014727115631, -0.08121423423290253, 0.10705450922250748], [-0.0037968866527080536, 0.0978446751832962, 0.134763702750206, -0.11784520745277405, 0.10905072093009949, 0.11882280558347702, -0.21257451176643372, 0.1590862274169922, -0.036398954689502716, -0.22846834361553192, -0.11992140859365463, 0.1931874305009842, 0.15873493254184723, 0.24700748920440674, 0.0435602068901062, 0.08783268928527832, -0.14547881484031677, 0.07776804268360138, 0.17068132758140564, 0.10246936231851578, -0.12904590368270874, -0.19551599025726318, -0.15574991703033447, -0.11057581007480621, 0.11553508043289185, 0.056141406297683716, 0.16157129406929016, -0.20020252466201782, 0.020381834357976913, -0.03836200386285782, -0.2858743667602539, -0.031505558639764786], [-0.1738240271806717, -0.19315648078918457, 0.05567098408937454, -0.11926084011793137, -0.03554518520832062, 0.11702045798301697, 0.0723377913236618, -0.0306685958057642, -0.01982804760336876, -0.42440444231033325, -0.03963626176118851, 0.09971889853477478, -0.03266763687133789, -0.26427018642425537, 0.0713806301355362, 0.1663985252380371, 0.1525372862815857, -0.11677087843418121, -0.07348092645406723, 0.05121118575334549, -0.1768556535243988, 0.2843259572982788, 0.14348042011260986, 0.19809627532958984, -0.3700748682022095, 0.18981283903121948, 0.13749676942825317, -0.41566699743270874, 0.14047439396381378, -0.2314760833978653, 0.3410796523094177, 0.14874085783958435], [-0.1714766025543213, 0.05157306790351868, -0.38023391366004944, -0.1336110234260559, -0.05767126381397247, 0.07358445227146149, -0.2664599120616913, -0.15834322571754456, -0.15968485176563263, 0.3091479539871216, 0.21396459639072418, 0.35909509658813477, -0.07942122220993042, -0.05459000542759895, -0.10467872023582458, -0.18369826674461365, -0.14502450823783875, 0.15733540058135986, -0.05044402927160263, 0.025979481637477875, -0.14472270011901855, 0.05292009562253952, -0.13680556416511536, 0.2681835889816284, 0.2695884704589844, -0.24345029890537262, -0.16011172533035278, 0.03262587636709213, -0.001093774102628231, -0.020167671144008636, 0.25896012783050537, -0.19915762543678284], [-0.09256859123706818, 0.0511566698551178, -0.3328269124031067, 0.1662120521068573, -0.04087880998849869, -0.30519384145736694, 0.03057205118238926, -0.023470405489206314, -0.02411908097565174, -0.2279348522424698, 0.035737890750169754, -0.2914241552352905, 0.10984781384468079, 0.09970517456531525, 0.18463170528411865, -0.06035921722650528, -0.18487340211868286, 0.042173631489276886, -0.07087322324514389, 0.17559325695037842, -0.07754039019346237, -0.26428622007369995, 0.028041601181030273, 0.2327204942703247, 0.006600008346140385, -0.08819462358951569, 0.014131041243672371, -0.16475838422775269, 0.36058181524276733, -0.05212236940860748, 0.09319952130317688, -0.2024480700492859], [0.23720967769622803, 0.07994180917739868, 0.19445116817951202, 0.11038702726364136, 0.07032819092273712, 0.09284047782421112, -0.10040841996669769, 0.13787606358528137, -0.03948768973350525, -0.06355591118335724, -0.2896198332309723, 0.014029143378138542, -0.20402410626411438, -0.1346871703863144, -0.05403062328696251, -0.26974472403526306, -0.3855498731136322, -0.042294152081012726, -0.04717155545949936, 0.18263177573680878, -0.07018335163593292, -0.055589206516742706, -0.03279249370098114, -0.04659755155444145, -0.03716129809617996, -0.22524049878120422, 0.14412066340446472, -0.07643936574459076, -0.1521100401878357, 0.21240046620368958, -0.1218249574303627, -0.014518935233354568], [0.09066690504550934, -0.1060013473033905, -0.033173851668834686, 0.10075806081295013, -0.1653243601322174, -0.05983761325478554, 0.06631306558847427, -0.05083107203245163, -0.00027116775163449347, 0.10366998612880707, 0.051225483417510986, 0.29316073656082153, 0.10860934853553772, 0.2564929127693176, 0.1700422167778015, 0.2578789293766022, -0.04881735146045685, -0.0337582528591156, -0.03924352675676346, -0.043684735894203186, -0.09145067632198334, 0.11250963807106018, -0.0249499324709177, 0.08038078248500824, 0.08031013607978821, 0.19386617839336395, -0.10826793313026428, 0.003689049743115902, 0.009781410917639732, 0.14537128806114197, 0.12824589014053345, 0.2848103642463684], [0.12063992023468018, 0.0007978096255101264, 0.18433089554309845, 0.2828844487667084, -0.3030678629875183, 0.21452736854553223, 0.2312210202217102, -0.08119785040616989, 0.17235976457595825, 0.042720191180706024, 0.04349981248378754, -0.22066238522529602, -0.14545239508152008, 0.41641005873680115, 0.23632773756980896, 0.0161762535572052, -0.06168881431221962, 0.051466114819049835, -0.09138402342796326, 0.22828644514083862, 0.207429900765419, 0.10407841950654984, -0.06247277557849884, -0.03819260001182556, -0.023721763864159584, 0.1978318691253662, -0.34259140491485596, 0.18535968661308289, 0.15680263936519623, 0.06477484107017517, -0.051557816565036774, 0.11274263262748718], [0.14292535185813904, -0.09380730986595154, -0.17985236644744873, -0.08931099623441696, 0.2384788691997528, -0.20368525385856628, 0.058833785355091095, 0.006844216492027044, 0.1716434359550476, -0.17967477440834045, -0.013508880510926247, -0.05036967247724533, -0.12422233819961548, -0.2107827514410019, 0.006463282275944948, -0.08871973305940628, -0.21029509603977203, 0.25889068841934204, -0.11564372479915619, 0.19420070946216583, -0.07594165205955505, 0.0030902144499123096, 0.05201949551701546, 0.029905421659350395, 0.21582451462745667, -0.19060499966144562, 0.024661550298333168, 0.13661399483680725, -0.13160771131515503, 0.04604078084230423, 0.12920595705509186, -0.06628633290529251], [0.11511631309986115, -0.11377371102571487, -0.1241658553481102, -0.2546692490577698, -0.4061501920223236, -0.14121639728546143, 0.023553742095828056, -0.08404980599880219, -0.22863924503326416, -0.04127102345228195, 0.14051172137260437, 0.3176965117454529, -0.06194112449884415, -0.2729864716529846, -0.0948844775557518, 0.20780852437019348, -0.2058650404214859, 0.18364004790782928, 0.024359147995710373, -0.24864669144153595, 0.10322470217943192, -0.1584661453962326, -0.15702274441719055, -0.06417643278837204, 0.06545119732618332, 0.3298596143722534, 0.05114210397005081, -0.07240666449069977, 0.038645949214696884, 0.16473816335201263, -0.32545650005340576, -0.17872494459152222], [-0.03855865076184273, -0.2839440107345581, 0.07921915501356125, -0.07053150981664658, -0.13292795419692993, -0.10979059338569641, -0.1774066984653473, -0.22729220986366272, -0.18000705540180206, 0.2601913809776306, 0.09847208857536316, -0.3097502589225769, -0.1205933541059494, 0.36612457036972046, -0.20791101455688477, -0.31982576847076416, 0.10626962780952454, 0.1287858784198761, 0.17023497819900513, 0.046557217836380005, 0.06399039924144745, 0.05563299357891083, -0.02191046066582203, -0.005972803570330143, 0.06417778134346008, 0.18096454441547394, 0.19326776266098022, 0.21399259567260742, -0.23351146280765533, -0.11226996779441833, -0.23601004481315613, -0.07727277278900146], [0.15073652565479279, 0.1950717270374298, 0.22729450464248657, -0.04375607147812843, 0.16591213643550873, -0.22980763018131256, 0.12932631373405457, 0.09055156260728836, -0.16767951846122742, -0.09560014307498932, -0.08755229413509369, 0.4591442942619324, 0.024718184024095535, -0.08634650707244873, 0.23671849071979523, 0.04669835418462753, -0.19235259294509888, -0.07731841504573822, 0.27812129259109497, -0.11240024864673615, -0.05455620214343071, 0.05448256433010101, 0.2164572775363922, 0.024286635220050812, 0.1358734667301178, 0.2538686990737915, 0.08452139794826508, 0.14331644773483276, 0.05363939702510834, 0.09185574948787689, -0.05085643008351326, -0.1017751544713974], [0.15444135665893555, -0.026163004338741302, 0.12440380454063416, 0.06650342047214508, 0.1473606377840042, -0.07613326609134674, 0.020432859659194946, 0.0019135205075144768, 0.23778584599494934, -0.15937039256095886, 0.06015664339065552, 0.03371327370405197, 0.10466346144676208, -0.2902158498764038, -0.005645546596497297, -0.11292894184589386, 0.11656112223863602, -0.17680874466896057, 0.04078955203294754, 0.20052947103977203, -0.25534945726394653, 0.009496388025581837, 0.17133618891239166, -0.26332247257232666, -0.3164339065551758, 0.03602822124958038, 0.09887641668319702, 0.05119425058364868, 0.08834671229124069, -0.07004569470882416, 0.022762633860111237, -0.002789686433970928], [-0.3665175437927246, -0.1965399980545044, -0.004618597216904163, 0.08798916637897491, 0.26529496908187866, 0.3418577313423157, 0.07950751483440399, -0.14421561360359192, -0.24839070439338684, -0.02748202532529831, 0.1792510598897934, 0.07558903098106384, -0.0640588328242302, -0.12006855010986328, -0.10343459993600845, -0.27266764640808105, -0.007562241982668638, 0.18371550738811493, -0.05115680769085884, -0.16952531039714813, 0.035002317279577255, 0.11623694002628326, -0.020537760108709335, 0.10259443521499634, -0.05419614166021347, -0.012244166806340218, -0.09521748125553131, 0.027337785810232162, 0.006201697047799826, 0.15972477197647095, -0.11553636193275452, -0.026242941617965698], [-0.2899933457374573, -0.05129791051149368, -0.336574524641037, 0.12139134109020233, -0.20359301567077637, 0.23997902870178223, -0.1906430423259735, -0.27325478196144104, -0.007663536351174116, -0.2610520124435425, 0.08462177217006683, 0.0020521781407296658, -0.01992102712392807, -0.07338881492614746, 0.13038772344589233, 0.3348070979118347, -0.2745324969291687, -0.2779543399810791, -0.07719124108552933, -0.10617078840732574, -0.33888161182403564, -0.20410747826099396, 0.3187376856803894, -0.22282619774341583, -0.132785364985466, 0.02106865867972374, -0.1858879178762436, -0.18420301377773285, -0.21115311980247498, -0.044665250927209854, -0.16878679394721985, 0.10978345572948456], [-0.1623389720916748, -0.25378555059432983, 0.11395962536334991, 0.08870856463909149, 0.03274545446038246, -0.16217848658561707, 0.0045666880905628204, 0.054514676332473755, -0.08730270713567734, 0.2601158022880554, -0.1401088982820511, 0.1777685284614563, -0.27051401138305664, -0.27612292766571045, -0.0548400804400444, -0.08444171398878098, 0.13843385875225067, 0.16430366039276123, -0.25839996337890625, -0.10350548475980759, -0.06536130607128143, -0.04068165645003319, -0.1645607054233551, -0.020708609372377396, 0.05623277649283409, -0.3212730884552002, -0.10277781635522842, 0.1481868326663971, -0.1721707284450531, -0.06442239135503769, 0.1149468719959259, 0.10768376290798187], [0.05715741962194443, 0.0010059893829748034, -0.07072793692350388, -0.050973765552043915, 0.16084608435630798, 0.062687948346138, -0.07855059206485748, 0.08165308833122253, -0.16746008396148682, 0.04024094343185425, 0.1039656326174736, 0.13683870434761047, -0.27425286173820496, -0.0732072964310646, -0.18576928973197937, -0.2775830030441284, -0.11391621828079224, 0.14477050304412842, 0.030127787962555885, 0.11962653696537018, -0.20882681012153625, -0.024457693099975586, -0.34080809354782104, 0.08527084439992905, -0.16354361176490784, -0.13744357228279114, -0.08731594681739807, -0.12233079969882965, -0.12917667627334595, 0.24411645531654358, 0.2665184736251831, 0.1861802041530609], [-0.017068680375814438, 0.009569172747433186, -0.14338044822216034, 0.040215812623500824, 0.06451760232448578, -0.27978238463401794, 0.33882150053977966, -0.17726139724254608, -0.043764352798461914, 0.190932959318161, -0.13621458411216736, 0.03276834636926651, -0.3848205804824829, -0.22662952542304993, -0.11935494840145111, 0.340222030878067, -0.08864082396030426, 0.030348021537065506, 0.097913458943367, -0.23603905737400055, -0.16729986667633057, -0.3037686347961426, -0.07321296632289886, 0.1931282877922058, -0.2629221975803375, 0.14406782388687134, 0.30445459485054016, -0.1261499673128128, -0.2538866400718689, -0.061331093311309814, 0.27300992608070374, -0.17896869778633118], [-0.08042030036449432, 0.07609912753105164, -0.20614875853061676, -0.13087548315525055, -0.18390822410583496, 0.27989059686660767, -0.20098495483398438, -0.19412362575531006, 0.021836793050169945, 0.04616107791662216, 0.10023815929889679, 0.0341695100069046, 0.3323368728160858, -0.18880093097686768, 0.2185150533914566, 0.3119284510612488, -0.12471246719360352, -0.1873328983783722, 0.23075877130031586, -0.004042989108711481, 0.20112869143486023, 0.003104260191321373, 0.0018389683682471514, -0.10890791565179825, 0.15607115626335144, -0.24768532812595367, 0.06722506880760193, 0.3412278890609741, 0.07966472953557968, 0.013118410483002663, 0.3332664966583252, 0.12700678408145905], [-0.1977154016494751, 0.26784569025039673, -0.02198377065360546, -0.3145841956138611, -0.04562576487660408, -0.08602167665958405, 0.005154593847692013, 0.24441412091255188, 0.007468828931450844, 0.14169177412986755, 0.3356533646583557, 0.21422523260116577, -0.17546012997627258, 0.1647481620311737, 0.020104732364416122, -0.14037039875984192, 0.0374981164932251, -0.12471243739128113, -0.04604116082191467, -0.114779993891716, 0.27137434482574463, 0.05626312643289566, 0.2427341341972351, -0.09447094053030014, 0.19140934944152832, -0.0591396763920784, -0.00420175027102232, -0.003638841211795807, 0.021474216133356094, 0.3727794587612152, -0.12390155345201492, 0.2610575556755066], [0.3087362051010132, 0.2118174135684967, -0.11970634758472443, -0.18230196833610535, 0.28767746686935425, 0.19938446581363678, 0.16732922196388245, -0.16720622777938843, -0.2520679533481598, -0.09788890182971954, 0.02537362463772297, 0.011775211431086063, 0.3684968054294586, -0.14193958044052124, 0.04553671181201935, -0.23263970017433167, 0.2828375995159149, -0.18220001459121704, -0.05161009728908539, 0.24760426580905914, -0.0067847538739442825, 0.1572330743074417, -0.19946828484535217, 0.2903904318809509, 0.3297687768936157, -0.14948230981826782, 0.02483052760362625, -0.27293041348457336, -0.035871803760528564, -0.10836191475391388, -0.06178969889879227, -0.10736305266618729], [-0.16977068781852722, -0.25434303283691406, 0.25879889726638794, -0.058171048760414124, -0.027800502255558968, 0.1816178262233734, -0.27877193689346313, -0.33366310596466064, 0.3077753782272339, -0.15121310949325562, -0.035081878304481506, -0.35190069675445557, -0.3333888053894043, 0.18032339215278625, -0.10302018374204636, -0.11318757385015488, 0.10678167641162872, -0.014231139793992043, -0.1110348179936409, -0.13196302950382233, -0.26196110248565674, -0.3155546188354492, -0.1420697420835495, -0.3679083287715912, 0.09316104650497437, -0.059707578271627426, -0.20808133482933044, -0.09850034862756729, 0.1918879747390747, 0.08104757219552994, 0.14395034313201904, -0.09913495182991028], [-0.12983101606369019, -0.036159176379442215, 0.02309531159698963, 0.32339751720428467, 0.3450356721878052, -0.16484978795051575, -0.012128246016800404, -0.24350661039352417, -0.13059639930725098, -0.057079024612903595, -0.11442887783050537, -0.24100086092948914, 0.10474755614995956, 0.01329817809164524, -0.08626517653465271, -0.041296061128377914, 0.24515222012996674, -0.05803953856229782, 0.12340414524078369, 0.014483051374554634, -0.13354922831058502, 0.019796762615442276, 0.12876346707344055, -0.0745200663805008, -0.0027284598909318447, -0.13857167959213257, 0.2863802909851074, 0.10902060568332672, -0.2511863112449646, -0.014836921356618404, 0.25494396686553955, -0.058524709194898605], [0.13386270403862, -0.051310524344444275, 0.1939123123884201, -0.15697802603244781, 0.014242991805076599, 0.0188564732670784, -0.22135457396507263, 0.01891658455133438, 0.04635639116168022, -0.20959354937076569, -0.08995027840137482, -0.11637717485427856, 0.09625838696956635, -0.07952065765857697, 0.03690557926893234, 0.1521821916103363, 0.16086137294769287, 0.010279079899191856, 0.15426188707351685, -0.021006286144256592, 0.04434677213430405, 0.05689679831266403, 0.09063388407230377, 0.24370914697647095, 0.023893166333436966, -0.06705412268638611, -0.15068319439888, -0.02149289846420288, 0.21180224418640137, -0.18900653719902039, -0.23191635310649872, 0.0783374086022377], [0.15450818836688995, -0.08484998345375061, -0.0354694202542305, 0.041777074337005615, 0.11277195066213608, -0.17023545503616333, -0.19377514719963074, 0.25882965326309204, 0.08994810283184052, 0.28104400634765625, 0.13210073113441467, -0.15085674822330475, 0.15222716331481934, 0.07794535160064697, -0.04581828415393829, -0.17869970202445984, 0.15589433908462524, -0.21162113547325134, -0.26187312602996826, 0.18942689895629883, 0.04556678235530853, -0.04072863608598709, 0.21021296083927155, -0.04150225967168808, 0.2853425145149231, 0.23926451802253723, 0.0032424116507172585, -0.22591733932495117, 0.06327308714389801, -0.08268797397613525, -0.2916727364063263, 0.20561128854751587], [-0.1095406636595726, 0.19578716158866882, 0.13924017548561096, -0.22824573516845703, -0.13377149403095245, 0.3325830101966858, 0.0074771735817193985, -0.1474306881427765, 0.3492000102996826, -0.1861233413219452, -0.01703966222703457, 0.1782192587852478, 0.13988220691680908, 0.10710779577493668, 0.13526667654514313, 0.0003934051492251456, 0.2122674286365509, -0.01818091794848442, 0.09841466695070267, -0.030415600165724754, -0.1631850302219391, -0.09726755321025848, -0.06326273828744888, 0.24776971340179443, 0.05251961201429367, -0.24863961338996887, 0.3706124722957611, 0.03899266943335533, 0.07716703414916992, 0.019208919256925583, 0.016477014869451523, -0.09258429706096649], [0.056917451322078705, 0.16621780395507812, 0.11384554207324982, 0.14854839444160461, 0.21315592527389526, 0.30084341764450073, -0.2374345362186432, -0.015475338324904442, 0.07529773563146591, 0.0816098302602768, 0.1386222541332245, 0.111077219247818, 0.24940991401672363, 0.027364447712898254, 0.20381321012973785, -0.06517786532640457, -0.0718097984790802, -0.13068735599517822, -0.057252101600170135, -0.06564033031463623, -0.15945914387702942, -0.23004671931266785, -0.21886888146400452, -0.03047073259949684, 0.030994962900877, 0.40342170000076294, 0.05561710521578789, -0.06818176805973053, -0.2506416440010071, 0.2746655344963074, 0.3497008681297302, 0.06198593229055405], [0.07024390995502472, -0.10977661609649658, -0.31393882632255554, 0.29796579480171204, 0.027566229924559593, 0.023223035037517548, 0.2168882042169571, 0.10115788131952286, 0.011013966053724289, 0.2716963291168213, -0.00560399517416954, 0.32077887654304504, 0.05215980112552643, 0.05704985558986664, -0.002314419951289892, 0.035152241587638855, 0.02261311188340187, 0.11099770665168762, -0.27261224389076233, 0.12410581111907959, -0.007415784988552332, 0.13351812958717346, 0.09447519481182098, -0.06506523489952087, -0.16487295925617218, 0.10274748504161835, 0.2422410398721695, -0.2336985468864441, -0.1347351372241974, -0.09725872427225113, -0.17606186866760254, -0.0673549622297287]]}, "1-": {"kernel": [[-0.20875407755374908, 0.13809239864349365, -0.09794288873672485, -0.009289284236729145, -0.19113826751708984, -0.014478065073490143, -0.006580425426363945, 0.01795431412756443, -0.1461133062839508, -0.03147118538618088, -0.38867470622062683, 0.05073869973421097, 0.04272809624671936, -0.25333863496780396, -0.08013042062520981, -0.01087276078760624, -0.20066997408866882, -0.06396356225013733, -0.03259357810020447, 0.2704639732837677, -0.04630657657980919, 0.10919494181871414, -0.13832014799118042, -0.40884310007095337, 0.16344642639160156, -0.06697316467761993, 0.08124828338623047, 0.357589989900589, -0.10933414101600647, 0.12756392359733582, -0.08491300791501999, -0.18637117743492126], [-0.1559779793024063, 0.16986685991287231, -0.35684269666671753, -0.03462321311235428, 0.2338269054889679, 0.21069562435150146, -0.04958568513393402, -0.3101796805858612, 0.14989116787910461, 0.20903578400611877, -0.1939491629600525, 0.07587820291519165, -0.032953742891550064, -0.19362832605838776, 0.43889954686164856, -0.10719016194343567, -0.1659279763698578, -0.08703437447547913, 0.30477577447891235, -0.05119547247886658, -0.12770359218120575, -0.1523820161819458, 0.15579506754875183, -0.14067330956459045, 0.1473974734544754, 0.06804876774549484, 0.030258454382419586, -0.08573299646377563, 0.051931895315647125, -0.06355065107345581, 0.09586673229932785, 0.007874474860727787], [0.18996693193912506, 0.04816439002752304, -0.33720701932907104, 0.0053337737917900085, -0.010040201246738434, -0.3060362935066223, -0.03454159200191498, -0.3359362483024597, -0.06727945804595947, 0.09225291013717651, 0.14891532063484192, 0.058042965829372406, 0.3209575116634369, 0.34434273838996887, -0.0681333839893341, -0.030552750453352928, 0.27489930391311646, -0.049326010048389435, 0.06255130469799042, -0.1050366461277008, 0.22065097093582153, -0.04319464787840843, -0.12348182499408722, 0.03066369704902172, 0.2738322615623474, -0.12998035550117493, -0.06591196358203888, 0.004496588837355375, 0.1621013879776001, 0.18530255556106567, -0.1975138783454895, -0.04778788983821869], [0.18239358067512512, 0.011982427909970284, -0.13923966884613037, -0.31101495027542114, -0.2546256482601166, -0.2856521010398865, -0.3474343419075012, -0.019315771758556366, 0.3632504642009735, 0.13663209974765778, -0.019134676083922386, -0.03240464627742767, 0.19460055232048035, 0.04137192666530609, 0.05777222290635109, 0.046242378652095795, -0.019623804837465286, -0.08925679326057434, -0.40780770778656006, 0.2629948556423187, 0.18492132425308228, -0.3446272909641266, -0.26946038007736206, -0.2785666882991791, 0.11753886193037033, -0.13289830088615417, -0.15745475888252258, 0.2699548006057739, -0.2389952838420868, 0.2923925518989563, -0.036327265202999115, 0.0390663780272007], [0.2659422755241394, -0.027649719268083572, -0.11864098906517029, -0.04601316154003143, 0.026420747861266136, 0.32611942291259766, 0.10988631099462509, -0.19609156250953674, -0.048854779452085495, -0.032607302069664, 0.03177440166473389, 0.269888311624527, -0.08674666285514832, 0.13663053512573242, -0.4146046042442322, 0.12030179053544998, -0.11094072461128235, -0.2025231420993805, 0.27151381969451904, 0.09350362420082092, -0.24655704200267792, 0.2275928258895874, 0.20123901963233948, 0.0031810710206627846, -0.014138561673462391, -0.14566102623939514, 0.2340019941329956, 0.06916157901287079, 0.13732081651687622, 0.02990585006773472, -0.1078687310218811, -0.0259427297860384], [0.2337990701198578, -0.036563269793987274, -0.18430474400520325, 0.38830238580703735, -0.008688205853104591, -0.10039649903774261, -0.08346245437860489, 0.19406619668006897, 0.14311930537223816, 0.011564739048480988, -0.07814658433198929, -0.3558466136455536, 0.46244877576828003, 0.32490167021751404, -0.16343586146831512, -0.12850964069366455, 0.20466995239257812, 0.0837811753153801, 0.10057383030653, 0.20642520487308502, -0.10903465002775192, -0.03113485872745514, 0.19838285446166992, 0.05286859720945358, -0.010334491729736328, -0.1332416832447052, 0.0536775141954422, -0.1799630969762802, -0.055867258459329605, 0.07673420757055283, -0.3250548541545868, -0.23981457948684692], [-0.19397953152656555, 0.040366657078266144, 0.2666087746620178, 0.18826289474964142, -0.30036693811416626, -0.30091866850852966, 0.0027792276814579964, 0.013416318222880363, 0.2285480499267578, -0.4246056079864502, -0.1405928134918213, 0.1716374158859253, -0.11396430432796478, 0.26241207122802734, -0.02569618448615074, 0.420066773891449, 0.18114222586154938, -0.4369254410266876, -0.13688312470912933, 0.0026947211008518934, 0.12042667716741562, -0.046820394694805145, -0.05865481495857239, -0.09189895540475845, -0.2829720377922058, 0.12218654155731201, 0.20017805695533752, 0.36410975456237793, 0.19429871439933777, -0.10534811019897461, -0.3246491849422455, 0.1048896536231041], [0.062168244272470474, -0.13623179495334625, 0.12612339854240417, -0.1488664597272873, 0.1965094804763794, 0.1691983938217163, 0.21120162308216095, -0.04633474349975586, 0.07164787501096725, -0.05223609879612923, 0.14976343512535095, -0.12487539649009705, -0.1081777811050415, 0.017353113740682602, -0.18889257311820984, 0.18245457112789154, -0.2259846031665802, 0.34956809878349304, 0.25843697786331177, 0.2401965856552124, -0.013374395668506622, -0.08437828719615936, -0.09619775414466858, 0.13390983641147614, 0.03760324418544769, 0.37840935587882996, -0.11879487335681915, 0.03479227051138878, 0.0076987287029623985, 0.09975846111774445, -0.01162651740014553, -0.08493895828723907], [-0.035324037075042725, 0.1892598420381546, -0.2501712441444397, 0.2228720486164093, 0.2792710065841675, 0.14975690841674805, 0.18649761378765106, 0.2911916971206665, -0.07481446117162704, -0.12037878483533859, 0.20531773567199707, 0.018142957240343094, 0.20635966956615448, -0.117538683116436, 0.27739113569259644, -0.05553632974624634, -0.029135024175047874, 0.016043435782194138, 0.03988930583000183, -0.020842384546995163, -0.22453731298446655, -0.0634598657488823, -0.0462459996342659, 0.023756954818964005, 0.10716923326253891, -0.3398185968399048, 0.01827264204621315, -0.004231587052345276, -0.1467372179031372, 0.011816591024398804, 0.1545727550983429, -0.0643337219953537], [-0.2633374333381653, -0.18747717142105103, -0.25248733162879944, 0.2924253046512604, 0.09536696970462799, 0.27845752239227295, 0.13651177287101746, 0.18178123235702515, -0.160869762301445, -0.05598270893096924, -0.0563398040831089, -0.2915361523628235, -0.0188618041574955, -0.14080432057380676, -0.046633005142211914, 0.008264949545264244, -0.12534576654434204, 0.18001997470855713, 0.09424769133329391, 0.24884504079818726, 0.15990468859672546, 0.2342166006565094, -0.09080362319946289, -0.10893206298351288, 0.24685978889465332, 0.039712000638246536, -0.24372795224189758, 0.2540466785430908, -0.1747725009918213, 0.1302001178264618, 0.008384095504879951, 0.2940373420715332], [-0.13484987616539001, -0.06565151363611221, 0.008073021657764912, -0.002385541796684265, 0.12138575315475464, 0.17782247066497803, 0.3508315980434418, -0.2893054187297821, -0.15979057550430298, 0.0654871016740799, 0.06777080148458481, -0.07841135561466217, -0.34822946786880493, 0.05738028138875961, 0.11872456967830658, 0.12392489612102509, 0.21766772866249084, -0.1503371149301529, -0.2672439217567444, 0.09672317653894424, 0.030341770499944687, 0.019205231219530106, 0.0006387532921507955, -0.07488476485013962, 0.28420743346214294, -0.1510668396949768, 0.00335606443695724, -0.3279716670513153, -0.20673611760139465, -0.22528836131095886, 0.14025089144706726, 0.15291893482208252], [-0.03667847067117691, 0.025215525180101395, 0.32898974418640137, -0.23459464311599731, -0.018330153077840805, -0.21496255695819855, 0.16454052925109863, -0.1920243501663208, 0.050486110150814056, 0.015942608937621117, 0.14197883009910583, 0.10066278278827667, -0.01716170459985733, 0.10557858645915985, -0.07061987370252609, 0.06790316104888916, -0.17248401045799255, -0.2331029772758484, 0.04357109218835831, 0.08062431216239929, 0.0745900422334671, 0.11078411340713501, -0.033228520303964615, 0.22419661283493042, 0.0033855889923870564, 0.36424535512924194, 0.198564350605011, -0.1596006453037262, 0.11838091909885406, -0.07623469829559326, 0.21223872900009155, 0.03320576250553131], [0.1324990689754486, -0.1440390944480896, -0.022236734628677368, -0.11065058410167694, 0.06268195807933807, 0.051525771617889404, 0.0063722385093569756, -0.07268576323986053, 0.09502148628234863, 0.03962092101573944, -0.20648060739040375, 0.14438065886497498, -0.05260293558239937, -0.0846836194396019, -0.05944197624921799, -0.0917975902557373, -0.3075867295265198, 0.18155017495155334, -0.11273843795061111, 0.10083181411027908, -0.1751554012298584, 0.045713186264038086, -0.0805710107088089, 0.13411030173301697, 0.2081686556339264, 0.06433439254760742, 0.0028037410229444504, -0.11825565993785858, -0.04223157465457916, 0.24957378208637238, 0.08183998614549637, 0.1221882700920105], [0.11006742715835571, -0.19390390813350677, 0.09222439676523209, 0.02065889537334442, -0.0023959511891007423, 0.3897726535797119, 0.2980378270149231, 0.03683272749185562, 0.34393078088760376, 0.0625808835029602, -0.23809963464736938, 0.10788197070360184, 0.01500643976032734, 0.03139480948448181, 0.1652728021144867, -0.0781780481338501, -0.22018468379974365, -0.37853729724884033, 0.2081337571144104, -0.03053128346800804, -0.11422908306121826, 0.22857600450515747, 0.06250953674316406, 0.26302021741867065, -0.189652681350708, 0.0181498471647501, -0.003793859388679266, 0.11212971061468124, 0.24269896745681763, 0.114040307700634, 0.009114464744925499, 0.12690868973731995], [-0.20340067148208618, -0.05824478715658188, -0.10364773869514465, 0.21736426651477814, 0.17275327444076538, 0.06702449917793274, -0.16235914826393127, -0.15165112912654877, 0.01817025989294052, -0.2624620199203491, 0.20787222683429718, -0.1830156147480011, -0.2464243322610855, 0.21414679288864136, 0.2388075590133667, -0.2515615224838257, -0.1979304999113083, -0.11083780974149704, -0.15556681156158447, -0.11205977946519852, 0.01604117825627327, 0.00798768736422062, -0.09615261852741241, 0.04534314200282097, -0.07089465856552124, -0.3726574778556824, -0.28972986340522766, -0.050643712282180786, -0.12497559189796448, -0.2309301495552063, -0.17682033777236938, 0.15486100316047668], [0.16242864727973938, -0.01772592030465603, 0.10429668426513672, 0.31984829902648926, 0.09194301068782806, 0.21050940454006195, -0.11115553975105286, 0.08334851264953613, -0.22581961750984192, -0.06575120985507965, 0.11466704308986664, -0.19393236935138702, 0.38801324367523193, 0.09411170333623886, -0.05768846720457077, 0.37380218505859375, -0.3406808078289032, -0.2549205422401428, 0.2674291133880615, -0.09417697787284851, -0.1723536252975464, 0.1700509488582611, 0.04796924442052841, 0.07189203798770905, 0.1292019486427307, 0.11666804552078247, -0.2555053234100342, -0.09044687449932098, 0.09991404414176941, -0.04256761074066162, 0.07474727928638458, -0.08533129841089249], [0.19393543899059296, 0.27729371190071106, 0.31457245349884033, -0.09721586108207703, 0.19270950555801392, 0.3178492784500122, 0.23458600044250488, 0.23650653660297394, 0.07142110913991928, -0.17949774861335754, 0.11484330147504807, -0.08477363735437393, 0.055592089891433716, 0.06974390149116516, 0.2197670042514801, -0.33525586128234863, 0.21888971328735352, 0.12975424528121948, 0.01697681099176407, 0.05108840763568878, -0.18126174807548523, -0.022966746240854263, 0.13883119821548462, 0.06559626758098602, -0.2627192437648773, -0.14072251319885254, -0.03082198090851307, 0.16237252950668335, -0.11015765368938446, 0.2995321750640869, -0.3020656704902649, 0.3335728645324707], [0.34347662329673767, -0.12720105051994324, -0.1921837031841278, -0.1611388921737671, -0.19591107964515686, -0.22970160841941833, -0.16835948824882507, 0.3668932318687439, -0.02723216824233532, -0.11858091503381729, 0.278337299823761, 0.15392057597637177, -0.03305751085281372, 0.004195797722786665, -0.07219041883945465, -0.09861679375171661, -0.0032309317030012608, -0.29396867752075195, -0.3510080575942993, -0.23623521625995636, 0.22254295647144318, -0.3830868601799011, -0.2619515061378479, 0.1840590536594391, 0.19043461978435516, 0.08748134225606918, -0.11541081219911575, 0.1539810448884964, 0.0347699336707592, -0.0989045798778534, 0.009375588968396187, -0.2641419768333435], [0.09891736507415771, 0.08948849141597748, 0.050644129514694214, 0.18179090321063995, -0.04942777752876282, -0.26965945959091187, 0.28114569187164307, -0.24524706602096558, 0.16616305708885193, 0.3876190781593323, -0.01240350492298603, -0.2603360414505005, -0.1568966507911682, -0.15329763293266296, -0.12062910199165344, 0.009659386239945889, -0.013960983604192734, -0.045959919691085815, 0.06655210256576538, -0.11842066049575806, -0.16322067379951477, 0.24229680001735687, -0.32947099208831787, 0.19867071509361267, -0.10336185991764069, 0.1778801679611206, 0.20676207542419434, 0.09388255327939987, 0.02072274684906006, -0.16677069664001465, -0.18420767784118652, -0.010760518722236156], [0.13642333447933197, 0.22845694422721863, 0.2114078849554062, -0.15149478614330292, -0.10235223174095154, 0.17639675736427307, -0.09523127973079681, 0.14814677834510803, 0.23310613632202148, 0.027805998921394348, -0.13030998408794403, -0.1880338191986084, -0.1810413897037506, -0.17202845215797424, -0.09769502282142639, 0.025080081075429916, 0.05151518061757088, -0.15996751189231873, -0.054275061935186386, 0.2459716796875, 0.010947532951831818, -0.19159744679927826, 0.12655475735664368, 0.15199103951454163, 0.10999373346567154, -0.1981668919324875, -0.0018227759283035994, 0.18920542299747467, 0.05027173459529877, 0.2532390356063843, -0.1571982502937317, -0.2084629237651825], [-0.17924022674560547, 0.07857858389616013, -0.23798108100891113, -0.07145737111568451, 0.14232411980628967, 0.1833335906267166, -0.06762611120939255, -0.14726433157920837, 0.15426936745643616, 0.17480450868606567, 0.14547467231750488, -0.2977484464645386, 0.10603529214859009, -0.2563655376434326, 0.14476890861988068, -0.328400194644928, -0.04534101113677025, 0.026698037981987, 0.12358145415782928, -0.1670566201210022, -0.10235407203435898, 0.20212946832180023, 0.019515499472618103, 0.18159590661525726, -0.09223586320877075, 0.11084233969449997, 0.3170925974845886, -0.10165433585643768, 0.13378986716270447, 0.08760856837034225, -0.1998499631881714, 0.24080993235111237], [0.2196066975593567, -0.1247342973947525, 0.21815356612205505, 0.34601539373397827, 0.3520691990852356, -0.22265119850635529, -0.11531970649957657, 0.1990700364112854, 0.032440029084682465, 0.31075888872146606, 0.22455744445323944, -0.015727713704109192, -0.2341611534357071, 0.06532109528779984, -0.1259412169456482, -0.17682808637619019, -0.06791292130947113, -0.3027440309524536, 0.2000086009502411, 0.31750497221946716, 0.09177304804325104, -0.06302569806575775, 0.3506121039390564, 0.2296636700630188, 0.19692081212997437, -0.18578851222991943, -0.09841768443584442, -0.25842827558517456, 0.05695558339357376, 0.0909585952758789, -0.040411319583654404, -0.010281234979629517], [-0.04115854203701019, -0.38832396268844604, -0.21870973706245422, 0.05631458759307861, 0.3134176731109619, -0.255401074886322, -0.17080239951610565, 0.30763715505599976, -0.14227509498596191, -0.051287971436977386, -0.0731227919459343, -0.058219268918037415, 0.3172696828842163, -0.09285248816013336, 0.05576089024543762, 0.08952344954013824, 0.20960843563079834, -0.10017554461956024, -0.10087718814611435, -0.059594057500362396, 0.13703426718711853, -0.16489389538764954, 0.18045806884765625, 0.23308345675468445, -0.014177430421113968, 0.1809205561876297, 0.049542807042598724, 0.15069004893302917, 0.17125967144966125, -0.0276125930249691, 0.2969735264778137, -0.04772549867630005], [0.06721627712249756, -0.14986421167850494, -0.09528990089893341, 0.07986791431903839, -0.00634956918656826, -0.1175224781036377, -0.12953855097293854, 0.04377082735300064, -0.10614310950040817, 0.043175555765628815, -0.298114538192749, -0.13453078269958496, -0.005905516445636749, 0.27174168825149536, -0.3282201290130615, -0.10075618326663971, 0.2225756049156189, -0.30729126930236816, 0.033087119460105896, -0.1017509400844574, -0.08455649018287659, -0.29151690006256104, 0.025835279375314713, 0.11651553958654404, -0.14409303665161133, -0.02249116636812687, -0.15904954075813293, -0.3532673120498657, -0.004432101733982563, 0.13283570110797882, 0.13870401680469513, -0.047857802361249924], [-0.186070516705513, 0.2501180171966553, -0.25277799367904663, -0.20939382910728455, 0.27985313534736633, -0.07322502136230469, -0.07018066942691803, 0.33320942521095276, -0.35592949390411377, 0.31653010845184326, 0.08770102262496948, 0.34995922446250916, 0.5263165235519409, -0.08520359545946121, 0.20506340265274048, 0.06651240587234497, -0.027716446667909622, -0.28451332449913025, -0.020474383607506752, 0.15060117840766907, -0.027142152190208435, -0.22051872313022614, 0.1350644826889038, -0.10310445725917816, 0.0352126881480217, -0.220802903175354, 0.09529787302017212, -0.16030538082122803, 0.0244122501462698, 0.18526092171669006, 0.23870031535625458, 0.08085078746080399], [0.04861833527684212, 0.13226895034313202, -0.07076577842235565, -0.05650758370757103, -0.08672085404396057, 0.06411390006542206, -0.09893777966499329, 0.0937967449426651, -0.04029417037963867, -0.11334453523159027, 0.2386569380760193, -0.1152123212814331, -0.031806930899620056, -0.0944531261920929, 0.17310187220573425, 0.09507615864276886, 0.1027703732252121, 0.1542309671640396, 0.08680855482816696, -0.16285774111747742, 0.20715226233005524, 0.14584702253341675, 0.013286935165524483, 0.1452072262763977, 0.1804705262184143, -0.015589678660035133, 0.11892211437225342, 0.36526426672935486, -0.22415032982826233, 0.08719757199287415, -0.3053246736526489, 0.33383190631866455], [0.2775423526763916, -0.2839909791946411, 0.10844983160495758, -0.018928613513708115, -0.2060987800359726, -0.18150994181632996, -0.01507071778178215, -0.07577630132436752, 0.11928470432758331, -0.37046557664871216, -0.1899985820055008, -0.29592955112457275, -0.11373008787631989, -0.0910564735531807, 0.1531885862350464, 0.08510378003120422, 0.21511733531951904, 0.07012420147657394, -0.10547137260437012, -0.1755920797586441, 0.1118030771613121, 0.3716471493244171, 0.21681317687034607, -0.016117939725518227, 0.21110230684280396, -0.19353297352790833, -0.17691080272197723, 0.06642872840166092, -0.2413761466741562, -0.2354128062725067, 0.3016337752342224, -0.28022751212120056], [0.061844028532505035, -0.3127291798591614, 0.1580730676651001, 0.17550960183143616, 0.08414903283119202, -0.10880866646766663, 0.03429212421178818, -0.1666867434978485, -0.1068931519985199, 0.38267290592193604, 0.08461114764213562, -0.017966222018003464, 0.15961268544197083, 0.06684830784797668, 0.14428450167179108, -0.026595868170261383, 0.06972485780715942, 0.11673393845558167, -0.2060670405626297, -0.1471560001373291, -0.10088588297367096, -0.2004215121269226, 0.03355584293603897, -0.027559766545891762, 0.21434010565280914, -0.11321912705898285, -0.07563882321119308, 0.05997123941779137, -0.08924180269241333, 0.33656778931617737, -0.04982243478298187, 0.0371735543012619], [-0.0617123581469059, 0.0634847953915596, -0.03009117767214775, -0.08582921326160431, -0.011657243594527245, -0.010724931955337524, -0.002698586555197835, 0.3826933801174164, -0.026620646938681602, 0.10598299652338028, 0.3195236325263977, -0.1058877557516098, 0.06045151501893997, -0.24539116024971008, -0.13377238810062408, 0.062415994703769684, -0.10648845136165619, -0.13266021013259888, 0.10230480134487152, -0.2381570041179657, -0.040273405611515045, 0.030254270881414413, -0.04925955459475517, -0.16692160069942474, -0.020071960985660553, 0.10251191258430481, -0.17599812150001526, -0.0718798041343689, -0.09841501712799072, 0.28053194284439087, -0.1996328979730606, -0.27241450548171997], [0.02978798747062683, 0.027259521186351776, -0.08046512305736542, 0.11289732903242111, 0.3808956742286682, 0.005574041046202183, 0.039069995284080505, -0.05776287615299225, -0.10385560244321823, 0.015361106023192406, -0.17498387396335602, -0.18569816648960114, 0.15480905771255493, -0.29595088958740234, -0.09480173885822296, 0.04305899888277054, 0.16827881336212158, -0.015185058116912842, 0.011866004206240177, 0.1480095088481903, 0.06615480035543442, -0.17064175009727478, 0.22428852319717407, 0.07045666128396988, 0.010524900630116463, -0.24273838102817535, -0.05882767215371132, -0.04827580600976944, 0.26102113723754883, 0.0666651725769043, 0.10893294215202332, -0.06383119523525238], [-0.017526589334011078, 0.10417163372039795, -0.14960268139839172, 0.18118813633918762, 0.03681282326579094, -0.024670099839568138, 0.13312366604804993, 0.2620519995689392, -0.10471588373184204, 0.08414968848228455, -0.029041724279522896, 0.2129473090171814, 0.25911685824394226, -0.23554614186286926, -0.06848250329494476, -0.129032701253891, 0.2736530005931854, -0.07995616644620895, -0.32671475410461426, -0.03879466652870178, 0.07197017967700958, -0.0768156349658966, -7.876901509007439e-05, -0.08821293711662292, 0.07155144214630127, -0.21058079600334167, -0.11693397164344788, -0.036492906510829926, -0.02239057794213295, -0.1328931599855423, -0.33238843083381653, 0.21931694447994232], [-0.02485554665327072, 0.2498563528060913, 0.09022708237171173, -0.09658476710319519, -0.1751982718706131, -0.013757463544607162, -0.12094177305698395, 0.19246616959571838, 0.035942647606134415, 0.09551204741001129, -0.17076389491558075, -0.21730199456214905, 0.28778040409088135, -0.09275935590267181, -0.21145033836364746, 0.07743790745735168, 0.03917859494686127, -0.04423505440354347, -0.10047489404678345, -0.2729198932647705, 0.10384159535169601, -0.01772279292345047, 0.26051920652389526, 0.01961567997932434, 0.1262168437242508, -0.08254757523536682, -0.27813053131103516, -0.24222740530967712, -0.028334807604551315, -0.19255849719047546, 0.08572232723236084, 0.2501254677772522]]}, "2+": {"kernel": [[-0.025059755891561508, -0.2044600546360016, -0.1010551005601883, 0.013848050497472286, -0.12662316858768463, 0.29417067766189575, 0.16709114611148834, -0.07809555530548096, 0.06832226365804672, 0.040560342371463776, 0.30712294578552246, 0.10776954889297485, -0.19342830777168274, 0.17855502665042877, -0.22843524813652039, -0.06623679399490356, -0.29666978120803833, 0.015689397230744362, -0.3187147378921509, -0.033628497272729874, -0.39361482858657837, -0.04420289024710655, 0.3053779602050781, -0.09893518686294556, -0.060690104961395264, 0.07948679476976395, 0.1461535096168518, -0.09801819920539856, -0.13535399734973907, -0.11672408133745193, -0.25233832001686096, -0.17512091994285583], [0.03415782004594803, -0.04612281545996666, 0.05974441021680832, -0.008400339633226395, -0.025162575766444206, 0.26910656690597534, 0.25925400853157043, -0.076346755027771, -0.07407685369253159, -0.06401816010475159, 0.14813938736915588, 0.0657661110162735, 0.08722185343503952, -0.13748785853385925, -0.34931421279907227, -0.2131994366645813, 0.24767422676086426, 0.16137109696865082, -0.25840526819229126, -0.058574628084897995, 0.278553307056427, -0.2647201120853424, -0.10745728015899658, 0.2358264923095703, -0.0789470374584198, 0.3542323708534241, 0.27910372614860535, 0.14326608180999756, 0.1481640636920929, 0.2106233388185501, 0.017449278384447098, -0.14253969490528107], [-0.07757215946912766, 0.41927337646484375, -0.17199623584747314, -0.10835254192352295, 0.11400286108255386, -0.14505189657211304, 0.16326645016670227, -0.16899198293685913, 0.13197824358940125, 0.20793917775154114, -0.31765708327293396, -0.10677432268857956, 0.18628360331058502, -0.1260870099067688, -0.24397610127925873, -0.23406192660331726, -0.25703558325767517, -0.20501291751861572, 0.051403239369392395, -0.12769664824008942, -0.0809999629855156, -0.01759565994143486, 0.09727731347084045, -0.2269020527601242, -0.1565643846988678, -0.019003450870513916, 0.2427707016468048, -0.16955119371414185, 0.04272514581680298, -0.20833322405815125, -0.07192401587963104, -0.33136117458343506], [0.024091321974992752, 0.058940768241882324, 0.09150899946689606, 0.28706803917884827, 0.24379518628120422, -0.24078622460365295, 0.18469154834747314, 0.1749534010887146, 0.1788974404335022, -0.2487204670906067, -0.13417933881282806, -0.07460418343544006, 0.19889384508132935, 0.020381566137075424, -0.3416022062301636, -0.18903683125972748, -0.19033178687095642, 0.2668316960334778, -0.34160614013671875, 0.3454248607158661, -0.1637331247329712, 0.05022130161523819, 0.09180744737386703, 0.1522146761417389, 0.1893489509820938, -0.04491051286458969, -0.041878655552864075, -0.16410812735557556, -0.07866363227367401, -0.28413909673690796, 0.13934767246246338, -0.06742694973945618], [-0.14977402985095978, -0.21760770678520203, -0.06927219778299332, -0.0364629402756691, 0.054577138274908066, 0.10742730647325516, 0.03577939420938492, 0.3061988949775696, 0.1401771605014801, -0.058404818177223206, 0.12433598190546036, 0.32411885261535645, 0.034159235656261444, 0.09653614461421967, 0.1618957221508026, 0.19730517268180847, -0.3508601784706116, 0.003932209685444832, -0.1545143723487854, -0.020420502871274948, -0.17966502904891968, 0.273434042930603, -0.23034830391407013, 0.021839726716279984, 0.24287185072898865, 0.14297527074813843, -0.26561248302459717, 0.018454916775226593, 0.2740057110786438, -0.058973439037799835, -0.08277764171361923, -0.3122292160987854], [0.24463483691215515, 0.10665900260210037, 0.0005563670420087874, -0.16762757301330566, 0.3468140959739685, -0.17359589040279388, 0.034852735698223114, -0.06466400623321533, -0.2241632640361786, -0.1857766956090927, -0.20631194114685059, 0.0029912528116256, -0.05734802782535553, 0.1225164532661438, 0.18480364978313446, 0.17336906492710114, -0.1513303518295288, -0.00045613208203576505, -0.12229272723197937, -0.06734856963157654, 0.05390121787786484, -0.15096011757850647, 0.0923728495836258, 0.0241546668112278, -0.1049826443195343, -0.21971061825752258, -0.12112553417682648, -0.22629787027835846, -0.19482338428497314, 0.0007707112235948443, -0.1749591827392578, -0.26363593339920044], [0.3088300824165344, 0.006645938381552696, -0.08485427498817444, -0.11799558997154236, 0.05922584980726242, -0.19966177642345428, -0.1418704092502594, 0.09103327989578247, 0.18783226609230042, -0.030979860574007034, -0.2315889298915863, -0.2995607256889343, -0.006280118133872747, 0.25062549114227295, -0.020418409258127213, -0.010791847482323647, 0.1728372871875763, 0.0908476710319519, 0.05940936505794525, -0.12238027155399323, -0.037297412753105164, -0.11179621517658234, 0.1358049511909485, -0.1788051724433899, -0.11040385812520981, 0.07121150195598602, 0.20586130023002625, -0.17780306935310364, -0.08368887007236481, 0.046076878905296326, -0.01409078948199749, 0.17967133224010468], [0.06308227777481079, -0.11816946417093277, -0.1642487347126007, 0.2064397782087326, -0.05140841007232666, 0.16300734877586365, 0.14018666744232178, 0.3001590371131897, 0.046462323516607285, 0.2574813663959503, -0.009735548868775368, 0.14091923832893372, 0.132847398519516, -0.1295369565486908, -0.20629464089870453, 0.23299455642700195, -0.23564061522483826, 0.3024260103702545, -0.07910633087158203, -0.2157055139541626, 0.14873594045639038, -0.060381412506103516, 0.1680682897567749, -0.3850957155227661, 0.3716774880886078, 0.3213363587856293, -0.42654484510421753, -0.1025351732969284, -0.08709296584129333, 0.10356571525335312, 0.16337096691131592, 0.14585241675376892], [-0.15857863426208496, -0.06550447642803192, -0.11466631293296814, -0.0476856529712677, 0.2521716058254242, 0.31298840045928955, -0.14794045686721802, 0.3018411099910736, -0.00511782756075263, -0.21911458671092987, 0.1692943274974823, -0.18772664666175842, -0.3578483462333679, 0.29773685336112976, 0.33851683139801025, -0.17094269394874573, 0.03900153189897537, 0.07111720740795135, 0.24122841656208038, 0.1725817322731018, 0.051881469786167145, -0.19527412950992584, 0.28001099824905396, -0.3077350854873657, -0.0032752063125371933, 0.4200488328933716, 0.0225042887032032, -0.024510517716407776, 0.11968010663986206, 0.32647019624710083, 0.22059182822704315, -0.07096659392118454], [-0.015652690082788467, -0.25705647468566895, 0.19937264919281006, 0.10914254188537598, -0.05300864204764366, 0.21028082072734833, -0.1618107259273529, -0.3219977021217346, 0.15702515840530396, 0.1589668244123459, 0.10190488398075104, 0.11189986765384674, 0.14277026057243347, -0.23585258424282074, -0.10702987015247345, 0.19796378910541534, -0.03704088181257248, -0.1486535668373108, 0.12375111132860184, -0.09395867586135864, 0.3683399558067322, 0.14753863215446472, 0.10373260080814362, 0.047340426594018936, -0.06917864084243774, -0.07145215570926666, -0.093681201338768, -0.1542876809835434, 0.19682487845420837, -0.4925636053085327, 0.176399827003479, 0.20656216144561768], [-0.25252047181129456, 0.1512511968612671, -0.04145535081624985, 0.14223897457122803, -0.3063993453979492, -0.1783599555492401, -0.047030456364154816, -0.01591676101088524, -0.11701919883489609, 0.26150041818618774, 0.256769597530365, 0.053903840482234955, 0.2946316599845886, -0.0349777489900589, -0.06660810858011246, -0.0746537446975708, -0.15086151659488678, -0.16797403991222382, 0.06793685257434845, -0.3394182324409485, 0.14837490022182465, 0.4029373526573181, 0.16666007041931152, -0.20686084032058716, 0.2214374840259552, 0.018807444721460342, 0.25977128744125366, -0.048775769770145416, 0.2515169382095337, -0.017125336453318596, -0.013028610497713089, -0.18316471576690674], [-0.30933964252471924, 0.11631479859352112, 0.22152626514434814, -0.06025952845811844, -0.15816634893417358, -0.17168430984020233, 0.11396963894367218, 0.07950127124786377, 0.16170360147953033, 0.08901315182447433, -0.1904410719871521, -0.3064461052417755, 0.12661513686180115, 0.25902965664863586, -0.022680696099996567, -0.18985900282859802, -0.1028725728392601, -0.15710178017616272, -0.0673695057630539, 0.31078898906707764, -0.2989596128463745, -0.05602710694074631, -0.26654237508773804, -0.053621236234903336, 0.001262548379600048, -0.0010548767168074846, 0.32755130529403687, 0.05010494217276573, 0.10673198103904724, 0.16697600483894348, -0.3012771010398865, -0.06677873432636261], [-0.3261696994304657, 0.1452057957649231, 0.36865320801734924, -0.023303911089897156, 0.26672130823135376, -0.2214352935552597, -0.07508821785449982, -0.2661328613758087, 0.034931667149066925, 0.21087387204170227, 0.22390583157539368, -0.33127716183662415, -0.05028156936168671, 0.39306333661079407, 0.07951721549034119, -0.08225047588348389, 0.13922294974327087, 0.0505874864757061, -0.29393842816352844, -0.0992586612701416, -0.011121959425508976, -0.2258165031671524, -0.2088259756565094, 0.032110437750816345, -0.03226340562105179, -0.16682885587215424, -0.06792868673801422, 0.06766780465841293, -0.13780558109283447, 0.14911440014839172, -0.21343226730823517, 0.27997082471847534], [0.06953553855419159, 0.17121621966362, -0.015279369428753853, -0.021264489740133286, -0.12630830705165863, 0.00775513518601656, -0.020672593265771866, -0.1981118619441986, -0.11289934813976288, -0.13951197266578674, -0.2544899582862854, -0.019199097529053688, -0.3767006993293762, 0.3087725341320038, 0.16993077099323273, 0.07598516345024109, 0.12556925415992737, 0.05166073888540268, -0.21162007749080658, 0.054848141968250275, 0.17728273570537567, -0.10162584483623505, 0.3528023958206177, -0.30505678057670593, 0.03255181759595871, -0.3249346613883972, -0.0020505315624177456, -0.06255273520946503, -0.1384609341621399, 0.15836931765079498, -0.05013718828558922, -0.14577707648277283], [-0.18124541640281677, -0.2626641094684601, 0.38405734300613403, -0.012443389743566513, -0.1016504168510437, 0.1831573098897934, 0.3059864044189453, -0.19027040898799896, 0.33081120252609253, 0.005186255089938641, -0.3314589858055115, 0.15736731886863708, 0.15732607245445251, 0.28533560037612915, 0.26826924085617065, -0.013729444704949856, -0.28869056701660156, -0.3169096112251282, -0.28501856327056885, 0.057317376136779785, 0.020361576229333878, -0.043710675090551376, 0.35753798484802246, 0.033439069986343384, -0.09503728896379471, -0.3017767667770386, 0.07703803479671478, -0.0027561108581721783, 0.3662361204624176, 0.1928761601448059, 0.34426069259643555, 0.22184056043624878], [0.2603643536567688, -0.15384964644908905, 0.025447692722082138, -0.03010270558297634, 0.03854788467288017, 0.04796609282493591, -0.14733123779296875, -0.26622825860977173, -0.007383634336292744, 0.050957418978214264, -0.021635539829730988, 0.17962490022182465, -0.2231595814228058, 0.11775799095630646, -0.21743905544281006, 0.06723806262016296, 0.17821192741394043, 0.13450342416763306, -0.09991198778152466, 0.014224434271454811, 0.06731899082660675, 0.046042460948228836, 0.27492600679397583, -0.0966988131403923, 0.2552008032798767, 0.05436040088534355, -0.1674743890762329, 0.20806117355823517, 0.0804169625043869, 0.12299786508083344, 0.0006857849657535553, -0.2312803566455841], [-0.029834408313035965, 0.026352763175964355, -0.2861267328262329, -0.07082632184028625, 0.23943452537059784, 0.017391419038176537, -0.05303134024143219, -0.0527719184756279, -0.10300537943840027, 0.1163526400923729, 0.07492700219154358, -0.08386299759149551, 0.19254224002361298, 0.09162871539592743, 0.28614217042922974, -0.2554735541343689, 0.1932615339756012, 0.16970932483673096, 0.007212842348963022, 0.2562570571899414, -0.07518790662288666, -0.1607910394668579, -0.0035441038198769093, -0.17303580045700073, -0.013555858284235, -0.009464006870985031, 0.1918550729751587, -0.14729106426239014, 0.23250643908977509, -0.16945430636405945, 0.20064935088157654, 0.23196738958358765], [0.07716992497444153, -0.2470596730709076, 0.2156098186969757, -0.53289794921875, 0.015348577871918678, 0.06295493990182877, 0.47276949882507324, -0.2497408092021942, -0.0857258066534996, -0.11475546658039093, -0.2023053765296936, -0.22982004284858704, 0.17478838562965393, 0.30505606532096863, -0.19984257221221924, -0.1399857997894287, -0.11613088846206665, 0.0772152915596962, -0.014537274837493896, -0.060487300157547, 0.04141739010810852, -0.2636469900608063, 0.19409015774726868, -0.11824361234903336, -0.42903149127960205, 0.10104267299175262, 0.0018445015884935856, 0.02589959278702736, -0.02415139600634575, 0.0007256970275193453, -0.3397318720817566, 0.3142245411872864], [0.10501164942979813, -0.12264421582221985, -0.3135598301887512, 0.13390809297561646, 0.08911966532468796, 0.07322382926940918, 0.052890680730342865, 0.0033445602748543024, 0.16290423274040222, -0.12612509727478027, 0.00897987000644207, -0.08157224953174591, 0.24146077036857605, 0.2179957926273346, 0.24507763981819153, 0.009205702692270279, 0.026530977338552475, -0.026926130056381226, -0.024594753980636597, -0.1663854420185089, -0.11976654082536697, 0.04577859491109848, 0.12451079487800598, -0.27650609612464905, 0.0382184199988842, 0.27135714888572693, -0.2697131037712097, -0.15450578927993774, 0.014184309169650078, -0.07605823874473572, -0.024476442486047745, 0.37333402037620544], [-0.09074065089225769, 0.11654065549373627, -0.22605055570602417, 0.06152372434735298, -0.014459640718996525, 0.274639755487442, -0.3651547431945801, -0.26905718445777893, -0.27932995557785034, -0.050672437995672226, 0.22290600836277008, -0.240878164768219, 0.10409827530384064, 0.013535596430301666, -0.07886633276939392, 0.2322489321231842, 0.24442484974861145, 0.13621193170547485, -0.11005623638629913, -0.2593587636947632, 0.07616212964057922, 0.1181749701499939, 0.30726155638694763, -0.1076144352555275, -0.003684219205752015, 0.24573561549186707, -0.18981918692588806, 0.1775617003440857, 0.2567921280860901, -0.006960548460483551, -0.2552444040775299, 0.28208208084106445], [0.006524607539176941, -0.03960684686899185, 0.20313435792922974, -0.12164171040058136, -0.01815646141767502, -0.2877368927001953, -0.05141562223434448, -0.0037620821967720985, -0.10039886832237244, -0.2134122997522354, 0.1584181785583496, 0.37196820974349976, 0.2137492299079895, -0.10725664347410202, 0.25820040702819824, -0.33827030658721924, 0.1846947818994522, -0.01296444796025753, -0.04934518039226532, -0.22253936529159546, 0.25723302364349365, 0.2625177502632141, -0.08128562569618225, -0.10670290142297745, -0.1627979725599289, -0.29473429918289185, 0.09530843794345856, -0.032054267823696136, -0.3219149708747864, 0.09314034879207611, 0.187154620885849, -0.2347823977470398], [-0.11126071959733963, 0.1911792755126953, 0.23055581748485565, 0.16306725144386292, -0.03256267309188843, -0.09224244952201843, 0.0686660185456276, -0.17625245451927185, -0.008326014503836632, -0.1347619891166687, -0.11991552263498306, -0.027253225445747375, -0.3154209852218628, -0.22844994068145752, 0.08638130128383636, 0.36628830432891846, 0.30387943983078003, -0.19147983193397522, 0.13378843665122986, 0.09587045013904572, 0.005238790065050125, -0.09962767362594604, 0.1420256793498993, -0.07379297912120819, 0.09452157467603683, 0.39818274974823, 0.12626636028289795, 0.3892083168029785, -0.02306695654988289, 0.28049248456954956, -0.41642871499061584, 0.25116223096847534], [0.1741422414779663, -0.0230080708861351, -0.18919071555137634, 0.22046343982219696, -0.18282854557037354, -0.2091851532459259, 0.04935038089752197, -0.04336351901292801, -0.12841087579727173, 0.11409759521484375, -0.24485886096954346, 0.15646657347679138, 0.1683323085308075, 0.06165454536676407, -0.28040286898612976, 0.15159311890602112, 0.10966160893440247, -0.10641445219516754, -0.10122647881507874, -0.057152148336172104, -0.0030586838256567717, -0.1661309003829956, 0.12612715363502502, 0.12466350197792053, 0.14090308547019958, 0.08903884887695312, 0.0663832351565361, 0.03481525927782059, -0.09889325499534607, -0.04440527409315109, 0.0382000207901001, 0.32350385189056396], [0.12913116812705994, 0.28664088249206543, 0.09786847233772278, 0.18930160999298096, -0.11952619254589081, -0.22722643613815308, 0.3626852035522461, -0.0473458468914032, -0.05014787241816521, -0.13156607747077942, -0.13485467433929443, 0.06338564306497574, -0.2965901494026184, 0.18984487652778625, 0.24433256685733795, -0.16565001010894775, 0.028008071705698967, -0.05385841429233551, -0.0930374339222908, -0.18755698204040527, 0.1703283041715622, -0.022889334708452225, 0.03470953553915024, -0.29930025339126587, 0.07251907885074615, -0.08315886557102203, 0.013365432620048523, -0.15842463076114655, 0.07300382852554321, 0.27234160900115967, -0.19171670079231262, -0.3559212386608124], [0.36988818645477295, 0.06869609653949738, 0.14959228038787842, 0.10636338591575623, -0.08457912504673004, -0.36101144552230835, 0.024526827037334442, -0.19494357705116272, -0.26388031244277954, -0.03187771141529083, -0.1547897756099701, 0.3192366361618042, 0.2952725887298584, -0.23079748451709747, -0.27516621351242065, -0.35098326206207275, 0.0075026610866189, -0.01953718811273575, -0.004729138687252998, -0.09423211216926575, 0.01238159742206335, 0.015394470654428005, 0.011149236001074314, -0.22085312008857727, -0.16220709681510925, -0.05954623967409134, 0.0586048848927021, -0.264276385307312, -0.2635958194732666, -0.24660861492156982, -0.13992130756378174, 0.2355361431837082], [-0.31510382890701294, 0.02226981148123741, 0.0535903200507164, 0.007323810365051031, -0.09943956136703491, -0.29369795322418213, 0.30872058868408203, 0.183403879404068, -0.2538221478462219, 0.06146465241909027, 0.29363107681274414, 0.09023870527744293, 0.3240104019641876, 0.005507117137312889, 0.2053939700126648, 0.16730761528015137, -0.07272661477327347, -0.16541609168052673, -0.15024679899215698, 0.13285917043685913, 0.19283713400363922, 0.17296311259269714, -0.16354763507843018, 0.31333860754966736, 0.08049876242876053, -0.2258629947900772, 0.07764800637960434, 0.003222317434847355, 0.32833170890808105, -0.024875756353139877, 0.24512630701065063, -0.19510260224342346], [-0.08031639456748962, -0.2319902777671814, 0.07606770098209381, -0.10117903351783752, -0.12092345952987671, -0.17616203427314758, -0.11343738436698914, 0.02881448157131672, 0.21830707788467407, -0.047475047409534454, -0.38291674852371216, 0.23415923118591309, 0.07182087004184723, -0.20038247108459473, 0.09418855607509613, 0.12150244414806366, -0.12774965167045593, -0.04517471790313721, -0.0368858240544796, 0.13980677723884583, -0.003597578965127468, 0.12960219383239746, -0.22739487886428833, -0.16621124744415283, -0.019557837396860123, 0.07973435521125793, 0.2745344638824463, 0.2805749773979187, 0.33022451400756836, 0.15402662754058838, -0.0877533107995987, -0.020601563155651093], [-0.10237492620944977, -0.03364331275224686, 0.23885701596736908, -0.1347137987613678, -0.08297009766101837, 0.45719826221466064, -0.0026325953658670187, -0.007564542815089226, 0.27283138036727905, -0.19819656014442444, 0.05826245993375778, 0.0831398218870163, -0.14490647614002228, 0.28817349672317505, -0.34237074851989746, 0.11236926913261414, -0.029474690556526184, -0.2429257333278656, -0.15996383130550385, 0.14851656556129456, -0.40203455090522766, 0.18164396286010742, -0.003062721574679017, -0.35309314727783203, -0.18814131617546082, -0.2761516273021698, 0.289054274559021, 0.03935695439577103, 0.02329721674323082, -0.05618376284837723, -0.33365413546562195, 0.036352403461933136], [0.1392340213060379, 0.17963635921478271, 0.0919826552271843, -0.14701247215270996, 0.24397729337215424, 0.19609177112579346, 0.24362888932228088, -0.036970458924770355, -0.09183371067047119, 0.2084745466709137, -0.16997134685516357, -0.09421302378177643, -0.0757896900177002, -0.12005272507667542, 0.03264119476079941, 0.005039077252149582, -0.11689064651727676, 0.13706514239311218, -0.3652956485748291, 0.10574568808078766, 0.10725459456443787, -0.06723679602146149, -0.04984523355960846, 0.0829533189535141, 0.14634299278259277, -0.07861560583114624, -0.028443964198231697, -0.0959150567650795, 0.02909551002085209, -0.007298540323972702, -0.2025633305311203, 0.029457584023475647], [-0.05353890359401703, -0.025859542191028595, -0.06501798331737518, -0.11534541845321655, -0.03954124450683594, -0.10135604441165924, 0.1474076211452484, 0.04369020462036133, -0.30883556604385376, -0.06210857629776001, 0.5474933981895447, -0.15365496277809143, -0.0023826858960092068, -0.3985142707824707, -0.12209542095661163, 0.3031170666217804, 0.02756807580590248, 0.07216256856918335, -0.1006399542093277, 0.013488290831446648, -0.055502209812402725, -0.04170677065849304, 0.19754624366760254, 0.15912607312202454, -0.06150702014565468, 0.36106717586517334, 0.18034429848194122, 0.1002502292394638, -0.07375557720661163, 0.2114955633878708, 0.14122796058654785, 0.17430397868156433], [0.2013339400291443, 0.10384582728147507, 0.17588770389556885, 0.030422449111938477, 0.03262754902243614, -0.12559500336647034, -0.07006258517503738, -0.17914775013923645, 0.13787199556827545, -0.23330801725387573, 0.41473788022994995, 0.023669835180044174, 0.12387518584728241, -0.36714136600494385, -0.010330727323889732, 0.27013295888900757, 0.021918460726737976, 0.03606773540377617, 0.23140312731266022, -0.10942293703556061, -0.26410919427871704, -0.0837753415107727, -0.27030086517333984, -0.13539284467697144, -0.1485747992992401, 0.30997028946876526, -0.05355232208967209, 0.2396104335784912, 0.039786696434020996, 0.0761427953839302, -0.012068204581737518, -0.1905141919851303], [0.2128797024488449, -0.051353100687265396, 0.08469359576702118, -0.1498563289642334, -0.23617638647556305, -0.14418306946754456, 0.008434203453361988, -0.040404289960861206, -0.054977212101221085, -0.03635052964091301, 0.326587438583374, 0.21464213728904724, -0.011615587398409843, 0.1440063714981079, 0.11204998195171356, 0.3102709650993347, -0.029840905219316483, 0.036826424300670624, -0.22983059287071228, -0.12078613042831421, -0.14164739847183228, -0.1758166253566742, -0.07265514880418777, -0.05034271255135536, -0.011531516909599304, 0.19304761290550232, -0.12376536428928375, -0.11557788401842117, 0.05498440936207771, 0.19749507308006287, 0.148548424243927, 0.09550929069519043]]}, "3-": {"kernel": [[-0.18192696571350098, -0.10728328675031662, -0.06547846645116806, 0.05981247499585152, 0.18944796919822693, 0.05443792790174484, 0.19667336344718933, 0.056173522025346756, -0.1311337649822235, -0.04195660352706909, -0.14409852027893066, 0.07386206835508347, -0.12275663018226624, -0.4102359414100647, -0.17922115325927734, -0.06293722987174988, -0.0027995016425848007, -0.0414632186293602, -0.14904551208019257, 0.29674848914146423, -0.03528635948896408, -0.25135543942451477, 0.08130588382482529, 0.15578442811965942, 0.3602418005466461, -0.16730692982673645, 0.40719980001449585, 0.1330413818359375, -0.25076764822006226, 0.44123196601867676, -0.19269880652427673, 0.16891571879386902], [0.145551398396492, 0.23192837834358215, 0.48734143376350403, 0.10812368243932724, 0.14403676986694336, 0.10748642683029175, -0.2634029984474182, -0.025187157094478607, -0.22712017595767975, 0.32316651940345764, 0.1206272765994072, -0.13285395503044128, -0.2140902727842331, -0.08691354095935822, 0.003088864032179117, -0.2829282283782959, -0.15254554152488708, -0.15342316031455994, -0.19865356385707855, 0.05309092998504639, 0.016144856810569763, -0.23527204990386963, 0.17002826929092407, 0.05868489667773247, -0.2424275279045105, -0.3041876554489136, 0.2319779396057129, -0.15961018204689026, 0.2179870754480362, 0.04396362975239754, 0.10371357202529907, 0.32420462369918823], [0.13654986023902893, 0.017126059159636497, 0.34337061643600464, -0.11781395971775055, -0.17808324098587036, -0.15991026163101196, 0.16755087673664093, -0.1698817014694214, -0.2708769738674164, 0.042549505829811096, 0.1380402147769928, -0.07279106974601746, -0.0102073447778821, 0.16443376243114471, 0.11702705919742584, 0.044031135737895966, 0.34294164180755615, 0.05699653923511505, 0.13947796821594238, 0.22583410143852234, 0.2355511486530304, -0.10596621036529541, -0.30187222361564636, -0.09648613631725311, -0.035261351615190506, 0.029960911720991135, -0.14899256825447083, 0.30304020643234253, 0.19183912873268127, -0.13851279020309448, -0.03402862697839737, -0.1467793583869934], [0.06583098322153091, 0.0911538153886795, 0.11282525211572647, 0.17756953835487366, -0.020954711362719536, 0.1235942468047142, 0.03557301685214043, -0.018766913563013077, 0.15324856340885162, -0.2867737412452698, 0.1364685297012329, -0.09813611954450607, 0.07554647326469421, 0.05160614103078842, 0.03145541250705719, 0.16655826568603516, 0.19353583455085754, -0.34290650486946106, 0.016725175082683563, 0.17032359540462494, -0.08926741778850555, -0.04576703533530235, 0.027687478810548782, 0.4571370482444763, -0.1777758002281189, 0.2870977520942688, 0.0968034416437149, 0.10405667871236801, 0.05905577540397644, -0.19545400142669678, 0.1562572568655014, 0.015149496495723724], [0.004650247283279896, -0.10144838690757751, 0.02383624203503132, -0.20395348966121674, -0.051139526069164276, -0.056633658707141876, 0.006612285040318966, -0.028648074716329575, 0.2642819583415985, 0.36895284056663513, 0.03302596136927605, -0.13367274403572083, 0.01265808381140232, -0.1806243658065796, -0.22584505379199982, -0.17331987619400024, 0.30601516366004944, 0.013325836509466171, 0.1735077053308487, 0.19297263026237488, 0.06264678388834, -0.06943432986736298, 0.18723243474960327, -0.10948093235492706, 0.02073657512664795, -0.3528701663017273, 0.21181374788284302, -0.10769309103488922, -0.06836842745542526, -0.16805177927017212, 0.053494393825531006, -0.09290814399719238], [-0.0022498550824820995, 0.07200859487056732, 0.27344927191734314, 0.10018907487392426, -0.14903712272644043, -0.11708147823810577, -0.04670009762048721, -0.19169580936431885, -0.1282362937927246, -0.03860700875520706, 0.11263179033994675, 0.24137356877326965, 0.03538446128368378, 0.10623100399971008, -0.020586006343364716, 0.15862935781478882, -0.1681062877178192, -0.35026097297668457, -0.008324924856424332, 0.3567560911178589, 0.027369771152734756, -0.22864660620689392, -0.26977044343948364, 0.09054915606975555, 0.013799631968140602, 0.11878575384616852, -0.1481671929359436, 0.08081862330436707, -0.21092455089092255, 0.1945141851902008, -0.32038357853889465, -0.1433543711900711], [0.2679365277290344, 0.05709502846002579, -0.20251703262329102, 0.36227986216545105, 0.09267987310886383, -0.40877586603164673, -0.007358292117714882, -0.21006450057029724, -0.07068157941102982, 0.08847630023956299, -0.0449136458337307, -0.04705928638577461, -0.29909831285476685, -0.169646218419075, 0.30476275086402893, -0.14490902423858643, -0.03890647739171982, -0.20065531134605408, 0.27252477407455444, -0.037430569529533386, 0.21750302612781525, -0.0383809395134449, -0.10175728797912598, -0.24043989181518555, -0.034807588905096054, 0.07313445955514908, -0.18985572457313538, 0.23608799278736115, 0.10469061136245728, 0.014856768772006035, -0.1932506561279297, 0.29441553354263306], [0.12311539053916931, 0.11566378176212311, -0.27957630157470703, 0.3239586353302002, 3.4341326681897044e-05, 0.12591516971588135, 0.18357250094413757, -0.016419051215052605, -0.08047663420438766, 0.19789716601371765, 0.03785216808319092, -0.038153477013111115, -0.11046560108661652, -0.3490900993347168, -0.06439945101737976, 0.10550826042890549, -0.13730648159980774, 0.07109047472476959, -0.008819080889225006, -0.06907065212726593, 0.1595812737941742, -0.0716494470834732, 0.19526046514511108, 0.3168013095855713, 0.3994547724723816, 0.018582377582788467, -0.10800693929195404, -0.04051020368933678, 0.28360214829444885, -0.13725559413433075, -0.1614541858434677, 0.08487161248922348], [-0.3720296025276184, -0.03825438767671585, 0.19283077120780945, 0.21536293625831604, 0.2928122878074646, -0.2393745332956314, -0.06096124276518822, -0.33158376812934875, 0.1978740692138672, 0.09903134405612946, 0.09674433618783951, -0.05473402142524719, -0.21384769678115845, 0.011152643710374832, 0.1815626323223114, -0.3230249881744385, -0.1924523562192917, -0.002126558218151331, 0.1093703880906105, -0.10470815002918243, -0.17418435215950012, -0.20057548582553864, 0.09418915212154388, 0.10117234289646149, 0.10737337172031403, -0.08914688229560852, -0.10731196403503418, -0.20186841487884521, 0.19333896040916443, -0.14786958694458008, -0.15709584951400757, 0.11962660402059555], [0.21711881458759308, 0.20495650172233582, 0.125026673078537, -0.439497709274292, -0.2726810574531555, 0.04977710545063019, -0.15589646995067596, -0.11220671236515045, -0.214412659406662, -0.20569133758544922, 0.3127483129501343, -0.1596270203590393, 0.2407279759645462, 0.22528648376464844, 0.08496776223182678, 0.0809485912322998, 0.20697838068008423, -0.2183019518852234, -0.20672616362571716, -0.025069784373044968, -0.061434417963027954, 0.2877042293548584, -0.07315348088741302, 0.12490871548652649, 0.13474413752555847, 0.22896888852119446, 0.0049316491931676865, -0.15235020220279694, -0.2379557192325592, 0.030512504279613495, 0.013644061982631683, 0.06320266425609589], [-0.014194073155522346, 0.020999424159526825, 0.08013691008090973, 0.09998056292533875, -0.007107879966497421, 0.05376148968935013, 0.04858572781085968, -0.08088278025388718, 0.1875167191028595, 0.09569278359413147, -0.16877511143684387, -0.04271315038204193, -0.09061501175165176, -0.06775519251823425, 0.22838643193244934, -0.16372603178024292, 0.2337612807750702, -0.046897441148757935, 0.001220048638060689, 0.3295530378818512, -0.03781559318304062, -0.09198930114507675, -0.18221575021743774, 0.020473629236221313, 0.1760789155960083, -0.20021897554397583, 0.07158724963665009, 0.32872578501701355, 0.17889206111431122, -0.04301382601261139, -0.09176294505596161, 0.10478867590427399], [0.23278070986270905, 0.0874893069267273, 0.04094104841351509, 0.043609894812107086, -0.23560954630374908, -0.22625333070755005, 0.2621944546699524, -0.2012713998556137, 0.00084327207878232, -0.3017337918281555, 0.18475867807865143, -0.055951789021492004, 0.08320745825767517, 0.22341451048851013, -0.013724815100431442, 0.18190596997737885, 0.27610570192337036, -0.19011041522026062, 0.259954035282135, -0.16294993460178375, -0.08003329485654831, 0.1087401956319809, -0.24060416221618652, 0.3485325574874878, -0.26958686113357544, -0.11995600163936615, -0.19301709532737732, 0.13461220264434814, -0.14204120635986328, 0.2888347804546356, -0.023907452821731567, 0.030591478571295738], [0.002233158564195037, 0.24112552404403687, -0.2818413972854614, -0.19639045000076294, 0.2583896517753601, -0.07207781076431274, 0.17021659016609192, 0.2878286838531494, -0.11565596610307693, -0.09102556109428406, 0.12915673851966858, 0.0023089658934623003, 0.3541657626628876, 0.3418785333633423, -0.006906843278557062, 0.1537822186946869, -0.19881871342658997, 0.08655163645744324, 0.3459770083427429, -0.06129057705402374, -0.10747702419757843, 0.08916176855564117, 0.14992478489875793, 0.014970934018492699, 0.028218455612659454, -0.35656964778900146, 0.02263236977159977, -0.02942487597465515, -0.18201711773872375, -0.16839513182640076, -0.1604577600955963, -0.14520913362503052], [0.3524647355079651, -0.02868759073317051, -0.06527312844991684, 0.34380480647087097, 0.12429960072040558, 0.04411730170249939, 0.0003006635815836489, -0.03454580903053284, -0.2539944052696228, -0.005717539228498936, 0.18746498227119446, 0.09147970378398895, -0.15754204988479614, -0.23312051594257355, 0.07731471955776215, -0.20390509068965912, 0.053756214678287506, -0.03239138796925545, -0.32757455110549927, 0.24107608199119568, -0.17114529013633728, 0.05772226303815842, -0.07454754412174225, -0.10536012053489685, 0.1408960223197937, 0.009333070367574692, 0.057617105543613434, 0.03237730264663696, -0.0668632835149765, 0.042132556438446045, -0.1516832709312439, -0.2332325279712677], [-0.06794355064630508, 0.25908225774765015, -0.15377303957939148, 0.01361811626702547, -0.21879571676254272, 0.01673256605863571, -0.009269649162888527, -0.05007684975862503, 0.03919278830289841, -0.17075222730636597, 0.0421619713306427, 0.19087101519107819, 0.27870309352874756, 0.18469837307929993, 0.05081069841980934, -0.3054705858230591, -0.16606199741363525, 0.01977776736021042, -0.17673571407794952, 0.3691995143890381, 0.06882470101118088, 0.01710725948214531, -0.3778066039085388, -0.05823817476630211, 0.08795079588890076, -0.01594950258731842, 0.20583167672157288, -0.20614874362945557, -0.050764020532369614, 0.06884655356407166, -0.03171376883983612, -0.2482888400554657], [0.35122358798980713, -0.18490976095199585, -0.23677560687065125, -0.16327723860740662, -0.1939617395401001, -0.21210706233978271, -0.0266660675406456, -0.16897475719451904, 0.03303009271621704, -0.15841883420944214, 0.015136904083192348, 0.11079439520835876, 0.3033101558685303, -0.2547893524169922, -0.06520642340183258, 0.13820840418338776, -0.07623586058616638, 0.23856738209724426, -0.2755191922187805, 0.171039879322052, -0.17480233311653137, 0.022800758481025696, -0.24579519033432007, -0.03746825084090233, 0.16610321402549744, 0.0824710801243782, -0.18661342561244965, -0.1912304162979126, 0.172970712184906, -0.15984737873077393, -0.252193808555603, -0.04618854075670242], [-0.22914636135101318, -0.42357760667800903, 0.21642464399337769, 0.3503986597061157, -0.279130756855011, 0.19021740555763245, -0.19327017664909363, -0.20857366919517517, -0.03381883352994919, 0.19426199793815613, -0.18531163036823273, 0.029334215447306633, -0.1997157633304596, 0.05983908474445343, 0.05732910335063934, 0.0479821115732193, -0.1435309499502182, 0.38208162784576416, 0.22200864553451538, -0.25518351793289185, -0.11539997160434723, 0.32671093940734863, 0.26632675528526306, -0.16645410656929016, -0.04686557501554489, -0.3064538836479187, -0.12965039908885956, -0.004159132018685341, 0.03154320269823074, 0.08956483006477356, -0.2722248136997223, 0.07352636754512787], [0.13610687851905823, -0.011156206019222736, 0.13439923524856567, 0.08746127784252167, -0.023741520941257477, -0.2751461863517761, -0.03615818917751312, 0.02724228985607624, 0.10695436596870422, 0.010309545323252678, -0.30259329080581665, -0.2698443531990051, 0.007467431016266346, 0.04873252287507057, 0.1828993558883667, -0.25002220273017883, 0.3899543881416321, 0.21822398900985718, -0.14622381329536438, -0.18203365802764893, 0.02589690499007702, -0.07276757061481476, 0.13647359609603882, -0.17058369517326355, 0.2561261057853699, -0.23538216948509216, 0.2578875422477722, -0.1962309330701828, -0.09628339111804962, 0.1738743633031845, -0.1133059412240982, -0.3467450737953186], [-0.2946990430355072, -0.4053739011287689, 0.0893402248620987, -0.19733867049217224, 0.07897984981536865, -0.030142394825816154, 0.19708707928657532, -0.16624394059181213, -0.10079443454742432, -0.10486824810504913, -0.08493787795305252, -0.04892754182219505, -0.036412112414836884, -0.06785961240530014, -0.08532758057117462, -0.02156907692551613, -0.011212527751922607, -0.012935508042573929, -0.1331208050251007, 0.016483139246702194, -0.09776507318019867, -0.1993984580039978, 0.2533702850341797, -0.1619577407836914, -0.13554710149765015, -0.03868911787867546, 0.09989619255065918, -0.050857484340667725, -0.2279512584209442, -0.0019435882568359375, -0.03826099634170532, 0.2854022979736328], [0.2598363757133484, 0.202236145734787, 0.2598282992839813, -0.2472446858882904, -0.0315353199839592, -0.21256035566329956, -0.25687268376350403, 0.05709284543991089, 0.10811302065849304, -0.23114097118377686, 0.12550193071365356, 0.1363590806722641, 0.10952119529247284, 0.09399180114269257, 0.009378759190440178, -0.07950440794229507, 0.062442049384117126, -0.02762582153081894, 0.017430972307920456, -0.24841570854187012, 0.21854662895202637, -0.09807613492012024, -0.1658284068107605, -0.023129476234316826, 0.04074942320585251, 0.06669934839010239, 0.14693504571914673, -0.11653156578540802, 0.07712836563587189, 0.09601007401943207, -0.08891129493713379, -0.29738306999206543], [-0.08064503967761993, -0.017509382218122482, -0.15404799580574036, -0.036648087203502655, -0.1468656361103058, -0.13429704308509827, 0.1914512664079666, -0.3007969856262207, -0.19518586993217468, -0.18012183904647827, 0.06251776218414307, 0.10792459547519684, 0.05044086277484894, -0.15028901398181915, -0.0884518027305603, 0.11070883274078369, 0.1625605672597885, 0.046101346611976624, 0.2000463902950287, -0.12790846824645996, 0.029038241133093834, -0.13616478443145752, 0.278522789478302, 0.15177693963050842, 0.0891607403755188, 0.03614737093448639, -0.08088330924510956, 0.021226217970252037, 0.07948412001132965, 0.3104642629623413, -0.23415307700634003, 0.3491221070289612], [0.4054543375968933, 0.22374501824378967, 0.056245073676109314, -0.055093634873628616, -0.35431528091430664, 0.10614873468875885, 0.13960373401641846, -0.45411384105682373, 0.03243488445878029, -0.2025294452905655, 0.1586856245994568, -0.30594170093536377, 0.22633394598960876, -0.10365176200866699, 0.3175433278083801, 0.4822312295436859, -0.21244877576828003, 0.16595840454101562, 0.11077778041362762, 0.03436041995882988, -0.039422355592250824, -0.030594099313020706, -0.15628941357135773, 0.23306623101234436, 0.027048684656620026, -0.0602462962269783, -0.0976957380771637, -0.027605626732110977, 0.07458551228046417, 0.47898465394973755, -0.06650109589099884, 0.1562039852142334], [0.010579519905149937, -0.06670324504375458, 0.06173078715801239, -0.021593507379293442, -0.034207671880722046, -0.1775280237197876, 0.20981243252754211, 0.15770551562309265, -0.31297439336776733, 0.11738070100545883, 0.12108518183231354, 0.048874303698539734, 0.10177169740200043, -0.288953959941864, -0.12303563952445984, 0.3470460772514343, 0.09131577610969543, -0.38658925890922546, 0.16438883543014526, 0.32236015796661377, 0.10760660469532013, -0.1175663024187088, 0.03441033512353897, 0.05229208990931511, -0.02972572110593319, -0.16448941826820374, -0.04101886227726936, 0.16698162257671356, 0.005007268860936165, -0.22218778729438782, 0.27833491563796997, 0.00861685536801815], [0.2129407823085785, 0.06064940243959427, 0.22031641006469727, -0.07170870900154114, 0.10294865071773529, -0.20384083688259125, -0.38599541783332825, 0.10054592788219452, -0.02774345688521862, -0.010595917701721191, 0.12256510555744171, -0.3705635070800781, 0.22403571009635925, -0.1406000256538391, -0.22612732648849487, 0.3380137085914612, -0.2778031826019287, -0.13233119249343872, -0.41253161430358887, 0.04771839454770088, -0.30989062786102295, 0.22920265793800354, -0.13288646936416626, 0.0805588960647583, -0.015227014198899269, 0.19502460956573486, 0.09550480544567108, -0.1417715847492218, -0.08138135075569153, -0.2404482215642929, -0.12985533475875854, 0.22128596901893616], [0.2286655157804489, 0.05727396905422211, -0.12126238644123077, 0.10139386355876923, 0.14215928316116333, 0.1187920868396759, -0.07373777031898499, 0.16148382425308228, 0.11485601216554642, -0.39906591176986694, 0.051953915506601334, 0.14410802721977234, 0.05897243320941925, -0.06528057157993317, 0.01554729975759983, 0.13101336359977722, -0.1632729470729828, 0.06188241019845009, -0.1989135444164276, 0.008468407206237316, 0.1321786493062973, -0.06542205810546875, -0.10735462605953217, 0.1151788979768753, -0.022504016757011414, 0.21296477317810059, -0.17046642303466797, -0.009668275713920593, -0.15003639459609985, 0.09795103967189789, 0.24503329396247864, -0.018045993521809578], [0.10531878471374512, 0.05664454400539398, 0.182460755109787, -0.12309100478887558, -0.08291114866733551, -0.28979575634002686, -0.1315925121307373, -0.20875141024589539, 0.07933293282985687, -0.12064036726951599, -0.10732224583625793, -0.1629907190799713, 0.1440572738647461, -0.3439041078090668, -0.06798167526721954, -0.005968906916677952, -0.34580615162849426, 0.23433440923690796, -0.14865446090698242, 0.2142772376537323, 0.19447064399719238, 0.04288509488105774, -0.06883318722248077, -0.036961231380701065, 0.4784119129180908, -0.0712772011756897, -0.052522845566272736, -0.08952394872903824, -0.21178744733333588, 0.02173922210931778, 0.18809977173805237, -0.24138149619102478], [0.26238155364990234, -0.029731202870607376, 0.009836085140705109, -0.22630976140499115, 0.3471190333366394, -0.3583100438117981, 0.03942079842090607, -0.11074855178594589, -0.29437583684921265, 0.013479791581630707, 0.16892072558403015, -0.11704406887292862, -0.1647632122039795, 0.3753032684326172, -0.11538664996623993, -0.11182984709739685, 0.16489626467227936, 0.3937290608882904, -0.14933466911315918, -0.13947957754135132, -0.13363608717918396, 0.05736030638217926, -0.10955360531806946, -0.05677874758839607, -0.37132614850997925, 0.0670575499534607, -0.03673521429300308, 0.08000962436199188, 0.008919036015868187, -0.10619579255580902, -0.05593772232532501, 0.29261916875839233], [0.2283540666103363, 0.058888502418994904, 0.2518717646598816, 0.12478357553482056, -0.32124942541122437, 0.07725599408149719, -0.03756583482027054, 0.12718519568443298, -0.12014341354370117, -0.06865999847650528, 0.05881546437740326, -0.08195032179355621, -0.005552923306822777, 0.1272750347852707, -0.10929791629314423, -0.10364827513694763, -0.059753239154815674, -0.004439841955900192, 0.08001639693975449, 0.13587811589241028, -0.269409716129303, 0.032743699848651886, -0.10847644507884979, -0.005930391605943441, 0.08890397846698761, -0.12200196087360382, -0.1992650330066681, -0.45494344830513, -0.3139041066169739, -0.09119388461112976, 0.05906197428703308, -0.4234015643596649], [0.012382871471345425, -0.34618517756462097, 0.0065132370218634605, 0.04403994232416153, -0.11663734912872314, 0.34188273549079895, 0.13476917147636414, 0.05491513013839722, 0.044444017112255096, 0.1055089682340622, -0.25170761346817017, 0.3103058934211731, -0.05874878913164139, 0.2259342223405838, -0.05248291417956352, 0.1248902678489685, -0.15590918064117432, 0.013048377819359303, 0.058573685586452484, -0.27699053287506104, 0.15029650926589966, 0.1543932855129242, -0.07399454712867737, 0.3223429322242737, -0.011830657720565796, -0.0028117652982473373, 0.5107109546661377, -0.43782317638397217, 0.0812949538230896, 0.056562941521406174, -0.09318019449710846, -0.045682989060878754], [0.11316194385290146, -0.018823057413101196, -0.10786913335323334, 0.5094301700592041, -0.06175912171602249, -0.23998939990997314, 0.41756731271743774, 0.13006523251533508, 0.0937168076634407, 0.04758114367723465, -0.13690665364265442, -0.18995709717273712, 0.051596902310848236, 0.3262873589992523, 0.10477796941995621, -0.010877247899770737, 0.05066400766372681, 0.095062755048275, 0.3062951862812042, -0.06626865267753601, -0.11917939782142639, -0.2244623303413391, -0.1693609654903412, 0.024650830775499344, -0.3009313642978668, 0.06600215286016464, -0.022368403151631355, 0.28828996419906616, 0.05114671587944031, 0.027395885437726974, -0.1125306561589241, -0.2506866455078125], [0.044363126158714294, -0.08139754831790924, -0.02296854928135872, 0.05087215453386307, -0.36519643664360046, -0.09392890334129333, -0.08518025279045105, -0.1936950534582138, -0.01926877163350582, -0.06767396628856659, 0.20557138323783875, -0.09230835735797882, 0.07313947379589081, -0.08724493533372879, -0.20376482605934143, -0.06143978238105774, -0.31682032346725464, -0.19133023917675018, -0.33393925428390503, 0.3011047840118408, 0.1226995661854744, -0.09085407853126526, 0.36310306191444397, 0.04977528750896454, -0.3740665912628174, -0.03869939222931862, -0.06961523741483688, 0.08939941227436066, 0.0415477454662323, 0.13335281610488892, -0.21357645094394684, -0.10225236415863037], [-0.46537238359451294, -0.3273269534111023, 0.0735846757888794, 0.22599458694458008, -0.2688177824020386, -0.2957563102245331, -0.0972052663564682, -0.3677240312099457, 0.027433976531028748, -0.0721866637468338, -0.20707687735557556, 0.20453858375549316, -0.07750800251960754, 0.04908540099859238, 0.15790137648582458, -0.18912899494171143, -0.30459243059158325, 0.05590289831161499, -0.11368274688720703, 0.2515634596347809, -0.11076377332210541, -0.1130969226360321, 0.10215708613395691, -0.35184067487716675, -0.15672850608825684, -0.11298279464244843, -0.038435377180576324, 0.48011747002601624, 0.039725787937641144, -0.06332071125507355, -0.01129421778023243, 0.3511934280395508]]}, "4+": {"kernel": [[0.24868977069854736, -0.11365552246570587, 0.1454555094242096, -0.5026453733444214, -0.30064767599105835, 0.0671769306063652, -0.17832374572753906, -0.02598181739449501, 0.08689522743225098, 0.23389461636543274, -0.0951128900051117, 0.023421507328748703, 0.1150878518819809, 0.1832263022661209, -0.3017761707305908, -0.05775142088532448, -0.05949714779853821, 0.06328800320625305, -0.023976102471351624, -0.37348276376724243, -0.07701332867145538, 0.15059055387973785, -0.10712221264839172, -0.1659318208694458, 0.08014295995235443, -0.08863475918769836, -0.07356707751750946, 0.08032883703708649, -0.04140099510550499, 0.07038566470146179, -0.17934074997901917, 0.20278406143188477], [0.3252263367176056, -0.19564050436019897, -0.24992084503173828, 0.4015115201473236, -0.09340502321720123, 0.12589596211910248, 0.07858817279338837, 0.19480973482131958, -0.43389636278152466, -0.010669144801795483, -0.07654951512813568, -0.04189552366733551, -0.14676533639431, 0.24559423327445984, 0.14939430356025696, -0.3103976845741272, -0.08983394503593445, -0.3347797691822052, -0.13275030255317688, -0.05321881175041199, -0.1399083137512207, 0.056662000715732574, 0.3223116993904114, -0.13884882628917694, 0.16171500086784363, -0.1815587282180786, -0.01693570986390114, 0.15977613627910614, 0.07915471494197845, 0.1567571759223938, -0.002199576236307621, 0.006339656189084053], [0.027447516098618507, 0.007556416094303131, 0.1331600844860077, 0.20872542262077332, 0.09948498010635376, 0.2634924650192261, -0.19483980536460876, 0.3046885132789612, 0.09111200273036957, 0.10427842289209366, -0.27147093415260315, 0.005729302763938904, 0.1934470534324646, 0.21198567748069763, 0.20307467877864838, 0.2651648223400116, 0.201335608959198, -0.010794155299663544, -0.24321366846561432, 0.0754270851612091, -0.26286882162094116, -0.043718766421079636, 0.07180178910493851, -0.16223794221878052, -0.28431135416030884, 0.039512865245342255, 0.03764062374830246, -0.12008640170097351, 0.05623140558600426, 0.13368932902812958, 0.13365313410758972, 0.027183227241039276], [-0.02142263948917389, -0.17231613397598267, 0.03097255900502205, -0.009098915383219719, -0.13252174854278564, -0.13990482687950134, -0.2821064591407776, 0.09036732465028763, 0.08190087974071503, -0.006231458857655525, 0.25489717721939087, -0.04838430881500244, 0.1529550850391388, -0.12081964313983917, 0.06935504823923111, -0.1570570319890976, 0.3290872573852539, 0.10370086878538132, -0.04781421273946762, -0.06410082429647446, -0.026463910937309265, -0.1316644549369812, 0.1373131275177002, 0.033941738307476044, 0.1880253255367279, -0.11011898517608643, -0.11202801764011383, 0.10892826318740845, -0.27674999833106995, 0.16815045475959778, 0.40806204080581665, -0.08758629858493805], [-0.30656054615974426, 0.06389818340539932, 0.07583777606487274, -0.2599397301673889, -0.27007442712783813, 0.18573132157325745, -0.02244126982986927, 0.07750067114830017, -0.21609021723270416, -0.08263926208019257, 0.3378310203552246, -0.1891484409570694, 0.01883053034543991, -0.3102544844150543, 0.1174553856253624, -0.22461818158626556, 0.0018703693058341742, 0.12395406514406204, -0.11945265531539917, -0.19154277443885803, 0.008985391817986965, -0.2467486560344696, -0.0316862016916275, -0.11579020321369171, 0.03021841123700142, 0.18552587926387787, -0.16333338618278503, 0.16995307803153992, -0.08293391764163971, 0.00957208126783371, 0.18822544813156128, -0.03420322388410568], [0.17449647188186646, 0.26796257495880127, 0.21302646398544312, -0.14200487732887268, -0.005621523596346378, -0.13829001784324646, 0.20267745852470398, 0.40384355187416077, 0.030314523726701736, -0.2865438461303711, -0.23152241110801697, 0.16307611763477325, 0.16553272306919098, 0.021099654957652092, 0.0002558776759542525, -0.07585017383098602, -0.34022313356399536, 0.2903591990470886, -0.15064838528633118, -0.03954523801803589, 0.1513214260339737, -0.02192266657948494, -0.2587117552757263, 0.37297701835632324, -0.20060288906097412, -0.02553815394639969, 0.24943068623542786, 0.07063860446214676, 0.4575999975204468, 0.029895540326833725, -0.05168294906616211, -0.3588343858718872], [0.20022624731063843, -0.24091950058937073, 0.14829105138778687, 0.16302639245986938, 0.17404648661613464, -0.030248425900936127, 0.2670961022377014, -0.22962504625320435, -0.15448889136314392, -0.4265472888946533, 0.02388550341129303, 0.17268085479736328, 0.2688148319721222, 0.095081627368927, -0.2630075216293335, 0.07401014119386673, 0.07540291547775269, 0.14972171187400818, 0.24587933719158173, -0.0061107114888727665, -0.3361932635307312, 0.1756018102169037, -0.2299858033657074, -0.04974081367254257, 0.11438830196857452, -0.04669911414384842, -0.09623053669929504, 0.10601820051670074, -0.02817283570766449, 0.24111950397491455, 0.20933695137500763, 0.22985461354255676], [0.17907211184501648, 0.031690455973148346, 0.10491934418678284, -0.017661359161138535, 0.1561104953289032, 0.1761927604675293, -0.30797502398490906, -0.3417590856552124, 0.197805255651474, -0.09638026356697083, 0.24455475807189941, 0.035263318568468094, -0.13265161216259003, -0.04694202542304993, -0.4056980311870575, 0.08828838169574738, 0.18844187259674072, -0.23794391751289368, 0.20608970522880554, -0.14852076768875122, -0.11876457929611206, -0.08550069481134415, -0.1571500450372696, -0.1323295533657074, 0.0918966606259346, -0.011246901005506516, 0.03104495257139206, 0.041752249002456665, -0.30007901787757874, 0.1670524775981903, -0.08144369721412659, -0.1282767653465271], [0.3394903540611267, 0.14980560541152954, -0.09571567177772522, -0.13193267583847046, -0.044331811368465424, 0.24689772725105286, -0.17644086480140686, 0.04977843910455704, -0.09118896722793579, 0.22537535429000854, 0.12078364193439484, -0.18604734539985657, 0.005742580164223909, -0.16110026836395264, 0.18306341767311096, 0.04814021289348602, -0.3637981116771698, -0.18629319965839386, 0.031474217772483826, -0.09655414521694183, -0.10002793371677399, -0.10370147228240967, -0.12964549660682678, 0.35824257135391235, 0.3612399697303772, 0.13472728431224823, -0.035172589123249054, -0.20673492550849915, 0.05368228256702423, -0.09891466796398163, -0.04180315136909485, 0.007746854797005653], [0.32599735260009766, -0.4072602093219757, 0.1103680357336998, -0.04733958840370178, 0.08025581389665604, -0.0669112354516983, -0.17593078315258026, -0.19650998711585999, 0.03009491041302681, -0.36143285036087036, -0.353402316570282, 0.1431543529033661, 0.07270066440105438, -0.0787804126739502, -0.05573895201086998, -0.24776621162891388, -0.12841448187828064, -0.11458975076675415, 0.06675206124782562, 0.383811891078949, 0.10567489266395569, 0.4233027696609497, 0.256989985704422, 0.011480646207928658, -0.28146255016326904, 0.0695495754480362, -0.26142364740371704, -0.13193032145500183, 0.27296823263168335, 0.0006177971372380853, 0.042888179421424866, 0.273331880569458], [-0.2012152075767517, 0.11497580260038376, -0.15607184171676636, 0.11296343803405762, -0.03815288096666336, 0.31786540150642395, 0.19564834237098694, 0.03224163502454758, -0.2997628450393677, 0.036967720836400986, 0.10019730776548386, -0.07753356546163559, -0.17941904067993164, 0.16191397607326508, 0.025534534826874733, -0.1773870885372162, 0.17212557792663574, 0.0015051327645778656, -0.08512656390666962, 0.27839532494544983, 0.09123627096414566, -0.1895706057548523, -0.15275880694389343, 0.11063559353351593, 0.29904302954673767, 0.20396918058395386, -0.016858553513884544, -0.15025272965431213, 0.07701225578784943, 0.2342216819524765, 0.12065355479717255, 0.17144253849983215], [0.008675936609506607, 0.04585422948002815, 0.02401580661535263, 0.036405593156814575, -0.11318527162075043, -0.28589606285095215, -0.18284443020820618, -0.2356804758310318, -0.08635810017585754, -0.03477604314684868, 0.05761535465717316, 0.23995435237884521, -0.278675377368927, 0.3565666079521179, 0.03129331022500992, -0.18911170959472656, 0.33163130283355713, -0.11126182973384857, -0.007195233833044767, -0.012591042555868626, -0.09535855054855347, 0.17026659846305847, 0.4093506932258606, 0.0600610226392746, -0.1927579641342163, 0.14096523821353912, 0.08435237407684326, -0.25001609325408936, 0.34717798233032227, 0.025235440582036972, -0.056701671332120895, -0.00941531639546156], [-0.09350888431072235, -0.14322258532047272, 0.11607284098863602, 0.21744075417518616, -0.15592876076698303, -0.147281676530838, 0.1302296370267868, 0.23974986374378204, -0.08731622993946075, -0.29684650897979736, -0.06145493686199188, 0.029134273529052734, 0.1789303719997406, -0.051409922540187836, -0.09787766635417938, 0.19028596580028534, -0.02816479466855526, -0.020756665617227554, 0.10441125929355621, 0.15013596415519714, -0.03491262346506119, -0.3475443720817566, -0.15277916193008423, -0.006166400387883186, -0.033086713403463364, 0.09610065817832947, -0.23617368936538696, -0.3472864031791687, -0.3111346364021301, -0.24667459726333618, 0.10482141375541687, 0.17280350625514984], [0.040936440229415894, 0.1115487590432167, 0.3389664590358734, -0.2177077829837799, -0.2557365894317627, 0.18739038705825806, 0.21944576501846313, -0.05189909785985947, -0.1372375786304474, 0.07859866321086884, -0.004173663444817066, -0.09891657531261444, -0.13616037368774414, -0.10965953767299652, 0.13803324103355408, -0.24723485112190247, 0.1478261947631836, 0.32133305072784424, -0.11842095851898193, -0.07908063381910324, -0.294807493686676, -0.07456526160240173, -0.12395292520523071, -0.31543058156967163, -0.045934997498989105, 0.15352536737918854, -0.2982880473136902, 0.04374285787343979, -0.03362833335995674, 0.09212411195039749, 0.26030442118644714, 0.07260892540216446], [0.1455654501914978, 0.04449284076690674, -0.060335416346788406, -0.10660791397094727, 0.1529766470193863, 0.057164762169122696, -0.10145369172096252, -0.29504382610321045, 0.06743291020393372, -0.003188434988260269, 0.0862712562084198, 0.07643969357013702, -0.05277087539434433, -0.24252867698669434, -0.09844285994768143, 0.19589181244373322, -0.035545144230127335, 0.216729074716568, -0.12342862784862518, -0.24777445197105408, 0.06786291301250458, -0.21474042534828186, 0.19955876469612122, -0.12796831130981445, 0.05614062398672104, 0.08278597891330719, -0.08239701390266418, 0.09473700821399689, 0.47193416953086853, -0.2212824523448944, -0.3173753619194031, -0.3158148527145386], [-0.06183125078678131, 0.2670907974243164, 0.1501140296459198, -0.20323702692985535, 0.04312057048082352, -0.2570255398750305, -0.18104079365730286, -0.18642860651016235, -0.10039570927619934, -0.15643951296806335, 0.061312686651945114, 0.04784760624170303, -0.39511433243751526, 0.0727957934141159, -0.2914890646934509, -0.13286319375038147, 0.06083373725414276, -0.019429024308919907, 0.014878224581480026, -0.1000455990433693, 0.35503607988357544, -0.0015718697104603052, -0.30456316471099854, 0.1943059265613556, 0.05387026444077492, -0.04343022406101227, -0.21313807368278503, -0.1281541883945465, -0.07630191743373871, -0.27460363507270813, 0.00035429204581305385, 0.11799796670675278], [-0.10781849920749664, -0.30781227350234985, 0.30309614539146423, -0.13816913962364197, -0.06591717898845673, -0.3233567476272583, 0.14470937848091125, -0.11088189482688904, 0.06808285415172577, 0.026992037892341614, 