{"params": {"Dense_0": {"0+": {"bias": [0.012973095290362835, -0.03543223440647125, -0.02027573622763157, -0.007677295245230198, -0.002482671057805419, -0.046129606664180756, 0.02140010893344879, -0.02668047696352005, -0.017927326261997223, -0.01612222194671631, 0.0003160623018629849, -0.023817310109734535, 0.0002236574946437031, -0.016440683975815773, -0.03411107882857323, 0.023085080087184906, -0.006404321640729904, -0.030747629702091217, 0.01027834601700306, -0.043180204927921295, 0.015675118193030357, -0.019052911549806595, -0.005703513976186514, 0.015463114716112614, -0.007660294882953167, 0.03696506842970848, 0.022268716245889664, 0.009283982217311859, 0.020863140001893044, 0.026683010160923004, 0.02836141362786293, -0.019043274223804474], "kernel": [[0.014039414934813976, 0.16772398352622986, -0.07511697709560394, 0.12957778573036194, 0.13658227026462555, 0.006029674783349037, -0.13154447078704834, 0.2054176926612854, 0.029625726863741875, -0.16237330436706543, -0.06981007754802704, 0.13869783282279968, -0.3210945725440979, -0.4360787272453308, 0.010142925195395947, -0.13327378034591675, -0.023820282891392708, 0.1770145446062088, -0.10302300751209259, 0.17183025181293488, 0.12577901780605316, 0.12161700427532196, -0.11919981241226196, 0.07821149379014969, 0.2658265233039856, 0.12273871898651123, 0.34270453453063965, -0.11998263746500015, -0.17266219854354858, -0.1956382691860199, 0.19034570455551147, 0.18584206700325012], [0.12296353280544281, -0.21855950355529785, -0.19170120358467102, -0.22523123025894165, 0.19086262583732605, 0.043329477310180664, -0.16320592164993286, -0.1170223280787468, 0.22207075357437134, 0.03092944249510765, 0.16244682669639587, -0.09025543928146362, -0.025364255532622337, 0.008603384718298912, 0.15436431765556335, -0.09858138114213943, 0.08622357249259949, -0.1979825496673584, -0.16369763016700745, 0.0322527252137661, 0.15081745386123657, 0.0814020037651062, 0.31276535987854004, -0.31083452701568604, -0.11890876293182373, -0.034586891531944275, -0.38097578287124634, -0.07649138569831848, -0.4088872969150543, -0.12895062565803528, 0.01073509082198143, 0.18634182214736938], [0.18657690286636353, -0.045798130333423615, -0.1836056411266327, -0.2161688208580017, -0.14530034363269806, -0.22083479166030884, 0.019731203094124794, 0.2790979743003845, 0.008194886147975922, -0.16983957588672638, -0.1385117471218109, -0.23409146070480347, 0.025326410308480263, 0.2867455780506134, 0.046009570360183716, -0.04045846685767174, -0.08759574592113495, -0.07434897124767303, 0.24053022265434265, 0.3271656036376953, -0.008661702275276184, 0.13930746912956238, -0.3629937171936035, 0.0913417786359787, 0.2762106657028198, -0.30610138177871704, 0.1623130440711975, 0.005938015878200531, 0.24242913722991943, 0.1336158812046051, 0.1290307343006134, 0.0608067512512207], [0.22419080138206482, 0.008361821994185448, -0.231134295463562, 0.00666103046387434, 0.15243683755397797, -0.04531152918934822, -0.017457377165555954, 0.008349575102329254, 0.1159236878156662, -0.27167338132858276, 0.1813628375530243, 0.18329626321792603, 0.07359077036380768, 0.258614718914032, -0.08498360216617584, 0.07025717198848724, -0.15186095237731934, -0.23067869246006012, -0.03832592815160751, -0.1541110873222351, 0.26362353563308716, 0.11594367027282715, -0.19928176701068878, -0.10128866881132126, 0.4125346541404724, -0.0965808779001236, 0.336201012134552, -0.11453282833099365, 0.000919573474675417, -0.006944937631487846, 0.014236494898796082, -0.24570819735527039], [-0.2646317481994629, -0.05003767088055611, 0.24000778794288635, -0.12868532538414001, 0.01027953065931797, -0.004159920383244753, -0.06056274473667145, -0.15368089079856873, 0.1826477348804474, 0.03196921572089195, 0.0335230678319931, -0.12615859508514404, 0.1580643653869629, -0.13348709046840668, 0.09336750954389572, -0.07770989835262299, 0.2506411373615265, 0.14902746677398682, 0.02245236560702324, 0.16876983642578125, 0.06012352555990219, -0.2456500083208084, -0.037687890231609344, -0.11406411230564117, -0.03953738138079643, -0.20204687118530273, 0.06711339950561523, 0.03989545255899429, 0.06446940451860428, 0.23790138959884644, -0.09237273037433624, 0.08689392358064651], [-0.008998855948448181, 0.02602931298315525, 0.11822238564491272, -0.029840834438800812, 0.10949923098087311, 0.017453674226999283, -0.16972264647483826, 0.17924471199512482, -0.057076506316661835, -0.21676135063171387, -0.051993273198604584, 0.10951335728168488, 0.18845687806606293, 0.27141714096069336, 0.06981738656759262, 0.12971735000610352, -0.1409561038017273, 0.06861777603626251, 0.18798762559890747, 0.017982054501771927, -0.1469210982322693, -0.22851315140724182, -0.1686120629310608, -0.08966167271137238, 0.08647174388170242, 0.021915454417467117, 0.1739347130060196, -0.1813400685787201, 0.1030370444059372, -0.021949391812086105, -0.25016340613365173, -0.011976877227425575], [-0.20100387930870056, -0.22635367512702942, 0.04061942547559738, -0.09674143046140671, -0.14299514889717102, 0.038962021470069885, 0.08434057235717773, 0.007290305569767952, 0.0558018833398819, -0.337227463722229, -0.11828689277172089, -0.03397743031382561, -0.0444495789706707, -0.25632572174072266, 0.03014470636844635, 0.1780318021774292, 0.2674597203731537, -0.15015262365341187, -0.0698261708021164, 0.034056369215250015, -0.09582746028900146, 0.19176869094371796, 0.1701049953699112, 0.1893739104270935, -0.4922923445701599, 0.16532853245735168, 0.05063149333000183, -0.29906854033470154, 0.21989408135414124, -0.3514995574951172, 0.2880047559738159, 0.18380135297775269], [-0.19191652536392212, -0.02579459175467491, -0.35026443004608154, 0.016822218894958496, -0.10161459445953369, 0.07142236828804016, -0.26419246196746826, -0.19463565945625305, -0.09652002155780792, 0.2723011076450348, 0.1269100457429886, 0.24002158641815186, -0.0620998777449131, -0.219753235578537, -0.20308762788772583, -0.21063563227653503, -0.13215991854667664, 0.1719132363796234, -0.06093345209956169, -0.007689228281378746, -0.1890450417995453, 0.06006782501935959, -0.13906189799308777, 0.24562525749206543, 0.1367681920528412, -0.2630428075790405, -0.18578290939331055, 0.12803933024406433, 0.011579785495996475, -0.013589238747954369, 0.2299569845199585, -0.1649463176727295], [-0.0688643679022789, 0.018857916817069054, -0.33670926094055176, 0.19880783557891846, 0.002152536530047655, -0.3103521764278412, 0.04256276786327362, 0.002404456026852131, 0.011304281651973724, -0.3176936209201813, 0.19913065433502197, -0.17209473252296448, 0.11054188013076782, 0.14889490604400635, 0.28984904289245605, -0.06160254031419754, -0.2082783281803131, 0.026310380548238754, -0.07202461361885071, 0.22024959325790405, -0.11138567328453064, -0.2140059471130371, 0.005477689206600189, 0.271592378616333, 0.10729007422924042, -0.09414511919021606, 0.028282247483730316, -0.1719689667224884, 0.3100917935371399, 0.012844324111938477, 0.10067959129810333, -0.17862455546855927], [0.2459464967250824, 0.06530293822288513, 0.18790900707244873, 0.07027371227741241, -0.020383749157190323, 0.05537272244691849, -0.08608293533325195, 0.17279639840126038, 0.056996505707502365, -0.015912842005491257, -0.28561532497406006, -0.009284126572310925, -0.24827027320861816, -0.14381414651870728, -0.04160919785499573, -0.2749279737472534, -0.28009286522865295, -0.09822787344455719, -0.05670725554227829, 0.1865490972995758, 0.007484843488782644, -0.09281077235937119, -0.002284339629113674, -0.04414893314242363, -0.04574967548251152, -0.23571130633354187, 0.10923151671886444, 0.006181982345879078, -0.2079465389251709, 0.2103002518415451, -0.14231151342391968, 0.045275621116161346], [0.028194602578878403, -0.09695091843605042, -0.04667554795742035, 0.12018288671970367, -0.2686448097229004, -0.10659095644950867, 0.11775898933410645, 0.036225829273462296, -0.013498136773705482, 0.08246069401502609, 0.04158193618059158, 0.3559929430484772, 0.1757270097732544, 0.23984670639038086, 0.26224303245544434, 0.22769036889076233, 0.025352567434310913, -0.07322795689105988, 0.005708671174943447, 0.039032794535160065, -0.21112984418869019, 0.14987316727638245, -0.04217390716075897, 0.07072713971138, 0.07252713292837143, 0.08084043860435486, -0.048101816326379776, -0.0629090890288353, 0.021369468420743942, 0.13658013939857483, 0.18378061056137085, 0.3400667607784271], [0.15832585096359253, -0.013008961454033852, 0.18360158801078796, 0.2804337739944458, -0.3279760479927063, 0.18696638941764832, 0.29922324419021606, -0.07377734780311584, 0.20379194617271423, -0.006843591574579477, -0.02707088179886341, -0.22142294049263, -0.11346082389354706, 0.3764687180519104, 0.24632278084754944, 0.018288888037204742, 0.008234046399593353, -0.015164988115429878, -0.015642615035176277, 0.24194875359535217, 0.11059127748012543, 0.12925472855567932, -0.045342735946178436, 0.002146415412425995, 0.021101685240864754, 0.17010876536369324, -0.27788203954696655, 0.07971768081188202, 0.19116422533988953, 0.12181629240512848, 0.0416354164481163, 0.07264391332864761], [0.12629017233848572, -0.12441873550415039, -0.18086877465248108, -0.017661001533269882, 0.18981516361236572, -0.2257346659898758, 0.05826764553785324, 0.0016085987444967031, 0.20566347241401672, -0.1454639434814453, -0.09473170340061188, -0.13959503173828125, -0.10555519163608551, -0.2752705216407776, -0.1193707287311554, -0.07831496745347977, -0.1626548022031784, 0.24961453676223755, -0.13301804661750793, 0.14718389511108398, -0.09882856905460358, -0.03209790587425232, 0.06511572003364563, 0.003332138294354081, 0.2119280993938446, -0.22397437691688538, 0.018279165029525757, 0.15198451280593872, -0.08733179420232773, 0.034479543566703796, 0.14808809757232666, -0.059862613677978516], [0.08942008018493652, -0.15738795697689056, -0.10740833729505539, -0.17236009240150452, -0.36723512411117554, -0.06182284653186798, -0.06693039834499359, -0.07755844295024872, -0.20352569222450256, 0.02466357685625553, 0.07257555425167084, 0.2283143550157547, -0.07755471765995026, -0.25787562131881714, -0.18558065593242645, 0.1712731122970581, -0.23566219210624695, 0.28095895051956177, -0.01679515838623047, -0.179043710231781, 0.15404748916625977, -0.21782606840133667, -0.1240556612610817, -0.09361326694488525, 0.053905799984931946, 0.31458860635757446, 0.004302906803786755, 0.006236088462173939, 0.07627689093351364, 0.10518679022789001, -0.46858519315719604, -0.12309445440769196], [0.015936391428112984, -0.30767232179641724, 0.0932135134935379, -0.011659051291644573, -0.11504615843296051, -0.11965491622686386, -0.14321941137313843, -0.24852420389652252, -0.17883217334747314, 0.28997284173965454, 0.1652308702468872, -0.24498078227043152, -0.1429520845413208, 0.35789191722869873, -0.1884065568447113, -0.2740820348262787, 0.03752436488866806, 0.0874013602733612, 0.18064828217029572, -0.02702375501394272, 0.034396942704916, 0.09838885068893433, 0.0038788383826613426, 0.012871690094470978, 0.021415187045931816, 0.24011464416980743, 0.2186143547296524, 0.19833526015281677, -0.3068656921386719, -0.04090175777673721, -0.22726359963417053, -0.1290813386440277], [0.1121264174580574, 0.150232195854187, 0.23792320489883423, 0.02643550932407379, 0.05936054140329361, -0.3002485930919647, 0.13925254344940186, 0.09689375758171082, -0.10757960379123688, -0.03496529161930084, -0.20222070813179016, 0.31990259885787964, 0.05008050054311752, -0.1800464540719986, 0.16193529963493347, 0.04975227639079094, -0.0816083550453186, -0.09856748580932617, 0.2952653169631958, -0.1508384793996811, -0.023525841534137726, -0.03150538355112076, 0.21142104268074036, 0.01592245139181614, 0.004670633003115654, 0.25456398725509644, 0.0498858205974102, 0.23057371377944946, 0.17410346865653992, -0.011582448147237301, -0.09887465089559555, -0.10409054160118103], [0.132049560546875, 0.04319751262664795, 0.08541664481163025, 0.03199704736471176, 0.20986272394657135, -0.023647470399737358, 0.001748719485476613, 0.051393259316682816, 0.3013845682144165, -0.20870348811149597, -0.04896451532840729, 0.14247672259807587, 0.12756124138832092, -0.28840720653533936, -0.01397931482642889, -0.1362781971693039, 0.19462913274765015, -0.1523554027080536, -0.0568813718855381, 0.19352596998214722, -0.33391228318214417, 0.0982925146818161, 0.15523368120193481, -0.2711884379386902, -0.3193516135215759, -0.059046149253845215, 0.11324674636125565, -0.059766314923763275, 0.03906344994902611, 0.048155106604099274, 0.04296617954969406, 0.07017672061920166], [-0.3799949884414673, -0.17363783717155457, -0.057801563292741776, 0.0025317014660686255, 0.26554161310195923, 0.32058244943618774, 0.07503122091293335, -0.1971520483493805, -0.21610800921916962, -0.13441255688667297, 0.1524200588464737, 0.15739771723747253, -0.09530739486217499, -0.12079082429409027, -0.1090279072523117, -0.26536357402801514, 0.1052304208278656, 0.1104716807603836, -0.04096459597349167, -0.20311357080936432, 0.02066463977098465, 0.08021719753742218, -0.00803106278181076, 0.1016433835029602, -0.032945748418569565, -0.10100145637989044, -0.05399799346923828, -0.06216952204704285, -0.00827779434621334, 0.23426823318004608, -0.11755107343196869, -0.05973932892084122], [-0.2681103050708771, -0.08332918584346771, -0.321598082780838, 0.21095967292785645, -0.20110951364040375, 0.20993518829345703, -0.1620086431503296, -0.27176564931869507, -0.017584696412086487, -0.2632380723953247, 0.030481576919555664, -0.06499423831701279, -0.0007804761407896876, -0.09563883394002914, 0.10291144251823425, 0.36128905415534973, -0.26568400859832764, -0.2926328480243683, -0.0851515531539917, -0.16045033931732178, -0.3715467154979706, -0.20230898261070251, 0.3396509289741516, -0.21415691077709198, -0.16118654608726501, 0.000867867493070662, -0.16346773505210876, -0.22403457760810852, -0.18801507353782654, -0.00801237765699625, -0.1451878845691681, 0.10109671950340271], [-0.15576571226119995, -0.24373102188110352, 0.15580159425735474, 0.09203586727380753, 0.057185858488082886, -0.15549184381961823, 0.028878800570964813, 0.03185339272022247, -0.19141513109207153, 0.2672618627548218, -0.23927560448646545, 0.0759650468826294, -0.20903873443603516, -0.29258766770362854, -0.08335143327713013, -0.0846833661198616, 0.08788018673658371, 0.21021927893161774, -0.2385825663805008, -0.13042578101158142, -0.0695836991071701, -0.05071538686752319, -0.14472676813602448, -0.011900866404175758, -0.005599580705165863, -0.28007298707962036, -0.121310755610466, 0.12325750291347504, -0.1255926787853241, -0.11277694255113602, 0.10187764465808868, 0.06111105531454086], [0.05221439525485039, 0.0426187738776207, -0.08439739048480988, -0.0799851268529892, 0.07586628198623657, 0.06902042031288147, -0.09604587405920029, 0.04369143396615982, -0.19404059648513794, 0.10841788351535797, 0.008506136015057564, 0.12534339725971222, -0.29071569442749023, -0.05373213812708855, -0.2796887457370758, -0.2738480865955353, -0.0855233371257782, 0.12440050393342972, -0.006213106215000153, 0.1438019871711731, -0.12954181432724, -0.03878430277109146, -0.3272075653076172, 0.05054594576358795, -0.20959527790546417, -0.12115320563316345, -0.11474379897117615, -0.03445018455386162, -0.08854769915342331, 0.10739976167678833, 0.23612725734710693, 0.09572896361351013], [0.012760629877448082, 0.036467719823122025, -0.13017019629478455, -0.043921902775764465, 0.06570896506309509, -0.22437027096748352, 0.3224398195743561, -0.17523624002933502, -0.03256618231534958, 0.17379915714263916, -0.193536639213562, 0.07921897619962692, -0.38876163959503174, -0.27731627225875854, -0.1296791136264801, 0.29611390829086304, -0.07375451922416687, 0.032522283494472504, 0.07304391264915466, -0.17173968255519867, -0.18401741981506348, -0.31009113788604736, -0.0528823658823967, 0.1690484881401062, -0.23988965153694153, 0.15545935928821564, 0.25981390476226807, -0.17651204764842987, -0.32844793796539307, -0.08209778368473053, 0.23608875274658203, -0.17029748857021332], [-0.08419905602931976, 0.13039344549179077, -0.14258846640586853, -0.13682526350021362, -0.12384139746427536, 0.30956631898880005, -0.18721222877502441, -0.21909897029399872, -0.0982866957783699, 0.07491534948348999, -0.03675561398267746, -0.0674794614315033, 0.3808635175228119, -0.21156957745552063, 0.16401943564414978, 0.3145860433578491, -0.20743273198604584, -0.11376485973596573, 0.26137202978134155, -0.031806591898202896, 0.16956865787506104, -0.022983498871326447, 0.01783423312008381, -0.10074113309383392, 0.07230702042579651, -0.22550509870052338, 0.05855417996644974, 0.3065128028392792, 0.11856801062822342, -0.000587881775572896, 0.3230338394641876, 0.06810596585273743], [-0.18476131558418274, 0.2403024584054947, -0.0004828250384889543, -0.21640408039093018, -0.021918555721640587, -0.07029484212398529, 0.012988768517971039, 0.20940899848937988, -0.01670437678694725, 0.22386735677719116, 0.4554744362831116, 0.2490091621875763, -0.2190883755683899, 0.24256831407546997, 0.07276437431573868, -0.11014705896377563, -0.1136310026049614, -0.09183304756879807, -0.04704272001981735, -0.09354633092880249, 0.3317889869213104, 0.09829992055892944, 0.19858932495117188, -0.11527924984693527, 0.285003662109375, -0.018506169319152832, -0.018848340958356857, 0.09798908233642578, 0.013265511952340603, 0.2674441337585449, -0.15235403180122375, 0.25453323125839233], [0.3003869950771332, 0.19764429330825806, -0.15732157230377197, -0.11262352019548416, 0.3017008900642395, 0.18893080949783325, 0.15395626425743103, -0.19209718704223633, -0.29363250732421875, -0.07232268154621124, -0.008183615282177925, -0.09051981568336487, 0.3488401770591736, -0.1587887704372406, -0.06719861179590225, -0.21988198161125183, 0.25523313879966736, -0.15794038772583008, -0.007146159652620554, 0.22975075244903564, -0.0561293326318264, 0.12989473342895508, -0.2352343201637268, 0.2895223796367645, 0.27592235803604126, -0.17501872777938843, 0.011901486665010452, -0.21888789534568787, 0.011936075054109097, -0.10860717296600342, 0.001959569286555052, -0.10710753500461578], [-0.18380078673362732, -0.23694391548633575, 0.25726690888404846, -0.11781202256679535, -0.04606937617063522, 0.20757243037223816, -0.3084792494773865, -0.291160523891449, 0.35085469484329224, -0.14393901824951172, 0.04514283686876297, -0.279371976852417, -0.35103708505630493, 0.2153833508491516, -0.07244768738746643, -0.15259438753128052, 0.09118518233299255, 0.004376676864922047, -0.13890573382377625, -0.06107832491397858, -0.23092219233512878, -0.2986515164375305, -0.16839537024497986, -0.39486730098724365, 0.14403373003005981, -0.06672389805316925, -0.24632319808006287, -0.0841023400425911, 0.17543381452560425, 0.03446241468191147, 0.10255740582942963, -0.08183439821004868], [-0.16184182465076447, -0.053083259612321854, 0.0049653928726911545, 0.30910831689834595, 0.3464648723602295, -0.13508367538452148, -0.04307178407907486, -0.23539704084396362, -0.06961940228939056, -0.06393945217132568, -0.03912913426756859, -0.18866893649101257, 0.060077715665102005, 0.037192001938819885, -0.03997746855020523, -0.07305721938610077, 0.2415858805179596, -0.05886876955628395, 0.11728760600090027, 0.07157262414693832, -0.13700531423091888, 0.02174784429371357, 0.11739498376846313, -0.09292109310626984, 0.04782603308558464, -0.19312997162342072, 0.24944499135017395, 0.13678306341171265, -0.24061818420886993, -0.008974677883088589, 0.257457435131073, -0.014300325885415077], [0.13622747361660004, -0.014786800369620323, 0.17391395568847656, -0.26277482509613037, -0.006090520415455103, 0.05166894942522049, -0.23050303757190704, 0.015867527574300766, 0.07262716442346573, -0.28707730770111084, -0.20269179344177246, -0.09037566184997559, 0.12539392709732056, -0.1442248821258545, -0.01708386465907097, 0.1442197561264038, 0.3088220953941345, -0.039495598524808884, 0.08743810653686523, -0.041708316653966904, 0.008540987968444824, 0.036662373691797256, 0.11321686208248138, 0.24395237863063812, -0.05186682194471359, -0.10038869082927704, -0.10276983678340912, -0.10369843244552612, 0.12362096458673477, -0.0735350102186203, -0.20747515559196472, 0.06710077822208405], [0.10998357832431793, -0.05436936020851135, -0.029869278892874718, 0.057089824229478836, 0.11550949513912201, -0.1287652850151062, -0.19094917178153992, 0.2458471655845642, 0.03277105093002319, 0.28691428899765015, 0.09242936968803406, -0.16249531507492065, 0.1866605281829834, 0.07778575271368027, -0.027956360951066017, -0.20414993166923523, 0.12433698028326035, -0.18319374322891235, -0.2377978265285492, 0.2929777204990387, 0.03207753598690033, 0.013098109513521194, 0.17475339770317078, -0.05523908510804176, 0.2801836133003235, 0.24223433434963226, 0.02844664826989174, -0.2592626214027405, 0.08674192428588867, -0.12349123507738113, -0.2971142530441284, 0.1933806836605072], [-0.11563901603221893, 0.11902172863483429, 0.17084595561027527, -0.14535316824913025, -0.12213058769702911, 0.30658310651779175, 0.05878591164946556, -0.12631475925445557, 0.36912018060684204, -0.08860195428133011, 0.12928026914596558, 0.16748541593551636, 0.1012648195028305, 0.17470553517341614, 0.20384013652801514, -0.012861165218055248, 0.1296842098236084, 0.0023179587442427874, 0.14219167828559875, 0.02398688718676567, -0.13020873069763184, -0.10691366344690323, -0.07834671437740326, 0.24198079109191895, 0.08666972070932388, -0.22003914415836334, 0.32980215549468994, 0.13623228669166565, 0.12890121340751648, -0.07468220591545105, -0.011413040570914745, -0.06685542315244675], [0.09015922993421555, 0.12746363878250122, 0.058670349419116974, 0.15341481566429138, 0.14232486486434937, 0.263766884803772, -0.21703636646270752, -0.005210627801716328, 0.12818023562431335, 0.12569719552993774, 0.17687764763832092, 0.0975625067949295, 0.1951821893453598, 0.09530168771743774, 0.1910158395767212, -0.0760858803987503, -0.048091255128383636, -0.18822267651557922, -0.06892877072095871, -0.0615742951631546, -0.10690666735172272, -0.23011404275894165, -0.22707796096801758, -0.0544554702937603, 0.045883551239967346, 0.3993610739707947, 0.04172411561012268, 0.011548437178134918, -0.26508840918540955, 0.2593930959701538, 0.3898240923881531, 0.0929575189948082], [0.10075894743204117, -0.1732170432806015, -0.40380460023880005, 0.16290579736232758, -0.1421966254711151, -0.11828957498073578, 0.3279367685317993, 0.16887161135673523, -0.04157697781920433, 0.3971991539001465, 0.1040724590420723, 0.338826060295105, 0.06337875872850418, 0.11607494950294495, 0.02995961904525757, 0.0826028361916542, 0.06852597743272781, -0.008799534291028976, -0.17419496178627014, 0.12502530217170715, 0.10507865250110626, 0.1309109330177307, 0.11168895661830902, -0.0658324807882309, -0.16949379444122314, 0.17516691982746124, 0.22380465269088745, -0.1698448657989502, -0.09090475738048553, -0.2248309999704361, -0.11491480469703674, -0.1417454183101654]]}, "1-": {"kernel": [[-0.20491456985473633, 0.09520900249481201, -0.10564026981592178, 0.03673736751079559, -0.09334654361009598, -0.015415320172905922, -0.05065610259771347, -0.01723315194249153, -0.08808474242687225, -0.09401759505271912, -0.292232871055603, 0.027869774028658867, 0.05231799930334091, -0.207174152135849, -0.11673246324062347, -0.023218687623739243, -0.20144599676132202, -0.09467223286628723, -0.03585033118724823, 0.3268203139305115, -0.18732821941375732, 0.16067330539226532, -0.04290985316038132, -0.341261625289917, 0.13192804157733917, -0.07078059762716293, 0.09148070961236954, 0.25541436672210693, 0.06053377687931061, 0.14742201566696167, -0.027075212448835373, -0.2107352316379547], [-0.10334594547748566, -0.037920381873846054, -0.25009700655937195, -0.007318944204598665, 0.2891899049282074, 0.27298030257225037, -0.10777898132801056, -0.33966851234436035, 0.1788730025291443, 0.08492172509431839, -0.13580411672592163, 0.12341966480016708, 0.11257027089595795, -0.07072380930185318, 0.44102048873901367, -0.1059252992272377, -0.19090929627418518, -0.14352357387542725, 0.2818669378757477, -0.060025811195373535, -0.07795416563749313, -0.1689210683107376, 0.286822110414505, -0.08041560649871826, -0.008357010781764984, 0.04582192748785019, 0.04989433288574219, -0.2387704849243164, 0.1844085454940796, -0.15408898890018463, 0.06338219344615936, -0.12670958042144775], [0.13179200887680054, -0.03685379773378372, -0.3526092767715454, 0.09140479564666748, 0.07110671699047089, -0.2629637122154236, -0.0929369330406189, -0.37674814462661743, -0.06085558235645294, 0.04185210168361664, 0.15505129098892212, 0.009166411124169827, 0.3627508878707886, 0.4595630168914795, -0.11838828772306442, -0.07842908799648285, 0.19516947865486145, -0.12313435971736908, 0.10491587221622467, -0.06677176803350449, 0.09007106721401215, 0.05894903838634491, -0.04584214836359024, 0.133777916431427, 0.1686854064464569, -0.07002337276935577, 0.002915474586188793, -0.12643170356750488, 0.25349190831184387, 0.263986200094223, -0.21849867701530457, -0.006156885996460915], [-0.04433828592300415, 0.06976883113384247, -0.17212066054344177, -0.29642221331596375, -0.42638370394706726, -0.10311419516801834, -0.21193048357963562, -0.20675618946552277, 0.394053190946579, 0.12360180914402008, 0.0715017020702362, -0.045437268912792206, 0.042312465608119965, -0.12329432368278503, 0.08915087580680847, 0.011051373556256294, 0.009749719873070717, -0.04540516808629036, -0.4267577528953552, 0.30678969621658325, 0.17009052634239197, -0.18394553661346436, -0.3675949275493622, -0.30415692925453186, 0.17214706540107727, -0.08389914035797119, -0.31169331073760986, 0.28603842854499817, -0.3328334093093872, 0.252614825963974, -0.16322767734527588, 0.11271055042743683], [0.23101834952831268, 0.023207969963550568, -0.1857014149427414, -0.09209117293357849, -0.05282844603061676, 0.30318307876586914, 0.14282871782779694, -0.20265182852745056, -0.060211505740880966, 0.07621686160564423, -0.01642398163676262, 0.24285224080085754, -0.06579899787902832, 0.11224670708179474, -0.36690637469291687, 0.1293323040008545, -0.10997364670038223, -0.14727774262428284, 0.259212851524353, 0.0781073048710823, -0.14837659895420074, 0.2256191372871399, 0.13563530147075653, -0.08281838893890381, 0.023619523271918297, -0.1655958592891693, 0.2194322943687439, 0.17637723684310913, 0.012484782375395298, 0.044816963374614716, -0.10224726051092148, 0.041187699884176254], [0.19604018330574036, 0.02718409150838852, -0.1414690613746643, 0.28473663330078125, -0.10528013855218887, -0.08498013019561768, 0.014781879261136055, 0.12937843799591064, 0.1567283272743225, 0.023073069751262665, 0.00219718087464571, -0.3537631332874298, 0.3217252492904663, 0.29510271549224854, -0.20327390730381012, -0.008579256013035774, 0.09274061024188995, 0.03201991319656372, -0.05037890374660492, 0.25692299008369446, -0.14240074157714844, 0.014712824486196041, 0.09671136736869812, 0.07938389480113983, 0.08150292932987213, -0.03605670481920242, -0.01228806097060442, -0.022408735007047653, -0.05236641317605972, 0.06823056936264038, -0.3862972557544708, -0.24217009544372559], [-0.19245190918445587, 0.12123963981866837, 0.13114547729492188, 0.3211742043495178, -0.32586613297462463, -0.2841140627861023, 0.10772724449634552, 0.1902708113193512, 0.18081583082675934, -0.38136959075927734, -0.29873424768447876, 0.0013507434632629156, -0.15136204659938812, 0.1333709955215454, -0.0835292711853981, 0.3862442970275879, 0.08273665606975555, -0.27346840500831604, -0.1245092898607254, -0.021170705556869507, 0.0980878621339798, -0.018901105970144272, -0.21588915586471558, -0.12005452066659927, -0.2846525311470032, 0.1991363763809204, 0.27465593814849854, 0.5565367937088013, 0.10513622313737869, -0.0770489051938057, -0.42216211557388306, 0.11155030131340027], [-0.006967041175812483, -0.1596049815416336, 0.14136871695518494, -0.309500515460968, 0.28957095742225647, 0.12898385524749756, 0.1347028762102127, -0.08393514156341553, 0.12085333466529846, -0.06377948820590973, 0.1260361522436142, -0.04876679927110672, 0.04440290480852127, 0.11462201178073883, -0.09958972781896591, 0.08590681850910187, -0.30440109968185425, 0.45101451873779297, 0.22763089835643768, 0.17608675360679626, -0.024302272126078606, -0.15654855966567993, -0.061225369572639465, 0.06246636062860489, 0.005562348756939173, 0.24570325016975403, -0.007549826055765152, -0.10942591726779938, -0.02988668903708458, 0.10796363651752472, 0.10175037384033203, -0.06702205538749695], [-0.018426882103085518, 0.11081504076719284, -0.2813299298286438, 0.2226729840040207, 0.38693228363990784, 0.1210714727640152, 0.135907381772995, 0.21264119446277618, -0.05800618976354599, -0.1614808887243271, 0.1768263876438141, -0.009876561351120472, 0.27747273445129395, -0.09617424011230469, 0.2940065860748291, -0.0222381092607975, 0.04786437377333641, 0.030942484736442566, 0.07514311373233795, -0.01515480037778616, -0.1692681759595871, -0.10261096060276031, 0.1243492066860199, 0.052670516073703766, 0.07753811776638031, -0.38203954696655273, 0.08266489207744598, -0.15116524696350098, -0.05478820204734802, 0.006139060948044062, 0.13664893805980682, -0.007901918143033981], [-0.2780648469924927, -0.16047170758247375, -0.13472506403923035, 0.4021914005279541, 0.13998258113861084, 0.15540139377117157, 0.03339466452598572, 0.14437538385391235, -0.13394497334957123, 0.07281853258609772, -0.005351285915821791, -0.267036497592926, -0.02355125918984413, -0.17280438542366028, 0.03016042709350586, -0.04025806486606598, -0.14875252544879913, -0.011614073999226093, 0.24677802622318268, 0.24600279331207275, 0.03841865062713623, 0.22829051315784454, 0.018477097153663635, -0.0041869995184242725, 0.23388174176216125, -0.019349824637174606, -0.23707956075668335, 0.09801884740591049, -0.10548678785562515, 0.12409418821334839, 0.07874780148267746, 0.2703096568584442], [-0.20310986042022705, -0.1765902042388916, -0.0663318857550621, 0.07721618562936783, 0.2082248330116272, 0.15865188837051392, 0.226493701338768, -0.3555811643600464, -0.12368901073932648, 0.05493992567062378, -0.0534500777721405, -0.181522399187088, -0.17739331722259521, 0.2856903672218323, 0.10741205513477325, -0.04842928797006607, 0.12387818098068237, -0.17208948731422424, -0.21333587169647217, 0.0829579085111618, 0.03607482090592384, 0.055263347923755646, 0.14433450996875763, -0.056399088352918625, 0.1492767184972763, -0.14162953197956085, 0.11548733711242676, -0.529009222984314, -0.19176077842712402, -0.1316661387681961, 0.17217303812503815, 0.2970768213272095], [0.06736740469932556, -0.05120272561907768, 0.41691046953201294, -0.2878199815750122, 0.1315622329711914, -0.2430584728717804, 0.1628815233707428, -0.3300653100013733, 0.07523348927497864, -0.10731180757284164, 0.1719675213098526, 0.1360003650188446, 0.03337617963552475, -0.01686796173453331, -0.08775094151496887, -0.009943028911948204, -0.2773757576942444, -0.3267890214920044, 0.02031329832971096, 0.16906210780143738, -0.07618897408246994, 0.07489161938428879, 0.13811638951301575, 0.30846625566482544, 0.01801682636141777, 0.29724353551864624, 0.24875009059906006, -0.29798823595046997, 0.2938879728317261, -0.05137387290596962, 0.2870383858680725, -0.027408268302679062], [0.09628510475158691, -0.056458890438079834, -0.02822284772992134, -0.2956656217575073, 0.0005570724606513977, 0.04375853389501572, 0.08481147885322571, -0.21640560030937195, 0.13505089282989502, 0.10206110775470734, -0.10165739059448242, 0.25272250175476074, -0.12809473276138306, -0.10070616006851196, -0.05079659819602966, 0.04458430036902428, -0.33649224042892456, 0.12059237062931061, -0.22628337144851685, 0.18210691213607788, -0.13864019513130188, 0.12593767046928406, -0.11740174144506454, 0.17824625968933105, 0.3360312283039093, 0.15315593779087067, -0.1014617308974266, -0.04122762009501457, -0.06036512553691864, 0.2790226340293884, 0.03403095901012421, 0.17552804946899414], [0.10385572910308838, -0.25509047508239746, 0.23209995031356812, -0.01103739533573389, 0.018791155889630318, 0.4318512976169586, 0.2633698582649231, 0.10016602277755737, 0.3205149471759796, 0.11356933414936066, -0.40365713834762573, -0.027616776525974274, 0.03332574665546417, 0.07624392211437225, 0.07371940463781357, -0.166497141122818, -0.1737305223941803, -0.38594576716423035, 0.3607673943042755, -0.07825657725334167, -0.09500692039728165, 0.1366535723209381, -0.07943093776702881, 0.14792443811893463, -0.26472193002700806, -0.04692261293530464, 0.046271681785583496, 0.07044863700866699, 0.16793540120124817, 0.07148405909538269, 0.04956121742725372, 0.07407059520483017], [-0.16472092270851135, -0.17117276787757874, -0.06306092441082001, 0.40237152576446533, 0.23931781947612762, 0.06934164464473724, -0.28212499618530273, -0.09750259667634964, 0.14665307104587555, -0.32918208837509155, 0.12905821204185486, -0.010401975363492966, -0.23224729299545288, 0.3465622067451477, 0.23785775899887085, -0.3288487195968628, -0.13550853729248047, -0.15601690113544464, -0.1152573823928833, -0.13288013637065887, -0.11761924624443054, 0.03983154892921448, -0.12060284614562988, -0.001327067380771041, -0.12896013259887695, -0.3614450693130493, -0.39134860038757324, -0.13539819419384003, -0.09379436075687408, -0.13995778560638428, -0.13409534096717834, 0.10677416622638702], [0.16978220641613007, 0.020694445818662643, 0.09137261658906937, 0.3279687166213989, 0.00995368417352438, 0.2061934471130371, -0.0678153783082962, 0.09263621270656586, -0.3105824589729309, 0.12662813067436218, 0.09349283576011658, -0.3401203751564026, 0.3580600619316101, 0.030447781085968018, -0.06885276734828949, 0.42882439494132996, -0.32571941614151, -0.26444631814956665, 0.3836495876312256, -0.0745888352394104, -0.047212742269039154, 0.2040480375289917, -0.014109548181295395, 0.0283060260117054, 0.16676074266433716, 0.12160860002040863, -0.2879434823989868, 0.0402415506541729, 0.038015708327293396, -0.10974693298339844, 0.010616879910230637, -0.06767779588699341], [0.17278513312339783, 0.360659658908844, 0.24911339581012726, -0.1728733777999878, 0.0930074155330658, 0.26640987396240234, 0.3014864921569824, 0.2164231836795807, 0.05818694084882736, -0.2865820527076721, 0.06505527347326279, -0.13836807012557983, -0.0430276021361351, 0.04899967461824417, 0.23707237839698792, -0.2078341543674469, 0.08466222882270813, 0.13679513335227966, -0.24094435572624207, -0.02952195331454277, -0.17668122053146362, -0.021375589072704315, 0.12324723601341248, 0.04723716527223587, -0.2555171847343445, -0.14897140860557556, -0.03362187370657921, 0.24940435588359833, -0.1415809690952301, 0.34371089935302734, -0.40042799711227417, 0.5001041889190674], [0.25191372632980347, -0.2151554524898529, -0.21127983927726746, -0.23937666416168213, -0.10515260696411133, -0.11534963548183441, -0.18877919018268585, 0.20587784051895142, -0.09160469472408295, -0.2569195628166199, 0.270526647567749, 0.0805908590555191, -0.06467528641223907, -0.1088019460439682, -0.016914885491132736, -0.2015073597431183, -0.011402778327465057, -0.29173943400382996, -0.23425282537937164, -0.19247835874557495, 0.11828779429197311, -0.2945323884487152, -0.09917107224464417, 0.16640353202819824, 0.20563575625419617, 0.07232406735420227, -0.06160843372344971, -0.0933273583650589, 0.19680127501487732, -0.07405310869216919, -0.09914737939834595, -0.207083597779274], [0.12393691390752792, 0.09975500404834747, 0.11656269431114197, 0.20342141389846802, -0.03483365476131439, -0.23639465868473053, 0.25060200691223145, -0.18942791223526, 0.21310612559318542, 0.28115159273147583, 0.02779632993042469, -0.23113524913787842, -0.18246054649353027, -0.052147410809993744, -0.16166862845420837, 0.040573880076408386, 0.03002285584807396, -0.08271633088588715, 0.0677403062582016, -0.13465644419193268, -0.20108969509601593, 0.22759121656417847, -0.3199622631072998, 0.22661611437797546, -0.17645084857940674, 0.17264923453330994, 0.18161365389823914, 0.029057329520583153, 0.0743829533457756, -0.1705186367034912, -0.20269227027893066, -0.1147705540060997], [0.18505793809890747, 0.15632399916648865, 0.13693398237228394, -0.04036983102560043, 0.005122249945998192, 0.18904352188110352, -0.20111162960529327, 0.19665296375751495, 0.17008358240127563, -0.006751932669430971, -0.14182612299919128, -0.10843387246131897, -0.0748472511768341, -0.08907230198383331, -0.019153449684381485, -0.058089714497327805, 0.04739771783351898, -0.10216140747070312, 0.0036985506303608418, 0.127794086933136, -0.03732716664671898, -0.14515316486358643, 0.22641177475452423, 0.1758299469947815, -0.026800498366355896, -0.25048425793647766, 0.09129944443702698, 0.037258751690387726, 0.09318092465400696, 0.241493821144104, -0.1113988608121872, -0.2649659514427185], [-0.20071396231651306, 0.13189244270324707, -0.22179058194160461, -0.10197915136814117, 0.08181560784578323, 0.13751313090324402, -0.03307589888572693, -0.1500587910413742, 0.1333957016468048, 0.2556766867637634, 0.09338590502738953, -0.28824758529663086, 0.10344446450471878, -0.2805265784263611, 0.18644261360168457, -0.38776731491088867, -0.09414234757423401, 0.058424584567546844, 0.15619736909866333, -0.16972267627716064, -0.04278624802827835, 0.2266579270362854, -0.04699571058154106, 0.11582675576210022, -0.06834788620471954, 0.1163138821721077, 0.30012133717536926, 0.001629744190722704, 0.007787561975419521, 0.07872363924980164, -0.16098818182945251, 0.245802640914917], [0.1423744410276413, -0.05135556682944298, 0.21747469902038574, 0.2799004912376404, 0.24569937586784363, -0.21173572540283203, -0.038290929049253464, 0.1715138852596283, -0.057646363973617554, 0.3654640018939972, 0.25604403018951416, -0.05617907643318176, -0.2501835823059082, 0.006825768388807774, -0.17237001657485962, -0.1732260286808014, -0.13346895575523376, -0.2660605311393738, 0.26437684893608093, 0.4110710024833679, 0.12320995330810547, 0.08089098334312439, 0.22833499312400818, 0.17497962713241577, 0.31879401206970215, -0.12025049328804016, -0.08169834315776825, -0.14509478211402893, 0.020443879067897797, 0.13479363918304443, -0.010092176496982574, -0.036067716777324677], [-0.08902415633201599, -0.28554463386535645, -0.10538461804389954, 0.012365773320198059, 0.1495680958032608, -0.14591717720031738, -0.040765658020973206, 0.13155508041381836, -0.11499540507793427, -0.16479432582855225, -0.0647348165512085, -0.028052691370248795, 0.12077182531356812, -0.222494974732399, 0.03260405734181404, 0.2298203408718109, 0.16083034873008728, -0.13025310635566711, -0.07657722383737564, -0.05911293253302574, 0.18664100766181946, -0.13933806121349335, 0.12413816154003143, 0.2592394948005676, 0.10767753422260284, 0.2849307656288147, -0.09120110422372818, 0.28469371795654297, 0.08383273333311081, -0.07635825872421265, 0.19097566604614258, 0.014746207743883133], [0.023581612855196, -0.04721362143754959, -0.0856894701719284, 0.05367271602153778, -0.16131412982940674, -0.09948329627513885, 0.04329203814268112, -0.09042730927467346, -0.0344407893717289, -0.04745887219905853, -0.19248652458190918, -0.17779210209846497, -0.11047019064426422, 0.1985270082950592, -0.3753449618816376, 0.08191855251789093, 0.16173307597637177, -0.31949305534362793, -0.08686430752277374, -0.13188782334327698, -0.12160081416368484, -0.10378539562225342, -0.03861970826983452, 0.11378559470176697, -0.1357617825269699, 0.0065500494092702866, -0.2526356875896454, -0.1777196228504181, 0.056721676141023636, 0.054063305258750916, -0.033575646579265594, -0.09019622206687927], [-0.2720239758491516, 0.19630113244056702, -0.15527841448783875, -0.31021666526794434, 0.14851798117160797, 0.012946081347763538, 0.04197773337364197, 0.18832586705684662, -0.18671084940433502, 0.03561774268746376, 0.1824193000793457, 0.38558757305145264, 0.3586827516555786, -0.026049606502056122, 0.15069371461868286, 0.2451731264591217, 0.00577844213694334, -0.35754334926605225, -0.25675198435783386, 0.08438479900360107, -0.0010338430292904377, -0.2040690779685974, 0.12264268845319748, -0.012463755905628204, 0.0951123833656311, -0.09692900627851486, -0.024717852473258972, -0.12586262822151184, 0.20705054700374603, 0.12040828168392181, 0.08785846829414368, 0.19968730211257935], [0.12922334671020508, 0.11405621469020844, 0.026912018656730652, 0.01718362793326378, -0.0886615663766861, 0.0726088210940361, -0.12676411867141724, 0.1258249580860138, 0.005704885348677635, -0.23638200759887695, 0.26558613777160645, -0.10196879506111145, -0.08603324741125107, -0.005036578979343176, 0.11734496057033539, 0.12857435643672943, 0.13793005049228668, 0.0710754320025444, 0.11132723838090897, -0.15082138776779175, 0.15145376324653625, 0.08775465190410614, 0.08226321637630463, 0.2390737682580948, 0.12766212224960327, -0.019541040062904358, 0.10945440828800201, 0.2877541780471802, -0.1575956493616104, 0.06000961363315582, -0.3220910131931305, 0.22700996696949005], [0.2433142066001892, -0.25671571493148804, 0.021937541663646698, -0.05523984134197235, -0.22400930523872375, -0.19169579446315765, 0.03892131894826889, -0.05477612465620041, 0.08638615906238556, -0.2425244152545929, -0.2298695147037506, -0.3050478994846344, -0.12147754430770874, -0.15496104955673218, 0.17702847719192505, 0.1134815365076065, 0.21858327090740204, 0.13020099699497223, -0.10053562372922897, -0.1803228259086609, 0.15761587023735046, 0.397895872592926, 0.12060052156448364, -0.08079589903354645, 0.24839887022972107, -0.196416437625885, -0.22157716751098633, 0.164356529712677, -0.32656434178352356, -0.2675187587738037, 0.3115394413471222, -0.18691851198673248], [-0.08018706738948822, -0.2843485474586487, 0.09656523913145065, -0.18708613514900208, -0.00937427394092083, 0.08318726718425751, 0.24932950735092163, -0.19469133019447327, -0.0816594734787941, 0.29683637619018555, 0.021133746951818466, 0.04135735332965851, -0.008833087980747223, -0.03262840211391449, 0.09488339722156525, 0.2758973240852356, 0.09999309480190277, 0.07222943007946014, -0.34630945324897766, -0.21319161355495453, -0.14913201332092285, -0.0997394323348999, -0.09605610370635986, -0.008169615641236305, 0.4843229055404663, -0.11720918864011765, -0.12765130400657654, 0.18795444071292877, -0.03494465723633766, 0.2971583604812622, -0.2433292269706726, 0.01561642810702324], [0.08297808468341827, 0.038937151432037354, 0.018741272389888763, -0.36885786056518555, 0.017705094069242477, -0.2115693986415863, -0.0037048968952149153, 0.4588278532028198, 0.01201682910323143, 0.24228817224502563, 0.4906657040119171, -0.04827409237623215, 0.13159111142158508, -0.27814826369285583, -0.14312630891799927, -0.05173075199127197, -0.32706892490386963, -0.30485862493515015, 0.23382556438446045, -0.22683265805244446, -0.0486021526157856, 0.01241355761885643, 0.16970565915107727, 0.07502947747707367, 0.17350813746452332, -0.010629266500473022, 0.016166556626558304, -0.12533710896968842, 0.13593250513076782, 0.3379210829734802, -0.11927953362464905, -0.31877413392066956], [0.06033331900835037, 0.07194124907255173, 0.10473816096782684, 0.18009346723556519, 0.3124755620956421, -0.02446555718779564, 0.01506870612502098, 0.01904432289302349, -0.013217652216553688, 0.24974454939365387, -0.17484813928604126, -0.10521100461483002, 0.16821464896202087, -0.27316415309906006, -0.12187499552965164, 0.051783736795186996, 0.16387036442756653, -0.14480294287204742, 0.168842613697052, 0.17644545435905457, 0.015677116811275482, -0.24195988476276398, 0.14868678152561188, -0.010267568752169609, 0.14635905623435974, -0.2792595326900482, -0.09205106645822525, 0.04786164313554764, 0.32418304681777954, 0.007569471374154091, 0.08030807971954346, -0.24137696623802185], [-0.08214492350816727, 0.21342512965202332, -0.055682793259620667, 0.41051071882247925, 0.11398855596780777, -0.07126738131046295, 0.11926527321338654, -0.0767575204372406, -0.01234625093638897, 0.36141592264175415, -0.07898037135601044, 0.19218572974205017, 0.2951499819755554, -0.2969127297401428, -0.1615312397480011, -0.31708312034606934, 0.5470855832099915, -0.22535711526870728, 0.07964388281106949, 0.10333599150180817, 0.2066601812839508, -0.012230237945914268, 0.054915159940719604, -0.10347620397806168, 0.06839728355407715, -0.205237478017807, -0.3655564785003662, -0.20559820532798767, 0.03709110617637634, -0.25048884749412537, -0.1642373502254486, 0.18619732558727264], [0.052494317293167114, 0.195992112159729, 0.15605469048023224, -0.07972833514213562, -0.0898297131061554, 0.021308675408363342, -0.2258780598640442, 0.18806740641593933, -0.000498698209412396, -0.011551110073924065, -0.10132603347301483, -0.16244742274284363, 0.2724584639072418, -0.001972798490896821, -0.22747521102428436, 0.11954613029956818, 0.08942651748657227, -0.08925774693489075, -0.19338950514793396, -0.24882033467292786, 0.12405647337436676, -0.05491575598716736, 0.3736651837825775, 0.11882172524929047, 0.06712673604488373, -0.014372669160366058, -0.2680889964103699, -0.36241674423217773, 0.12362644821405411, -0.18881279230117798, 0.06640754640102386, 0.23448199033737183]]}, "2+": {"kernel": [[-0.005354507826268673, 0.004444555379450321, -0.12398107349872589, 0.04817444831132889, -0.15301474928855896, 0.33144381642341614, 0.06796912848949432, -0.07015295326709747, -0.02130822092294693, 0.04343174770474434, 0.2954774498939514, 0.07502254098653793, -0.16894447803497314, 0.19655951857566833, -0.2721783518791199, -0.1201949343085289, -0.19645822048187256, 0.1151561290025711, -0.31538301706314087, -0.10456234216690063, -0.31640923023223877, -0.031244680285453796, 0.3233712911605835, -0.17347058653831482, -0.0921178087592125, 0.18979133665561676, 0.07565459609031677, -0.16224142909049988, -0.03740411624312401, -0.0779377669095993, -0.36780983209609985, -0.14046913385391235], [0.08720044791698456, -0.03761238232254982, 0.10606260597705841, 0.0589325986802578, 0.0735950618982315, 0.168884739279747, 0.33411917090415955, -0.030386701226234436, 0.1665172576904297, 0.09147985279560089, 0.2794545292854309, 0.16312766075134277, 0.20143134891986847, -0.27824562788009644, -0.3093429505825043, 0.04471253231167793, -0.03013172745704651, 0.1371351182460785, -0.2923963665962219, -0.006734425202012062, 0.24869652092456818, -0.23924756050109863, 0.07825375348329544, 0.25886666774749756, -0.007317092269659042, 0.41536736488342285, 0.37418806552886963, 0.03337448835372925, 0.012372180819511414, 0.21159565448760986, 0.005065197125077248, -0.08751676231622696], [-0.0807594507932663, 0.41128432750701904, -0.1019606813788414, -0.12622889876365662, -0.061477042734622955, -0.2779412865638733, 0.24806123971939087, -0.08708996325731277, 0.12716540694236755, 0.30999070405960083, -0.37373483180999756, 0.1483449637889862, 0.14519928395748138, -0.03665884584188461, -0.058507926762104034, -0.25124868750572205, -0.2594425678253174, -0.42476367950439453, 0.17610791325569153, -0.23914268612861633, -0.0950842797756195, -0.03912960737943649, 0.20742163062095642, -0.45058390498161316, -0.29634955525398254, 0.14378978312015533, 0.20681172609329224, -0.18213102221488953, 0.03428153693675995, -0.1951383650302887, -0.043288104236125946, -0.29874566197395325], [0.010215532034635544, 0.037018366158008575, 0.13203231990337372, 0.2399294078350067, 0.12777140736579895, -0.21086850762367249, 0.1604979932308197, 0.17224377393722534, 0.15659499168395996, -0.15930145978927612, -0.07167057693004608, -0.09180445969104767, 0.13587510585784912, 0.05200543999671936, -0.17668575048446655, -0.08968685567378998, -0.2752963900566101, 0.22180840373039246, -0.2280796468257904, 0.16305199265480042, -0.07402713596820831, 0.053115177899599075, 0.09082689881324768, 0.06921101361513138, 0.11375480890274048, -0.002477685222402215, -0.030895104631781578, -0.09892266988754272, -0.07417148351669312, -0.09447474032640457, 0.09733656048774719, -0.10352727770805359], [-0.11696776747703552, -0.0919928029179573, 0.015052933245897293, -0.15002498030662537, 0.03394440561532974, 0.02976662665605545, 0.0031869057565927505, 0.30459582805633545, 0.14056283235549927, -0.00493568554520607, -0.07743673026561737, 0.46004438400268555, 0.052510812878608704, 0.1343793421983719, 0.19283822178840637, 0.15079396963119507, -0.2569754123687744, -0.12257418036460876, -0.18273968994617462, -0.029229845851659775, -0.2181827425956726, 0.17639490962028503, -0.17570161819458008, -0.0017036334611475468, 0.16928988695144653, 0.0710311233997345, -0.30015829205513, 0.06634898483753204, 0.2396981418132782, -0.024391716346144676, -0.19857478141784668, -0.4288029670715332], [0.28587886691093445, 0.05886562541127205, 0.0846581906080246, -0.2885519862174988, 0.19833096861839294, -0.172356516122818, 0.08324000239372253, -0.1484082192182541, -0.20867520570755005, -0.2078983187675476, -0.20905040204524994, 0.09608562290668488, -0.12410387396812439, 0.1584869772195816, 0.2479022592306137, 0.11046168208122253, -0.023550910875201225, -0.05854858458042145, -0.08104252815246582, -0.26391124725341797, 0.11004383862018585, -0.11393006145954132, 0.041481584310531616, 0.08983461558818817, -0.06905525922775269, -0.2901926338672638, -0.16090260446071625, -0.19271090626716614, -0.24707090854644775, 0.1010252833366394, -0.2077793926000595, -0.34015193581581116], [0.3244832158088684, -0.014541205018758774, -0.1365068405866623, -0.05753994733095169, 0.04986905679106712, -0.06419200450181961, -0.06773941218852997, 0.08612404018640518, 0.1399572789669037, -0.01178969256579876, -0.2219940721988678, -0.357937753200531, -0.01156704779714346, 0.31361669301986694, 0.05566200613975525, -0.024244245141744614, 0.16481351852416992, 0.005614521913230419, 0.04111207276582718, -0.1491396427154541, 0.039834581315517426, -0.08432355523109436, 0.10130170732736588, -0.27274298667907715, -0.11002790182828903, 0.145412877202034, 0.16793528199195862, -0.08410999923944473, -0.05300571769475937, 0.045057401061058044, -0.1357538104057312, 0.18953098356723785], [-0.05669083073735237, -0.2452392578125, -0.1027504950761795, 0.4674704372882843, 0.012014493346214294, 0.0766201913356781, 0.2578918933868408, 0.09605458378791809, -0.020601410418748856, 0.07483260333538055, -0.058279749006032944, 0.10105924308300018, 0.1848796308040619, -0.13314767181873322, -0.2764382064342499, 0.1727818250656128, 0.09328746795654297, 0.2672022581100464, -0.20192116498947144, -0.14652344584465027, 0.004892456345260143, 0.018656622618436813, 0.058508485555648804, -0.2624281644821167, 0.2728910446166992, 0.23566961288452148, -0.10987278819084167, -0.12565430998802185, -0.2563287913799286, 0.09094518423080444, 0.16189199686050415, -0.024252843111753464], [-0.09705173969268799, -0.10750284045934677, 0.005944853648543358, -0.07932546734809875, 0.26169276237487793, 0.24933749437332153, -0.08504131436347961, 0.22705048322677612, -0.00930042751133442, -0.18586724996566772, 0.09948445856571198, -0.04170156642794609, -0.33751553297042847, 0.3210931420326233, 0.4055021405220032, -0.12816491723060608, 0.06520611047744751, -0.05867039039731026, 0.20479422807693481, 0.12005037069320679, 0.04636165127158165, -0.24696427583694458, 0.2638888955116272, -0.32704055309295654, -0.08953152596950531, 0.38210177421569824, 0.11373067647218704, 0.04422378912568092, 0.09303517639636993, 0.4174709618091583, 0.2206292748451233, -0.08982226997613907], [-0.08635179698467255, -0.28722453117370605, -0.04891424626111984, 0.2545197010040283, 0.008968140929937363, 0.22803995013237, -0.12812361121177673, -0.2412366271018982, -0.014430761337280273, -0.10821865499019623, 0.11124781519174576, -0.16544422507286072, -0.01585806906223297, -0.2584906816482544, -0.06547197699546814, 0.24071258306503296, 0.04327205568552017, -0.05686840042471886, 0.1865881383419037, -0.016710147261619568, 0.3683394491672516, 0.11165853589773178, 0.022377345710992813, -0.02860448509454727, -0.030747663229703903, -0.026073917746543884, -0.13087402284145355, -0.03790454939007759, 0.01579401269555092, -0.31823843717575073, 0.09505133330821991, 0.2560458779335022], [-0.12760037183761597, -0.043986231088638306, -0.066923588514328, 0.07183894515037537, -0.281566858291626, -0.17013204097747803, 0.24534040689468384, -0.10077831149101257, -0.17863371968269348, 0.3350030779838562, 0.17988987267017365, 0.09366630017757416, 0.3208005428314209, -0.1240106076002121, -0.0817742794752121, -0.031195374205708504, -0.07761745154857635, -0.2457883656024933, -0.05479514226317406, -0.2840569019317627, 0.18358369171619415, 0.29730895161628723, 0.13819271326065063, -0.08059965074062347, 0.21401876211166382, -0.07998412847518921, 0.2415669560432434, 0.012378664687275887, 0.19306093454360962, -0.0034964648075401783, 0.04419185221195221, -0.16010624170303345], [-0.30303817987442017, 0.07223054766654968, 0.32977908849716187, 0.020490583032369614, -0.13361868262290955, -0.2083272933959961, 0.08813846111297607, 0.1100870817899704, 0.1737046092748642, 0.07825785875320435, -0.08903378248214722, -0.22822971642017365, 0.13135746121406555, 0.13678708672523499, -0.034190595149993896, -0.14478184282779694, -0.13093291223049164, -0.09759102761745453, -0.12722909450531006, 0.20371748507022858, -0.2542787194252014, 0.0366998165845871, -0.2099699079990387, -0.016025884076952934, 0.010573256760835648, 0.01822533831000328, 0.27274617552757263, 0.057620540261268616, 0.07867364585399628, 0.20512741804122925, -0.22293707728385925, -0.12772607803344727], [-0.2935478687286377, 0.15625230967998505, 0.31417787075042725, 0.04436107352375984, 0.3297480642795563, -0.27484023571014404, -0.016247788444161415, -0.02666648104786873, 0.01795494183897972, 0.15793266892433167, 0.23222774267196655, -0.33813074231147766, 0.09525193274021149, 0.45921435952186584, 0.04638152942061424, -0.2035042643547058, 0.007376072928309441, 0.11331331729888916, -0.24595928192138672, 0.017155881971120834, -0.03229285031557083, -0.2196374088525772, -0.16901534795761108, -0.03206042945384979, 0.018192293122410774, -0.0945645421743393, -0.08724072575569153, 0.03170723468065262, -0.11199995875358582, 0.06550624966621399, -0.20992854237556458, 0.3461555540561676], [0.034710559993982315, 0.2391785830259323, -0.021753456443548203, 0.015301376581192017, 0.018893666565418243, -0.05446722358465195, -0.05821646749973297, -0.09528662264347076, -0.0815509557723999, -0.2600151300430298, -0.2084784209728241, -0.07464413344860077, -0.23509186506271362, 0.2983474135398865, 0.037360548973083496, 0.02714584209024906, 0.02240297570824623, 0.19923003017902374, -0.2097107321023941, 0.14228950440883636, 0.07416979968547821, -0.04491376131772995, 0.39442968368530273, -0.3144676387310028, 0.11084520816802979, -0.29242566227912903, 0.060967788100242615, -0.13122282922267914, -0.12217094004154205, 0.008995674550533295, -0.004328805021941662, -0.1251506805419922], [-0.16944488883018494, -0.17129679024219513, 0.3379085659980774, 0.01047622412443161, -0.15698495507240295, 0.23629626631736755, 0.2576659321784973, -0.20875369012355804, 0.22248154878616333, 0.1395181268453598, -0.34504276514053345, 0.039753325283527374, 0.1755349189043045, 0.36053216457366943, 0.3107680678367615, -0.009450647979974747, -0.2538158595561981, -0.2741161584854126, -0.22615721821784973, 0.08938761055469513, 0.03730218857526779, -0.08819865435361862, 0.2536654472351074, -0.036002643406391144, -0.05777832865715027, -0.2579190135002136, 0.09172958880662918, 0.0497039295732975, 0.3986107110977173, 0.21090129017829895, 0.22304704785346985, 0.2369626760482788], [0.28250136971473694, -0.06826598942279816, 0.0044974954798817635, -0.17120961844921112, 0.09573882818222046, -0.044187992811203, -0.11068229377269745, -0.17826974391937256, 0.01743725687265396, -0.03959725797176361, -0.0028075133450329304, 0.2773154675960541, -0.1385006606578827, 0.10978034138679504, -0.36817243695259094, 0.04283086955547333, 0.17566151916980743, 0.18151253461837769, -0.08308717608451843, 0.03413522243499756, 0.06835275888442993, -0.017795443534851074, 0.3129660189151764, -0.12175148725509644, 0.14628934860229492, 0.04720788449048996, -0.1395144760608673, 0.0717921033501625, 0.10299693048000336, 0.13594728708267212, 0.04454440623521805, -0.17566576600074768], [-0.06859496235847473, 0.052284158766269684, -0.19938893616199493, -0.15904206037521362, 0.12093749642372131, 0.04026166349649429, -0.11322212219238281, -0.1368265151977539, -0.061498962342739105, 0.07926158607006073, 0.03529758006334305, -0.008483370766043663, 0.07058925181627274, 0.06481988728046417, 0.3345780670642853, -0.22444966435432434, 0.3045644164085388, 0.14736464619636536, 0.05860888585448265, 0.12620583176612854, -0.01984770968556404, -0.11398351192474365, -0.06834672391414642, -0.13993164896965027, -0.06614797562360764, -0.059265729039907455, 0.12974201142787933, -0.18018177151679993, 0.24023911356925964, -0.10109687596559525, 0.18103407323360443, 0.11168155074119568], [0.10928022861480713, -0.1137690395116806, 0.046499863266944885, -0.09242691099643707, 0.26610448956489563, 0.006873277015984058, 0.3739071786403656, -0.09643980860710144, -0.005050891079008579, -0.20568373799324036, -0.005040721967816353, -0.5253030061721802, 0.18037524819374084, 0.29237180948257446, -0.21852655708789825, 0.0006480802549049258, -0.19068914651870728, 0.2536795437335968, -0.1254628449678421, 0.11295068264007568, 0.1064729243516922, -0.1297871172428131, 0.23633790016174316, -0.10435245931148529, -0.2514018416404724, 0.15560516715049744, -0.014333445578813553, -0.1144123524427414, -0.04370133578777313, -0.11379950493574142, -0.2223990559577942, 0.2641007900238037], [0.10783135145902634, 0.019424356520175934, -0.29694294929504395, -0.0024316031485795975, 0.10212486237287521, 0.041276752948760986, -0.1696672886610031, -0.1689271628856659, 0.10163290798664093, -0.0379699245095253, -0.11627466231584549, -0.020992830395698547, 0.23614610731601715, 0.3489818572998047, 0.21131759881973267, -0.1320454478263855, 0.23866626620292664, -0.1083567887544632, 0.15507692098617554, -0.15699580311775208, -0.14435914158821106, -0.0495123453438282, 0.03695768117904663, -0.32851243019104004, 0.01950843632221222, 0.15155118703842163, -0.2289750576019287, -0.22575071454048157, 0.12404739856719971, -0.04724670946598053, -0.19951993227005005, 0.35925713181495667], [-0.04179865121841431, -0.006656451150774956, -0.18179798126220703, 0.06441682577133179, -0.13002905249595642, 0.3089181184768677, -0.32079753279685974, -0.3481757640838623, -0.28729164600372314, 0.013960959389805794, 0.216709166765213, -0.21422788500785828, 0.04580999165773392, 0.0018842655699700117, 0.000377412885427475, 0.3263207674026489, 0.21919415891170502, -0.00485785398632288, -0.16345500946044922, -0.291678249835968, 0.08538973331451416, 0.08619311451911926, 0.2192208617925644, -0.13121123611927032, -0.0732293650507927, 0.20374803245067596, -0.11990030109882355, 0.20962119102478027, 0.23316165804862976, 0.09051356464624405, -0.2134000062942505, 0.2854156494140625], [0.0715656504034996, -0.06077782064676285, 0.06256914138793945, -0.0712481439113617, 0.14465926587581635, -0.3236768841743469, -0.07693533599376678, 0.207036092877388, -0.10413650423288345, -0.32277393341064453, 0.21021907031536102, 0.3400419354438782, 0.2089771330356598, -0.19770044088363647, 0.1481131911277771, -0.215627059340477, 0.1400267779827118, 0.2445697784423828, -0.019779007881879807, -0.20117846131324768, 0.2633128762245178, 0.3139057755470276, 0.042572952806949615, 0.06499497592449188, -0.06288575381040573, -0.2779468595981598, -0.016656596213579178, -0.0755133107304573, -0.37207120656967163, 0.04493262246251106, 0.25039663910865784, -0.16010436415672302], [-0.16332793235778809, 0.07525366544723511, 0.19072267413139343, 0.19925826787948608, 0.07054261863231659, -0.08548253774642944, 0.11232779175043106, -0.16062061488628387, 0.07892999053001404, -0.25933098793029785, -0.040368348360061646, 0.026843026280403137, -0.3586280941963196, -0.3080750107765198, -0.036741435527801514, 0.5208672285079956, 0.20433756709098816, -0.22174274921417236, 0.07961560040712357, 0.13456536829471588, -0.10195674002170563, -0.08468516170978546, 0.25438350439071655, -0.07947899401187897, 0.05459234118461609, 0.4398486614227295, 0.2478783130645752, 0.24179956316947937, -0.06240057200193405, 0.1852104365825653, -0.24836638569831848, 0.34157103300094604], [0.16061069071292877, -0.07035631686449051, -0.1288059949874878, 0.20573250949382782, -0.3690224289894104, -0.12232387065887451, 0.025065377354621887, -0.106385238468647, -0.06698361039161682, 0.19474422931671143, -0.12227089703083038, 0.12235189974308014, 0.08123195171356201, 0.01808031089603901, -0.17450059950351715, 0.2773553133010864, 0.04772605746984482, -0.2006370574235916, -0.11628119647502899, -0.14290958642959595, 0.017313018441200256, -0.15497219562530518, 0.08668079972267151, 0.10648001730442047, 0.12596574425697327, 0.07788722962141037, 0.11952394247055054, -0.0033903305884450674, -0.07202060520648956, 0.008218996226787567, 0.10721655935049057, 0.30705034732818604], [0.10782573372125626, 0.16889965534210205, 0.039808232337236404, 0.23902615904808044, -0.0018096532439813018, -0.20750093460083008, 0.42629438638687134, -0.05254798382520676, -0.08315016329288483, -0.19111835956573486, -0.14146533608436584, -0.03188810497522354, -0.17983728647232056, 0.16936925053596497, 0.14036406576633453, -0.11949611455202103, -0.08557337522506714, -0.06314025819301605, -0.19275237619876862, -0.08976355940103531, 0.027549615129828453, -0.005193334072828293, 0.09397846460342407, -0.2899835705757141, 0.012202445417642593, 0.06487037986516953, 0.1315069943666458, -0.11439604312181473, 0.10638480633497238, 0.1674964725971222, -0.10563135147094727, -0.20178398489952087], [0.43232589960098267, 0.002593636978417635, 0.03726309910416603, 0.18495604395866394, -0.10505281388759613, -0.34810858964920044, -0.005224774591624737, -0.19146646559238434, -0.33152735233306885, -0.03757232427597046, -0.21917027235031128, 0.35200828313827515, 0.17927595973014832, -0.25179874897003174, -0.20695669949054718, -0.22419875860214233, 0.06370603293180466, -0.0011614267714321613, -0.08084310591220856, -0.159915030002594, 0.09245727956295013, -0.09362860023975372, 0.10797269642353058, -0.10950112342834473, -0.18410533666610718, -0.09611601382493973, 0.021034810692071915, -0.0928516834974289, -0.27860644459724426, -0.27305516600608826, -0.08398892730474472, 0.2881711721420288], [-0.267880916595459, 0.10449518263339996, -0.00920101534575224, 0.030148934572935104, -0.09946927428245544, -0.24899940192699432, 0.23036473989486694, 0.14626652002334595, -0.2868330180644989, 0.13256557285785675, 0.2356654703617096, 0.017859678715467453, 0.3436163663864136, 0.10604794323444366, 0.22298356890678406, 0.05806908756494522, -0.05028992146253586, -0.04647671431303024, -0.20998235046863556, 0.2422744631767273, 0.2154855728149414, 0.1202143058180809, -0.25689393281936646, 0.31824159622192383, 0.11119018495082855, -0.2564678490161896, 0.019342944025993347, 0.014311593025922775, 0.3690961003303528, -0.05058464780449867, 0.12747201323509216, -0.17572960257530212], [-0.16716258227825165, -0.08244501054286957, 0.0355071946978569, -0.06536369025707245, -0.16063028573989868, -0.14176449179649353, -0.22101205587387085, 0.12033100426197052, 0.19862347841262817, -0.0854736790060997, -0.42055612802505493, 0.1396065652370453, 0.11915632337331772, -0.11168421804904938, 0.06354950368404388, 0.06739042699337006, -0.1359076201915741, 0.012584525160491467, 0.03774299472570419, 0.07509934902191162, 0.029902921989560127, 0.15444856882095337, -0.2591281235218048, -0.21845906972885132, 0.07846671342849731, 0.1338256299495697, 0.22145193815231323, 0.23725566267967224, 0.3694388270378113, 0.08900541067123413, -0.09939786791801453, -0.05917678028345108], [-0.020816832780838013, 0.019954003393650055, 0.048045556992292404, 0.19633784890174866, -0.21732136607170105, 0.4985463619232178, -0.01923232525587082, 0.1512284129858017, 0.21814243495464325, -0.11226700991392136, 0.05762322619557381, -0.32542502880096436, -0.3868137001991272, 0.2781291604042053, -0.05065196380019188, 0.34931859374046326, -0.31160661578178406, -0.1556902825832367, -0.09041434526443481, 0.027769722044467926, -0.20208999514579773, 0.07122139632701874, 0.0848737359046936, -0.45351070165634155, -0.15008893609046936, -0.2169489562511444, 0.2727479636669159, 0.18135210871696472, 0.02372746914625168, 0.0015087779611349106, -0.3765837252140045, 0.1695539355278015], [-0.24258381128311157, 0.17366907000541687, 0.02416578307747841, 0.1740066111087799, 0.34605440497398376, 0.17343829572200775, 0.3372591733932495, 0.15546885132789612, 0.1514139175415039, -0.34143853187561035, -0.5317919254302979, -0.2931602895259857, -0.026959527283906937, -0.14929407835006714, -0.0620729997754097, 0.3173845410346985, -0.19637256860733032, 0.13374964892864227, -0.14370504021644592, 0.09658157825469971, 0.05054531991481781, -0.266830176115036, -0.0422501303255558, -0.08077467232942581, 0.11401508748531342, 0.024261008948087692, 0.10531532019376755, 0.058637239038944244, -0.08258618414402008, 0.025606174021959305, -0.10536201298236847, 0.10109907388687134], [-0.11718839406967163, -0.0086367791518569, 0.0344550758600235, -0.0028953650034964085, -0.0002279541513416916, -0.16896513104438782, -0.06067638471722603, -0.09069275856018066, -0.2516750991344452, -0.061595797538757324, 0.271666944026947, -0.10795775800943375, -0.021304234862327576, -0.20276524126529694, -0.0986316129565239, 0.16127607226371765, 0.21134185791015625, 0.061071448028087616, -0.08448027074337006, 0.028818577527999878, -0.10046858340501785, 0.057684436440467834, -0.06205174699425697, 0.08627169579267502, 0.10050242394208908, 0.1724373996257782, 0.12180016189813614, 0.07199610024690628, -0.08366645127534866, 0.2201099693775177, -0.061036158353090286, -0.07429364323616028], [0.17162564396858215, 0.15125760436058044, 0.07608281075954437, -0.009787134826183319, -0.01109451986849308, 0.008469917811453342, -0.1652277112007141, -0.27554285526275635, 0.16841450333595276, -0.1831117868423462, 0.3114391267299652, 0.07178343087434769, -0.058092646300792694, -0.3530544340610504, 0.04669724404811859, 0.15532341599464417, 0.031420137733221054, 0.07291877269744873, 0.10477705299854279, -0.1523476392030716, -0.0007023701327852905, -0.08999789506196976, -0.2557121813297272, -0.13962818682193756, -0.1894899308681488, 0.24682487547397614, -0.25306251645088196, 0.17842398583889008, 0.1194780170917511, 0.011495808139443398, -0.05573999509215355, -0.22309961915016174], [0.2174225151538849, -0.24101004004478455, -0.010324581526219845, -0.2060548961162567, -0.10344985127449036, -0.14975392818450928, 0.1487981081008911, 0.047148771584033966, 0.0665106326341629, -0.05351288616657257, 0.4750320017337799, 0.2080138623714447, -0.13549983501434326, 0.046833258122205734, 0.1231636255979538, 0.3695010542869568, -0.051297783851623535, 0.10874419659376144, -0.18812787532806396, 0.1092330664396286, -0.16572999954223633, -0.17010119557380676, -0.035931628197431564, -0.00995337963104248, 0.047549352049827576, 0.14039945602416992, -0.09050095081329346, -0.08568418771028519, -0.046453192830085754, 0.1531989872455597, 0.16759821772575378, 0.12116730958223343]]}, "3-": {"kernel": [[0.05877532809972763, -0.024434175342321396, -0.05642665922641754, -0.0466780886054039, 0.03529743105173111, 0.0804825872182846, 0.1711495816707611, 0.14146625995635986, -0.16186362504959106, -0.017681259661912918, -0.1592613160610199, 0.05162984877824783, -0.06894908845424652, -0.3498101234436035, -0.09756454825401306, 0.185405433177948, -0.03993237391114235, -0.11525890231132507, -0.009075666777789593, 0.17857448756694794, 0.005414905026555061, -0.18943160772323608, -0.03854091465473175, 0.3413563668727875, 0.33320650458335876, -0.072830431163311, 0.46570050716400146, 0.12601710855960846, -0.1547776758670807, 0.32270577549934387, -0.12991173565387726, 0.11844789981842041], [0.05374881997704506, 0.17157554626464844, 0.3611721098423004, 0.24740612506866455, 0.1604299545288086, 0.224266916513443, -0.1719534695148468, 0.018055610358715057, -0.1888645589351654, 0.31900233030319214, 0.08430437743663788, -0.1016726940870285, -0.17510998249053955, -0.06822909414768219, -0.00997132994234562, -0.1590615212917328, -0.0419183149933815, -0.10725342482328415, -0.2358778715133667, 0.14125731587409973, 0.11506237089633942, -0.18869410455226898, 0.028076549991965294, 0.05617095157504082, -0.3490371108055115, -0.4094417095184326, 0.16190826892852783, -0.039358023554086685, 0.20318704843521118, -0.01799982786178589, 0.11574289947748184, 0.3080478310585022], [0.19415327906608582, 0.03132479637861252, 0.3932283818721771, -0.045186132192611694, -0.16402438282966614, -0.135818213224411, 0.24178248643875122, -0.18413124978542328, -0.2378181368112564, 0.017531143501400948, 0.16951578855514526, -0.04372624307870865, 0.012035763822495937, 0.1163797676563263, 0.04303586483001709, 0.047938402742147446, 0.39075738191604614, 0.1578202247619629, 0.08491071313619614, 0.15728670358657837, 0.131343811750412, -0.07379011809825897, -0.26671481132507324, -0.2334187626838684, -0.07286632061004639, -0.0745268315076828, -0.20264935493469238, 0.35779768228530884, 0.2345314621925354, -0.14056584239006042, -0.014096049591898918, -0.1399226188659668], [0.08919322490692139, 0.0700271874666214, 0.1713918149471283, 0.05069286748766899, 0.07561323046684265, 0.04294431209564209, -0.011088323779404163, -0.1296330988407135, 0.3269098997116089, -0.2623802423477173, 0.1646532416343689, -0.058428891003131866, 0.052799683064222336, 0.11787553131580353, -0.1255706548690796, -0.14976368844509125, 0.04589688032865524, -0.18150579929351807, 0.09159579128026962, 0.19638347625732422, -0.2908310890197754, 0.00634784996509552, 0.19254347681999207, 0.14196646213531494, -0.25822263956069946, -0.04754818230867386, 0.13133616745471954, 0.2592214345932007, -0.08908294141292572, -0.03385920077562332, 0.15426737070083618, -0.030550912022590637], [0.06681261211633682, -0.10581032931804657, -0.08761712908744812, -0.1736631989479065, -0.01856382191181183, -0.021291060373187065, 0.25766822695732117, -0.04763079434633255, 0.2879260182380676, 0.3740517497062683, 0.057349927723407745, -0.21746404469013214, -0.024713557213544846, -0.28047817945480347, -0.3140532970428467, -0.14371663331985474, 0.3868560194969177, 0.18292418122291565, 0.14912652969360352, 0.14022701978683472, 0.0055623240768909454, -0.05185873061418533, 0.12255159020423889, -0.15794235467910767, -0.0616796612739563, -0.2640601396560669, 0.15141934156417847, -0.0656200498342514, -0.018809769302606583, -0.24683436751365662, -0.011309395544230938, 0.03843694552779198], [-0.0021907035261392593, -0.020619027316570282, 0.17785796523094177, 0.130723237991333, -0.15503527224063873, -0.05891024321317673, 0.06637351214885712, -0.3950899541378021, -0.04235995560884476, -0.10444699227809906, 0.14661625027656555, 0.204825758934021, 0.11328594386577606, -0.03590156137943268, -0.023562466725707054, 0.20021766424179077, -0.11387085169553757, -0.2792262136936188, 0.023689884692430496, 0.2804151177406311, 0.016059543937444687, -0.10871698707342148, -0.2812892198562622, -0.0666729211807251, -0.0029937149956822395, 0.17820550501346588, -0.1915511190891266, 0.0795406699180603, -0.08506877720355988, 0.07935722172260284, -0.33210068941116333, -0.008980225771665573], [0.1352638602256775, 0.07641814649105072, 0.050615616142749786, 0.3453074097633362, 0.04463232308626175, -0.33551299571990967, -0.028151122853159904, -0.15890344977378845, -0.009013098664581776, -0.07909375429153442, 0.005885779857635498, 0.010068705305457115, -0.21396946907043457, -0.1545364409685135, 0.23182739317417145, -0.14270523190498352, 0.10488176345825195, -0.2082636058330536, 0.23874905705451965, -0.1049589067697525, 0.27968281507492065, 0.04275522381067276, -0.08155035227537155, -0.22346431016921997, -0.037678033113479614, 0.03367318958044052, -0.21097585558891296, 0.1498437225818634, 0.05566338822245598, 0.03197947144508362, -0.17285144329071045, 0.1872144639492035], [0.10749060660600662, 0.18050460517406464, -0.22234629094600677, 0.24816833436489105, 0.03908449411392212, 0.24700197577476501, 0.17365595698356628, -0.10060755908489227, 0.04687006026506424, 0.17211875319480896, 0.14424031972885132, 0.015118924900889397, -0.0032815351150929928, -0.3611909747123718, -0.057635776698589325, 0.11066257953643799, -0.02174396999180317, 0.014746740460395813, -0.06312786042690277, -0.06453061103820801, -0.027114076539874077, 0.05569995567202568, 0.23760393261909485, 0.2949998378753662, 0.3822951912879944, -0.015309706330299377, 0.057343803346157074, 0.033640868961811066, 0.16451212763786316, -0.049849577248096466, -0.15711703896522522, 0.10613805800676346], [-0.24729101359844208, 0.047205567359924316, 0.2607938051223755, 0.1291065812110901, 0.2599634826183319, -0.2965008616447449, -0.13217872381210327, -0.1939777284860611, 0.1432502269744873, 0.10070815682411194, 0.14398303627967834, -0.09815270453691483, -0.12981826066970825, 0.08387240767478943, 0.14497911930084229, -0.24032709002494812, -0.22624051570892334, 0.04249074310064316, 0.045712802559137344, -0.16305264830589294, -0.22741562128067017, -0.19485950469970703, 0.0505836047232151, 0.10185478627681732, 0.1715507209300995, -0.0768398642539978, -0.08657117933034897, -0.24745017290115356, 0.1887574940919876, -0.11686891317367554, -0.1284414827823639, 0.0654519647359848], [-0.012014927342534065, 0.0286111943423748, 0.06587383151054382, -0.30306774377822876, -0.24127472937107086, 0.14212185144424438, -0.19036813080310822, -0.27470844984054565, -0.21105246245861053, -0.15440651774406433, 0.09977830946445465, -0.1361750364303589, 0.12272725999355316, 0.2415822148323059, 0.05596297234296799, 0.052916545420885086, 0.17217278480529785, -0.18749013543128967, -0.18445992469787598, 0.03511373698711395, -0.21417507529258728, 0.2878624200820923, -0.13687461614608765, 0.08871805667877197, 0.051878154277801514, 0.38573533296585083, 0.07291889190673828, 0.005354604218155146, -0.39279884099960327, -0.17607399821281433, 0.11941692978143692, 0.028866514563560486], [0.07558858394622803, 0.14909929037094116, 0.1607198715209961, 0.12631359696388245, 0.010788461193442345, -0.02983906865119934, -0.006444013677537441, 0.013411150313913822, 0.11095850169658661, -0.010781820863485336, -0.11291233450174332, 0.07364590466022491, -0.05572987347841263, -0.16101904213428497, 0.2635567784309387, -0.09711702167987823, 0.2130456566810608, 0.0943312793970108, -0.005154943093657494, 0.2017611712217331, -0.027140047401189804, -0.036146774888038635, -0.1573149561882019, -0.09209971129894257, 0.24030879139900208, -0.3398754596710205, 0.010468168184161186, 0.30381694436073303, 0.18677887320518494, 0.009124839678406715, -0.18305765092372894, 0.05999118089675903], [0.34079456329345703, 0.098160520195961, 0.12377931922674179, 0.07593072950839996, -0.23319119215011597, -0.27001702785491943, 0.2632870078086853, -0.09894372522830963, -0.029957551509141922, -0.2756061553955078, 0.13200926780700684, -0.02921281009912491, 0.09259457886219025, 0.21488070487976074, -0.10378845781087875, 0.1683192253112793, 0.2657817602157593, -0.12546786665916443, 0.20698438584804535, -0.15409567952156067, -0.13186126947402954, 0.13583561778068542, -0.17894099652767181, 0.2442316710948944, -0.3037691116333008, -0.13374298810958862, -0.13152536749839783, 0.1820518672466278, -0.2023797333240509, 0.2546614408493042, 0.037961721420288086, 0.042716044932603836], [-0.006663669366389513, 0.2825894355773926, -0.2597132921218872, -0.1547037810087204, 0.28078532218933105, -0.026973433792591095, 0.17727655172348022, 0.24121257662773132, -0.01447327435016632, -0.07846687734127045, 0.18644943833351135, -0.0458279550075531, 0.36155930161476135, 0.43736782670021057, -0.022697731852531433, 0.076862633228302, -0.1427372694015503, -0.005128077231347561, 0.38103699684143066, -0.02482958510518074, -0.166825070977211, 0.10446840524673462, 0.23787763714790344, 0.09514624625444412, -0.018024731427431107, -0.3086010217666626, 0.03849182277917862, -0.009061625227332115, -0.21109536290168762, -0.07170817255973816, -0.07234138995409012, -0.2476247251033783], [0.3383978009223938, 0.04748062789440155, -0.14102859795093536, 0.4245322346687317, 0.0411287397146225, 0.05147131532430649, 0.02361154556274414, 0.010481053963303566, -0.24210815131664276, 0.07607884705066681, 0.1852586567401886, 0.12117946147918701, -0.02723649889230728, -0.2053329050540924, 0.10770997405052185, -0.14610596001148224, 0.08541297912597656, 0.07396930456161499, -0.4277881979942322, 0.24392998218536377, -0.17366386950016022, 0.1343267560005188, -0.23679712414741516, -0.21970036625862122, 0.15747767686843872, 0.00204050843603909, -0.07844026386737823, 0.06290945410728455, -0.06717965006828308, 0.0021931398659944534, -0.14249637722969055, -0.31539440155029297], [-0.0003893862012773752, 0.2506095767021179, -0.14526128768920898, 0.07289567589759827, -0.18627500534057617, -0.03892649710178375, 0.05186024308204651, -0.013367800042033195, -0.08260048925876617, -0.17851509153842926, -0.018006451427936554, 0.20845340192317963, 0.24101734161376953, 0.10939183831214905, -0.01656191423535347, -0.24634017050266266, -0.2141454517841339, 0.050861842930316925, -0.2478853166103363, 0.41069021821022034, 0.1372220516204834, -0.03934337943792343, -0.3399006128311157, -0.14881500601768494, 0.09588086605072021, -0.004852333106100559, 0.23749172687530518, -0.20597639679908752, -0.09476374089717865, 0.028275681659579277, 0.02319415844976902, -0.23269608616828918], [0.24844974279403687, -0.15491798520088196, -0.1824244260787964, -0.1115446388721466, -0.25433650612831116, -0.16515888273715973, 0.0031229471787810326, -0.06489312648773193, 0.023539014160633087, -0.13734762370586395, -0.010260682553052902, 0.17874783277511597, 0.3237670660018921, -0.33079326152801514, -0.19003374874591827, 0.1549326777458191, 0.031092483550310135, 0.3349006474018097, -0.325755774974823, 0.18852394819259644, -0.053791023790836334, 0.04979346692562103, -0.17309118807315826, -0.05225259065628052, 0.09795662760734558, 0.03370223194360733, 0.004834762308746576, -0.11630746722221375, 0.17045184969902039, -0.1877598911523819, -0.23441854119300842, -0.16144874691963196], [-0.18406477570533752, -0.2992740869522095, 0.2695571184158325, 0.30015167593955994, -0.3052822947502136, 0.12736690044403076, -0.24261614680290222, -0.065574049949646, -0.17939886450767517, 0.0857681930065155, -0.21115252375602722, 0.12088155746459961, -0.18225300312042236, 0.15633516013622284, 0.02454495057463646, 0.09875066578388214, -0.19476275146007538, 0.283564954996109, 0.16658340394496918, -0.1822032928466797, -0.04322310537099838, 0.27550485730171204, 0.20564794540405273, -0.1463947594165802, 0.00938336830586195, -0.3283853530883789, -0.11142346262931824, -0.01736588031053543, -0.08596346527338028, 0.09555044770240784, -0.3433305621147156, -0.027847733348608017], [0.16418883204460144, 0.06608990579843521, 0.10125532001256943, 0.06418854743242264, -0.021787963807582855, -0.2662535011768341, 0.02885514870285988, 0.14158543944358826, -0.060049399733543396, 0.02491389587521553, -0.3204355239868164, -0.3765850067138672, -0.018718838691711426, 0.20144395530223846, 0.15676262974739075, -0.2724030017852783, 0.35017311573028564, 0.08841365575790405, -0.20770233869552612, -0.0414944589138031, 0.10411977767944336, -0.2441178858280182, 0.22087913751602173, -0.14587455987930298, 0.36141252517700195, -0.22076258063316345, 0.22255361080169678, -0.19725468754768372, -0.1070699617266655, 0.2308116853237152, -0.13785052299499512, -0.3146879971027374], [-0.3397231101989746, -0.39066359400749207, 0.12510207295417786, -0.27961355447769165, 0.08542811870574951, -0.14957210421562195, 0.03589867800474167, -0.18947657942771912, -0.08197657763957977, -0.12389720976352692, -0.01887069270014763, -0.10718224942684174, 0.008817294612526894, 0.04580113664269447, -0.13064411282539368, -0.055552080273628235, -0.14615216851234436, -0.04879256337881088, -0.11188065260648727, 0.01565958559513092, 0.031466443091630936, -0.29971855878829956, 0.2932072877883911, 0.03343639150261879, 0.026219243183732033, -0.04270561784505844, 0.05142340809106827, -0.13672852516174316, -0.14607654511928558, 0.1010841354727745, -0.09914703667163849, 0.21839645504951477], [0.22052380442619324, 0.19924798607826233, 0.11548878997564316, -0.1509784758090973, -0.018059197813272476, -0.22622323036193848, -0.20022565126419067, 0.021807080134749413, 0.09107334166765213, -0.28925657272338867, 0.0653643012046814, 0.10841421782970428, 0.15593673288822174, 0.10811133682727814, 0.05818009376525879, -0.030034635215997696, 0.0815008282661438, 0.07318760454654694, -0.0026629858184605837, -0.31879737973213196, 0.14839568734169006, -0.09769436717033386, -0.19173434376716614, 0.03265053778886795, 0.03364592045545578, 0.06675063073635101, 0.13658010959625244, -0.0904497504234314, 0.11329195648431778, 0.11997473239898682, -0.18404898047447205, -0.2646512985229492], [-0.06395649909973145, -0.018686246126890182, -0.08426924049854279, -0.03251700848340988, -0.19070446491241455, -0.1557309627532959, -0.002689387183636427, -0.21801981329917908, -0.21280822157859802, -0.1966261863708496, 0.032474737614393234, 0.19325172901153564, 0.05068380385637283, -0.10388725996017456, -0.08587269484996796, 0.24583658576011658, 0.11117114126682281, -0.013110000640153885, 0.18014055490493774, -0.1440531313419342, -0.0204605832695961, -0.10238774120807648, 0.22831103205680847, 0.056020986288785934, 0.11090651154518127, -0.036374956369400024, -0.054197732359170914, 0.1211986243724823, -0.05151069164276123, 0.257477343082428, -0.22585323452949524, 0.2543438673019409], [0.2838071584701538, 0.11602509766817093, 0.08445414900779724, 0.021884692832827568, -0.29642656445503235, -0.09806863218545914, -0.003802419872954488, -0.22594758868217468, -0.0016336655244231224, -0.1912773847579956, -0.020833440124988556, -0.2745795249938965, -0.08104806393384933, 0.030076123774051666, 0.1155315563082695, 0.34106940031051636, -0.3216063976287842, 0.04857158660888672, 0.1422499418258667, 0.2035997211933136, 0.004852413199841976, -0.19117490947246552, -0.1813104897737503, 0.1745285987854004, -0.22559386491775513, -0.06372494995594025, -0.03132764995098114, 0.008511446416378021, 0.11693187057971954, 0.2953684329986572, 0.19330331683158875, 0.09202077984809875], [-0.0771617516875267, -0.0345970019698143, 0.3765661418437958, -0.07601238787174225, -0.14678660035133362, -0.07540146261453629, 0.132249116897583, 0.2054881453514099, -0.5515848994255066, 0.12202075123786926, 0.13036440312862396, 0.1773165762424469, 0.09836415946483612, -0.35479143261909485, -0.047628968954086304, 0.4343528747558594, 0.14860422909259796, -0.4740351438522339, 0.011064262129366398, 0.3310610055923462, 0.02803817391395569, -0.009204134345054626, -0.29746100306510925, 0.020895671099424362, -0.057301267981529236, -0.08161340653896332, -0.015132620930671692, 0.2187148630619049, -0.15534448623657227, -0.3233872056007385, 0.3971801698207855, 0.05862472951412201], [0.12106435000896454, -0.022830046713352203, 0.1293501853942871, 0.03163626044988632, 0.1495046615600586, -0.3117533326148987, -0.33633363246917725, -0.06497851014137268, 0.11836351454257965, -0.043714359402656555, 0.1167011708021164, -0.3496254086494446, 0.10864504426717758, -0.20098942518234253, -0.1670023798942566, 0.24477659165859222, -0.17402246594429016, 0.07540778815746307, -0.41577109694480896, -0.12541303038597107, -0.3817027509212494, 0.22262057662010193, -0.06357086449861526, 0.10086803138256073, -0.14067670702934265, 0.1906517595052719, 0.1308605968952179, -0.22871527075767517, 0.09436462819576263, -0.17710760235786438, -0.046875230967998505, 0.20349907875061035], [0.2599393129348755, 0.09764871001243591, -0.007494911551475525, 0.09648256003856659, 0.07650435715913773, 0.1908695101737976, -0.021601907908916473, 0.2694050669670105, 0.1471318006515503, -0.3574851453304291, 0.0751771628856659, 0.18732792139053345, 0.07523036003112793, -0.08194969594478607, -0.10685379803180695, 0.11095379292964935, -0.1609596610069275, 0.10385634750127792, -0.19504250586032867, 0.029755020514130592, 0.07123387604951859, -0.059410758316516876, -0.0958230048418045, 0.0792856216430664, -0.07329930365085602, 0.2156200110912323, -0.11126358807086945, 0.08197832107543945, -0.29235589504241943, 0.05358126759529114, 0.33204516768455505, -0.07076520472764969], [0.01569049060344696, 0.036947861313819885, 0.05991915613412857, -0.15642891824245453, 0.00930001214146614, -0.20131915807724, -0.009253570809960365, -0.22480079531669617, 0.17955435812473297, -0.1448976695537567, -0.14939934015274048, -0.21393835544586182, 0.24995678663253784, -0.208503857254982, -0.1295965313911438, -0.05248045176267624, -0.22551149129867554, 0.2920225262641907, -0.12335333228111267, 0.26659053564071655, 0.1798502504825592, 0.03192094713449478, -0.06463892757892609, 0.0008374809985980392, 0.3799983859062195, -0.01480255275964737, -0.03458914905786514, -0.14500117301940918, -0.18757010996341705, -0.017595678567886353, 0.1715584099292755, -0.2337402105331421], [0.1851188838481903, -0.07376999408006668, 0.059973880648612976, -0.20340463519096375, 0.31125473976135254, -0.4924454689025879, -0.08377347886562347, -0.19795608520507812, -0.2487470507621765, 0.026355914771556854, 0.17568297684192657, -0.12341384589672089, -0.23064091801643372, 0.3880796432495117, -0.050089552998542786, -0.19269099831581116, 0.05278703197836876, 0.3560851216316223, -0.15184223651885986, -0.0955694392323494, 0.022541211917996407, 0.03409489989280701, -0.10146971046924591, 0.06904785335063934, -0.2790532410144806, 0.046141669154167175, -0.11321477591991425, 0.05368461459875107, 0.057080186903476715, -0.005118118599057198, -0.06047379598021507, 0.2766950726509094], [0.10292166471481323, -0.03793206065893173, 0.1716727316379547, 0.2502140402793884, -0.256600022315979, 0.12313008308410645, 0.039939191192388535, -0.16916045546531677, -0.011833474040031433, -0.01283763162791729, 0.032082073390483856, -0.08413372933864594, -0.08000712096691132, -0.0003991321427747607, 0.06743688136339188, -0.1115766316652298, -0.04295425862073898, 0.14805880188941956, 0.038514744490385056, 0.1964084804058075, -0.41750508546829224, 0.002260844921693206, -0.006373848766088486, 0.011394897475838661, 0.14536437392234802, -0.1677853763103485, -0.20026928186416626, -0.22939181327819824, -0.23104779422283173, 0.09312345087528229, 0.10967230796813965, -0.3344220519065857], [-0.07358559966087341, -0.29255789518356323, -0.0440797433257103, -0.13412916660308838, -0.04697243124246597, 0.3428328037261963, 0.11553535610437393, -0.051323939114809036, 0.21567997336387634, 0.09756290167570114, -0.13607296347618103, 0.2937024235725403, -0.03813396394252777, 0.4618074893951416, -0.11645637452602386, 0.07624925673007965, -0.15510675311088562, 0.05596131086349487, 0.08055727928876877, -0.28762707114219666, -0.13199664652347565, 0.23722508549690247, -0.1746455430984497, 0.2518726587295532, -0.036536239087581635, -0.017879877239465714, 0.4511650502681732, -0.32162410020828247, 0.09901316463947296, 0.21491283178329468, -0.01304404903203249, -0.11815960705280304], [-0.07142636179924011, -0.010070019401609898, -0.04770407825708389, 0.20952479541301727, -0.19187581539154053, -0.25432467460632324, 0.32862409949302673, 0.10145031660795212, 0.0776205062866211, 0.04482821747660637, -0.04850243777036667, -0.24993817508220673, 0.046887874603271484, 0.29784783720970154, 0.13889354467391968, 0.008699421770870686, 0.025777364149689674, -0.05277857184410095, 0.22138571739196777, 0.0028403387404978275, -0.12510812282562256, -0.24299830198287964, -0.1784960776567459, 0.06853985041379929, -0.2624484896659851, 0.14278191328048706, 0.001221656333655119, 0.20170843601226807, -0.04019581526517868, -0.008737696334719658, -0.10762223601341248, -0.2739426791667938], [0.1314373016357422, 0.005551876500248909, -0.10926508903503418, 0.0488789901137352, -0.34035471081733704, 0.05013791844248772, -0.06023566424846649, -0.2794702649116516, 0.019018352031707764, -0.11925522238016129, 0.20293676853179932, -0.0103400107473135, 0.11295434832572937, -0.03282095119357109, -0.13499870896339417, 0.0883866399526596, -0.22078782320022583, -0.26912450790405273, -0.28821176290512085, 0.24795666337013245, -0.07987528294324875, -0.16165471076965332, 0.1034492552280426, 0.20821349322795868, -0.24889221787452698, 0.07816560566425323, -0.002550909761339426, -0.06946061551570892, 0.05747699737548828, 0.2955368161201477, -0.16408036649227142, -0.053227078169584274], [-0.4940711259841919, -0.2882053256034851, -0.062020231038331985, 0.1176455169916153, -0.3032362461090088, -0.28054213523864746, -0.136854350566864, -0.2433941662311554, 0.008789087645709515, -0.14549404382705688, -0.09341054409742355, 0.12820333242416382, 0.001447102171368897, 0.15944622457027435, 0.13704845309257507, 0.027047840878367424, -0.28166860342025757, -0.10325945913791656, -0.11868816614151001, 0.1636485457420349, -0.06574319303035736, -0.18205910921096802, 0.03645183891057968, -0.11738836765289307, -0.18575309216976166, 0.0038043754175305367, 0.06299042701721191, 0.37271857261657715, 0.07656054198741913, -0.1895577758550644, -0.06478486210107803, 0.2695043087005615]]}, "4+": {"kernel": [[0.3151489198207855, -0.12341034412384033, 0.0363045334815979, -0.3822561204433441, -0.1994132697582245, -0.026395384222269058, -0.14189186692237854, 0.017778541892766953, 0.029922891408205032, 0.20358747243881226, -0.19960108399391174, -0.25053077936172485, 0.2121853232383728, 0.1332205832004547, -0.23726075887680054, -0.0550934374332428, 0.05645192414522171, 0.013695870526134968, -0.07634277641773224, -0.24336431920528412, -0.009989375248551369, 0.13924071192741394, -0.18808695673942566, -0.1327897012233734, 0.08169356733560562, -0.1798056662082672, -0.13890191912651062, -0.0023452877067029476, -0.1041782945394516, 0.11139494180679321, -0.15621697902679443, 0.07962629199028015], [0.23688264191150665, -0.24080443382263184, -0.15772348642349243, 0.29753389954566956, -0.031537242233753204, 0.08937318623065948, -0.010119786486029625, 0.13540109992027283, -0.36004722118377686, 0.05025356262922287, 0.04915629327297211, 0.14657126367092133, -0.12538489699363708, -0.001082033384591341, -0.015119879506528378, -0.2848218083381653, -0.009596027433872223, -0.14557483792304993, -0.09679696708917618, -0.0234622061252594, -0.21724866330623627, -3.6546553019434214e-05, 0.1777142584323883, -0.16989919543266296, 0.06748911738395691, -0.12308776378631592, 0.0321911945939064, 0.010347124189138412, 0.026750195771455765, 0.0058384845033288, -0.014670053496956825, 0.047031790018081665], [0.05251777917146683, -0.03616265952587128, -0.001262896228581667, 0.25738775730133057, 0.09309959411621094, 0.13561788201332092, -0.16581277549266815, 0.3267112374305725, 0.10876120626926422, -0.049357108771800995, -0.3319506049156189, -0.0009741134126670659, 0.10875333845615387, 0.30342724919319153, 0.3219972550868988, 0.2969697415828705, 0.48164665699005127, 0.08822134882211685, -0.14117476344108582, 0.15024839341640472, -0.1801040768623352, -0.004276849329471588, 0.07104876637458801, -0.25881192088127136, -0.24237707257270813, 0.07084426283836365, 0.021077612414956093, -0.18053583800792694, 0.0916886031627655, 0.23759759962558746, 0.20327258110046387, -0.04331260919570923], [0.029954638332128525, -0.16096806526184082, -0.011999119073152542, 0.13095709681510925, -0.05147913098335266, -0.13594260811805725, -0.42255157232284546, -0.12797974050045013, 0.06374642997980118, -0.14769819378852844, 0.19985070824623108, -0.043143246322870255, 0.215389221906662, -0.22593677043914795, -0.026410939171910286, -0.06789417564868927, 0.29915180802345276, 0.06984218209981918, 0.015943467617034912, 0.04276912286877632, -0.013561216183006763, -0.09534123539924622, 0.03998895734548569, 0.02657340094447136, 0.2253500521183014, -0.15630869567394257, -0.2708249092102051, -0.02132079377770424, -0.34405040740966797, 0.05901087075471878, 0.3719860911369324, -0.09914829581975937], [-0.2303004264831543, 0.05864116549491882, 0.11595755070447922, -0.2649332880973816, -0.27745193243026733, 0.13458144664764404, 0.011259286664426327, 0.014136997982859612, -0.17483684420585632, -0.18344008922576904, 0.2908982038497925, -0.18769486248493195, -0.022381354123353958, -0.13729390501976013, 0.11403823643922806, -0.30781638622283936, 0.061676643788814545, 0.14654302597045898, -0.1852741539478302, -0.06155570596456528, 0.16723299026489258, -0.11599013209342957, -0.02986152470111847, -0.20741525292396545, 0.07494910061359406, 0.09151946008205414, -0.1892278790473938, 0.24961048364639282, -0.0023573373910039663, 0.15114155411720276, 0.1159471943974495, -0.13655433058738708], [0.1456499844789505, 0.29058289527893066, 0.17826905846595764, -0.007200443185865879, -0.07620783150196075, -0.08675066381692886, 0.1732347011566162, 0.2116144299507141, 0.08226220309734344, -0.2753320634365082, -0.13719984889030457, 0.0015647700056433678, 0.07496892660856247, -0.0025793432723730803, -0.07340136915445328, -0.09964568167924881, -0.3667587637901306, 0.46099624037742615, 0.07289406657218933, 0.021739721298217773, 0.20075809955596924, -0.19480565190315247, -0.2479850947856903, 0.3335702419281006, -0.13329169154167175, -0.005220334976911545, 0.20305155217647552, 0.12174755334854126, 0.45001086592674255, 0.03019491583108902, -0.07505662739276886, -0.4613100290298462], [0.16185620427131653, -0.2319389283657074, 0.15220236778259277, 0.15075790882110596, 0.23228701949119568, 0.03720998764038086, 0.25378620624542236, -0.02880786918103695, -0.19963859021663666, -0.33467262983322144, -0.011288834735751152, 0.11621443182229996, 0.22637939453125, -0.05191746726632118, -0.24670791625976562, 0.005081980489194393, 0.17267824709415436, 0.10832813382148743, 0.1720135509967804, -0.09115026891231537, -0.3034660816192627, 0.12195055931806564, -0.30031704902648926, -0.0291928518563509, 0.08461088687181473, -0.10016795992851257, -0.2621440291404724, 0.05095416679978371, -0.13348256051540375, 0.2763862609863281, 0.11717899888753891, 0.3875282406806946], [0.140553280711174, -0.10564877092838287, 0.0670279711484909, 0.10181905329227448, 0.12475250661373138, 0.20892687141895294, -0.12497596442699432, -0.024363216012716293, 0.12918537855148315, -0.07079927623271942, 0.17946948111057281, -0.11969254165887833, 0.07958467304706573, -0.07311166822910309, -0.1666872203350067, 0.09391739964485168, 0.08466452360153198, -0.21029217541217804, 0.07014702260494232, -0.09084705263376236, -0.19448190927505493, -0.05549662560224533, -0.08985208719968796, -0.08216333389282227, -0.013555624522268772, -0.004978453740477562, 0.07248155772686005, 0.03584868460893631, -0.31700512766838074, 0.3486535847187042, 0.03217792510986328, -0.1681627333164215], [0.4397181272506714, 0.10017116367816925, -0.11855831742286682, 0.019345715641975403, -0.14726606011390686, 0.1252240240573883, -0.21740014851093292, 0.02445361204445362, -0.14199542999267578, 0.17221489548683167, 0.09824314713478088, -0.5068172216415405, 0.04380854591727257, -0.10993549227714539, 0.20546436309814453, 0.15783563256263733, -0.26285573840141296, -0.1550924926996231, 0.0899721011519432, -0.1313202977180481, -0.07733918726444244, -0.12292823195457458, -0.007626167498528957, 0.3471669554710388, 0.31601011753082275, -0.05724772810935974, -0.03542201220989227, -0.2978878319263458, 0.019996168091893196, 0.04412339627742767, 0.0010722537990659475, -0.037818651646375656], [0.21237877011299133, -0.15556183457374573, -0.059480227530002594, -0.24864041805267334, 0.06645001471042633, -0.0004393609124235809, -0.01671954244375229, 0.12454311549663544, 0.012326037511229515, -0.0052681900560855865, -0.16353315114974976, 0.02853522077202797, 0.1797214299440384, -0.36878740787506104, 0.29706889390945435, -0.07562635838985443, -0.21837621927261353, -0.19809982180595398, 0.11776214838027954, 0.3257488012313843, 0.059099696576595306, 0.4433068633079529, 0.30398988723754883, -0.07055428624153137, -0.183242529630661, -0.09973309934139252, -0.15330174565315247, -0.19375525414943695, 0.1687934398651123, -0.02828633412718773, 0.2185976505279541, 0.10926040261983871], [-0.08872728049755096, 0.07493613660335541, -0.15118777751922607, 0.13384735584259033, -0.0658344179391861, 0.2749277353286743, 0.0597279854118824, -0.08337558060884476, -0.39412835240364075, -0.08662189543247223, 0.06885024905204773, -0.10422751307487488, -0.15036965906620026, 0.0920179933309555, -0.06774502992630005, -0.20489206910133362, 0.2567635774612427, -0.03677025064826012, -0.09688444435596466, 0.3782055675983429, 0.10369685292243958, -0.24407371878623962, -0.08926074206829071, 0.10028134286403656, 0.19503135979175568, 0.01358884945511818, -0.06363753229379654, -0.11403989046812057, 0.030727097764611244, 0.22957143187522888, 0.11999911069869995, 0.1827104091644287], [0.018748436123132706, 0.0141426557675004, -0.03207101672887802, 0.23254767060279846, -0.13439401984214783, -0.30151355266571045, -0.21394872665405273, -0.2864590287208557, -0.08855217695236206, -0.11075516790151596, 0.08551321178674698, 0.22932404279708862, -0.2738551199436188, 0.2695743441581726, 0.07242724299430847, -0.23426800966262817, 0.4799659848213196, -0.1231146976351738, 0.09937398135662079, 0.1296522319316864, -0.07117758691310883, 0.19103199243545532, 0.3835863173007965, 0.07037390768527985, -0.21567049622535706, 0.09100402891635895, 0.06838614493608475, -0.31489741802215576, 0.27097630500793457, 0.11898817867040634, -0.01705746166408062, -0.07519814372062683], [-0.04494659602642059, -0.03719232976436615, 0.11164632439613342, 0.11626127362251282, -0.21913892030715942, -0.21694932878017426, 0.22070549428462982, 0.1830303966999054, -0.00973692536354065, -0.33557578921318054, -0.06690932810306549, 0.07094718515872955, 0.1505383849143982, 0.042374178767204285, -0.07203243672847748, 0.11157771944999695, 0.006702900864183903, -0.00171490921638906, 0.03261379897594452, 0.18529483675956726, -0.05882766842842102, -0.22654256224632263, -0.014214351773262024, -0.030019693076610565, -0.09194742143154144, -0.018181681632995605, -0.1969352811574936, -0.24933567643165588, -0.21949182450771332, -0.22898425161838531, 0.1373739242553711, 0.17272570729255676], [0.004144660197198391, 0.32791265845298767, 0.31155693531036377, -0.24554555118083954, -0.3109837472438812, 0.14534646272659302, 0.31106579303741455, -0.04203673452138901, -0.0970003753900528, 0.1538182646036148, 0.12027323246002197, 0.010151343420147896, -0.15643958747386932, 0.00806872546672821, 0.19636088609695435, -0.21718096733093262, 0.07156990468502045, 0.16473062336444855, -0.21806122362613678, -0.016448859125375748, -0.2426535189151764, 0.06782767176628113, -0.21997232735157013, -0.23586228489875793, 0.005192295648157597, 0.17539283633232117, -0.17061002552509308, 0.10188542306423187, -0.09693749248981476, 0.08905833959579468, 0.3486156165599823, 0.03853803873062134], [0.14982324838638306, -0.12304916977882385, -0.016096467152237892, -0.00938652828335762, 0.18513521552085876, -0.1369507759809494, -0.14581388235092163, -0.3185369372367859, -0.007151434198021889, -0.02875993400812149, 0.0659015029668808, -0.021431751549243927, -0.052755143493413925, -0.2591744065284729, -0.0918576568365097, 0.25599586963653564, 0.08609406650066376, 0.3566354513168335, -0.09875233471393585, 0.04744113236665726, 0.20550134778022766, -0.3383578360080719, -0.06638796627521515, -0.1920526921749115, 0.11370784044265747, 0.1616087704896927, -0.19348949193954468, 0.01774054765701294, 0.4929097294807434, -0.24484416842460632, -0.3344913125038147, -0.38694116473197937], [-0.07381568849086761, 0.1006379947066307, 0.08571562170982361, -0.07408088445663452, -0.04049481824040413, -0.14187148213386536, -0.08057083189487457, -0.11430570483207703, -0.21409361064434052, -0.11235234886407852, 0.00948568806052208, -0.07305070757865906, -0.23283614218235016, 0.08487549424171448, -0.12552833557128906, -0.17596997320652008, 0.05079609155654907, 0.13126671314239502, 0.009144574403762817, 0.012677543796598911, 0.2964509427547455, 0.07838086783885956, -0.16124561429023743, 0.23014816641807556, -0.0013854786520823836, -0.009569276124238968, -0.21250449120998383, -0.16894784569740295, -0.11989305168390274, -0.08289659023284912, 0.04416777566075325, 0.14491865038871765], [-0.09005442261695862, -0.3980018198490143, 0.3724185824394226, -0.07914397120475769, -0.07220828533172607, -0.2688058614730835, 0.11630232632160187, -0.09539367258548737, -0.008081488311290741, 0.08202573657035828, -0.04582090675830841, 