{"params": {"Dense_0": {"0+": {"bias": [0.03310167044401169, -0.03078455850481987, 0.004502173513174057, 0.003808047389611602, 0.014550980180501938, -0.03733586147427559, 0.02802344411611557, -0.005716826766729355, 0.030095694586634636, -0.02595706656575203, -0.016024421900510788, -0.016038259491324425, 0.024851523339748383, 0.04350462928414345, 0.03457283601164818, 0.05739101022481918, 0.031088203191757202, -0.011756940744817257, 0.005335309077054262, -0.0009617945179343224, -0.009493967518210411, 0.003202582709491253, -0.00483746500685811, -0.011723466217517853, 0.01848568767309189, 0.033564500510692596, 0.02826916053891182, -0.025531478226184845, 0.029774947091937065, -0.03388843685388565, 0.01243978925049305, -0.023432115092873573], "kernel": [[-0.11053555458784103, 0.36564165353775024, -0.14565333724021912, 0.25073838233947754, 0.12388697266578674, 0.07613743096590042, 0.00841687060892582, 0.27226734161376953, 0.16503655910491943, -0.18827266991138458, 0.052383556962013245, 0.19768519699573517, -0.425193190574646, -0.4372722804546356, 0.17495614290237427, -0.22861340641975403, 0.0005351367872208357, 0.1821862906217575, -0.11745642125606537, 0.1833861917257309, 0.11699794232845306, 0.10277541726827621, -0.13843628764152527, 0.08848051726818085, 0.3724980354309082, 0.18559172749519348, 0.44166702032089233, -0.12234626710414886, -0.09851107746362686, -0.08585701882839203, 0.08783593773841858, 0.14502549171447754], [0.1190377026796341, -0.18139633536338806, -0.17095640301704407, -0.25604090094566345, 0.2771553695201874, 0.0248103104531765, -0.1753159463405609, -0.15833787620067596, 0.1912344992160797, 0.09416724741458893, 0.15579889714717865, -0.023824550211429596, -0.016496870666742325, -0.1011614203453064, 0.27194157242774963, -0.02359776571393013, 0.2448524534702301, -0.2737618088722229, -0.18025964498519897, -0.08953525871038437, 0.2560698688030243, 0.011986835859715939, 0.27617111802101135, -0.2693028748035431, -0.0953032523393631, -0.3059772849082947, -0.4346243143081665, -0.13807614147663116, -0.3349932134151459, -0.05561302974820137, 0.19553902745246887, 0.22144703567028046], [0.23347008228302002, 0.005303399637341499, -0.20652993023395538, -0.21128763258457184, -0.06906647235155106, -0.1738480031490326, -0.02158946916460991, 0.2611202597618103, -0.02197645604610443, -0.1850060075521469, -0.08836361765861511, -0.174839049577713, -0.07936210930347443, 0.18879680335521698, -0.10202790796756744, 0.02845543809235096, -0.15828987956047058, 0.03495265915989876, 0.15146112442016602, 0.250019371509552, 0.08084969222545624, 0.04222498834133148, -0.38885530829429626, 0.07766194641590118, 0.2510620951652527, -0.2827547788619995, 0.15338540077209473, 0.05901132524013519, 0.1787896752357483, 0.18158552050590515, 0.04731579124927521, 0.0494391955435276], [0.28215569257736206, 0.03308529406785965, -0.19462934136390686, -0.0005294975126162171, 0.10388883948326111, 0.10233861207962036, -0.10800870507955551, -0.019133582711219788, 0.011991784907877445, -0.12334360182285309, -0.03841685503721237, 0.20898377895355225, 0.03803292661905289, 0.0825946182012558, -0.1740436851978302, 0.4308990240097046, -0.13415734469890594, -0.09161267429590225, -0.0564180463552475, -0.10729005932807922, 0.27858561277389526, -0.02669261023402214, -0.2411673665046692, -0.1567670702934265, 0.17709065973758698, -0.1797555387020111, 0.31743767857551575, -0.07679320871829987, 0.03453368321061134, -0.14426353573799133, 0.011686607263982296, -0.2418873906135559], [-0.31021517515182495, -0.026628658175468445, 0.2116849422454834, -0.057982608675956726, 0.014672528952360153, 0.01205764152109623, -0.02402590960264206, -0.10130617022514343, 0.24679940938949585, 0.005294983275234699, 0.11051949858665466, -0.13869811594486237, 0.17064200341701508, 0.06676371395587921, 0.1749405711889267, -0.12156172841787338, 0.2755745053291321, 0.09663505852222443, 0.03204619139432907, 0.1824851930141449, 0.049133073538541794, -0.1535942405462265, -0.0523562990128994, -0.07315683364868164, 0.011568063870072365, -0.1650061309337616, 0.10717180371284485, 0.02386084944009781, 0.11435403674840927, 0.25351589918136597, -0.11193683743476868, 0.1108366996049881], [-0.0644422322511673, 0.05625496804714203, 0.19262415170669556, 0.05289000645279884, 0.15260982513427734, 0.019852839410305023, -0.26789677143096924, 0.18696129322052002, -0.08044049143791199, -0.20211118459701538, -0.1078030988574028, 0.15795975923538208, 0.13732242584228516, 0.2080909162759781, 0.0398215726017952, -0.06335875391960144, -0.29831087589263916, 0.04954206943511963, 0.18527020514011383, 0.08293670415878296, -0.10888933390378952, -0.16728731989860535, -0.12956707179546356, -0.07871641218662262, 0.09018108248710632, -0.015959518030285835, 0.04736139625310898, -0.20838719606399536, 0.07923854887485504, -0.03789133206009865, -0.29431766271591187, -0.014274166896939278], [-0.2738618850708008, -0.1841219663619995, 0.03025956079363823, -0.02642197348177433, -0.09462811052799225, 0.009793557226657867, 0.08635635673999786, 0.018532419577240944, 0.03814389929175377, -0.33688127994537354, -0.05219819024205208, -0.07491567730903625, -0.05207788199186325, -0.17680484056472778, 0.07960546761751175, 0.15641015768051147, 0.2509715259075165, -0.16451051831245422, -0.08305687457323074, -0.07140298187732697, -0.15115785598754883, 0.2915916442871094, 0.15282350778579712, 0.2763516902923584, -0.2736077308654785, 0.17968663573265076, 0.17365685105323792, -0.3393480181694031, 0.2672204077243805, -0.2696268856525421, 0.28914618492126465, 0.18286073207855225], [-0.18382993340492249, 0.08602169156074524, -0.3096396327018738, -0.021555326879024506, -0.1086023598909378, -0.021296463906764984, -0.2657168507575989, -0.07409366965293884, -0.1528097689151764, 0.35567033290863037, 0.2076391577720642, 0.24570652842521667, -0.06128348410129547, 0.09817555546760559, -0.2242209017276764, -0.026956729590892792, -0.12000297009944916, 0.11438417434692383, -0.05452805012464523, 0.010243183001875877, -0.01754048839211464, 0.023942817002534866, -0.20514461398124695, 0.23293180763721466, 0.19662439823150635, -0.29940956830978394, -0.19149497151374817, 0.07162179797887802, 0.04629680886864662, -0.046860210597515106, 0.19298326969146729, -0.09665139019489288], [-0.016742782667279243, 0.01657944545149803, -0.3001404106616974, 0.0983768180012703, -0.05826135724782944, -0.25471633672714233, -0.0009962094482034445, -0.05240946263074875, -0.0856194719672203, -0.24909910559654236, 0.02594461292028427, -0.167184978723526, 0.07864657789468765, -0.06736905872821808, 0.15148389339447021, 0.003166057402268052, -0.2148588001728058, 0.08887515962123871, -0.06659712642431259, 0.20142990350723267, -0.0917721688747406, -0.2785012423992157, -0.0031718015670776367, 0.24153666198253632, -0.0265195332467556, -0.1104213148355484, -0.021654576063156128, -0.13880081474781036, 0.2680545449256897, -0.061550505459308624, 0.10486595332622528, -0.20243260264396667], [0.19641625881195068, 0.11160372942686081, 0.23351851105690002, 0.17139017581939697, 0.07880057394504547, 0.1115529015660286, -0.12682577967643738, 0.16704845428466797, 0.007142011076211929, 0.0023489780724048615, -0.3122856020927429, -0.018412373960018158, -0.20587164163589478, -0.12525618076324463, -0.09528128057718277, -0.21386246383190155, -0.30654817819595337, -0.017271675169467926, -0.08972273021936417, 0.1487046778202057, -0.04775284230709076, -0.09883701801300049, -0.08276250958442688, 0.008199530653655529, 0.020454075187444687, -0.2814149856567383, 0.1867225021123886, -0.05398094654083252, -0.12045444548130035, 0.16391170024871826, -0.15089337527751923, -0.018064364790916443], [0.05972471833229065, -0.059420470148324966, -0.06610479950904846, 0.008714744821190834, -0.17692653834819794, -0.04472906142473221, 0.041041791439056396, -0.031543344259262085, -0.02580522745847702, 0.07443911582231522, 0.09099126607179642, 0.3464373052120209, 0.10587772727012634, 0.19211351871490479, 0.16410139203071594, 0.2217259705066681, -0.0533604733645916, -0.004370391368865967, -0.05848880484700203, -0.05506620183587074, -0.10838951170444489, 0.0861666202545166, -0.05116492509841919, 0.08067283779382706, 0.08589303493499756, 0.13097050786018372, -0.08921042829751968, -0.004645951557904482, -0.0012732152827084064, 0.19365285336971283, 0.0975513905286789, 0.27853477001190186], [0.2076226770877838, -0.030973238870501518, 0.17002522945404053, 0.14044077694416046, -0.25107982754707336, 0.2512146234512329, 0.16324961185455322, -0.16572564840316772, 0.15886598825454712, 0.20759111642837524, 0.0846347063779831, -0.09435999393463135, -0.07689272612333298, 0.5446085929870605, 0.20142042636871338, 0.1372726559638977, 0.08945964276790619, 0.030468672513961792, -0.10492363572120667, 0.19911335408687592, 0.21295422315597534, 0.11594879627227783, -0.02273903787136078, -0.12742727994918823, -0.06727815419435501, 0.13481885194778442, -0.3169345259666443, 0.23621445894241333, 0.16698524355888367, -0.025588836520910263, -0.042935118079185486, 0.13408797979354858], [0.08792738616466522, -0.06908822059631348, -0.16742229461669922, -0.02216709777712822, 0.14774805307388306, -0.20748454332351685, 0.07967200875282288, 0.02467450499534607, 0.22055727243423462, -0.22369728982448578, -0.027902619913220406, -0.20385882258415222, -0.09815461933612823, -0.011951474472880363, -0.08150336146354675, -0.07703457772731781, -0.11747528612613678, 0.15117257833480835, -0.09760329127311707, 0.15530961751937866, -0.0063322121277451515, -0.0067252423614263535, 0.03990817815065384, 0.02406587451696396, 0.1811453104019165, -0.17760445177555084, 0.09633948653936386, 0.12420192360877991, -0.09939953684806824, -0.0012748627923429012, 0.05593390017747879, -0.014909269288182259], [0.04281235486268997, -0.20284995436668396, -0.16665557026863098, -0.1922789067029953, -0.4693349599838257, -0.19555124640464783, -0.022425316274166107, -0.06846705079078674, -0.20366120338439941, -0.002062620362266898, 0.08768260478973389, 0.13927653431892395, -0.0266462042927742, -0.14330905675888062, -0.1332874447107315, 0.19965553283691406, -0.1351127177476883, 0.11415135860443115, 0.049868423491716385, -0.2808694839477539, 0.047365207225084305, -0.075965017080307, -0.12047542631626129, -0.07664458453655243, 0.07101774215698242, 0.34151750802993774, 0.038792211562395096, -0.019536511972546577, 0.12265930324792862, 0.10717004537582397, -0.3274632394313812, -0.140580415725708], [0.06597232073545456, -0.33210617303848267, 0.11225316673517227, -0.04352230578660965, -0.0952400416135788, -0.06628254055976868, -0.18279880285263062, -0.22497977316379547, -0.17685571312904358, 0.2813105881214142, 0.0662066787481308, -0.20320194959640503, -0.07751113176345825, 0.29036322236061096, -0.18817566335201263, -0.2008683681488037, 0.10617043077945709, 0.1350034922361374, 0.17328324913978577, 0.03591366857290268, 0.037351496517658234, 0.04582619667053223, -0.025918802246451378, -0.04646846279501915, 0.002550732344388962, 0.22174519300460815, 0.11465659737586975, 0.1562313288450241, -0.2840729355812073, -0.11614185571670532, -0.22507363557815552, -0.12744969129562378], [0.11908513307571411, 0.18663373589515686, 0.27206218242645264, 0.01805218867957592, 0.13378538191318512, -0.37045353651046753, 0.17761991918087006, 0.06898283958435059, -0.13178002834320068, -0.025365516543388367, -0.04902225732803345, 0.3324317932128906, 0.05276045203208923, 0.059964001178741455, 0.2374344915151596, 0.09469867497682571, -0.07699429988861084, -0.1784764528274536, 0.2961686849594116, -0.22081848978996277, 0.1048804223537445, 0.014312206767499447, 0.2046770453453064, 0.019788164645433426, 0.06553113460540771, 0.205902099609375, 0.054067932069301605, 0.16752523183822632, 0.13341514766216278, 0.1008133739233017, -0.07607490569353104, -0.012852891348302364], [0.1421898752450943, -0.04984773322939873, 0.04812408611178398, 0.02719203382730484, 0.21410402655601501, -0.04063306003808975, -0.005946961231529713, 0.08972565084695816, 0.26676374673843384, -0.06329932808876038, 0.056255631148815155, 0.15103545784950256, 0.09531626105308533, -0.1767405867576599, -0.11010822653770447, -0.15490642189979553, 0.09433603286743164, -0.11972026526927948, -0.021037543192505836, 0.21136228740215302, -0.31107085943222046, 0.08489863574504852, 0.17987248301506042, -0.40350139141082764, -0.32843050360679626, 0.05761668086051941, 0.1533663272857666, 0.022671962156891823, 0.09333916008472443, 0.004645663779228926, 0.025611568242311478, 0.06712205708026886], [-0.43824198842048645, -0.09047497808933258, -0.027713490650057793, 0.07131069898605347, 0.2534297704696655, 0.4261288046836853, 0.09905226528644562, -0.10499349236488342, -0.23981639742851257, -0.024503439664840698, 0.21220695972442627, 0.09704245626926422, -0.0973353236913681, -0.11624808609485626, -0.1389760673046112, -0.29171180725097656, -0.00194175960496068, 0.20129609107971191, -0.0630066841840744, -0.15856102108955383, 0.02186126634478569, 0.0634509027004242, -0.03696904703974724, 0.11862365901470184, 0.025581106543540955, -0.07260581851005554, 0.006279444321990013, 0.02675323560833931, 0.027364782989025116, 0.216586172580719, -0.12434433400630951, -0.019683271646499634], [-0.24478688836097717, -0.13779497146606445, -0.29574984312057495, 0.14025714993476868, -0.1781845986843109, 0.20237474143505096, -0.17420554161071777, -0.24441885948181152, 0.0023942855186760426, -0.23068934679031372, 0.07059736549854279, -0.058053091168403625, 0.021229546517133713, 0.0670447051525116, 0.14048486948013306, 0.3629097640514374, -0.22680345177650452, -0.3034793734550476, -0.07952027022838593, -0.11884099245071411, -0.3376200795173645, -0.17098519206047058, 0.3566635847091675, -0.2936580777168274, -0.17000353336334229, 0.034028854221105576, -0.19981995224952698, -0.210077166557312, -0.20278990268707275, -0.0952993780374527, -0.1838514655828476, 0.09628357738256454], [-0.17048302292823792, -0.29009121656417847, 0.11050280928611755, 0.1024656891822815, 0.03333514928817749, -0.24335864186286926, 0.07908722758293152, 0.05478787049651146, -0.07433164119720459, 0.24616263806819916, -0.10341563820838928, 0.10499945282936096, -0.21934759616851807, -0.177610844373703, 0.02774188481271267, -0.1542535424232483, 0.1300954520702362, 0.10917486995458603, -0.2312541902065277, -0.12205581367015839, -0.06887286901473999, -0.007268882356584072, -0.09242504835128784, -0.04407349228858948, 0.019473668187856674, -0.25719234347343445, -0.15492185950279236, 0.14629670977592468, -0.1633523404598236, -0.058122508227825165, 0.0935182273387909, 0.11821287125349045], [0.08506600558757782, -0.12483412027359009, -0.05649876222014427, -0.04552102088928223, 0.1524631679058075, 0.05355668440461159, -0.17831343412399292, 0.054102543741464615, -0.1676049530506134, 0.041123852133750916, 0.03452438861131668, 0.03762106969952583, -0.1827486753463745, 0.04324251040816307, -0.2217109203338623, -0.25977444648742676, -0.06966814398765564, 0.09971758723258972, 0.07124850153923035, 0.11983849853277206, -0.22421905398368835, 0.05010547116398811, -0.31539422273635864, 0.029553569853305817, -0.22601071000099182, -0.11620362102985382, -0.17223048210144043, -0.09591780602931976, -0.11246305704116821, 0.13927918672561646, 0.24078702926635742, 0.21015441417694092], [-0.11295951902866364, 0.24496188759803772, -0.25145530700683594, 0.0017683630576357245, 0.11060979962348938, -0.22144123911857605, 0.47633862495422363, -0.18949395418167114, 0.09911524504423141, 0.2384185492992401, -0.04602590203285217, 0.07714776694774628, -0.5103017091751099, -0.2246284782886505, -0.052839286625385284, 0.2794288694858551, -0.06361924111843109, -0.0047150542959570885, 0.07963092625141144, -0.29343748092651367, -0.13248729705810547, -0.29290643334388733, -0.013813421130180359, 0.22212862968444824, -0.07944442331790924, 0.17704297602176666, 0.5239559412002563, -0.13703566789627075, -0.22994688153266907, 0.026696447283029556, 0.3164519667625427, -0.20016732811927795], [-0.0944451317191124, 0.04888669028878212, -0.18291978538036346, -0.09753313660621643, -0.16539789736270905, 0.22440043091773987, -0.1419108510017395, -0.1951046586036682, 0.029025020077824593, 0.020780477672815323, 0.10296289622783661, -0.0500379242002964, 0.36044925451278687, -0.08374150842428207, 0.27417004108428955, 0.24106353521347046, -0.14455750584602356, -0.20846587419509888, 0.25993961095809937, -0.004694840870797634, 0.17341461777687073, 0.03349350392818451, 0.048536233603954315, -0.12658435106277466, 0.12019158899784088, -0.1912500560283661, 0.03339092433452606, 0.323602557182312, 0.08159364014863968, 0.03309323638677597, 0.30394184589385986, 0.114943727850914], [-0.26511839032173157, 0.3026399314403534, -0.014778702519834042, -0.2521441578865051, -0.10942253470420837, -0.11834628880023956, 0.031095582991838455, 0.19152824580669403, 0.031884364783763885, 0.14395737648010254, 0.2575092613697052, 0.178521066904068, -0.2487064003944397, 0.15096917748451233, 0.08941877633333206, -0.043249160051345825, 0.0014601971488445997, -0.10654463618993759, -0.015560762956738472, -0.11175020039081573, 0.24601930379867554, 0.04516968876123428, 0.21136769652366638, 0.0327472984790802, 0.20430871844291687, 0.06497380137443542, 0.012512121349573135, 0.0014110475312918425, 0.00839416217058897, 0.3066568076610565, -0.04219398647546768, 0.17398035526275635], [0.2284969687461853, 0.2301231026649475, -0.12137609720230103, -0.06193161755800247, 0.23744305968284607, 0.14671657979488373, 0.2344503253698349, -0.171619713306427, -0.22435343265533447, -0.10078071057796478, -0.01369547937065363, -0.1151641458272934, 0.3236701488494873, -0.10944141447544098, 0.030437201261520386, -0.2809273302555084, 0.26191791892051697, -0.1987520456314087, 0.008797898888587952, 0.2458440214395523, -0.02406626008450985, 0.179153710603714, -0.19930413365364075, 0.32688573002815247, 0.3491516709327698, -0.06770086288452148, 0.03137059137225151, -0.2608952224254608, 0.019436148926615715, -0.1213296428322792, -0.05057910829782486, -0.10369206964969635], [-0.15552455186843872, -0.20360355079174042, 0.2614092528820038, -0.1036883220076561, -0.051957160234451294, 0.19221287965774536, -0.322348952293396, -0.36128535866737366, 0.2968984842300415, -0.17790599167346954, -0.062430135905742645, -0.27073872089385986, -0.3808932304382324, 0.0037297187373042107, -0.10999129712581635, -0.09081027656793594, 0.04113730415701866, 0.009727668017148972, -0.11529028415679932, -0.12127988040447235, -0.27722907066345215, -0.31848305463790894, -0.17190295457839966, -0.2872479557991028, 0.11477654427289963, -0.06412284076213837, -0.23042680323123932, -0.07011312246322632, 0.1642666906118393, 0.10450160503387451, 0.19106876850128174, -0.11208142340183258], [-0.15629729628562927, -0.003588586114346981, 0.015274671837687492, 0.2796896696090698, 0.33510667085647583, -0.11206914484500885, -0.07095590233802795, -0.24709442257881165, -0.1539180725812912, -0.06698779761791229, -0.14084601402282715, -0.20245057344436646, 0.07615037262439728, -0.07472926378250122, -0.13750186562538147, -0.03582023084163666, 0.21390856802463531, -0.020845802500844002, 0.1166858971118927, 0.024630041792988777, -0.12885263562202454, 0.00934736430644989, 0.07361234724521637, -0.03936496749520302, 0.017362479120492935, -0.1791512370109558, 0.27327123284339905, 0.12788552045822144, -0.2216901034116745, -0.010116487741470337, 0.266792893409729, -0.04164236783981323], [0.09731535613536835, 0.012950247153639793, 0.1998845934867859, -0.2728109359741211, 0.059094008058309555, 0.15763773024082184, -0.22101546823978424, 0.07569749653339386, 0.08574891090393066, -0.3817676901817322, -0.1396169364452362, -0.18329572677612305, 0.031573764979839325, -0.03902259096503258, 0.025691941380500793, 0.17880737781524658, 0.3023796081542969, 0.012039058841764927, 0.04369153082370758, -0.01912578195333481, 0.0479753315448761, 0.040450841188430786, 0.04385620355606079, 0.25221970677375793, 0.13973888754844666, -0.1366053968667984, 0.030485911294817924, -0.12749511003494263, 0.11831450462341309, -0.15759941935539246, -0.31018131971359253, 0.027776122093200684], [0.1697688102722168, -0.18936586380004883, -0.05323755741119385, -0.05421249940991402, 0.1034700945019722, -0.17643612623214722, -0.2466890662908554, 0.23409217596054077, -0.0048528509214520454, 0.24857613444328308, 0.13584400713443756, -0.10929415374994278, 0.15882608294487, 0.0784967765212059, -0.07103830575942993, -0.23195776343345642, 0.139253169298172, -0.20982158184051514, -0.2673172950744629, 0.21984584629535675, 0.044121697545051575, 0.0037974705919623375, 0.2166937291622162, -0.11339285224676132, 0.18706992268562317, 0.23052531480789185, -0.0805448666214943, -0.21041741967201233, -0.022315513342618942, -0.10565142333507538, -0.2787986397743225, 0.25923022627830505], [-0.11679751425981522, 0.15023335814476013, 0.18473920226097107, -0.17545023560523987, -0.14369791746139526, 0.28440403938293457, -0.011719594709575176, -0.175840824842453, 0.3285871148109436, -0.15321770310401917, -0.056670576333999634, 0.11254945397377014, 0.1459345817565918, 0.040956996381282806, 0.14246463775634766, 0.03638341277837753, 0.19431960582733154, -0.01856335997581482, 0.13787226378917694, -0.06714838743209839, -0.13367950916290283, -0.11251400411128998, -0.0799526572227478, 0.32271307706832886, 0.01851261965930462, -0.28611287474632263, 0.2619325518608093, 0.08227849006652832, 0.10888180881738663, -0.024153389036655426, 0.022404931485652924, -0.08986464887857437], [0.06039383262395859, 0.17483457922935486, 0.16445587575435638, 0.18030384182929993, 0.31273752450942993, 0.3367316722869873, -0.2866535782814026, -0.031324323266744614, 0.1006210446357727, 0.028536178171634674, 0.10662700980901718, 0.09565413743257523, 0.24133598804473877, 0.05973818898200989, 0.2050156593322754, 0.06305088847875595, -0.027700047940015793, -0.1275937557220459, -0.0945921540260315, -0.10150521993637085, -0.08704160153865814, -0.2986562252044678, -0.26892754435539246, 0.019998423755168915, 0.04257257282733917, 0.26333218812942505, 0.05266136676073074, -0.10131660848855972, -0.2458559274673462, 0.2609073519706726, 0.33994632959365845, 0.05207167565822601], [0.11199121922254562, -0.05248979479074478, -0.26827794313430786, 0.5255299806594849, -0.12441390752792358, 0.12641587853431702, 0.23311322927474976, 0.2637617886066437, 0.002496394794434309, 0.2221592664718628, -0.07790833711624146, 0.2619659900665283, 0.15035808086395264, -0.09667806327342987, -0.09073445200920105, 0.09965786337852478, -0.036793019622564316, 0.1805638074874878, -0.2488468587398529, 0.2923964262008667, -0.03317135572433472, 0.14369411766529083, -0.11008021235466003, -0.027104636654257774, -0.1837894767522812, 0.1629248410463333, 0.2252831608057022, -0.20022106170654297, -0.03827166557312012, -0.14325904846191406, -0.340219110250473, -0.1400391161441803]]}, "1-": {"kernel": [[-0.23090434074401855, 0.13308516144752502, -0.04503743723034859, -0.02538192644715309, -0.15910547971725464, 0.02995031140744686, 0.07149291038513184, -0.027668651193380356, -0.09545929729938507, 0.029166288673877716, -0.23446287214756012, -0.003689900506287813, -0.08467943966388702, -0.20951692759990692, -0.06276397407054901, 0.06333023309707642, -0.14278759062290192, -0.07780525088310242, -0.13856759667396545, 0.30506354570388794, -0.11015525460243225, 0.11932394653558731, -0.20175790786743164, -0.3499903678894043, 0.20640644431114197, -0.024433976039290428, -0.012630065903067589, 0.2477157860994339, -0.03431493416428566, 0.15301138162612915, -0.026392826810479164, -0.24642091989517212], [-0.06502269208431244, 0.46680760383605957, -0.4885607957839966, 0.1326962262392044, 0.5073540210723877, 0.13899432122707367, 0.0004073586023878306, -0.5553291440010071, 0.10172054171562195, 0.2363540083169937, -0.4590414762496948, 0.02517564967274666, -0.029833901673555374, -0.3298078775405884, 0.5925118327140808, 0.00347150769084692, -0.5045087337493896, -0.05619433522224426, 0.37541598081588745, 0.08385884761810303, -0.20942051708698273, -0.16191746294498444, 0.3171767294406891, -0.019223332405090332, 0.1058749333024025, 0.062467657029628754, 0.23004679381847382, 0.08858928084373474, 0.07723325490951538, 0.03823930770158768, 0.20112556219100952, 0.05474573373794556], [0.326010525226593, 0.06547440588474274, -0.2982862889766693, 0.020522847771644592, -0.004888243041932583, -0.19800516963005066, 0.08990083634853363, -0.14235660433769226, 0.2200019657611847, -0.07079274952411652, 0.233271062374115, 0.040515560656785965, 0.2673938274383545, 0.45410317182540894, 0.1105838268995285, 0.06085428223013878, 0.3280375003814697, -0.22091101109981537, 0.0596960075199604, -0.20394013822078705, 0.1794137805700302, 0.011935451999306679, -0.2436331808567047, 0.03753538429737091, 0.30973780155181885, -0.1973613202571869, -0.064014732837677, 0.04219875857234001, 0.24844981729984283, 0.08511374145746231, -0.12658536434173584, -0.32922375202178955], [0.08610266447067261, 0.012011890299618244, -0.17238163948059082, -0.23873458802700043, -0.3848968744277954, -0.08093331754207611, -0.4200831651687622, 0.10157603025436401, 0.41935819387435913, -0.0576673299074173, 0.021588273346424103, -0.030283760279417038, 0.08371643722057343, -0.10847967863082886, 0.06860151886940002, -0.0026962142437696457, -0.014040251262485981, -0.013346482999622822, -0.27209120988845825, 0.15481285750865936, 0.12865087389945984, -0.17173579335212708, -0.3389071524143219, -0.25339558720588684, 0.021022623404860497, -0.08176865428686142, -0.2888091504573822, 0.36025941371917725, -0.2101598083972931, 0.17697198688983917, -0.2526530623435974, -0.02320506051182747], [0.22909390926361084, 0.04344773292541504, -0.15138700604438782, -0.007933313027024269, 0.3376750349998474, 0.4089815020561218, -0.10189090669155121, -0.1730203926563263, -0.023099860176444054, 0.12011551856994629, -0.23208801448345184, 0.20905765891075134, -0.022347422316670418, 0.2662490904331207, -0.20367971062660217, 0.20740582048892975, -0.20178918540477753, -0.21992719173431396, 0.36603689193725586, -0.04018981382250786, -0.37653619050979614, 0.25301384925842285, 0.3521490693092346, 0.046121567487716675, -0.24911576509475708, -0.14170323312282562, 0.5741176009178162, 0.05619353801012039, 0.2838960886001587, 0.03826352581381798, 0.12089191377162933, -0.47666221857070923], [0.2512431740760803, 0.024624541401863098, -0.12650424242019653, 0.3806535005569458, -0.051229022443294525, -0.11148085445165634, -0.16826003789901733, 0.14282846450805664, 0.1825745552778244, 0.03614506870508194, -0.09085769951343536, -0.33892175555229187, 0.37731075286865234, 0.3076748549938202, -0.205886572599411, -0.09923620522022247, 0.1458674669265747, 0.03781820088624954, 0.10741455107927322, 0.2150231897830963, -0.17072665691375732, 0.059532247483730316, 0.14396604895591736, 0.16087768971920013, -0.06375077366828918, -0.10869190096855164, 0.08612889051437378, -0.03269415721297264, 0.0570097491145134, 0.0507611483335495, -0.3117813766002655, -0.2596001625061035], [0.005303198471665382, -0.013594292104244232, 0.008996186777949333, 0.20860475301742554, -0.427002489566803, -0.5867445468902588, 0.14687567949295044, -0.12082181125879288, 0.6232942342758179, -0.7705434560775757, -0.6182237863540649, -0.26876890659332275, -0.551577091217041, 0.14311937987804413, 0.2404758334159851, 0.17513367533683777, 0.12150336802005768, -0.310014009475708, -0.12292631715536118, -0.005898911040276289, -0.06968167424201965, -0.12186665087938309, -0.20422707498073578, -0.45484375953674316, -0.3320339322090149, -0.19801834225654602, 0.4209502339363098, 0.0401381179690361, 0.15745526552200317, -0.39282530546188354, -0.19155602157115936, 0.489494264125824], [0.148851677775383, -0.04847133904695511, 0.0282953642308712, -0.04223845526576042, 0.19971385598182678, 0.26075905561447144, 0.16697615385055542, 0.005772517994046211, 0.0678127259016037, -0.16315022110939026, -0.0179363451898098, -0.14807367324829102, -0.09460018575191498, 0.09661170840263367, -0.09017735719680786, 0.07894571125507355, -0.30602169036865234, 0.4813270568847656, 0.35223129391670227, 0.13727092742919922, -0.04278489574790001, -0.06786401569843292, -0.010298961773514748, 0.130355566740036, -0.15129053592681885, 0.42917829751968384, -0.10372444987297058, 0.17731210589408875, 0.11895120143890381, 0.14808090031147003, 0.15056341886520386, -0.007671268656849861], [-0.08887246251106262, 0.1640816628932953, -0.2424314320087433, 0.20157067477703094, 0.31335026025772095, 0.15789127349853516, 0.29603976011276245, 0.26618480682373047, -0.13266071677207947, -0.11430548876523972, 0.20434707403182983, -0.022196531295776367, 0.2349725067615509, -0.07121609151363373, 0.2945561110973358, -0.024940717965364456, -0.014202864840626717, -0.03647850826382637, 0.02675301767885685, 0.013774970546364784, -0.15009531378746033, -0.08364935219287872, -0.008138264529407024, -0.03371255844831467, 0.16977500915527344, -0.35563886165618896, 0.004597877152264118, -0.13395068049430847, -0.24136847257614136, 0.009873846545815468, 0.16946867108345032, -0.05177512764930725], [-0.3297428488731384, -0.13474825024604797, -0.07200373709201813, 0.3550757169723511, 0.21279478073120117, 0.025817107409238815, 0.1447734534740448, 0.12037282437086105, -0.24285241961479187, 0.009738383814692497, -0.04825689643621445, -0.028523605316877365, 0.09093311429023743, -0.1613388955593109, 0.012794382870197296, 0.1285412609577179, -0.2849544286727905, -0.002891448326408863, 0.18435171246528625, 0.26805904507637024, -0.031362876296043396, 0.24393557012081146, 0.1861255168914795, -0.10150299966335297, 0.10084594786167145, 0.14755138754844666, -0.17855632305145264, 0.1856958270072937, -0.08470708131790161, 0.22363685071468353, 0.03584478795528412, 0.12284578382968903], [-0.11382611095905304, -0.03283053636550903, -0.053620848804712296, 0.01866322010755539, 0.1178276538848877, 0.08742354810237885, 0.2048604041337967, -0.273662805557251, -0.07086101919412613, 0.05234067887067795, -0.08820018917322159, -0.08566395193338394, -0.30634331703186035, 0.0052564567886292934, 0.16015316545963287, 0.05151946097612381, 0.21104121208190918, -0.03367964178323746, -0.1455165445804596, 0.02882508933544159, 0.02044748142361641, -0.006012493744492531, -0.005792457610368729, -0.1128806322813034, 0.17701402306556702, -0.21194598078727722, 0.06582492589950562, -0.2608179450035095, -0.16034480929374695, -0.23108461499214172, 0.1296466588973999, 0.1857856661081314], [0.007359484676271677, 0.08504204452037811, 0.31465864181518555, -0.18768413364887238, 0.0023743677884340286, -0.18359097838401794, 0.09559875726699829, -0.18704615533351898, 0.09801425039768219, 0.024168984964489937, 0.10157883167266846, 0.11932775378227234, -0.024420712143182755, 0.017217697575688362, -0.07591158896684647, 0.04495008662343025, -0.27032697200775146, -0.20612351596355438, 0.13765773177146912, 0.13782337307929993, -0.04545757174491882, 0.1821591705083847, -0.053883589804172516, 0.2981712818145752, -0.08914126455783844, 0.38848036527633667, 0.2435157597064972, -0.028830599039793015, 0.22240492701530457, -0.06138238310813904, 0.20387008786201477, 0.03143888711929321], [0.043722089380025864, -0.03478197008371353, 0.011158084496855736, -0.11392828822135925, 0.14961111545562744, -0.08238893747329712, 0.023207087069749832, -0.09692148119211197, 0.01783900335431099, 0.2737330198287964, -0.2138945311307907, 0.24143710732460022, -0.0016660101246088743, 0.030994785949587822, -0.13187792897224426, -0.15138976275920868, -0.40529584884643555, 0.15195265412330627, -0.2529601454734802, 0.09729402512311935, -0.24043503403663635, -0.004091792274266481, 0.1338324248790741, 0.28897255659103394, 0.07255655527114868, 0.14511318504810333, 0.23693865537643433, -0.31765010952949524, 0.019739840179681778, 0.1795433759689331, 0.1262504756450653, -0.017429595813155174], [0.0654376894235611, -0.2980153560638428, 0.11088897287845612, -0.02541966363787651, 0.07604596763849258, 0.41339802742004395, 0.3468925952911377, -0.0023331691045314074, 0.3695923686027527, 0.14374274015426636, -0.16337788105010986, 0.06326611340045929, 0.07500982284545898, 0.06531818211078644, 0.25688183307647705, 0.1263364553451538, -0.14724582433700562, -0.36897239089012146, 0.16445128619670868, -0.0013695696834474802, -0.0005739312618970871, 0.1373843252658844, 0.10065475106239319, 0.11226225644350052, -0.08703777194023132, -0.023121044039726257, -0.05015312135219574, 0.11687102913856506, 0.2050178349018097, 0.13746210932731628, 0.03459619730710983, 0.10007582604885101], [-0.12114313244819641, 0.0014053069753572345, -0.038756389170885086, 0.22078484296798706, 0.08220755308866501, 0.05470944195985794, -0.23089179396629333, -0.10923413932323456, 0.05696145072579384, -0.26531535387039185, 0.22229695320129395, -0.13653483986854553, -0.30153918266296387, 0.165384903550148, 0.18156132102012634, -0.22254231572151184, -0.21891728043556213, -0.048228826373815536, -0.13055557012557983, -0.11080293357372284, -0.016334470361471176, 0.03782682865858078, -0.11568203568458557, 0.1740119457244873, -0.10314120352268219, -0.341422438621521, -0.26466500759124756, 0.09976184368133545, 0.0034262496046721935, -0.20184151828289032, -0.1935349404811859, 0.18662767112255096], [0.08862024545669556, -0.23929858207702637, 0.10884849727153778, 0.3460179567337036, 0.017955951392650604, 0.5946776270866394, -0.12915685772895813, 0.1024780124425888, -0.21044166386127472, -0.0858425498008728, 0.3135839104652405, -0.28846266865730286, 0.39479756355285645, 0.09589178115129471, 0.005143112502992153, 0.6055302619934082, -0.33899781107902527, -0.12553149461746216, 0.4336397647857666, 0.008395585231482983, 0.05801890045404434, 0.22405478358268738, -0.044838257133960724, -0.12405188381671906, 0.16199292242527008, 0.0774870365858078, -0.4324766993522644, 0.3640134632587433, 0.08859837800264359, -0.01693648472428322, 0.04979240149259567, -0.1259405016899109], [0.15813924372196198, 0.34273892641067505, 0.19300809502601624, -0.21193094551563263, 0.09509044885635376, 0.43271133303642273, -0.008555198088288307, 0.30351710319519043, 0.17060959339141846, -0.2552412748336792, -0.02368145063519478, -0.17731055617332458, -0.14654311537742615, -0.010504079051315784, 0.13614267110824585, -0.4557177424430847, 0.1763227880001068, 0.4393850564956665, -0.010631800629198551, -0.09123028814792633, -0.10935865342617035, -0.182613343000412, 0.15101900696754456, -0.16872063279151917, -0.44871193170547485, -0.11457155644893646, 0.013493434526026249, 0.038585908710956573, -0.043021924793720245, 0.1456339806318283, -0.395763099193573, 0.16116219758987427], [0.23531180620193481, -0.20549803972244263, -0.20802682638168335, -0.2706216871738434, -0.231929212808609, -0.27116984128952026, -0.04910770803689957, 0.2512305676937103, -0.021692104637622833, -0.07342281937599182, 0.27481022477149963, -0.015742704272270203, -0.1681516468524933, -0.23802977800369263, -0.22426313161849976, -0.12736546993255615, 0.0802062526345253, -0.08870333433151245, -0.34415265917778015, -0.35434019565582275, 0.0819968655705452, -0.2585632801055908, -0.2163136899471283, -0.12075742334127426, 0.2165309488773346, -0.0015239497879520059, -0.0036265661474317312, -0.08254198729991913, 0.05317927151918411, -0.27636921405792236, -0.19619032740592957, -0.08676907420158386], [0.061306919902563095, 0.07123935222625732, 0.14505022764205933, 0.1445012390613556, -0.04805886745452881, -0.22673436999320984, 0.3750309348106384, -0.25882482528686523, 0.11594296246767044, 0.32897934317588806, 0.11799266934394836, -0.2305980622768402, -0.18936562538146973, -0.0566679909825325, -0.17218811810016632, 0.11723032593727112, -0.046273842453956604, -0.2144804447889328, -0.006582432426512241, -0.02652851678431034, -0.1182645708322525, 0.27104485034942627, -0.2834223806858063, 0.19908291101455688, 0.052042920142412186, 0.273931622505188, 0.13810262084007263, 0.047619450837373734, -0.02999827265739441, -0.15466850996017456, -0.21603339910507202, -0.12900879979133606], [0.13967037200927734, 0.2800150513648987, 0.17722555994987488, -0.07382627576589584, 0.05482487007975578, 0.28019559383392334, 0.0298134945333004, 0.13538439571857452, 0.130751371383667, 0.07978202402591705, -0.10169476270675659, -0.18639500439167023, -0.1237972229719162, -0.16727375984191895, 0.03568967431783676, 0.0420646071434021, 0.003095185849815607, -0.18544340133666992, -0.07300761342048645, 0.29650378227233887, -0.005523735657334328, -0.1652025580406189, 0.21731296181678772, 0.12752747535705566, 0.10631752014160156, -0.18138456344604492, 0.016077453270554543, 0.020504456013441086, -0.030929990112781525, 0.29005515575408936, -0.06842362880706787, -0.28417760133743286], [-0.20394465327262878, 0.0645318329334259, -0.3068719506263733, -0.06344394385814667, 0.08627966046333313, -0.04258165881037712, 0.13321492075920105, -0.11389433592557907, 0.08073430508375168, 0.05775634944438934, 0.09917428344488144, -0.30289632081985474, 0.16915006935596466, -0.24978184700012207, 0.08695977926254272, -0.4238199293613434, 0.017230700701475143, 0.02305132895708084, 0.13489417731761932, -0.17695465683937073, -0.09316293895244598, 0.18357765674591064, 0.08648372441530228, 0.10938221961259842, -0.014621615409851074, 0.03764801472425461, 0.35364317893981934, -0.27051883935928345, -0.02869575470685959, -0.0016471531707793474, -0.22672389447689056, 0.5009865164756775], [-0.06988857686519623, -0.3363066613674164, 0.31470268964767456, 0.48297637701034546, 0.28162169456481934, -0.24238047003746033, -0.24424171447753906, 0.07429078221321106, -0.14435435831546783, 0.24466733634471893, 0.3121698498725891, -0.005825474858283997, -0.06726743280887604, 0.04763820022344589, -0.22616031765937805, -0.16695019602775574, -0.2548620104789734, -0.25967466831207275, 0.10589861869812012, 0.3158928155899048, 0.09895695000886917, 0.1751137673854828, 0.4461594820022583, 0.2907090187072754, 0.400735080242157, -0.009221527725458145, -0.08253338932991028, 0.08116327226161957, -0.08617031574249268, 0.19344668090343475, 0.04818609356880188, -0.04164351522922516], [-0.028757452964782715, -0.36060765385627747, -0.08818084001541138, 0.11623441427946091, 0.12509603798389435, -0.2609074115753174, -0.3183070421218872, 0.19535550475120544, -0.13292428851127625, -0.2307206392288208, -0.11027400940656662, -0.039754994213581085, 0.1614581197500229, -0.1675243079662323, -0.006936687044799328, 0.11666898429393768, 0.16383296251296997, -0.04415489733219147, 0.0213095061480999, -0.14895260334014893, 0.1443336009979248, -0.16202202439308167, 0.20724782347679138, 0.2586183547973633, 0.006840511225163937, 0.22438135743141174, -0.04720389097929001, 0.31123095750808716, 0.19492655992507935, -0.019796868786215782, 0.16857284307479858, 0.0008981957798823714], [-0.005244688130915165, -0.1556805670261383, -0.11967821419239044, 0.11604562401771545, -0.024370335042476654, -0.0008041297551244497, 0.02720429003238678, 0.0374104306101799, -0.11340102553367615, -0.052361853420734406, -0.2721982002258301, -0.2587886452674866, -0.19784751534461975, 0.1704292595386505, -0.3436143696308136, -0.05649254471063614, 0.2309255301952362, -0.20527788996696472, 0.000308903690893203, -0.0842563733458519, -0.15418434143066406, -0.27637943625450134, 0.1512857973575592, 0.047215741127729416, -0.028131935745477676, 0.009915459901094437, -0.23782199621200562, -0.4904395639896393, 0.08981969952583313, 0.1263582408428192, 0.03550828993320465, -0.14872223138809204], [-0.20545229315757751, 0.33325013518333435, -0.05402164161205292, -0.11657650768756866, 0.2097434550523758, 0.29403871297836304, -0.06323517858982086, 0.43008357286453247, -0.17100924253463745, 0.025236692279577255, 0.13847729563713074, 0.22054478526115417, 0.3340456783771515, 0.0040974803268909454, 0.2764560580253601, 0.09724307060241699, -0.19216150045394897, -0.34383368492126465, -0.05095365643501282, 0.18066707253456116, -0.018497463315725327, -0.1834506243467331, -0.004772529937326908, -0.25454050302505493, 0.1126495972275734, -0.09571583569049835, 0.05863632261753082, 0.23765863478183746, 0.14347916841506958, 0.09651339054107666, 0.14828890562057495, -0.2351120412349701], [0.20745694637298584, 0.03979882970452309, 0.10009042918682098, -0.22757910192012787, -0.16971269249916077, 0.028271909803152084, 0.05299732834100723, 0.21368443965911865, 0.07930315285921097, -0.09136694669723511, 0.32651636004447937, -0.08399135619401932, -0.13656827807426453, -0.016761846840381622, -0.032572172582149506, 0.04597953334450722, 0.15350914001464844, 0.0430077388882637, 0.014465592801570892, -0.15854322910308838, 0.3563900291919708, 0.0266377292573452, -0.11250287294387817, 0.1462939977645874, 0.07727569341659546, 0.008892690762877464, -0.02693038433790207, 0.25231701135635376, -0.1124904453754425, -0.019314853474497795, -0.29192525148391724, 0.18377843499183655], [0.24165134131908417, -0.31787699460983276, 0.11841832101345062, -0.11225368827581406, -0.18374983966350555, -0.11665116995573044, -0.00616854801774025, 0.08538513630628586, 0.0833955705165863, -0.28135573863983154, -0.009681579656898975, -0.21411368250846863, -0.09395749866962433, -0.03634728863835335, 0.14589446783065796, 0.09611214697360992, 0.23948246240615845, 0.13916215300559998, -0.051302410662174225, -0.10578650236129761, 0.3099786341190338, 0.34232425689697266, 0.22440333664417267, -0.07095085084438324, 0.08334469795227051, -0.10147617757320404, -0.26493018865585327, 0.005926076322793961, -0.29453665018081665, -0.33698004484176636, 0.2596592307090759, -0.28943997621536255], [-0.052945129573345184, -0.28733983635902405, 0.1862601935863495, 0.30158287286758423, 0.05577217787504196, 0.029811110347509384, -0.05658716335892677, -0.2589327096939087, -0.11141715943813324, 0.3265461027622223, -0.12648430466651917, -0.06553078442811966, 0.11565600335597992, -0.018552027642726898, 0.05712968856096268, -0.33171558380126953, -0.07841755449771881, 0.15802454948425293, -0.2180323600769043, -0.11915096640586853, -0.11243518441915512, -0.06816577166318893, -0.018472734838724136, 0.12840214371681213, 0.09800633788108826, -0.0868338793516159, -0.16813212633132935, 0.11447364091873169, -0.02034834772348404, 0.3231097161769867, -0.0514768622815609, -0.15174925327301025], [0.050239287316799164, 0.11643888056278229, 0.009369827806949615, -0.06965480744838715, -0.06403693556785583, -0.04780209809541702, -0.07852844893932343, 0.40034207701683044, 0.05849655717611313, 0.14422814548015594, 0.26890817284584045, -0.08092386275529861, 0.029696164652705193, -0.2740403413772583, -0.15130460262298584, 0.07565032690763474, -0.12728695571422577, -0.06152848154306412, 0.11702251434326172, -0.251107394695282, -0.07576647400856018, -0.010199956595897675, -0.09522195905447006, -0.07068826258182526, -0.07771866023540497, 0.09558221697807312, -0.13083134591579437, 0.08310087025165558, 0.03198469430208206, 0.2793410122394562, -0.16836276650428772, -0.2094728797674179], [0.10686410963535309, 0.1781165599822998, -0.06638901680707932, 0.11977056413888931, 0.5843489170074463, 0.02643395960330963, 0.1202128529548645, -0.10046298056840897, -0.017206866294145584, 0.0770072415471077, -0.2467186450958252, -0.17727631330490112, 0.09992645680904388, -0.2654227316379547, 0.021683339029550552, 0.09222833812236786, 0.045892760157585144, -0.1371394246816635, -0.022386884316802025, 0.3093898296356201, -0.020410286262631416, -0.29316866397857666, 0.2894294261932373, 0.06929175555706024, -0.05685676261782646, -0.26127156615257263, 0.02419964037835598, -0.32687586545944214, 0.2721251845359802, -0.011108184233307838, 0.20188280940055847, -0.1053398847579956], [0.09655270725488663, 0.018297243863344193, 0.22578756511211395, 0.4882357716560364, -0.1467186063528061, -0.23438943922519684, -0.042814694344997406, 0.02818993106484413, 0.05945316329598427, -0.01947086676955223, 0.44861453771591187, 0.3868187963962555, 0.5271352529525757, -0.3016200363636017, 0.009085504338145256, 0.27603352069854736, 0.14233428239822388, -0.08346715569496155, -0.3589427173137665, 0.05279790610074997, 0.09422686696052551, -0.09372945874929428, 0.03635811060667038, -0.13623365759849548, 0.5321478843688965, -0.42603635787963867, -0.20609474182128906, 0.2847275137901306, 0.1726769506931305, 0.0241980142891407, -0.3676355481147766, 0.21077010035514832], [-0.07988597452640533, 0.06018117815256119, 0.18689002096652985, -0.07768279314041138, -0.2645086646080017, -0.062023330479860306, -0.04106855019927025, 0.00600582268089056, 0.08565660566091537, 0.23506739735603333, -0.280520498752594, -0.21741855144500732, 0.1542711853981018, -0.05699830502271652, 0.02280087023973465, -0.0550880953669548, 0.03432813286781311, -0.05128338187932968, -0.10566504299640656, -0.35176998376846313, -0.015236913226544857, -0.16276101768016815, 0.2578795552253723, 0.17017529904842377, 0.20251603424549103, -0.15909616649150848, -0.1862431913614273, -0.4138316214084625, -0.002744094468653202, -0.18437132239341736, 0.26036638021469116, 0.35249847173690796]]}}, "Dense_1": {"0+": {"bias": [-0.285656601190567, 0.048882994800806046, 0.06346021592617035, -0.05619464069604874, -0.23996883630752563, -0.30703872442245483, 0.11484312266111374, 0.05743012577295303, 0.0850410908460617, 0.09081725776195526, -0.04830498993396759, 0.07533496618270874, -0.1526850461959839, 0.07829372584819794, 0.03436671942472458, -0.029136711731553078, 0.12383116781711578, -0.13328029215335846, 0.034187525510787964, -0.005852082744240761, -0.01450326107442379, 0.07412166893482208, -0.2255496233701706, 0.09913115203380585, -0.22750332951545715, -0.12105073034763336, -0.14508181810379028, 0.1649576872587204, -0.2323722243309021, 0.0818679928779602, 0.00855848379433155, 0.04680519923567772], "kernel": [[-0.31954240798950195, -0.03738189488649368, -0.17668956518173218, 0.028639916330575943, -0.4036450982093811, -0.32301563024520874, 0.40045660734176636, -0.025856956839561462, -0.18134061992168427, 0.30911171436309814, 0.23786437511444092, -0.1602756381034851, -0.3638191223144531, 0.3083791434764862, 0.051309697329998016, -0.21102577447891235, -0.14975933730602264, -0.3061637282371521, -0.24949496984481812, 0.13836082816123962, 0.24525904655456543, -0.06794384866952896, -0.061320140957832336, 0.11832140386104584, -0.0571637786924839, -0.46745505928993225, -0.15984311699867249, 0.1681506335735321, -0.26479572057724, -0.05556898191571236, -0.32564041018486023, 0.2428290843963623], [0.5726542472839355, -0.5244150161743164, 0.17973534762859344, 0.4376935362815857, 0.22149980068206787, 0.21028758585453033, -0.14939939975738525, 0.07765411585569382, 0.0010864103678613901, -0.03300582617521286, 0.38518601655960083, 0.3468603491783142, 0.1910046488046646, -0.06847705692052841, 0.5020843744277954, 0.2081325352191925, -0.32180356979370117, -0.09893327951431274, 0.5881407260894775, 0.18073174357414246, -0.22543704509735107, 0.17787966132164001, -0.014456506818532944, -0.6568759679794312, 0.2958351969718933, 0.4712355136871338, 0.09298262745141983, -0.15967848896980286, 0.4907678961753845, -0.0036120794247835875, 0.031441740691661835, -0.5057957172393799], [-0.11465594917535782, -0.13921642303466797, 0.03309408575296402, 0.3994661569595337, -0.2946103811264038, -0.4244862496852875, 0.5355485677719116, -0.19863489270210266, -0.24695852398872375, 0.5587853193283081, -0.14306509494781494, -0.5494822263717651, -0.29449594020843506, 0.18585500121116638, -0.3962852954864502, 0.058172211050987244, 0.2964986562728882, -0.2994678020477295, -0.5319468379020691, -0.19586600363254547, 0.48504433035850525, 0.2982851266860962, -0.028688443824648857, 0.2916237711906433, 0.0021402444690465927, -0.02981284260749817, -0.26909375190734863, 0.8035165071487427, 0.06347361207008362, -0.1565442979335785, 0.9759358167648315, 0.6485060453414917], [0.02919371798634529, -0.12362196296453476, 0.23919841647148132, -0.12157060950994492, 0.26093268394470215, -0.08745597302913666, 0.19045516848564148, -0.37058648467063904, 0.03329199552536011, 0.07219447940587997, -0.20457243919372559, -0.011224782094359398, -0.03016691841185093, 0.03705930709838867, -0.051514025777578354, 0.23368626832962036, -0.13579826056957245, 0.105376236140728, 0.050355710089206696, -0.2172372043132782, 0.07868389785289764, -0.13632047176361084, 0.1912529468536377, 0.18544942140579224, -0.02410641312599182, 0.14707612991333008, 0.1716960370540619, 0.0628272145986557, -0.1462951898574829, 0.3536892533302307, 0.20459648966789246, -0.15949103236198425], [-0.38918718695640564, -0.2634945213794708, 0.22395288944244385, -0.005600012838840485, 0.006755087524652481, -0.12004035711288452, -0.31020301580429077, 0.11727701127529144, -0.07380861043930054, -0.33961552381515503, -0.019998855888843536, 0.04492153599858284, 0.15871930122375488, -0.314308762550354, 0.20989783108234406, 0.12987013161182404, 0.3040463626384735, 0.07110834121704102, -0.0166061669588089, 0.069112628698349, 0.09977324306964874, -0.7734928131103516, -0.2022809535264969, -0.004156133159995079, -0.05534546077251434, -0.04022618383169174, -0.2609017491340637, -0.6014764308929443, 0.1279803067445755, -0.044983524829149246, -0.5882915258407593, -0.3116329610347748], [-0.35502123832702637, 0.2603674829006195, -0.48748210072517395, -0.0587802529335022, -0.1474374234676361, -0.2128339409828186, -0.23690387606620789, 0.6787829399108887, -0.4183160066604614, 0.5309789180755615, -0.5062221884727478, -0.18071207404136658, -0.12384438514709473, -0.13368967175483704, -0.22750213742256165, 0.3521292507648468, 0.2929406762123108, 0.0076064360328018665, -0.4150640368461609, -0.172394797205925, 0.2877838611602783, -0.2699745297431946, 0.03097083792090416, 0.2506306767463684, -0.13695108890533447, -0.05456710606813431, -0.2442314475774765, -0.20139634609222412, -0.1642252802848816, -0.13696138560771942, -0.040343839675188065, 0.06519017368555069], [-0.2354920506477356, 0.41275134682655334, -0.22121058404445648, -0.19485849142074585, 0.100288987159729, 0.1635294258594513, -0.005784396082162857, -0.046476684510707855, -0.19168269634246826, 0.15295998752117157, 0.07140186429023743, -0.39710867404937744, -0.24474698305130005, -0.1106245219707489, -0.3096266984939575, -0.06748233735561371, 0.35035112500190735, -0.29388248920440674, 0.19162681698799133, 0.24325931072235107, -0.08464191854000092, -0.2684711515903473, 0.027485404163599014, -0.19531455636024475, -0.028823763132095337, 0.06225726753473282, -0.31678506731987, 0.014160707592964172, 0.22748085856437683, 0.1743929386138916, -0.13087628781795502, 0.244981586933136], [0.000794293824583292, -0.49505850672721863, -0.062029700726270676, -0.037798553705215454, 0.24093814194202423, -0.19898411631584167, 0.09628187865018845, -0.18719235062599182, -0.11615388840436935, 0.040573857724666595, 0.010222261771559715, 0.04232129454612732, -0.24524042010307312, 0.11637265980243683, 0.30279964208602905, 0.2297714203596115, 0.0034286961890757084, -0.060403481125831604, 0.05892273038625717, -0.15905804932117462, -0.37181827425956726, 0.005530951544642448, 0.1589500457048416, -0.3245164155960083, 0.40509819984436035, 0.34464365243911743, 0.08077958226203918, -0.048901863396167755, -0.0733766108751297, 0.3490146994590759, 0.3202860951423645, -0.13566696643829346], [0.12213385105133057, -0.38299399614334106, -0.27109649777412415, 0.2893367409706116, -0.0206307265907526, 0.06246132031083107, -0.046022094786167145, 0.20370236039161682, -0.33246171474456787, 0.0421924814581871, -0.17082853615283966, -0.14534418284893036, 0.30037161707878113, -0.3520216941833496, -0.19020773470401764, 0.024532191455364227, 0.409043550491333, 0.2189750075340271, -0.08645300567150116, 0.26453083753585815, -0.1257220208644867, -0.033049121499061584, -0.27570950984954834, -0.0851895809173584, -0.29085248708724976, -0.03913077339529991, 0.029386553913354874, -0.13241130113601685, 0.050338760018348694, -0.08919234573841095, -0.04135079309344292, -0.1640632152557373], [-0.26440736651420593, 0.37685614824295044, -0.37099626660346985, -0.1609685719013214, -0.3526652753353119, -0.24606435000896454, -0.33213159441947937, 0.47614121437072754, -0.08970333635807037, 0.10180710256099701, -0.40039658546447754, -0.521449863910675, -0.03350171074271202, -0.15927545726299286, -0.08850961923599243, 0.3836565613746643, -0.0886058658361435, 0.05434124544262886, 0.13397586345672607, 0.5132517218589783, 0.087527334690094, 0.033605098724365234, 0.020434226840734482, 0.0763501524925232, -0.23627297580242157, -0.5098469257354736, -0.32099026441574097, 0.15556254982948303, 0.059435099363327026, 0.06141173839569092, -0.18274728953838348, 0.01370142586529255], [0.037817224860191345, -0.25318896770477295, 0.0504877008497715, -0.17884033918380737, 0.07468250393867493, 0.4620067775249481, 0.3066596984863281, -0.05296089127659798, 0.08807422965765, -0.22179821133613586, 0.09477730095386505, 0.23617586493492126, 0.07120155543088913, 0.10921548306941986, -0.3736497163772583, -0.1502458155155182, -0.05627701058983803, -0.5542888641357422, -0.03682541102170944, 0.07409724593162537, 0.020613092929124832, 0.21323320269584656, 0.13716700673103333, -0.01351669430732727, 0.07038809359073639, 0.40910470485687256, 0.08082699775695801, 0.07644827663898468, 0.1542896181344986, 0.1906660944223404, 0.28100717067718506, -0.033524736762046814], [-0.26823121309280396, -0.0036823847331106663, -0.1736237108707428, 0.15942129492759705, -0.402579665184021, -0.03268003463745117, -0.014845967292785645, 0.0005704450304619968, -0.3605418801307678, 0.3053644895553589, 0.13490593433380127, 0.08048812299966812, 0.29677391052246094, -0.46547240018844604, 0.1862478256225586, -0.20520997047424316, 0.2250148057937622, 0.464760959148407, -0.265625536441803, -0.004111905582249165, -0.04260924458503723, -0.39593374729156494, -0.0770435631275177, -0.12220165133476257, 0.19999659061431885, -0.042644716799259186, 0.19244574010372162, -0.37143367528915405, -0.1267697513103485, -0.001149570569396019, 0.02274024859070778, -0.05712735652923584], [-0.15382754802703857, 0.08546192198991776, -0.505483865737915, 0.004349776543676853, 0.2032759189605713, -0.09072937816381454, 0.03236622363328934, 0.11886997520923615, -0.10813376307487488, -0.03582412004470825, 0.28762826323509216, -0.1473587453365326, 0.08285076916217804, -0.5698431730270386, -0.09469281136989594, -0.048360150307416916, 0.06585255265235901, 0.45807403326034546, -0.08345001935958862, -0.06402923911809921, 0.03647320717573166, 0.23494896292686462, -0.053585946559906006, 0.26827162504196167, -0.16632439196109772, 0.09335959702730179, 0.1521710455417633, -0.4950340986251831, 0.06272803246974945, -0.3114240765571594, -0.5340538024902344, -0.163141667842865], [0.16823431849479675, 0.051810700446367264, 0.32060736417770386, -0.26867973804473877, -0.016693569719791412, 0.1596604883670807, 0.15318173170089722, -0.09518449008464813, 0.13870739936828613, 0.07969018816947937, -0.0926278755068779, -0.11657211184501648, -0.1847822666168213, -0.2844572067260742, -0.23191100358963013, -0.2154383808374405, -0.22181689739227295, -0.10820923745632172, -0.20046725869178772, -0.19420161843299866, 0.3663579821586609, -0.07032443583011627, -0.31364065408706665, -0.09545087814331055, -0.3573310077190399, 0.11994346231222153, 0.10710650682449341, -0.21732299029827118, 0.20140552520751953, 0.3981053829193115, 0.22533226013183594, -0.15223634243011475], [-0.15223515033721924, 0.2483302503824234, 0.17055758833885193, -0.34795159101486206, -0.24115298688411713, -0.3738991320133209, 0.12443133443593979, -0.35055261850357056, -0.12697942554950714, -0.2410818636417389, -0.18397796154022217, -0.1248789057135582, -0.30665022134780884, 0.3115134835243225, -0.28843259811401367, 0.6048706769943237, 0.3792165517807007, -0.19165435433387756, -0.2510419487953186, -0.27130451798439026, 0.4489741325378418, -0.16386708617210388, -0.020794879645109177, 0.05697641521692276, -0.025218229740858078, -0.07169678062200546, 0.10763560235500336, 0.330120325088501, 0.2604120373725891, 0.08316925168037415, 0.1773809790611267, 0.09633619338274002], [0.09121581166982651, 0.0019404932390898466, -0.13304810225963593, -0.11280175298452377, -0.3659040331840515, -0.021527614444494247, 0.10337698459625244, 0.020197566598653793, 0.030478965491056442, 0.055246397852897644, -0.2848266363143921, 0.2831784188747406, -0.17895987629890442, 0.22292327880859375, 0.31364914774894714, 0.12910997867584229, -0.12910142540931702, -0.3520492911338806, 0.15038904547691345, 0.21401849389076233, 0.2918669283390045, 0.18894483149051666, -0.3661423325538635, 0.09614868462085724, -0.5003564953804016, -0.3203728199005127, -0.3608720302581787, 0.16555625200271606, -0.10170303285121918, 0.00021073923562653363, 0.3160020112991333, 0.29498785734176636], [0.3175530433654785, 0.2470499575138092, 0.2144525945186615, -0.2960246503353119, 0.1454087793827057, 0.12186071276664734, 0.05281304195523262, 0.06715721637010574, -0.14350509643554688, 0.2000906616449356, -0.38648200035095215, 0.09619764983654022, 0.10515515506267548, 0.07171838730573654, 0.04499977082014084, -0.1277937889099121, 0.12830427289009094, 0.12453866004943848, -0.11931604146957397, -0.28058069944381714, 0.11155541241168976, 0.10848428308963776, 0.10092425346374512, -0.18315905332565308, 0.05025463178753853, -0.11347469687461853, -0.15299886465072632, -0.12659752368927002, -0.1239573284983635, 0.017977572977542877, -0.1962154358625412, -0.00929483212530613], [-0.1672065556049347, -0.17212647199630737, -0.23829641938209534, -0.0016592119354754686, -0.14681881666183472, -0.09152217209339142, -0.11080634593963623, 0.2564089298248291, -0.02674078196287155, -0.14818666875362396, -0.23547032475471497, 0.10997365415096283, -0.16850736737251282, -0.32533693313598633, -0.040928713977336884, 0.08194439113140106, 0.22648179531097412, -0.4030677378177643, 0.3809087872505188, -0.08006928861141205, -0.036101676523685455, 0.05080936849117279, -0.17333105206489563, 0.187185138463974, -0.1750924289226532, 0.2970224618911743, -0.10592938959598541, -0.13272614777088165, -0.05466620624065399, -0.040584102272987366, -0.2772265672683716, 0.35911500453948975], [-0.34570640325546265, 0.012301996350288391, 0.3115842342376709, -0.08061762154102325, -0.17850899696350098, -0.4681583642959595, 0.0927354246377945, -0.07670845091342926, 0.017952291294932365, 0.1868586540222168, -0.14609141647815704, -0.03110506385564804, -0.36924850940704346, -0.06711900234222412, -0.23431748151779175, -0.05990636348724365, 0.09941902756690979, -0.16085520386695862, 0.0346265584230423, -0.17625319957733154, 0.05287741869688034, 0.307476669549942, -0.39013683795928955, 0.24204221367835999, -0.3487986922264099, -0.34178102016448975, -0.4396370053291321, 0.21413828432559967, -0.2258712202310562, 0.1792169213294983, 0.3568059802055359, 0.015437046065926552], [-0.003165255766361952, 0.3896128833293915, -0.052719373255968094, -0.22542452812194824, -0.3361676335334778, -0.26766547560691833, -0.12899452447891235, -0.09718767553567886, -0.43902522325515747, 0.38112950325012207, -0.5250881910324097, 0.08210570365190506, -0.12392330169677734, -0.045055240392684937, -0.2826206088066101, 0.28991538286209106, 0.29907307028770447, -0.04021069407463074, -0.07431285828351974, 0.014624455943703651, 0.06385533511638641, 0.23663479089736938, -0.03946357220411301, 0.4562966823577881, -0.20519863069057465, 0.07334545999765396, 0.011200377717614174, 0.124168761074543, 0.20048020780086517, 0.32577016949653625, 0.2653219699859619, 0.1534259021282196], [0.3549417555332184, -0.2730180621147156, -0.17167970538139343, -0.28321343660354614, 0.31913626194000244, 0.1738327592611313, -0.08654022216796875, 0.06494403630495071, 0.08722174912691116, -0.3773719072341919, 0.07849998772144318, 0.1676364243030548, -0.22728103399276733, 0.2662956416606903, -0.0565074197947979, 0.013747334480285645, -0.32771575450897217, -0.2665758430957794, -0.04932478815317154, -0.4244178533554077, 0.35537058115005493, 0.21790355443954468, 0.015476366505026817, -0.19797471165657043, -0.011667352169752121, 0.056215427815914154, 0.05969887599349022, 0.259671151638031, 0.07803458720445633, 0.08528335392475128, 0.15983262658119202, -0.06369887292385101], [0.17419159412384033, -0.17018580436706543, 0.08762907981872559, 0.31068259477615356, -0.1533278077840805, -0.07168516516685486, -0.2194451093673706, -0.004191915038973093, 0.08238676935434341, -0.09041742980480194, 0.2746373414993286, -0.30329400300979614, -0.2475282996892929, -0.31947600841522217, -0.044955745339393616, -0.221751868724823, -0.4071509838104248, -0.016892224550247192, 0.17996230721473694, -0.011382132768630981, -0.1309991180896759, 0.3377840518951416, -0.03391692042350769, 0.18958941102027893, -0.06874644756317139, 0.09147404134273529, -0.17667284607887268, -0.4177783131599426, -0.16071783006191254, 0.018844548612833023, 0.016415666788816452, -0.038177210837602615], [0.12239350378513336, 0.19252340495586395, 0.04562996327877045, -0.0270095132291317, 0.14614462852478027, 0.09268726408481598, -0.03367782384157181, 0.08803582191467285, -0.1697673499584198, 0.36091160774230957, -0.9104287028312683, 0.033140867948532104, -0.01049065962433815, 0.434642493724823, -0.4237934350967407, -0.26497647166252136, 0.3810344934463501, -0.12837457656860352, -0.42122185230255127, -0.3258758783340454, 0.17237669229507446, 0.6527260541915894, 0.13315223157405853, 0.30181241035461426, 0.08342930674552917, 0.15497156977653503, 0.4014298915863037, 0.7353464961051941, 0.1772077977657318, 0.5089553594589233, 0.8651028275489807, -0.2311503142118454], [0.19628044962882996, 0.09341612458229065, 0.02997327595949173, -0.11649993062019348, -0.09644164144992828, 0.18577444553375244, -0.08468276262283325, -0.04087258502840996, -0.09247495234012604, 0.07625000178813934, 0.17508482933044434, 0.0966498851776123, -0.17018809914588928, 0.13861370086669922, -0.05682443827390671, 0.2636392414569855, -0.018879372626543045, -0.24943402409553528, 0.06676915287971497, 0.03162826970219612, 0.32807374000549316, 0.17304018139839172, 0.3476722836494446, 0.25422215461730957, 0.05759014934301376, -0.017362505197525024, -0.27276161313056946, -0.09070772677659988, -0.12291198968887329, -0.02527167648077011, -0.24011290073394775, 0.028135769069194794], [0.05605340749025345, 0.2368118166923523, -0.2606772184371948, 0.12542852759361267, 0.14947909116744995, -0.0967932716012001, 0.33040475845336914, -0.05366462469100952, 0.056687913835048676, 0.0015269635478034616, -0.04049157351255417, 0.2716345191001892, 0.21876350045204163, 0.09189074486494064, -0.004618008621037006, -0.12395429611206055, 0.006816491950303316, 0.20557254552841187, 0.23665598034858704, -0.35095107555389404, -0.07511064410209656, 0.0571308508515358, -0.023623282089829445, -0.21788270771503448, 0.11403027176856995, 0.046575769782066345, 0.18255530297756195, -0.17126011848449707, -0.09764858335256577, -0.03240469843149185, -0.006490881554782391, 0.046602264046669006], [-0.2871236205101013, -0.06306132674217224, -0.18890687823295593, 0.26590538024902344, -0.10052113234996796, -0.25366145372390747, -0.5060813426971436, 0.30824583768844604, 0.06494227051734924, 0.32051581144332886, 0.15049812197685242, 0.06884557008743286, -0.31907665729522705, -0.3808645009994507, 0.12406422942876816, -0.05356776714324951, -0.13739940524101257, -0.001781807979568839, 0.0459827184677124, 0.13997343182563782, 0.0743776485323906, -0.15693330764770508, 0.024593736976385117, -0.14211325347423553, -0.08700940012931824, -0.08471709489822388, -0.18914954364299774, -0.554178774356842, -0.20630879700183868, -0.1986236572265625, -0.05795496329665184, 0.2985510528087616], [0.09443597495555878, -0.326543390750885, 0.13885822892189026, 0.4550397992134094, 0.1019386425614357, -0.5037258267402649, -0.07889482378959656, -0.40465569496154785, -0.009808731265366077, -0.42651575803756714, -0.02686549723148346, 0.41622525453567505, 0.0677788034081459, -0.04447954148054123, 0.3630543053150177, 0.28758227825164795, 0.002839389257133007, -0.3569571077823639, 0.7909990549087524, -0.44597649574279785, -0.22336411476135254, -0.3259282112121582, 0.11322422325611115, -0.19820420444011688, -0.027829265221953392, -0.006538547575473785, -0.04298510029911995, -0.725394606590271, -0.130512997508049, 0.3701791763305664, 0.21466714143753052, -0.18292051553726196], [-0.2675720453262329, 0.09113049507141113, -0.1353251039981842, 0.08659031242132187, -0.14702177047729492, 0.05409548059105873, -0.20755356550216675, 0.06078997626900673, 0.30200594663619995, -0.3046668767929077, 0.09532783925533295, 0.1428948938846588, -0.4187377691268921, -0.040167324244976044, 0.14800935983657837, 0.3958618640899658, 0.19303835928440094, -0.06328446418046951, -0.03754991292953491, -0.14591899514198303, 0.037066660821437836, 0.06891171634197235, -0.10190536081790924, 0.127824068069458, 0.09293267875909805, -0.09136274456977844, -0.012367786839604378, -0.16133153438568115, -0.15526701509952545, -0.1322993040084839, -0.3058493733406067, 0.19027841091156006], [0.07897324860095978, 0.07883225381374359, -0.03020157665014267, 0.18995314836502075, -0.1528431475162506, -0.4694802463054657, 0.0996188372373581, 0.04981212317943573, 0.1554119884967804, 0.02181939035654068, 0.059727683663368225, -0.09861545264720917, -0.19551178812980652, 0.02934778854250908, 0.07793652266263962, -0.025204326957464218, 0.08515036106109619, 0.0984460711479187, -0.07559113204479218, -0.3221721053123474, -0.01946188323199749, 0.17850080132484436, -0.6103764772415161, 0.19539879262447357, -0.3857465386390686, -0.10214643180370331, -0.5139853954315186, 0.12313376367092133, -0.4280913472175598, -0.10124316811561584, 0.1450684368610382, 0.08565689623355865], [0.21201705932617188, 0.12157683819532394, 0.04130995273590088, 0.09144991636276245, 0.14655503630638123, 0.016666056588292122, -0.3201349973678589, 0.047126781195402145, -0.025165151804685593, -0.18077799677848816, 0.09395617246627808, -0.099457286298275, -0.016176871955394745, 0.39620816707611084, -0.21432143449783325, -0.005319615826010704, 0.10164960473775864, -0.03470107540488243, 0.06360951066017151, -0.11329791694879532, -0.3092101216316223, 0.02913159877061844, 0.08350670337677002, 0.1054048240184784, 0.13347619771957397, -0.11771023273468018, 0.0977296382188797, 0.30089670419692993, 0.16183887422084808, -0.19341737031936646, -0.21764832735061646, 0.23523595929145813], [-0.40312474966049194, 0.49948787689208984, -0.7394357919692993, -0.19246719777584076, 0.04130853712558746, 0.12223748862743378, -0.6644640564918518, 0.49429652094841003, -0.3856903314590454, 0.08804349601268768, 0.07236194610595703, -0.12436677515506744, -0.1251230239868164, -0.21606621146202087, 0.02146047167479992, 0.5358789563179016, 0.04271779954433441, 0.14241351187229156, 0.02520758844912052, -0.03530067950487137, -0.11320126056671143, -0.07827894389629364, -0.05396212264895439, 0.44347983598709106, 0.2414311170578003, -0.43456345796585083, 0.25716158747673035, -0.7012452483177185, 0.28012651205062866, -0.2720468044281006, -0.22197656333446503, -0.20564110577106476], [-0.198076993227005, 0.13289809226989746, -0.29918479919433594, 0.28668880462646484, -0.10284671187400818, -0.1527288258075714, 0.02616501785814762, 0.01946141943335533, -0.2988913655281067, -0.08923433721065521, 0.01434015017002821, -0.3003476858139038, -0.30799850821495056, -0.2757321298122406, -0.25580263137817383, 0.01122535765171051, 0.27609550952911377, -0.14865007996559143, -0.5068320035934448, 0.1954648494720459, 0.26833096146583557, -0.09048135578632355, 0.09758923202753067, -0.0424484945833683, 0.038261961191892624, -0.07181994616985321, -0.26765692234039307, 0.05370568111538887, 0.23782329261302948, 0.08541049808263779, -0.027170436456799507, 0.23345674574375153]]}, "0-": {"kernel": [[-0.1362149715423584, 0.24153068661689758, -0.16494835913181305, -0.11898145824670792, 0.020954294130206108, 0.23443388938903809, 0.2796013653278351, -0.17126184701919556, 0.22963538765907288, 0.09494553506374359, 0.0916554257273674, -0.17146849632263184, -0.06693342328071594, 0.1113852709531784, -0.3417152762413025, -0.14778728783130646, 0.18628740310668945, -0.32142823934555054, 0.14925548434257507, -0.01685367152094841, 0.24229642748832703, -0.3187865614891052, 0.13163715600967407, -0.004658895544707775, -0.13476666808128357, 0.16505803167819977, -0.12682411074638367, -0.2119165062904358, 0.07091964036226273, -0.004878479987382889, -0.17055641114711761, 0.27045363187789917], [-0.2020513415336609, 0.0990179032087326, -0.1309589147567749, -0.11576969176530838, 0.3647018074989319, -0.07719280570745468, 0.32169651985168457, -0.048664070665836334, 0.14212000370025635, -0.17160946130752563, 0.137393981218338, -0.14019900560379028, 0.09483844041824341, 0.12587590515613556, 0.3240320682525635, -0.018028724938631058, 0.26732611656188965, -0.12727533280849457, -0.1901753544807434, -0.10256853699684143, 0.1491260826587677, -0.1936749666929245, -0.036587901413440704, -0.17691704630851746, -0.006492696702480316, -0.13999831676483154, -0.26163339614868164, 0.3690814971923828, 0.1745293140411377, 0.06424495577812195, 0.023659106343984604, -0.20050501823425293], [0.18489718437194824, 0.24958020448684692, -0.04070167988538742, -0.1023789644241333, -0.02715243771672249, -0.2878536880016327, -0.0653943419456482, -0.07346801459789276, -0.0030679223127663136, 0.27049845457077026, 0.14951297640800476, 0.12415442615747452, 0.20816543698310852, 0.021302159875631332, 0.3050658702850342, -0.1482355296611786, 0.14536046981811523, 0.12848210334777832, -0.035292379558086395, 0.009354542940855026, -0.11681989580392838, 0.008653540164232254, 0.12358357012271881, -0.08343202620744705, 0.13765938580036163, 0.041682735085487366, -0.1971738338470459, 0.1109851747751236, -0.10414724051952362, 0.2995889186859131, 0.15160855650901794, -0.2523766756057739], [0.1111256554722786, -0.09642845392227173, 0.3026413917541504, 0.28745710849761963, -0.06661668419837952, -0.38425412774086, -0.005039776675403118, -0.03724031150341034, 0.08500321209430695, 0.1604228913784027, -0.2051386535167694, -0.06866495311260223, -0.06461864709854126, 0.17929238080978394, -0.07189390063285828, 0.04378959536552429, -0.20332375168800354, 0.05805756151676178, -0.33726441860198975, 0.02331993356347084, 0.014582542702555656, 0.24385875463485718, -0.20093852281570435, -0.001576574519276619, 0.3071720600128174, -0.3228914141654968, 0.20515212416648865, 0.3217151463031769, -0.12690117955207825, 0.0175609327852726, 0.048843204975128174, -0.022669266909360886], [0.11643242090940475, -0.09639470279216766, -0.11257843673229218, -0.40167224407196045, -0.23021063208580017, -0.23529182374477386, -0.14088885486125946, 0.14721041917800903, -0.256658136844635, -0.1144208014011383, -0.06375902891159058, -0.03239798545837402, -0.1791258156299591, 0.03403419256210327, -0.3306910991668701, -0.3123232126235962, 0.11973839998245239, -0.013562477193772793, 0.22513744235038757, -0.18419836461544037, -0.014264388009905815, -0.03025759384036064, -0.00015382166020572186, -0.2659027874469757, 0.02601226419210434, -0.3344271183013916, 0.012104950845241547, -0.020615525543689728, 0.13760948181152344, -0.25160032510757446, 0.07255557924509048, -0.15922048687934875], [0.39437103271484375, -0.030280034989118576, -0.18950413167476654, -0.2375049591064453, -0.2510377764701843, -0.019274163991212845, 0.3387910723686218, -0.3146474361419678, -0.3288012146949768, -0.056351371109485626, -0.13112589716911316, 0.020019417628645897, -0.28598135709762573, -0.18040993809700012, 0.4771302342414856, -0.0055115860886871815, 0.11340251564979553, -0.06879150867462158, -0.1753118336200714, 0.1914578378200531, -0.04581860080361366, 0.449649453163147, 0.07083567976951599, -0.1267576515674591, -0.5362057685852051, -0.23946021497249603, 0.45892661809921265, 0.1258840262889862, -0.03666947782039642, 0.01435905508697033, -0.20469039678573608, -0.1153380274772644], [-0.07858617603778839, 0.08118404448032379, 0.09724407643079758, 0.3341049551963806, -0.14647021889686584, -0.15486112236976624, -0.03333990275859833, 0.14849674701690674, -0.2896600365638733, -0.1854669451713562, -0.3435957431793213, -0.0028477762825787067, 0.06282874196767807, 0.09884369373321533, 0.09900715947151184, -0.10153927654027939, -0.16835075616836548, -0.25570976734161377, -0.09504484385251999, -0.16416442394256592, -0.06131114810705185, 0.04091689735651016, -0.02474718913435936, -0.3340620696544647, 0.35611268877983093, -0.36759114265441895, -0.29099589586257935, 0.4916015863418579, -0.2908622622489929, -0.010058160871267319, -0.076901875436306, -0.0908890962600708], [-0.20040610432624817, -0.3004417419433594, 0.051840461790561676, -0.07505185902118683, -0.32259440422058105, 0.13168543577194214, -0.11754709482192993, -0.39448314905166626, 0.15027618408203125, -0.19445392489433289, -0.01726642996072769, 0.14382702112197876, 0.29688358306884766, -0.21702414751052856, 0.08745035529136658, -0.025074981153011322, 0.00450074952095747, -0.1634514331817627, 0.11377782374620438, 0.11809777468442917, 0.2774677276611328, -0.13458088040351868, -0.2238905429840088, 0.11899882555007935, 0.12966260313987732, 0.2850687503814697, 0.036856167018413544, 0.024197150021791458, -0.024665504693984985, 0.05781903117895126, 0.06382332742214203, 0.1885247826576233], [0.20700986683368683, 0.20419250428676605, 0.1786624789237976, -0.15573623776435852, 0.26250889897346497, 0.39894717931747437, -0.06385980546474457, 0.3540020287036896, 0.4163552522659302, 0.17735342681407928, 0.16616621613502502, 0.13872453570365906, 0.14298304915428162, -0.20790983736515045, 0.4814477264881134, 0.057610951364040375, -0.28048020601272583, -0.33248138427734375, -0.15679824352264404, 0.0924585834145546, -0.21024350821971893, 0.12941840291023254, 0.26555585861206055, 0.10428129881620407, 0.2698243260383606, -0.165161594748497, -0.1397523283958435, -0.3174017667770386, 0.22409266233444214, -0.040714867413043976, -0.07214164733886719, 0.15724530816078186], [0.12130066752433777, 0.24575944244861603, 0.03253166377544403, 0.11016365885734558, 0.023004790768027306, 0.2908029556274414, -0.3090563416481018, -0.01612645387649536, 0.2812565565109253, -0.14713311195373535, 0.025632333010435104, -0.011827779933810234, 0.3147111237049103, -0.10182853043079376, 0.011277440935373306, -0.1440948098897934, -0.35054048895835876, 0.2588619887828827, 0.05970420688390732, 0.19356554746627808, 0.169392928481102, 0.0810680016875267, 0.10679852962493896, -0.1503520905971527, 0.04872608184814453, -0.021700367331504822, 0.1598484069108963, 0.18914617598056793, 0.05531682074069977, -0.029003959149122238, 0.1542782485485077, -0.11644899845123291], [-0.03786737471818924, -0.14604097604751587, -0.18756398558616638, 0.25030481815338135, -0.3376982808113098, 0.2028387486934662, 0.013929914683103561, 0.12704864144325256, -0.18920770287513733, 0.25029391050338745, -0.08663316816091537, 0.08863170444965363, -0.2645758390426636, -0.042238201946020126, -0.020235497504472733, 0.2532023787498474, 0.17471417784690857, -0.045725561678409576, -0.2648385763168335, 0.47103190422058105, 0.16404078900814056, -0.39653316140174866, -0.03856883943080902, -0.1303834468126297, 0.14216472208499908, -0.3070574998855591, -0.23642469942569733, -0.18159189820289612, -0.13374635577201843, 0.22648197412490845, 0.13322840631008148, 0.14450082182884216], [0.0035833888687193394, -0.038012683391571045, -0.1655840128660202, -0.08387395739555359, -0.09445572644472122, -0.21739093959331512, 0.014643135480582714, -0.11244294047355652, -0.2505733370780945, 5.602361852652393e-05, -0.28354567289352417, -0.44706934690475464, 0.010179085657000542, 0.024934664368629456, -0.12547817826271057, 0.12425379455089569, -0.3260423541069031, 0.02320225164294243, 0.03484724089503288, -0.17911016941070557, 0.30418309569358826, -0.09725065529346466, -0.06933796405792236, -0.2096634805202484, 0.04095322638750076, -0.17332234978675842, -0.16335737705230713, 0.020639721304178238, 0.11423762142658234, -0.1285194307565689, -0.3177248239517212, 0.22612716257572174], [0.1966129094362259, -0.057976044714450836, 0.02402319386601448, -0.020055074244737625, 0.26691973209381104, 0.3459327816963196, 0.33087706565856934, 0.18971627950668335, 0.05888649821281433, -0.31207776069641113, 0.17382700741291046, -0.12155404686927795, 0.31987011432647705, -0.025112247094511986, -0.0442286878824234, 0.22441163659095764, 0.15482652187347412, -0.08558511734008789, 0.06947878003120422, 0.17947229743003845, 0.12251178920269012, -0.10548762232065201, 0.025301268324255943, -0.09575329720973969, 0.02135491371154785, -0.010909859091043472, 0.06445330381393433, -0.42600148916244507, -0.03375273942947388, 0.03731314837932587, -0.044004887342453, 0.06530506908893585], [0.1756727695465088, 0.06132765859365463, -0.14698298275470734, -0.23284859955310822, -0.13732348382472992, -0.2588135302066803, 0.1388586163520813, 0.32693806290626526, -0.22794502973556519, -0.16338065266609192, -0.0741310715675354, -0.3577398657798767, -0.28587812185287476, 0.10949490964412689, -0.036574892699718475, -0.40744268894195557, -0.06963972747325897, -0.043253250420093536, 0.17600446939468384, 0.05440596118569374, 0.1655777543783188, -0.19844849407672882, 0.028179790824651718, 0.2934218645095825, 0.06227488070726395, 0.4043152928352356, -0.31261971592903137, -0.424596905708313, 0.05209629237651825, -0.12470021843910217, -0.27715378999710083, 0.25233036279678345], [-0.14280670881271362, 0.18930841982364655, 0.05676688998937607, -0.2442794293165207, 0.1430583894252777, -0.20911657810211182, 0.18766793608665466, -0.20373781025409698, -0.46320077776908875, -0.012833201326429844, -0.20012632012367249, 0.18073251843452454, -0.3762064576148987, 0.14171133935451508, 0.09202337265014648, 0.13340695202350616, 0.13465577363967896, -0.08237883448600769, -0.09626776725053787, 0.16707587242126465, 0.049630388617515564, 0.022835735231637955, 0.08446241915225983, 0.12497313320636749, 0.14594191312789917, -0.21797090768814087, 0.17853835225105286, 0.08557315170764923, 0.20118209719657898, -0.08036203682422638, 0.13532289862632751, -0.115737184882164], [0.05851767584681511, 0.2006588727235794, -0.2194114625453949, 0.26776349544525146, 0.09607921540737152, -0.21144570410251617, -0.4247654676437378, 0.0006247442797757685, -0.06417058408260345, 0.07187119126319885, -0.07391445338726044, -0.14078760147094727, 0.09367456287145615, 0.10927417874336243, 0.3743077516555786, 0.2698832154273987, 0.1848665177822113, 0.13459305465221405, 0.09992815554141998, -0.14546307921409607, -0.04082109034061432, 0.10176604241132736, -0.2694704532623291, -0.18329738080501556, -0.40024054050445557, 0.3204544186592102, 0.3206362724304199, -0.2969449758529663, -0.15742841362953186, -0.25872090458869934, -0.1511434018611908, 0.09815167635679245], [0.24214327335357666, -0.09055498242378235, 0.261923223733902, 0.09373164921998978, -0.06273768842220306, -0.32450246810913086, -0.14132671058177948, -0.02637992426753044, 0.01537960022687912, 0.15737438201904297, 0.09207069873809814, -0.20547759532928467, 0.04100382328033447, -0.3398364186286926, 0.29348909854888916, 0.06045587360858917, -0.23421114683151245, -0.19873958826065063, -0.33979928493499756, 0.05014268308877945, -0.1703837811946869, 0.24589261412620544, -0.04478078335523605, 0.2727542817592621, 0.11963851004838943, 0.006486538797616959, -0.1656399965286255, 0.3139500021934509, 0.2662876844406128, 0.34971824288368225, 0.16744574904441833, 0.04219019412994385], [0.24993488192558289, 0.09307768195867538, 0.16521286964416504, -0.1556406021118164, 0.2255350649356842, 0.07627543061971664, -0.11254332959651947, -0.3379055857658386, -0.13582248985767365, -0.2970518171787262, -0.04079887643456459, 0.06389789283275604, 0.09291034936904907, -0.14699634909629822, 0.11661504209041595, 0.34875980019569397, 0.2845767140388489, 0.12624990940093994, 0.3953962028026581, 0.03329085558652878, -0.18233221769332886, -0.19141721725463867, 0.047056008130311966, 0.02896600030362606, 0.29112666845321655, -0.045033909380435944, -0.10886473953723907, -0.030962085351347923, -0.19575285911560059, 0.049013473093509674, -0.0323692262172699, 0.0066404519602656364], [0.12642645835876465, -0.12652486562728882, -0.31513968110084534, 0.08303074538707733, -0.21405227482318878, 0.35448694229125977, 0.0013369584921747446, 0.16561970114707947, -0.19267797470092773, -0.041891761124134064, -0.25141119956970215, -0.17719855904579163, 0.13344016671180725, 0.235287606716156, 0.20447179675102234, -0.04700763523578644, 0.29140183329582214, -0.36569473147392273, -0.18637292087078094, 0.11706335842609406, 0.1765151172876358, 0.13605636358261108, -0.10395033657550812, 0.3648938536643982, -0.010281882248818874, 0.012208566069602966, -0.4514014720916748, -0.23625639081001282, -0.4412979185581207, 0.35724908113479614, -0.22098186612129211, 0.18688476085662842], [-0.15835081040859222, 0.0026164513546973467, 0.16319268941879272, 0.2595459818840027, -0.05329578369855881, -0.13847792148590088, -0.03158264607191086, -0.42227157950401306, -0.11035733669996262, 0.33562546968460083, 0.3239101767539978, 0.3426772952079773, -0.018276728689670563, 0.04536990076303482, 0.11603537946939468, -0.19626054167747498, 0.15720577538013458, 0.26080143451690674, -0.14716529846191406, -0.08277589082717896, -0.4410442113876343, 0.17038576304912567, 0.21529781818389893, -0.32221007347106934, -0.0106694046407938, 0.4352133870124817, 0.14579008519649506, -0.05276188999414444, 0.3355296850204468, -0.2887987494468689, -0.08603240549564362, -0.28082746267318726], [0.03171960636973381, -0.033933933824300766, -0.03643515333533287, -0.3582810163497925, -0.16338473558425903, -0.3185211718082428, 0.04434927552938461, 0.016267407685518265, 0.16074338555335999, 0.1552409529685974, -0.094169482588768, -0.34011948108673096, 0.13891024887561798, 0.08477255702018738, -0.5022231936454773, -0.07091756165027618, -0.5388993620872498, 0.15003851056098938, 0.2596358060836792, -0.23119232058525085, 0.2683829963207245, 0.07739554345607758, 0.05012843757867813, -0.1999850869178772, 0.0800865888595581, 0.18252451717853546, 0.08601176738739014, -0.18099826574325562, -0.031159747391939163, 0.15532885491847992, 0.35251861810684204, 0.024166731163859367], [0.44282066822052, -0.21989968419075012, -0.1444883644580841, 0.20622271299362183, -0.10374423861503601, -0.4314059913158417, 0.28845614194869995, -0.00400088494643569, -0.03682483732700348, 0.23206788301467896, 0.02622750774025917, -0.006405706983059645, -0.07857334613800049, -0.032327134162187576, 0.22023195028305054, -0.007104981690645218, 0.2245275378227234, 0.19931213557720184, -0.1817367970943451, -0.2524932026863098, 0.17471665143966675, 0.09147416800260544, -0.140985369682312, -0.05574200302362442, 0.04336617514491081, -0.322338342666626, 0.04030044749379158, 0.199353888630867, -0.11959610879421234, -0.14408738911151886, -0.02781326323747635, -0.09805549681186676], [-0.008332628756761551, 0.11542659997940063, -0.13805395364761353, -0.2546197474002838, 0.05126267671585083, -0.06110426411032677, 0.1931707113981247, -0.09483598917722702, 0.031233541667461395, 0.024141062051057816, 0.06109658628702164, -0.2573293447494507, -0.10772870481014252, -0.15022359788417816, -0.3269539475440979, -0.031093396246433258, -0.3014531135559082, 0.006073770113289356, 0.11615940928459167, 0.02912869304418564, 0.40846413373947144, 0.10402925312519073, -0.3532123267650604, 0.2734043002128601, 0.1146291047334671, 0.008479688316583633, -0.19891980290412903, -0.12291025370359421, 0.23019254207611084, 0.14265015721321106, 0.06332860887050629, -0.1811721920967102], [-0.18166229128837585, -0.027213571593165398, -0.2525189518928528, 0.20287169516086578, -0.3449231684207916, -0.09985314309597015, -0.032181911170482635, -0.19500094652175903, -0.3109453320503235, 0.19860200583934784, -0.35453182458877563, -0.29601478576660156, 0.04802657663822174, 0.0006848429911769927, -0.4549051821231842, 0.2891073226928711, -0.33118754625320435, 0.028424879536032677, 0.312699556350708, -0.11882038414478302, 0.1518557369709015, -0.227561354637146, 0.17338767647743225, 0.01152748428285122, 0.2559651732444763, -0.13596442341804504, 0.017193548381328583, 0.0932113379240036, -0.21452665328979492, 0.22309580445289612, -0.09980897605419159, 0.10362081229686737], [0.03374911844730377, 0.26458102464675903, -0.10088711231946945, -0.22238916158676147, -0.20304058492183685, 0.2609373927116394, 0.009298918768763542, -0.22342175245285034, 0.3248039782047272, -0.12381654977798462, 0.057901546359062195, -0.037853360176086426, 0.05755530297756195, -0.34971922636032104, -0.08512573689222336, -0.07498082518577576, 0.1004999577999115, 0.10891394317150116, -0.03895706310868263, 0.1043655276298523, -0.11742237955331802, 0.19804945588111877, 0.16612759232521057, 0.021206088364124298, 0.16786621510982513, -0.09657354652881622, -0.18392913043498993, 0.39020824432373047, 0.10620568692684174, 0.20469656586647034, 0.34172046184539795, -0.11115259677171707], [0.3619009256362915, 0.2435975968837738, 0.056990135461091995, -0.008857865817844868, -0.10706699639558792, -0.24588565528392792, 0.18484064936637878, -0.01797594130039215, -0.18444505333900452, -0.04708155244588852, 0.02102096751332283, -0.1409417986869812, -0.304101824760437, 0.26469868421554565, 0.12378112226724625, 0.22974811494350433, -0.31897127628326416, -0.07231684774160385, -0.4319145083427429, 0.08217784762382507, -0.0024304750841110945, 0.03241227567195892, -0.008797477930784225, -0.1578606218099594, 0.19705435633659363, -0.23929356038570404, -0.24489718675613403, 0.2976920008659363, 0.1877925992012024, 0.3563610315322876, 0.09946726262569427, -0.04794773831963539], [0.18087738752365112, 0.07446129620075226, -0.049260616302490234, -0.21900403499603271, -0.28763264417648315, -0.0515393503010273, 0.06773612648248672, -0.09061171114444733, -0.11756675690412521, -0.19450600445270538, -0.2654886245727539, -0.31578749418258667, 0.04682577773928642, 0.2861934304237366, -0.3264651894569397, -0.09458880126476288, 0.04635179787874222, 0.20599493384361267, -0.05229423940181732, -0.2557638883590698, 0.08196353912353516, -0.34504595398902893, 0.13839422166347504, -0.2507680654525757, -0.2859736382961273, -0.04428581893444061, 0.0003297284129075706, -0.13289406895637512, -0.5277561545372009, -0.2584959864616394, 0.07376441359519958, 0.07470694184303284], [-0.23267245292663574, -0.02518915943801403, 0.09210848808288574, 0.1272808164358139, 0.037356697022914886, 0.08611228317022324, -0.18662595748901367, 0.21724703907966614, 0.4173612892627716, -0.05361499637365341, -0.41092294454574585, -0.5090347528457642, -0.20388731360435486, -0.30213066935539246, -0.3492535948753357, -0.2288266122341156, -0.18673643469810486, -0.29352492094039917, 0.05995098501443863, 0.24624332785606384, 0.06423690170049667, -0.06911395490169525, -0.004582357592880726, 0.17425814270973206, -0.11418993771076202, -0.35151800513267517, -0.20075279474258423, -0.1766638159751892, 0.2181026190519333, 0.2451944500207901, 0.1836303174495697, 0.27618736028671265], [-0.2814292311668396, -0.031174631789326668, 0.038631487637758255, 0.06666052341461182, 0.4195464849472046, -0.14495274424552917, 0.005456790328025818, 0.3190663158893585, 0.16025593876838684, -0.10223463922739029, 0.3321404457092285, -0.23562413454055786, -0.2906021177768707, -0.13989070057868958, -0.1906249225139618, -0.06277507543563843, -0.3969249725341797, -0.3182484209537506, 0.06996528059244156, 0.025587912648916245, -0.023500535637140274, 0.1329367458820343, -0.35979288816452026, 0.18505272269248962, 0.3696303963661194, 0.07269681990146637, 0.08017309010028839, 0.259548157453537, 0.2836926579475403, 0.027317024767398834, 0.09321577847003937, 0.011514728888869286], [0.18246415257453918, -0.3926786482334137, -0.2726897597312927, 0.12197279930114746, -0.10011151432991028, 0.014060011133551598, -0.010257726535201073, 0.08955314755439758, 0.08587531745433807, 0.026403166353702545, -0.08013979345560074, 0.20100794732570648, 0.15446454286575317, -0.2542876601219177, 0.2941058278083801, 0.1979522705078125, 0.2592625021934509, -0.25493407249450684, 0.04943862557411194, -0.1012064591050148, 0.25506776571273804, -0.038140226155519485, -0.067689910531044, -0.09244625270366669, -0.07349960505962372, 0.2262955605983734, -0.245284765958786, 0.0319095253944397, -0.3075457215309143, 0.0437282919883728, -0.22170203924179077, 0.13843585550785065], [0.34106406569480896, -0.08651912212371826, -0.5599650144577026, 0.1382676661014557, 0.13023477792739868, 0.023626187816262245, -0.110679030418396, 0.25778084993362427, -0.29023393988609314, -0.018308863043785095, -0.30560049414634705, -0.3586033582687378, 0.17399385571479797, 0.04588863626122475, 0.08916408568620682, 0.052432864904403687, 0.21157126128673553, -0.14907759428024292, 0.1683085560798645, 0.21670332551002502, 0.33423590660095215, 0.1490258425474167, 0.22349515557289124, 0.31123554706573486, -0.2877653241157532, 0.06983722746372223, -0.22461485862731934, -0.6099810004234314, 0.352312296628952, 0.416613906621933, 0.051833029836416245, 0.1501709371805191], [0.33630505204200745, 0.11048159003257751, 0.11076502501964569, 0.3287937641143799, 0.12456106394529343, 0.1395106315612793, -0.36666733026504517, 0.20912809669971466, -0.32196009159088135, -0.22597450017929077, -0.13611100614070892, 0.2727218568325043, 0.24803754687309265, -0.2693335711956024, -0.026614196598529816, -0.1865883469581604, -0.47024452686309814, 0.3430623412132263, 0.07763847708702087, -0.29652076959609985, 0.06857705116271973, -0.14147593080997467, -0.2705143690109253, -0.10449502617120743, -0.12091926485300064, -0.17066872119903564, -0.06537686288356781, 0.22579923272132874, -0.03532911092042923, -0.13229764997959137, 0.18684744834899902, 0.15410804748535156]]}, "1+": {"kernel": [[0.12452137470245361, -0.12882408499717712, 0.15138252079486847, 0.005278585944324732, 0.07498861849308014, 0.06269527971744537, -0.2879319190979004, -0.3340126872062683, -0.029166553169488907, 0.09411367774009705, -0.5377972722053528, 0.12242718040943146, 0.13815540075302124, 0.13477635383605957, 0.06953980028629303, 0.18075723946094513, -0.21668750047683716, -0.20944993197917938, 0.08119603991508484, -0.3937087059020996, -0.1471983641386032, -0.22967830300331116, 0.3286309242248535, 0.13026928901672363, -0.032587211579084396, 0.07626830041408539, 0.13972941040992737, 0.3924908936023712, -0.5109362602233887, -0.4007323980331421, 0.12997101247310638, 0.14593425393104553], [0.001510096713900566, 0.4804039001464844, 0.6438060402870178, -0.20985689759254456, -0.0604068785905838, -0.641362726688385, 0.10632899403572083, -0.3165294826030731, -0.19563177227973938, -0.10710512846708298, 0.4837612509727478, 0.11025965213775635, 0.5068801045417786, -0.45667365193367004, 0.11423562467098236, -0.0355059877038002, 0.28256088495254517, 0.3409903645515442, 0.034471295773983, 0.22301644086837769, 0.07266080379486084, -0.020384643226861954, -0.23638658225536346, -0.5353012681007385, -0.06474566459655762, 0.1491626501083374, 0.23665843904018402, -0.2130787968635559, 0.16171106696128845, 0.12932807207107544, -0.37163078784942627, 0.010020807385444641], [-0.08466137200593948, 0.3165421783924103, 0.13962778449058533, -0.07278656959533691, -0.028043515980243683, -0.33851781487464905, 0.055565476417541504, 0.08140837401151657, -0.06666286289691925, 0.329558789730072, 0.3084552586078644, -0.3089258670806885, 0.2779541015625, -0.22550329566001892, 0.10216100513935089, 0.26118096709251404, 0.04729113355278969, -0.022255755960941315, -0.0670766532421112, 0.007891546934843063, 0.04439733922481537, -0.359708309173584, -0.019424067810177803, -0.01936260238289833, -0.045332591980695724, 0.33911070227622986, -0.10774309933185577, -0.29948168992996216, -0.24124908447265625, -0.2496700882911682, 0.10255123674869537, 0.11301103234291077], [0.11484627425670624, -0.03609909117221832, -0.023400716483592987, -0.2887400984764099, 0.2954482436180115, 0.43000996112823486, 0.08286839723587036, 0.2846193015575409, 0.13877013325691223, -0.05607634782791138, 0.19493865966796875, -0.05651416629552841, -0.06107223778963089, -0.26883769035339355, -0.21788132190704346, -0.20175281167030334, 0.08271288871765137, -0.26490867137908936, -0.11433741450309753, -0.30394822359085083, 0.049708329141139984, -0.21483829617500305, 0.14595186710357666, -0.15734046697616577, -0.09668783098459244, -0.11381962895393372, 0.432081401348114, 0.35833215713500977, 0.10818067938089371, -0.09416648745536804, 0.012390786781907082, -0.08206923305988312], [0.005218325182795525, 0.4173845648765564, -0.07318730652332306, 0.24220551550388336, 0.06844224035739899, 0.28156521916389465, -0.31328725814819336, -0.016799259930849075, 0.041103262454271317, -0.3389585018157959, -0.37789955735206604, -0.4443284869194031, 0.4021223485469818, 0.15080131590366364, 0.1282639503479004, 0.19506394863128662, -0.37994998693466187, 0.700786828994751, -0.2871633768081665, 0.23295406997203827, -0.006199141964316368, -0.3358665406703949, -0.09770242869853973, -0.36520907282829285, 0.07815459370613098, -0.005076682195067406, 0.1838648021221161, -0.36878082156181335, 0.23084792494773865, -0.18001967668533325, -0.17778700590133667, -0.3848733901977539], [0.13732358813285828, 0.20746098458766937, -0.2376926690340042, 0.30777856707572937, -0.011623509228229523, -0.06265424191951752, -0.12943026423454285, -0.2113884836435318, -0.43837305903434753, 0.14966218173503876, -0.25728654861450195, 0.1006060466170311, 0.30017542839050293, 0.16997170448303223, -0.04016982764005661, 0.043000176548957825, 0.018080629408359528, -0.0585266575217247, -0.13450859487056732, 0.32961100339889526, -0.010817733593285084, 0.12850114703178406, -0.12616102397441864, 0.15848883986473083, 0.09845474362373352, -0.08908906579017639, 0.23842811584472656, -0.04293204843997955, -0.23383742570877075, 0.050367571413517, -0.30719590187072754, 0.020417040213942528], [0.24564406275749207, -0.0640903040766716, 0.07771199196577072, 0.45354384183883667, -0.014738867059350014, 0.09757189452648163, -0.303632915019989, 0.19238629937171936, -0.06591340899467468, -0.011564463376998901, 0.1919446885585785, -0.07794518768787384, 0.13497409224510193, -0.11337512731552124, 0.10010470449924469, 0.17608068883419037, 0.08620955049991608, -0.180294007062912, -0.0946362093091011, -0.39905810356140137, 0.24729439616203308, 0.21267180144786835, 0.008233748376369476, -0.14577996730804443, 0.15292125940322876, 0.2746868431568146, -0.5128647089004517, -0.07382413744926453, -0.06683063507080078, 0.09429465234279633, -0.2275715470314026, 0.18130415678024292], [-0.1664375364780426, 0.16250011324882507, 0.0907568484544754, 0.207035094499588, -0.03914869949221611, -0.08084319531917572, -0.34912753105163574, -0.09562166035175323, 0.06233346089720726, 0.04605894908308983, -0.52824467420578, -0.22933179140090942, 0.21750551462173462, 0.14843527972698212, -0.17583507299423218, 0.04791912063956261, 0.5173985958099365, -0.415510356426239, -0.17284882068634033, 0.41158440709114075, 0.07162830233573914, -0.04788178205490112, 0.04829464107751846, 0.15025915205478668, -0.35156673192977905, 0.17104551196098328, -0.14083993434906006, -0.2045595794916153, 0.012555329129099846, -0.251297265291214, 0.1838148981332779, -0.01043815165758133], [-0.3628201186656952, 0.015393350273370743, 0.052896469831466675, -0.18761560320854187, -0.01791135035455227, 0.16679829359054565, -0.37172412872314453, -0.09003625810146332, 0.2868344187736511, -0.019198108464479446, -0.3462327718734741, 0.24633798003196716, -0.18627572059631348, -0.3320825695991516, 0.1646697223186493, -0.10075967013835907, -0.4933370351791382, -0.22993558645248413, 0.25982844829559326, -0.006437397096306086, -0.10093407332897186, -0.0545462891459465, 0.2608810067176819, 0.05186159163713455, 0.020978812128305435, 0.14466002583503723, 0.19858857989311218, 0.3929104804992676, -0.1788119524717331, -0.19197408854961395, 0.11194717884063721, -0.07848400622606277], [0.02735220454633236, -0.08550906181335449, -0.305203914642334, 0.3064931333065033, -0.27761369943618774, -0.05860646814107895, -0.11646795272827148, -0.1292598843574524, -0.036228835582733154, 0.33101582527160645, 0.11716943979263306, -0.19500797986984253, -0.18896935880184174, -0.2859525680541992, 0.15727142989635468, -0.2924162745475769, 0.023882955312728882, -0.2776247262954712, 0.014215156435966492, 0.20228439569473267, -0.24072551727294922, -0.1173292025923729, 0.3519374132156372, 0.17097964882850647, 0.15262147784233093, -0.07246574014425278, -0.17934492230415344, 0.2484103888273239, 0.15135285258293152, -0.013376918621361256, 0.11303544789552689, 0.12677830457687378], [-0.22362452745437622, -0.10670824348926544, 0.08224451541900635, 0.5511282682418823, -0.29893016815185547, 0.45924901962280273, -0.29669368267059326, 0.10397035628557205, -0.2772759199142456, -0.15703493356704712, -0.012552570551633835, 0.07051908224821091, -0.15251725912094116, 0.11359897255897522, 0.20111671090126038, 0.27506256103515625, 0.05885469540953636, -0.1290437877178192, -0.004628303460776806, -0.25798285007476807, 0.28074347972869873, -0.19503501057624817, -0.07918540388345718, 0.11117151379585266, 0.09204807877540588, 0.324435293674469, -0.2908477187156677, 0.5436986684799194, -0.3431428074836731, 0.05704685300588608, 0.41436606645584106, -0.019026238471269608], [-0.1376432478427887, -0.08047405630350113, 0.13884222507476807, 0.24452044069766998, 0.29818302392959595, 0.10293123871088028, 0.1587507128715515, -0.028460178524255753, -0.32583725452423096, -0.21568387746810913, 0.017517540603876114, 0.04783111810684204, 0.13094580173492432, -0.053223855793476105, -0.5515209436416626, -0.2271745502948761, -0.1306982934474945, 0.0870613232254982, 0.02634252980351448, 0.13669899106025696, 0.3351767659187317, -0.09701743721961975, 0.06520525366067886, -0.02114465832710266, 0.05986575409770012, -0.16652119159698486, -0.12204021960496902, 0.03501685708761215, -0.018610291182994843, -0.09460055828094482, -0.2880658507347107, -0.18976053595542908], [-0.20136959850788116, -0.2128009796142578, 0.028165660798549652, 0.0442524328827858, 0.11616183072328568, 0.058272071182727814, -0.13246682286262512, 0.1894610971212387, -0.12631846964359283, -0.05864508077502251, -0.2810382544994354, 0.24586814641952515, 0.2922101616859436, -0.0336093008518219, -0.018364746123552322, -0.015603378415107727, -0.04545512795448303, -0.17175063490867615, 0.300815224647522, -0.2517755627632141, 0.5894337892532349, 0.22714188694953918, -0.05468054115772247, 0.24826973676681519, -0.12859807908535004, 0.13400474190711975, -0.01393212378025055, 0.10161866992712021, 0.14941217005252838, -0.22379663586616516, -0.10942696034908295, 0.15469644963741302], [-0.1809687614440918, -0.08496704697608948, -0.06338050961494446, 0.33044081926345825, -0.045525550842285156, 0.12291064113378525, 0.09952433407306671, -0.10756121575832367, 0.05189632996916771, -0.05545191094279289, -0.11205989122390747, -0.24527838826179504, 0.08786679804325104, -0.08863585442304611, -0.21286138892173767, 0.02173963375389576, 0.26190513372421265, -0.39975976943969727, -0.1576930284500122, -0.11847709864377975, -0.36587923765182495, 0.2885233163833618, 0.02745124325156212, 0.12247861176729202, 0.043750423938035965, 0.1346343606710434, -0.07223377376794815, 0.23611414432525635, -0.055974990129470825, -0.10116811841726303, -0.2531200647354126, 0.19080835580825806], [-0.05540803447365761, -0.11328576505184174, -0.3294104039669037, -0.062298282980918884, -0.2034851610660553, -0.3664851188659668, -0.016090523451566696, -0.028786396607756615, 0.08281329274177551, -0.13627614080905914, 0.25252747535705566, 0.051743775606155396, -0.06624442338943481, 0.3056447505950928, -0.13202115893363953, 0.13847100734710693, 0.029194600880146027, -0.06559164822101593, 0.0496806763112545, -0.15694019198417664, -0.17353448271751404, -0.12659472227096558, 0.13677607476711273, 0.07067655026912689, -0.10970688611268997, -0.265145480632782, 0.1828359067440033, 0.054035257548093796, 0.019620250910520554, 0.23396889865398407, 0.14238417148590088, 0.3388655185699463], [-0.15354448556900024, -0.17297405004501343, 0.3069603443145752, 0.4119475781917572, 0.1312006115913391, -0.35125261545181274, -0.3357081413269043, 0.13085296750068665, 0.1004900187253952, 0.6558035612106323, -0.009870783425867558, 0.35484379529953003, 0.07534042000770569, 0.06297831982374191, 0.23726853728294373, 0.038349002599716187, 0.06073041260242462, -0.3354879915714264, 