{"params": {"Dense_0": {"0+": {"bias": [0.001346356701105833, -0.04672164097428322, -0.029016606509685516, 0.0319652259349823, 0.031238989904522896, -0.0355684868991375, 0.05418873578310013, -0.04584687203168869, -0.0037634018808603287, -0.005234409589320421, 0.023445893079042435, 0.054643414914608, -0.0483173206448555, -0.0014175958931446075, -0.012624096125364304, 0.0742083191871643, -0.018016986548900604, 0.006639354862272739, 0.04774928838014603, -0.017209120094776154, -0.0022881103213876486, 0.0007714917883276939, 0.01414277870208025, -0.022722262889146805], "kernel": [[0.03609197586774826, 0.18985405564308167, -0.04808465391397476, 0.08719935268163681, 0.0962841808795929, 0.051207028329372406, -0.16777673363685608, 0.2903173565864563, 0.09635278582572937, -0.19826065003871918, -0.06184767931699753, 0.17160743474960327, -0.4169823229312897, -0.4941933751106262, 0.04715149104595184, -0.3380010724067688, 0.11951211094856262, 0.21340002119541168, -0.14571316540241241, 0.28484559059143066, 0.1551157832145691, 0.08098797500133514, -0.1786896288394928, 0.10186667740345001], [0.3060551881790161, 0.1708315908908844, 0.31596845388412476, -0.07110640406608582, -0.2407120168209076, -0.2638493776321411, 0.10700605809688568, 0.26380425691604614, 0.0887691080570221, -0.10957420617341995, -0.25872403383255005, -0.3880745768547058, 0.275365948677063, 0.09698962420225143, -0.22032001614570618, -0.12811574339866638, 0.21850916743278503, 0.05134560912847519, 0.138840913772583, -0.07413607835769653, -0.04321786016225815, 0.04064692556858063, 0.19684962928295135, -0.08126074075698853], [0.22939829528331757, -0.26377713680267334, -0.27378737926483154, -0.025775810703635216, 0.11132214963436127, 0.10100255906581879, 0.3556058406829834, -0.29147690534591675, -0.10394756495952606, -0.3032524585723877, -0.2963792681694031, -0.2124204933643341, -0.4059372842311859, -0.08766201138496399, 0.06186568737030029, 0.23707857728004456, 0.2335827350616455, -0.034167155623435974, -0.30827462673187256, -0.26672011613845825, -0.08217555284500122, -0.19488480687141418, -0.09787063300609589, 0.36481624841690063], [0.05931651592254639, -0.21571998298168182, -0.13044947385787964, -0.3553374707698822, -0.021513931453227997, 0.3386736512184143, -0.06149575114250183, -0.004620166961103678, -0.09763981401920319, -0.15535804629325867, 0.2516844868659973, 0.27765488624572754, 0.05132763832807541, 0.09807872772216797, -0.44846034049987793, 0.05866968631744385, 0.37091177701950073, -0.20509138703346252, 0.09611524641513824, 0.056479595601558685, 0.295113205909729, 0.13978326320648193, 0.03894300386309624, 0.12578651309013367], [0.23096522688865662, 0.1209147721529007, -0.21417021751403809, -0.05383898317813873, 0.014208409003913403, 0.0712156742811203, -0.12346568703651428, 0.02906583622097969, 0.17309118807315826, -0.23956835269927979, -0.018221020698547363, 0.07392536848783493, 0.04951734095811844, 0.16257590055465698, -0.14456233382225037, 0.003430797718465328, -0.16446831822395325, -0.2811291515827179, -0.0967758297920227, -0.08730784058570862, 0.3913440704345703, -0.01840403489768505, -0.31867367029190063, -0.11459183692932129], [0.26217591762542725, -0.10712540149688721, 0.4522092938423157, -0.14367476105690002, 0.10514954477548599, -0.14354342222213745, -0.02619512379169464, -0.3314906358718872, -0.33543142676353455, 0.08624956011772156, 0.31944262981414795, -0.10755191743373871, 0.1156562939286232, 0.08971258997917175, -0.039335764944553375, -0.16070237755775452, 0.19464673101902008, -0.07382993400096893, 0.14860694110393524, -0.06281505525112152, 0.22237922251224518, -0.04553962126374245, 0.2647222876548767, -0.14040759205818176], [0.26643985509872437, 0.23587222397327423, 0.026578087359666824, 0.21333543956279755, -0.021636463701725006, -0.23696881532669067, -0.015997791662812233, -0.08839498460292816, -0.02787236124277115, -0.3241153955459595, -0.0006007023621350527, 0.04535815864801407, 0.027261922135949135, 0.3525694012641907, -0.1356925517320633, 0.09075289964675903, 0.037882089614868164, 0.10394944250583649, 0.09433647990226746, -0.12930402159690857, 0.12595169246196747, 0.04209699481725693, -0.28800585865974426, 0.31514325737953186], [-0.0022097863256931305, -0.2552201747894287, -0.06708477437496185, 0.10033781826496124, 0.17714691162109375, 0.40722358226776123, 0.04926973953843117, 0.15757863223552704, -0.128891259431839, 0.059757381677627563, 0.15210409462451935, 0.016276095062494278, -0.17401275038719177, -0.28702405095100403, -0.14689522981643677, -0.21154992282390594, 0.15274718403816223, 0.017290934920310974, 0.06928685307502747, -0.20848283171653748, 0.05933845788240433, -0.07383900880813599, -0.4241272807121277, 0.026084043085575104], [-0.248787522315979, -0.22944161295890808, 0.08655378222465515, -0.031639136373996735, -0.018677130341529846, 0.11359289288520813, 0.06439285725355148, -0.006650782190263271, -0.0221419520676136, -0.4234032928943634, -0.04949715733528137, 0.004501447081565857, 0.009586827829480171, -0.23462334275245667, 0.0978049710392952, 0.24968338012695312, 0.14940926432609558, -0.07634410262107849, -0.06721451878547668, -0.011451538652181625, -0.2219393104314804, 0.3190043866634369, 0.1959671974182129, 0.27682971954345703], [-0.4069759249687195, 0.20546205341815948, 0.1434035450220108, -0.39310869574546814, 0.3221415877342224, -0.33559536933898926, 0.34537845849990845, 0.15998628735542297, -0.2169514298439026, 0.14115628600120544, -0.39558184146881104, -0.06902759522199631, -0.022987276315689087, 0.06401805579662323, -0.30872491002082825, -0.11721768975257874, -0.2032974511384964, 0.36601418256759644, 0.31898999214172363, 0.43844473361968994, -0.03984523564577103, -0.00897861085832119, -0.1226012259721756, -0.3007659614086151], [-0.17109617590904236, 0.2851908802986145, -0.0184914693236351, -0.0730033591389656, -0.21440187096595764, 0.08091901242733002, -0.19654320180416107, 0.371937096118927, 0.307819664478302, -0.32121431827545166, -0.20996499061584473, 0.021946262568235397, 0.08558376133441925, -0.010377069935202599, 0.2761918902397156, -0.2878836393356323, -0.08017885684967041, 0.0760498046875, -0.44046247005462646, 0.11873476207256317, -0.08821234852075577, -0.3685263395309448, 0.01728193461894989, 0.004187725484371185], [0.027814365923404694, -0.2833941876888275, 0.07094629108905792, -0.294116348028183, 0.1406945139169693, 0.08039693534374237, 0.27431488037109375, -0.09243951737880707, -0.1594504863023758, -0.08588441461324692, -0.04837973415851593, 0.22547240555286407, -0.09409817308187485, -0.32901400327682495, -0.00010520752402953804, 0.26331019401550293, 0.07725124061107635, -0.07714153826236725, 0.021421045064926147, -0.26153481006622314, 0.4115515947341919, -0.0871705412864685, 0.04291612282395363, -0.2170897126197815], [0.3147416412830353, 0.1124330386519432, 0.2987711727619171, 0.18687957525253296, 0.15995049476623535, 0.10095405578613281, -0.18332642316818237, 0.12535443902015686, -0.02809475176036358, 0.07639448344707489, -0.2872070074081421, -0.05252896249294281, -0.20463794469833374, -0.2204929143190384, -0.0888061672449112, -0.23698049783706665, -0.4846290349960327, -0.04785342141985893, 0.09921124577522278, 0.26514917612075806, -0.056881681084632874, -0.051865726709365845, 0.013247542083263397, -0.12646424770355225], [-0.023757237941026688, -0.23027685284614563, 0.20436018705368042, -0.10698405653238297, -0.17451556026935577, 0.2529274821281433, -0.19521571695804596, -0.03963697329163551, 0.08494532108306885, -0.11379800736904144, -0.012126214802265167, 0.0014329287223517895, -0.2056787610054016, -0.12072382867336273, 0.09299956262111664, -0.06223335117101669, -0.018500305712223053, 0.04676539823412895, 0.0755186676979065, 0.3935962915420532, 0.17460577189922333, 0.2932491600513458, 0.19759951531887054, 0.2783082127571106], [-0.025712894275784492, -0.052803486585617065, -0.03446540981531143, -0.011269066482782364, -0.03815387934446335, 0.10521675646305084, -0.049685005098581314, 0.09681831300258636, 0.1243245005607605, 0.29871630668640137, -0.06791378557682037, -0.004549449309706688, 0.05986666679382324, 0.12514804303646088, 0.1635725200176239, 0.39422908425331116, 0.12437077611684799, 0.0016117999330163002, 0.3361445665359497, 0.38236403465270996, -0.32278677821159363, 0.29387086629867554, 0.33395034074783325, -0.24904394149780273], [0.1759655475616455, 0.014239358715713024, -0.04011087119579315, -0.2082281857728958, -0.10572715848684311, 0.3598414659500122, 0.2855437397956848, -0.02794363722205162, -0.149958997964859, 0.07622802257537842, -0.0056098634377121925, 0.3995007872581482, 0.2305259108543396, 0.18527692556381226, -0.06518416851758957, 0.0910818949341774, -0.042082108557224274, 0.27397409081459045, -0.2795335054397583, 0.20228497684001923, 0.23579929769039154, 0.07408083975315094, 0.0006840437417849898, 0.014704814180731773], [0.1731899380683899, -0.10129675269126892, -0.22078773379325867, -0.012047326192259789, 0.29964202642440796, -0.19270510971546173, 0.08605661988258362, 0.0034285399597138166, 0.2284518927335739, -0.24450132250785828, -0.05618330091238022, -0.1033354327082634, -0.1765693724155426, -0.19965647161006927, -0.08186490833759308, -0.14032739400863647, -0.19746297597885132, 0.38827845454216003, -0.16378265619277954, 0.14588075876235962, -0.12715965509414673, -0.05258809030056, 0.060944102704524994, 0.08745920658111572], [0.24669182300567627, -0.2628477215766907, -0.02083664946258068, 0.20987354218959808, -0.09795178472995758, 0.041788250207901, 0.13833504915237427, -0.04544120654463768, 0.053503505885601044, -0.07502606511116028, -0.1381065845489502, -0.2329554408788681, -0.410678893327713, -0.10799696296453476, -0.029365044087171555, -0.1608971506357193, -0.2847546339035034, -0.08063549548387527, 0.15031196177005768, 0.29164618253707886, -0.07980044186115265, -0.25277799367904663, -0.1353985220193863, 0.28431499004364014], [-0.257311075925827, 0.27361637353897095, -0.02250882238149643, -0.3874133229255676, 0.07679414749145508, -0.17245543003082275, -0.16420269012451172, -0.07458557188510895, 0.06415306031703949, 0.2481607049703598, 0.04355479031801224, -0.042233847081661224, 0.053642481565475464, 0.20237772166728973, -0.45047691464424133, -0.2191629409790039, 0.016780134290456772, -0.26278477907180786, -0.0005130068166181445, -0.09492358565330505, -0.1836029291152954, -0.0991537794470787, -0.2911592125892639, -0.10606783628463745], [-0.1904717981815338, 0.4319189786911011, 0.13530170917510986, -0.340162456035614, -0.19871987402439117, 0.4298756718635559, -0.29587382078170776, -0.3133484721183777, 0.1392241269350052, 0.08369607478380203, 0.1745244562625885, 0.0243079774081707, 0.14780965447425842, 0.09019505977630615, 0.0012738554505631328, -0.09389400482177734, 0.07619136571884155, 0.2459082007408142, 0.1703861951828003, 0.22130616009235382, -0.37192824482917786, -0.12783819437026978, -0.31436240673065186, -0.11788785457611084], [0.17998142540454865, 0.19419169425964355, 0.2657772898674011, 0.036497704684734344, 0.22820667922496796, -0.32262134552001953, 0.18532013893127441, 0.08580401539802551, -0.14164307713508606, -0.08279445767402649, -0.08327022194862366, 0.4630601108074188, 0.0156801026314497, -0.07296517491340637, 0.2924657464027405, 0.18698996305465698, -0.2237367033958435, -0.025528602302074432, 0.39625245332717896, -0.19304561614990234, -0.06947174668312073, 0.027456466108560562, 0.26220500469207764, 0.03534119576215744], [0.1490897238254547, 0.24819982051849365, 0.07656845450401306, 0.22421538829803467, 0.17456911504268646, 0.0505523644387722, -0.09343817085027695, -0.15045197308063507, 0.16780737042427063, 0.009815051220357418, 0.1707957684993744, 0.07198162376880646, 0.16996052861213684, -0.07446428388357162, -0.0022700484842061996, 0.09011630713939667, 0.3011710047721863, -0.22179031372070312, 0.037180136889219284, 0.18132518231868744, 0.12059049308300018, -0.3906778395175934, -0.044503189623355865, -0.2632495164871216], [0.17064328491687775, -0.16772454977035522, 0.02661527879536152, 0.2919968366622925, -0.37242352962493896, 0.04506649821996689, 0.13938264548778534, -0.37546369433403015, -0.2924651801586151, 0.009657755494117737, 0.07511526346206665, 0.027829276397824287, 0.05374927818775177, -0.11966188251972198, 0.039718568325042725, 0.07191726565361023, -0.36539560556411743, -0.19703714549541473, 0.059946320950984955, 0.053258270025253296, 0.3343251943588257, 0.4351709485054016, 0.113777756690979, -0.27345311641693115], [-0.200216144323349, -0.0675855278968811, 0.26320186257362366, 0.07608114182949066, -0.07169102132320404, -0.21598032116889954, -0.12052512168884277, -0.32610589265823364, 0.02706332318484783, 0.25898629426956177, 0.008010175079107285, -0.23290374875068665, 0.023173673078417778, 0.029827594757080078, -0.0006239294889383018, 0.16065430641174316, -0.030571110546588898, -0.039341215044260025, 0.02732235938310623, 0.14803913235664368, 0.04631777107715607, 0.1983039677143097, -0.10975456237792969, -0.22330588102340698]]}, "1-": {"kernel": [[-0.13524261116981506, 0.23942573368549347, -0.17111092805862427, -0.01760656014084816, -0.194070965051651, -0.154889777302742, 0.005155976861715317, 0.023258401080965996, -0.2053918093442917, -0.13503527641296387, -0.4640601873397827, -0.6696115732192993, -0.12333837896585464, -0.42356163263320923, -0.13765111565589905, 0.46377965807914734, -0.3493230938911438, -0.15552985668182373, 0.1847236305475235, 0.5190194845199585, 0.09948986023664474, 0.13547304272651672, -0.2964324653148651, -0.3822226822376251], [0.21512281894683838, -0.0161117035895586, 0.05236637964844704, 0.48120081424713135, -0.04968597739934921, 0.19963428378105164, -0.026393670588731766, -0.27430248260498047, -0.07347124069929123, 0.1116553395986557, -0.30211228132247925, -0.1322106570005417, 0.24379852414131165, 0.29281431436538696, 0.036609165370464325, -0.5258004665374756, 0.18164180219173431, 0.224232017993927, -0.23249974846839905, 0.0757405161857605, -0.022728649899363518, -0.19473589956760406, 0.42489296197891235, -0.023837711662054062], [-0.2650303542613983, -0.16497917473316193, 0.3961964249610901, -0.033110361546278, -0.07897967100143433, -0.06454996764659882, 0.1419057846069336, -0.06588861346244812, 0.22517773509025574, 0.1313917636871338, 0.09414570778608322, 0.059942930936813354, 0.10724170506000519, -0.09436047077178955, 0.0312817320227623, -0.12184712290763855, 0.23341971635818481, 0.05988394469022751, -0.41720372438430786, 0.009078296832740307, -0.06250866502523422, -0.29244333505630493, 0.039470821619033813, -0.4270228147506714], [-0.1546821892261505, -0.06444279849529266, 0.2784035801887512, 0.03903878480195999, 0.3336472511291504, 0.32360029220581055, -0.15757760405540466, 0.03917641192674637, 0.2499178647994995, -0.032309770584106445, 0.007336549926549196, -0.07169970870018005, 0.1061374694108963, 0.04934109002351761, -0.25234073400497437, 0.08169551938772202, 0.27201610803604126, -0.08350986242294312, -0.03299446776509285, 0.08173534274101257, 0.28933411836624146, 0.1300647109746933, -0.31899493932724, -0.15644997358322144], [0.04219847917556763, 0.0008038122905418277, -0.2431783378124237, -0.3914284110069275, -0.3378029465675354, 0.013270797207951546, -0.2786703109741211, -0.04669962078332901, 0.3372649550437927, 0.08832626044750214, 0.05686293542385101, 0.06581664085388184, 0.08542242646217346, -0.05735457316040993, 0.06653805077075958, -0.12594279646873474, 0.09043082594871521, 0.013789055868983269, -0.4938453435897827, 0.27858930826187134, -0.01424136757850647, -0.2287481129169464, -0.29653364419937134, -0.3117767870426178], [0.07809565961360931, -0.1928788423538208, -0.21118685603141785, 0.22850355505943298, -0.17711490392684937, 0.2576697766780853, -0.2156727910041809, 0.12882676720619202, 0.2891954779624939, 0.018865816295146942, -0.3164995312690735, -0.056458763778209686, -0.06296406686306, 0.40357112884521484, -0.008840212598443031, -0.27212077379226685, -0.18368959426879883, 0.022538933902978897, 0.08348970115184784, 0.37937185168266296, -0.0069004446268081665, 0.08368318527936935, -0.45861226320266724, -0.007971275597810745], [-0.07900041341781616, -0.12968285381793976, 0.30892670154571533, 0.11645516008138657, -0.24219536781311035, 0.24935543537139893, 0.29444849491119385, -0.09829090535640717, -0.019902577623724937, -0.2567736506462097, 0.3583555519580841, -0.033729907125234604, 0.08217829465866089, 0.057523906230926514, -0.08178263902664185, -0.057492345571517944, 0.28599804639816284, -0.0003139189793728292, -0.1656796634197235, 0.3969152569770813, -0.05132593214511871, -0.09345749020576477, -0.06635285168886185, 0.2188236117362976], [0.12660571932792664, -0.016627248376607895, -0.05885159224271774, -0.3225315809249878, 0.44620686769485474, 0.3359529972076416, -0.25816047191619873, -0.009504880756139755, 0.18811634182929993, 0.040673933923244476, 0.06845158338546753, 0.04882047325372696, -0.23292475938796997, 0.07103974372148514, 0.19736815989017487, -0.016474256291985512, 0.08474823832511902, -0.05897632613778114, 0.029934268444776535, -0.16742797195911407, -0.16149556636810303, 0.12180192768573761, -0.35733991861343384, -0.31107157468795776], [-0.2950235903263092, -0.0011703113559633493, 0.22801539301872253, 0.18837730586528778, -0.3257821798324585, -0.5331176519393921, -0.07301197946071625, -0.05639228969812393, 0.17745649814605713, -0.35574519634246826, -0.3143896460533142, 0.1333686113357544, 0.010090228170156479, 0.21923360228538513, 0.17325663566589355, 0.6827352046966553, 0.20143428444862366, -0.45493414998054504, -0.03077930584549904, -0.023828737437725067, 0.12526939809322357, -0.025822920724749565, -0.09906893968582153, -0.2136869728565216], [-0.47002196311950684, 0.05482792109251022, 0.17200684547424316, 0.41974884271621704, 0.17582406103610992, -0.12162812054157257, -0.42579472064971924, 0.18821612000465393, -0.040008269250392914, -0.047611311078071594, 0.16176094114780426, -0.21552684903144836, 0.20727942883968353, 0.25521743297576904, 0.06087126582860947, -0.20738258957862854, 0.09216339886188507, 0.03921739384531975, 0.09587161242961884, -0.019962957128882408, -0.07925829291343689, 0.02857554331421852, -0.16402879357337952, 0.11598898470401764], [-0.2542991638183594, 0.4344334304332733, 0.24696475267410278, 0.24926748871803284, 0.032834503799676895, -0.09921124577522278, -0.09668286144733429, 0.12825721502304077, 0.04379739612340927, 0.3948925733566284, -0.08277657628059387, 0.034547291696071625, -0.022463485598564148, 0.15188460052013397, 0.030800841748714447, -0.10166451334953308, -0.052385084331035614, 0.19625230133533478, -0.3248395323753357, 0.2511434853076935, 0.362407386302948, 0.1497533619403839, 0.17994889616966248, 0.34677445888519287], [-0.06353330612182617, -0.11457111686468124, 0.1648511290550232, 0.030633291229605675, 0.305219829082489, -0.11870856583118439, 0.3682730793952942, -0.09752257168292999, 0.022229045629501343, 0.02217034623026848, 0.11394070088863373, -0.10620371252298355, -0.2074529230594635, -0.09862316399812698, -0.00943264551460743, -0.03360825031995773, 0.173292875289917, -0.4258807599544525, -0.014358258806169033, -0.07201291620731354, -0.1887059360742569, 0.036634985357522964, 0.16978630423545837, -0.002000938169658184], [-0.20968618988990784, -0.24692195653915405, -0.2119351029396057, 0.2778022587299347, 0.11647466570138931, 0.27609652280807495, 0.14234212040901184, 0.18812181055545807, -0.18168118596076965, -0.04848114401102066, -0.18651580810546875, -0.24577045440673828, -0.10052751004695892, -0.2648548483848572, -0.11657222360372543, 0.3946196734905243, -0.30043256282806396, 0.13705840706825256, 0.23075193166732788, 0.28716355562210083, 0.22343158721923828, 0.17005044221878052, -0.14974917471408844, -0.09725508093833923], [0.2918885350227356, 0.05803992226719856, -0.32409191131591797, 0.33476388454437256, -0.16861799359321594, 0.2098558247089386, 0.02955448627471924, 0.30499565601348877, -0.1204153373837471, -0.10464997589588165, 0.014436805620789528, 0.01996995508670807, 0.1113956868648529, 0.19197815656661987, 0.40572071075439453, -0.4804108142852783, -0.1837470978498459, 0.06721191108226776, 0.003021777840331197, -0.13472679257392883, -0.3796910345554352, 0.12171247601509094, 0.15543490648269653, 0.14100465178489685], [0.2678479552268982, -0.17294228076934814, -0.2726541757583618, 0.10818339884281158, 0.15805797278881073, 0.07287642359733582, 0.025108737871050835, -0.18783271312713623, 0.3628774881362915, -0.2116694152355194, 0.02237199991941452, -0.39822787046432495, -0.27770212292671204, -0.2944895923137665, 0.18145088851451874, 0.2002817988395691, -0.04666727036237717, 0.03311336785554886, 0.41761618852615356, -0.34096527099609375, -0.032919831573963165, -0.1760360300540924, 0.18460571765899658, -0.19063398241996765], [0.028392910957336426, -0.05188284069299698, 0.28180450201034546, 0.11765173822641373, -0.07673117518424988, -0.00040788360638543963, -0.12856078147888184, 0.10237221419811249, -0.3076797127723694, -0.2551238536834717, -0.03560178726911545, 0.09231334924697876, 0.035353999584913254, 0.1435248851776123, -0.059165045619010925, 0.4623968303203583, 0.021374166011810303, 0.4093112647533417, 0.2461257129907608, -0.1435278356075287, 0.18253998458385468, -0.08294521272182465, 0.21453115344047546, -0.0022851338144391775], [0.1600053310394287, -0.15742339193820953, 0.032161153852939606, -0.17913907766342163, 0.037707678973674774, 0.027844510972499847, 0.006530021782964468, -0.08169414103031158, 0.06819140911102295, 0.054123952984809875, -0.21020209789276123, 0.14132100343704224, -0.10466638952493668, -0.10579583793878555, -0.1233154684305191, 0.018314149230718613, -0.3875771164894104, 0.15764561295509338, -0.1456545740365982, 0.1810840219259262, -0.2598479986190796, 0.0256635844707489, -0.10297805815935135, 0.1671687215566635], [0.27616193890571594, 0.12118345499038696, -0.04740207642316818, -0.1009008139371872, -0.014513608999550343, 0.3429272174835205, 0.0955386757850647, 0.08268837630748749, 0.14877422153949738, -0.2824845612049103, 0.14339835941791534, 0.02675015851855278, 0.012869015336036682, 0.472179651260376, 0.3171113431453705, -0.046426109969615936, 0.41224753856658936, 0.11501277983188629, -0.3331454396247864, 0.14045840501785278, 0.18785463273525238, 0.031640082597732544, 0.16568291187286377, -0.10135595500469208], [-0.2494335174560547, -0.4476466476917267, 0.2396983802318573, -0.08549992740154266, -0.09089973568916321, 0.21287408471107483, 0.03564412146806717, 0.2948422431945801, -0.29429149627685547, -0.003533273935317993, 0.02882925234735012, 0.15041887760162354, 0.26292842626571655, 0.0918530523777008, 0.013516925275325775, 0.15074020624160767, -0.1935524195432663, -0.0451367162168026, -0.049258820712566376, 0.2729261517524719, 0.11535912752151489, 0.08556263893842697, -0.1394231617450714, -0.1983228623867035], [0.01883040741086006, -0.30897822976112366, 0.3161389231681824, -0.1364111602306366, -0.32875293493270874, 0.28149133920669556, 0.22938132286071777, -0.2539462149143219, -0.2093421220779419, -0.20072120428085327, -0.20143359899520874, -0.057249754667282104, -0.03458426520228386, 0.027593376114964485, -0.12835693359375, 0.04889324679970741, -0.05543621629476547, -0.4030788242816925, -0.3556362986564636, -0.03334042429924011, -0.06020635366439819, -0.23677000403404236, -0.23663023114204407, 0.1649116575717926], [0.15735530853271484, -0.028290003538131714, 0.08592183887958527, 0.3349725604057312, 0.10492117702960968, 0.28573209047317505, -0.09405336529016495, 0.04022155702114105, -0.19302691519260406, -0.0928473025560379, 0.1294524073600769, -0.2962523102760315, 0.43549031019210815, 0.12439773976802826, -0.017036031931638718, 0.3743172883987427, -0.393862783908844, -0.23161530494689941, 0.36584368348121643, -0.17177951335906982, -0.08944500982761383, 0.20962291955947876, 0.018961407244205475, 0.023661743849515915], [0.12036656588315964, 0.09645411372184753, -0.2821268141269684, -0.061586104333400726, 0.04546474665403366, -0.08437858521938324, 0.10102973878383636, -0.09239909052848816, 0.2418142557144165, 0.30550211668014526, 0.37461137771606445, -0.1836300492286682, 0.15452423691749573, 0.3362351655960083, 0.2674383521080017, 0.22160471975803375, 0.05981787294149399, -0.28668129444122314, 0.07684440910816193, -0.16027408838272095, 0.06547380238771439, 0.11064966022968292, 0.2616826891899109, -0.3851035535335541], [0.332861065864563, 0.28319302201271057, 0.12283651530742645, -0.08775702118873596, -0.09287364780902863, 0.04384844750165939, 0.16877427697181702, 0.05708630383014679, -0.25980573892593384, -0.23627033829689026, -0.133615180850029, 0.30700573325157166, -0.2841246724128723, 0.300889253616333, -0.283900648355484, 0.4789239764213562, 0.18871964514255524, -0.07929719984531403, -0.18064704537391663, -0.2293078452348709, -0.23163887858390808, -0.1015235185623169, -0.10068559646606445, 0.3264317810535431], [-0.027458742260932922, -0.14088386297225952, 0.3888291120529175, 0.09334062784910202, -0.10053621232509613, -0.09097035229206085, 0.012475376948714256, -0.21314656734466553, 0.1380649209022522, -0.35825029015541077, -0.29909050464630127, -0.37822219729423523, 0.1497107744216919, -0.35216259956359863, -0.25618743896484375, 0.3021341562271118, 0.0877702534198761, 0.1204579770565033, -0.052694790065288544, 0.028385043144226074, 0.22909927368164062, -0.19146323204040527, -0.26175516843795776, -0.28372812271118164]]}, "2+": {"kernel": [[0.01675548031926155, -0.2646719217300415, -0.43786904215812683, -0.12698307633399963, 0.12563736736774445, 0.6283320188522339, 0.0654834732413292, -0.21360738575458527, 0.14149229228496552, 0.05857616290450096, 0.7047799229621887, 0.09488709270954132, 0.10810635983943939, 0.01740328222513199, -0.3685745894908905, -0.3498395085334778, -0.3130674660205841, -0.05737924948334694, -0.14178508520126343, -0.103286512196064, -0.743777334690094, -0.2722811698913574, 0.272075355052948, -0.543701171875], [-0.22353962063789368, 0.2605983316898346, 0.14533212780952454, -0.17288774251937866, -0.11251567304134369, -0.02228206768631935, -0.29452264308929443, -0.16225236654281616, 0.1564437747001648, 0.0006280523957684636, 0.06522892415523529, 0.026585422456264496, 0.05393465608358383, 0.25676214694976807, 0.2754056453704834, -0.030347365885972977, 0.10307496786117554, 0.04359452426433563, 0.20379027724266052, 0.07791736721992493, 0.19976024329662323, -0.2185305804014206, -0.3332763910293579, -0.1258409321308136], [0.24132107198238373, 0.0061120688915252686, -0.1958891749382019, -0.10204868763685226, 0.37603217363357544, 0.032943934202194214, -0.013352814130485058, 0.31867319345474243, 0.009875129908323288, 0.46575355529785156, 0.2551455497741699, 0.05999347195029259, 0.11850278824567795, 0.15872281789779663, 0.013307876884937286, -0.5109684467315674, -0.0032545756548643112, 0.2966045141220093, -0.22793138027191162, 0.011849815025925636, -0.0934261828660965, -0.15612846612930298, 0.25423240661621094, -0.13076093792915344], [0.05016706883907318, 0.21880276501178741, -0.3605908453464508, -0.04560059681534767, 0.21079713106155396, -0.0929558277130127, -0.21345055103302002, -0.19561199843883514, -0.3363603949546814, -0.30979490280151367, 0.16186514496803284, -0.2053244709968567, -0.07329154759645462, 0.061125498265028, 0.18942146003246307, -0.30836212635040283, -0.09808333963155746, 0.10708661377429962, 0.1964961588382721, -0.25807008147239685, 0.015177898108959198, -0.28370922803878784, -0.006292949430644512, -0.2948886752128601], [0.06667904555797577, 0.11140608787536621, 0.006217749789357185, 0.2874871492385864, 0.3071156442165375, -0.2539009749889374, 0.170321524143219, 0.3306243419647217, 0.09830684959888458, -0.31308847665786743, -0.058094918727874756, -0.08994834125041962, 0.24645721912384033, 0.001998899970203638, -0.36033010482788086, -0.2634889483451843, -0.31234171986579895, 0.3560829162597656, -0.3573591709136963, 0.34951233863830566, -0.08646097779273987, 0.1007521003484726, 0.10578195750713348, 0.06202001869678497], [0.12230278551578522, 0.05872110277414322, -0.17385947704315186, -0.17733192443847656, -0.07501056790351868, -0.16674911975860596, 0.17931100726127625, -0.06703472882509232, -0.14873410761356354, -0.14710144698619843, -0.0720653086900711, -0.004977609030902386, 0.10853599011898041, 0.14088837802410126, 0.011876964010298252, 0.2842716574668884, 0.17288824915885925, -0.07429720461368561, 0.0920935869216919, 0.3499891459941864, 0.0028282441198825836, 0.09607753157615662, 0.18795964121818542, 0.19356736540794373], [-0.32801294326782227, 0.14772149920463562, -0.28856194019317627, -0.00638911547139287, -0.39852869510650635, 0.18053382635116577, -0.4615468978881836, -0.09080136567354202, 0.04609709978103638, 0.25889351963996887, -0.20713935792446136, -0.10478448867797852, 0.30442753434181213, -0.1257452666759491, -0.32709693908691406, -0.5663973093032837, 0.03786154463887215, 0.19276654720306396, 0.008822295814752579, -0.2863689661026001, 0.4362882375717163, -0.2561233937740326, 0.020148975774645805, -0.026376552879810333], [-0.3268875479698181, -0.32597702741622925, -0.13687163591384888, -0.0031787939369678497, -0.011695828288793564, 0.10983186960220337, 0.2855798900127411, 0.1881917119026184, -0.09334151446819305, 0.05565734952688217, -0.14359340071678162, -0.15360741317272186, 0.024096127599477768, -0.17077568173408508, 0.1793220192193985, 0.17307355999946594, -0.008960100822150707, -0.2559360861778259, -0.09075742214918137, -0.20945805311203003, -0.3146457076072693, 0.013595964759588242, -0.16104698181152344, -0.2747145891189575], [0.35273492336273193, -0.0661318451166153, -0.13767553865909576, -0.22786615788936615, 0.08627332746982574, -0.1316315084695816, -0.07832944393157959, 0.16876371204853058, 0.2421729862689972, -0.09230737388134003, -0.09660980105400085, -0.3860003650188446, 0.041905906051397324, 0.2802698612213135, -0.10116195678710938, -0.18368926644325256, 0.14867743849754333, 0.03639256954193115, 0.012288009747862816, -0.24614661931991577, -0.03975297510623932, -0.1250382959842682, 0.18961568176746368, -0.23124846816062927], [-0.13678951561450958, 0.1902283877134323, 0.22190776467323303, -0.2035280466079712, -0.042326997965574265, 0.007945333607494831, -0.0379456952214241, 0.22871318459510803, 0.06363682448863983, -0.20662672817707062, -0.1581290066242218, 0.23770606517791748, -0.02568863332271576, 0.33429282903671265, 0.031007278710603714, 0.2136845886707306, 0.15186750888824463, 0.19477567076683044, -0.08409827947616577, 0.09454658627510071, 0.15845374763011932, -0.09093940258026123, -0.22786471247673035, 0.1654975414276123], [-0.23240652680397034, 0.3719148635864258, -0.25318682193756104, -0.17456120252609253, 0.10951457917690277, -0.0709061324596405, 0.11387120187282562, -0.4421589970588684, 0.4569914937019348, 0.18836402893066406, -0.28711992502212524, -0.0778413638472557, -0.018739184364676476, 0.07923226058483124, 0.17388460040092468, 0.10783803462982178, -0.1462388038635254, -0.12046416848897934, -0.08257520943880081, -0.09226801991462708, 0.3083581328392029, 0.3382570743560791, -0.14566704630851746, 0.2854325473308563], [-0.06602832674980164, -0.24744099378585815, 0.18854528665542603, -0.2110767960548401, -0.3768042325973511, 0.3749929666519165, 0.4430829882621765, -0.21758078038692474, 0.15011820197105408, 0.04871406406164169, 0.20570367574691772, 0.2624095678329468, 0.050332069396972656, -0.27428877353668213, 0.2888661026954651, -0.34510523080825806, -0.016982991248369217, 0.43153566122055054, 0.12258337438106537, 0.017149049788713455, 0.10038810968399048, 0.4092690944671631, 0.2570471167564392, -0.0345500186085701], [-0.15270905196666718, -0.2732202410697937, 0.038256920874118805, 0.02713881805539131, 0.016209330409765244, 0.3282800316810608, -0.13258740305900574, -0.2824680209159851, 0.06120210140943527, 0.043964385986328125, 0.13657858967781067, -0.08687446266412735, 0.014000046998262405, -0.1567867249250412, -0.08855089545249939, 0.13618925213813782, 0.034423068165779114, -0.15949031710624695, 0.18153363466262817, -0.06688228249549866, 0.4437403082847595, 0.12960097193717957, 0.08376142382621765, -0.02178489789366722], [-0.1219312995672226, -0.06508278846740723, -0.12498314678668976, -0.12854382395744324, 0.1674371063709259, -0.40167000889778137, 0.1925554871559143, 0.3036556839942932, -0.20347878336906433, 0.08756102621555328, -0.03688155859708786, 0.15304899215698242, -0.3092920780181885, -0.18648341298103333, -0.04016958922147751, -0.05249848961830139, -0.17145609855651855, 0.27625158429145813, 0.28217360377311707, 0.05450412631034851, 0.3404555916786194, -0.03136344254016876, -0.085787832736969, -0.14878809452056885], [-0.20016871392726898, -0.24758973717689514, -0.023661009967327118, -0.32512301206588745, 0.097398541867733, 0.3384058177471161, 0.14892128109931946, -0.23337046802043915, 0.20453381538391113, 0.02127252332866192, 0.305932879447937, 0.01219148002564907, 0.2746380865573883, -0.01986367255449295, -0.004258435219526291, -0.07374200224876404, -0.3828538656234741, 0.21020938456058502, 0.27511245012283325, -0.10399053990840912, -0.10838097333908081, -0.19263434410095215, 0.1302008181810379, 0.11389055848121643], [0.04180191457271576, -0.01388324610888958, -0.4121491312980652, -0.4462098181247711, 0.44035065174102783, 0.6387001276016235, -0.11571613699197769, -0.19244730472564697, 0.010962815955281258, -0.1772608757019043, 0.04059063643217087, 0.41642874479293823, 0.1000516265630722, -0.19664768874645233, -0.41582244634628296, -0.22936677932739258, 0.05442782863974571, -0.06313741952180862, 0.6319765448570251, 0.16585573554039001, -0.0020253050606697798, 0.1740695685148239, -0.4367300868034363, -0.16438494622707367], [-0.28547993302345276, 0.07337808609008789, 0.4317612648010254, 0.001698623294942081, 0.2463914453983307, -0.3085625171661377, -0.0023247473873198032, -0.23237231373786926, -0.06816060841083527, 0.2876790165901184, 0.3007364273071289, -0.3375328779220581, -0.08339907974004745, 0.4646243453025818, 0.18481115996837616, -0.06457799673080444, 0.14939606189727783, 0.07701367139816284, -0.2837931513786316, -0.04714854806661606, 0.01445363275706768, -0.24126319587230682, -0.2042875438928604, 0.05948040634393692], [-0.10268215835094452, -0.09514930844306946, -0.13652712106704712, 0.11227292567491531, -0.1771707534790039, 0.21756544709205627, -0.16502058506011963, 0.35589098930358887, 0.09873618185520172, 0.1841256469488144, -0.02777676284313202, -0.07440398633480072, -0.0902642160654068, 0.012489339336752892, -0.09206904470920563, -0.2500532269477844, -0.08799099922180176, -0.2547993063926697, -0.27360665798187256, -0.06891840696334839, -0.3895336389541626, 0.3557797968387604, 0.1474786102771759, 0.08556444942951202], [0.18774905800819397, 0.1191406100988388, -0.2996893525123596, 0.053278032690286636, 0.2171369194984436, -0.07323919981718063, 0.388213574886322, -0.32275739312171936, -0.01445564441382885, -0.39416372776031494, 0.025294892489910126, -0.03858250379562378, -0.13157737255096436, 0.14677049219608307, -0.02117707021534443, -0.21583504974842072, -0.1365448534488678, -0.31042855978012085, 0.3645753860473633, 0.0015886103501543403, -0.07594215869903564, 0.2347729504108429, 0.34075844287872314, -0.21163028478622437], [0.2668375074863434, 0.06558835506439209, -0.4193050265312195, 0.1737479865550995, 0.20724064111709595, 0.34776175022125244, 0.36010393500328064, -0.023636560887098312, -0.2841505706310272, -0.40683096647262573, -0.3129160404205322, 0.09182188659906387, 0.04003653675317764, -0.054766733199357986, 0.37844693660736084, 0.026320399716496468, -0.134144127368927, -0.35481125116348267, 0.116599440574646, -0.04198136180639267, 0.4059453010559082, 0.2507081627845764, 0.3672396242618561, 0.2897796630859375], [0.2102900594472885, -0.05301060527563095, -0.0047339401207864285, -0.038749948143959045, 0.0008180459844879806, 0.12080521881580353, -0.08867808431386948, -0.3212214708328247, -0.004442724399268627, 0.08180086314678192, -0.12110590934753418, 0.1715812087059021, -0.34129011631011963, 0.18433812260627747, -0.27669501304626465, 0.1334344744682312, 0.2534946799278259, 0.12510839104652405, -0.09685753285884857, -0.043961428105831146, 0.16860055923461914, 0.006214175373315811, 0.2449970245361328, -0.19534650444984436], [0.1402774453163147, 0.05964202433824539, -0.16342610120773315, 0.15139269828796387, 0.14818257093429565, 0.2994428873062134, -0.00046892373939044774, -0.2703380584716797, -0.007554682902991772, 0.10220859199762344, -0.2910956144332886, -0.13626131415367126, 0.24624724686145782, 0.016334500163793564, -0.12803852558135986, -0.06360996514558792, -0.09310563653707504, 0.12020041048526764, 0.13463160395622253, -0.16170333325862885, 0.1753879189491272, 0.06793112307786942, 0.3302144408226013, -0.2606787085533142], [0.2429008036851883, 0.23192501068115234, -0.1294248402118683, 0.28672194480895996, -0.015013951808214188, 0.030575772747397423, 0.09160229563713074, -0.20138922333717346, 0.025045523419976234, 0.04105038195848465, 0.041822269558906555, -0.10942522436380386, 0.36971092224121094, -0.16158460080623627, 0.27238649129867554, 0.3006212115287781, 0.3405475914478302, -0.13547581434249878, 0.256120502948761, -0.3784540593624115, 0.10364781320095062, 0.03262394666671753, 0.26432257890701294, -0.1372152864933014], [-0.018512092530727386, -0.1447267085313797, -0.06741027534008026, -0.2565712332725525, 0.2835101783275604, 0.4134221076965332, -0.23505061864852905, -0.15367956459522247, 0.09668070077896118, 0.08891940116882324, -0.0516272708773613, 0.005383448675274849, 0.18731607496738434, -0.17772625386714935, 0.1115117073059082, -0.1556631177663803, -0.32961785793304443, 0.04316674917936325, -0.00792660191655159, -0.13392922282218933, 0.0008976014796644449, -0.06522253900766373, -0.4544486999511719, 0.2168300747871399]]}, "3-": {"kernel": [[0.1904013305902481, -0.007931608706712723, -0.21536342799663544, -0.07586148381233215, 0.07239720225334167, -0.013389846310019493, 0.2420281618833542, 0.1254476010799408, -0.14490044116973877, -0.0677640289068222, -0.14831221103668213, 0.5126680135726929, -0.04234135523438454, -0.27656370401382446, -0.23923853039741516, 0.19182497262954712, -0.025915762409567833, -0.11629857122898102, -0.2559558153152466, 0.2967734932899475, -0.04801440238952637, -0.16693979501724243, 0.01939711533486843, 0.4023250937461853], [0.518761396408081, -0.09108056128025055, 0.3565158247947693, -0.07300767302513123, -0.3317573666572571, 0.40191030502319336, -0.3683127760887146, 0.18935568630695343, 0.12752997875213623, 0.21658238768577576, 0.3823468089103699, 0.3194798231124878, 0.2495650053024292, 0.20501893758773804, -0.21585789322853088, 0.04341692477464676, -0.28797465562820435, 0.40362024307250977, 0.04533892869949341, -0.10503141582012177, -0.23534221947193146, -0.06994524598121643, 0.0034793356899172068, -0.2359527051448822], [-0.2721855044364929, -0.12271491438150406, -0.23054927587509155, 0.26784902811050415, 0.1197143942117691, -0.2646182179450989, 0.2364611029624939, 0.09011837840080261, -0.36285388469696045, -0.3225947618484497, 0.16538500785827637, -0.3008999228477478, 0.20036742091178894, -0.05895140394568443, 0.1311211735010147, 0.2955407500267029, 0.31132614612579346, 0.01418950967490673, 0.5980342030525208, -0.19722788035869598, -0.11075529456138611, -0.1960287243127823, 0.14421424269676208, -0.2557533383369446], [-0.33064401149749756, 0.018254658207297325, 0.19872057437896729, 0.020645171403884888, 0.0739508792757988, 0.14459723234176636, 0.0923895463347435, -0.0806557685136795, 0.44330769777297974, 0.026154838502407074, 0.20206326246261597, 0.2742202579975128, 0.24805456399917603, -0.14296850562095642, -0.3079381585121155, -0.11956572532653809, -0.053196996450424194, 0.030302274972200394, -0.12602326273918152, 0.2850024700164795, 0.22453325986862183, -0.22844743728637695, -0.013446257449686527, -0.17094159126281738], [0.02420371025800705, 0.02499769814312458, 0.17241957783699036, -0.0365954264998436, 0.03814205527305603, 0.07298700511455536, -0.044016409665346146, -0.28763049840927124, 0.19892221689224243, -0.4274590015411377, 0.19477975368499756, -0.19025740027427673, 0.04986284673213959, 0.062428101897239685, 0.10632900893688202, -0.04884818568825722, 0.11744445562362671, -0.4712209403514862, 0.04084371030330658, 0.21877607703208923, -0.17983029782772064, 0.058992400765419006, 0.0886864960193634, 0.08015063405036926], [-0.32865795493125916, -0.1030188500881195, 0.12994912266731262, 0.3302158713340759, -0.017551472410559654, -0.22624558210372925, 0.08444361388683319, 0.09538491070270538, -0.00036352011375129223, -0.0822816789150238, 0.0475669726729393, -0.2819021940231323, -0.00875801406800747, 0.018044866621494293, 0.11301296949386597, -0.031669892370700836, 0.3363613784313202, 0.4751673638820648, 0.07338063418865204, -0.2662769556045532, 0.05042457580566406, -0.2032741755247116, -0.24589261412620544, -0.23622119426727295], [0.26394009590148926, 0.10276617109775543, 0.15032406151294708, 0.4597558379173279, 0.13612893223762512, -0.21608732640743256, 0.16180334985256195, -0.34404802322387695, -0.07372434437274933, -0.326164186000824, 0.17638570070266724, -0.2083636373281479, -0.31654325127601624, -0.3453437387943268, 0.15215496718883514, -0.21107041835784912, 0.04629252478480339, 0.14100278913974762, 0.375141441822052, -0.311604380607605, -0.11597657203674316, -0.20041365921497345, -0.08364661037921906, -0.5311594009399414], [-0.019612960517406464, 0.009224697016179562, 0.017690695822238922, 0.1185198724269867, 0.1731126457452774, 0.17071682214736938, -0.002221097471192479, 0.14140015840530396, -0.2079424262046814, -0.4493555724620819, -0.06103161722421646, 0.5298227071762085, 0.0019897460006177425, -0.25555548071861267, -0.3088659644126892, -0.031599584966897964, 0.021861838176846504, 0.12856528162956238, -0.044013090431690216, 0.0932166576385498, -0.14878013730049133, 0.06515952944755554, -0.37018951773643494, -0.12356983125209808], [0.1985216736793518, -0.008831530809402466, 0.016189083456993103, 0.5111040472984314, 0.20682385563850403, -0.43473678827285767, 0.0036018481478095055, -0.2160947620868683, -0.08283017575740814, -0.09417985379695892, -0.05532967671751976, -0.05700631067156792, -0.29996272921562195, -0.2072630226612091, 0.23453941941261292, -0.12400615215301514, 0.0920821875333786, -0.2803289294242859, 0.4052370488643646, -0.19158518314361572, 0.262472540140152, -0.06708914041519165, -0.20607995986938477, -0.3080177903175354], [0.06208086386322975, 0.42264747619628906, -0.29140913486480713, 0.06512333452701569, -0.09393519163131714, 0.08499255776405334, -0.5027211904525757, 0.2319108247756958, 0.1063651368021965, 0.2940732538700104, -0.2730085849761963, 0.17485332489013672, 0.22353696823120117, 0.23808519542217255, 0.05328703671693802, -0.20449578762054443, -0.2068156898021698, 0.4151424765586853, 0.05811960622668266, -0.08250129222869873, -0.13725075125694275, -0.20183800160884857, 0.11468662321567535, 0.05016302317380905], [-0.1794968843460083, -0.0007870455156080425, 0.027419500052928925, 0.06405624002218246, 0.10414034873247147, -0.11591527611017227, 0.2361319661140442, 0.2472672015428543, 0.4551372528076172, -0.0352722704410553, 0.007695331238210201, -0.03202563524246216, 0.24217575788497925, -0.08426222205162048, -0.1876816749572754, 0.1861838549375534, -0.3829628825187683, 0.021780185401439667, 0.13819630444049835, 0.13101714849472046, 0.28202688694000244, -0.27967530488967896, -0.11701854318380356, -0.3488931655883789], [0.1072535514831543, -0.03361628204584122, 0.2713838219642639, 0.05915813148021698, -0.29537904262542725, 0.07548104226589203, 0.19270436465740204, -0.16883379220962524, -0.15785223245620728, 0.0591546967625618, 0.10238766670227051, -0.21175076067447662, -0.1016177386045456, -0.23718667030334473, -0.025166869163513184, 0.1443292796611786, 0.1269654780626297, -0.09161271899938583, -0.40395790338516235, -0.2357122153043747, 0.10883687436580658, -0.08894778788089752, -0.16324390470981598, 0.0755467414855957], [0.20190496742725372, 0.10532155632972717, 0.059482425451278687, -0.45817798376083374, -0.3217372000217438, 0.11957702785730362, -0.22078707814216614, -0.1301778256893158, -0.07536453008651733, -0.20457015931606293, 0.20834310352802277, -0.08688011765480042, 0.17748966813087463, 0.34117692708969116, 0.015784509479999542, -0.06055141240358353, 0.2465505599975586, -0.09756572544574738, -0.17082935571670532, 0.12815944850444794, -0.002456300426274538, 0.3076578974723816, 0.044213250279426575, 0.051625411957502365], [0.04108627140522003, 0.2539912462234497, -0.10449530184268951, -0.04910959303379059, -0.36643826961517334, 0.0382867306470871, 0.05262289196252823, 0.18247561156749725, -0.005785349756479263, 0.18777430057525635, 0.02732698991894722, -0.22278624773025513, -0.04818993806838989, -0.06686536222696304, -0.0006016857805661857, -0.11815601587295532, 0.06267260760068893, 0.2028033435344696, -0.07072603702545166, 0.07444040477275848, -0.015838710591197014, -0.11061768233776093, 0.3174995183944702, -0.10803726315498352], [0.12568464875221252, -0.15066219866275787, -0.057336825877428055, 0.40937939286231995, -0.00011569240450626239, -0.09890002012252808, -0.12279058247804642, 0.046242453157901764, 0.22145786881446838, -0.2022552490234375, 0.1247607171535492, 0.16435760259628296, 0.16486921906471252, -0.03339163959026337, -0.09304492175579071, 0.1162157729268074, 0.3155358135700226, -0.004426529165357351, 0.18598981201648712, 0.05736158788204193, -0.2853827476501465, -0.3278421461582184, 0.3495723009109497, -0.2318248450756073], [0.16560742259025574, -0.23795896768569946, 0.11287342011928558, -0.20376628637313843, -0.0028309328481554985, 0.21544256806373596, -0.13602924346923828, 0.14380645751953125, 0.3937751054763794, -0.10169424116611481, 0.35042738914489746, -0.11478318274021149, -0.002084672451019287, 0.1915818303823471, -0.17408473789691925, 0.28025442361831665, -0.47988173365592957, -0.13608577847480774, -0.31612735986709595, 0.26618459820747375, -0.2430187463760376, 0.39576154947280884, 0.06908048689365387, 0.17161551117897034], [-0.015440650284290314, 0.25736719369888306, -0.4426390528678894, -0.24587571620941162, 0.2530050277709961, -0.014741895720362663, 0.24267923831939697, 0.2976287305355072, -0.08199363946914673, -0.047402627766132355, 0.0835815966129303, -0.16807079315185547, 0.30532991886138916, 0.3989919424057007, -0.035733990371227264, 0.09513859450817108, -0.2330390363931656, 0.16190670430660248, 0.4793098568916321, 0.01633341982960701, -0.10648931562900543, 0.10911908745765686, 0.18036775290966034, 0.01390109397470951], [-0.1743067502975464, -0.4612964391708374, -0.01788613572716713, 0.10469396412372589, -0.13296182453632355, -0.2106279730796814, -0.1563444435596466, -0.1477574110031128, 0.3984803557395935, -0.014962289482355118, -0.25274908542633057, 0.4225226044654846, 0.10940726101398468, 0.04015165939927101, 0.11395984888076782, -0.11401346325874329, -0.26925480365753174, 0.03821907564997673, 0.23017528653144836, -0.012916633859276772, -0.10274869948625565, -0.2515838146209717, 0.10815480351448059, -0.2925668954849243], [0.0772794634103775, -0.04563884809613228, -0.3984951078891754, 0.2815343737602234, -0.12335637211799622, 0.04842548072338104, -0.19880561530590057, -0.012409914284944534, 0.2052287757396698, 0.0688662976026535, -0.036402810364961624, 0.012956798076629639, 0.11484764516353607, 0.10445106029510498, -0.21495987474918365, -0.3004745543003082, -0.11742961406707764, 0.3321837782859802, -0.12605394423007965, 0.08365708589553833, -0.2104167640209198, 0.05411524325609207, 0.10544335097074509, -0.0567077174782753], [0.0046195415779948235, -0.17016053199768066, 0.03808581084012985, 0.422029972076416, 0.20478969812393188, 0.12008126080036163, -0.007915079593658447, -0.3903641402721405, -0.15863832831382751, 0.018049366772174835, -0.21446895599365234, 0.41960710287094116, 0.025618387386202812, -0.11519225686788559, -0.34285789728164673, -0.10559022426605225, 0.11843371391296387, 0.07470770180225372, 0.26844286918640137, -0.15315236151218414, -0.07098636776208878, 0.07179836928844452, -0.005241219885647297, -0.3218440115451813], [0.45647501945495605, -0.19939231872558594, -0.31802552938461304, -0.13351210951805115, -0.300045371055603, -0.18808148801326752, 0.01725904643535614, -0.14740122854709625, 0.04103701561689377, -0.1300055831670761, -0.07610045373439789, 0.19466771185398102, 0.38466158509254456, -0.42449358105659485, -0.06082778424024582, 0.02671138197183609, -0.0966370552778244, 0.2972050905227661, -0.39502397179603577, 0.3434225022792816, -0.21300008893013, 0.066152423620224, -0.16570910811424255, -0.004372285213321447], [0.20205426216125488, 0.1283138543367386, -0.13732770085334778, -0.17655667662620544, 0.16223132610321045, -0.13556694984436035, -0.21454450488090515, -0.03846067562699318, -0.213355153799057, -0.44901081919670105, 0.22857776284217834, 0.3385522961616516, -0.39408034086227417, 0.1434868425130844, -0.2425140142440796, -0.17690913379192352, -0.08434613049030304, 0.06096908450126648, -0.20540162920951843, 0.1149611845612526, -0.19539164006710052, 0.10179181396961212, 0.05849486589431763, 0.16676323115825653], [0.09719595313072205, 0.3119126558303833, 0.42070069909095764, -0.5147255659103394, -0.25798505544662476, 0.5666981935501099, 0.4248521625995636, -0.0896894633769989, -0.09018515795469284, -0.371127724647522, -0.0013999345246702433, -0.14891129732131958, 0.05569079518318176, 0.22185805439949036, -0.222059428691864, 0.10420909523963928, 0.20131094753742218, -0.13419970870018005, -0.13169756531715393, 0.1357918381690979, -0.0005157794803380966, -0.25791826844215393, -0.02381247840821743, 0.20332807302474976], [-0.040148913860321045, -0.019424613565206528, -0.25510695576667786, -0.3282666802406311, 0.07508932799100876, -0.05396970361471176, 0.1564943492412567, -0.3184533715248108, 0.4276966154575348, 0.33623790740966797, -0.2265574336051941, -0.2886267900466919, 0.06601317226886749, -0.037945929914712906, 0.16227835416793823, -0.24123340845108032, 0.36749255657196045, -0.13755586743354797, 0.37393879890441895, -0.2498200237751007, -0.056629084050655365, 0.14829076826572418, -0.12839873135089874, -0.4050888419151306]]}, "4+": {"kernel": [[0.40806740522384644, -0.2186611443758011, 0.07576953619718552, -0.413784921169281, -0.30562660098075867, 0.04083756357431412, -0.11701539158821106, -0.045659713447093964, 0.04056531563401222, 0.17497456073760986, -0.0714101493358612, 0.035947564989328384, 0.22052237391471863, 0.21650373935699463, -0.32821419835090637, 0.10321231931447983, 0.024448402225971222, -0.018820274621248245, 0.013287950307130814, -0.44088518619537354, -0.1673116236925125, 0.02824641577899456, -0.125494122505188, -0.22494450211524963], [0.019656192511320114, -0.14066757261753082, -0.12295003235340118, 0.1621503233909607, -0.121416836977005, 0.08009758591651917, -0.2637140154838562, 0.29061180353164673, 0.3380464017391205, -0.18739205598831177, -0.39230039715766907, 0.3568200170993805, -0.09090954065322876, 0.1471218764781952, 0.05326863378286362, 0.15481503307819366, -0.4152520000934601, 0.04356823489069939, 0.10652941465377808, -0.014447227120399475, -0.1426786631345749, 0.1296568065881729, 0.08685515075922012, -0.37111136317253113], [-0.13529765605926514, -0.27654528617858887, -0.07563074678182602, -0.144100159406662, -0.2024994194507599, -0.02318202704191208, 0.1773069053888321, -0.22500446438789368, 0.1855866014957428, -0.26406002044677734, -0.007046259008347988, 0.09904921054840088, -0.042380958795547485, -0.043797753751277924, -0.02273477427661419, -0.11028528213500977, 0.0028718016110360622, -0.009324517101049423, 0.03522133082151413, 0.29039108753204346, 0.08242553472518921, 0.3666962683200836, -0.23390203714370728, 0.32905083894729614], [0.11526058614253998, 0.09776993095874786, -0.3664590120315552, -0.0016758929705247283, -0.11213750392198563, 0.5076136589050293, 0.22601674497127533, 0.3395867347717285, 0.34035345911979675, 0.10854491591453552, -0.3777318596839905, 0.12464505434036255, -0.29717835783958435, -0.12506422400474548, 0.1295248568058014, -0.45218271017074585, -0.3001026511192322, 0.07789616286754608, -0.08160652220249176, -0.06954756379127502, 0.18286460638046265, 0.22050029039382935, 0.24825119972229004, 0.13433989882469177], [-0.1278853416442871, -0.209620863199234, -0.016752902418375015, 0.14554497599601746, -0.14106303453445435, -0.20949287712574005, -0.42190834879875183, 0.11301442235708237, 0.02566627785563469, -0.09929606318473816, 0.26961350440979004, -0.04321930557489395, 0.20416583120822906, -0.04895377904176712, 0.0749603658914566, -0.3616545796394348, 0.30347710847854614, 0.05340847373008728, -0.1404639482498169, 0.07650631666183472, -0.019354626536369324, -0.08771499991416931, 0.26171714067459106, 0.04397168755531311], [0.14741992950439453, -0.14007343351840973, -0.20405422151088715, 0.052684277296066284, -0.24439175426959991, 0.24539512395858765, 0.3962070941925049, -0.06882934272289276, -0.39639049768447876, 0.05189518257975578, 0.015582261607050896, -0.23422770202159882, -0.49853014945983887, 0.2117277830839157, -0.08088889718055725, -0.03386297449469566, -0.3019692003726959, -0.08088289201259613, 0.41216033697128296, -0.32194286584854126, -0.027782700955867767, -0.16117635369300842, 0.1312648355960846, -0.270928293466568], [-0.013940762728452682, 0.01809740997850895, 0.06247430294752121, -0.26516979932785034, -0.036789096891880035, -0.03749404475092888, -0.101613849401474, -0.22924742102622986, 0.1488894671201706, 0.22024698555469513, -0.07256151735782623, 0.21095067262649536, -0.03174619376659393, -0.10503903776407242, 0.19862627983093262, -0.29047077894210815, 0.36993855237960815, 0.31287020444869995, 0.31042730808258057, -0.04569510370492935, -0.1635604202747345, 0.0013102747034281492, 0.14764025807380676, 0.40787774324417114], [0.10684201121330261, -0.39589571952819824, -0.19968822598457336, 0.003763809334486723, 0.07991147041320801, 0.1323724389076233, -0.026628656312823296, -0.16766345500946045, -0.32898807525634766, 0.4388096332550049, 0.041244231164455414, 0.09806860983371735, 0.250009149312973, -0.12181612104177475, -0.3221386671066284, 0.3892887234687805, -0.07520066201686859, -0.10439915955066681, 0.2941204905509949, 0.002111998852342367, 0.41558361053466797, -0.03557346761226654, -0.06563815474510193, -0.41310635209083557], [0.2529488205909729, -0.1653086096048355, -0.011198733001947403, 0.47792118787765503, 0.3952690362930298, 0.07210787385702133, 0.3358367383480072, 0.013942481018602848, -0.0659085363149643, -0.41493654251098633, -0.008919818326830864, 0.09072743356227875, 0.2798556387424469, -0.013255815953016281, -0.057946596294641495, 0.2268325537443161, -0.07443149387836456, 0.0668032318353653, 0.12495027482509613, -0.33316266536712646, -0.43288493156433105, 0.20431095361709595, -0.46093785762786865, -0.09391036629676819], [0.03313609957695007, -0.08030903339385986, -0.2822647988796234, -0.036249421536922455, -0.11073177307844162, 0.3418167233467102, 0.1282370686531067, 0.2958524823188782, 0.13171905279159546, -0.10370377451181412, 0.09141509234905243, -0.006277003325521946, 0.12771189212799072, 0.33923208713531494, -0.20333746075630188, -0.04224348068237305, 0.12033123522996902, -0.07861318439245224, 0.21944162249565125, -0.10916415601968765, -0.0239375289529562, -0.08787529170513153, -0.2973167598247528, 0.12510612607002258], [0.12890981137752533, -0.3424326777458191, 0.10497696697711945, -0.17697960138320923, -0.16600999236106873, -0.20717930793762207, -0.3146733045578003, -0.14927563071250916, 0.028437333181500435, 0.012908315286040306, -0.057702723890542984, -0.0044228695333004, -0.36853185296058655, 0.2868362069129944, 0.044623002409935, -0.07447052001953125, 0.2904070019721985, 0.21976378560066223, -0.04190683364868164, 0.07523540407419205, 0.08412198722362518, 0.14587950706481934, -0.1715480387210846, -0.071877121925354], [-0.09092918038368225, 0.22504428029060364, 0.20588615536689758, -0.28550484776496887, -0.050324033945798874, -0.21890082955360413, 0.27626168727874756, 0.053264521062374115, -0.4360344409942627, -0.14384934306144714, 0.24426770210266113, 0.06050083041191101, -0.005343260243535042, 0.07021692395210266, -0.21001777052879333, 0.16691100597381592, 0.3840597867965698, -0.005949166137725115, -0.1301637887954712, -0.30596867203712463, 0.13493245840072632, -0.05849496275186539, -0.019245173782110214, 0.03604968264698982], [0.29209834337234497, -0.2471647560596466, 0.10879538953304291, -0.2142009735107422, 0.0653582513332367, 0.03634641319513321, -0.10095512866973877, 0.12383919954299927, -0.017448503524065018, -0.029331699013710022, 0.02877766080200672, 0.18209582567214966, 0.17078393697738647, -0.42873701453208923, 0.19226831197738647, -0.11089764535427094, -0.14098437130451202, -0.2574106454849243, 0.12211298197507858, 0.33675307035446167, 0.08504277467727661, 0.36951160430908203, 0.2921738028526306, -0.23982086777687073], [-0.17283987998962402, -0.058422744274139404, -0.1817181408405304, -0.2975384593009949, 0.4142618179321289, 0.07914499938488007, 0.4316784739494324, 0.21163687109947205, -0.27444303035736084, 0.06157071143388748, -0.11814063787460327, 0.2073248326778412, -0.16163450479507446, 0.33404964208602905, 0.12834368646144867, 0.20033136010169983, -0.47618579864501953, 0.03486267477273941, 0.13973501324653625, -0.2565487027168274, -0.4757812023162842, 0.20106282830238342, 0.039243005216121674, -0.18315529823303223], [0.40309035778045654, -0.012643174268305302, -0.0589759424328804, 0.5995876789093018, 0.08906977623701096, -0.24589620530605316, -0.14036300778388977, 0.11139534413814545, 0.30188971757888794, 0.19745880365371704, 0.0577118881046772, -0.06968602538108826, 0.1457487940788269, 0.2653915584087372, 0.12603554129600525, 0.2315843552350998, 0.04818129539489746, -0.07226264476776123, 0.04598723351955414, 0.07687970995903015, -0.14431548118591309, -0.40977293252944946, -0.2028403878211975, -0.4080566465854645], [-0.11354364454746246, -0.14913205802440643, 0.051635026931762695, 0.2857850193977356, -0.3072429895401001, 0.31077831983566284, 0.17598959803581238, -0.21567697823047638, 0.3585522174835205, -0.08061285316944122, 0.4515745937824249, 0.24932801723480225, 0.024843106046319008, 0.22313126921653748, 0.41983762383461, -0.015336893498897552, -0.17232543230056763, -0.0052291033789515495, 0.05759567394852638, -0.44252514839172363, 0.3245769739151001, -0.10120469331741333, 0.05715040862560272, -0.03376425430178642], [-0.11772815883159637, -0.12301642447710037, 0.13993610441684723, 0.095650315284729, 0.022379480302333832, -0.3881276249885559, 0.284199059009552, 0.056680236011743546, -0.08154907822608948, -0.32128411531448364, 0.059035446494817734, 0.07040491700172424, 0.10628338158130646, 0.15119493007659912, -0.2865232229232788, 0.3822211027145386, -0.054533667862415314, -0.011803367175161839, 0.15826696157455444, 0.12673023343086243, -0.08215976506471634, -0.42270785570144653, -0.23353159427642822, -0.08658106625080109], [0.010426493361592293, 0.015118950977921486, -0.14831450581550598, -0.357326865196228, -0.2011892944574356, -0.369448721408844, 0.15049242973327637, 0.2015162706375122, -0.021200351417064667, 0.213698148727417, 0.39175230264663696, -0.3367586135864258, -0.3843255341053009, 0.16004717350006104, 0.22797849774360657, -0.25249844789505005, -0.21601185202598572, 0.09182937443256378, 0.037606220692396164, -0.045297086238861084, 0.024288024753332138, -0.0017410493455827236, 0.1778290569782257, -0.29598671197891235], [0.23992910981178284, 0.34086722135543823, -0.09206771850585938, -0.09116493165493011, -0.309442937374115, -0.038758158683776855, -0.2211558073759079, -0.31491541862487793, 0.043902747333049774, 0.27400949597358704, -0.1993710696697235, 0.10727270692586899, 0.03989393264055252, 0.01248212717473507, 0.40696001052856445, 0.17610657215118408, 0.25198793411254883, -0.0936959981918335, -0.021900007501244545, -0.10322970151901245, 0.1279975175857544, -0.02324921265244484, -0.18180438876152039, -0.34156134724617004], [0.03746803104877472, 0.026639532297849655, 0.19100987911224365, -0.20651888847351074, 0.027945104986429214, -0.19245696067810059, -0.029522329568862915, 0.24806930124759674, -0.08520346134901047, 0.3146114945411682, -0.09078335762023926, -0.2190914750099182, 0.12856356799602509, -0.2177485227584839, 0.13090431690216064, -0.18813955783843994, -0.1110140010714531, 0.13328289985656738, -0.026638448238372803, 0.11930090188980103, 0.41596823930740356, -0.20693297684192657, -0.3868950605392456, -0.39614492654800415], [-0.17713245749473572, 0.13092687726020813, 0.31217432022094727, -0.17775872349739075, 0.04002925381064415, -0.10047248005867004, -0.1357964277267456, -0.16894304752349854, -0.32895463705062866, -0.20578035712242126, -0.0737907886505127, -0.1890711784362793, -0.43311071395874023, 0.042660653591156006, -0.2405424416065216, -0.2328050136566162, 0.026547495275735855, 0.12424472719430923, 0.007614588364958763, 0.10388419777154922, 0.48540300130844116, 0.07434747368097305, -0.3369797468185425, 0.2676142156124115], [-0.2112002670764923, 0.057956308126449585, -0.14444002509117126, -0.26603496074676514, -0.1323440670967102, -0.39498066902160645, -0.01974763348698616, 0.15343688428401947, -0.18082740902900696, -0.4560011029243469, 0.35321080684661865, -0.09437680244445801, -0.18779867887496948, -0.16709190607070923, 0.008824249729514122, -0.09729639440774918, 0.04977724701166153, 0.10915999114513397, -0.08129218220710754, -0.02459937334060669, -0.22628691792488098, -0.34143131971359253, -0.16108809411525726, 0.1046808511018753], [0.10382341593503952, 0.269109308719635, 0.12554994225502014, -0.4835069179534912, 0.034880131483078, 0.5097789764404297, 0.027791615575551987, -0.1958833783864975, 0.32086384296417236, -0.39740264415740967, -0.5515925884246826, 0.2091985046863556, 0.019603531807661057, 0.22638550400733948, -0.09983290731906891, -0.4586654007434845, -0.38924673199653625, 0.18836846947669983, -0.16515427827835083, 0.26931139826774597, 0.06309126317501068, 0.12180999666452408, 0.2675098776817322, -0.08759269118309021], [-0.26307249069213867, 0.3266047239303589, 0.07687132060527802, -0.03994712233543396, -0.19598230719566345, -0.20315811038017273, -0.3494044840335846, 0.3093499541282654, -0.09320653975009918, -0.21158748865127563, -0.19742047786712646, -0.11991479992866516, -0.3009057939052582, 0.0632728636264801, -0.21811801195144653, -0.11309264600276947, -0.03562691807746887, 0.024077441543340683, -0.23603805899620056, 0.27874085307121277, 0.11174432933330536, 0.017869992181658745, 0.040258847177028656, 0.09974983334541321]]}}, "Dense_1": {"0+": {"bias": [0.2734803855419159, 0.024373434484004974, -0.024107571691274643, -0.09534603357315063, 0.09666658937931061, -0.0600726343691349, 0.12199889123439789, 0.12054884433746338, -0.01278903428465128, -0.09707175195217133, -0.06832558661699295, -0.02626398764550686, 0.058647800236940384, -0.036885932087898254, 0.07114648818969727, -0.16364328563213348, 0.057427942752838135, 0.06230247765779495, 0.10032999515533447, -0.03483628109097481, -0.06987889856100082, -0.08400990068912506, 0.033416830003261566, -0.06973059475421906], "kernel": [[0.0012971132528036833, -0.06156081706285477, -0.2065831422805786, 0.08508695662021637, -0.08505922555923462, -0.04198234900832176, 0.3036324977874756, 0.02616741508245468, -0.19688677787780762, 0.24709106981754303, 0.30546778440475464, -0.04252544045448303, -0.16641193628311157, 0.34968093037605286, 0.02618292160332203, -0.14402616024017334, -0.21312984824180603, -0.21870455145835876, -0.23083160817623138, 0.1505979299545288, 0.21955206990242004, 0.02862226590514183, 0.20852330327033997, 0.047817789018154144], [-0.1394781917333603, -0.3278195559978485, 0.11667374521493912, 0.24103809893131256, -0.21531447768211365, 0.05836055800318718, -0.5725232362747192, 0.09914875775575638, 0.2078889012336731, -0.054802387952804565, 0.45545029640197754, 0.14026695489883423, -0.1550842821598053, -0.15355248749256134, 0.03967061638832092, 0.3649294972419739, -0.0006982970517128706, 0.04740328714251518, -0.27512437105178833, 0.27812284231185913, -0.006913728080689907, 0.2534530758857727, 0.1378658413887024, 0.3809424042701721], [-0.08061997592449188, -0.023184029385447502, 0.2880639433860779, -0.12505215406417847, -0.06387823820114136, -0.07314315438270569, -0.34193265438079834, -0.4621707797050476, 0.12382388114929199, 0.10225145518779755, -0.1954280436038971, -0.0454326793551445, 0.3463858962059021, 0.029204778373241425, 0.3427608609199524, -0.47221171855926514, -0.3074456751346588, -0.4718524217605591, -0.009895102120935917, -0.06762872636318207, 0.008160024881362915, -0.22938261926174164, 0.0779653787612915, -0.29474398493766785], [0.1424732208251953, 0.042659942060709, -0.04388071224093437, -0.2935510277748108, -0.360429972410202, -0.018726754933595657, 0.06299459934234619, 0.18309816718101501, -0.022301670163869858, -0.42864087224006653, -0.1301279366016388, -0.06118274852633476, 0.07207585871219635, 0.009715392254292965, -0.12726005911827087, -0.1531217396259308, 0.21413275599479675, 0.15228858590126038, -0.03395373374223709, 0.24897079169750214, 0.04715290665626526, -0.10360263288021088, 0.4156142473220825, 0.32082313299179077], [0.09971533715724945, -0.16859668493270874, 0.20078051090240479, -0.05195526033639908, 0.34250301122665405, -0.1785757839679718, 0.16830134391784668, -0.2122369408607483, -0.007258306723088026, 0.14990894496440887, -0.22054070234298706, 0.055546198040246964, -0.06581532955169678, 0.038514815270900726, -0.039677515625953674, 0.25778061151504517, 0.06112654134631157, 0.36002859473228455, 0.04280893877148628, -0.25897830724716187, 0.06801110506057739, -0.04700842499732971, 0.14154596626758575, 0.2744618058204651], [-0.3896605670452118, 0.07407339662313461, 0.18272672593593597, -0.009823830798268318, -0.3652775287628174, 0.43484368920326233, 0.022712193429470062, -0.222678080201149, -0.20324616134166718, 0.03499342501163483, 0.45442909002304077, -0.05608014762401581, -0.04027339071035385, -0.029379067942500114, -0.20666846632957458, 0.30760735273361206, -0.25641006231307983, -0.26256486773490906, -0.32539647817611694, 0.04654634743928909, 0.28491073846817017, -0.13258689641952515, 0.01667989231646061, 0.24805933237075806], [0.23755335807800293, 0.008509377017617226, -0.2958320379257202, -0.07137307524681091, 0.15183863043785095, -0.46689337491989136, -0.19229650497436523, 0.2441471517086029, -0.10836876928806305, -0.02148742973804474, -0.30352145433425903, -0.1718689501285553, 0.14990605413913727, -0.035473547875881195, -0.3179548978805542, -0.362098753452301, -0.34789979457855225, -0.13351431488990784, -0.19100159406661987, -0.01990703120827675, -0.03661736845970154, -0.3734012246131897, -0.2557341754436493, 0.10291069000959396], [-0.1517947018146515, 0.34363481402397156, -0.1955057680606842, -0.01756817102432251, -0.0013572962488979101, -0.41980409622192383, 0.033454351127147675, 0.17925620079040527, 0.19412089884281158, -0.12132500112056732, -0.16841106116771698, -0.21062348783016205, 0.058309316635131836, -0.2492767870426178, 0.1501733958721161, -0.08950941264629364, -0.07813364267349243, 0.06967480480670929, -0.14531010389328003, -0.6053375601768494, -0.2452116757631302, -0.06975385546684265, -0.03268938511610031, -0.08309469372034073], [-0.26289260387420654, 0.07646651566028595, 0.06322816014289856, 0.15235015749931335, -0.02735329046845436, 0.3329419493675232, -0.007574969902634621, -0.1856151521205902, -0.16030699014663696, 0.28312408924102783, 0.38834255933761597, -0.22955849766731262, -0.27684372663497925, -0.24006387591362, -0.22288891673088074, 0.07484281063079834, 0.143450528383255, -0.3308640122413635, 0.38747096061706543, 0.8172420263290405, -0.15587180852890015, 0.12093028426170349, -0.008246071636676788, -0.178127259016037], [0.09414499998092651, 0.09614622592926025, -0.3204307556152344, -0.0038137012161314487, 0.2684269845485687, 0.24273747205734253, -0.03072701394557953, 0.2396826446056366, -0.14703238010406494, -0.4086669087409973, -0.014962216839194298, -0.14613023400306702, 0.24292033910751343, -0.33958113193511963, 0.2138279378414154, 0.018059972673654556, -0.24874192476272583, 0.1262158453464508, 0.16062265634536743, -0.06492962688207626, -0.3832854628562927, 0.16108101606369019, 0.16328786313533783, 0.16925714910030365], [-0.2756161093711853, 0.039122626185417175, -0.16572625935077667, 0.18572762608528137, -0.4444441795349121, 0.05376971513032913, 0.006401921156793833, -0.38876956701278687, 0.37203365564346313, 0.5074304938316345, 0.16038258373737335, 0.047033026814460754, -0.23521941900253296, 0.4620370864868164, 0.09799811244010925, 0.0397636815905571, 0.23489812016487122, -0.32246387004852295, -0.24879536032676697, 0.37882179021835327, 0.08990170806646347, 0.1388709545135498, -0.10602918267250061, 0.4361550807952881], [-0.40492480993270874, -0.14484351873397827, -0.6078311204910278, -0.1986098289489746, 0.34120607376098633, -0.29831022024154663, -0.27157747745513916, -0.1151808649301529, 0.24114423990249634, 0.7431745529174805, -0.424324095249176, 0.0441528782248497, 0.22768761217594147, 0.5824729800224304, -0.19182610511779785, -0.21278032660484314, -0.274269700050354, 0.04572777450084686, 0.3250839412212372, 0.332893967628479, 0.13945266604423523, -0.3269217610359192, 0.12194033712148666, -0.06711241602897644], [-0.23354899883270264, 0.05178236961364746, -0.22640028595924377, 0.18405473232269287, -0.3606841564178467, -0.08740752190351486, -0.47597092390060425, 0.2558741867542267, 0.20176124572753906, 0.1925651729106903, -0.04353346675634384, -0.15974745154380798, 0.03214246779680252, -0.1636316478252411, -0.19906771183013916, 0.5288469195365906, 0.13257776200771332, -0.1364198923110962, 0.19910159707069397, 0.4792572855949402, 0.018805112689733505, 0.23724660277366638, 0.0077121686190366745, 0.005457139108330011], [-0.017582397907972336, -0.4165817201137543, -0.08486291766166687, 0.0897722914814949, 0.1446671187877655, 0.04289218410849571, -0.021049976348876953, -0.004176604561507702, 0.00932789035141468, -0.2603783905506134, -0.020897649228572845, -0.13588659465312958, 0.0026798220351338387, 0.3575475811958313, 0.3685670495033264, 0.06277333199977875, -0.07557691633701324, -0.1372857689857483, 0.2724764943122864, 0.19702059030532837, 0.06674966216087341, 0.058979056775569916, -0.473688542842865, -0.12007303535938263], [0.327278196811676, -0.4341183602809906, 0.10131244361400604, 0.1583394706249237, 0.07312028110027313, 0.41797178983688354, 0.12778747081756592, 0.13113558292388916, 0.07462042570114136, 0.3783946633338928, 0.0426798015832901, 0.14905023574829102, 0.16858848929405212, 0.21414844691753387, 0.31937092542648315, 0.12138574570417404, -0.11164877563714981, 0.14512699842453003, 0.13446609675884247, 0.07938258349895477, -0.48609018325805664, -0.10948853194713593, 0.06636781990528107, -0.037303224205970764], [-0.3472118079662323, 0.2837187647819519, 0.09208497405052185, 0.12069207429885864, 0.343445360660553, -0.3107866644859314, 0.23411911725997925, -0.2602446675300598, 0.2791662812232971, 0.08047248423099518, -0.3589093089103699, -0.02347641810774803, 0.04515688866376877, -0.1894184947013855, 0.004732373170554638, -0.19572165608406067, 0.32687658071517944, -0.06389855593442917, 0.32754623889923096, -0.10056515783071518, -0.05760795623064041, 0.14160972833633423, 0.2693450152873993, -0.06866438686847687], [-0.02020534873008728, 0.20863944292068481, -0.4432726800441742, -0.16876386106014252, 0.2570234537124634, -0.173237144947052, 0.1684056520462036, -0.14253267645835876, -0.13044679164886475, -0.04897276312112808, 0.2547565996646881, -0.2678682506084442, 0.08723857253789902, -0.388603150844574, -0.22605887055397034, -0.20812749862670898, 0.13422401249408722, 0.23446014523506165, -0.19756342470645905, -0.03575507551431656, 0.1096293106675148, 0.13187840580940247, -0.057411544024944305, 0.3107317090034485], [-0.044064588844776154, 0.15276676416397095, 0.1264113187789917, -0.3752153217792511, 0.09791672974824905, -0.25889477133750916, -0.2847360372543335, -0.04393967241048813, 0.2705392837524414, -0.10978248715400696, 0.25983715057373047, -0.2968086898326874, 0.012089117430150509, 0.18494060635566711, 0.33096843957901, -0.24820564687252045, 0.19350621104240417, 0.15836751461029053, -0.0005927968886680901, -0.23470798134803772, -0.12646904587745667, -0.5485154390335083, -0.22492162883281708, -0.24136802554130554], [-0.07911457121372223, -0.1150958240032196, -0.15945827960968018, -0.5392232537269592, 0.27817991375923157, -0.19471846520900726, -0.24059106409549713, 0.0063764601945877075, -0.346584677696228, 0.16689182817935944, 0.1531040072441101, -0.5190861225128174, 0.24848203361034393, 0.27212077379226685, 0.4663527011871338, -0.26799434423446655, -0.1992276906967163, 0.08549021184444427, 0.07713930308818817, -0.2830859422683716, -0.10081345587968826, -0.5420620441436768, -0.01641869731247425, -0.340550035238266], [0.20708122849464417, -0.31311920285224915, 0.05993521213531494, 0.23505517840385437, -0.22475570440292358, 0.18053701519966125, -0.004637666512280703, 0.4388633966445923, 0.3124646842479706, 0.2816239595413208, -0.0523579865694046, -0.08026354014873505, 0.027662120759487152, 0.16922403872013092, 0.059732116758823395, -0.041243962943553925, 0.1025610864162445, 0.057363033294677734, 0.3229241371154785, 0.0646899864077568, 0.3433620035648346, 0.05450446158647537, 0.11282595992088318, 0.04771105572581291], [0.7772565484046936, 0.0498369038105011, 0.00406715739518404, 0.32255083322525024, -0.041448820382356644, 0.5242694616317749, 0.07707551121711731, 0.0563744455575943, 0.02646995708346367, 0.15734964609146118, -0.2921741008758545, 0.7619118690490723, 0.06914691627025604, 0.5033962726593018, 0.31401532888412476, 0.35399648547172546, 0.41816121339797974, -0.22802826762199402, 0.874782383441925, 0.7727298736572266, 0.3250281810760498, 0.7197810411453247, -0.20915772020816803, 0.014705630019307137], [-0.2763736844062805, -0.14170414209365845, -0.24757543206214905, 0.055929191410541534, 0.07801012694835663, 0.03578510880470276, 0.29217231273651123, 0.24982218444347382, 0.16271832585334778, 0.2942345142364502, 0.21670997142791748, -0.4129905104637146, 0.09492097795009613, -0.005380334798246622, 0.22964264452457428, -0.011153992265462875, -0.19685280323028564, 0.23234733939170837, -0.43889424204826355, 0.07038424909114838, 0.039688486605882645, 0.06859560310840607, -0.01681390590965748, -0.10061438381671906], [0.03989860415458679, 0.07744043320417404, -0.07185275852680206, -0.39319390058517456, 0.17701691389083862, -0.04044688493013382, 0.024323076009750366, -0.14730754494667053, -0.037872012704610825, -0.22076024115085602, -0.24466261267662048, -0.021028049290180206, -0.23622244596481323, -0.0036825048737227917, -0.22125142812728882, -0.07750524580478668, -0.05857066065073013, -0.1278623342514038, -0.1894451230764389, -0.137577086687088, -0.1456678807735443, -0.027581527829170227, -0.1113663837313652, 0.3089793920516968], [-0.16302773356437683, -0.1969476044178009, -0.4357377588748932, -0.20962423086166382, -0.36967700719833374, -0.2636377215385437, -0.2917357087135315, 0.09329971671104431, 0.13921652734279633, -0.4963039457798004, 0.3871525824069977, -0.22580067813396454, -0.07760557532310486, -0.20406490564346313, -0.06805381178855896, 0.00487137958407402, -0.19702547788619995, 0.3447206914424896, -0.2924893796443939, -0.33792126178741455, 0.22880065441131592, 0.08954758942127228, -0.03659156709909439, 0.47563067078590393]]}, "0-": {"kernel": [[0.10755560547113419, 0.288619726896286, -0.06440766155719757, 0.12556703388690948, 0.13219526410102844, -0.0861925408244133, 0.36912256479263306, -0.23362646996974945, 0.3442816734313965, 0.04448198154568672, 0.24937891960144043, -0.25881120562553406, 0.0874512642621994, 0.3239585757255554, -0.13311246037483215, -0.10191401094198227, 0.16138115525245667, -0.3922954797744751, -0.06038178503513336, 0.1400245875120163, 0.3123362064361572, -0.3764043152332306, 0.10576950013637543, -0.1423969566822052], [-0.26196014881134033, 0.03759147226810455, 0.12305758893489838, -0.022518225014209747, 0.1453501284122467, -0.08963604271411896, -0.1096699982881546, -0.05977955460548401, -0.08176596462726593, 0.05264268442988396, 0.18062171339988708, 0.09156199544668198, 0.37557291984558105, 0.007386490702629089, 0.40907788276672363, -0.3141231834888458, -0.004710785578936338, -0.1369154155254364, 0.3023377060890198, -0.14500197768211365, 0.005603318102657795, 0.13804158568382263, 0.4258342385292053, -0.0839327797293663], [0.25718820095062256, -0.2606852054595947, -0.1894395500421524, -0.22160930931568146, 0.04063950851559639, -0.048460379242897034, 0.1056671217083931, -0.008325230330228806, 0.031971171498298645, -0.22165411710739136, -0.20198586583137512, 0.32772499322891235, 0.18671469390392303, 0.22578677535057068, 0.2858287990093231, -0.23702280223369598, 0.344662606716156, 0.4118092358112335, -0.040102794766426086, -0.15547776222229004, 0.16131815314292908, -0.11257181316614151, -0.08328311145305634, -0.017964117228984833], [0.026815589517354965, 0.24324113130569458, 0.38251835107803345, 0.016151344403624535, 0.1608959138393402, 0.1878916323184967, 0.3693177103996277, -0.13155612349510193, 0.007342844270169735, 0.12599743902683258, 0.10806907713413239, -0.30586743354797363, -0.2205292284488678, -0.008523763157427311, 0.12668856978416443, -0.2930607199668884, 0.21878816187381744, -0.10960258543491364, -0.06458726525306702, 0.040569156408309937, -0.02589692547917366, 0.37715044617652893, 0.2814404368400574, -0.14948101341724396], [0.08314408361911774, -0.22325575351715088, 0.03552024066448212, 0.27113479375839233, -0.14317207038402557, -0.08535595238208771, 0.19339948892593384, -0.011312160640954971, 0.23306503891944885, 0.1826108992099762, -0.27503111958503723, 0.07887953519821167, -0.0883081778883934, 0.05076960474252701, -0.09970173984766006, 0.42308127880096436, -0.1265517920255661, 0.3555814325809479, -0.23127403855323792, 0.05779077857732773, 0.0719456598162651, 0.31107819080352783, -0.33114805817604065, 0.07471315562725067], [0.17281407117843628, -0.2763006091117859, 0.2904473543167114, 0.16099926829338074, -0.06185127794742584, -0.07213178277015686, -0.0763474702835083, 0.14933308959007263, 0.07639569789171219, -0.10597310960292816, -0.09052473306655884, -0.30944114923477173, -0.23308032751083374, 0.05251729488372803, -0.14541926980018616, 0.02672037109732628, -0.04215399920940399, -0.1183236688375473, -0.023640070110559464, -0.062316179275512695, -0.07545889914035797, -0.0167993251234293, -0.5446872115135193, -0.22824381291866302], [0.16143205761909485, 0.009732931852340698, 0.048446349799633026, 0.10059382766485214, 0.06440408527851105, 0.012517960742115974, -0.1173788458108902, -0.3116307854652405, 0.08124557137489319, -0.25293776392936707, 0.07138288766145706, -0.09540299326181412, 0.06220526993274689, -0.2834274172782898, 0.014818469993770123, -0.04894798994064331, 0.18380706012248993, 0.23961880803108215, -0.3488636314868927, -0.3939976990222931, -0.2286359667778015, -0.2064254879951477, 0.07824812829494476, -0.26475459337234497], [-0.4130921959877014, -0.02018178254365921, 0.13447147607803345, -0.40715521574020386, -0.2069023847579956, -0.2776068449020386, 0.16811016201972961, -0.0033241587225347757, -0.17328792810440063, 0.050717491656541824, -0.13373211026191711, 0.29799526929855347, -0.027071183547377586, 0.3979285955429077, -0.05201983079314232, -0.4058007001876831, -0.3279867172241211, -0.21341726183891296, 0.4845207631587982, -0.165275439620018, -0.04948461428284645, 0.06749062240123749, -0.43703943490982056, -0.15523239970207214], [0.11900369822978973, 0.05875976383686066, 0.465024471282959, 0.22459053993225098, -0.39460113644599915, -0.04882209002971649, 0.024351712316274643, 0.2771778702735901, -0.23769629001617432, 0.25709080696105957, 0.14728346467018127, -1.0503783226013184, 0.04109550267457962, 0.005609860643744469, 0.1710943728685379, -0.09687298536300659, 0.22971871495246887, -0.026241088286042213, 0.007194154430180788, -1.0314085483551025, -0.265700101852417, -0.5037292838096619, 0.24972346425056458, -0.21300184726715088], [0.4843422770500183, -0.4361346960067749, -0.6098726391792297, 0.22420534491539001, -0.3987540006637573, -0.13187387585639954, -0.2547566294670105, 0.00747843598946929, -0.355721652507782, -0.1956394910812378, 0.003741960506886244, 0.021046191453933716, -0.36548560857772827, 0.013088388368487358, -0.06286190450191498, -0.4986928701400757, -0.03281030058860779, -0.13900339603424072, -0.04286128282546997, 0.2685544490814209, 0.1476535201072693, 0.19489693641662598, 0.2264806181192398, -0.02881489135324955], [0.2638723850250244, -0.054388076066970825, -0.16311869025230408, 0.3454993963241577, 0.2999277710914612, -0.030537854880094528, -0.20697912573814392, -0.13834652304649353, 0.07723763585090637, 0.487249493598938, 0.03011280670762062, -0.0795164704322815, -0.21587225794792175, 0.18018697202205658, 0.12707453966140747, 0.3251754939556122, 0.03622670844197273, -0.18531528115272522, 0.17465251684188843, -0.034152865409851074, 0.14506489038467407, 0.05486065894365311, -0.09287379682064056, 0.20446492731571198], [0.35537439584732056, 0.2873990535736084, 0.3265245258808136, 0.03340637683868408, -0.07065822929143906, -0.365470826625824, 0.4565334916114807, -0.0016479047480970621, -0.31895145773887634, -0.2932097315788269, 0.11050371080636978, -0.15358904004096985, -0.29037582874298096, -0.09177500754594803, 0.14511528611183167, 0.22477102279663086, 0.06862710416316986, -0.16518521308898926, -0.15673832595348358, -0.25636208057403564, 0.2034071683883667, -0.1278671771287918, 0.0870114415884018, 0.12883473932743073], [-0.04748491942882538, 0.4791356027126312, 0.007525810040533543, 0.388644278049469, 0.1251775473356247, 0.8948605060577393, -0.11826571822166443, -0.31631022691726685, 0.18375930190086365, -0.12916703522205353, 0.3776093125343323, -0.4504386782646179, -0.17964553833007812, 0.23040708899497986, -0.3271339535713196, 0.48945608735084534, -0.0868578553199768, -0.21472233533859253, 0.13460227847099304, 0.0974142849445343, -0.006600238382816315, -1.0268656015396118, 0.5835819244384766, -0.9529699683189392], [-0.03223959356546402, -0.06113759055733681, -0.12416157126426697, 0.08900554478168488, -0.12627112865447998, -0.008959529921412468, 0.10650584101676941, -0.14231890439987183, 0.16895577311515808, -0.19654855132102966, -0.11846053600311279, 0.48889726400375366, -0.14167901873588562, 0.09419843554496765, -0.1281701624393463, 0.16992789506912231, -0.1974470466375351, 0.16677609086036682, -0.04802704229950905, -0.034192636609077454, -0.19564080238342285, 0.22382743656635284, 0.010027671232819557, 0.3751830756664276], [0.09786497056484222, -0.2546505630016327, -0.23951250314712524, 0.5022762417793274, 0.37669694423675537, -0.27533507347106934, -0.2646414637565613, -0.25804367661476135, 0.02503722533583641, -0.3916165232658386, -0.13340356945991516, -0.15250065922737122, -0.1419876217842102, 0.40028074383735657, 0.3374844193458557, 0.46657896041870117, -0.0503070130944252, -0.038909364491701126, -0.0896560326218605, -0.08091436326503754, -0.030851095914840698, -0.1346212923526764, 0.018548864871263504, -0.30130866169929504], [-0.17693790793418884, 0.05397692695260048, -0.04835563153028488, -0.28928112983703613, 0.07605394721031189, -0.045975878834724426, -0.18428373336791992, 0.08887629956007004, -0.1920604705810547, -0.127600759267807, -0.20994777977466583, -0.4682128429412842, 0.07870332896709442, -0.11816014349460602, -0.06309674680233002, -0.29117947816848755, 0.16114172339439392, -0.1855027675628662, -0.29220300912857056, -0.017086150124669075, 0.10305897891521454, -0.21168340742588043, -0.4535808265209198, 0.031169097870588303], [0.049070313572883606, 0.05989624559879303, 0.21629983186721802, -0.1849101334810257, 0.2441403567790985, 0.1259697824716568, 0.2573387324810028, 0.09456482529640198, -0.2745991349220276, -0.1956084966659546, 0.16257509589195251, -0.014896644279360771, 0.35079488158226013, -0.0807880312204361, -0.10128503292798996, 0.1090213805437088, 0.4121624827384949, 0.0063329734839499, 0.06762625277042389, 0.1296071708202362, 0.15314853191375732, -0.08694663643836975, -0.05779927968978882, -0.20194759964942932], [-0.20415155589580536, 0.11136382818222046, 0.036888521164655685, -0.3409022092819214, -0.19547981023788452, -0.10798889398574829, -0.09400834888219833, -0.10738155990839005, 0.22499088943004608, 0.31471484899520874, -0.027519188821315765, 0.02866135910153389, 0.04858831316232681, -0.15064507722854614, 0.08474425226449966, 0.5873494148254395, -0.2053804099559784, -0.17270532250404358, -0.15373334288597107, -0.3733096718788147, -0.24143192172050476, 0.22461745142936707, 0.026407580822706223, -0.37053382396698], [-0.10501272231340408, -0.15609824657440186, -0.0028481618501245975, -0.06858032196760178, 0.1783892810344696, -0.20864760875701904, -0.03884512186050415, 0.24910156428813934, 0.19199612736701965, 0.4044402539730072, -0.26769256591796875, -0.18516650795936584, 0.09516318142414093, -0.05552393198013306, -0.2373945713043213, -0.0879279226064682, -0.20198355615139008, 0.14373257756233215, 0.1909676194190979, -0.04966138303279877, 0.17301808297634125, 0.10565818846225739, 0.29859912395477295, -0.25069868564605713], [-0.23404863476753235, -0.1463378369808197, -0.05985645577311516, 0.4188721776008606, -0.28481364250183105, 0.04838692024350166, 0.2037203013896942, 0.23664909601211548, 0.1340281069278717, -0.003741783555597067, 0.018752653151750565, 0.3903772830963135, -0.10381662845611572, 0.06357385218143463, 0.14463800191879272, 0.44390806555747986, 0.14001981914043427, -0.25035032629966736, 0.3001081943511963, 0.3149983286857605, 0.28160879015922546, -0.36096739768981934, 0.44518837332725525, 0.029309341683983803], [-0.001370384357869625, -0.059022724628448486, 0.11868869513273239, 0.4205155372619629, 0.2950761914253235, -0.05496352165937424, -0.4520772397518158, 0.03357318043708801, -0.08068720996379852, 0.10421627759933472, 0.20296406745910645, -0.3865944743156433, 0.11657392978668213, 0.008542677387595177, 0.34196144342422485, 0.718116283416748, 0.12585313618183136, -0.16884121298789978, 0.1969156265258789, -0.20690442621707916, -0.11433283984661102, 0.21284990012645721, -0.30917420983314514, -0.336941123008728], [-0.14260011911392212, 0.44654569029808044, 0.1382254809141159, -0.16584458947181702, -0.16742351651191711, -0.281438410282135, -0.007406156975775957, -0.03054608777165413, 0.30877402424812317, -0.18259108066558838, 0.11974900960922241, 0.18771992623806, -0.2648778259754181, -0.18528199195861816, 0.023766249418258667, 0.018872590735554695, -0.014222316443920135, 0.20643985271453857, -0.1912004053592682, -0.11618093401193619, -0.24894960224628448, -0.1874900758266449, 0.3656274080276489, 0.008228810504078865], [0.18464460968971252, 0.14753520488739014, 0.19999292492866516, -0.06233277916908264, -0.31897029280662537, 0.14379724860191345, -0.16340112686157227, 0.19055967032909393, 0.07641033828258514, -0.04745238274335861, -0.05941569060087204, -0.2704002261161804, 0.3010275959968567, 0.38452625274658203, 0.22834089398384094, 0.1896010786294937, 0.17118731141090393, 0.2812701165676117, 0.25527074933052063, -0.3133041262626648, 0.2689780294895172, -0.01718832179903984, -0.23310303688049316, -0.3735170364379883], [-0.24026165902614594, -0.20427444577217102, -0.09351316094398499, -0.02996741235256195, 0.04053312540054321, -0.1863396167755127, 0.0393991582095623, 0.22372224926948547, 0.20674854516983032, 0.04902195930480957, 0.20799772441387177, 0.16507624089717865, -0.029789067804813385, -0.29800939559936523, 0.12039085477590561, -0.7596101760864258, 0.282784104347229, -0.10652710497379303, -0.23397180438041687, 0.005447140894830227, -0.3335703909397125, 0.05061737447977066, 0.054286133497953415, -0.06549379229545593]]}, "1+": {"kernel": [[0.5566961765289307, 0.050298355519771576, 0.6182441711425781, -0.07036704570055008, -0.02185605838894844, 0.14229793846607208, -0.21230930089950562, -0.2814001142978668, -0.17026104032993317, 0.057680387049913406, -0.35173219442367554, 0.020286869257688522, 0.0447261668741703, -0.04833462834358215, -0.08682532608509064, 0.3526183068752289, -0.15743406116962433, -0.24177205562591553, 0.007094221655279398, -0.3119455575942993, 0.009368419647216797, -0.024933265522122383, 0.19804604351520538, -0.00621070247143507], [-0.2852470278739929, -0.1671140193939209, 0.2485678493976593, 0.29709962010383606, -0.16859367489814758, -0.45365583896636963, 0.2578004002571106, 0.2545129060745239, -0.42952102422714233, 0.07606545835733414, 0.40258127450942993, 0.24184586107730865, 0.17144504189491272, -0.16224543750286102, 0.2242879718542099, 0.3865411877632141, -0.014492476359009743, -0.050460755825042725, 0.21494153141975403, 0.29730337858200073, 0.19818255305290222, -0.21752960979938507, 0.004036570433527231, 0.1249580830335617], [0.3197118639945984, 0.06505462527275085, 0.09037238359451294, -0.2636089324951172, -0.1909504532814026, -0.11294475197792053, 0.06534606218338013, -0.41975006461143494, 0.024552542716264725, -0.03865182399749756, 0.07747092843055725, -0.17580264806747437, 0.10789577662944794, -0.10819406807422638, -0.16153214871883392, -0.09224656969308853, -0.2803869843482971, 0.30196595191955566, 0.24086152017116547, -0.2801235616207123, 0.11074201762676239, -0.24956078827381134, -0.19634953141212463, 0.13125747442245483], [0.2658211588859558, 0.2374224066734314, 0.5303058624267578, -0.14012518525123596, 0.2972862124443054, -0.09655706584453583, 0.012708443216979504, 0.3727370500564575, 0.05126018449664116, 0.037589311599731445, -0.20977649092674255, -0.5209094285964966, 0.0894363597035408, -0.14941474795341492, 0.10314276814460754, 0.22099635004997253, 0.11713824421167374, 0.22136451303958893, 0.06763538718223572, -0.22575515508651733, -0.18839231133460999, -0.17882230877876282, 0.23906829953193665, -0.06220576912164688], [0.3200581669807434, -0.04316162317991257, -0.031496401876211166, -0.35845303535461426, 0.1580284982919693, 0.26066145300865173, -0.16497012972831726, 0.28060927987098694, -0.05884192883968353, 0.0002978589036501944, 0.11420383304357529, 0.038989197462797165, 0.1490267515182495, -0.2738630771636963, -0.26059985160827637, -0.2006341516971588, 0.02232089266180992, -0.253216028213501, -0.19793161749839783, -0.11258754134178162, -0.1627730131149292, 0.010250696912407875, 0.2283826768398285, -0.1118224710226059], [-0.49138909578323364, -0.048500318080186844, 0.1985863894224167, 0.32922598719596863, 0.025294538587331772, -0.5264714360237122, -0.022729169577360153, 0.08525559306144714, -0.03821611404418945, 0.3667832016944885, -0.25254884362220764, 0.12398077547550201, -0.042751848697662354, 0.3960980176925659, -0.33217960596084595, 0.1128876656293869, 0.01844564452767372, -0.10794985294342041, -0.5402814149856567, -0.32365748286247253, 0.03582985699176788, 0.06981343030929565, 0.07061640918254852, 0.20257160067558289], [-0.24881991744041443, 0.106254443526268, 0.21820376813411713, 0.5022464394569397, 0.05807321518659592, -0.02624601498246193, -0.0062906499952077866, -0.22476552426815033, 0.08627983927726746, 0.0719529390335083, 0.22665947675704956, -0.5500434637069702, 0.037190958857536316, -0.08909303694963455, -0.03805583715438843, 0.2210158407688141, 0.06779970228672028, 0.13231012225151062, -0.1665763556957245, 0.29652833938598633, -0.014718713238835335, -0.11994275450706482, -0.008506366051733494, -0.09577247500419617], [-0.38304078578948975, 0.20730523765087128, -0.5835700035095215, 0.13942310214042664, 0.3426627814769745, -0.00333618326112628, -0.05870214104652405, 0.0616949237883091, 0.10558750480413437, -0.4115367531776428, -0.061944615095853806, 0.2136228233575821, -0.19020631909370422, 0.28516504168510437, -0.07396936416625977, -0.3921768367290497, 0.03530149161815643, -0.28437983989715576, 0.32301729917526245, 0.08730243146419525, -0.19993090629577637, -0.009206720627844334, -0.2054828256368637, -0.022649839520454407], [0.18590354919433594, 0.1647874116897583, 1.2836241722106934, 0.5102201700210571, 0.20229172706604004, 0.5612317323684692, -0.4320641756057739, -0.006658812984824181, -0.24029074609279633, -0.045552730560302734, 0.5846882462501526, -0.10288570821285248, -0.10603255033493042, -0.11247241497039795, 0.3759661614894867, 0.7579312324523926, 0.14856313169002533, -0.0949702262878418, -0.5734115839004517, -0.14926022291183472, 0.2771531343460083, 0.5368232727050781, 0.1750122308731079, -0.0723389983177185], [0.10284800827503204, 0.31561926007270813, 0.012701351195573807, 0.06116223335266113, -0.04141756147146225, 0.24532517790794373, -0.2270563542842865, 0.1365872472524643, -0.3128005266189575, 0.2548210620880127, -0.08648823201656342, -0.2687845230102539, -0.18107646703720093, 0.16085994243621826, -0.28290092945098877, 0.24937862157821655, 0.20005398988723755, -0.08335919678211212, -0.25718599557876587, 0.031009415164589882, 0.07036380469799042, 0.16976287961006165, -0.03777547925710678, -0.12219495326280594], [-0.018397986888885498, -0.4656292796134949, -0.5595129132270813, 0.4120597541332245, -0.5568334460258484, 0.1983211189508438, 0.4055783748626709, 0.08808474987745285, 0.009803972207009792, -0.010850919410586357, -0.5941089391708374, 0.7543052434921265, 0.027299636974930763, -0.13281428813934326, 0.513184666633606, -0.33501729369163513, 0.09281314164400101, 0.2884751856327057, 0.41134417057037354, -0.48544031381607056, -0.10513558238744736, -0.5123459100723267, -0.258806049823761, 0.06299270689487457], [-0.07860499620437622, 0.09834222495555878, -0.452437162399292, -0.5037277936935425, 0.08362661302089691, -0.27788031101226807, -0.031834036111831665, -0.2540052533149719, -0.32261884212493896, -0.12312997877597809, 0.25769877433776855, 0.12271687388420105, -0.06211691349744797, -0.13201062381267548, -0.08021572232246399, -0.21043801307678223, -0.15109243988990784, 0.43547889590263367, 0.1500636339187622, 0.05915001034736633, -0.05677022784948349, -0.012608073651790619, -0.1375422179698944, -0.08678582310676575], [-0.3103274703025818, 0.6343868970870972, 1.228124737739563, 0.6895544528961182, 0.7681053280830383, 0.9068298935890198, -0.9916929006576538, 0.6669915914535522, -0.9429895877838135, 0.5691746473312378, 1.3132493495941162, 1.7504394054412842, -1.2707014083862305, 0.4007188677787781, -0.07417602092027664, -0.04229148104786873, -0.4212471842765808, -0.19134077429771423, 0.6462688446044922, -1.4463461637496948, -0.7355200052261353, -0.6211510896682739, -0.25386518239974976, -0.04129761457443237], [0.15929266810417175, -0.13381338119506836, 0.19719168543815613, 0.13890931010246277, 0.13246272504329681, 0.14451372623443604, 0.1154363676905632, 0.09348389506340027, -0.04538135975599289, 0.056958314031362534, 0.279203861951828, -0.031864017248153687, -0.06101573258638382, 0.14742247760295868, -0.18843048810958862, 0.49396246671676636, -0.03617103397846222, -0.12709274888038635, 0.10489119589328766, 0.1281377524137497, -0.1374453902244568, 0.34808599948883057, 0.3239058256149292, 0.08900423347949982], [-0.02062239870429039, -0.013075131922960281, 0.33029669523239136, -0.026747601106762886, 0.03133043274283409, -0.22152891755104065, -0.19099649786949158, -0.18698595464229584, -0.03179294615983963, 0.284339040517807, -0.3026764988899231, 0.3794640302658081, -0.35844898223876953, 0.20825371146202087, 0.2061096727848053, 0.3061314821243286, 0.05061982572078705, -0.09324218332767487, 0.22077754139900208, 0.11707454174757004, 0.2778535485267639, 0.19700157642364502, 0.47550535202026367, 0.029492061585187912], [-0.21722710132598877, -0.24293379485607147, 0.20558345317840576, -0.03795943409204483, 0.29011082649230957, -0.01965726912021637, -0.37413665652275085, -0.16778706014156342, -0.14507585763931274, -0.04980301111936569, -0.0011624157195910811, 0.1966840922832489, 0.2450740933418274, -0.05721813067793846, 0.010241756215691566, 0.18874382972717285, 0.14524124562740326, -0.026174383237957954, -0.2658592164516449, 0.18699020147323608, 0.10671229660511017, -0.004417885094881058, -0.2848733067512512, 0.06775364279747009], [-0.030659746378660202, -0.20989471673965454, 0.40064188838005066, -0.08437487483024597, -0.03539843484759331, 0.23446664214134216, -0.01498798280954361, 0.02061459980905056, -0.0462203323841095, 0.08690062165260315, -0.09964272379875183, 0.06303803622722626, 0.20399519801139832, -0.1751190423965454, 0.1275682896375656, 0.2248152494430542, -0.014701401814818382, -0.20440691709518433, 0.329955518245697, -0.2949070930480957, 0.3398873507976532, 0.3865961730480194, 0.009419053792953491, 0.1650189757347107], [0.14119109511375427, 0.14008134603500366, 0.7860944271087646, 0.33369725942611694, 0.35199469327926636, 0.0594719722867012, -0.05769389495253563, 0.15016783773899078, -0.196590393781662, 0.015816256403923035, -0.0005912488559260964, 0.3793475031852722, -0.23790480196475983, 0.04101505130529404, 0.06942877173423767, 0.22613753378391266, 0.004249224439263344, -0.09892202168703079, -0.3491722345352173, -0.2022012323141098, 0.3849468231201172, -0.1686094105243683, -0.18138903379440308, -0.10416852682828903], [-0.016437433660030365, -0.2725908160209656, -0.4443616271018982, -0.2089080512523651, -0.439656138420105, 0.3483625650405884, -0.059938445687294006, -0.02930011972784996, 0.020611973479390144, 0.19778990745544434, -0.20974919199943542, 0.11364231258630753, 0.04368140548467636, -0.11735530197620392, -0.46447789669036865, 0.14643952250480652, -0.17976325750350952, -0.3773345947265625, -0.12696245312690735, 0.08495008200407028, -0.15743830800056458, -0.18294335901737213, -0.23315125703811646, -0.00989445485174656], [-0.017089825123548508, -0.15127815306186676, 0.5286954045295715, 0.06338377296924591, 0.057783596217632294, 0.31165969371795654, -0.3593330979347229, 0.029684707522392273, 0.1628580093383789, -0.014462334103882313, 0.07199622690677643, -0.16291750967502594, -0.06472468376159668, -0.4088764786720276, 0.29738664627075195, 0.7263281941413879, 0.08696500211954117, -0.45932450890541077, 0.17060084640979767, -0.04911159351468086, 0.07157066464424133, 0.08558949828147888, -0.18494237959384918, 0.45035648345947266], [0.021495532244443893, -0.009566092863678932, -0.41168540716171265, 0.07726931571960449, 0.22428485751152039, -0.6373670101165771, -0.09279201924800873, 0.10453298687934875, -0.005525441840291023, 0.3313788175582886, 0.16785988211631775, 0.3701081871986389, 0.07339939475059509, 0.02538326382637024, 0.19698381423950195, -0.7287154793739319, -0.2183232307434082, -0.19680951535701752, -0.09449979662895203, -0.3030490279197693, -0.42660585045814514, 0.114280104637146, 0.2199254333972931, 0.09800868481397629], [-0.3105180859565735, 0.4512530565261841, -0.5338454246520996, -0.17600050568580627, -0.176431804895401, -0.02323959209024906, 0.10210292786359787, -0.14916744828224182, 0.17907488346099854, 0.4102972745895386, -0.15155911445617676, 0.587496817111969, 0.26771241426467896, -0.18434035778045654, -0.12235594540834427, -0.528831958770752, -0.14888863265514374, 0.06983989477157593, 0.13885071873664856, 0.005744047928601503, 0.17056092619895935, 0.13327400386333466, -0.003733340185135603, -0.0619349330663681], [-0.058459315448999405, -0.15678322315216064, -0.2100546658039093, -0.03950061649084091, 0.2526934742927551, -0.36583274602890015, -0.21640437841415405, -0.20766159892082214, 0.03265500068664551, -0.05973890423774719, 0.07295767962932587, -0.1487167328596115, -0.3918173313140869, 0.241716206073761, 0.08691735565662384, -0.6876184940338135, -0.08627050369977951, 0.10804271697998047, 0.22076775133609772, 0.11316676437854767, 0.20028358697891235, -0.13321565091609955, -0.04543757438659668, 0.09438291192054749], [0.33904510736465454, -0.2746626138687134, -0.2439149022102356, -0.004221651703119278, -0.13980725407600403, -0.187070831656456, 0.08005198836326599, -0.03513052314519882, -0.26944953203201294, -0.10130380839109421, -0.004758569877594709, -0.4964761734008789, 0.27446436882019043, -0.36273592710494995, 0.28911054134368896, -0.49810269474983215, 0.04125591740012169, -0.15771280229091644, 0.3510294556617737, 0.3282458186149597, 0.15099862217903137, -0.35605159401893616, 0.20753113925457, 0.2785612940788269]]}, "1-": {"kernel": [[-0.3174024820327759, -0.1423894762992859, 0.13090811669826508, 