{"params": {"Dense_0": {"0+": {"bias": [-0.04222601652145386, -0.014521119184792042, -0.0192533228546381, 0.006751309148967266, 0.017836833372712135, 0.02610769495368004, -0.026898443698883057, -0.031406037509441376, -0.029630467295646667, 0.032146960496902466, 0.060479965060949326, 0.028421688824892044, -0.016159184277057648, -0.023171955719590187, -0.007985749281942844, -0.0019305613823235035, 0.03242805600166321, -0.006727173924446106, 0.0016658785752952099, -0.06554998457431793, 0.030156901106238365, 0.04567568004131317, -0.0217242743819952, -0.0017091650515794754], "kernel": [[0.013734137639403343, 0.20101699233055115, -0.06663849949836731, 0.1426975429058075, 0.1017712876200676, 0.013218872249126434, -0.11171111464500427, 0.2695883512496948, 0.0718209445476532, -0.17289456725120544, -0.09885688126087189, 0.21441158652305603, -0.4078747034072876, -0.4049645960330963, 0.06302668899297714, -0.2477525770664215, 0.05764630436897278, 0.18741632997989655, -0.127951517701149, 0.3466323912143707, 0.16928693652153015, 0.08026885241270065, -0.10737639665603638, 0.04753807932138443], [0.29020917415618896, 0.13195595145225525, 0.2773827314376831, -0.04226991534233093, -0.20736253261566162, -0.26138007640838623, 0.13040712475776672, 0.20797914266586304, 0.07644404470920563, -0.11617717146873474, -0.21144607663154602, -0.323256254196167, 0.24500876665115356, 0.08186494559049606, -0.23016302287578583, -0.07380105555057526, 0.21846766769886017, 0.04947243258357048, 0.16805583238601685, -0.15239271521568298, -0.04949960857629776, 0.0466955229640007, 0.17245718836784363, -0.08222003281116486], [0.2108716368675232, -0.3013429045677185, -0.24638038873672485, -0.010537771508097649, 0.15292266011238098, 0.12628577649593353, 0.3558056950569153, -0.3627055883407593, -0.1261158287525177, -0.20312614738941193, -0.27339237928390503, -0.1666712462902069, -0.4353090524673462, -0.12079521268606186, 0.11128723621368408, 0.22936882078647614, 0.21373768150806427, -0.07797129452228546, -0.22480516135692596, -0.3235907554626465, -0.08684858679771423, -0.24854949116706848, -0.025548219680786133, 0.3028731346130371], [0.05108170956373215, -0.20575784146785736, -0.1178685650229454, -0.3155820965766907, -0.04422200098633766, 0.3063160479068756, -0.011668212711811066, 0.020109008997678757, -0.1215788945555687, -0.1009221002459526, 0.18796369433403015, 0.2633485794067383, 0.08705781400203705, 0.13687199354171753, -0.4142897129058838, 0.1237795278429985, 0.33261847496032715, -0.19867083430290222, 0.17550258338451385, 0.12340334057807922, 0.27120018005371094, 0.1518031805753708, 0.13279250264167786, 0.02692616730928421], [0.20693427324295044, 0.08802515268325806, -0.21803021430969238, -0.01810150220990181, 0.028739139437675476, 0.03822408244013786, -0.11032581329345703, -0.019683128222823143, 0.10758961737155914, -0.13359928131103516, -0.024769525974988937, 0.0695808082818985, 0.021535323932766914, 0.1870475709438324, -0.15190689265727997, 0.065620556473732, -0.15254947543144226, -0.21408560872077942, 0.024870462715625763, -0.07973026484251022, 0.47898343205451965, 0.09491020441055298, -0.23455524444580078, -0.17626455426216125], [0.23638245463371277, -0.12202814221382141, 0.43097424507141113, -0.19500765204429626, 0.11645152419805527, -0.12422271072864532, 0.01888960599899292, -0.33701664209365845, -0.2601156532764435, -0.08210816979408264, 0.3257218599319458, -0.12620115280151367, 0.06862016022205353, 0.04239696264266968, -0.08388090878725052, -0.13973209261894226, 0.1850796639919281, -0.023223433643579483, 0.13280196487903595, -0.15221473574638367, 0.17406034469604492, -0.08625109493732452, 0.15091732144355774, -0.03211425989866257], [0.24808338284492493, 0.21820500493049622, 0.04086768627166748, 0.2042355090379715, -0.016198011115193367, -0.25564855337142944, -0.04965127632021904, -0.09463033080101013, -0.10008426010608673, -0.19307397305965424, 0.007394223473966122, 0.045424848794937134, 0.060094915330410004, 0.32658281922340393, -0.12769177556037903, 0.12035521864891052, 0.03580490127205849, 0.10904496908187866, 0.2160264104604721, 0.0008615055121481419, 0.16391843557357788, 0.13902848958969116, -0.20237475633621216, 0.20490679144859314], [0.020946837961673737, -0.23157855868339539, -0.03586311265826225, 0.14949318766593933, 0.18297134339809418, 0.3267340064048767, 0.12084272503852844, 0.16601687669754028, -0.12493963539600372, 0.08061474561691284, 0.09690003097057343, 0.0068559786304831505, -0.13577520847320557, -0.223763108253479, -0.14115536212921143, -0.12727832794189453, 0.08508235961198807, 0.03671523183584213, 0.15993428230285645, -0.14983373880386353, 0.03700754791498184, -0.10245206952095032, -0.34894588589668274, 0.0007064379751682281], [-0.17164036631584167, -0.23160576820373535, 0.10356549173593521, 0.013964971527457237, -0.005215453915297985, 0.08245974034070969, 0.09878262877464294, -0.03329109027981758, 0.05375339835882187, -0.5093616247177124, -0.06013040244579315, 0.030310630798339844, -0.01487470418214798, -0.2546912431716919, 0.11925726383924484, 0.28683340549468994, 0.12097281217575073, -0.08530409634113312, -0.0933162271976471, -0.05622207373380661, -0.2508790194988251, 0.23632217943668365, 0.15276417136192322, 0.2983519434928894], [-0.47495129704475403, 0.2158837914466858, 0.1195056140422821, -0.4311155676841736, 0.2762131690979004, -0.28152185678482056, 0.3456012010574341, 0.19122439622879028, -0.18250206112861633, 0.033471159636974335, -0.3986127972602844, -0.075505331158638, -0.04326002299785614, 0.08969917893409729, -0.3265920877456665, -0.1529724895954132, -0.18779364228248596, 0.3910590708255768, 0.20343449711799622, 0.2745040953159332, -0.11686020344495773, -0.0389273576438427, -0.19742286205291748, -0.14190584421157837], [-0.2100505381822586, 0.20834648609161377, -0.05771571397781372, -0.04469780996441841, -0.1634713113307953, 0.06883161514997482, -0.1828484833240509, 0.28317469358444214, 0.24394641816616058, -0.27705684304237366, -0.13409177958965302, 0.11568181216716766, 0.022741198539733887, -0.062087975442409515, 0.24502022564411163, -0.2131924331188202, -0.058976709842681885, 0.09297259151935577, -0.3910982608795166, 0.051499515771865845, -0.014944673515856266, -0.2853580117225647, 0.006122640334069729, -0.05435013025999069], [0.04585093632340431, -0.2622242569923401, 0.08335152268409729, -0.29463452100753784, 0.10779192298650742, 0.0855165347456932, 0.24176648259162903, -0.04345366731286049, -0.1435055136680603, -0.028367549180984497, -0.132930725812912, 0.2002159059047699, -0.05449259653687477, -0.29512494802474976, 0.034761637449264526, 0.2839542627334595, 0.043113525956869125, -0.07344219833612442, 0.07169410586357117, -0.1541457325220108, 0.38188570737838745, -0.07472456991672516, 0.11998990178108215, -0.2521849274635315], [0.2551747262477875, 0.12470142543315887, 0.2597840130329132, 0.17281851172447205, 0.13171373307704926, 0.17752814292907715, -0.1479056477546692, 0.13581669330596924, 0.01839066669344902, -0.04767706245183945, -0.26362091302871704, -0.025665482506155968, -0.25442227721214294, -0.1919507086277008, -0.10123201459646225, -0.25315287709236145, -0.48595088720321655, -0.022633802145719528, -0.035331614315509796, 0.10344457626342773, -0.10797859728336334, -0.08113837242126465, -0.05801919847726822, 0.02568816766142845], [0.03433576971292496, -0.24831607937812805, 0.20564794540405273, -0.06439760327339172, -0.1975155770778656, 0.233591228723526, -0.14951150119304657, -0.03421270102262497, 0.10493066906929016, -0.16655848920345306, -0.11409713327884674, 0.03439655900001526, -0.2317083775997162, -0.09220805764198303, 0.11778607964515686, -0.05461609363555908, -0.009935630485415459, 0.08046220988035202, 0.04998369514942169, 0.4176694452762604, 0.1382683962583542, 0.21980834007263184, 0.2336794137954712, 0.2597450017929077], [-0.034042276442050934, -0.042969800531864166, -0.04142417758703232, -0.044111236929893494, -0.10087819397449493, 0.11486069858074188, -0.023608814924955368, 0.1108521968126297, 0.18225011229515076, 0.16206206381320953, -0.10327349603176117, -0.02504902333021164, 0.017608769237995148, 0.17100755870342255, 0.14603489637374878, 0.38646966218948364, 0.13920077681541443, 0.031069941818714142, 0.22832567989826202, 0.2350090593099594, -0.3924573063850403, 0.2578505575656891, 0.2761515974998474, -0.12338601797819138], [0.24226582050323486, 0.03589510917663574, -0.04496775567531586, -0.24378368258476257, -0.14663732051849365, 0.42544013261795044, 0.21178647875785828, 0.025833340361714363, -0.04336731135845184, -0.00980747863650322, -0.002253603655844927, 0.3686967194080353, 0.22040578722953796, 0.12479951232671738, -0.04169038310647011, -0.011228503659367561, -0.057116635143756866, 0.26852506399154663, -0.3557462692260742, 0.20392519235610962, 0.17953667044639587, -0.012314194813370705, -0.10202759504318237, 0.11023604869842529], [0.19314314424991608, -0.08590051531791687, -0.20787638425827026, -0.026456117630004883, 0.288689523935318, -0.21889086067676544, 0.08064994215965271, 0.031769536435604095, 0.215408056974411, -0.20347397029399872, -0.11150586605072021, -0.14762534201145172, -0.13975079357624054, -0.19066950678825378, -0.06134260445833206, -0.10922156274318695, -0.2688780725002289, 0.3830825090408325, -0.10767970979213715, 0.24783286452293396, -0.15007025003433228, -0.04022836312651634, 0.11250294744968414, 0.04440601170063019], [0.18092447519302368, -0.25092363357543945, -0.0005935012013651431, 0.20169436931610107, -0.10990379750728607, 0.06746029853820801, 0.14411890506744385, -0.0934441015124321, 0.07086807489395142, -0.09455569088459015, -0.12762674689292908, -0.20796164870262146, -0.4104211926460266, -0.17864927649497986, -0.018229665234684944, -0.10600216686725616, -0.20527595281600952, -0.006028661038726568, 0.16959905624389648, 0.23859930038452148, -0.08587372303009033, -0.22974061965942383, -0.18502497673034668, 0.27669480443000793], [-0.20074522495269775, 0.2668043375015259, 0.028281398117542267, -0.3307710289955139, 0.08339817821979523, -0.20557884871959686, -0.17132210731506348, -0.10231389105319977, 0.031484901905059814, 0.35809653997421265, -0.004897558130323887, -0.05227326601743698, 0.09393785893917084, 0.1811761111021042, -0.4154944121837616, -0.1820174753665924, 0.0021901773288846016, -0.25852060317993164, 0.16451168060302734, 0.01353691890835762, -0.1505529284477234, -0.061182908713817596, -0.19730563461780548, -0.2610126733779907], [-0.15238216519355774, 0.3876122236251831, 0.11652487516403198, -0.3080105781555176, -0.17510589957237244, 0.3639182448387146, -0.23110827803611755, -0.33925575017929077, 0.13969051837921143, 0.06817184388637543, 0.13925379514694214, 0.057402122765779495, 0.11062006652355194, 0.10390307754278183, -0.007682513445615768, -0.03256820887327194, 0.02864883467555046, 0.2555021047592163, 0.24314504861831665, 0.2866247892379761, -0.3828374743461609, -0.16681867837905884, -0.2725858688354492, -0.15742190182209015], [0.1405947208404541, 0.23308545351028442, 0.2405095398426056, 0.039578936994075775, 0.14745588600635529, -0.2759869694709778, 0.15206870436668396, 0.13022346794605255, -0.11709877848625183, -0.07656818628311157, -0.07476431131362915, 0.4193814992904663, 0.06173218786716461, -0.05640293285250664, 0.2924732565879822, 0.09899267554283142, -0.2257799357175827, -0.027581587433815002, 0.32287588715553284, -0.332324743270874, -0.1058826595544815, 0.05100163072347641, 0.2507583498954773, 0.14239683747291565], [0.09744004905223846, 0.29696255922317505, 0.06314980983734131, 0.20687690377235413, 0.12439283728599548, 0.11092136055231094, -0.09373358637094498, -0.09422457218170166, 0.18391144275665283, -0.015356430783867836, 0.17989832162857056, 0.026180317625403404, 0.24143296480178833, -0.051941126585006714, -0.008604487404227257, 0.01658860221505165, 0.3047785758972168, -0.1933688074350357, -0.054674357175827026, 0.030237946659326553, 0.07114476710557938, -0.3760448098182678, -0.07426153123378754, -0.13802996277809143], [0.10277039557695389, -0.16315820813179016, -0.01932196319103241, 0.24367035925388336, -0.3796808123588562, 0.10694633424282074, 0.15878763794898987, -0.31520408391952515, -0.2392304688692093, -0.020535070449113846, 0.12252697348594666, -0.030830256640911102, 0.058080315589904785, -0.07751952111721039, 0.018845288082957268, 0.10589396208524704, -0.4025275707244873, -0.20205187797546387, 0.0022314111702144146, 0.02043968439102173, 0.31173956394195557, 0.44167548418045044, 0.14101821184158325, -0.1892029196023941], [-0.26755309104919434, -0.07977418601512909, 0.17978861927986145, 0.09351669251918793, -0.10011434555053711, -0.20407360792160034, -0.0913921594619751, -0.2835751473903656, 0.04000700265169144, 0.17077553272247314, -0.043681174516677856, -0.2051476240158081, -0.0017650057561695576, 0.14518630504608154, -0.030474457889795303, 0.17868034541606903, -0.046757861971855164, 0.001662090653553605, -0.07847604155540466, 0.09516188502311707, -0.016208846122026443, 0.1364898830652237, -0.0859493836760521, -0.022914212197065353]]}, "1-": {"kernel": [[-0.3802136778831482, 0.06775567680597305, -0.1057707667350769, -0.09299006313085556, -0.2655305564403534, -0.05803917348384857, 0.036779846996068954, -0.040299367159605026, -0.10987968742847443, -0.047048646956682205, -0.3400930166244507, -0.04466799646615982, 0.003232829039916396, -0.18372619152069092, -0.08248439431190491, 0.07548864185810089, -0.2612464725971222, -0.1174209862947464, -0.043706558644771576, 0.3843226432800293, -0.2751082181930542, 0.20907124876976013, -0.17256960272789001, -0.5721594095230103], [0.2355726659297943, -0.023414097726345062, 0.07831741869449615, 0.5184258222579956, -0.06863448023796082, 0.22448623180389404, -0.07288266718387604, -0.22577105462551117, -0.1422668695449829, 0.10636606812477112, -0.3408827781677246, -0.08056404441595078, 0.24764016270637512, 0.26275381445884705, 0.030468914657831192, -0.5411121249198914, 0.13311994075775146, 0.2067192643880844, -0.24625670909881592, 0.12909628450870514, -0.06765861809253693, -0.226657897233963, 0.4571217894554138, -0.021565865725278854], [-0.19267350435256958, -0.05979246273636818, 0.2906244993209839, -0.15849563479423523, 0.024963418021798134, 0.09739984571933746, -0.024540448561310768, 0.062151920050382614, 0.2814096212387085, 0.2138282060623169, 0.0818009078502655, -0.0607539638876915, 0.019162703305482864, -0.014558783732354641, -0.0799814760684967, 0.09376700222492218, 0.05965825915336609, 0.2692638635635376, -0.33170419931411743, -0.06633798032999039, 0.003296234179288149, -0.08981116116046906, 0.08733876049518585, -0.3397369384765625], [-0.1870627999305725, 0.12226642668247223, 0.3302353620529175, 0.21879705786705017, 0.23466208577156067, 0.3926889896392822, -0.06303617358207703, 0.03413664177060127, 0.3183992803096771, -0.28434818983078003, 0.021674636751413345, 0.02234380878508091, 0.14253467321395874, 0.05328919738531113, -0.13399457931518555, -0.20602411031723022, 0.43429893255233765, -0.1405065357685089, -0.11722831428050995, 0.08360634744167328, 0.2723514437675476, 0.15808320045471191, -0.15225259959697723, -0.13870501518249512], [0.05659559369087219, 0.04389789327979088, -0.18152619898319244, -0.4056752920150757, -0.339256227016449, -0.09145908057689667, -0.30382266640663147, -0.21472996473312378, 0.42238253355026245, 0.06157241016626358, -0.0030444187577813864, -0.11445160210132599, 0.02918713353574276, -0.0006627181428484619, 0.0012844519224017859, 0.0613657608628273, 0.08360457420349121, 0.02057141438126564, -0.3548646569252014, 0.29218173027038574, 0.19693540036678314, -0.31594258546829224, -0.3187412619590759, -0.273826003074646], [0.09723743051290512, -0.13332171738147736, -0.2508390545845032, 0.32982707023620605, -0.30656519532203674, 0.3141806125640869, -0.18306389451026917, 0.026047011837363243, 0.32814645767211914, -0.08324165642261505, -0.19988852739334106, -0.003625328652560711, 0.05565308406949043, 0.2978777289390564, 0.09848084300756454, -0.3044390082359314, -0.1008303165435791, -0.08187489956617355, -0.06261547654867172, 0.29753315448760986, -0.09556527435779572, 0.1960943043231964, -0.3765586316585541, 0.09881803393363953], [-0.08100113272666931, -0.16664093732833862, 0.2751857042312622, 0.02557697333395481, -0.2918190658092499, 0.1873333901166916, 0.35848844051361084, -0.08952312171459198, 0.024058252573013306, -0.20130547881126404, 0.3716201186180115, 0.0085619380697608, 0.018461108207702637, -0.03549954295158386, -0.08031247556209564, 0.004077243618667126, 0.33490806818008423, -0.09059091657400131, -0.13715413212776184, 0.415576696395874, -0.07041072845458984, -0.17063143849372864, -0.04013046622276306, 0.2003215104341507], [0.22267460823059082, -0.06015852093696594, 0.0042105624452233315, -0.3712969422340393, 0.45403724908828735, 0.3718956708908081, -0.230935201048851, -0.06069426238536835, 0.16744977235794067, 0.05812336504459381, 0.12405257672071457, 0.2502025067806244, -0.1158209890127182, -0.039141036570072174, 0.25663694739341736, 0.09504444897174835, -0.027918675914406776, -0.11133281886577606, -0.01814987137913704, -0.15765100717544556, 0.0017184321768581867, 0.08659068495035172, -0.4753454327583313, -0.23793120682239532], [-0.2905616760253906, 0.00017722300253808498, 0.22655321657657623, 0.1989855319261551, -0.3444281220436096, -0.40164002776145935, 0.035988837480545044, 0.07962487637996674, 0.28308960795402527, -0.36883556842803955, -0.16127446293830872, 0.13928177952766418, -0.048272255808115005, 0.33056873083114624, 0.09948807954788208, 0.3835010826587677, 0.23485848307609558, -0.3346138000488281, -0.11606547236442566, 0.024090712890028954, 0.09118962287902832, 0.020191602408885956, -0.036627814173698425, -0.24981199204921722], [-0.39447182416915894, 0.09991096705198288, 0.2532620131969452, 0.4977167844772339, 0.2169286608695984, -0.17023515701293945, -0.33089953660964966, 0.17434239387512207, -0.10312102735042572, -0.15669915080070496, 0.12031543254852295, -0.17886802554130554, 0.3388499617576599, 0.028640013188123703, 0.20029091835021973, 0.013312384486198425, -0.0652078241109848, -0.06314367055892944, 0.03161054849624634, -0.04773075133562088, 0.11296789348125458, -0.05016208440065384, -0.33279383182525635, 0.2861132025718689], [-0.27445387840270996, 0.4025897979736328, 0.2284068763256073, 0.20007380843162537, 0.02908233553171158, -0.07696042954921722, -0.1632499396800995, 0.10731448978185654, 0.0426529198884964, 0.370405912399292, -0.0747661367058754, 0.046140000224113464, -0.006875338964164257, 0.15224547684192657, 0.053210414946079254, -0.13407833874225616, -0.0725102499127388, 0.1492830365896225, -0.3039657175540924, 0.27755290269851685, 0.24944399297237396, 0.19065818190574646, 0.21664035320281982, 0.3292602002620697], [-0.08479650318622589, -0.15390558540821075, 0.1542823165655136, 0.0016116322949528694, 0.24797318875789642, -0.13599874079227448, 0.3086393177509308, -0.1507275104522705, -0.00991569459438324, 0.019690630957484245, 0.07635071873664856, -0.08172557502985, -0.1872754544019699, -0.12759476900100708, -0.0382390096783638, -0.08834308385848999, 0.09076345711946487, -0.45019108057022095, 0.0528365857899189, 0.03305604308843613, -0.25353047251701355, 0.018667008727788925, 0.17248877882957458, -0.06203865259885788], [-0.2607076168060303, -0.10427777469158173, -0.15867656469345093, 0.33864396810531616, 0.12031460553407669, 0.33702588081359863, 0.19783303141593933, 0.31577181816101074, -0.14201290905475616, -0.0889730304479599, -0.06229254603385925, 0.11984115839004517, -0.11053982377052307, -0.09081030637025833, -0.00982754398137331, -0.2690460681915283, -0.3141259551048279, 0.033483896404504776, -0.03212602809071541, 0.1538160890340805, 0.16105124354362488, 0.30866169929504395, -0.010079307481646538, 0.12597212195396423], [0.29383227229118347, 0.07393550127744675, -0.36795949935913086, 0.2730492949485779, -0.2336161732673645, 0.19423580169677734, -0.008946452289819717, 0.2360812872648239, -0.10916484147310257, -0.1726541966199875, -0.008891604840755463, -0.03205740079283714, 0.12882386147975922, 0.1673050969839096, 0.3735184073448181, -0.4076107442378998, -0.15030473470687866, 0.016895581036806107, 0.005842513404786587, -0.0926598608493805, -0.4245642423629761, 0.09723331034183502, 0.19148650765419006, 0.1594763696193695], [0.17455336451530457, -0.15350911021232605, -0.3011924624443054, -0.04236796498298645, 0.021239211782813072, -0.011863104067742825, -0.10107932984828949, -0.21993915736675262, 0.33583974838256836, -0.17774698138237, -0.09249472618103027, -0.49210038781166077, -0.2841295003890991, -0.40391257405281067, 0.11945825070142746, 0.2847127914428711, 0.011882137507200241, 0.10727383196353912, 0.4377804398536682, -0.26541152596473694, -0.1553691029548645, -0.1394939124584198, 0.21916551887989044, -0.24781252443790436], [0.10080301761627197, -0.0007078606868162751, 0.24407103657722473, 0.19556470215320587, -0.07710156589746475, 0.1014942154288292, -0.09530287235975266, 0.06591902673244476, -0.20212845504283905, -0.3023301362991333, 0.040600307285785675, 0.1291942447423935, 0.030742555856704712, 0.1509549617767334, -0.04042954742908478, 0.2809802293777466, 0.014402272179722786, 0.42792028188705444, 0.1877690553665161, -0.1643534004688263, 0.1661190688610077, -0.10141865164041519, 0.2278500199317932, 0.059015676379203796], [0.17617639899253845, -0.15780401229858398, 0.07636631280183792, -0.03211212903261185, 0.0444369912147522, 0.02257394790649414, 0.08469583094120026, -0.09536251425743103, 0.0768423080444336, 0.11216133832931519, -0.18540161848068237, 0.14955484867095947, -0.08036239445209503, -0.16085945069789886, -0.09164026379585266, 0.0402003638446331, -0.3550642728805542, 0.21450984477996826, -0.1819259524345398, 0.10038908571004868, -0.1894882321357727, 0.01838597096502781, -0.1553686261177063, 0.20642143487930298], [0.24265716969966888, 0.06589943170547485, -0.018873004242777824, -0.14679934084415436, 0.1018495112657547, 0.18604618310928345, 0.12649214267730713, 0.0859384834766388, 0.09019795060157776, -0.23118934035301208, 0.15916936099529266, -0.05104377120733261, 0.08313432335853577, 0.4292184114456177, 0.3455932140350342, 0.037458520382642746, 0.41450008749961853, 0.09244281053543091, -0.2803705930709839, 0.13922375440597534, 0.1420561671257019, 0.0063682496547698975, 0.11670076102018356, -0.1634131371974945], [-0.26457589864730835, -0.4469147026538849, 0.2006659358739853, -0.09529419243335724, -0.10798744112253189, 0.27255475521087646, 0.0076632145792245865, 0.21710620820522308, -0.19177022576332092, -0.05492342263460159, 0.02768969163298607, 0.10142043232917786, 0.2409781515598297, 0.08472275733947754, 0.0476151779294014, 0.09663759171962738, -0.24072816967964172, -0.09905286133289337, -0.037676140666007996, 0.25224220752716064, 0.10509806871414185, 0.12187530100345612, -0.13815799355506897, -0.1612904667854309], [-0.01883457601070404, -0.2770668864250183, 0.3005428910255432, -0.2327384650707245, -0.3875027298927307, 0.29347556829452515, 0.1732945442199707, -0.2104203701019287, -0.23636466264724731, -0.19508929550647736, -0.2628191113471985, -0.04329778999090195, -0.08158304542303085, -0.017655229195952415, -0.1427854299545288, 0.2720368504524231, -0.01589835435152054, -0.31821781396865845, -0.34805646538734436, -0.08409948647022247, -0.08360375463962555, -0.1938924491405487, -0.19394788146018982, 0.18668138980865479], [0.10221335291862488, -0.004229663871228695, 0.04302169755101204, 0.21573367714881897, 0.07128970324993134, 0.2903439402580261, -0.1688520312309265, 0.07524745166301727, -0.20578446984291077, -0.0797373354434967, 0.09338046610355377, -0.21278993785381317, 0.39470812678337097, 0.13708782196044922, -0.08092372864484787, 0.4998721480369568, -0.3362278640270233, -0.1997249722480774, 0.36035633087158203, -0.18142631649971008, -0.13055075705051422, 0.23348116874694824, 0.07937788218259811, -0.0002516601234674454], [0.1382981836795807, 0.11197075247764587, -0.303262323141098, -0.0692656934261322, -0.004080124665051699, -0.1080552265048027, 0.010727283544838428, -0.04860527068376541, 0.10871382057666779, 0.28689658641815186, 0.2795288562774658, -0.1153801828622818, 0.1499163806438446, 0.2587588429450989, 0.30487024784088135, 0.12924613058567047, -0.02669883891940117, -0.2745189666748047, -0.013857140205800533, -0.11050822585821152, -0.01673734560608864, 0.12488050758838654, 0.27163785696029663, -0.33908045291900635], [0.33927014470100403, 0.18114347755908966, 0.033492591232061386, 0.04056016355752945, -0.14321503043174744, 0.029946358874440193, 0.15031196177005768, 0.01512788888067007, -0.3301558494567871, -0.1700860559940338, -0.03535878285765648, 0.14292222261428833, -0.1317843794822693, 0.3202682137489319, -0.3553965091705322, 0.44821226596832275, 0.20054103434085846, -0.13094651699066162, -0.30882811546325684, -0.16712355613708496, -0.27321046590805054, -0.12042242288589478, -0.15256963670253754, 0.3698577284812927], [-0.10608819127082825, -0.20843151211738586, 0.3719177842140198, 0.05604950711131096, -0.07554082572460175, -0.0951247289776802, -0.0007577657233923674, -0.20115432143211365, 0.08837499469518661, -0.3554365634918213, -0.22226855158805847, -0.15634527802467346, 0.1745515614748001, -0.17563605308532715, -0.25837257504463196, -0.04702403396368027, 0.30177849531173706, 0.027721770107746124, -0.1365894377231598, 0.1200355663895607, 0.15512579679489136, -0.1948327124118805, -0.13851138949394226, -0.3841913938522339]]}, "2+": {"kernel": [[0.10715346038341522, 0.1656331717967987, -0.08977282792329788, 0.17290540039539337, -0.17706850171089172, 0.3069760799407959, 0.15095052123069763, -0.08781462907791138, 0.19922998547554016, -0.08236101269721985, 0.4966769218444824, 0.09388293325901031, -0.3166514039039612, -0.23533886671066284, -0.35016828775405884, -0.1770746260881424, -0.3750954568386078, -0.054939478635787964, -0.48570865392684937, -0.37013450264930725, -0.3749625086784363, -0.036249369382858276, 0.31787949800491333, 0.0928662121295929], [-0.1670168936252594, 0.18068459630012512, 0.18427246809005737, -0.21699866652488708, -0.04077707976102829, -0.16459029912948608, -0.3103669285774231, -0.21561509370803833, 0.12231095135211945, 0.03384885936975479, 0.10490119457244873, 0.02794177457690239, 0.013779445551335812, 0.14198562502861023, 0.34761661291122437, -0.06537676602602005, 0.09443660080432892, 0.06812865287065506, 0.19304028153419495, 0.17260834574699402, 0.13052012026309967, -0.22740359604358673, -0.4219212532043457, -0.1563681811094284], [0.052143245935440063, 0.14742468297481537, -0.2326229363679886, -0.016645491123199463, 0.5391743779182434, -0.36701536178588867, 0.022308146581053734, 0.269220769405365, 0.03581801801919937, 0.514820396900177, 0.19947929680347443, 0.033776719123125076, 0.09137141704559326, 0.019216425716876984, -0.022175980731844902, 0.011357910931110382, -0.15360432863235474, 0.3339627683162689, -0.2587888836860657, -0.18978573381900787, 0.012515341863036156, -0.3074741065502167, 0.19335880875587463, -0.13726931810379028], [0.14340242743492126, 0.17409732937812805, -0.40319371223449707, -0.025916311889886856, 0.15387442708015442, -0.051249079406261444, -0.2019314020872116, -0.14036834239959717, -0.4058840274810791, -0.2774156928062439, 0.12920278310775757, -0.2190932035446167, -0.028130467981100082, 0.1357566863298416, 0.18033424019813538, -0.25818049907684326, -0.1462886929512024, 0.11036986857652664, 0.15778052806854248, -0.23813194036483765, 0.003782297018915415, -0.3113754987716675, 0.005876466166228056, -0.24479340016841888], [0.03743293136358261, 0.037058696150779724, 0.06125178933143616, 0.25118786096572876, 0.39711177349090576, -0.2432931661605835, 0.2083805650472641, 0.33747825026512146, 0.1546035259962082, -0.13424602150917053, -0.09619462490081787, -0.15412679314613342, 0.2012505680322647, 0.06205713748931885, -0.3257308006286621, 0.03016423061490059, -0.3383384943008423, 0.4620530605316162, -0.2527170479297638, 0.2672125995159149, -0.25214284658432007, 0.034212954342365265, 0.25878608226776123, 0.13721904158592224], [0.24085399508476257, 0.026626301929354668, -0.12961320579051971, -0.2969595193862915, -0.012395836412906647, -0.26259684562683105, 0.17006582021713257, -0.14893245697021484, -0.03579220920801163, -0.12225128710269928, 0.052523672580718994, 0.025355245918035507, 0.05835019052028656, 0.13592202961444855, 0.04042542353272438, 0.16756071150302887, 0.18455438315868378, -0.061701081693172455, 0.0197975542396307, 0.36140725016593933, -0.050761252641677856, 0.1048147976398468, 0.06721694767475128, 0.22137734293937683], [-0.2482663094997406, -0.042952217161655426, -0.1703760027885437, 0.3227870762348175, -0.4927307367324829, 0.37226179242134094, -0.2710258960723877, 0.02014797180891037, 0.21532252430915833, 0.09086272120475769, -0.22340449690818787, 0.04008384048938751, 0.532423734664917, 0.056814856827259064, -0.3174287974834442, -0.2753323018550873, 0.14873549342155457, 0.11784602701663971, 0.018032878637313843, -0.12721532583236694, 0.5201746225357056, -0.3592769205570221, 0.18428431451320648, -0.1452154815196991], [-0.21158835291862488, -0.2703544497489929, -0.19598695635795593, 0.06210395693778992, -0.11265327781438828, 0.2293572723865509, 0.2500479817390442, 0.23875868320465088, -0.22672897577285767, 0.022850126028060913, -0.15910834074020386, -0.16273099184036255, 0.09985049068927765, -0.06748796254396439, 0.11891186237335205, 0.2076936960220337, -0.05520373210310936, -0.25036200881004333, -0.15736064314842224, -0.25218188762664795, -0.2780839204788208, -0.0565795972943306, -0.17508968710899353, -0.27699553966522217], [0.3523525595664978, -0.0531126968562603, -0.11387263983488083, -0.08031976222991943, 0.108679860830307, -0.11107191443443298, -0.05206352472305298, 0.2850409746170044, 0.12235447764396667, -0.1950230896472931, -0.254660427570343, -0.26363998651504517, 0.14328503608703613, 0.23509719967842102, 0.03891364485025406, -0.10122744739055634, 0.13849495351314545, -0.0021812019404023886, 0.001674307743087411, -0.07971569150686264, -0.014344021677970886, -0.09268230199813843, 0.27297332882881165, -0.17058949172496796], [-0.11335378140211105, 0.1622493863105774, 0.17731879651546478, -0.16496415436267853, -0.10731619596481323, -0.06688041985034943, -0.18130657076835632, 0.3206416964530945, -0.07765543460845947, -0.22282230854034424, -0.28777575492858887, 0.3734216094017029, -0.05218145251274109, 0.23951861262321472, 0.10302989929914474, 0.3001860976219177, 0.21518996357917786, 0.20394468307495117, -0.06660938262939453, 0.1694219410419464, 0.25788384675979614, -0.0068604350090026855, -0.13791561126708984, 0.22743481397628784], [-0.11538220942020416, 0.3366287350654602, -0.23549072444438934, -0.12836910784244537, 0.04619506001472473, -0.047418348491191864, 0.08058732748031616, -0.39315396547317505, 0.38320884108543396, 0.1885877102613449, -0.32354795932769775, -0.07833937555551529, -0.0005648310179822147, 0.1237935721874237, 0.14944663643836975, 0.1346125602722168, -0.17404583096504211, -0.07591351866722107, -0.1308729201555252, -0.06240665167570114, 0.3255288302898407, 0.29815882444381714, -0.10527306795120239, 0.2996346652507782], [0.0050072865560650826, -0.21382790803909302, 0.10807803273200989, -0.18393751978874207, -0.4495300352573395, 0.45489513874053955, 0.4319272041320801, -0.17648941278457642, 0.041138552129268646, 0.06242506951093674, 0.21271002292633057, 0.25478971004486084, 0.11768952012062073, -0.2036154568195343, 0.24440538883209229, -0.2560421824455261, -0.06214733421802521, 0.4123576283454895, 0.07974753528833389, -0.02618376910686493, 0.11678928136825562, 0.32826802134513855, 0.21870490908622742, -0.040459536015987396], [-0.08860939741134644, -0.2923773527145386, 0.031080156564712524, 0.0522712841629982, -0.015421057119965553, 0.3429553806781769, -0.1348648965358734, -0.24431321024894714, 0.041652560234069824, 0.0013782555470243096, 0.16602297127246857, 0.05382094532251358, -0.013252999633550644, -0.2301495522260666, 0.02200481668114662, 0.06748688966035843, 0.02470134198665619, -0.1850663423538208, 0.1865445375442505, -0.030595960095524788, 0.43813639879226685, 0.09950345754623413, 0.07707588374614716, 0.11939814686775208], [-0.19559705257415771, -0.18391844630241394, -0.1897415816783905, -0.3356426954269409, 0.22085334360599518, -0.41180717945098877, 0.12464042007923126, 0.25139597058296204, -0.25132954120635986, 0.26486510038375854, -0.040458694100379944, 0.0038236877880990505, -0.2993333339691162, -0.1367788165807724, 0.12681147456169128, 0.02344900742173195, -0.16786228120326996, 0.3252987563610077, 0.3514001965522766, 0.027929477393627167, 0.2360716462135315, 0.04067166522145271, -0.03870866075158119, -0.09190250933170319], [-0.19111090898513794, -0.2179602086544037, -0.009288420900702477, -0.3897853195667267, 0.20573750138282776, 0.2596399784088135, 0.12464448809623718, -0.1848887801170349, 0.22808873653411865, 0.022204894572496414, 0.3001245856285095, 0.01270174141973257, 0.23271581530570984, -0.0860118567943573, 0.0026535927318036556, -0.1687890589237213, -0.2535654902458191, 0.23484352231025696, 0.2994442582130432, -0.029879014939069748, -0.16022059321403503, -0.11521972715854645, 0.09905609488487244, 0.09524475038051605], [0.26516759395599365, 0.01369882095605135, -0.07431676983833313, -0.3511819839477539, 0.22776594758033752, 0.2542920708656311, -0.10252209007740021, -0.3040529191493988, 0.05756688863039017, -0.140852689743042, -0.12167544662952423, 0.26148414611816406, -0.18569016456604004, -0.05265870690345764, -0.3064815104007721, -0.02886907383799553, 0.030042314901947975, -0.011987685225903988, 0.3343968689441681, 0.06423105299472809, 0.1547204703092575, 0.14502763748168945, -0.3235602378845215, -0.20468291640281677], [-0.38098400831222534, 0.09312230348587036, 0.27991950511932373, 0.055052246898412704, 0.14045998454093933, -0.38639479875564575, 0.03883568197488785, -0.13706357777118683, -0.049515753984451294, 0.18108995258808136, 0.399497389793396, -0.30588528513908386, -0.056043799966573715, 0.27103060483932495, 0.11500880867242813, -0.10806068032979965, 0.037322670221328735, -0.018992239609360695, -0.28536278009414673, -0.048791080713272095, 0.10625475645065308, -0.25681495666503906, -0.16524718701839447, -0.03862055763602257], [-0.011707916855812073, -0.18056194484233856, -0.08445993810892105, 0.12470847368240356, -0.13503046333789825, 0.11312857270240784, -0.1854073405265808, 0.3111618459224701, -0.04343421757221222, 0.24269892275333405, -0.03822963684797287, -0.06372152268886566, -0.10273870825767517, -0.07615792751312256, -0.025196712464094162, -0.1689290851354599, -0.08557522296905518, -0.13388048112392426, -0.25300610065460205, -0.048651061952114105, -0.341094970703125, 0.2755225896835327, 0.17929138243198395, 0.08624595403671265], [0.15325850248336792, 0.08698844909667969, -0.2295263111591339, 0.037248075008392334, 0.20475566387176514, -0.08351289480924606, 0.27937084436416626, -0.30404096841812134, -0.018535610288381577, -0.32811763882637024, -0.030080366879701614, -0.04083094745874405, -0.14612984657287598, 0.17405229806900024, 0.020425092428922653, -0.11373376846313477, -0.12766963243484497, -0.2824660837650299, 0.4068032205104828, -0.022210244089365005, -0.02362331934273243, 0.22162851691246033, 0.4698152244091034, -0.19748616218566895], [0.2913672924041748, 0.0574563592672348, -0.43290865421295166, 0.12169627100229263, 0.2408566176891327, 0.2340528666973114, 0.35689884424209595, -0.015088275074958801, -0.3102089464664459, -0.3304899334907532, -0.24075846374034882, 0.11003269255161285, -0.046210430562496185, -0.10930454730987549, 0.4132670760154724, -0.018671110272407532, -0.11529085040092468, -0.3090602159500122, 0.10159379243850708, -0.022722609341144562, 0.392588347196579, 0.28810590505599976, 0.34639936685562134, 0.2991393804550171], [0.28777018189430237, -0.027309682220220566, -0.0036227344535291195, 0.0027864044532179832, 0.03484978526830673, 0.05804295092821121, -0.07784277200698853, -0.2717217206954956, -0.061189040541648865, 0.020448196679353714, -0.04533051699399948, 0.14912080764770508, -0.2667093575000763, 0.16848677396774292, -0.4243807792663574, 0.09390413761138916, 0.13881714642047882, 0.17903435230255127, -0.0637267678976059, -0.06588810682296753, 0.08794131875038147, -0.0597146600484848, 0.20659710466861725, -0.18439316749572754], [0.17406508326530457, 0.09103503823280334, -0.14273697137832642, 0.12884974479675293, 0.21301761269569397, 0.16241779923439026, -0.03629181534051895, -0.23957127332687378, -0.14565902948379517, 0.1355932354927063, -0.23097723722457886, -0.14240750670433044, 0.14962714910507202, -0.06285731494426727, -0.14347714185714722, -0.09347432851791382, -0.12311817705631256, 0.14240220189094543, 0.17591950297355652, -0.20024555921554565, 0.11531631648540497, 0.11110285669565201, 0.2614465653896332, -0.20932137966156006], [0.10757285356521606, 0.28010094165802, 0.02786910906434059, 0.10882207006216049, -0.15172980725765228, -0.42223405838012695, -0.06371773034334183, -0.2218589037656784, -0.05967548489570618, -0.0031656320206820965, 0.16778825223445892, -0.26435399055480957, 0.16223017871379852, -0.3442358374595642, 0.31348997354507446, 0.2469095140695572, 0.2546776533126831, -0.0504983514547348, 0.3249088525772095, -0.47327589988708496, 0.10991166532039642, 0.03600746765732765, 0.48784762620925903, -0.31503427028656006], [0.058998387306928635, -0.20303986966609955, -0.27654415369033813, -0.23766636848449707, 0.11363250017166138, 0.5410228967666626, 0.014397557824850082, -0.02227548323571682, 0.16128534078598022, 0.07719309628009796, 0.24405431747436523, 0.20326900482177734, 0.1712201088666916, -0.4374620318412781, -0.0485154427587986, -0.0728762298822403, -0.5734658241271973, 0.053893640637397766, -0.2523782551288605, -0.4002540409564972, 0.007958613336086273, -0.11262024939060211, -0.5413846969604492, 0.319247305393219]]}, "3-": {"kernel": [[-0.1610727161169052, -0.04358106106519699, -0.12850067019462585, 0.05784546956419945, 0.28060251474380493, -0.02187928557395935, 0.26413822174072266, 0.06799457967281342, -0.3093879520893097, -0.0003779326216317713, -0.09240728616714478, -0.21945521235466003, -0.09344914555549622, -0.2673998475074768, -0.057518377900123596, 0.2896302342414856, -0.06853969395160675, 0.03539589047431946, -0.07238706946372986, 0.271376371383667, 0.03065486066043377, -0.22887539863586426, -0.1550145149230957, 0.1255779266357422], [0.454103946685791, -0.05846954509615898, 0.380911260843277, 0.057352907955646515, -0.3177899122238159, 0.355774462223053, -0.3829011619091034, -0.12491092830896378, 0.20104625821113586, 0.16014385223388672, 0.4922451972961426, 0.3692704439163208, 0.15599636733531952, 0.23423713445663452, -0.22119972109794617, 0.14823701977729797, -0.11608012020587921, 0.42620009183883667, 0.055712953209877014, -0.2507363557815552, -0.20955851674079895, -0.2475760132074356, -0.04713059216737747, -0.3192940950393677], [-0.04080265760421753, -0.13055573403835297, -0.32391858100891113, 0.07987460494041443, 0.0070752291940152645, -0.22294728457927704, 0.10257287323474884, -0.0006533167324960232, -0.37709277868270874, -0.3328239917755127, 0.14403283596038818, -0.33809950947761536, 0.30714908242225647, 0.019819919019937515, 0.03581233322620392, 0.28546130657196045, 0.09366178512573242, 0.09545081853866577, 0.3640684187412262, -0.05357224494218826, -0.18779610097408295, -0.04833913594484329, 0.23106810450553894, -0.2803570032119751], [-0.2868724465370178, 0.058248795568943024, 0.2550506591796875, -0.167644202709198, 0.05550599843263626, 0.12502440810203552, 0.07112564891576767, 0.21445932984352112, 0.34438079595565796, 0.02160322666168213, 0.039540670812129974, 0.19147756695747375, 0.15385884046554565, -0.08369576185941696, -0.2072603702545166, -0.077928826212883, -0.13780181109905243, 0.0818437859416008, -0.23726674914360046, 0.40730637311935425, 0.24385914206504822, -0.22243934869766235, -0.04088117182254791, -0.1848299205303192], [-0.013054142706096172, 0.1769256293773651, -0.17491479218006134, 0.0932559072971344, -0.1943526566028595, 0.00031564844539389014, -0.1690218150615692, -0.45554256439208984, 0.5568442344665527, -0.21560174226760864, -0.077690988779068, 0.06278089433908463, -0.060545533895492554, 0.14264443516731262, 0.004065951332449913, -0.4264930188655853, 0.16349563002586365, -0.21478977799415588, 0.13529372215270996, 0.21344216167926788, -0.17656788229942322, 0.11907327175140381, 0.3009536564350128, 0.16525708138942719], [-0.3697168827056885, -0.04804454743862152, -0.009377839975059032, 0.26409685611724854, -0.06507844477891922, -0.18315263092517853, 0.06410251557826996, 0.1388777494430542, 0.2029046267271042, -0.03504312038421631, 0.008774833753705025, -0.23496338725090027, 0.004844339564442635, 0.016422562301158905, 0.11346796154975891, -0.15666821599006653, 0.2219800353050232, 0.42837458848953247, 0.05501044541597366, -0.07443661987781525, -0.05880130082368851, -0.21695122122764587, -0.24592167139053345, -0.20034381747245789], [0.42275333404541016, 0.04667690023779869, 0.32825013995170593, 0.20071664452552795, 0.0860712081193924, -0.043283604085445404, 0.2992904782295227, -0.11722277104854584, -0.06649848818778992, -0.41958221793174744, 0.16477729380130768, 0.03855124115943909, -0.17746791243553162, -0.2949119210243225, 0.17407329380512238, -0.050605032593011856, 0.144414484500885, -0.05331529304385185, 0.28743690252304077, 0.0786091536283493, -0.12360218912363052, -0.0053278980776667595, -0.01566367596387863, -0.22729438543319702], [-0.14682957530021667, -0.07260358333587646, -0.02071923203766346, 0.2854699194431305, 0.03162293881177902, 0.2179437279701233, -0.021513033658266068, 0.3439863622188568, -0.12278011441230774, -0.31678563356399536, -0.11667332798242569, 0.5102534294128418, 0.07647206634283066, -0.2415100634098053, -0.37009239196777344, -0.17534345388412476, -0.07158254832029343, 0.2616884708404541, -0.16466745734214783, 0.16434505581855774, -0.32045748829841614, 0.12650427222251892, -0.30008044838905334, -0.14356586337089539], [0.268785297870636, 0.08768843859434128, 0.04415334016084671, 0.34418708086013794, 0.09651203453540802, -0.40695998072624207, -0.003869052976369858, -0.12849467992782593, 0.03635402396321297, -0.09273739159107208, -0.04327116161584854, -0.040654681622982025, -0.30703800916671753, -0.15923607349395752, 0.24868908524513245, -0.17535686492919922, 0.058703649789094925, -0.14073140919208527, 0.38164496421813965, -0.08971047401428223, 0.34691011905670166, -0.013472267426550388, -0.1152624860405922, -0.21679602563381195], [-0.13385334610939026, 0.30853259563446045, -0.22369498014450073, 0.07962121069431305, 0.08473542332649231, 0.19900014996528625, -0.027455173432826996, 0.284345805644989, 0.13147327303886414, 0.16228283941745758, -0.271528422832489, 0.35367897152900696, -0.03698686882853508, 0.2065679430961609, 0.10102126002311707, -0.16210375726222992, -0.04980369657278061, 0.18752829730510712, 0.19987881183624268, -0.06660793721675873, -0.21726831793785095, -0.41196852922439575, -0.06646673381328583, 0.06626111268997192], [-0.13344204425811768, 0.007975682616233826, 0.02735191583633423, -0.06591737270355225, 0.10138694941997528, -0.07864559441804886, 0.26539552211761475, 0.2713698744773865, 0.43012094497680664, -0.037494558840990067, -0.018154826015233994, 0.05358082801103592, 0.22061693668365479, -0.09924270212650299, -0.15431934595108032, 0.21055221557617188, -0.3920222520828247, -0.0737995058298111, 0.20486558973789215, 0.10563430935144424, 0.3763240873813629, -0.27438217401504517, -0.13945671916007996, -0.3016108274459839], [0.15728804469108582, 0.09217888861894608, 0.0925590842962265, -0.14256486296653748, -0.18755343556404114, 0.06924004852771759, 0.24218297004699707, -0.27243277430534363, -0.26888585090637207, -0.056280285120010376, 0.09484544396400452, -0.24643424153327942, -0.12390665709972382, -0.20091727375984192, 0.019260620698332787, 0.16769880056381226, 0.14972205460071564, -0.05678381398320198, -0.1800944209098816, -0.23912367224693298, 0.18235774338245392, -0.18445844948291779, -0.226142019033432, 0.05417529493570328], [-0.11433112621307373, -0.05583980679512024, 0.11395074427127838, -0.04207377880811691, -0.22762200236320496, -0.1084296852350235, -0.2318451702594757, -0.03511854261159897, -0.21164387464523315, -0.14800357818603516, 0.20112034678459167, -0.17285434901714325, 0.26498332619667053, 0.28951677680015564, 0.05929888039827347, 0.17340680956840515, 0.16525810956954956, -0.06683213263750076, -0.19233033061027527, 0.1171652302145958, -0.028985410928726196, 0.2588091492652893, 0.0024938189890235662, 0.07594167441129684], [0.07279389351606369, 0.2184661477804184, 0.13631001114845276, -0.023647256195545197, -0.1594422459602356, -0.1318117380142212, 0.08012096583843231, -0.006155782379209995, -0.025451812893152237, 0.0964965894818306, 0.11236923933029175, 0.16130822896957397, -0.14131589233875275, 0.053936176002025604, 0.09463226795196533, 0.17805185914039612, 0.21640433371067047, 0.2075379490852356, -0.20307452976703644, -0.07640579342842102, 0.02205730602145195, -0.08832414448261261, 0.2860758900642395, -0.15294182300567627], [0.2654455900192261, -0.07050547748804092, -0.146760955452919, 0.5392343997955322, -0.0692647397518158, -0.07217680662870407, -0.2576073706150055, 0.021644722670316696, 0.2305886447429657, -0.29580336809158325, 0.19645757973194122, 0.17177101969718933, 0.17347727715969086, 0.12722250819206238, -0.382961630821228, -0.10484138876199722, 0.22306083142757416, 0.1185498982667923, 0.1910209059715271, 0.09585399180650711, -0.20107291638851166, -0.22249986231327057, 0.3117486238479614, -0.2429891675710678], [-0.05154296010732651, -0.3581136465072632, 0.1139000952243805, -0.14791756868362427, 0.0017959576798602939, 0.18042592704296112, -0.043769046664237976, 0.17496895790100098, 0.4479835629463196, -0.25820624828338623, 0.29546570777893066, -0.32119327783584595, -0.04859276860952377, 0.18924126029014587, -0.30497533082962036, 0.24431177973747253, -0.42366135120391846, -0.12444454431533813, -0.19785062968730927, 0.3759025037288666, -0.29242146015167236, 0.21884837746620178, 0.01193968579173088, 0.022274121642112732], [-0.03419746458530426, 0.29415810108184814, -0.22590166330337524, -0.260009765625, 0.29725146293640137, -0.23887816071510315, 0.2793310284614563, 0.1490461826324463, -0.08335606753826141, -0.1934550255537033, 0.233524888753891, -0.17644305527210236, 0.2663872241973877, 0.3123146891593933, -0.02825380116701126, 0.1418195515871048, -0.17478492856025696, 0.02895345166325569, 0.3324742317199707, -0.025526568293571472, -0.061824358999729156, -0.09801427274942398, 0.12141169607639313, 0.01486746221780777], [0.00043009809451177716, -0.4246198832988739, -0.02674718201160431, 0.002540583722293377, -0.17551922798156738, -0.11736948788166046, -0.17849120497703552, -0.13609442114830017, 0.41159582138061523, -0.0167092215269804, -0.20969463884830475, 0.5274562835693359, 0.07435314357280731, 0.06752800196409225, 0.03338371217250824, -0.11140382289886475, -0.28016048669815063, 0.03417843580245972, 0.2521900534629822, -0.023145215585827827, -0.057394929230213165, -0.19447800517082214, 0.15018846094608307, -0.20476354658603668], [0.09818682819604874, -0.04201516509056091, -0.3037800192832947, 0.29625797271728516, -0.12332892417907715, 0.06630416959524155, -0.16890880465507507, -0.06722497940063477, 0.14711469411849976, 0.03421814367175102, -0.05916479229927063, 0.03153561055660248, -0.018581166863441467, 0.04035969823598862, -0.13290035724639893, -0.18384802341461182, -0.0641569197177887, 0.21491287648677826, -0.15185855329036713, 0.04735137149691582, -0.13974447548389435, 0.06755509972572327, 0.03288993984460831, -0.0023607355542480946], [0.040598880499601364, -0.18883854150772095, -0.06530033051967621, 0.2637612819671631, 0.189233660697937, 0.10487253963947296, -0.017248328775167465, -0.30611926317214966, -0.16997703909873962, 0.06899681687355042, -0.2540873885154724, 0.3863071799278259, 0.150222510099411, -0.047142498195171356, -0.35353583097457886, -0.1350685954093933, 0.05704371631145477, 0.007367997895926237, 0.29355186223983765, -0.10679605603218079, -0.13699865341186523, 0.06781622767448425, 0.017825771123170853, -0.2863004803657532], [0.3460812270641327, -0.28923726081848145, -0.20069965720176697, -0.12155865132808685, -0.19088920950889587, -0.16167159378528595, 0.07177550345659256, -0.1835128366947174, 0.04308142513036728, -0.16981253027915955, -0.038825906813144684, 0.20786258578300476, 0.30017387866973877, -0.41449567675590515, -0.1410287320613861, 0.07755634188652039, -0.09191344678401947, 0.280576229095459, -0.3112766444683075, 0.30025434494018555, -0.15319021046161652, 0.062282003462314606, -0.19971773028373718, -0.09720820933580399], [0.17683318257331848, 0.07634244114160538, -0.1904752552509308, -0.19296301901340485, 0.11360961198806763, -0.12855291366577148, -0.2814294695854187, -0.12679268419742584, -0.16781772673130035, -0.3063783347606659, 0.3089832067489624, 0.33070796728134155, -0.32447105646133423, 0.18494486808776855, -0.301554799079895, -0.15689274668693542, -0.03400668501853943, 0.15157771110534668, -0.1467018872499466, 0.049210745841264725, -0.17195385694503784, 0.0786038190126419, 0.1596437692642212, 0.09455826878547668], [-0.22203145921230316, 0.44610702991485596, 0.3620477318763733, -0.4748023748397827, -0.004653814248740673, 0.31522828340530396, 0.29880014061927795, -0.34202665090560913, 0.021219827234745026, -0.3774234652519226, -0.07696446776390076, 0.022260330617427826, -0.1664382815361023, 0.17774620652198792, -0.3100358843803406, 0.16717974841594696, 0.12890072166919708, 0.010985939763486385, 0.25968044996261597, 0.04959807172417641, -0.2224537432193756, -0.3275619149208069, -0.003097006119787693, -0.07529786229133606], [0.05175122618675232, 0.001034236396662891, -0.21403095126152039, -0.3855358362197876, 0.07233411073684692, 0.025476284325122833, 0.22263352572917938, -0.3062664270401001, 0.43705257773399353, 0.21734783053398132, -0.22399871051311493, -0.09435905516147614, -0.015199083834886551, -0.058892153203487396, 0.2167799174785614, -0.1351436972618103, 0.40962401032447815, -0.29995834827423096, 0.3250156044960022, -0.25774914026260376, -0.054530609399080276, 0.21763354539871216, -0.15582984685897827, -0.3160382807254791]]}, "4+": {"kernel": [[0.5458709001541138, 0.10994045436382294, 0.11557596176862717, -0.17666231095790863, -0.5199375748634338, -0.22472752630710602, -0.13540887832641602, -0.009813327342271805, -0.18323448300361633, -0.2878729999065399, -0.37183070182800293, -0.46847933530807495, 0.2954506576061249, -0.07322227209806442, -0.19297417998313904, -0.012703735381364822, -0.11899802833795547, 0.04260909557342529, 0.45384448766708374, -0.3186379671096802, -0.1714324653148651, 0.06017593294382095, -0.21531599760055542, -0.4842652380466461], [0.023136600852012634, -0.12130825221538544, -0.0911264568567276, 0.04502790421247482, -0.12434521317481995, 0.10584746301174164, -0.250169575214386, 0.2561514377593994, 0.27963975071907043, -0.2079421728849411, -0.3989102840423584, 0.3820788860321045, -0.07044194638729095, 0.1649567186832428, 0.04829932004213333, 0.03008071333169937, -0.49997201561927795, 0.06498053669929504, 0.07768278568983078, 0.01189793087542057, -0.20835521817207336, 0.05297846347093582, 0.11747904121875763, -0.3086608052253723], [0.06233327463269234, -0.23169969022274017, -0.15856510400772095, 0.06710559129714966, -0.16609954833984375, 0.04512731358408928, 0.241553395986557, -0.307667076587677, 0.18100646138191223, -0.17092782258987427, 0.06221183389425278, 0.16807878017425537, 0.11210513859987259, -0.2404102385044098, 0.04058430716395378, -0.02323455736041069, -0.08595037460327148, 0.07926821708679199, 0.01877392828464508, 0.1526210606098175, 0.029655463993549347, 0.17967259883880615, -0.05755022168159485, 0.49546951055526733], [0.12815487384796143, 0.09440776705741882, -0.05820903927087784, -0.017974764108657837, 0.01568720117211342, 0.6334880590438843, 0.2717943787574768, 0.2660090923309326, 0.1393105834722519, 0.15842342376708984, -0.22660699486732483, 0.00161672942340374, -0.09432879090309143, -0.11603730916976929, 0.10006704926490784, -0.4209344983100891, -0.32428717613220215, 0.08096982538700104, 0.14311188459396362, -0.09672980010509491, 0.21269764006137848, 0.21038566529750824, 0.24617138504981995, -0.1573517769575119], [-0.021249398589134216, -0.022282030433416367, -0.09762430191040039, 0.18814435601234436, -0.3124859035015106, 0.13420400023460388, -0.4697889983654022, -0.0013356499839574099, 0.007306971587240696, -0.010603029280900955, 0.35787755250930786, -0.11659243702888489, 0.3375812768936157, -0.15046478807926178, -0.08156365156173706, -0.39231276512145996, 0.33683526515960693, -0.03300972655415535, -0.1039745956659317, 0.11171148717403412, -0.09209265559911728, -0.2512741684913635, 0.18016377091407776, -0.007342786993831396], [0.21580292284488678, -0.05668668448925018, -0.2616622745990753, -0.08260516822338104, -0.3502505421638489, 0.2265099585056305, 0.2830660343170166, 0.09788616746664047, -0.23121383786201477, -0.06297242641448975, 0.12640869617462158, -0.2030327022075653, -0.1398361623287201, 0.31127405166625977, 0.08450428396463394, 0.08972250670194626, 0.22540909051895142, 0.0024245146196335554, 0.36842530965805054, -0.27895739674568176, 0.014651804231107235, -0.04504319280385971, 0.18175196647644043, -0.20822259783744812], [-0.11948676407337189, 0.16949227452278137, -0.10515381395816803, -0.2986452579498291, 0.08244238793849945, -0.26530420780181885, -0.09790694713592529, -0.12269814312458038, 0.11305259168148041, 0.19418534636497498, -0.19911569356918335, 0.2282578945159912, -0.08769611269235611, 0.038380712270736694, 0.25967344641685486, -0.14060333371162415, 0.22689087688922882, 0.19332119822502136, 0.13800498843193054, -0.04030350595712662, -0.06581318378448486, -0.10339981317520142, 0.08074839413166046, 0.2763800621032715], [0.08788058161735535, -0.46444159746170044, -0.39344337582588196, -0.05827115476131439, 0.16282658278942108, -0.4527114927768707, -0.04908064752817154, -0.08312499523162842, -0.31892356276512146, 0.2636714577674866, 0.11133398115634918, -0.03088635951280594, 0.03981281444430351, -0.09999989718198776, -0.2556789219379425, 0.46835142374038696, -0.37794309854507446, -0.18329645693302155, 0.2836018204689026, 0.10455615818500519, 0.4262946844100952, -0.08123533427715302, -0.1700766533613205, -0.28707560896873474], [0.043616607785224915, -0.25255459547042847, 0.193121999502182, 0.14426222443580627, 0.18184790015220642, -0.0797540545463562, 0.44854867458343506, 0.024832669645547867, -0.05229303240776062, -0.32510125637054443, 0.04322079196572304, 0.1839272528886795, 0.20941483974456787, -0.000651425332762301, -0.27814292907714844, -0.020927544683218002, 0.18843847513198853, 0.22906696796417236, 0.15897713601589203, -0.16678264737129211, -0.18263423442840576, 0.23004716634750366, -0.417694091796875, -0.07080164551734924], [0.0655428022146225, -0.13088703155517578, -0.1369895339012146, 0.13157466053962708, -0.02697090245783329, 0.41165342926979065, 0.19431906938552856, 0.21934771537780762, 0.20498943328857422, -0.13307258486747742, 0.16335776448249817, 0.23707881569862366, 0.18081936240196228, 0.2126045525074005, -0.09668640047311783, -0.20241543650627136, 0.13067632913589478, -0.010482752695679665, 0.2017347812652588, -0.22450047731399536, -0.014568425714969635, -0.13842016458511353, -0.33066144585609436, 0.07612167298793793], [0.16059695184230804, -0.2469893991947174, 0.10211768001317978, -0.10871908068656921, -0.14792625606060028, -0.08804800361394882, -0.2627480626106262, -0.16297155618667603, -0.03174733370542526, 0.0413375049829483, 0.134403258562088, 0.07532736659049988, -0.36881309747695923, 0.37476325035095215, -0.03148574382066727, -0.11392765492200851, 0.4058288037776947, 0.11319757997989655, -0.10526658594608307, 0.038826003670692444, -0.1894235908985138, 0.2187538892030716, -0.16445326805114746, 0.07531031966209412], [-0.3943323493003845, 0.2326803207397461, -0.012136990204453468, -0.23033973574638367, -0.28309136629104614, 0.22903960943222046, -0.06445132195949554, -0.3344345986843109, -0.541594386100769, 0.3283542990684509, 0.8425031304359436, 0.028885917738080025, 0.046556685119867325, -0.1708870828151703, -0.05237485468387604, 0.5646635293960571, 0.09282998740673065, 0.07779629528522491, -0.017879262566566467, -0.059094808995723724, 0.06385302543640137, 0.010014830157160759, -0.10294462740421295, -0.15646512806415558], [0.17224600911140442, -0.1814289093017578, 0.18446341156959534, -0.1882355660200119, 0.09251023828983307, 0.03152121603488922, 0.03352314606308937, -0.04110413044691086, 0.0006623590597882867, -0.07705147564411163, -0.03181822597980499, 0.019386926665902138, 0.03595820069313049, -0.4018402099609375, 0.24757514894008636, -0.15657073259353638, -0.31713104248046875, -0.20968765020370483, 0.14819303154945374, 0.33128637075424194, 0.11092226207256317, 0.3127408027648926, 0.13724961876869202, -0.0900004431605339], [-0.11421332508325577, -0.07868172228336334, -0.1956881284713745, -0.20139476656913757, 0.15009568631649017, -0.016163554042577744, 0.17964468896389008, 0.2253800928592682, -0.29399603605270386, 0.1186068058013916, -0.20914402604103088, 0.2836857736110687, -0.08206186443567276, 0.3792954385280609, 0.2173881083726883, -0.016727617010474205, -0.44993048906326294, 0.03914279490709305, 0.023115497082471848, -0.1573409140110016, -0.29112565517425537, 0.07327151298522949, 0.017594311386346817, -0.20428454875946045], [0.4323248863220215, 0.07936067879199982, -0.1324286162853241, 0.38615766167640686, -0.07061093300580978, -0.3272939622402191, -0.10836242884397507, 0.23137378692626953, 0.15752333402633667, 0.055933889001607895, -0.0181126706302166, -0.3337081968784332, 0.0651390552520752, 0.3737773895263672, 0.22684133052825928, 0.19649769365787506, -0.09246794134378433, -0.04311947897076607, 0.14977848529815674, 0.09665009379386902, -0.22048863768577576, -0.34460508823394775, -0.2828850746154785, -0.2853679656982422], [-0.12746673822402954, -0.18342459201812744, 0.13104277849197388, 0.11918459832668304, -0.29054999351501465, 0.4837634861469269, -0.06815163791179657, -0.16392512619495392, 0.46735048294067383, -0.059243906289339066, 0.08380772173404694, 0.27549201250076294, -0.17439693212509155, 0.45257288217544556, 0.3622908592224121, 0.13168053328990936, -0.28034594655036926, 0.08890270441770554, 0.0239773727953434, -0.29157501459121704, 0.19266444444656372, 0.060808878391981125, 0.026940416544675827, 0.06918393075466156], [-0.09148620069026947, -0.12469932436943054, 0.16980516910552979, 0.15477019548416138, -0.1900191456079483, -0.3402060270309448, 0.18739069998264313, 0.11247093975543976, 0.016722911968827248, -0.3841608166694641, 0.03300254046916962, 0.05705232918262482, 0.08071225881576538, -0.00406112615019083, -0.20744135975837708, 0.24570107460021973, 0.016927044838666916, -0.094549760222435, 0.17666971683502197, 0.18694432079792023, -0.002834540791809559, -0.29866209626197815, -0.31119245290756226, -0.06218751519918442], [-0.04820188879966736, -0.10000979900360107, -0.4068698585033417, -0.3711954355239868, -0.2470678985118866, -0.6709867715835571, 0.03105246275663376, 0.19821429252624512, 0.17451176047325134, 0.10717228055000305, 0.3947313129901886, -0.17179936170578003, -0.5236086845397949, 0.1392017900943756, 0.3523085117340088, -0.1758624166250229, -0.25167691707611084, 0.0160568505525589, -0.08115082234144211, -0.07321101427078247, 0.023112405091524124, -0.04008350521326065, 0.05187495797872543, -0.21551921963691711], [0.17257706820964813, 0.3132328391075134, -0.398090660572052, 0.008582266047596931, -0.4055759906768799, -0.3933585286140442, -0.3022260069847107, -0.18789348006248474, 0.15869003534317017, 0.14195656776428223, -0.2020857036113739, 0.10501071810722351, 0.07271359860897064, -0.10544572025537491, 0.571532130241394, 0.003200435545295477, 0.35232657194137573, -0.06336108595132828, -0.11785422265529633, -0.01893146149814129, 0.1546095609664917, -0.12048737704753876, -0.06959905475378036, -0.29176104068756104], [0.14194060862064362, 0.08599777519702911, 0.18114176392555237, -0.12353014945983887, -0.020717216655611992, -0.27681052684783936, -0.10155128687620163, 0.21066588163375854, -0.05467505007982254, 0.35874825716018677, -0.04054718464612961, -0.18028771877288818, 0.1770409345626831, -0.16730761528015137, 0.12593910098075867, -0.1836361289024353, -0.0458776131272316, 0.0029581543058156967, -0.09593648463487625, 0.20648232102394104, 0.3277052044868469, -0.19963929057121277, -0.30771058797836304, -0.33145391941070557], [-0.11235660314559937, 0.07037068158388138, 0.2918627858161926, -0.19498325884342194, 0.07770128548145294, -0.4236457645893097, -0.02155292220413685, -0.21303586661815643, -0.0949803814291954, -0.19654318690299988, 0.146480530500412, -0.1271498054265976, -0.409329891204834, 0.05375746637582779, -0.19813574850559235, -0.08001434803009033, 0.328416645526886, -0.0104676503688097, -0.022524893283843994, 0.11214691400527954, 0.4865284562110901, 0.25258874893188477, -0.47930315136909485, 0.31248629093170166], [0.062451690435409546, 0.016320159658789635, -0.20667649805545807, -0.07976360619068146, -0.17724154889583588, -0.4613501727581024, -0.0993177592754364, 0.1810511350631714, -0.04465804621577263, -0.4122309684753418, 0.4078224301338196, -0.05626441165804863, 0.02114938572049141, -0.2972613573074341, 0.062055233865976334, -0.08101511001586914, 0.23226551711559296, 0.03775788098573685, 0.04432355612516403, -0.17272591590881348, -0.23166656494140625, -0.22953078150749207, -0.08330772072076797, 0.11291375756263733], [0.14651739597320557, 0.08942846953868866, 0.18399080634117126, -0.49830374121665955, -0.15108755230903625, 0.26867300271987915, 0.12452495098114014, -0.34868818521499634, 0.36625730991363525, -0.30142271518707275, -0.2070578932762146, 0.40548455715179443, 0.29944443702697754, 0.24904289841651917, -0.09893804043531418, -0.31223946809768677, -0.20373186469078064, 0.1200706884264946, -0.37197399139404297, 0.2458215057849884, 0.36727333068847656, 0.03291570395231247, 0.30575257539749146, 0.046433597803115845], [-0.13873794674873352, 0.3239748775959015, -0.15325582027435303, -0.052628178149461746, -0.2145804613828659, -0.22570858895778656, -0.2498699575662613, 0.3412269353866577, 0.23946228623390198, -0.23942482471466064, -0.17079204320907593, -0.10023017972707748, -0.23937875032424927, 0.10319884866476059, -0.20158584415912628, 0.12653383612632751, 0.29325366020202637, 0.13812176883220673, -0.2676961421966553, 0.09610311686992645, 0.16541045904159546, -0.07191118597984314, -0.1714177131652832, 0.2541768550872803]]}}, "Dense_1": {"0+": {"bias": [0.1325177252292633, -0.008345442824065685, 0.13608720898628235, 0.11263074725866318, -0.03394639492034912, 0.02843058668076992, 0.08546091616153717, -0.03624358028173447, -0.2143920212984085, -0.03282821550965309, -0.1092899739742279, 0.026823559775948524, -0.015072345733642578, 0.060470908880233765, -0.14663410186767578, 0.18747948110103607, 0.3491511344909668, -0.051481567323207855, 0.19402529299259186, 0.05561567842960358, -0.09876158833503723, 0.30818384885787964, 0.10228687524795532, 0.10045534372329712], "kernel": [[-0.19435186684131622, -0.06243357062339783, 0.19021913409233093, 0.37957334518432617, -0.18203002214431763, -0.15627920627593994, 0.33861860632896423, -0.1809426248073578, -0.3151058554649353, 0.4661741554737091, 0.27257752418518066, -0.1774384081363678, -0.08127915859222412, 0.731630802154541, -0.20508819818496704, 0.16633014380931854, 0.07068738341331482, -0.11085288226604462, -0.14387041330337524, 0.46517080068588257, 0.23270955681800842, 0.14749863743782043, 0.3590759038925171, 0.08007008582353592], [0.21896496415138245, -0.3024611473083496, 0.11485198140144348, 0.1306232362985611, -0.07170811295509338, -0.01408177800476551, -0.377677857875824, 0.15440398454666138, 0.13273611664772034, -0.15290044248104095, 0.24234119057655334, 0.24237880110740662, -0.08143620193004608, -0.1894633173942566, 0.06885361671447754, 0.2330462634563446, 0.15764430165290833, 0.18222388625144958, 0.017315957695245743, 0.22102002799510956, -0.08921608328819275, 0.159062460064888, 0.21415835618972778, 0.25948747992515564], [-0.07121139764785767, -0.09551751613616943, 0.2913801968097687, -0.14123329520225525, -0.027866806834936142, 0.05069288983941078, -0.3696352243423462, -0.45816734433174133, 0.16335369646549225, 0.14884477853775024, -0.2660212516784668, -0.07531087100505829, 0.2934572994709015, 0.14019620418548584, 0.22792190313339233, -0.3889831304550171, -0.2772729694843292, -0.45543748140335083, -0.011173437349498272, 0.04457300156354904, -0.03636188805103302, -0.3358730673789978, 0.09698065370321274, -0.3048960268497467], [0.08018942177295685, 0.014776024036109447, -0.2135675847530365, -0.3375081419944763, -0.37516021728515625, -0.09669114649295807, -0.04977589100599289, 0.1421605944633484, 0.1597996950149536, -0.45234543085098267, -0.050557397305965424, 0.03985315188765526, 0.046584151685237885, -0.14765897393226624, -0.09200647473335266, -0.3115670680999756, 0.10698935389518738, 0.2127045840024948, -0.14161884784698486, 0.1872221827507019, 0.2051853984594345, -0.12622147798538208, 0.4169880151748657, 0.24948172271251678], [-0.1514485478401184, -0.22612369060516357, 0.09954210370779037, -0.15598511695861816, 0.2786419689655304, -0.2503811717033386, 0.10552031546831131, -0.24534687399864197, -0.00668870285153389, 0.1578839123249054, -0.18658185005187988, -0.03573025390505791, -0.14517757296562195, -0.17368659377098083, -0.021922746673226357, 0.1100311130285263, 0.0562361516058445, 0.4325149953365326, -0.02709994465112686, -0.33445340394973755, 0.13699273765087128, -0.09304528683423996, 0.14027950167655945, 0.3016599714756012], [-0.09577997028827667, 0.001404552604071796, 0.10440963506698608, -0.14602899551391602, -0.2491954267024994, 0.3355514407157898, 0.09623986482620239, -0.17942190170288086, -0.32059264183044434, -0.08784173429012299, 0.25062185525894165, -0.03763549029827118, 0.009718845598399639, -0.18900693953037262, -0.21933718025684357, 0.13815726339817047, -0.26890912652015686, -0.13659407198429108, -0.12506923079490662, -0.04575338959693909, 0.15565909445285797, -0.25697383284568787, 0.09792879223823547, 0.0743485689163208], [0.29401272535324097, -0.08002761006355286, -0.24088677763938904, 0.012156590819358826, 0.1227811872959137, -0.41842523217201233, -0.17981907725334167, 0.18820443749427795, -0.06178876757621765, -0.05240355804562569, -0.36658382415771484, -0.3192810118198395, 0.13334651291370392, 0.07422943413257599, -0.3928776681423187, -0.30820074677467346, -0.21285173296928406, -0.12987637519836426, -0.19499370455741882, 0.07926662266254425, -0.09823647141456604, -0.23156940937042236, -0.2348274290561676, 0.09798701107501984], [-0.3378559350967407, 0.3247756361961365, -0.2499811351299286, 0.022720497101545334, 0.0016170375747606158, -0.28389304876327515, -0.010581704787909985, 0.12556979060173035, 0.23838475346565247, -0.11378646641969681, -0.23688864707946777, -0.21444018185138702, 0.05081851780414581, -0.13458460569381714, 0.11904534697532654, -0.10001332312822342, -0.011590742506086826, 0.1557142734527588, -0.1892717480659485, -0.34292173385620117, -0.23701870441436768, -0.07755215466022491, -0.03471915423870087, -0.1081833764910698], [-0.43413805961608887, 0.01564868539571762, -0.09851998090744019, -0.002186403376981616, 0.11418706178665161, 0.08909958600997925, 0.002496901899576187, -0.22759702801704407, -0.16263732314109802, 0.06698543578386307, 0.2637755870819092, -0.32370084524154663, -0.3170991539955139, -0.3485638499259949, -0.24226509034633636, -0.2117512822151184, -0.05636864900588989, -0.3039361238479614, 0.3111981451511383, 0.21825489401817322, -0.23999467492103577, -0.036663684993982315, 0.038316741585731506, -0.22157040238380432], [0.008971750736236572, 0.07198405265808105, -0.3097989559173584, -0.026534851640462875, 0.1868305206298828, 0.2600303888320923, -0.05304258316755295, 0.20301607251167297, -0.14155560731887817, -0.4305543899536133, -0.040339305996894836, -0.09767824411392212, 0.22897621989250183, -0.3694228529930115, 0.1396355926990509, -0.0032821432687342167, -0.2331187129020691, 0.14576499164104462, 0.19315209984779358, -0.08387736976146698, -0.3159528076648712, 0.08877651393413544, 0.21597109735012054, 0.21444103121757507], [0.02074025571346283, 0.09986446052789688, -0.09982849657535553, 0.16873914003372192, -0.31409338116645813, -0.07544943690299988, 0.11492768675088882, -0.29193252325057983, 0.37192991375923157, 0.34557509422302246, -0.020549271255731583, -0.004957564175128937, -0.19086511433124542, 0.3297486901283264, 0.11365769803524017, -0.08618897199630737, 0.20942291617393494, -0.22577305138111115, -0.21679285168647766, 0.25002098083496094, -0.01634068973362446, 0.04017334431409836, -0.014799904078245163, 0.285297155380249], [-0.6869926452636719, 0.050804972648620605, -0.5573959946632385, -0.4434000849723816, 0.4903414845466614, -0.25602036714553833, -0.4476562738418579, 0.03915517032146454, 0.666271984577179, 0.4973400831222534, -0.035485077649354935, 0.36869627237319946, -0.09402358531951904, -0.11850469559431076, -0.03608737885951996, -0.3724737763404846, -0.7545428276062012, 0.2005854994058609, -0.25687479972839355, -0.027806058526039124, 0.2297920137643814, -0.3167737126350403, -0.0953354462981224, -0.3690289855003357], [-0.17267471551895142, 0.19482937455177307, -0.2837080955505371, 0.0895606279373169, -0.21871325373649597, -0.18078787624835968, -0.30144548416137695, 0.3583471179008484, 0.10892064869403839, 0.02779114805161953, -0.1763671636581421, -0.3197398781776428, 0.10773880034685135, -0.3112022876739502, 0.12581561505794525, 0.19053447246551514, -0.0575660839676857, -0.010738982819020748, 0.3678898215293884, 0.35514914989471436, -0.03552541136741638, 0.0858183354139328, 0.11862131953239441, -0.05908406525850296], [-0.13135355710983276, -0.5062724947929382, -0.16021987795829773, 0.10979777574539185, 0.25365519523620605, 0.01661665365099907, -0.08173512667417526, -0.11765144020318985, -0.009008515626192093, -0.28239572048187256, -0.10676831752061844, -0.15325263142585754, 0.008529912680387497, 0.34863728284835815, 0.23746579885482788, 0.15079575777053833, -0.06378531455993652, -0.11002752184867859, 0.17144569754600525, 0.1494666337966919, 0.0015741551760584116, 0.019663609564304352, -0.4539313316345215, -0.23859959840774536], [0.34809020161628723, -0.4037686586380005, 0.159934863448143, 0.34577444195747375, -0.40143510699272156, 0.243960440158844, 0.2575400471687317, -0.017708303406834602, -0.3509395718574524, 0.2533172369003296, -0.2965956926345825, -0.3413415849208832, 0.14834259450435638, 0.35699939727783203, 0.057067930698394775, 0.26875901222229004, 0.2616115212440491, -0.029039720073342323, 0.44653260707855225, 0.3333567678928375, -0.4356391727924347, 0.21002717316150665, 0.33839356899261475, 0.16282355785369873], [-0.43570375442504883, 0.30374622344970703, 0.15684230625629425, 0.22316980361938477, 0.41251879930496216, -0.3278389275074005, 0.21726544201374054, -0.33356642723083496, 0.28965988755226135, 0.10733287036418915, -0.32998228073120117, -0.02588004618883133, 0.040434859693050385, -0.26119327545166016, 0.009317022748291492, -0.10397426784038544, 0.3454052209854126, -0.010521365329623222, 0.27662599086761475, -0.08982685208320618, 0.055632397532463074, 0.09913014620542526, 0.2718440592288971, -0.12002964317798615], [0.10466434061527252, 0.22402392327785492, -0.35395348072052, -0.10259606689214706, 0.21307924389839172, -0.1867089569568634, 0.19361253082752228, -0.09171934425830841, -0.13097313046455383, -0.04490237683057785, 0.2725929617881775, -0.041828036308288574, 0.053927481174468994, -0.6312530636787415, -0.18968576192855835, -0.1612737476825714, 0.15864036977291107, 0.30421364307403564, -0.2131882905960083, -0.03322868049144745, 0.13993343710899353, 0.20491531491279602, -0.027308635413646698, 0.34042879939079285], [-0.2469029724597931, 0.06114174425601959, 0.1409967988729477, -0.30348366498947144, 0.05925190448760986, -0.25549325346946716, -0.32711416482925415, -0.1786700040102005, 0.3217511475086212, -0.1264066845178604, 0.18866392970085144, -0.31069427728652954, -0.03938281163573265, 0.30088552832603455, 0.18854977190494537, -0.02598918229341507, 0.26283925771713257, 0.15573106706142426, 0.054182276129722595, -0.14329680800437927, -0.21191799640655518, -0.4815778136253357, -0.23451587557792664, -0.2842702865600586], [-0.19031062722206116, -0.05832599103450775, -0.021450404077768326, -0.3482728898525238, 0.2990739047527313, -0.10367733985185623, -0.30944716930389404, -0.11777296662330627, -0.38782745599746704, 0.24803748726844788, 0.0945030003786087, -0.3998728394508362, 0.20348218083381653, 0.7408030033111572, 0.3025030493736267, -0.014511685818433762, -0.03592662885785103, 0.12510862946510315, 0.1328820288181305, -0.09336437284946442, -0.3030399978160858, -0.27435535192489624, -0.016080308705568314, -0.3227770924568176], [-0.07920923829078674, -0.3018208146095276, -0.03211327642202377, 0.22028258442878723, -0.18814092874526978, 0.11034642159938812, -0.024958468973636627, 0.37351712584495544, 0.31390810012817383, 0.2970900535583496, -0.11179671436548233, -0.25473588705062866, 0.021414047107100487, 0.2143513262271881, 0.038694653660058975, -0.09490647166967392, 0.06839530169963837, 0.07264405488967896, 0.31135082244873047, 0.051619283854961395, 0.347497820854187, 0.08295037597417831, 0.12620213627815247, 0.03431401401758194], [0.36098214983940125, 0.014726963825523853, -0.09188275039196014, -0.16053666174411774, -0.128705233335495, 0.2542246878147125, -0.005175335332751274, 0.054663315415382385, 0.04190845787525177, -0.012477572076022625, -0.253051221370697, 0.373157262802124, -0.022627783939242363, 0.049771498888731, 0.34320271015167236, 0.122651606798172, -0.293831467628479, -0.2093910276889801, 0.20919881761074066, 0.19891783595085144, 0.37429219484329224, 0.14409779012203217, -0.16177642345428467, 0.07203039526939392], [-0.554696798324585, -0.12817153334617615, -0.47134366631507874, 0.010773012414574623, 0.13359183073043823, -0.036863431334495544, 0.16140450537204742, 0.21400627493858337, 0.19121232628822327, 0.2986878752708435, 0.3844988942146301, -0.2704837918281555, 0.015196062624454498, -0.20841281116008759, 0.23750752210617065, -0.11323101818561554, -0.34659308195114136, 0.32197684049606323, -0.6466712951660156, -0.025175053626298904, 0.1525791585445404, -0.11168884485960007, -0.13087908923625946, -0.287929505109787], [0.3801800608634949, 0.18527601659297943, -0.021090999245643616, -0.30747756361961365, 0.23946289718151093, 0.10204663872718811, 0.14553003013134003, -0.18261605501174927, -0.11814512312412262, -0.24519756436347961, -0.17812196910381317, -0.3153630197048187, -0.15283212065696716, 0.32293033599853516, -0.1092131957411766, 0.1306142359972, 0.09034882485866547, -0.2527238130569458, -0.10290950536727905, -0.08961845934391022, 0.01846182346343994, 0.08524865657091141, -0.013526210561394691, 0.42630815505981445], [-0.044841162860393524, -0.10813450813293457, -0.41909876465797424, 0.16744431853294373, -0.1229177713394165, -0.14593403041362762, -0.14697809517383575, 0.016202479600906372, 0.2956092357635498, -0.4962671399116516, 0.3883349895477295, -0.14606322348117828, 0.04548335075378418, 0.14918473362922668, -0.13455277681350708, 0.22048795223236084, -0.24735930562019348, 0.46298110485076904, -0.10958383977413177, -0.019866397604346275, 0.1391947865486145, 0.06262451410293579, -0.09133921563625336, 0.4111160635948181]]}, "0-": {"kernel": [[0.13942396640777588, 0.23328670859336853, 0.001479535480029881, -0.005204305984079838, 0.18880590796470642, -0.12166790664196014, 0.30316057801246643, -0.310663640499115, 0.41084980964660645, 0.06073585897684097, 0.31991046667099, -0.3876293897628784, 0.03685363382101059, 0.1450740545988083, -0.2531293034553528, -0.22191423177719116, 0.09478554129600525, -0.5204336047172546, -0.1361759603023529, 0.12980599701404572, 0.3848974108695984, -0.44455385208129883, 0.01569594070315361, -0.13634037971496582], [-0.16227753460407257, 0.11233316361904144, -0.06738756597042084, -0.18380305171012878, 0.06737800687551498, 0.04806120693683624, -0.20778751373291016, 0.02923138625919819, 0.020882438868284225, 0.03223024308681488, 0.15442875027656555, -0.13567662239074707, 0.39610856771469116, 0.08375151455402374, 0.28525620698928833, -0.14280717074871063, -0.030868494883179665, -0.24014171957969666, 0.22255787253379822, -0.09228397905826569, -0.04473373293876648, 0.1524423509836197, 0.40967386960983276, -0.06356078386306763], [0.25167208909988403, -0.24252425134181976, -0.08213532716035843, -0.12397050857543945, 0.060882411897182465, -0.029103238135576248, 0.16540437936782837, 0.0050514740869402885, -0.002613586839288473, -0.14027762413024902, -0.19614863395690918, 0.2463536411523819, 0.10221405327320099, 0.23986047506332397, 0.3906654417514801, 0.002965821884572506, 0.5151859521865845, 0.35897499322891235, -0.002128920052200556, -0.10223458707332611, 0.13924098014831543, -0.2584424614906311, -0.053643420338630676, -0.03398065268993378], [0.0009371598716825247, 0.29903918504714966, 0.12263759970664978, 0.06636835634708405, 0.13485205173492432, 0.16087394952774048, 0.39821362495422363, -0.12426794320344925, 0.05867724120616913, 0.10223320871591568, 0.09095092117786407, 0.21521855890750885, -0.2072741985321045, 0.20328491926193237, 0.1147976666688919, 0.0851527601480484, 0.18144086003303528, -0.11793458461761475, -0.14665687084197998, 0.022773707285523415, -0.04491383209824562, 0.3683047592639923, 0.28450220823287964, -0.1395699679851532], [0.013687880709767342, -0.28321385383605957, 0.15791577100753784, 0.30459147691726685, -0.15299805998802185, -0.09346392750740051, 0.14817987382411957, -0.024874499067664146, 0.1140313595533371, 0.18723013997077942, -0.2422744333744049, 0.03768149018287659, -0.2383880913257599, 0.02964409999549389, -0.07315628230571747, 0.01242582593113184, -0.12098486721515656, 0.29102057218551636, -0.16227814555168152, 0.082623191177845, 0.07772906124591827, 0.20347657799720764, -0.30351781845092773, 0.03732931613922119], [0.27034252882003784, -0.2900204658508301, 0.253864586353302, 0.15111792087554932, -0.1731957048177719, -0.024664990603923798, -0.18166020512580872, 0.17546647787094116, 0.15482868254184723, -0.11979798972606659, -0.11235792934894562, -0.354059100151062, -0.2506274878978729, -0.013996811583638191, -0.17041295766830444, 0.2300964891910553, -0.12849321961402893, -0.1416386067867279, 0.03181178495287895, 0.042573343962430954, -0.06903547048568726, -0.09477000683546066, -0.40557244420051575, -0.29097017645835876], [0.09110341966152191, -0.023037901148200035, 0.3171274662017822, 0.014209369197487831, 0.005549312569200993, -0.00925772450864315, -0.1186496913433075, -0.24670150876045227, 0.19446058571338654, -0.1569710373878479, 0.06321132928133011, -0.21839751303195953, 0.094378262758255, -0.4340311288833618, -0.04416143149137497, -0.25594329833984375, 0.1864737868309021, 0.07976355403661728, -0.3579995036125183, -0.35692012310028076, -0.25493913888931274, 0.0343024916946888, 0.07093225419521332, -0.23427802324295044], [-0.3341110348701477, -0.02726438082754612, -0.09395875036716461, -0.2533097565174103, -0.1673341691493988, -0.26369422674179077, 0.1501159965991974, 0.025263605639338493, -0.21500377357006073, 0.03495107591152191, -0.12079556286334991, 0.19410927593708038, -0.06678786873817444, 0.4582539200782776, 0.050870079547166824, -0.09040729701519012, -0.4116993248462677, -0.24357882142066956, 0.4192012846469879, -0.17731861770153046, -0.07644535601139069, -0.013570429757237434, -0.4642813503742218, -0.15372292697429657], [-0.0907999575138092, 0.12181748449802399, -0.10187755525112152, 0.19828146696090698, -0.21878981590270996, -0.2805381119251251, 0.10890808701515198, 0.05206829309463501, -0.3497985899448395, -0.14419269561767578, -0.14655528962612152, -0.24095243215560913, 0.24745841324329376, 0.11588684469461441, 0.11174222826957703, -0.15348801016807556, -0.11699098348617554, -0.12294965237379074, -0.11979804933071136, -0.1762893795967102, -0.284201979637146, -0.15440486371517181, 0.09099920094013214, 0.06697122007608414], [0.4820435047149658, -0.3920782804489136, -0.42932063341140747, 0.21837863326072693, -0.39025813341140747, -0.03909100592136383, -0.2056274265050888, -0.02386404573917389, -0.3532130718231201, -0.2711752653121948, 0.045557111501693726, -0.03377818316221237, -0.37605831027030945, 0.1657739132642746, -0.09463155269622803, -0.447128027677536, 0.05362073332071304, -0.229507714509964, -0.06590676307678223, 0.29462093114852905, 0.1787930727005005, 0.008692458271980286, 0.21927675604820251, -0.029631098732352257], [0.14054884016513824, -0.2156386524438858, -0.08406905829906464, 0.22049552202224731, 0.2674705386161804, -0.24103456735610962, -0.20482003688812256, -0.15695244073867798, 0.09138305485248566, 0.437663733959198, -0.12318084388971329, -0.08838742971420288, -0.020275387912988663, -0.0674205794930458, -0.10506778955459595, 0.10436800122261047, 0.04609152674674988, 0.008388767018914223, 0.14937187731266022, -0.23742622137069702, 0.20453938841819763, -0.04610360413789749, -0.06576881557703018, 0.37171298265457153], [0.41720515489578247, 0.1970089226961136, 0.23609930276870728, 0.17061543464660645, 0.01736970618367195, -0.2927660644054413, 0.49078890681266785, -0.18778014183044434, -0.370871365070343, -0.30511289834976196, 0.07879474759101868, -0.18130245804786682, -0.20898689329624176, -0.0940936878323555, 0.035043686628341675, -0.030975155532360077, -0.020240716636180878, -0.1298644244670868, -0.19222334027290344, -0.2820850610733032, 0.148846834897995, -0.3234826922416687, 0.12332215905189514, 0.11958257108926773], [0.20471632480621338, 0.17758262157440186, -0.11968949437141418, -0.029934873804450035, -0.10518187284469604, 0.32174569368362427, -0.3238501250743866, -0.08906003832817078, 0.21628087759017944, 0.020170412957668304, 0.08869992196559906, -0.12535028159618378, 0.2847275733947754, -0.1488591432571411, -0.03449515998363495, -0.289150595664978, -0.3283167779445648, 0.3257775604724884, 0.161016047000885, 0.19101330637931824, 0.058745115995407104, -0.031982582062482834, 0.3006362020969391, -0.016100581735372543], [0.04525505751371384, -0.10195386409759521, 0.03396131470799446, 0.12280693650245667, -0.11325152218341827, -0.16292227804660797, 0.12828004360198975, -0.1428854763507843, 0.12709549069404602, -0.2412218153476715, -0.10349304229021072, 0.24575576186180115, -0.0964660793542862, 0.015310008078813553, -0.206247478723526, 0.18596485257148743, -0.2010236531496048, 0.19387149810791016, -0.003146239323541522, -0.025288837030529976, -0.19939324259757996, 0.09999426454305649, -0.058956682682037354, 0.363414466381073], [-0.3271268606185913, -0.01998782344162464, 0.012551775202155113, 0.43964290618896484, 0.6564920544624329, -0.44938230514526367, 0.05245469510555267, 0.027091890573501587, 0.4248306155204773, -0.14427511394023895, 0.028402648866176605, 0.24760857224464417, -0.4838863015174866, 0.7887228727340698, 0.7376958131790161, 0.30747082829475403, 0.34932807087898254, 0.26988571882247925, -0.38735783100128174, -0.17977704107761383, -0.2414507269859314, 0.3760124742984772, -0.06083046644926071, -0.06946758925914764], [-0.14189761877059937, 0.02182784304022789, -0.17034344375133514, -0.25724053382873535, 0.112992063164711, -0.01638069748878479, -0.2665705680847168, 0.044034600257873535, -0.18778452277183533, -0.08939366787672043, -0.187043696641922, -0.2108185589313507, 0.1162756159901619, -0.2907688021659851, -0.16985100507736206, -0.269037127494812, 0.0605655163526535, -0.1283971518278122, -0.23358523845672607, 0.01010777149349451, 0.09693126380443573, -0.15612247586250305, -0.45911556482315063, 0.03359503298997879], [0.2193550020456314, 0.012812904082238674, 0.09303663671016693, -0.08264948427677155, 0.24172431230545044, 0.09975577890872955, 0.2700086832046509, 0.08923083543777466, -0.25954997539520264, -0.2083059400320053, 0.13745534420013428, -0.0014566290192306042, 0.3761000633239746, -0.07550303637981415, -0.028398221358656883, 0.007511933799833059, 0.3227565288543701, 4.073168747709133e-05, 0.06273549795150757, 0.17260965704917908, 0.1692746877670288, -0.08930973708629608, -0.02722424454987049, -0.20764675736427307], [-0.049243323504924774, 0.10750070214271545, -0.14040525257587433, -0.3894599378108978, -0.11950528621673584, -0.05359736084938049, -0.07693719863891602, -0.15717247128486633, 0.1913241446018219, 0.1958453357219696, -0.03323625028133392, -0.13151255249977112, 0.037926144897937775, -0.10776179283857346, 0.20815855264663696, 0.2673355042934418, -0.08415994048118591, -0.2524415850639343, -0.055219367146492004, -0.36247438192367554, -0.13245290517807007, 0.1650170385837555, 0.0746634304523468, -0.37267768383026123], [-0.1454305648803711, -0.13723617792129517, 0.06161009892821312, 0.27898406982421875, 0.21471497416496277, -0.18146270513534546, -0.011368677020072937, 0.20202159881591797, 0.057492054998874664, 0.43929654359817505, -0.2925046682357788, -0.45712846517562866, 0.024498701095581055, -0.13788491487503052, -0.25421854853630066, 0.05418555811047554, -0.10087703168392181, 0.23814597725868225, 0.17938464879989624, -0.017987657338380814, 0.12198445945978165, -0.15468841791152954, 0.38954806327819824, -0.27587705850601196], [-0.27460575103759766, -0.20811229944229126, 0.017159070819616318, 0.436665803194046, -0.26786333322525024, -0.08425706624984741, 0.20974543690681458, 0.20755510032176971, 0.13688984513282776, -0.010378900915384293, 5.624761979561299e-05, 0.14011582732200623, -0.03524266555905342, -0.015000847168266773, 0.04054100066423416, 0.19735562801361084, 0.19237926602363586, -0.25619906187057495, 0.3301083743572235, 0.26467275619506836, 0.28454336524009705, -0.17330434918403625, 0.4105740785598755, 0.029591010883450508], [-0.03370746225118637, -0.0654916912317276, -0.10348926484584808, 0.49957555532455444, 0.1985083669424057, -0.17455962300300598, -0.43484732508659363, 0.08143223077058792, -0.04287032037973404, 0.17774534225463867, 0.1292649805545807, -0.2934421896934509, 0.23226848244667053, -0.3868829011917114, 0.2705546021461487, 0.24796998500823975, -0.027088288217782974, -0.19603264331817627, 0.15806809067726135, -0.2926849126815796, -0.09419217705726624, 0.0846116915345192, -0.2859348654747009, -0.2879585027694702], [0.058331675827503204, 0.3967474699020386, 0.2471618950366974, -0.108123779296875, -0.14573483169078827, -0.28450676798820496, -0.0017426724079996347, -0.04890318959951401, 0.32488495111465454, -0.15283018350601196, 0.06943593919277191, -0.24298065900802612, -0.26949402689933777, -0.353180468082428, -0.057046420872211456, 0.06419366598129272, -0.015946563333272934, 0.21448397636413574, -0.12229618430137634, -0.1282847821712494, -0.22851549088954926, -0.44949981570243835, 0.3648805618286133, -0.028751859441399574], [-0.3134952187538147, 0.5576764345169067, -0.04979633167386055, -0.12605616450309753, -0.6059615612030029, 0.2850208282470703, 0.12426034361124039, 0.532793402671814, 0.15123367309570312, -0.14229252934455872, -0.09340794384479523, 0.7573157548904419, 0.3178733289241791, 0.7663926482200623, 0.5568952560424805, 0.3176124393939972, 0.1707465648651123, 0.4425707161426544, 0.2670977711677551, -0.2249559462070465, -0.02949400246143341, 0.3679198920726776, 0.052006933838129044, 0.2561176121234894], [-0.13265453279018402, -0.23238439857959747, -0.2201751470565796, -0.016917744651436806, -0.0025506354868412018, -0.05022979900240898, 0.06535762548446655, 0.39908188581466675, 0.21538928151130676, -0.053399693220853806, 0.2627653181552887, 0.22755827009677887, -0.019166486337780952, -0.23718759417533875, 0.19352054595947266, -0.18899744749069214, 0.29421597719192505, -0.24368596076965332, -0.14160653948783875, -0.05052405595779419, -0.34640347957611084, 0.16210566461086273, 0.037639010697603226, -0.03602955862879753]]}, "1+": {"kernel": [[0.42758235335350037, 0.09272423386573792, 0.2774540185928345, -0.18783123791217804, -0.07206005603075027, 0.039443954825401306, -0.33819377422332764, -0.36716851592063904, -0.2162366658449173, 0.009851405397057533, -0.3392695188522339, 0.23096400499343872, 0.14125379920005798, -0.011983915232121944, -0.0034956037998199463, -0.03987202048301697, -0.057659633457660675, -0.145357146859169, -0.08148187398910522, -0.3562473654747009, -0.008270160295069218, -0.050287503749132156, 0.1345081627368927, -0.03169899806380272], [-0.14761918783187866, 0.08525285124778748, 0.26113414764404297, 0.1296541392803192, -0.3040417432785034, -0.28947773575782776, 0.2932213544845581, 0.21550634503364563, -0.4412797689437866, 0.08706531673669815, 0.34750068187713623, 0.05833470821380615, 0.15845681726932526, -0.3472013473510742, 0.041529081761837006, 0.18127024173736572, 0.028377864509820938, -0.17245417833328247, 0.3417513370513916, 0.30685120820999146, 0.18075187504291534, -0.27331414818763733, 0.2550879120826721, 0.1552303433418274], [0.19102489948272705, 0.14621779322624207, 0.0629684329032898, -0.1733139008283615, -0.14791318774223328, -0.09502589702606201, 0.07649780809879303, -0.40546584129333496, 0.1019110381603241, -0.09183694422245026, 0.035870879888534546, 0.06029635667800903, 0.058509521186351776, -0.1022510975599289, -0.15984788537025452, -0.096384197473526, -0.21256259083747864, 0.4286727011203766, 0.15467745065689087, -0.2556804120540619, 0.0770479142665863, -0.11536605656147003, -0.28779473900794983, 0.13112632930278778], [0.17692765593528748, 0.258455753326416, -0.05697001516819, -0.29552173614501953, 0.2813686728477478, -0.007114390376955271, 0.09436574578285217, 0.4455720782279968, 0.15220218896865845, 0.08411774039268494, -0.1972927749156952, -0.19192318618297577, 0.06187034398317337, 0.02603398635983467, 0.12324187159538269, -0.023946672677993774, 0.11958931386470795, 0.2950052320957184, 0.04077908396720886, -0.2887642979621887, -0.34976086020469666, -0.28266406059265137, 0.22738966345787048, -0.07720600068569183], [0.18578806519508362, -0.062062449753284454, 0.03972477465867996, -0.22809001803398132, 0.2241336703300476, 0.1488519310951233, -0.20977887511253357, 0.25729888677597046, -0.08267025649547577, -0.025350799784064293, 0.10356123745441437, -0.046431634575128555, 0.16226807236671448, -0.24541068077087402, -0.2772136628627777, -0.16175703704357147, 0.08471156656742096, -0.1561366617679596, -0.05524706467986107, -0.2104993462562561, -0.12556788325309753, -0.20043471455574036, 0.21458759903907776, -0.12723228335380554], [-0.2817521095275879, -0.07280666381120682, 0.1793893426656723, 0.308709055185318, 0.02790585532784462, -0.18503916263580322, -0.08112019300460815, -0.07131604850292206, -0.04985351487994194, 0.47426220774650574, -0.023481164127588272, 0.15066981315612793, -0.16779223084449768, 0.34375, -0.33831363916397095, 0.0176139697432518, -0.018001211807131767, -0.23316609859466553, -0.31735363602638245, -0.3676980435848236, 0.09745839238166809, 0.025113843381404877, 0.20641973614692688, 0.19791439175605774], [-0.36207103729248047, 0.2962702810764313, -0.17390966415405273, 0.363535076379776, 0.0473865270614624, -0.1385101079940796, -0.06429537385702133, -0.3479888439178467, 0.07236412167549133, 0.02646114118397236, 0.19045116007328033, -0.27355247735977173, -0.00730375200510025, -0.21838825941085815, 0.009430451318621635, -0.16741502285003662, 0.18487700819969177, 0.2928515374660492, 0.0008169921347871423, 0.20234465599060059, -0.06824572384357452, -0.10764862596988678, 0.010707985609769821, -0.01901332661509514], [-0.3462408781051636, 0.1958685964345932, -0.18942999839782715, 0.14435771107673645, 0.3523310422897339, 0.13021311163902283, -0.145224928855896, 0.06319506466388702, 0.13322433829307556, -0.4080839157104492, 0.006439104676246643, 0.4607990086078644, -0.16710948944091797, 0.22719477117061615, -0.03231004625558853, 0.016759317368268967, 0.13836342096328735, -0.29046380519866943, 0.25827357172966003, 0.09163939952850342, -0.18144789338111877, 0.028687285259366035, -0.22572408616542816, -0.02825125679373741], [0.13982120156288147, 0.044586241245269775, 0.26492610573768616, 0.4730035364627838, 0.09358067810535431, 0.22035998106002808, -0.2670711874961853, 0.2142728567123413, -0.09017010033130646, -0.20125442743301392, 0.19407349824905396, 0.12678760290145874, 0.012447301298379898, -0.08524663001298904, 0.354958713054657, 0.13360902667045593, 0.07363191246986389, -0.25003379583358765, -0.36609315872192383, -0.42472970485687256, 0.19712024927139282, 0.4352078437805176, -0.05994211509823799, -0.11281497031450272], [0.09604061394929886, 0.3057023584842682, -0.4443165063858032, 0.11755000054836273, -0.028426799923181534, 0.10986645519733429, -0.1527649164199829, 0.1590905785560608, -0.3568158745765686, 0.15381230413913727, -0.1084778681397438, -0.12568536400794983, -0.1814294308423996, 0.7143381237983704, -0.31339967250823975, 0.09369252622127533, 0.05012176185846329, -0.022394955158233643, -0.19533053040504456, 0.018006540834903717, 0.05389068275690079, 0.027085646986961365, -0.07497820258140564, -0.17070767283439636], [0.20809796452522278, -0.28171783685684204, -0.035757988691329956, 0.35980695486068726, -0.3619929552078247, 0.2816101014614105, 0.20176979899406433, -0.010045399889349937, -0.2977536916732788, 0.10982874780893326, -0.17192357778549194, -0.09081152081489563, 0.2064228355884552, -0.3090001940727234, 0.194270521402359, -0.22037608921527863, 0.011177068576216698, 0.40275970101356506, 0.07537851482629776, -0.12590020895004272, 0.19210946559906006, -0.11482416838407516, -0.1517723947763443, -0.021451683714985847], [0.2504373788833618, -0.07214269042015076, -0.29539889097213745, -0.09054876863956451, -0.02024262771010399, -0.23480522632598877, 0.028238501399755478, -0.3119664490222931, -0.4442301392555237, -0.04809584841132164, 0.23371201753616333, 0.1669275164604187, 0.08154680579900742, -0.034980855882167816, -0.13643574714660645, -0.027601879090070724, -0.19114287197589874, 0.27368974685668945, 0.059671320021152496, 0.18738853931427002, 0.06123435124754906, 0.05706994980573654, -0.14860403537750244, -0.12421407550573349], [-0.09990914165973663, -0.1360011100769043, -0.07178223133087158, 0.32027387619018555, 0.09050706028938293, 0.022559145465493202, -0.06992510706186295, -0.029958277940750122, -0.11118187010288239, 0.09377603232860565, 0.14645028114318848, -0.45306313037872314, -0.03336161747574806, -0.2916862368583679, -0.10496778786182404, -0.1966354101896286, 0.09282531589269638, -0.1843847781419754, 0.08192353695631027, 0.23394307494163513, -0.2592918276786804, -0.126509428024292, 0.315515398979187, 0.027397654950618744], [0.04830897971987724, -0.25942984223365784, -0.19800588488578796, 0.22419443726539612, 0.11015865206718445, 0.10204967111349106, 0.18567806482315063, 0.10219590365886688, -0.1088646799325943, 0.13103017210960388, 0.23122361302375793, 0.1107662245631218, -0.05747756361961365, 0.1988733857870102, -0.21401900053024292, 0.2050662338733673, -0.09628651291131973, -0.1842038482427597, -0.011439265683293343, 0.14351333677768707, -0.1512349247932434, 0.2188364416360855, 0.272128164768219, 0.09794333577156067], [0.13872304558753967, 0.26370394229888916, 0.3651653528213501, 0.041617006063461304, 0.44911685585975647, -0.6958444118499756, -0.15370190143585205, -0.2733190059661865, -0.15349054336547852, 0.1323852241039276, -0.21175062656402588, 0.5730016231536865, -0.2919045090675354, 0.47280776500701904, 0.07396651059389114, -0.17776498198509216, -0.2153020203113556, 0.15284496545791626, 0.13504743576049805, 0.055810317397117615, 0.2898012697696686, -0.02009846642613411, 0.4070364832878113, 0.05844530463218689], [-0.4188479781150818, -0.15273475646972656, 0.01620180904865265, -0.2380615472793579, 0.22366344928741455, -0.10378815978765488, -0.40824028849601746, -0.09028966724872589, -0.04389552026987076, 0.01878396049141884, -0.0714426264166832, 0.11207674443721771, 0.2245662957429886, 0.03760504722595215, 0.04073818027973175, -0.13873860239982605, 0.08549580723047256, -0.13180029392242432, -0.05709636211395264, 0.19909334182739258, 0.03212086856365204, -0.018339917063713074, -0.22656717896461487, 0.14073994755744934], [-0.10386206209659576, -0.17746606469154358, 0.07666520029306412, -0.1017417162656784, -0.09991646558046341, -0.02678716741502285, 0.10537728667259216, 0.011975036934018135, -0.21056047081947327, 0.11567875742912292, -0.07962077856063843, 0.44689232110977173, 0.23662930727005005, -0.08638544380664825, 0.17359775304794312, -0.27008700370788574, -0.1571565568447113, -0.1441831737756729, 0.3252527117729187, -0.29983481764793396, 0.3100742697715759, 0.2989464998245239, -0.0017388284904882312, 0.20477965474128723], [0.05912742763757706, 0.2211795449256897, -0.04638909548521042, 0.13781851530075073, 0.339791864156723, -0.06910985708236694, -0.09706784784793854, 0.08285243809223175, -0.16911433637142181, -0.0833650454878807, 0.025188079103827477, 0.413266658782959, -0.17234498262405396, -0.004947192035615444, 0.12527655065059662, -0.28952556848526, 0.035845205187797546, 0.07572542130947113, -0.2723224461078644, -0.2396489381790161, 0.33949705958366394, -0.13039834797382355, -0.1376509666442871, -0.11843171715736389], [0.26003992557525635, -0.38246339559555054, -0.40197521448135376, 0.03789661079645157, -0.4289839267730713, 0.31455427408218384, 0.19165433943271637, 0.26670265197753906, 0.04209946468472481, 0.36663809418678284, -0.21056793630123138, -0.7958815097808838, -0.03693792223930359, 0.19498568773269653, -0.4739530682563782, 0.395735502243042, -0.3377966284751892, -0.6836092472076416, -0.24892443418502808, 0.2286202609539032, -0.12642502784729004, -0.23247376084327698, -0.15098810195922852, 0.045017026364803314], [-0.2146199643611908, -0.1181756928563118, -0.053471583873033524, 0.08424036204814911, 0.015085270628333092, 0.1904790997505188, -0.27845028042793274, 0.0240644384175539, 0.19235935807228088, -0.06323879957199097, -0.00511926831677556, -0.19840624928474426, -0.07401329278945923, -0.4004840552806854, 0.2379554659128189, 0.30968424677848816, 0.02030232921242714, -0.46336960792541504, 0.33956006169319153, -0.09574976563453674, 0.07877439260482788, 0.14951759576797485, -0.11900919675827026, 0.4334404468536377], [0.12278224527835846, 0.0007884660735726357, 0.3077346682548523, 0.189677894115448, 0.2608073353767395, -0.45601439476013184, -0.17537090182304382, 0.09823861718177795, -0.06054156273603439, 0.3146592378616333, 0.16543328762054443, 0.15760564804077148, 0.10241761058568954, -0.1252710223197937, 0.22439810633659363, -0.16863545775413513, -0.10659145563840866, -0.17972609400749207, -0.23365524411201477, -0.2942894697189331, -0.40307217836380005, 0.22571046650409698, 0.16668863594532013, 0.10530776530504227], [-0.3070020079612732, 0.3944898247718811, -0.2185947597026825, -0.13303500413894653, -0.16078177094459534, -0.07215802371501923, 0.08153140544891357, -0.1631777286529541, 0.14691424369812012, 0.3942188024520874, -0.1296294927597046, 0.08132653683423996, 0.3521726727485657, -0.02730615995824337, -0.07548107206821442, -0.043347977101802826, -0.1075056940317154, 0.08332164585590363, -0.027281321585178375, -0.007022100035101175, 0.19384008646011353, 0.099750816822052, -0.0653676986694336, -0.036038488149642944], [-0.0649614930152893, -0.028162293136119843, 0.36211174726486206, 0.6858869791030884, 0.511093258857727, -0.6930826902389526, 0.049844324588775635, 0.1553490161895752, -0.1792624294757843, 0.12340205907821655, 0.28022968769073486, -0.0766652300953865, -0.14866261184215546, 0.296004056930542, 0.16380952298641205, -0.7245547771453857, -0.4137241542339325, 0.15649640560150146, -0.2252778708934784, 0.23442265391349792, 0.15121468901634216, -0.39388322830200195, -0.3918166756629944, 0.2605236768722534], [0.35054734349250793, -0.2965295910835266, -0.0026370049454271793, 0.20309357345104218, -0.051680341362953186, 0.0001643786672502756, 0.055398207157850266, 0.07885009795427322, -0.19610871374607086, 0.10154415667057037, 0.004251106642186642, -0.12540143728256226, 0.24104368686676025, -0.3384443521499634, 0.23901516199111938, 0.019326746463775635, 0.09373032301664352, -0.11756576597690582, 0.3341395854949951, 0.30783888697624207, 0.10850805044174194, -0.15943697094917297, 0.1958421766757965, 