{"params": {"Dense_0": {"0+": {"bias": [-0.01945124939084053, 0.007864370010793209, 0.00989828072488308, -0.001524987630546093, 0.006256970576941967, 0.017789684236049652, -0.002745570382103324, -0.004705352708697319, -0.017685996368527412, 0.026311885565519333, 0.04675447195768356, 0.061824142932891846, 0.005975144915282726, -0.05005151778459549, 0.01605827733874321, -0.009612858295440674, 0.056194454431533813, -0.015027022920548916, -0.0029168343171477318, 0.003489243797957897, 0.017629094421863556, 0.030086256563663483, -0.001366353128105402, -0.006364121567457914, -0.009855489246547222, 0.009017512202262878, -0.000281206623185426, -0.005658737383782864, -0.03308659419417381, -0.011395975947380066, -0.01567559689283371, -0.01888582669198513], "kernel": [[0.005390927195549011, 0.1744648814201355, -0.06896661221981049, 0.13987986743450165, 0.12818075716495514, 0.03806307539343834, -0.12981939315795898, 0.20027920603752136, 0.06505705416202545, -0.1130455881357193, 0.018113914877176285, 0.24751603603363037, -0.3639695644378662, -0.4404821991920471, 0.05538887158036232, -0.19608917832374573, 0.07755908370018005, 0.16470029950141907, -0.1260870099067688, 0.2710510492324829, 0.1869415044784546, 0.14346787333488464, -0.1246199831366539, 0.054341040551662445, 0.2666316628456116, 0.1208142638206482, 0.24674946069717407, -0.057936057448387146, -0.21349143981933594, -0.24585825204849243, 0.10202296823263168, 0.18966463208198547], [0.06070101261138916, -0.10154770314693451, -0.22695380449295044, -0.3342422842979431, 0.19038474559783936, 0.05275407433509827, -0.19724690914154053, -0.07758846879005432, 0.15913864970207214, 0.056680381298065186, 0.08167990297079086, -0.09824095666408539, -0.056827109307050705, 0.09730583429336548, 0.2088189721107483, 0.0028109210543334484, 0.19984817504882812, -0.3391449749469757, -0.17613035440444946, -0.0662253201007843, 0.12116216123104095, 0.025768572464585304, 0.3725498914718628, -0.3024417757987976, -0.10893531143665314, -0.17709359526634216, -0.30682650208473206, -0.19589507579803467, -0.34494301676750183, -0.04880811646580696, 0.14350005984306335, 0.17144063115119934], [0.23104766011238098, -0.08974643051624298, -0.18438564240932465, -0.2687678337097168, -0.10463845729827881, -0.25018590688705444, -0.007741008885204792, 0.21858233213424683, 0.005410167388617992, -0.18116697669029236, -0.07941050827503204, -0.25214114785194397, -0.004950478672981262, 0.2605503797531128, -0.02024059183895588, -0.015958892181515694, -0.11915942281484604, -0.05868154764175415, 0.2138642966747284, 0.2569035589694977, 0.07422125339508057, 0.13767632842063904, -0.35509422421455383, 0.09287241101264954, 0.2935405373573303, -0.21610793471336365, 0.15127156674861908, 0.04714391753077507, 0.24085012078285217, 0.1441446840763092, 0.08152232319116592, 0.03834487497806549], [0.15009665489196777, 0.07793383300304413, -0.1856977939605713, 0.00990261510014534, 0.05262827128171921, -0.000602786778472364, -0.06593691557645798, 0.0006124096689745784, 0.08665845543146133, -0.14847585558891296, -0.017994554713368416, 0.07776668667793274, 0.07716086506843567, 0.19126173853874207, -0.10233326256275177, 0.008746078237891197, -0.1606910526752472, -0.2508239448070526, -0.004113439470529556, -0.0981522649526596, 0.35336166620254517, 0.04106543958187103, -0.22876080870628357, -0.1576186567544937, 0.21761353313922882, -0.10222436487674713, 0.3832724988460541, -0.16110873222351074, 0.08346667885780334, -0.09367469698190689, -0.011606698855757713, -0.2656276226043701], [-0.2767292559146881, -0.02787003293633461, 0.2620336413383484, -0.10131502151489258, 0.07363717257976532, 0.09120656549930573, -0.06339295208454132, -0.16351252794265747, 0.1539231240749359, 0.0010531321167945862, 0.14331567287445068, -0.029120946303009987, 0.1568525731563568, -0.10731635987758636, 0.15488632023334503, -0.06210140883922577, 0.25102758407592773, 0.1932152807712555, 0.03313232585787773, 0.1847548484802246, 0.020276281982660294, -0.21950885653495789, -0.047051943838596344, -0.0844770222902298, -0.04897881671786308, -0.1995282769203186, 0.01364918053150177, 0.05220603197813034, 0.02576441690325737, 0.24558019638061523, -0.08399863541126251, 0.09973575919866562], [-0.02007715031504631, 0.08743911981582642, 0.11943385004997253, -0.06337854266166687, 0.10595226287841797, 0.06192765384912491, -0.20151054859161377, 0.19478638470172882, -0.05371733009815216, -0.23891708254814148, -0.05320706218481064, 0.140451580286026, 0.17821767926216125, 0.33072954416275024, 0.08991222083568573, 0.10897558927536011, -0.13731935620307922, 0.07412448525428772, 0.14755573868751526, 0.024216070771217346, -0.12660500407218933, -0.226536363363266, -0.1373080611228943, -0.10075133293867111, 0.11054472625255585, 0.037157848477363586, 0.12988325953483582, -0.1876092255115509, 0.06328807771205902, -0.04865401238203049, -0.305325448513031, -0.03483204543590546], [-0.1939014196395874, -0.21129117906093597, 0.08412428200244904, -0.06363341212272644, -0.015784209594130516, 0.08132148534059525, 0.09324762225151062, -0.030550193041563034, -0.021229952573776245, -0.39860767126083374, -0.06918755918741226, -0.014812977984547615, -0.018242638558149338, -0.19215402007102966, 0.06460551917552948, 0.2351803481578827, 0.14015278220176697, -0.061600588262081146, -0.04401934891939163, -0.03677012026309967, -0.18653666973114014, 0.23636864125728607, 0.1712466925382614, 0.2362314760684967, -0.3900824785232544, 0.1815258264541626, 0.11526010185480118, -0.349734365940094, 0.22100307047367096, -0.25583019852638245, 0.334875226020813, 0.1419660598039627], [-0.19976070523262024, 0.05812668800354004, -0.3934509754180908, -0.09480087459087372, -0.019133690744638443, 0.07704851031303406, -0.27502214908599854, -0.1555364727973938, -0.14682091772556305, 0.3283126950263977, 0.1498367190361023, 0.28807035088539124, -0.0968414694070816, 0.024631883949041367, -0.17728382349014282, -0.13127684593200684, -0.185845747590065, 0.18813171982765198, -0.030697964131832123, -0.058090656995773315, -0.16755056381225586, -0.018062617629766464, -0.1198359876871109, 0.285708487033844, 0.286437451839447, -0.2672826051712036, -0.17345300316810608, 0.07604612410068512, 0.0335346981883049, -0.009064627811312675, 0.2828746438026428, -0.20503485202789307], [-0.08985807001590729, 0.04755290970206261, -0.3505658507347107, 0.10683611780405045, -0.08079300820827484, -0.35290271043777466, 0.04043131321668625, -0.008066968061029911, 0.01576963998377323, -0.28030523657798767, -0.001595822162926197, -0.3089965879917145, 0.1196800172328949, 0.15005600452423096, 0.2156909704208374, -0.06629244983196259, -0.23037579655647278, 0.011668175458908081, -0.056673623621463776, 0.18144553899765015, -0.06261470913887024, -0.30250096321105957, 0.0025969576090574265, 0.25159168243408203, 0.033525630831718445, -0.0801023542881012, 0.07293334603309631, -0.18573322892189026, 0.38060620427131653, -0.017203059047460556, 0.11043934524059296, -0.1981537938117981], [0.21097278594970703, 0.08626686036586761, 0.24871347844600677, 0.11787819862365723, 0.1115533709526062, 0.1318863332271576, -0.1052618995308876, 0.10724030435085297, -0.04758697748184204, -0.021591588854789734, -0.3132886588573456, -0.02812863141298294, -0.22123828530311584, -0.13058975338935852, -0.08209383487701416, -0.22375062108039856, -0.4049566686153412, -0.031024403870105743, -0.007855569943785667, 0.13936768472194672, -0.08880976587533951, -0.10041941702365875, -0.016456373035907745, -0.003580259159207344, -0.05249148607254028, -0.22206468880176544, 0.1622684746980667, -0.05593547970056534, -0.15107429027557373, 0.2363871932029724, -0.09221874177455902, -0.06817729771137238], [0.07467889040708542, -0.12048590928316116, -0.05115406960248947, 0.029949763789772987, -0.17752167582511902, -0.11322376132011414, 0.07674276828765869, -0.03696463629603386, 0.029190227389335632, 0.0823725238442421, 0.045787468552589417, 0.26908260583877563, 0.10219494998455048, 0.2534852623939514, 0.1647162139415741, 0.28154510259628296, -0.06534744799137115, -0.04336880147457123, -0.04526703804731369, -0.019943784922361374, -0.08661222457885742, 0.06836384534835815, -0.05644196271896362, 0.10071861743927002, 0.09073381125926971, 0.18708127737045288, -0.07206442952156067, -0.0009509704541414976, 0.05078801512718201, 0.1739940494298935, 0.1538272351026535, 0.2912367284297943], [0.1781100332736969, 0.02022739127278328, 0.20726026594638824, 0.247294083237648, -0.30284780263900757, 0.20235979557037354, 0.2688131630420685, -0.13969574868679047, 0.20395034551620483, 0.0006427535554394126, -0.11580022424459457, -0.3313012421131134, -0.17221063375473022, 0.46012887358665466, 0.1739012748003006, 0.05677400901913643, -0.13405194878578186, 0.03313778340816498, -0.01604078710079193, 0.2903744578361511, 0.1618695855140686, 0.08374647051095963, -0.06794583797454834, 0.0015911590307950974, -0.004210065118968487, 0.24092598259449005, -0.3021166920661926, 0.1838255226612091, 0.24166807532310486, 0.056122418493032455, -0.013773107901215553, 0.07031041383743286], [0.14151297509670258, -0.09752586483955383, -0.1888754963874817, -0.02281925268471241, 0.27099889516830444, -0.16487258672714233, 0.02915894240140915, -0.005602766759693623, 0.15747874975204468, -0.15276697278022766, -0.006335144862532616, -0.08826559782028198, -0.1355491280555725, -0.20208874344825745, -0.05800214409828186, -0.07942792773246765, -0.2203197479248047, 0.31784093379974365, -0.11093690991401672, 0.15069445967674255, -0.10818162560462952, 0.0021330229938030243, 0.07993173599243164, 0.028240421786904335, 0.20398199558258057, -0.22045978903770447, -0.00783370528370142, 0.17483854293823242, -0.11555089056491852, 0.036709390580654144, 0.11498396098613739, -0.04341680929064751], [0.09567864239215851, -0.08781863749027252, -0.1622226983308792, -0.2181711345911026, -0.3869195580482483, -0.11193467676639557, -0.004476399160921574, -0.08309341222047806, -0.2407788187265396, -0.027676887810230255, 0.12063953280448914, 0.2372439205646515, -0.06843314319849014, -0.19390751421451569, -0.18497134745121002, 0.23714444041252136, -0.2815132439136505, 0.23973283171653748, 0.024751152843236923, -0.3041829466819763, 0.0896000936627388, -0.22023212909698486, -0.11214730143547058, -0.07821372151374817, 0.0804203525185585, 0.2848638892173767, 0.04120852053165436, 0.021546587347984314, 0.08207372575998306, 0.15148544311523438, -0.3147525191307068, -0.172684907913208], [-0.027830079197883606, -0.2618294358253479, 0.11709197610616684, -0.03127531707286835, -0.15375792980194092, -0.0668427050113678, -0.18412305414676666, -0.21818453073501587, -0.17397156357765198, 0.3490453362464905, 0.12113437801599503, -0.22270458936691284, -0.13086062669754028, 0.30427461862564087, -0.19214770197868347, -0.3218235969543457, 0.1563117802143097, 0.06846791505813599, 0.17101262509822845, 0.06672699749469757, 0.10247604548931122, 0.10977150499820709, -0.015087917447090149, -0.025141365826129913, 0.013156641274690628, 0.21729105710983276, 0.20858731865882874, 0.174788698554039, -0.3279518485069275, -0.1125408262014389, -0.27449262142181396, -0.13781718909740448], [0.13699579238891602, 0.17772361636161804, 0.23851081728935242, 0.008325083181262016, 0.19418299198150635, -0.2690412998199463, 0.15018215775489807, 0.09547452628612518, -0.1557522714138031, -0.08250030875205994, -0.11968032270669937, 0.35485249757766724, 0.04163442924618721, -0.015417114831507206, 0.21973660588264465, 0.10669974237680435, -0.22219491004943848, -0.0229329876601696, 0.3112368583679199, -0.19989702105522156, -0.07595747709274292, -0.029545612633228302, 0.23588350415229797, 0.06695276498794556, 0.12819665670394897, 0.24403874576091766, 0.06398069858551025, 0.2006845474243164, 0.11942507326602936, 0.0804143026471138, -0.058147840201854706, -0.10113787651062012], [0.1641162931919098, -0.01665286347270012, 0.11923755705356598, 0.04629646986722946, 0.21006707847118378, -0.05391501262784004, 0.006189302541315556, 0.022659532725811005, 0.28335097432136536, -0.16708821058273315, -0.0713224858045578, 0.06326208263635635, 0.062430523335933685, -0.3368094563484192, -0.07914873957633972, -0.15643680095672607, 0.1096898764371872, -0.14057932794094086, -0.0012172148562967777, 0.27241796255111694, -0.3191779851913452, 0.07505612075328827, 0.10441842675209045, -0.2843318283557892, -0.32738006114959717, 0.008321363478899002, 0.0867076963186264, 0.023473551496863365, 0.08859269320964813, -0.03135184198617935, 0.03834843263030052, 0.03646452724933624], [-0.34008365869522095, -0.21983474493026733, 0.023192714899778366, 0.019534535706043243, 0.29829737544059753, 0.3331696391105652, 0.13533097505569458, -0.2183414250612259, -0.2813355326652527, -0.0798635333776474, 0.1123034656047821, 0.02157980389893055, -0.10068798065185547, -0.1466638147830963, -0.13155701756477356, -0.2524026036262512, -0.04989407956600189, 0.18360662460327148, 0.001416446641087532, -0.1398129165172577, -0.02913617342710495, 0.07443559169769287, -0.04403696954250336, 0.16737398505210876, -0.035949863493442535, -0.011426379904150963, -0.07062970101833344, 0.028891663998365402, 0.0602656751871109, 0.17695879936218262, -0.057525329291820526, -0.07137175649404526], [-0.26306653022766113, -0.056317564100027084, -0.27845004200935364, 0.18728233873844147, -0.18235333263874054, 0.26187029480934143, -0.18074995279312134, -0.272493839263916, -0.05374526232481003, -0.18983933329582214, 0.14589571952819824, 0.05778149515390396, -0.019238295033574104, -0.16683238744735718, 0.14938822388648987, 0.32137149572372437, -0.20311447978019714, -0.26154372096061707, -0.09288982301950455, -0.11144353449344635, -0.33084771037101746, -0.13324064016342163, 0.3489561676979065, -0.25348126888275146, -0.16405987739562988, 0.014961747452616692, -0.23802807927131653, -0.2013692557811737, -0.2714771628379822, -0.10134805738925934, -0.2510606050491333, 0.11272157728672028], [-0.14921437203884125, -0.26998162269592285, 0.12003454566001892, 0.15797975659370422, 0.02352369949221611, -0.18053936958312988, 0.025931552052497864, 0.0911480039358139, -0.09980224072933197, 0.29182136058807373, -0.08133508265018463, 0.21872541308403015, -0.24712900817394257, -0.2925727367401123, -0.03025161474943161, -0.1078440248966217, 0.1998850405216217, 0.17855358123779297, -0.2853934168815613, -0.10428135097026825, -0.029033241793513298, -0.01099315658211708, -0.1551678478717804, -0.04472528398036957, 0.020043034106492996, -0.32064735889434814, -0.18712273240089417, 0.16564548015594482, -0.21523883938789368, -0.12370841205120087, 0.03891942650079727, 0.13538087904453278], [0.06109005957841873, 0.009062599390745163, -0.08491593599319458, 0.0031868622172623873, 0.17077308893203735, 0.10732598602771759, -0.11216332763433456, 0.08477440476417542, -0.1770651489496231, 0.06409035623073578, 0.10504283756017685, 0.10600069165229797, -0.2792552411556244, -0.043273888528347015, -0.21963506937026978, -0.2819165885448456, -0.12428198754787445, 0.1785382628440857, 0.024976268410682678, 0.0860094279050827, -0.21617361903190613, -0.015319153666496277, -0.31498581171035767, 0.06777172535657883, -0.16565170884132385, -0.1641075164079666, -0.10138186812400818, -0.09266243875026703, -0.1341528594493866, 0.23355868458747864, 0.26292896270751953, 0.20100688934326172], [0.03087664395570755, 0.004135742783546448, -0.12579067051410675, -0.029601965099573135, 0.062336113303899765, -0.26347166299819946, 0.345147967338562, -0.24258379638195038, -0.07792991399765015, 0.1491621732711792, -0.16338476538658142, 0.04598800092935562, -0.39950716495513916, -0.27168768644332886, -0.14856663346290588, 0.3297051787376404, -0.11210218071937561, 0.009417926892638206, 0.13495700061321259, -0.16390040516853333, -0.19150401651859283, -0.30733823776245117, -0.08079342544078827, 0.19177550077438354, -0.24726170301437378, 0.1541317105293274, 0.29938316345214844, -0.14846329391002655, -0.26008445024490356, -0.0687638595700264, 0.3046428859233856, -0.18817320466041565], [-0.08103492856025696, 0.07863470911979675, -0.19298911094665527, -0.06027092784643173, -0.16908296942710876, 0.29248207807540894, -0.18963979184627533, -0.17542386054992676, 0.0052114385180175304, 0.08464188873767853, 0.1460590660572052, 0.0789794921875, 0.3480537533760071, -0.21059218049049377, 0.2328801155090332, 0.2840679883956909, -0.0744076669216156, -0.1660689413547516, 0.20174358785152435, 0.002878250554203987, 0.22184237837791443, 0.038789987564086914, 0.008881507441401482, -0.13306641578674316, 0.11997818946838379, -0.25001442432403564, -0.008340584114193916, 0.354653000831604, 0.022130165249109268, -0.02366158366203308, 0.2694123685359955, 0.1439896821975708], [-0.234043151140213, 0.2932847738265991, -0.051454756408929825, -0.26751044392585754, -0.07256481051445007, -0.08016665279865265, -0.02994477190077305, 0.29865068197250366, 0.022120298817753792, 0.1806870400905609, 0.42069244384765625, 0.24426034092903137, -0.16239461302757263, 0.20579905807971954, 0.03204934298992157, -0.15929827094078064, 0.051686376333236694, -0.12552912533283234, -0.07982395589351654, -0.17122209072113037, 0.3080354928970337, 0.05252775549888611, 0.2700173854827881, -0.12250526249408722, 0.20495939254760742, -0.07778438925743103, 0.01461506262421608, 0.006576451472938061, -0.03387519717216492, 0.38496842980384827, -0.1504155993461609, 0.25701791048049927], [0.28110986948013306, 0.24509021639823914, -0.18311333656311035, -0.13060450553894043, 0.3154446482658386, 0.23848819732666016, 0.12128797173500061, -0.16395045816898346, -0.2656933069229126, -0.0827699601650238, 0.018075158819556236, -0.025190632790327072, 0.34131407737731934, -0.08639222383499146, -0.026903659105300903, -0.21597307920455933, 0.25236374139785767, -0.15927597880363464, -0.07293768972158432, 0.20863619446754456, -0.022844962775707245, 0.13193508982658386, -0.192268967628479, 0.2822687029838562, 0.3117397427558899, -0.1681857854127884, 0.016927994787693024, -0.25822576880455017, -0.035642869770526886, -0.11064450442790985, -0.052554547786712646, -0.10904695093631744], [-0.1854962706565857, -0.27615949511528015, 0.23012389242649078, -0.11909730732440948, -0.050265368074178696, 0.11735657602548599, -0.2683226466178894, -0.3186105489730835, 0.31913554668426514, -0.2149256467819214, -0.039303600788116455, -0.37048250436782837, -0.34685736894607544, 0.2264484465122223, -0.08105538785457611, -0.09554927051067352, 0.04995081573724747, -0.02759470045566559, -0.1332928091287613, -0.14564228057861328, -0.2903424799442291, -0.3678446412086487, -0.16100263595581055, -0.36829903721809387, 0.10506409406661987, -0.060014352202415466, -0.16090074181556702, -0.11961399018764496, 0.23270106315612793, 0.1046479120850563, 0.18668729066848755, -0.07614792883396149], [-0.15548166632652283, -0.03189856559038162, -0.0064354753121733665, 0.2626473307609558, 0.34662485122680664, -0.16451677680015564, -0.036911480128765106, -0.25656723976135254, -0.11466572433710098, -0.11022642999887466, -0.14185714721679688, -0.28890520334243774, 0.09381034970283508, 0.06158988177776337, -0.10256832838058472, -0.02107251062989235, 0.18044638633728027, -0.05627076327800751, 0.14003029465675354, -0.00496907252818346, -0.1603250652551651, -0.01746772974729538, 0.12537506222724915, -0.06707757711410522, 0.03803083673119545, -0.1477433443069458, 0.3573010265827179, 0.11204428225755692, -0.20008030533790588, 0.020582163706421852, 0.31692153215408325, -0.04763796180486679], [0.1694125533103943, -0.07005172967910767, 0.22992466390132904, -0.21333423256874084, 0.02759648486971855, 0.05773875117301941, -0.21514660120010376, -0.035182803869247437, 0.03306097909808159, -0.2152746021747589, -0.15687012672424316, -0.08799505978822708, 0.0795673280954361, -0.16019046306610107, -0.003321708645671606, 0.12982818484306335, 0.15524032711982727, -0.005921678617596626, 0.18510034680366516, 0.063865065574646, 0.026189200580120087, 0.08914978802204132, 0.05415114387869835, 0.25639820098876953, 0.026777267456054688, -0.04525844007730484, -0.1289418339729309, -0.04223112761974335, 0.19928321242332458, -0.18785342574119568, -0.2065182328224182, 0.04560624063014984], [0.1653173863887787, -0.07390441000461578, -0.10604981333017349, 0.015567375347018242, 0.07556753605604172, -0.21494555473327637, -0.19482576847076416, 0.30683213472366333, 0.10703997313976288, 0.21864792704582214, 0.11385463178157806, -0.12449947744607925, 0.18030256032943726, 0.11858350783586502, -0.04210732877254486, -0.22141161561012268, 0.1379583477973938, -0.22143104672431946, -0.28834646940231323, 0.23417693376541138, 0.07329241931438446, -0.03896363824605942, 0.18971173465251923, -0.06877367943525314, 0.3391115665435791, 0.2390100061893463, -0.00768678542226553, -0.23738056421279907, 0.07594716548919678, -0.10111096501350403, -0.2985214591026306, 0.24047447741031647], [-0.1451183557510376, 0.19951435923576355, 0.1405598372220993, -0.17610085010528564, -0.14222097396850586, 0.3000193238258362, 0.006680508144199848, -0.10109911113977432, 0.3861171007156372, -0.1739075481891632, -0.019622722640633583, 0.10659991949796677, 0.1529250144958496, 0.20192557573318481, 0.16116398572921753, 0.04295925796031952, 0.16718241572380066, -0.007401732262223959, 0.10050706565380096, -0.11448568105697632, -0.15377414226531982, -0.16031719744205475, -0.027584940195083618, 0.2560466527938843, 0.06240297481417656, -0.24354621767997742, 0.39316046237945557, 0.07650919258594513, 0.11137819290161133, 0.03396590054035187, 0.0073165446519851685, -0.08390240371227264], [0.005327994003891945, 0.17689500749111176, 0.14016205072402954, 0.18872705101966858, 0.23686714470386505, 0.380145788192749, -0.269425630569458, -0.02076362818479538, 0.06410888582468033, 0.14129215478897095, 0.12948165833950043, 0.12294629961252213, 0.23709258437156677, 0.030012961477041245, 0.19599750638008118, -0.04652111232280731, -0.053226619958877563, -0.1269666850566864, -0.060916587710380554, -0.10646872222423553, -0.16088300943374634, -0.24244096875190735, -0.21341586112976074, -0.03382917493581772, -0.012433966621756554, 0.4104364514350891, 0.06818543374538422, -0.05567212030291557, -0.2768773138523102, 0.28382962942123413, 0.3571438789367676, 0.04453171044588089], [0.09320441633462906, -0.13390931487083435, -0.33888617157936096, 0.2839376628398895, -0.0432451106607914, -0.03925127536058426, 0.2576882839202881, 0.134484201669693, -0.0070260558277368546, 0.2516503930091858, 0.038108278065919876, 0.25869280099868774, 0.07886871695518494, 0.12674307823181152, 0.03945809602737427, 0.10443107783794403, 0.02508458122611046, 0.040599413216114044, -0.23971928656101227, 0.07638224959373474, 0.03420647978782654, 0.11832751333713531, 0.14005699753761292, -0.0849372148513794, -0.1660047471523285, 0.1742822229862213, 0.25512298941612244, -0.23385779559612274, -0.10126996040344238, -0.13184937834739685, -0.14910614490509033, -0.11763764917850494]]}, "1-": {"kernel": [[-0.2548498213291168, 0.13817858695983887, -0.059969816356897354, 0.023038487881422043, -0.19911645352840424, -0.004858541302382946, 0.021181220188736916, 0.06391459703445435, -0.13931512832641602, -0.03135904297232628, -0.2934257686138153, 0.05410955846309662, -0.020752592012286186, -0.26549598574638367, -0.12718558311462402, 0.005111749283969402, -0.23152422904968262, -0.08619991689920425, -0.06646352261304855, 0.3161643147468567, -0.1531940996646881, 0.1558714509010315, -0.16166341304779053, -0.35648977756500244, 0.21363192796707153, -0.03994203358888626, 0.05164395645260811, 0.39466533064842224, -0.07003722339868546, 0.14737343788146973, -0.06664076447486877, -0.18431755900382996], [0.08336548507213593, 0.11864997446537018, -0.19508779048919678, -0.11738204956054688, 0.18582865595817566, 0.20379644632339478, 0.07876309752464294, -0.3864896595478058, 0.07759232819080353, 0.14884942770004272, -0.15998274087905884, 0.21358376741409302, -0.2524367570877075, -0.2741667628288269, 0.2733898162841797, 0.0394415445625782, -0.18946781754493713, -0.05570756644010544, 0.32421785593032837, -0.10959863662719727, -0.01386250276118517, -0.21779432892799377, 0.005020641256123781, -0.18311187624931335, 0.3145289123058319, -0.018699372187256813, 0.014803294092416763, 0.04672595113515854, 0.03041817434132099, -0.016849210485816002, -0.03973103314638138, 0.16909317672252655], [0.14017987251281738, -0.03559105098247528, -0.2908515930175781, 0.02470199018716812, -0.005707557313144207, -0.30628296732902527, -0.030790211632847786, -0.29474586248397827, -0.0892627090215683, 0.05836338922381401, 0.20537720620632172, 0.03566079959273338, 0.29709571599960327, 0.306812047958374, -0.10697054862976074, -0.042678672820329666, 0.31141412258148193, -0.04990171641111374, 0.04229174181818962, -0.04563511908054352, 0.0977412760257721, -0.013061555102467537, -0.12916573882102966, 0.1277269423007965, 0.31862324476242065, -0.10029234737157822, -0.12962548434734344, 0.09040677547454834, 0.14130394160747528, 0.19002875685691833, -0.23455563187599182, -0.08418290317058563], [0.0628969743847847, 0.0414416566491127, -0.18085062503814697, -0.29633426666259766, -0.32259857654571533, -0.028026148676872253, -0.2469176948070526, -0.20815205574035645, 0.3972470164299011, 0.08065138757228851, 0.05024619400501251, -0.04401063919067383, 0.05583925545215607, -0.07600809633731842, 0.08243178576231003, 0.09790612757205963, -0.02950894832611084, -0.051094599068164825, -0.3342400789260864, 0.28926122188568115, 0.15449756383895874, -0.21174533665180206, -0.3251166343688965, -0.37449830770492554, 0.10652898252010345, -0.11496603488922119, -0.187957763671875, 0.17265509068965912, -0.16965153813362122, 0.22197028994560242, -0.1536235511302948, 0.03176160901784897], [0.27575114369392395, 0.05129040405154228, -0.1888553351163864, -0.015223785303533077, 0.011280285194516182, 0.346042275428772, 0.11920198798179626, -0.24737057089805603, -0.033610761165618896, 0.003237697761505842, -0.027063418179750443, 0.27963489294052124, -0.046616360545158386, 0.13623002171516418, -0.34692931175231934, 0.0937267392873764, -0.12579230964183807, -0.1831677258014679, 0.30104556679725647, 0.042934998869895935, -0.14217208325862885, 0.23976144194602966, 0.23238658905029297, -0.10502438247203827, -0.07285156846046448, -0.18139158189296722, 0.3240429162979126, -0.02567870542407036, 0.16610240936279297, 0.018985196948051453, -0.08929762244224548, 0.0012192295398563147], [0.25668835639953613, 0.038375794887542725, -0.18830737471580505, 0.31687045097351074, -0.024809639900922775, -0.056357644498348236, -0.02745233289897442, 0.10768286883831024, 0.16813963651657104, -0.019962212070822716, -0.0008943118737079203, -0.38709062337875366, 0.32733750343322754, 0.2816288471221924, -0.19666984677314758, -0.0524190291762352, 0.12210663408041, 0.014846138656139374, 0.07156842947006226, 0.22952505946159363, -0.12422925233840942, 0.04563845694065094, 0.16005931794643402, 0.042065419256687164, -0.005816821474581957, -0.08569835126399994, 0.062059711664915085, -0.18012064695358276, 0.04800897836685181, 0.07562662661075592, -0.341630756855011, -0.25833845138549805], [-0.25627368688583374, -0.05291622132062912, 0.2095329314470291, 0.24693089723587036, -0.30005839467048645, -0.31881844997406006, -0.013035902753472328, 0.056321147829294205, 0.21629996597766876, -0.3926449716091156, -0.15728269517421722, 0.14690904319286346, -0.04893173649907112, 0.31431540846824646, 0.02041953057050705, 0.3281427025794983, 0.21404939889907837, -0.36482515931129456, -0.10299397259950638, 0.06166619807481766, 0.09785910695791245, -0.03281484916806221, -0.05697229504585266, -0.16636280715465546, -0.32206034660339355, 0.09946700930595398, 0.14579254388809204, 0.32245391607284546, 0.14499148726463318, -0.09531302750110626, -0.311769038438797, 0.11593563854694366], [-0.015976475551724434, -0.1257796287536621, 0.12896177172660828, -0.10031525790691376, 0.21074987947940826, 0.09655220806598663, 0.1424454152584076, 0.010912137106060982, 0.08208636939525604, -0.06937749683856964, 0.0790356695652008, -0.13293154537677765, 0.05610235780477524, 0.12434710562229156, -0.1500098705291748, 0.15342912077903748, -0.22606003284454346, 0.3579244017601013, 0.24909254908561707, 0.1957307755947113, -0.01856822893023491, -0.12664012610912323, -0.08030003309249878, 0.15284478664398193, 0.014865037053823471, 0.37602031230926514, -0.09449957311153412, 0.02245892956852913, -0.02204572781920433, 0.15415853261947632, 0.04135444015264511, -0.0808728039264679], [-0.06655500829219818, 0.15326371788978577, -0.2512800395488739, 0.22918535768985748, 0.2769463062286377, 0.14554128050804138, 0.17912006378173828, 0.30911189317703247, -0.06718820333480835, -0.11587422341108322, 0.1652635931968689, 0.011365927755832672, 0.2494071125984192, -0.10625827312469482, 0.2863403558731079, -0.09332816302776337, -0.009079307317733765, 0.03479909151792526, 0.0712277889251709, -0.05495262145996094, -0.1672186553478241, -0.09548939764499664, -0.018891211599111557, 0.021140053868293762, 0.09380489587783813, -0.367953360080719, 0.034362904727458954, -0.00894988514482975, -0.20999160408973694, -0.007423603907227516, 0.13088834285736084, -0.026210501790046692], [-0.013923561200499535, -0.12871134281158447, -0.1830219179391861, 0.4656108021736145, 0.03334162384271622, 0.27398908138275146, 0.1458187699317932, 0.1902865171432495, -0.023751314729452133, -0.12500227987766266, -0.03608812019228935, -0.12832066416740417, -0.06124984100461006, -0.06734929978847504, -0.08900075405836105, 0.18630611896514893, -0.0699760913848877, 0.057211507111787796, 0.03184724226593971, 0.3321709632873535, 0.09507288038730621, 0.2089690864086151, -0.11252741515636444, -0.09541408717632294, 0.33221715688705444, 0.03478575497865677, -0.3849107027053833, 0.29077115654945374, -0.12422435730695724, 0.18110355734825134, -0.014124060049653053, 0.18607015907764435], [-0.17941634356975555, -0.1413789689540863, 0.013226350769400597, 0.010019224137067795, 0.15330450236797333, 0.12136335670948029, 0.30067944526672363, -0.2442914843559265, -0.15446016192436218, 0.044753190129995346, 0.004701361991465092, -0.13602735102176666, -0.2832333743572235, 0.09009572863578796, 0.12708336114883423, 0.09188251942396164, 0.32330769300460815, -0.0876506119966507, -0.24951288104057312, 0.09534816443920135, -0.00033712852746248245, -0.015599768608808517, 0.023824304342269897, -0.0934339314699173, 0.30785512924194336, -0.19818951189517975, -0.03813623636960983, -0.2656695246696472, -0.3255773186683655, -0.21199068427085876, 0.11795075237751007, 0.15177008509635925], [-0.009003082290291786, 0.05053358152508736, 0.3356904983520508, -0.2439393699169159, -0.010567107237875462, -0.21267953515052795, 0.1901143193244934, -0.21779420971870422, 0.048110201954841614, 0.009736089035868645, 0.19454558193683624, 0.10032889991998672, -0.06698660552501678, 0.07532049715518951, -0.09635235369205475, 0.10475508868694305, -0.185398668050766, -0.25118589401245117, 0.022513210773468018, 0.12132490426301956, -0.004707374610006809, 0.1597062051296234, -0.05953825265169144, 0.2566203474998474, 0.028669871389865875, 0.3910902738571167, 0.17931795120239258, -0.13991431891918182, 0.16958583891391754, -0.06466414779424667, 0.2024066150188446, 0.0007917589391581714], [0.24956488609313965, -0.12184415757656097, 0.02644892781972885, -0.07311850786209106, -0.03387884795665741, 0.13220205903053284, 0.0667184442281723, -0.0914001613855362, 0.06791428476572037, 0.03192371875047684, -0.1805122196674347, 0.217755526304245, -0.13749617338180542, -0.1010923832654953, -0.058269720524549484, 0.029373645782470703, -0.3414387106895447, 0.1531701683998108, -0.17500808835029602, 0.19398877024650574, -0.13473203778266907, 0.07035359740257263, -0.10867287218570709, 0.12275947630405426, 0.22323355078697205, 0.08999960124492645, -0.0012126835063099861, -0.10960313677787781, 0.06306207925081253, 0.20757639408111572, 0.07541276514530182, 0.0602276585996151], [0.14700308442115784, -0.22980114817619324, 0.04821151867508888, -0.054752521216869354, 0.03040061518549919, 0.4001499116420746, 0.31054985523223877, -0.008279368281364441, 0.3753241300582886, 0.10971394181251526, -0.28545016050338745, 0.07731828093528748, 0.08314891159534454, 0.022340990602970123, 0.18505433201789856, -0.09004832804203033, -0.20065876841545105, -0.36841505765914917, 0.18969061970710754, -0.06601755321025848, -0.05535224452614784, 0.21967115998268127, 0.04378826543688774, 0.19776096940040588, -0.21300022304058075, -0.018645726144313812, 0.02545197308063507, 0.10728441178798676, 0.22824421525001526, 0.07553526759147644, 0.021554896607995033, 0.1432962715625763], [-0.1579112708568573, 0.004933365620672703, -0.06328296661376953, 0.22591523826122284, 0.17651984095573425, 0.013624659739434719, -0.13132959604263306, -0.17147709429264069, -0.02369910106062889, -0.3165120482444763, 0.20298868417739868, -0.1836208701133728, -0.3310844302177429, 0.23875460028648376, 0.1845320463180542, -0.17438548803329468, -0.1952694207429886, -0.14647801220417023, -0.17918458580970764, -0.055709220468997955, -0.04506494477391243, 0.006788413040339947, -0.1603522002696991, 0.08690254390239716, -0.005666184239089489, -0.3325991630554199, -0.3496948778629303, -0.011475423350930214, -0.026356015354394913, -0.1725810170173645, -0.18914668262004852, 0.13127970695495605], [0.2400999367237091, -0.0945802628993988, 0.05011136457324028, 0.22122308611869812, 0.07245107740163803, 0.3178430199623108, -0.11327743530273438, 0.013958446681499481, -0.19743230938911438, -0.04449273273348808, 0.14142897725105286, -0.12236624211072922, 0.35687413811683655, 0.07205035537481308, -0.022659987211227417, 0.33841565251350403, -0.24736183881759644, -0.1638692170381546, 0.24832069873809814, -0.12606874108314514, -0.080384761095047, 0.18434128165245056, 0.06492637097835541, 0.015818849205970764, 0.13745984435081482, 0.014887567609548569, -0.21316313743591309, -0.054084427654743195, 0.03771683946251869, -0.1525309979915619, 0.04733821004629135, -0.07544026523828506], [0.12679770588874817, 0.28362131118774414, 0.3178675174713135, -0.06661902368068695, 0.1383776068687439, 0.3085046410560608, 0.21365240216255188, 0.20323197543621063, 0.039829809218645096, -0.26204097270965576, 0.06714971363544464, -0.10373875498771667, 0.026599271222949028, 0.0825100690126419, 0.24855124950408936, -0.37635910511016846, 0.2437153309583664, 0.14404621720314026, 0.04653490334749222, 0.015732165426015854, -0.1337449848651886, -0.023105645552277565, 0.1735086292028427, 0.007036883849650621, -0.30161118507385254, -0.164552703499794, -0.015515182167291641, 0.14184939861297607, -0.13408346474170685, 0.3134557008743286, -0.34079283475875854, 0.40463244915008545], [0.18015584349632263, -0.1140405610203743, -0.23133955895900726, -0.13579273223876953, -0.22405757009983063, -0.1697661131620407, -0.0892515778541565, 0.27259087562561035, -0.0642772912979126, -0.17041060328483582, 0.2763221859931946, 0.09095510840415955, -0.06504954397678375, -0.10071033984422684, -0.03988417983055115, -0.1854167878627777, 0.05353463068604469, -0.263822078704834, -0.21567538380622864, -0.2075193226337433, 0.14464610815048218, -0.26172029972076416, -0.2804598808288574, 0.1764543205499649, 0.20708099007606506, 0.127574622631073, -0.12246014177799225, 0.07757972180843353, 0.06565606594085693, -0.14806412160396576, -0.17991703748703003, -0.2607809007167816], [0.1027688980102539, 0.11415784060955048, 0.14190420508384705, 0.18044202029705048, -0.09529934078454971, -0.2658463716506958, 0.3053603172302246, -0.2343185842037201, 0.185777485370636, 0.3651704788208008, 0.03660160303115845, -0.2263573408126831, -0.20810198783874512, -0.13661320507526398, -0.17638081312179565, 0.054140232503414154, -0.053753942251205444, -0.1349741518497467, 0.037887461483478546, -0.08957850188016891, -0.1693328320980072, 0.22900283336639404, -0.33571550250053406, 0.2733348608016968, -0.04982980340719223, 0.23038414120674133, 0.18700896203517914, 0.11920629441738129, 0.04959626495838165, -0.17366862297058105, -0.2174081653356552, -0.018161285668611526], [0.09252506494522095, 0.14543554186820984, 0.17445695400238037, -0.15752971172332764, -0.062443073838949203, 0.16135017573833466, -0.15825685858726501, 0.1951085329055786, 0.12512482702732086, 0.0611456073820591, -0.15663954615592957, -0.18280917406082153, -0.09761172533035278, -0.2466694861650467, -0.051211293786764145, -0.11341226100921631, 0.0830782949924469, -0.0678810328245163, -0.08931824564933777, 0.18743102252483368, -0.03687410429120064, -0.16856366395950317, 0.15748554468154907, 0.18830488622188568, 0.08431358635425568, -0.2160394787788391, 0.024916918948292732, 0.18436299264431, -0.02542947232723236, 0.31259506940841675, -0.11176826059818268, -0.21674542129039764], [-0.18110978603363037, 0.09358036518096924, -0.30446410179138184, -0.05975291132926941, 0.1673208326101303, 0.1367320418357849, -0.06765557080507278, -0.1558484584093094, 0.13474473357200623, 0.16666612029075623, 0.08720950782299042, -0.3233546316623688, 0.13442185521125793, -0.24323973059654236, 0.17444995045661926, -0.3575814664363861, -0.028355717658996582, 0.08928001672029495, 0.1779332160949707, -0.18913528323173523, -0.06608135998249054, 0.21764132380485535, 0.028655052185058594, 0.12906429171562195, -0.10635073482990265, 0.06748513877391815, 0.31921762228012085, -0.1148233488202095, 0.09755575656890869, 0.07326912879943848, -0.19076886773109436, 0.26137232780456543], [0.1021108478307724, -0.1164688915014267, 0.2324136644601822, 0.351921021938324, 0.3434677720069885, -0.20722569525241852, -0.10187338292598724, 0.16967502236366272, 0.03848213702440262, 0.28901413083076477, 0.2744242548942566, -0.04920081049203873, -0.17491325736045837, 0.07610936462879181, -0.14677971601486206, -0.23609933257102966, -0.1265617311000824, -0.29865825176239014, 0.1751907616853714, 0.3340383768081665, 0.08339276909828186, 0.06732560694217682, 0.3491861820220947, 0.238643616437912, 0.18938657641410828, -0.1299077570438385, -0.059989579021930695, -0.2807389795780182, 0.09503817558288574, 0.10192221403121948, -0.006928333546966314, -0.05926501005887985], [-0.038774263113737106, -0.31841301918029785, -0.16299715638160706, 0.059862710535526276, 0.23246146738529205, -0.13038915395736694, -0.10989686101675034, 0.15183433890342712, -0.09830950200557709, -0.18948611617088318, -0.09018464386463165, -0.06534470617771149, 0.17934739589691162, -0.12367388606071472, 0.015431759878993034, 0.19226929545402527, 0.15182623267173767, -0.15233740210533142, 0.05598887801170349, -0.07764910161495209, 0.1426514834165573, -0.1346263885498047, 0.18554681539535522, 0.2558564245700836, -0.012419996783137321, 0.21564865112304688, 5.4400057706516236e-05, 0.13895145058631897, 0.20327255129814148, -0.07682609558105469, 0.2367696762084961, -0.06495232880115509], [0.04110809415578842, -0.1662599891424179, -0.06653410196304321, 0.0588713213801384, -0.09862096607685089, -0.05813797563314438, -0.1408109962940216, -0.04635021835565567, -0.13922011852264404, -0.06771357357501984, -0.24864926934242249, -0.1395835429430008, -0.1385684311389923, 0.2277367115020752, -0.34558477997779846, -0.04415212571620941, 0.226157546043396, -0.34268343448638916, 0.040308885276317596, -0.030015211552381516, -0.11853998899459839, -0.19021643698215485, 0.026387764140963554, 0.10730455815792084, -0.07502225041389465, 0.020658643916249275, -0.17109379172325134, -0.3406670093536377, 0.07456119358539581, 0.1566941738128662, 0.025273293256759644, -0.04914306849241257], [-0.26416465640068054, 0.24952402710914612, -0.06937303394079208, -0.3299109935760498, 0.16289308667182922, 0.025017760694026947, 0.03645790368318558, 0.2388853132724762, -0.30627477169036865, 0.2231905311346054, 0.14287208020687103, 0.25733909010887146, 0.3948383331298828, -0.06034131348133087, 0.09432156383991241, 0.11092457175254822, -0.07910455763339996, -0.3470488488674164, -0.059142403304576874, 0.22284317016601562, -0.024730011820793152, -0.2108370065689087, -0.008930173702538013, -0.09473919868469238, 0.136099174618721, -0.07510334253311157, 0.0056653632782399654, -0.022050833329558372, 0.11877687275409698, 0.1270880550146103, 0.20814935863018036, 0.07956822216510773], [0.09151791036128998, 0.16100066900253296, 0.05147591605782509, -0.044250644743442535, -0.16202020645141602, 0.04939932003617287, -0.0648844838142395, 0.10596545785665512, -0.02386031672358513, -0.1614762395620346, 0.29188045859336853, -0.06574937701225281, -0.13928523659706116, -0.08526763319969177, 0.10468144714832306, 0.1597990244626999, 0.07437020540237427, 0.05491919815540314, 0.07275491952896118, -0.128644660115242, 0.2136874794960022, 0.09400194883346558, 0.026210706681013107, 0.25807785987854004, 0.2823527753353119, 0.0371076874434948, 0.09808168560266495, 0.4019296169281006, -0.2149483561515808, 0.07940112054347992, -0.3567827343940735, 0.3443167805671692], [0.24947550892829895, -0.31828200817108154, 0.06657451391220093, 0.039713598787784576, -0.16105224192142487, -0.1861020028591156, -0.010337453335523605, -0.02263093739748001, 0.1413876861333847, -0.33760684728622437, -0.21735545992851257, -0.28806740045547485, -0.0714229941368103, -0.09756574034690857, 0.1809585690498352, 0.059669286012649536, 0.2535260319709778, 0.10934296250343323, -0.06363660097122192, -0.20264920592308044, 0.1315482258796692, 0.3660634160041809, 0.2315741777420044, -0.04073084890842438, 0.18273979425430298, -0.23784306645393372, -0.20080989599227905, 0.04906095564365387, -0.2871595621109009, -0.2751266062259674, 0.31704553961753845, -0.2647519111633301], [-0.09998971223831177, -0.32786038517951965, 0.23459836840629578, 0.09078067541122437, 0.1518915295600891, -0.017236802726984024, 0.16636617481708527, -0.2220710813999176, -0.05872500687837601, 0.43642616271972656, 0.20129713416099548, -0.05677483230829239, 0.1727985143661499, 0.02940141223371029, 0.08348314464092255, -0.03821076452732086, -0.0075901770032942295, 0.09472636878490448, -0.21433734893798828, -0.1805109977722168, -0.1564553678035736, -0.11086607724428177, -0.037963975220918655, 0.035733819007873535, 0.23745056986808777, -0.03400431200861931, -0.08777742087841034, 0.05993753299117088, -0.04128442704677582, 0.22275295853614807, -0.12310421466827393, -0.015272459015250206], [-0.02852076292037964, 0.09930472075939178, 0.047397539019584656, -0.1336594671010971, -0.025154100731015205, -0.06178617104887962, 0.027201829478144646, 0.355080246925354, -0.04216504842042923, 0.07798610627651215, 0.291982501745224, -0.1151791512966156, 0.03921133652329445, -0.24522796273231506, -0.16092896461486816, 0.07257027924060822, -0.12974050641059875, -0.14033333957195282, 0.05832184851169586, -0.2321173995733261, -0.06316818296909332, 0.03797654062509537, -0.07161684334278107, -0.10400843620300293, 0.06320792436599731, 0.17162564396858215, -0.17756694555282593, -0.03255816549062729, -0.04487745836377144, 0.3290114402770996, -0.17115716636180878, -0.3040064573287964], [0.11442478001117706, 0.010961709544062614, -0.05658182501792908, -0.035702064633369446, 0.4082425832748413, 0.14317470788955688, 0.017056956887245178, -0.061280954629182816, -0.05533536523580551, 0.13219653069972992, 0.04277675226330757, -0.21794794499874115, 0.13079389929771423, -0.3584446310997009, -0.0897098034620285, 0.030102718621492386, 0.019365962594747543, -0.050260383635759354, -0.12855322659015656, 0.13407763838768005, 0.0738057941198349, -0.08553998172283173, 0.22338876128196716, 0.12621605396270752, -0.02303040772676468, -0.1586270034313202, -0.017118804156780243, -0.012355568818747997, 0.24959157407283783, 0.025287896394729614, 0.10623566806316376, -0.044576771557331085], [0.07816879451274872, 0.13930481672286987, -0.06433350592851639, 0.1635155826807022, -0.009035901166498661, -0.03382900357246399, 0.1739039421081543, 0.2228526771068573, -0.08792705833911896, 0.022573383525013924, 0.016004007309675217, 0.21280772984027863, 0.1699773073196411, -0.2381916493177414, -0.11648289859294891, -0.05696522071957588, 0.2634158134460449, -0.10639317333698273, -0.37496691942214966, 0.01005126629024744, 0.055391717702150345, -0.05153210461139679, -0.028850838541984558, -0.06492508202791214, 0.16418775916099548, -0.1558389663696289, -0.1583751142024994, 0.016145337373018265, 0.035037871450185776, -0.10678640753030777, -0.3443651497364044, 0.18123000860214233], [0.03888634964823723, 0.27826881408691406, 0.14547938108444214, -0.12977659702301025, -0.22000426054000854, -0.020203130319714546, -0.13056254386901855, 0.176509290933609, 0.02516796998679638, 0.06941650807857513, -0.160152405500412, -0.20271435379981995, 0.21694472432136536, -0.07718460261821747, -0.2562595009803772, 0.1511709839105606, 0.04333844780921936, -0.09462310373783112, -0.13483506441116333, -0.21579137444496155, 0.10036740452051163, -0.03622368350625038, 0.23259666562080383, 0.06155451387166977, 0.18935543298721313, -0.04124069958925247, -0.29715031385421753, -0.2042056918144226, 0.02784983441233635, -0.18122777342796326, 0.06827690452337265, 0.2175094038248062]]}, "2+": {"kernel": [[0.04474475979804993, -0.09137125313282013, -0.09614363312721252, 0.06633921712636948, -0.19029021263122559, 0.300137460231781, 0.133755624294281, -0.09361302852630615, 0.009741243906319141, 0.057241082191467285, 0.37479645013809204, 0.1065087765455246, -0.19181343913078308, 0.12750759720802307, -0.24348479509353638, -0.05196480453014374, -0.2635974884033203, 0.04820751026272774, -0.34151822328567505, -0.09934909641742706, -0.32574403285980225, -0.03579641506075859, 0.38672998547554016, -0.1828775554895401, -0.11302483081817627, 0.16862598061561584, 0.15156826376914978, -0.14361843466758728, -0.07276347279548645, -0.058346640318632126, -0.30180901288986206, -0.13037532567977905], [0.08281291276216507, 0.014396907761693, 0.09394568204879761, 0.07464174926280975, 0.12469802796840668, 0.19947998225688934, 0.29791200160980225, -0.10533449798822403, 0.14120006561279297, 0.0961303561925888, 0.1739988923072815, 0.128570556640625, 0.19350257515907288, -0.16795974969863892, -0.28934013843536377, -0.15789943933486938, 0.11289455741643906, 0.15624268352985382, -0.15084335207939148, -0.07809986174106598, 0.17186391353607178, -0.26870766282081604, -0.028111517429351807, 0.3170567452907562, 0.0242545697838068, 0.34785565733909607, 0.14735174179077148, 0.03440277278423309, -0.022783076390624046, 0.22544428706169128, -0.032193128019571304, -0.2326943278312683], [0.007162959314882755, 0.31601184606552124, -0.18519249558448792, -0.09504488110542297, 0.05105726420879364, -0.22012034058570862, 0.2342022955417633, -0.0999055728316307, 0.09101273119449615, 0.18294274806976318, -0.2811671495437622, -0.017183687537908554, 0.14695921540260315, -0.08512231707572937, -0.204438716173172, -0.15833087265491486, -0.34049156308174133, -0.23927545547485352, 0.15129317343235016, -0.14965985715389252, -0.07013355195522308, 0.030104730278253555, 0.18982765078544617, -0.27785229682922363, -0.08139532804489136, 0.08040604740381241, 0.12167450785636902, -0.15169718861579895, 0.04411350190639496, -0.20862166583538055, 0.03882636874914169, -0.24789351224899292], [0.029934708029031754, 0.11421617120504379, 0.043112486600875854, 0.2368641495704651, 0.32189446687698364, -0.24724581837654114, 0.17201536893844604, 0.29682987928390503, 0.24147969484329224, -0.26019716262817383, -0.11850424110889435, -0.0835074782371521, 0.2190796136856079, -0.01915072835981846, -0.3102867603302002, -0.18125700950622559, -0.2905261516571045, 0.2833285331726074, -0.25092771649360657, 0.37452006340026855, -0.14999672770500183, 0.044914327561855316, 0.122010737657547, 0.17005276679992676, 0.1779594123363495, 0.0030645541846752167, -0.10625341534614563, -0.21886080503463745, -0.10600483417510986, -0.2827011048793793, 0.11516671627759933, -0.07677792012691498], [-0.14831019937992096, -0.1798473298549652, -0.049983520060777664, 0.010067958384752274, 0.09977049380540848, 0.07780025899410248, 0.015464927069842815, 0.24065957963466644, 0.17125973105430603, -0.054315268993377686, 0.09059679508209229, 0.2906532883644104, -0.0033450783230364323, 0.09563852846622467, 0.14862188696861267, 0.14427180588245392, -0.3060750365257263, -0.010097685270011425, -0.1926121860742569, 0.04478359967470169, -0.26606595516204834, 0.22179679572582245, -0.27949291467666626, -0.01254555955529213, 0.22399887442588806, 0.10326197743415833, -0.22680050134658813, 0.05198904126882553, 0.28850600123405457, -0.035490162670612335, -0.18468576669692993, -0.3735073506832123], [0.27408337593078613, -0.02366490662097931, -0.017627082765102386, -0.16148942708969116, 0.3633735179901123, -0.2175896167755127, 0.0967487320303917, -0.05898227542638779, -0.2184372991323471, -0.21124625205993652, -0.17522627115249634, -0.05243086814880371, -0.08288761973381042, 0.11510056257247925, 0.17020678520202637, 0.10392798483371735, -0.1685265600681305, 0.008501230739057064, -0.11800459027290344, -0.15165603160858154, 0.03061382658779621, -0.10679768025875092, 0.13007491827011108, 0.09921014308929443, 0.005517816171050072, -0.23456352949142456, -0.1380523145198822, -0.15007716417312622, -0.2525443136692047, 0.032401278614997864, -0.2184542417526245, -0.2549944519996643], [0.29447516798973083, -0.15968847274780273, -0.10608186572790146, -0.171372652053833, 0.022292999550700188, -0.04947122186422348, -0.07096907496452332, 0.23041313886642456, 0.28053611516952515, -0.0643722414970398, -0.16254673898220062, -0.24272339046001434, 0.022040657699108124, 0.25683724880218506, 0.00743176881223917, -0.059110239148139954, 0.17180591821670532, 0.03994988650083542, 0.019324012100696564, -0.00797557458281517, -0.014375293627381325, -0.06615985929965973, 0.14156180620193481, -0.2679122984409332, -0.13126754760742188, 0.18218933045864105, 0.2339712679386139, -0.1696959286928177, -0.1049453467130661, -0.02611113339662552, -0.10694099217653275, 0.15830428898334503], [0.014743119478225708, -0.2048739194869995, -0.05964229255914688, 0.2478426992893219, -0.04785294458270073, 0.22347164154052734, 0.08237334340810776, 0.18555359542369843, 0.057789482176303864, 0.2007729411125183, -0.06163504719734192, 0.01108607742935419, 0.09384074807167053, 0.0064525362104177475, -0.26093560457229614, 0.08832147717475891, -0.15421493351459503, 0.2928108870983124, -0.19722557067871094, -0.21079006791114807, 0.06458386033773422, -0.08167043328285217, 0.1025409996509552, -0.4084252715110779, 0.3808823525905609, 0.1385088562965393, -0.3067590594291687, -0.029575183987617493, -0.05124155431985855, 0.08692482113838196, 0.14345064759254456, 0.05520918220281601], [-0.11206458508968353, -0.10168574005365372, -0.10958033055067062, -0.03319849818944931, 0.2867424786090851, 0.29625391960144043, -0.11240614950656891, 0.24526894092559814, -0.01840975135564804, -0.19307532906532288, 0.12369050085544586, -0.20968419313430786, -0.336453914642334, 0.32638785243034363, 0.34126120805740356, -0.21365013718605042, 0.040619537234306335, 0.07095155119895935, 0.2050151377916336, 0.2346414029598236, 0.03258726745843887, -0.23584185540676117, 0.26512277126312256, -0.3311847448348999, 0.0031275623477995396, 0.3730335533618927, 0.05080869793891907, 0.0067229848355054855, 0.11793754249811172, 0.36323022842407227, 0.1613503098487854, -0.07819101214408875], [-0.033561401069164276, -0.27033358812332153, 0.08624690771102905, 0.041622281074523926, 0.08414585888385773, 0.29623615741729736, -0.08130308240652084, -0.11799570918083191, 0.1741364449262619, -0.03540360927581787, 0.09035764634609222, -0.18119989335536957, -0.07639536261558533, -0.18907371163368225, -0.1182624027132988, 0.0539691299200058, -0.029079563915729523, -0.10627929121255875, 0.21765141189098358, 0.03502562269568443, 0.26201170682907104, 0.0819583609700203, 0.0009379241964779794, 0.022438768297433853, -0.028280336409807205, -0.17773547768592834, -0.12505950033664703, -0.10260540246963501, 0.06369519233703613, -0.4168044328689575, 0.06443241238594055, 0.17351943254470825], [-0.22423231601715088, 0.06701577454805374, -0.05285751074552536, 0.15460872650146484, -0.28528153896331787, -0.181043803691864, 0.005882020574063063, -0.04911969602108002, -0.1475982964038849, 0.27722784876823425, 0.2162247896194458, 0.027020491659641266, 0.32065024971961975, -0.01646846905350685, -0.06073026731610298, -0.12730401754379272, -0.13812029361724854, -0.1953190416097641, 0.013362443074584007, -0.29974833130836487, 0.11545997858047485, 0.38369637727737427, 0.160745307803154, -0.22899794578552246, 0.2207084596157074, -0.030163679271936417, 0.28228235244750977, -0.009148409590125084, 0.25572893023490906, -0.009653173387050629, -0.04450502246618271, -0.1893290877342224], [-0.3533477187156677, 0.10618576407432556, 0.16960841417312622, -0.08496260643005371, -0.20206409692764282, -0.18881195783615112, 0.03845122084021568, 0.10339588671922684, 0.12360987067222595, 0.08928194642066956, -0.11267152428627014, -0.3140464127063751, 0.14426323771476746, 0.18933717906475067, -0.031203171238303185, -0.04848315194249153, -0.14395731687545776, -0.09812095761299133, -0.07301418483257294, 0.2235100120306015, -0.25269007682800293, -0.013019846752285957, -0.22770555317401886, -0.0565052404999733, 0.03679943084716797, 0.03914213180541992, 0.35186102986335754, -0.04870902746915817, 0.1920066773891449, 0.13004843890666962, -0.316729873418808, -0.06449171900749207], [-0.32116425037384033, 0.11639535427093506, 0.3550942540168762, -0.023410331457853317, 0.2716442048549652, -0.22879286110401154, 0.01763230189681053, -0.22623562812805176, -0.034821007400751114, 0.2350783348083496, 0.31756991147994995, -0.24059012532234192, -0.05532841384410858, 0.38369259238243103, 0.1313590407371521, 0.011361896991729736, 0.12661390006542206, 0.019532732665538788, -0.2482672929763794, -0.06497151404619217, 0.030577100813388824, -0.2053166925907135, -0.22567042708396912, 0.01807573437690735, -0.044499024748802185, -0.09741979837417603, -0.053565818816423416, 0.11847344040870667, -0.12920376658439636, 0.17671823501586914, -0.12672345340251923, 0.4033010005950928], [0.028144214302301407, 0.13707298040390015, 0.02169148623943329, -0.03538260608911514, -0.09299212694168091, -0.013659887947142124, -0.044529303908348083, -0.2611161470413208, -0.10526283085346222, -0.19374683499336243, -0.23201456665992737, -0.05644398182630539, -0.36522620916366577, 0.33505892753601074, 0.11063413321971893, 0.0581987090408802, 0.12946045398712158, 0.08205953985452652, -0.21194326877593994, -0.006527530495077372, 0.172775536775589, -0.08126334846019745, 0.3790595829486847, -0.34754449129104614, 0.05815647542476654, -0.3384631276130676, -0.01672559604048729, -0.058834344148635864, -0.11614909023046494, 0.1536448448896408, -0.032256659120321274, -0.18645283579826355], [-0.16814200580120087, -0.27322831749916077, 0.35929298400878906, -0.06842103600502014, -0.14991067349910736, 0.21201038360595703, 0.3573887348175049, -0.16591840982437134, 0.26970982551574707, 0.05781859904527664, -0.3536706566810608, 0.22093603014945984, 0.14843779802322388, 0.33531123399734497, 0.2925792932510376, 0.021849285811185837, -0.2983895242214203, -0.3317950367927551, -0.2792704701423645, 0.06466764956712723, 0.08469346165657043, -0.05913707986474037, 0.35348474979400635, -0.006047118920832872, -0.14326852560043335, -0.2370208203792572, 0.06920310109853745, 0.01593993976712227, 0.3850064277648926, 0.22748225927352905, 0.3252211809158325, 0.23527514934539795], [0.28741878271102905, -0.012264108285307884, -0.00021425983868539333, -0.062214504927396774, 0.05159490555524826, 0.0031650024466216564, -0.13216570019721985, -0.3318882882595062, -0.07597458362579346, 0.08585654944181442, -0.03770037367939949, 0.15612313151359558, -0.26832497119903564, 0.0980067253112793, -0.24506239593029022, 0.1269460916519165, 0.18592514097690582, 0.1519571840763092, -0.0604005828499794, -0.04334620386362076, 0.13525213301181793, 0.009849779307842255, 0.22408799827098846, -0.1705574244260788, 0.1861453354358673, 0.05356958508491516, -0.12419982999563217, 0.11876073479652405, 0.1523839831352234, 0.2147376537322998, -0.040743522346019745, -0.19588026404380798], [-0.0852867141366005, 0.10228399932384491, -0.3024401366710663, -0.10862229764461517, 0.21221286058425903, 0.0026800527703016996, -0.13363954424858093, -0.027873096987605095, -0.07493727654218674, 0.10195234417915344, 0.06643900275230408, -0.11048480868339539, 0.15727625787258148, 0.05476488173007965, 0.2917022705078125, -0.18950730562210083, 0.1560295820236206, 0.20555388927459717, 0.0007871804991737008, 0.228113055229187, -0.03492831438779831, -0.13105711340904236, -0.016616960987448692, -0.16026073694229126, -0.023606818169355392, 0.01595827005803585, 0.21258434653282166, -0.16917192935943604, 0.2641172409057617, -0.18447041511535645, 0.1791812926530838, 0.24329248070716858], [0.11428829282522202, -0.12683534622192383, 0.2398577332496643, -0.3492431044578552, 0.08121855556964874, -0.019688796252012253, 0.3420322835445404, -0.24662542343139648, -0.030040619894862175, -0.1398749053478241, -0.08019351959228516, -0.20952840149402618, 0.2479499876499176, 0.3698853850364685, -0.2038806527853012, -0.16261732578277588, 0.03838537260890007, 0.079697385430336, -0.03776039928197861, -0.06447664648294449, 0.09344819188117981, -0.12343502044677734, 0.14560465514659882, -0.16160449385643005, -0.31716978549957275, 0.03766904026269913, -0.017930714413523674, -0.116789810359478, -0.021353358402848244, -0.038450129330158234, -0.3088090419769287, 0.19251933693885803], [0.11739146709442139, -0.08674570918083191, -0.21961084008216858, 0.12030799686908722, 0.13136690855026245, 0.04085355997085571, -0.05177142471075058, -0.17366722226142883, 0.13824091851711273, -0.1994810700416565, -0.061680249869823456, -0.1381961703300476, 0.20606940984725952, 0.28504103422164917, 0.13549385964870453, -0.06797268986701965, 0.1546013355255127, -0.013786470517516136, -0.10456208139657974, -0.18848152458667755, -0.15560965240001678, 0.056989215314388275, 0.07123203575611115, -0.30451062321662903, 0.04978806897997856, 0.1215905100107193, -0.22184538841247559, -0.14585444331169128, 0.049860358238220215, -0.029754698276519775, -0.1114879846572876, 0.3334309756755829], [-0.0674002468585968, -0.00914034340530634, -0.2523893713951111, 0.04726436734199524, -0.04728984087705612, 0.2722829580307007, -0.34900015592575073, -0.2841029465198517, -0.35741499066352844, -0.017261866480112076, 0.1810609996318817, -0.2539913058280945, 0.07091648876667023, 0.022226445376873016, -0.0637926310300827, 0.22875851392745972, 0.2494422197341919, 0.12507614493370056, -0.13710162043571472, -0.2647722065448761, 0.07341822981834412, 0.11565856635570526, 0.28200721740722656, -0.17874138057231903, -0.023609239608049393, 0.23943588137626648, -0.1945888251066208, 0.19296148419380188, 0.27447986602783203, 0.03387998044490814, -0.2917015552520752, 0.31612062454223633], [-0.013865508139133453, -0.07906320691108704, 0.21742327511310577, -0.12645459175109863, -0.01076456904411316, -0.322928786277771, -0.08019573986530304, 0.04224351793527603, -0.08246918022632599, -0.2575470209121704, 0.1994856745004654, 0.3144395351409912, 0.2096603810787201, -0.13735362887382507, 0.24848289787769318, -0.3398677706718445, 0.15971559286117554, 0.03472606837749481, 0.018505726009607315, -0.26757925748825073, 0.2767055928707123, 0.33659106492996216, -0.028014512732625008, -0.13906919956207275, -0.10423087328672409, -0.2985891103744507, 0.026881877332925797, -0.07629470527172089, -0.33668601512908936, 0.1163356602191925, 0.21368110179901123, -0.28075194358825684], [-0.1809529960155487, 0.19497063755989075, 0.21584810316562653, 0.125326007604599, -0.06447018682956696, -0.07156457006931305, 0.0243229903280735, -0.21591365337371826, -0.006534380838274956, -0.17494946718215942, -0.10982212424278259, -0.019829919561743736, -0.30778074264526367, -0.18887457251548767, 0.02748868055641651, 0.36174240708351135, 0.3559322953224182, -0.20691703259944916, 0.1288093626499176, 0.03476450592279434, -0.00452472222968936, -0.11884324252605438, 0.10574442148208618, -0.05094639211893082, 0.05857986956834793, 0.3966452479362488, 0.16025197505950928, 0.36992835998535156, 6.658011261606589e-05, 0.212570458650589, -0.31392472982406616, 0.26659104228019714], [0.18371927738189697, -0.0072046490386128426, -0.1594361960887909, 0.2329500913619995, -0.18069902062416077, -0.2973179221153259, 0.02632319927215576, -0.029502365738153458, -0.13451752066612244, 0.07677699625492096, -0.19829219579696655, 0.1380855143070221, 0.15214626491069794, 0.04480234533548355, -0.2874395251274109, 0.12630823254585266, 0.1076919212937355, -0.09804530441761017, -0.03174777328968048, -0.13283631205558777, -0.010231824591755867, -0.13302263617515564, 0.13126611709594727, 0.1752554029226303, 0.1805117279291153, 0.05985752120614052, 0.05052850395441055, 0.03226848691701889, -0.12941329181194305, 0.008582703769207, 0.10045161843299866, 0.3645574450492859], [0.13866567611694336, 0.16232450306415558, 0.14386272430419922, 0.16846945881843567, -0.1450888216495514, -0.18846896290779114, 0.3967054486274719, -0.14237451553344727, -0.09767307341098785, -0.10404486209154129, -0.1334676742553711, 0.13967806100845337, -0.27115142345428467, 0.2441052496433258, 0.2618083953857422, -0.276917040348053, 0.09410924464464188, -0.09016278386116028, -0.07372776418924332, -0.21086882054805756, 0.10732230544090271, -0.05268731713294983, 0.03290007263422012, -0.2623215913772583, -0.021515265107154846, -0.06574352830648422, 0.031785380095243454, -0.11786259710788727, 0.06012491136789322, 0.252544105052948, -0.14575371146202087, -0.3553461730480194], [0.38119110465049744, 0.026313181966543198, 0.1293761283159256, 0.12918484210968018, 0.02067265287041664, -0.3336145281791687, 0.05922818183898926, -0.19300833344459534, -0.1410408914089203, -0.0856722891330719, -0.23053543269634247, 0.3788198232650757, 0.4026033282279968, -0.24696089327335358, -0.28235363960266113, -0.43596571683883667, 0.06426914036273956, 0.007976992055773735, -0.05112157762050629, 0.08876962959766388, -0.09684956073760986, -0.09265311807394028, -0.06882457435131073, -0.11907653510570526, -0.16541960835456848, -0.1310860514640808, 0.06602172553539276, -0.26469483971595764, -0.2629896104335785, -0.3042367696762085, -0.052660003304481506, 0.25205761194229126], [-0.28002315759658813, 0.06594917923212051, 0.10497333854436874, 0.013753378763794899, -0.0644981861114502, -0.28630173206329346, 0.3321368396282196, 0.13517461717128754, -0.2645750045776367, 0.11233513802289963, 0.2278474122285843, 0.13374599814414978, 0.35810136795043945, 0.0531858466565609, 0.22740724682807922, 0.1599629521369934, -0.04219283163547516, -0.22745032608509064, -0.24838659167289734, 0.17663364112377167, 0.1923711597919464, 0.14555057883262634, -0.2240348905324936, 0.32416871190071106, 0.04580913111567497, -0.23943549394607544, 0.090069979429245, 0.044147081673145294, 0.31857848167419434, -0.01884748414158821, 0.24843266606330872, -0.1855584979057312], [-0.10739261656999588, -0.21629206836223602, 0.07132114470005035, -0.07634159922599792, -0.14819884300231934, -0.16734981536865234, -0.1278562843799591, 0.08681432902812958, 0.22609199583530426, -0.10016010701656342, -0.32880592346191406, 0.1836230754852295, 0.062064919620752335, -0.23887911438941956, 0.055977657437324524, 0.11275064945220947, -0.13950946927070618, -0.02863186039030552, 0.02187361568212509, 0.08749832212924957, 0.018280349671840668, 0.185102641582489, -0.18126557767391205, -0.18381983041763306, 0.02655709907412529, 0.10017840564250946, 0.23267024755477905, 0.2665001153945923, 0.3459135591983795, 0.11956801265478134, -0.04465232044458389, -0.05044276639819145], [0.053171221166849136, -0.045553598552942276, 0.16787660121917725, -0.16856592893600464, -0.04560554027557373, 0.3895809054374695, 0.07162298262119293, 0.15618163347244263, 0.2306826114654541, -0.23998817801475525, 0.061893172562122345, 0.12010515481233597, -0.21843667328357697, 0.26944196224212646, -0.307600736618042, 0.20913654565811157, -0.13241003453731537, -0.22931614518165588, -0.12138828635215759, 0.20052438974380493, -0.3785741329193115, 0.2115982174873352, 0.08718016743659973, -0.3630714416503906, -0.12561684846878052, -0.23923557996749878, 0.21836981177330017, 0.0541374608874321, -0.026430603116750717, 0.008153351955115795, -0.38612449169158936, 0.1548803746700287], [0.177572101354599, 0.16897660493850708, 0.04487113654613495, -0.11656837165355682, 0.3328329026699066, 0.1797753870487213, 0.2939530611038208, 0.050532400608062744, -0.02816799283027649, 0.2058374434709549, -0.19125951826572418, -0.19858711957931519, -0.09798235446214676, -0.1754864752292633, 0.023910369724035263, -0.03375464677810669, -0.16985684633255005, 0.1495116949081421, -0.29052814841270447, 0.2179751992225647, 0.036590635776519775, -0.08225138485431671, -0.030404474586248398, 0.09066633880138397, 0.22363066673278809, -0.10902519524097443, -0.05398264899849892, -0.10998605191707611, -0.06399823725223541, -0.02268954925239086, -0.24576322734355927, 0.010545587167143822], [-0.0926918238401413, -0.10712999105453491, 0.015018436126410961, -0.053621627390384674, 0.018366927281022072, -0.15332618355751038, -0.010361513122916222, -0.06850665807723999, -0.18680700659751892, -0.07762856781482697, 0.3809059262275696, -0.0677410140633583, -0.008663478307425976, -0.3528133034706116, -0.17356085777282715, 0.25924330949783325, 0.13054317235946655, 0.10793683677911758, -0.23095601797103882, 0.09995725750923157, -0.10279618948698044, 0.04265981912612915, 0.03424304351210594, 0.16093292832374573, 0.06298203766345978, 0.1858239769935608, 0.14780697226524353, 0.04996666684746742, -0.14034409821033478, 0.19620868563652039, 0.0002511900966055691, -0.024628758430480957], [0.13883888721466064, 0.16006845235824585, 0.16621741652488708, -0.02751252055168152, -0.0014728675596415997, -0.15912885963916779, -0.14491283893585205, -0.2752794027328491, 0.03841602802276611, -0.24256771802902222, 0.3670274019241333, -0.013113388791680336, 0.10837188363075256, -0.3557977080345154, -0.023400504142045975, 0.29925134778022766, 0.059465114027261734, 0.02792982943356037, 0.13519176840782166, -0.15418489277362823, -0.19411060214042664, -0.09683080017566681, -0.24360357224941254, -0.12717120349407196, -0.19687169790267944, 0.29656195640563965, 0.09722985327243805, 0.2373313009738922, 0.12878814339637756, 0.042369529604911804, -0.029922369867563248, -0.18668271601200104], [0.18580162525177002, -0.17110943794250488, 0.022445619106292725, -0.15623149275779724, -0.1922277808189392, -0.1723368763923645, 0.032504551112651825, -0.047218434512615204, -0.02534916251897812, -0.043549127876758575, 0.3864830732345581, 0.2811281681060791, -0.018856028094887733, 0.19705763459205627, 0.16236759722232819, 0.318179190158844, -0.0455159991979599, 0.006325084716081619, -0.19652974605560303, -0.022895632311701775, -0.16054007411003113, -0.1663821041584015, -0.09287478029727936, -0.03418619930744171, 0.010401850566267967, 0.18402543663978577, -0.12535595893859863, -0.08946922421455383, 0.007449869066476822, 0.1707788109779358, 0.19197067618370056, 0.09519730508327484]]}, "3-": {"kernel": [[-0.08111979067325592, -0.055722158402204514, -0.20861059427261353, 0.11800740659236908, 0.12554620206356049, 0.00718421908095479, 0.1752101480960846, 0.1448187530040741, -0.13686862587928772, -0.047554586082696915, -0.18102237582206726, -0.004721645265817642, -0.12530548870563507, -0.33751606941223145, -0.20071369409561157, 0.06559380888938904, -0.045523807406425476, -0.12105174362659454, -0.01298278383910656, 0.1886422038078308, -0.005062970332801342, -0.2581251561641693, 0.0028150109574198723, 0.2597758173942566, 0.3794402480125427, -0.11309973895549774, 0.4049500823020935, 0.1091713160276413, -0.24370518326759338, 0.36603522300720215, -0.3563537001609802, 0.1418474018573761], [0.09776030480861664, 0.24226990342140198, 0.464795857667923, 0.2219294160604477, 0.2523762583732605, 0.18597501516342163, -0.17929786443710327, 0.05677635595202446, -0.197525292634964, 0.31774914264678955, 0.053032271564006805, -0.11686551570892334, -0.21109992265701294, -0.10377781093120575, -0.04227603226900101, -0.2507551908493042, -0.10916562378406525, 0.0067418101243674755, -0.1771821677684784, 0.08075949549674988, -0.012229828163981438, -0.19798031449317932, 0.1641276329755783, 0.04499591141939163, -0.2944597601890564, -0.264699250459671, 0.21202188730239868, -0.06922644376754761, 0.2218584567308426, -0.031356021761894226, 0.12416331470012665, 0.2659739851951599], [0.18486741185188293, -0.01798073574900627, 0.36437857151031494, -0.10057999938726425, -0.1621095836162567, -0.08030687272548676, 0.2040274292230606, -0.209794819355011, -0.18125376105308533, 0.006036585196852684, 0.1571151167154312, -0.05632267892360687, -0.007267806213349104, 0.1424921452999115, 0.09593640267848969, -0.055156588554382324, 0.40929001569747925, 0.07486391067504883, 0.14453032612800598, 0.2123565524816513, 0.23494186997413635, -0.050750043243169785, -0.2982984781265259, -0.13486233353614807, -0.04675783962011337, 0.007986041717231274, -0.1863168329000473, 0.3137427568435669, 0.24855872988700867, -0.1582740843296051, 0.03921189531683922, -0.15203091502189636], [-0.021483631804585457, -0.07933782041072845, 0.1281571388244629, -0.008574364706873894, -0.05143235623836517, 0.0980951339006424, -0.12976601719856262, -0.292896568775177, 0.23289433121681213, -0.25807201862335205, 0.1465902328491211, -0.07956651598215103, 0.0374101847410202, 0.052747130393981934, 0.11740735918283463, -0.08400598168373108, 0.16338512301445007, -0.2688407897949219, 0.0528697744011879, 0.18975742161273956, -0.14925166964530945, -0.02966466173529625, 0.09429123997688293, 0.0008401592494919896, -0.26069462299346924, -0.0032046684063971043, 0.06730544567108154, 0.1965097039937973, -0.023464500904083252, -0.17615863680839539, 0.10608150064945221, 0.0338338240981102], [0.07944093644618988, -0.06867481768131256, 0.025699689984321594, -0.27055424451828003, -0.03378310427069664, 0.05581193417310715, 0.08302326500415802, -0.07696538418531418, 0.2924310266971588, 0.37936368584632874, 0.03961225599050522, -0.1470285803079605, 0.03381924331188202, -0.2468172013759613, -0.2615118622779846, -0.1796119511127472, 0.42497873306274414, 0.01908322423696518, 0.1225651428103447, 0.13872984051704407, 0.05912163108587265, -0.19460073113441467, 0.19347402453422546, -0.170364648103714, 0.019278237596154213, -0.30590832233428955, 0.23015785217285156, -0.11831678450107574, -0.048166148364543915, -0.15856096148490906, 0.07994316518306732, -0.09350748360157013], [0.03803786635398865, 0.045143768191337585, 0.22769668698310852, 0.12406301498413086, -0.17045332491397858, -0.06992705166339874, 0.04081806167960167, -0.19402864575386047, -0.1269446313381195, -0.044183097779750824, 0.09716789424419403, 0.18325017392635345, 0.07407936453819275, 0.1289404183626175, -0.045309972018003464, 0.2029210776090622, -0.1452527791261673, -0.37527161836624146, -0.020471252501010895, 0.35318705439567566, 0.03342859819531441, -0.23835837841033936, -0.2696951627731323, -0.038558147847652435, -0.013788452371954918, 0.1709577441215515, -0.13991491496562958, 0.10090537369251251, -0.24141904711723328, 0.08631919324398041, -0.35163378715515137, -0.09729375690221786], [0.5940641164779663, 0.17042788863182068, 0.01750483363866806, 0.1575394570827484, 0.1484421044588089, -0.3575848340988159, -0.150346040725708, -0.2144375443458557, 0.05429515242576599, -0.2549799382686615, -0.139267235994339, 0.0700899064540863, -0.19113534688949585, -0.16033875942230225, 0.1990622878074646, -0.24881629645824432, 0.12994268536567688, -0.03542317450046539, 0.20857341587543488, -0.24281039834022522, 0.2688128352165222, -0.006307199597358704, -0.1407589316368103, -0.4312087893486023, 0.08662217855453491, 0.3323553800582886, -0.33889102935791016, -0.03912574052810669, 0.17239625751972198, 0.08989229798316956, -0.03931642323732376, 0.2018880844116211], [0.1192772388458252, 0.17025385797023773, -0.21679973602294922, 0.2438277006149292, 0.027659302577376366, 0.12510287761688232, 0.12147073447704315, -0.007016452495008707, 0.006464606150984764, 0.11322295665740967, 0.049960922449827194, -0.10427290201187134, -0.09846361726522446, -0.32387575507164, -0.10583200305700302, 0.011464408598840237, -0.11012429744005203, -0.0029741181060671806, -0.012146977707743645, -0.04720640927553177, 0.05501028150320053, -0.03147989511489868, 0.20113831758499146, 0.24585801362991333, 0.36599862575531006, 0.01370938215404749, -0.08316673338413239, -0.0006829262711107731, 0.23249095678329468, -0.057135209441185, -0.17509739100933075, 0.11414806544780731], [-0.3335919976234436, -0.012605436146259308, 0.17072488367557526, 0.14703643321990967, 0.2507685422897339, -0.2325550615787506, -0.10053509473800659, -0.2538191080093384, 0.16768944263458252, 0.1260836124420166, 0.14226306974887848, -0.1043773889541626, -0.1682066023349762, 0.03819241374731064, 0.17976553738117218, -0.2746715247631073, -0.18492136895656586, -0.07948146760463715, 0.10706125199794769, -0.13373827934265137, -0.17184635996818542, -0.24952533841133118, 0.040277451276779175, 0.1648281216621399, 0.16646941006183624, -0.058553822338581085, -0.1277472823858261, -0.2786954641342163, 0.2140577733516693, -0.079302117228508, -0.23122264444828033, 0.08907948434352875], [0.18396708369255066, 0.06560884416103363, 0.10430532693862915, -0.2637981176376343, -0.24976447224617004, 0.10003052651882172, -0.26889073848724365, -0.18389515578746796, -0.04047467187047005, -0.21591803431510925, 0.154248908162117, -0.18357542157173157, 0.1326005458831787, 0.2193288505077362, 0.05194437503814697, -0.11794379353523254, 0.20849765837192535, -0.008316664956510067, -0.15977627038955688, -0.05536404997110367, 0.05036567151546478, 0.18399393558502197, -0.009932292625308037, -0.026237737387418747, 0.06782422959804535, 0.19188225269317627, 0.0801466703414917, -0.022815726697444916, -0.25637996196746826, 0.018039442598819733, 0.1542300134897232, 0.07007602602243423], [-0.0073841591365635395, 0.12002705037593842, 0.10756237059831619, 0.046751558780670166, 0.0019776420667767525, 0.044085610657930374, -0.04353746771812439, 0.002798468340188265, 0.11487257480621338, 0.0832614153623581, -0.20760534703731537, -0.041174501180648804, -0.10094141215085983, -0.08116491138935089, 0.2749950587749481, -0.09040683507919312, 0.23095902800559998, -0.10044218599796295, 0.0111988615244627, 0.28658682107925415, -0.008942974731326103, -0.15837261080741882, -0.1673872172832489, 0.021357648074626923, 0.27391189336776733, -0.20765778422355652, 0.11091069132089615, 0.26779741048812866, 0.1411592662334442, -0.014007877558469772, -0.13840651512145996, 0.04608766362071037], [0.22368276119232178, 0.06144091486930847, 0.05420975387096405, 0.10629616677761078, -0.2210945039987564, -0.15225133299827576, 0.3152793049812317, -0.06893666833639145, -0.024029793217778206, -0.22933021187782288, 0.16279184818267822, -0.05065373703837395, 0.0018082348397001624, 0.15804068744182587, -0.08269333839416504, 0.10683971643447876, 0.273730993270874, -0.21702037751674652, 0.3719968795776367, -0.13706061244010925, -0.12686142325401306, 0.10097791254520416, -0.11010170727968216, 0.4482927918434143, -0.3304632604122162, -0.14214566349983215, -0.14049865305423737, 0.21007086336612701, -0.18854352831840515, 0.28662604093551636, -0.03673309087753296, -0.010063017718493938], [-0.015726204961538315, 0.1931324005126953, -0.36021167039871216, -0.12471889704465866, 0.2716965079307556, -0.10618910193443298, 0.24942830204963684, 0.2765849232673645, -0.03444261476397514, -0.11752739548683167, 0.11977560818195343, -0.06479005515575409, 0.306612104177475, 0.42123734951019287, -0.06537797302007675, 0.06294073164463043, -0.22539229691028595, 0.0816941037774086, 0.3863411545753479, -0.05337753891944885, -0.14571525156497955, 0.20557796955108643, 0.14641480147838593, 0.0306649599224329, -0.04648338258266449, -0.35353028774261475, -0.11454065889120102, -0.014584509655833244, -0.15997624397277832, -0.15929144620895386, -0.1498156189918518, -0.10196715593338013], [0.36200761795043945, 0.009397713467478752, -0.21793422102928162, 0.3980715274810791, 0.0973295271396637, 0.020037684589624405, 0.09856054186820984, -0.08907710015773773, -0.19250649213790894, 0.015704473480582237, 0.19933639466762543, 0.05356296896934509, -0.08384308218955994, -0.14692586660385132, 0.09160791337490082, -0.25107342004776, 0.06932702660560608, 0.005674108862876892, -0.35764753818511963, 0.252723753452301, -0.15872839093208313, 0.15819671750068665, -0.20671914517879486, -0.0680197924375534, 0.17663723230361938, 0.053768157958984375, -0.1265423595905304, 0.01874905824661255, 0.054308708757162094, 0.04366195201873779, -0.17091840505599976, -0.2580377161502838], [-0.10942473262548447, 0.18202617764472961, -0.09429755061864853, 0.08253094553947449, -0.19547559320926666, 0.05339256674051285, 0.048149511218070984, -0.10789808630943298, 0.019092068076133728, -0.18369796872138977, 0.03477630019187927, 0.2572402358055115, 0.23604890704154968, 0.07682874798774719, -0.009108458645641804, -0.3303718566894531, -0.12949320673942566, 0.11995270103216171, -0.18648546934127808, 0.396628201007843, 0.1444888412952423, 0.023819200694561005, -0.2973797023296356, -0.09030936658382416, 0.031215477734804153, -0.027905995026230812, 0.2626963257789612, -0.14557018876075745, -0.05406281352043152, 0.016356302425265312, 0.06933329254388809, -0.24366196990013123], [0.4222804307937622, -0.21821969747543335, -0.16684961318969727, -0.16910994052886963, -0.17211931943893433, -0.18253201246261597, -0.018778374418616295, -0.22601798176765442, 0.024258414283394814, -0.2018028199672699, -0.007213607430458069, 0.21548771858215332, 0.29135721921920776, -0.38718175888061523, -0.08570714294910431, 0.07490549981594086, -0.0012339844834059477, 0.4576835632324219, -0.34219199419021606, 0.17526954412460327, -0.023923275992274284, 0.04046496003866196, -0.17390304803848267, -0.11082936823368073, 0.17170056700706482, 0.1186969131231308, -0.13290974497795105, -0.20731696486473083, 0.18682755529880524, -0.18184854090213776, -0.12224657833576202, -0.08467453718185425], [-0.18984630703926086, -0.36588290333747864, 0.17998188734054565, 0.29362553358078003, -0.27384382486343384, 0.14507509768009186, -0.22329023480415344, -0.12091928720474243, -0.09933890402317047, 0.1775474101305008, -0.1608271449804306, 0.0587376169860363, -0.15691685676574707, 0.07579099386930466, 0.06337905675172806, 0.1374509036540985, -0.16621272265911102, 0.33161401748657227, 0.21577952802181244, -0.3113052248954773, -0.12844276428222656, 0.27876248955726624, 0.2716115117073059, -0.12330735474824905, -0.01281767524778843, -0.2699250876903534, -0.11940746009349823, -0.08762271702289581, 0.0008256137371063232, 0.11152910441160202, -0.3390187621116638, 0.06516178697347641], [0.1910674273967743, 0.03881315514445305, 0.24116474390029907, 0.02710944414138794, -0.05916614085435867, -0.19954577088356018, -0.01948528364300728, -0.03620085120201111, 0.08935040235519409, -0.016573812812566757, -0.22052603960037231, -0.3127913773059845, 0.046623945236206055, -0.059437304735183716, 0.23900040984153748, -0.2793395519256592, 0.4003949761390686, 0.2893357276916504, -0.23257704079151154, -0.1378096640110016, 0.05969935655593872, -0.028620708733797073, 0.14031465351581573, -0.18531468510627747, 0.32551389932632446, -0.22375839948654175, 0.28943538665771484, -0.16606014966964722, -0.1492275595664978, 0.22677312791347504, -0.11585109680891037, -0.374225378036499], [-0.3496769666671753, -0.3538219928741455, 0.11579157412052155, -0.2693588435649872, 0.08722466230392456, -0.030008912086486816, 0.16725721955299377, -0.18682551383972168, -0.13003242015838623, -0.12919114530086517, -0.05263128504157066, -0.0640651285648346, 0.01615152508020401, -0.0013248110190033913, 0.014562866650521755, 0.08735723793506622, -0.06809519231319427, 0.020635021850466728, -0.17187869548797607, 0.0002683050115592778, -0.12481708079576492, -0.16055849194526672, 0.1948864459991455, -0.14571601152420044, -0.058666832745075226, -0.030262790620326996, 0.08167485892772675, -0.0696960836648941, -0.1818675547838211, -0.027757853269577026, -0.006216060370206833, 0.2743327021598816], [0.41158467531204224, 0.15626609325408936, 0.28407615423202515, -0.22017666697502136, -0.14886388182640076, -0.23895148932933807, -0.314543217420578, 0.05626766383647919, 0.15152862668037415, -0.28951334953308105, 0.1849384605884552, 0.14843234419822693, 0.10996894538402557, 0.06098058819770813, -0.05858496576547623, -0.15758457779884338, 0.08572625368833542, -0.023275677114725113, 0.036012813448905945, -0.3117820620536804, 0.3408184051513672, -0.1069040596485138, -0.2740718126296997, -0.04048783332109451, 0.06396875530481339, 0.03507839888334274, 0.12778934836387634, -0.21284636855125427, 0.08600051701068878, 0.13573092222213745, -0.16276773810386658, -0.36514660716056824], [-0.061313025653362274, -0.023007769137620926, -0.1543484926223755, -0.04646318405866623, -0.15999725461006165, -0.1592608094215393, 0.07170481979846954, -0.2582143545150757, -0.23325175046920776, -0.1625630408525467, 0.04053054377436638, 0.12289530038833618, -0.029766375198960304, -0.12880080938339233, -0.08472973108291626, 0.1363207995891571, 0.1235397607088089, -0.01899702474474907, 0.24059998989105225, -0.14469735324382782, 0.015165293589234352, -0.19327399134635925, 0.3393484354019165, 0.18128079175949097, 0.16569213569164276, 0.017235763370990753, -0.05951492488384247, 0.07899579405784607, 0.06535723805427551, 0.29301756620407104, -0.28137990832328796, 0.3290242850780487], [0.46746689081192017, 0.2583455741405487, 0.2057579755783081, -0.0448102205991745, -0.11323574185371399, -0.020846057683229446, -0.09326708316802979, -0.300212562084198, 0.11535456031560898, -0.288617879152298, 0.0037484841886907816, -0.2572285532951355, 0.04376472905278206, -0.059946104884147644, 0.26134008169174194, 0.32622528076171875, -0.15724292397499084, 0.26427215337753296, 0.10052062571048737, 0.07766804099082947, 0.005193745717406273, -0.2056855708360672, -0.04223348945379257, 0.08168067783117294, -0.04740741476416588, -0.10335241258144379, 0.04121612757444382, 0.07107603549957275, 0.0893685519695282, 0.3429144620895386, 0.06996341049671173, 0.1085004210472107], [-0.016094934195280075, -0.013175795786082745, 0.09961740672588348, -0.09483543783426285, -0.03861343860626221, -0.18737547099590302, 0.17309194803237915, 0.18635326623916626, -0.3391956686973572, 0.1316365897655487, 0.09585081040859222, 0.029590841382741928, 0.10124841332435608, -0.25814032554626465, -0.11049532890319824, 0.37206292152404785, 0.08281119912862778, -0.42903822660446167, 0.16827160120010376, 0.31364768743515015, 0.10361066460609436, -0.1594552993774414, 0.008772619068622589, 0.041029851883649826, -0.0008462391560897231, -0.14395269751548767, -0.03698242828249931, 0.12849867343902588, -0.01921834424138069, -0.17118555307388306, 0.24209609627723694, -0.02265157550573349], [0.03958633542060852, -0.029108893126249313, 0.031608372926712036, 0.05842672288417816, 0.08885550498962402, -0.33342915773391724, -0.31593504548072815, 0.15073886513710022, 0.01721109449863434, -0.034293122589588165, -0.0398021824657917, -0.3579738140106201, 0.21489793062210083, 0.06773161888122559, -0.30101898312568665, 0.40950122475624084, -0.16931861639022827, -0.24944782257080078, -0.3784828782081604, 0.046550214290618896, -0.3485451936721802, 0.24814370274543762, -0.26535871624946594, -0.00743930134922266, -0.15562251210212708, 0.11964960396289825, 0.028187459334731102, -0.23798684775829315, 0.01297278143465519, -0.27096372842788696, -0.1128825843334198, 0.3296052813529968], [0.2777228057384491, 0.04512530565261841, -0.06606904417276382, 0.08568684756755829, 0.16084513068199158, 0.17720259726047516, 0.004817608743906021, 0.11482235789299011, 0.18489614129066467, -0.4052877724170685, 0.11128510534763336, 0.1253204047679901, 0.0541212223470211, -0.09537582099437714, 0.0074369460344314575, 0.01930839940905571, -0.15346547961235046, 0.11427530646324158, -0.19051703810691833, 0.0404297336935997, 0.10914251208305359, -0.025692926719784737, -0.09089984744787216, 0.11998721212148666, -0.044503599405288696, 0.2224757969379425, -0.20047995448112488, 0.015523940324783325, -0.14158540964126587, 0.10666631162166595, 0.2956966161727905, -0.02409873530268669], [0.1136101633310318, 0.14824651181697845, 0.1750612109899521, -0.18285949528217316, 0.004630904644727707, -0.22928836941719055, -0.02123420313000679, -0.12396469712257385, 0.10414975136518478, -0.11030376702547073, -0.18831387162208557, -0.25062504410743713, 0.2846866250038147, -0.22630393505096436, -0.1142260879278183, 0.043144598603248596, -0.2503872513771057, 0.32479965686798096, -0.18661150336265564, 0.2422044575214386, 0.10862177610397339, -0.007105263881385326, -0.04312848672270775, -0.048046790063381195, 0.40895283222198486, 0.04008360579609871, 0.05552300065755844, -0.10059776157140732, -0.24691623449325562, -0.026257090270519257, 0.19386467337608337, -0.2933887243270874], [0.2290405035018921, -0.07191478461027145, 0.05845235288143158, -0.19378921389579773, 0.3327181935310364, -0.41465604305267334, -0.010458555072546005, -0.18651548027992249, -0.32428431510925293, 0.010460367426276207, 0.18724092841148376, -0.06777025759220123, -0.21451011300086975, 0.33696961402893066, -0.023235872387886047, -0.11436152458190918, 0.05863839387893677, 0.4606700539588928, -0.17364633083343506, -0.13993394374847412, -0.09273292124271393, 0.0830376073718071, -0.15172845125198364, -0.036893151700496674, -0.2929958999156952, 0.0038960142992436886, -0.12968066334724426, 0.07031413912773132, 0.040411096066236496, -0.08978603035211563, 0.008952852338552475, 0.30110982060432434], [0.1336912214756012, 0.09351958334445953, 0.2069782018661499, 0.25640761852264404, -0.2974920868873596, 0.10541091859340668, 0.0290529765188694, -0.022173114120960236, -0.039141640067100525, -0.014734787866473198, 0.013988718390464783, -0.10695335268974304, -0.16192466020584106, 0.0613652840256691, 0.02967543713748455, -0.15604086220264435, -0.043993331491947174, 0.1696377694606781, -0.0713309496641159, 0.2550809383392334, -0.3487975597381592, 0.0050901081413030624, -0.14989164471626282, -0.0875227302312851, 0.10624825209379196, -0.2122993767261505, -0.1820012331008911, -0.23361948132514954, -0.33855628967285156, 0.1277312934398651, 0.058917321264743805, -0.38945552706718445], [0.008294016122817993, -0.39769846200942993, -0.06143071874976158, -0.1192544549703598, -0.09496800601482391, 0.26486948132514954, -0.021322164684534073, -0.029223643243312836, 0.12608924508094788, 0.12060806155204773, -0.2205905020236969, 0.3672711253166199, 0.030823316425085068, 0.39528360962867737, -0.0036226892843842506, 0.08777209371328354, -0.12534724175930023, -0.010699618607759476, 0.024667181074619293, -0.2366427183151245, 0.09358306229114532, 0.2809009552001953, -0.18232090771198273, 0.21081863343715668, -0.13425683975219727, -0.00640778336673975, 0.3011605441570282, -0.44248488545417786, 0.17070789635181427, 0.08991417288780212, -0.01993120089173317, -0.10059933364391327], [0.08277115225791931, 0.09135762602090836, 0.00875285267829895, 0.25260865688323975, -0.038407329469919205, -0.24542972445487976, 0.3558638095855713, 0.16078916192054749, 0.0531252883374691, 0.058194600045681, -0.09535206109285355, -0.27315598726272583, 0.03879627585411072, 0.29432129859924316, 0.12844246625900269, -0.006038874387741089, 0.03987949714064598, 0.024567708373069763, 0.26831379532814026, -0.041535839438438416, -0.210044264793396, -0.26260441541671753, -0.10103204101324081, 0.07347725331783295, -0.26002782583236694, 0.11055164039134979, 0.059371836483478546, 0.23827898502349854, -0.05532544106245041, 0.10794460028409958, -0.15328989923000336, -0.25975900888442993], [0.13221222162246704, 0.011888734996318817, -0.12070314586162567, 0.08511938154697418, -0.43889203667640686, -0.13718873262405396, -0.09560814499855042, -0.1455807387828827, -0.10071916878223419, -0.022172939032316208, 0.20155403017997742, -0.20740839838981628, 0.10002429783344269, -0.047144241631031036, -0.20778822898864746, 0.006624873727560043, -0.3526533246040344, -0.3038738965988159, -0.41006386280059814, 0.27920275926589966, 0.1337222456932068, -0.19378331303596497, 0.2838928699493408, 0.13848498463630676, -0.30087584257125854, -0.061881519854068756, -0.04650814086198807, -0.05082758516073227, 0.05071346461772919, 0.24704009294509888, -0.28962332010269165, -0.07637259364128113], [-0.3758701682090759, -0.2543383240699768, -0.012800305150449276, 0.13885188102722168, -0.21547362208366394, -0.30365997552871704, -0.10370009392499924, -0.21716120839118958, -0.004893278703093529, -0.1581093966960907, -0.08602169156074524, 0.14739549160003662, 0.04324696213006973, 0.14150920510292053, 0.09678168594837189, 0.060996897518634796, -0.3148486614227295, 0.014731159433722496, -0.0918058231472969, 0.09873370081186295, -0.18061742186546326, -0.13339996337890625, 0.07330791652202606, -0.12887714803218842, -0.1916709542274475, 0.023401234298944473, 0.0821932926774025, 0.4032157063484192, 0.062143996357917786, -0.2229175567626953, -0.02291274070739746, 0.3110261857509613]]}, "4+": {"kernel": [[0.3261170983314514, -0.11163415014743805, 0.12716083228588104, -0.5587661266326904, -0.29633772373199463, 0.06772401928901672, -0.14758431911468506, 0.20648150146007538, 0.03853507339954376, 0.08532889187335968, -0.1468576192855835, -0.22710584104061127, 0.12639153003692627, 0.23814597725868225, -0.3232074975967407, 0.014970991760492325, -0.055774129927158356, 0.02660878375172615, 0.037264302372932434, -0.23210011422634125, -0.1320231854915619, 0.16059201955795288, -0.24361759424209595, -0.26894766092300415, 0.06556281447410583, -0.11649216711521149, -0.032108910381793976, 0.03808268904685974, -0.04206719994544983, 0.191023051738739, -0.21611154079437256, 0.2003648281097412], [0.21684682369232178, -0.21030250191688538, -0.320918470621109, 0.14911960065364838, -0.12318974733352661, 0.04112367331981659, 0.09417486935853958, 0.07746532559394836, -0.27893972396850586, -0.15300056338310242, -0.04415081441402435, -0.1472260057926178, -0.25054851174354553, 0.13678517937660217, -0.09380574524402618, -0.23722787201404572, -0.10298638045787811, -0.2775176763534546, 0.048380374908447266, -0.09113013744354248, -0.20323818922042847, -0.08153533935546875, 0.09910401701927185, -0.3017229735851288, 0.24136883020401, -0.32416343688964844, -0.07204358279705048, 0.15878388285636902, 0.1339614987373352, -0.04411569982767105, -0.06370013952255249, -0.009281698614358902], [0.1111721396446228, -0.015069068409502506, 0.029421716928482056, 0.17278417944908142, 0.16664917767047882, 0.26086893677711487, -0.18172520399093628, 0.44532859325408936, 0.0513748824596405, 0.02205786481499672, -0.25356441736221313, -0.18966805934906006, 0.1791992336511612, 0.27872711420059204, 0.31345248222351074, 0.33869290351867676, 0.2005908042192459, 0.04229630529880524, -0.21966207027435303, 0.18256926536560059, -0.20808203518390656, 0.009458670392632484, -0.01601094752550125, -0.30169546604156494, -0.21899476647377014, 0.06284771859645844, 0.13642026484012604, -0.1375623196363449, 0.09704698622226715, 0.26857227087020874, 0.14072978496551514, 0.04418526962399483], [-0.016775572672486305, -0.1468619406223297, -0.03768482804298401, 0.09006741642951965, -0.0875437930226326, -0.11420319974422455, -0.3756501078605652, 0.10760645568370819, -0.016354944556951523, -0.08464331924915314, 0.22464853525161743, -0.015793830156326294, 0.16925857961177826, -0.18724212050437927, 0.039024777710437775, -0.22701182961463928, 0.38958829641342163, 0.08986449986696243, -0.09656262397766113, 0.061872974038124084, -0.04407705366611481, -0.11112654209136963, 0.13099706172943115, 0.054842472076416016, 0.15647907555103302, -0.1897813379764557, -0.20944321155548096, 0.01705186441540718, -0.2358275055885315, 0.20820775628089905, 0.3968753218650818, -0.020576724782586098], [-0.2678895890712738, 0.056079987436532974, 0.14901046454906464, -0.18210369348526, -0.3537233769893646, 0.12774142622947693, -0.10684771835803986, -0.045745737850666046, -0.15205305814743042, -0.07092872262001038, 0.32584378123283386, -0.2669886350631714, -0.05039837956428528, -0.15567095577716827, 0.06885682046413422, -0.21309149265289307, 0.0137848611921072, 0.12232489883899689, -0.08559815585613251, -0.10409145802259445, 0.07547856122255325, -0.21043652296066284, -0.048453398048877716, -0.14907491207122803, 0.07168294489383698, 0.1294538676738739, -0.19572964310646057, 0.18158014118671417, -0.012499084696173668, 0.0177598986774683, 0.16955380141735077, -0.07681682705879211], [0.18460923433303833, 0.28511059284210205, 0.19679667055606842, -0.1934511661529541, -0.13435891270637512, -0.1472315639257431, 0.12558899819850922, 0.29217907786369324, 0.08802326768636703, -0.3707311749458313, -0.19064286351203918, 0.009425690397620201, 0.13255979120731354, -0.011599346995353699, -0.155721977353096, -0.11049461364746094, -0.30080538988113403, 0.3278658390045166, 0.07150910049676895, -0.011246437206864357, 0.19547857344150543, -0.04607488587498665, -0.3067079186439514, 0.2882286310195923, -0.2235146462917328, -0.10358375310897827, 0.2798917591571808, 0.05391491949558258, 0.35973602533340454, 0.03138456493616104, -0.09905284643173218, -0.43625807762145996], [0.111374631524086, -0.12470749020576477, 0.12083235383033752, 0.21960164606571198, 0.12433406710624695, -0.03934716433286667, 0.3375830054283142, -0.1416931301355362, -0.25108155608177185, -0.3843945860862732, 0.08757314831018448, 0.27267342805862427, 0.1804906129837036, -0.0032465513795614243, -0.18802358210086823, -0.009578497149050236, 0.12335972487926483, 0.141250342130661, 0.08517136424779892, -0.048202916979789734, -0.3754962682723999, 0.15434226393699646, -0.22579322755336761, -0.010712489485740662, 0.07091045379638672, -0.13792964816093445, -0.22689002752304077, 0.01730499044060707, -0.10548458993434906, 0.23612147569656372, 0.1748259961605072, 0.336081862449646], [0.1254691481590271, -0.1274503469467163, 0.12132056057453156, 0.14112922549247742, 0.23235419392585754, 0.27430519461631775, -0.18815959990024567, 0.008387468755245209, 0.1693335771560669, -0.06419630348682404, 0.12638303637504578, -0.20650070905685425, 0.03426211327314377, -0.12828004360198975, -0.1857183575630188, 0.08605563640594482, 0.09235769510269165, -0.25882333517074585, 0.09315045177936554, -0.14102183282375336, -0.11872118711471558, -0.07001524418592453, -0.18732456862926483, -0.14099594950675964, 0.012156668119132519, 0.02503948286175728, 0.04287491738796234, 0.0690198466181755, -0.3499250113964081, 0.3245224356651306, 0.005192113108932972, -0.15984565019607544], [0.4551664888858795, 0.20102030038833618, -0.03382042795419693, -0.08275876939296722, -0.0022707334719598293, 0.20573076605796814, -0.1712440848350525, 0.20418953895568848, -0.13026359677314758, 0.14837013185024261, 0.04408581554889679, -0.3946264684200287, -0.02072778344154358, -0.16512040793895721, 0.15441486239433289, 0.08410786092281342, -0.31834709644317627, -0.23055872321128845, 0.0783863440155983, 0.061515286564826965, -0.06981635093688965, -0.08818206191062927, -0.29231345653533936, 0.32574111223220825, 0.31429556012153625, 0.06534813344478607, -0.023981308564543724, -0.2665441036224365, 0.10205172002315521, -0.04285331070423126, -0.09116952866315842, 0.027104932814836502], [0.23014438152313232, -0.10223440825939178, 0.006693993229418993, -0.22134310007095337, -0.05277525633573532, 0.11360637843608856, -0.10619507730007172, 0.08647951483726501, -0.06335924565792084, 0.043951958417892456, -0.09323883801698685, 0.0826629251241684, 0.044323958456516266, -0.356445848941803, 0.20206691324710846, -0.1466272473335266, -0.151042640209198, -0.1223478764295578, 0.07855716347694397, 0.46260595321655273, 0.07380379736423492, 0.3848711848258972, 0.09889243543148041, -0.018937937915325165, -0.1431484818458557, -0.11053073406219482, -0.17796853184700012, -0.201707661151886, 0.28230881690979004, -0.10339316725730896, 0.21255061030387878, 0.2500074505805969], [-0.21841248869895935, 0.08022443950176239, -0.17859871685504913, 0.14358973503112793, -0.12116236984729767, 0.3205399513244629, 0.17906737327575684, -0.001338394358754158, -0.27908316254615784, -0.05896468460559845, 0.10454404354095459, -0.1761437952518463, -0.1771966814994812, 0.13905996084213257, 0.00958989467471838, -0.23149341344833374, 0.18756720423698425, 0.02024114690721035, -0.008617278188467026, 0.3075605034828186, 0.08337438851594925, -0.19446693360805511, -0.16368545591831207, 0.029376715421676636, 0.2540721297264099, 0.16649127006530762, -0.021765395998954773, -0.16055020689964294, 0.03145918250083923, 0.2602618336677551, 0.11828912794589996, 0.10872054845094681], [-0.0523967519402504, 0.024309877306222916, 0.0333670973777771, 0.19742462038993835, -0.1759103536605835, -0.29566723108291626, -0.26763802766799927, -0.42247575521469116, -0.059656254947185516, -0.10140360891819, 0.009107738733291626, 0.22238412499427795, -0.2712678611278534, 0.22609971463680267, -0.03368673846125603, -0.262673020362854, 0.4128933846950531, -0.1689985990524292, 0.11821695417165756, 0.06888359785079956, -0.07908773422241211, 0.17079417407512665, 0.4407222867012024, 0.0768851488828659, -0.2831488251686096, 0.0718366801738739, -0.013912448659539223, -0.2898934483528137, 0.29126155376434326, -0.024667054414749146, -0.05799020081758499, -0.026445448398590088], [-0.1205177903175354, -0.06601811200380325, 0.12661251425743103, 0.21009397506713867, -0.2864636182785034, -0.23693613708019257, 0.14214569330215454, -0.03650924563407898, -0.015114104375243187, -0.2507912516593933, 0.004174323752522469, 0.13050612807273865, 0.03011602722108364, 0.04609423130750656, -0.18234926462173462, 0.12577155232429504, -0.027668045833706856, 0.06489694118499756, 0.09938077628612518, 0.23549534380435944, -0.054788872599601746, -0.26552388072013855, -0.13530132174491882, -0.05208127945661545, -0.02132035233080387, 0.004538495093584061, -0.361759215593338, -0.3139718174934387, -0.26071155071258545, -0.3722408711910248, 0.1379387229681015, 0.25481417775154114], [0.0324956513941288, 0.20006254315376282, 0.30290496349334717, -0.3260728716850281, -0.47692781686782837, 0.16708111763000488, 0.31643664836883545, -0.174955353140831, -0.10622933506965637, 0.05620896443724632, 0.05241420865058899, -0.12711404263973236, -0.07042169570922852, 0.04107287526130676, 0.13695959746837616, -0.25071248412132263, 0.12815526127815247, 0.30916982889175415, -0.05591999739408493, -0.07187258452177048, -0.3119087517261505, 0.001091896090656519, -0.18477565050125122, -0.2544329762458801, 0.040078744292259216, 0.18659844994544983, -0.18595832586288452, 0.15494611859321594, -0.005934620276093483, 0.03238002210855484, 0.29288923740386963, 0.012347915209829807], [0.08124975860118866, -0.08374816179275513, -0.04811808466911316, -0.03755026310682297, 0.1457003653049469, 0.009829135611653328, -0.148227721452713, -0.2633829116821289, 0.116802878677845, -0.008301004767417908, 0.12064799666404724, -0.1496637910604477, 0.02486756257712841, -0.22748559713363647, -0.03565390408039093, 0.16387498378753662, -0.057137973606586456, 0.3109087347984314, -0.06167066842317581, -0.23593781888484955, 0.16252651810646057, -0.2423376441001892, 0.16388309001922607, -0.1855468451976776, -0.04330029338598251, 0.10648321360349655, -0.02927142009139061, 0.0715748518705368, 0.36029675602912903, -0.10075604170560837, -0.3084859251976013, -0.4031178653240204], [-0.12482020258903503, 0.11686006188392639, 0.20080488920211792, 0.007309265434741974, 0.027669506147503853, -0.13080038130283356, -0.0972573459148407, -0.22664344310760498, -0.2503776550292969, -0.027580641210079193, 0.005247581750154495, -0.052154965698719025, -0.33680087327957153, -0.08064888417720795, -0.18408505618572235, -0.16726115345954895, 0.11367930471897125, 0.1203378215432167, 0.02573337033390999, 0.14155706763267517, 0.43767639994621277, 0.10314548015594482, -0.3280722498893738, 0.3001727759838104, -0.08114853501319885, 0.002510438673198223, -0.40515047311782837, -0.22161689400672913, -0.09347397089004517, -0.2564380168914795, 0.043687138706445694, 0.26736339926719666], [-0.08345605432987213, -0.2824437618255615, 0.2984849810600281, -0.13081896305084229, -0.10669654607772827, -0.2158525586128235, 0.12659525871276855, -0.025954093784093857, 0.07485011965036392, 