{"params": {"Dense_0": {"0+": {"bias": [-0.03627058118581772, -0.0031047421507537365, -0.014883184805512428, 0.0262006726115942, -0.01946653053164482, -0.011718018911778927, -0.01288100890815258, 0.040777165442705154, -0.0010653085773810744, 0.057701095938682556, 0.014926297590136528, 0.012099257670342922, -0.024287018924951553, 0.055183425545692444, 0.022414613515138626, -0.0041081588715314865, -0.023202627897262573, -0.016473788768053055, -0.024144845083355904, -0.005664128344506025, -0.03048349730670452, 0.01662469655275345, 0.012673143297433853, -0.020743610337376595, -0.07018575072288513, -0.024271005764603615, -0.018475867807865143, -0.0035268538631498814, -0.05608248710632324, 0.0026847077533602715, -0.004251806065440178, 0.014695805497467518], "kernel": [[-0.037782687693834305, 0.2297196090221405, -0.03027873858809471, 0.04343332350254059, 0.11998836696147919, 0.12284215539693832, -0.21631428599357605, 0.25457531213760376, 0.15811681747436523, -0.13557353615760803, 0.02390984073281288, 0.21469101309776306, -0.4001706838607788, -0.5007835626602173, -0.025944923982024193, -0.29876112937927246, -0.03947862237691879, 0.3683459758758545, -0.12432554364204407, 0.22955097258090973, 0.09170322865247726, 0.12150599807500839, -0.17550483345985413, 0.16762499511241913, 0.34382563829421997, 0.17076408863067627, 0.2869876027107239, -0.015344927087426186, -0.27793365716934204, -0.14062750339508057, 0.061713382601737976, 0.1857730746269226], [0.05568492040038109, -0.055366046726703644, -0.10480634868144989, -0.37687671184539795, 0.26660260558128357, 0.2009682059288025, -0.2754572033882141, 0.028279412537813187, 0.26576757431030273, -0.019303813576698303, 0.198196142911911, -0.025373905897140503, -0.021768048405647278, -0.10539871454238892, 0.10613880306482315, -0.1420390009880066, 0.1260216236114502, -0.10846900939941406, -0.24844257533550262, 0.03353508561849594, 0.060324251651763916, 0.03354184702038765, 0.2949828505516052, -0.19018703699111938, -0.028775472193956375, -0.15936779975891113, -0.25565242767333984, -0.1977028250694275, -0.3971661329269409, -0.0019021000480279326, 0.07366195321083069, 0.2002636194229126], [0.21450671553611755, -0.0653408020734787, -0.20750802755355835, -0.2971283197402954, -0.07044316828250885, -0.2191089391708374, -0.005319254472851753, 0.1825406849384308, -0.012959824874997139, -0.22035756707191467, -0.10826766490936279, -0.2623526453971863, -0.006672785151749849, 0.23558980226516724, -0.05448972433805466, -0.013942591845989227, -0.11854614317417145, -0.037543345242738724, 0.2139761745929718, 0.23890583217144012, 0.07325722277164459, 0.11949970573186874, -0.3522997498512268, 0.10134920477867126, 0.33316779136657715, -0.20791266858577728, 0.14833244681358337, 0.08014693111181259, 0.28703075647354126, 0.1751246452331543, 0.1013306975364685, 0.03021681122481823], [0.10351189225912094, 0.0861702561378479, -0.2127482295036316, -0.05060996487736702, 0.12245113402605057, -0.023741507902741432, -0.06364603340625763, 0.005973995663225651, 0.004956670105457306, -0.1893741488456726, 0.035375237464904785, 0.0935593694448471, 0.0589861236512661, 0.16209909319877625, -0.1499037891626358, 0.048364073038101196, -0.08649879693984985, -0.2527640461921692, -0.02202761545777321, -0.12220768630504608, 0.3062551021575928, 0.01009119488298893, -0.19561827182769775, -0.19794008135795593, 0.20475590229034424, -0.16321440041065216, 0.36834171414375305, -0.12790176272392273, 0.11992534250020981, -0.046296678483486176, -0.0064623658545315266, -0.2080729901790619], [-0.2520633935928345, -0.019377704709768295, 0.26086950302124023, -0.06255447864532471, 0.03145681694149971, 0.07670506834983826, -0.03102235123515129, -0.14818094670772552, 0.2268713414669037, -0.03334050998091698, 0.10424567759037018, -0.05775125324726105, 0.17163702845573425, -0.026140347123146057, 0.1862591803073883, -0.06430366635322571, 0.1519625186920166, 0.18840545415878296, 0.020901475101709366, 0.18751028180122375, 0.05362826585769653, -0.21743547916412354, -0.050129614770412445, -0.08323302119970322, -0.09148618578910828, -0.1911366581916809, 0.009250333532691002, 0.050324697047472, -0.02971375361084938, 0.23364681005477905, -0.08498811721801758, 0.08944682776927948], [-0.000641251914203167, 0.08921370655298233, 0.2271912842988968, -0.0710921585559845, 0.15919911861419678, 0.12458260357379913, -0.22577697038650513, 0.21477274596691132, 0.01738547533750534, -0.25949549674987793, -0.04918836057186127, 0.1561647653579712, 0.19762805104255676, 0.18996340036392212, 0.10384657979011536, 0.10800206661224365, -0.18106943368911743, 0.14858973026275635, 0.12554475665092468, 0.07905910909175873, -0.12617097795009613, -0.2536695599555969, -0.1659330427646637, -0.06067243218421936, 0.2142578363418579, 0.0573505163192749, 0.17007091641426086, -0.2091899812221527, 0.07710118591785431, -0.05829314887523651, -0.3321996331214905, -0.009568263776600361], [-0.17267929017543793, -0.19120588898658752, 0.09676468372344971, -0.012957844883203506, -0.020153693854808807, 0.07019761204719543, 0.13374686241149902, 0.004782288335263729, -0.0027546558994799852, -0.42823299765586853, -0.04342496395111084, 0.026030559092760086, 0.0427054688334465, -0.19181132316589355, 0.1366187334060669, 0.31249678134918213, 0.12309572100639343, -0.10716654360294342, -0.10457870364189148, 0.0637219101190567, -0.13035282492637634, 0.22148694097995758, 0.1594531238079071, 0.21528539061546326, -0.4121275544166565, 0.12668991088867188, 0.06977270543575287, -0.36243587732315063, 0.16532357037067413, -0.32157909870147705, 0.2618272304534912, 0.19995249807834625], [-0.15273788571357727, 0.06234639137983322, -0.3626953363418579, -0.06928902864456177, -0.03882182762026787, 0.08191471546888351, -0.23009684681892395, -0.14906364679336548, -0.1482129991054535, 0.3009408116340637, 0.19901683926582336, 0.33177465200424194, -0.03892828896641731, -0.0005514500662684441, -0.09467743337154388, -0.08402535319328308, -0.20272624492645264, 0.12591172754764557, -0.07919107377529144, 0.04468771070241928, -0.1497075855731964, 0.008405346423387527, -0.10952192544937134, 0.27904772758483887, 0.17887896299362183, -0.2983481287956238, -0.19884639978408813, 0.023609962314367294, -0.016765713691711426, -0.06847436726093292, 0.200089231133461, -0.17625057697296143], [-0.10163432359695435, 0.03739013150334358, -0.3324493169784546, 0.0806175172328949, -0.021167028695344925, -0.3291757106781006, 0.03645886480808258, -0.016947682946920395, -0.06596048176288605, -0.23681533336639404, 0.06764231622219086, -0.24850289523601532, 0.11790722608566284, 0.045099880546331406, 0.19598513841629028, -0.06174010783433914, -0.09044840186834335, 0.0007364721386693418, -0.056410323828458786, 0.20787207782268524, -0.09448587894439697, -0.29194337129592896, 0.017771147191524506, 0.22688300907611847, 0.07706697285175323, -0.12245869636535645, 0.05865202471613884, -0.18629752099514008, 0.4198559522628784, -0.018249638378620148, 0.060742493718862534, -0.17331567406654358], [0.16679203510284424, 0.10257013142108917, 0.21238118410110474, 0.1914638876914978, 0.12194111198186874, 0.1331721842288971, -0.08974765241146088, 0.15325239300727844, -0.06634465605020523, -0.012200463563203812, -0.240347221493721, 0.0490381233394146, -0.19304612278938293, -0.09927336126565933, -0.031158775091171265, -0.19850113987922668, -0.3868044912815094, -0.07144775986671448, -0.06307844817638397, 0.19237419962882996, -0.10589120537042618, -0.10426115244626999, 0.045459333807229996, -0.07427079230546951, -0.12402290105819702, -0.2963525950908661, 0.08551900088787079, -0.06504977494478226, -0.2128770351409912, 0.2132427990436554, -0.16233232617378235, 0.020530302077531815], [0.12747016549110413, -0.12582644820213318, -0.026590216904878616, 0.022195233032107353, -0.15162134170532227, -0.11073227226734161, 0.05436986684799194, -0.04771031439304352, 0.0076576960273087025, 0.11641401797533035, 0.04985252022743225, 0.2769237160682678, 0.10918276011943817, 0.22641322016716003, 0.12740249931812286, 0.19945105910301208, -0.017088886350393295, -0.017659563571214676, 0.0072643812745809555, -0.08980008214712143, -0.11172355711460114, 0.14722749590873718, -0.025012146681547165, 0.08248955011367798, 0.15035274624824524, 0.2008143663406372, -0.06694341450929642, -0.013545256108045578, 0.06923376023769379, 0.17892184853553772, 0.1263699233531952, 0.27350711822509766], [0.14713388681411743, -0.0007063618395477533, 0.1459837555885315, 0.2398436814546585, -0.3379506468772888, 0.19694411754608154, 0.27149713039398193, -0.16621676087379456, 0.10717043280601501, 0.034146226942539215, 0.0015194397419691086, -0.23753949999809265, -0.17103774845600128, 0.45419609546661377, 0.17590507864952087, 0.08042082190513611, -0.0012402955908328295, -0.059662431478500366, -0.014204511418938637, 0.2796997129917145, 0.24456718564033508, 0.134634330868721, -0.01185394637286663, -0.08386239409446716, -0.06236981600522995, 0.17233002185821533, -0.3177347183227539, 0.2245837152004242, 0.12055432796478271, 0.022697165608406067, -0.05155076086521149, 0.11308018863201141], [0.16539081931114197, -0.07018923759460449, -0.18013226985931396, -0.014045570977032185, 0.23378679156303406, -0.17123347520828247, 0.08983750641345978, -0.014564650133252144, 0.21165528893470764, -0.19115883111953735, -0.03492128476500511, -0.08880084753036499, -0.10433484613895416, -0.14778396487236023, -0.03323755040764809, -0.04497872292995453, -0.297597736120224, 0.2623259425163269, -0.1250266134738922, 0.17498204112052917, -0.07007797062397003, -0.010591926984488964, 0.07309526205062866, 0.04501692205667496, 0.1401389241218567, -0.21583206951618195, -0.008051080629229546, 0.16742591559886932, -0.18838056921958923, -0.0030315141193568707, 0.10679144412279129, -0.07162262499332428], [0.13021382689476013, -0.11133866012096405, -0.10781146585941315, -0.17112529277801514, -0.4024438261985779, -0.11990545690059662, 0.04916694015264511, -0.06972955912351608, -0.19025680422782898, -0.06906755268573761, 0.10488148778676987, 0.259442538022995, -0.010423721745610237, -0.2077968269586563, -0.10135628283023834, 0.28859710693359375, -0.2446354627609253, 0.1911446452140808, -0.006629465147852898, -0.22415122389793396, 0.12317241728305817, -0.20679205656051636, -0.13790670037269592, -0.049345746636390686, 0.03535274416208267, 0.2850032448768616, 0.023907549679279327, -0.049052976071834564, 0.07643269002437592, 0.09895013272762299, -0.36879974603652954, -0.18931683897972107], [-0.06906291097402573, -0.254408597946167, 0.06850630044937134, -0.058110885322093964, -0.1401897519826889, -0.11237595975399017, -0.17782637476921082, -0.176631361246109, -0.17181813716888428, 0.37355536222457886, 0.1315450370311737, -0.2284601926803589, -0.14965496957302094, 0.39076289534568787, -0.20453432202339172, -0.3292667865753174, 0.11399705708026886, 0.0580136775970459, 0.14943058788776398, 0.04271840304136276, 0.01811431348323822, 0.08962532132863998, 0.024200376123189926, -0.07450024783611298, -0.03061896562576294, 0.1632276177406311, 0.19910462200641632, 0.20141422748565674, -0.3423460125923157, -0.07191683351993561, -0.25391045212745667, -0.07792407274246216], [0.18096637725830078, 0.17930752038955688, 0.2706608772277832, 0.08452445268630981, 0.14950783550739288, -0.2518623173236847, 0.17953237891197205, 0.08391740918159485, -0.11296107620000839, -0.12093856930732727, -0.12012657523155212, 0.38547420501708984, 0.1031995639204979, -0.04509606584906578, 0.3153111934661865, 0.18040308356285095, -0.24108657240867615, -0.06367737054824829, 0.26563242077827454, -0.10750521719455719, 0.006407276727259159, -0.007525699213147163, 0.23367369174957275, 0.07093159854412079, 0.14156073331832886, 0.2372387945652008, 0.0332573801279068, 0.2019379436969757, 0.11116042733192444, -0.025156989693641663, -0.1125979870557785, -0.12744177877902985], [0.14823734760284424, -0.007164378650486469, 0.05327426642179489, 0.04588478058576584, 0.1441364735364914, -0.07363345474004745, -0.024799145758152008, 0.010587438941001892, 0.2365231215953827, -0.1289055347442627, -0.0076900445856153965, 0.07209406793117523, 0.06452570110559464, -0.31304988265037537, -0.07154624164104462, -0.18673419952392578, 0.07985604554414749, -0.19450244307518005, -0.007318112067878246, 0.21043062210083008, -0.298758864402771, 0.06325741112232208, 0.1124340072274208, -0.31866905093193054, -0.3936704993247986, 0.02434474602341652, 0.05421670153737068, 0.03354956954717636, 0.06293132901191711, -0.03903917968273163, 0.05303823947906494, 0.052324917167425156], [-0.3403794765472412, -0.1869181990623474, -0.013129491358995438, -0.007413974963128567, 0.26724326610565186, 0.30817991495132446, 0.13113676011562347, -0.19163015484809875, -0.3214384615421295, -0.05718369409441948, 0.14405179023742676, 0.08924353122711182, -0.055863842368125916, -0.1409447193145752, -0.12539339065551758, -0.28364744782447815, -0.05942101776599884, 0.1708500236272812, -0.02564488723874092, -0.17864477634429932, 0.014187376946210861, 0.11208122223615646, -0.0015429388731718063, 0.10457996279001236, -0.05561772733926773, -0.058979377150535583, -0.13357996940612793, 0.056807197630405426, -0.04847927391529083, 0.22127343714237213, -0.09457867592573166, 0.012327244505286217], [-0.2811043858528137, -0.049815066158771515, -0.31951624155044556, 0.19008386135101318, -0.20718711614608765, 0.18653057515621185, -0.17404550313949585, -0.2241078019142151, 0.00948562566190958, -0.1829426884651184, 0.06308650970458984, -0.020285839214920998, -0.037541069090366364, -0.020244117826223373, 0.14073452353477478, 0.3351133465766907, -0.2847388982772827, -0.29013127088546753, -0.09310351312160492, -0.12724050879478455, -0.32739442586898804, -0.17825564742088318, 0.34106308221817017, -0.2425140142440796, -0.20753934979438782, 0.02043735608458519, -0.21997560560703278, -0.18675047159194946, -0.2511650323867798, -0.07493007928133011, -0.18350769579410553, 0.12373197078704834], [-0.11686630547046661, -0.2856709361076355, 0.13339665532112122, 0.19131657481193542, -0.034555915743112564, -0.1872090995311737, -0.0010749541688710451, 0.12881258130073547, -0.02301865816116333, 0.34663254022598267, -0.15542633831501007, 0.15020132064819336, -0.3262578845024109, -0.199880912899971, -0.0451895147562027, -0.16670212149620056, 0.11223229020833969, 0.1892380267381668, -0.23849640786647797, -0.10629533976316452, -0.04653550684452057, -0.009877425618469715, -0.17464494705200195, 0.03169076517224312, 0.011963341385126114, -0.2596217393875122, -0.1419685184955597, 0.1403864026069641, -0.21929171681404114, -0.12717048823833466, 0.09137006849050522, 0.06928636878728867], [0.06383916735649109, 0.011851953342556953, -0.07016503065824509, 0.01244620606303215, 0.17166051268577576, 0.07436756044626236, -0.08336801081895828, 0.09937633574008942, -0.14235129952430725, 0.06417054682970047, 0.0651056244969368, 0.08873200416564941, -0.257046639919281, -0.018483933061361313, -0.203596293926239, -0.2407301813364029, -0.13346916437149048, 0.12871727347373962, 0.022943861782550812, 0.11372680962085724, -0.20342440903186798, -0.03256416320800781, -0.3192060887813568, 0.0747360810637474, -0.2161739468574524, -0.15397757291793823, -0.08606083691120148, -0.11991986632347107, -0.14233547449111938, 0.21338099241256714, 0.279147207736969, 0.1829320788383484], [-0.04008777067065239, -0.012447703629732132, -0.1521320641040802, 0.05328332632780075, 0.03622988983988762, -0.17525199055671692, 0.3131484389305115, -0.17794227600097656, -0.15804940462112427, 0.28604841232299805, -0.10843747854232788, 0.09740734100341797, -0.4321080148220062, -0.26123523712158203, -0.1401355266571045, 0.24364563822746277, -0.18509453535079956, 0.11033612489700317, 0.10432318598031998, -0.25939151644706726, -0.24386225640773773, -0.26736581325531006, -0.11674197763204575, 0.17162293195724487, -0.37368959188461304, 0.08203956484794617, 0.220947265625, -0.09523901343345642, -0.3667111396789551, -0.010632148012518883, 0.20704486966133118, -0.18572941422462463], [-0.045529335737228394, 0.061368051916360855, -0.15583069622516632, -0.03173957020044327, -0.22923234105110168, 0.29959073662757874, -0.21890699863433838, -0.11942487955093384, 0.07302560657262802, 0.13687381148338318, 0.06427068263292313, 0.012339435517787933, 0.272777795791626, -0.13164818286895752, 0.22585710883140564, 0.21511977910995483, -0.1797974407672882, -0.1259537935256958, 0.2346523106098175, -0.009112881496548653, 0.18486247956752777, 0.008205434307456017, -0.013703245669603348, -0.027975454926490784, 0.10324700176715851, -0.19074884057044983, 0.039667949080467224, 0.3209132254123688, 0.020864814519882202, -0.031017139554023743, 0.3093704581260681, 0.06346169114112854], [-0.2718377113342285, 0.2613864541053772, -0.06459632515907288, -0.19994984567165375, -0.08406269550323486, -0.07442651689052582, -0.0187351256608963, 0.2874026894569397, 0.12528184056282043, 0.18361863493919373, 0.3652039170265198, 0.23245976865291595, -0.1491667479276657, 0.2514148950576782, 0.06139837205410004, -0.1159883439540863, 0.07996713370084763, -0.13695287704467773, -0.060809724032878876, -0.17094415426254272, 0.3456763029098511, 0.0341348797082901, 0.29550063610076904, -0.0729597955942154, 0.2482326477766037, -0.03723523020744324, 0.009961148723959923, 0.016188273206353188, 0.014507034793496132, 0.3474888205528259, -0.17757080495357513, 0.23636773228645325], [0.30319392681121826, 0.23331773281097412, -0.1553044617176056, -0.11592564731836319, 0.2996951937675476, 0.22832965850830078, 0.12687590718269348, -0.17600664496421814, -0.1837996542453766, -0.13669344782829285, 0.0051820045337080956, -0.017303474247455597, 0.3934375047683716, -0.07511478662490845, 0.014235466718673706, -0.17932409048080444, 0.2465701401233673, -0.16496582329273224, -0.07569319009780884, 0.2793932557106018, 0.02815144509077072, 0.1213950514793396, -0.18689393997192383, 0.2972169816493988, 0.34726470708847046, -0.1357395499944687, 0.027359701693058014, -0.2550544738769531, -0.03411227464675903, -0.16708582639694214, -0.06697205454111099, -0.1180926039814949], [-0.16027890145778656, -0.2548568844795227, 0.2721526622772217, -0.13479658961296082, -0.026516299694776535, 0.18862052261829376, -0.28714194893836975, -0.3377794027328491, 0.3363519608974457, -0.23526091873645782, 0.009234309196472168, -0.3350265622138977, -0.30565959215164185, 0.09848837554454803, -0.10079038888216019, -0.10374075174331665, 0.13247862458229065, -0.009406035766005516, -0.11454220116138458, -0.10235544294118881, -0.2545756697654724, -0.3476807475090027, -0.1995219588279724, -0.33791908621788025, 0.19901639223098755, -0.04560311883687973, -0.15699049830436707, -0.09507930278778076, 0.243360698223114, 0.09028147161006927, 0.14142046868801117, -0.08851055055856705], [-0.13837024569511414, -0.023862365633249283, 0.00854047853499651, 0.24662639200687408, 0.38610219955444336, -0.13242420554161072, -0.011001674458384514, -0.2909628450870514, -0.13380588591098785, -0.1285102218389511, -0.10824015736579895, -0.23875218629837036, 0.1385381519794464, -0.032002754509449005, -0.10396724939346313, -0.006868083029985428, 0.26601481437683105, -0.05318799242377281, 0.12838256359100342, 0.04028112441301346, -0.1460723876953125, -0.022464420646429062, 0.10098965466022491, -0.07446539402008057, 0.09434204548597336, -0.16154739260673523, 0.35061755776405334, 0.1112261712551117, -0.1807936429977417, 0.022051788866519928, 0.26834139227867126, -0.031151624396443367], [0.10109561681747437, -0.05581800267100334, 0.19332419335842133, -0.27027350664138794, 0.0006712930044159293, 0.05954733118414879, -0.2522047758102417, -0.003706702496856451, -0.03859055042266846, -0.1736767590045929, -0.08150733262300491, -0.07159321010112762, 0.04488208144903183, -0.1252109408378601, -0.03865422308444977, 0.04308398813009262, 0.10618719458580017, 0.02840433269739151, 0.16079214215278625, 0.013512536883354187, -0.037477850914001465, 0.09631506353616714, 0.053830791264772415, 0.21541565656661987, -0.057820502668619156, -0.09306803345680237, -0.15218162536621094, -0.028183290734887123, 0.11742403358221054, -0.10077278316020966, -0.2215183973312378, 0.09614460170269012], [0.2072548270225525, -0.07688052952289581, -0.07671284675598145, -0.0053824083879590034, 0.0792224258184433, -0.238067165017128, -0.17616161704063416, 0.22341910004615784, 0.1411207616329193, 0.23521503806114197, 0.00022875500144436955, -0.20725595951080322, 0.17384469509124756, 0.1336471438407898, -0.052477046847343445, -0.22233545780181885, 0.1668841689825058, -0.23234301805496216, -0.22521287202835083, 0.19658929109573364, 0.12055255472660065, -0.019030693918466568, 0.15063664317131042, -0.013493355363607407, 0.3692035675048828, 0.3162682056427002, 0.08034425973892212, -0.2315141260623932, 0.10777363926172256, -0.09694214165210724, -0.2497323751449585, 0.16591253876686096], [-0.0857783704996109, 0.17399755120277405, 0.17713426053524017, -0.1283957064151764, -0.10688968747854233, 0.27754682302474976, 0.060181211680173874, -0.11997336894273758, 0.42626821994781494, -0.23235294222831726, -0.018631327897310257, 0.1390884816646576, 0.20126508176326752, 0.14584961533546448, 0.20498210191726685, 0.14865511655807495, 0.2832162380218506, -0.05198950320482254, 0.0797058567404747, -0.04081318899989128, -0.09316425025463104, -0.14923487603664398, -0.016163295134902, 0.2467757761478424, 0.1417105793952942, -0.2541888356208801, 0.3888292908668518, 0.06481100618839264, 0.1648567020893097, -0.05034390464425087, -0.020992016419768333, -0.09405116736888885], [0.042696475982666016, 0.19381588697433472, 0.11867763847112656, 0.16541072726249695, 0.24476692080497742, 0.3474794030189514, -0.26291510462760925, 0.02079728990793228, 0.07624386996030807, 0.07250012457370758, 0.165516197681427, 0.12111003696918488, 0.26301345229148865, 0.06068249046802521, 0.2087290734052658, -0.0032295421697199345, -0.05672392249107361, -0.16075286269187927, -0.10128147900104523, -0.03185213357210159, -0.1898210048675537, -0.2767195999622345, -0.19631308317184448, -0.04607444256544113, -0.011398178525269032, 0.32800182700157166, 0.04635545611381531, -0.08784940838813782, -0.3011155426502228, 0.26745545864105225, 0.33118170499801636, 0.09161539375782013], [0.10089321434497833, -0.1251741349697113, -0.3039606213569641, 0.2709939479827881, 0.013944568112492561, -0.03804916888475418, 0.2836272716522217, 0.1360834538936615, 0.016299251466989517, 0.22629261016845703, 0.09619636833667755, 0.3084806501865387, 0.1228085607290268, 0.07223459333181381, 0.047985415905714035, 0.14430859684944153, 0.17754444479942322, 0.013230270706117153, -0.2599002718925476, 0.1317945271730423, 0.04028847813606262, 0.11650922894477844, 0.12776854634284973, -0.07789358496665955, -0.12385226786136627, 0.0941896140575409, 0.2543694078922272, -0.21228596568107605, -0.15246737003326416, -0.12805496156215668, -0.20558011531829834, -0.07459216564893723]]}, "1-": {"kernel": [[-0.20707982778549194, 0.14136266708374023, -0.12764647603034973, 0.018936770036816597, -0.1746092140674591, -0.09711343050003052, -0.007487616501748562, -0.04785573109984398, -0.17808422446250916, -0.056966353207826614, -0.30697107315063477, 0.11098401248455048, 0.009863574989140034, -0.2874823808670044, -0.10955145955085754, 0.07839047163724899, -0.2350025773048401, -0.08264045417308807, -0.09951776266098022, 0.31486284732818604, -0.20938606560230255, 0.2288617044687271, -0.14877209067344666, -0.3311294913291931, 0.22733145952224731, -0.04637923091650009, 0.025827690958976746, 0.36129385232925415, -0.05410159379243851, 0.10317330807447433, -0.060748979449272156, -0.24871385097503662], [0.004801283590495586, 0.08228354156017303, -0.4179067611694336, -0.08452195674180984, 0.2541660964488983, 0.25357353687286377, -0.04007181152701378, -0.3850747346878052, 0.013858526945114136, 0.09868235886096954, -0.13563190400600433, 0.07591642439365387, -0.04808466508984566, -0.17242732644081116, 0.4674031436443329, -0.06803227961063385, -0.11230185627937317, 0.0020317803137004375, 0.28063535690307617, -0.20216168463230133, -0.015300022438168526, -0.2189430445432663, 0.23457938432693481, -0.14637930691242218, 0.18885904550552368, -0.006949943490326405, 0.05950981006026268, -0.07729470729827881, 0.10675856471061707, -0.08138777315616608, 0.0786605179309845, -0.018175877630710602], [0.2244560718536377, -0.014615444466471672, -0.34182071685791016, 0.04970087856054306, 0.03670088201761246, -0.24807657301425934, -0.05246435105800629, -0.3222029507160187, -0.11372789740562439, 0.07342461496591568, 0.2592068910598755, 0.11368942260742188, 0.36024290323257446, 0.34939146041870117, -0.08439739048480988, -0.0204181931912899, 0.29316991567611694, -0.006670418661087751, 0.030561892315745354, -0.19182872772216797, 0.17079594731330872, 0.025630788877606392, -0.1583620309829712, 0.05347028747200966, 0.3419802188873291, -0.13551642000675201, -0.15008610486984253, 0.04476730525493622, 0.23574799299240112, 0.15932288765907288, -0.22003138065338135, -0.07290463894605637], [-0.060448646545410156, -0.04345561936497688, -0.10530021786689758, -0.31866455078125, -0.26924052834510803, -0.032664019614458084, -0.26133644580841064, -0.09547823667526245, 0.38102251291275024, 0.21872678399085999, 0.06582147628068924, -0.1396787464618683, -0.007882628589868546, -0.05418657884001732, 0.047095462679862976, -0.0450015664100647, 0.03046903945505619, -0.0095372861251235, -0.2512832283973694, 0.17607969045639038, 0.11642421782016754, -0.2371920943260193, -0.38084831833839417, -0.3496060371398926, 0.1241464912891388, -0.04262528568506241, -0.1112656444311142, 0.31610357761383057, -0.2596811056137085, 0.17963215708732605, -0.2147233933210373, -0.015384793281555176], [0.23306502401828766, 0.04685819149017334, -0.1297191083431244, -0.12443390488624573, 0.019479598850011826, 0.26297426223754883, 0.029540883377194405, -0.08123141527175903, -0.060817260295152664, 0.028312433511018753, -0.08961676806211472, 0.2666943073272705, -0.06654182076454163, -0.05043653026223183, -0.24818210303783417, 0.09373947978019714, -0.09023091197013855, -0.18965129554271698, 0.21739861369132996, 0.10822251439094543, -0.23501399159431458, 0.10815875232219696, 0.10121288150548935, -0.02691076323390007, -0.216683030128479, -0.10078321397304535, 0.3006804585456848, 0.05114462599158287, -0.008550548925995827, 0.19525182247161865, -0.08676109462976456, -0.0773935467004776], [0.23962366580963135, -0.07183706760406494, -0.14881989359855652, 0.39224517345428467, -0.014039838686585426, -0.05169784277677536, -0.0802043229341507, 0.17871533334255219, 0.1223125159740448, -0.05387506261467934, 0.039575278759002686, -0.3634154796600342, 0.44380253553390503, 0.3742457628250122, -0.20226594805717468, -0.10706707835197449, 0.2160942405462265, 0.11995654553174973, 0.07585758715867996, 0.1076182872056961, -0.10112297534942627, -0.000691207533236593, 0.1838969737291336, 0.04431319609284401, 0.05804397165775299, -0.13051863014698029, -0.025044552981853485, -0.1249699741601944, 0.020490996539592743, 0.06287714838981628, -0.33969682455062866, -0.2455725073814392], [-0.11529216170310974, 0.09202881157398224, 0.1035684123635292, 0.16017654538154602, -0.2943522036075592, -0.22397257387638092, -0.08496082574129105, 0.012752201408147812, 0.022573430091142654, -0.5289446115493774, -0.1114809513092041, -0.04236430674791336, -0.283339262008667, 0.11277802288532257, 0.37001317739486694, 0.21773865818977356, 0.38538846373558044, -0.0084562748670578, -0.12969648838043213, -0.10481968522071838, 0.0224736500531435, -0.1570228636264801, 0.1639634519815445, -0.20407485961914062, -0.4524269700050354, -0.1369871199131012, 0.24653644859790802, 0.21106702089309692, 0.1374318152666092, 0.00046648771967738867, -0.3075278401374817, 0.18213209509849548], [-0.00481608510017395, 0.014887767843902111, 0.0961228609085083, -0.10283835232257843, 0.03746738284826279, 0.00690129678696394, 0.29122018814086914, 0.09963378310203552, 0.08322937786579132, -0.1125357449054718, 0.011641247197985649, -0.11209554970264435, -0.04228101670742035, 0.05588793754577637, -0.04045608639717102, 0.16551271080970764, -0.2703530788421631, 0.21290063858032227, 0.19311806559562683, 0.29318496584892273, -0.042263373732566833, -0.1438053995370865, -0.0669027715921402, 0.21599744260311127, -0.12165900319814682, 0.21954244375228882, -0.11229085922241211, 0.03091411665081978, -0.014615489169955254, 0.15195530652999878, 0.07114173471927643, -0.11314155161380768], [-0.08831511437892914, 0.21012559533119202, -0.24357566237449646, 0.19391755759716034, 0.23637986183166504, 0.1454792320728302, 0.22471708059310913, 0.21898069977760315, -0.028977587819099426, -0.15818850696086884, 0.09236705303192139, -0.028886254876852036, 0.1897120326757431, -0.14958083629608154, 0.2864019274711609, -0.03593145310878754, -0.03314036875963211, -0.02113068662583828, 0.0937594324350357, 0.0756109356880188, -0.17948052287101746, -0.09425950050354004, -0.040204450488090515, 0.0036513376981019974, 0.06845352053642273, -0.3219006657600403, 0.07954827696084976, -0.048424527049064636, -0.21515056490898132, 0.001495555741712451, 0.13207580149173737, -0.013768274337053299], [-0.11924239248037338, -0.0555332750082016, -0.22043055295944214, 0.28999900817871094, 0.18633104860782623, 0.22297853231430054, 0.05072212219238281, 0.20994403958320618, -0.22493401169776917, -0.023282187059521675, -0.013969868421554565, -0.024787448346614838, -0.022487647831439972, -0.19442394375801086, -0.11816969513893127, -0.10930222272872925, -0.07028669118881226, 0.09369027614593506, 0.1603909134864807, 0.13325807452201843, 0.02368500456213951, 0.25491398572921753, -0.2198941707611084, 0.019418111070990562, 0.15166760981082916, 0.03765467554330826, -0.30895429849624634, 0.3285447657108307, -0.10939955711364746, 0.23981471359729767, -0.004942223429679871, 0.14765802025794983], [-0.17907118797302246, -0.022651659324765205, -0.004995116963982582, -0.027962051331996918, 0.09817023575305939, 0.141767218708992, 0.38813477754592896, -0.3400871157646179, -0.11978092789649963, 0.055997319519519806, -0.027643950656056404, -0.11337263882160187, -0.3506171703338623, 0.028083141893148422, 0.11852158606052399, 0.11594396084547043, 0.21338151395320892, -0.19483906030654907, -0.20161700248718262, 0.1876857876777649, 0.035461537539958954, 0.023710714653134346, -0.019764576107263565, -0.0950935035943985, 0.24398523569107056, -0.13122665882110596, 0.03670485317707062, -0.3917779326438904, -0.2919136881828308, -0.21603314578533173, 0.13582120835781097, 0.21137413382530212], [0.01934795081615448, 0.005636125802993774, 0.30626827478408813, -0.20039236545562744, 0.015383299440145493, -0.20082567632198334, 0.14025521278381348, -0.1485089659690857, -0.004505832679569721, -0.0035129510797560215, 0.260763943195343, 0.12816780805587769, -0.026335744187235832, 0.10421775281429291, -0.0612943097949028, 0.06183065474033356, -0.1543753743171692, -0.17599742114543915, -0.009631547145545483, -0.010148675180971622, 0.0318574421107769, 0.13140647113323212, -0.004328074865043163, 0.2526130974292755, 0.044208232313394547, 0.3196835219860077, 0.14117805659770966, -0.12089250981807709, 0.19702617824077606, -0.06091761589050293, 0.20858445763587952, 0.005694046150892973], [0.14351658523082733, -0.18577879667282104, -0.001956775551661849, -0.0968531146645546, 0.10847845673561096, 0.07842943072319031, -0.0010387370130047202, -0.04280238598585129, 0.07206176221370697, 0.11032377183437347, -0.09399726241827011, 0.19703887403011322, -0.048081956803798676, -0.018092986196279526, -0.10271728038787842, -0.0837242528796196, -0.2987009286880493, 0.2310066819190979, -0.16022728383541107, -0.008095094934105873, -0.15833336114883423, 0.04265240579843521, -0.10242274403572083, 0.12184007465839386, 0.2539292573928833, 0.09069682657718658, -0.030914921313524246, -0.04498952254652977, 0.017442533746361732, 0.2381635308265686, 0.08710941672325134, 0.07059302926063538], [0.10266643762588501, -0.1970849335193634, 0.028605232015252113, -0.05007973313331604, 0.019078679382801056, 0.34794944524765015, 0.33752402663230896, -0.022496646270155907, 0.3824593722820282, 0.07234633713960648, -0.3133917450904846, 0.07618870586156845, 0.03959520906209946, -0.029025167226791382, 0.17268677055835724, -0.03912182152271271, -0.19805562496185303, -0.3901563286781311, 0.11256474256515503, 0.0647251158952713, -0.08464887738227844, 0.1372232735157013, 0.1136028915643692, 0.2726675868034363, -0.2632180452346802, -0.003836276475340128, 0.0700906366109848, 0.0834302306175232, 0.1986963152885437, 0.12792538106441498, 0.028384650126099586, 0.13250531256198883], [-0.10542318224906921, -0.032968632876873016, -0.09133447706699371, 0.2738614082336426, 0.1817890852689743, 0.05499441176652908, -0.18254999816417694, -0.10174848139286041, -0.0439768061041832, -0.2924685478210449, 0.34272149205207825, -0.16294339299201965, -0.3136720359325409, 0.21251901984214783, 0.2642919421195984, -0.25134825706481934, -0.18881887197494507, -0.06194748729467392, -0.20597779750823975, -0.1637822538614273, 0.0015486818738281727, -0.047426048666238785, -0.0027083908207714558, 0.09881900250911713, -0.02270510420203209, -0.3972163498401642, -0.30841270089149475, -0.006139677949249744, -0.03069114498794079, -0.19830119609832764, -0.1693194955587387, 0.15660405158996582], [0.06110049784183502, -0.1195010393857956, 0.10115283727645874, 0.20213621854782104, 0.18069283664226532, 0.29033952951431274, -0.11733052134513855, -0.048295632004737854, -0.14376500248908997, 0.07641252875328064, 0.04465470090508461, -0.15847858786582947, 0.4482761323451996, 0.16983529925346375, -0.17039349675178528, 0.40659767389297485, -0.32080402970314026, -0.24128203094005585, 0.3908150792121887, -0.1357385814189911, -0.07751195132732391, 0.2431386411190033, -0.1263982206583023, -0.027754224836826324, 0.10861873626708984, 0.17867159843444824, -0.23893508315086365, -0.12069220840930939, -0.05355575680732727, -0.15472260117530823, 0.026826689019799232, -0.1010538637638092], [0.07161618024110794, 0.3173443078994751, 0.3115030527114868, -0.0505373440682888, 0.1663232147693634, 0.2759840488433838, 0.2859657406806946, 0.11716001480817795, 0.1441536843776703, -0.22626517713069916, 0.060769155621528625, -0.10201579332351685, 0.04104228690266609, 0.049322888255119324, 0.18803708255290985, -0.3760472536087036, 0.23009788990020752, 0.1160292774438858, 0.06572151929140091, 0.0474056750535965, -0.07166802883148193, -0.0008577060070820153, 0.09938022494316101, -0.06175510585308075, -0.3201577067375183, -0.1113344132900238, 0.05336468666791916, 0.11816799640655518, -0.1852899044752121, 0.27887189388275146, -0.3532998859882355, 0.46977585554122925], [0.1178615540266037, -0.25746792554855347, -0.14412426948547363, -0.11017107218503952, -0.25002020597457886, -0.10418371856212616, -0.12172664701938629, 0.24401713907718658, 0.0219084732234478, -0.33004283905029297, 0.3587607741355896, 0.1962447464466095, 0.2587347626686096, -0.002640590537339449, -0.2875748574733734, -0.14732688665390015, 0.012631179764866829, -0.3685281574726105, -0.2195490598678589, -0.24878662824630737, 0.250230997800827, -0.14349690079689026, -0.4986196458339691, 0.12929129600524902, 0.3076472580432892, 0.11492007970809937, -0.4194788336753845, 0.20510050654411316, 0.051838263869285583, -0.12939687073230743, -0.17158852517604828, -0.3003154993057251], [0.1134844720363617, 0.08197958767414093, 0.09256617724895477, 0.2328556329011917, -0.04548802971839905, -0.21744772791862488, 0.2878516614437103, -0.2118275761604309, 0.1933823972940445, 0.41124284267425537, 0.07055902481079102, -0.2580413818359375, -0.1593213975429535, -0.08974356949329376, -0.1259663701057434, 0.011634329333901405, -0.03639689460396767, 0.01544484868645668, 0.08852401375770569, -0.16326522827148438, -0.09856842458248138, 0.22615909576416016, -0.2799326777458191, 0.1810252070426941, -0.02916119620203972, 0.19549188017845154, 0.17565831542015076, 0.1286076307296753, 0.056587353348731995, -0.21176373958587646, -0.21618399024009705, 0.05009846389293671], [0.13068872690200806, 0.1691502034664154, 0.22474291920661926, -0.049328699707984924, -0.12202998995780945, 0.21103522181510925, -0.1225544735789299, 0.1650816649198532, 0.17222681641578674, 0.042137980461120605, -0.13266155123710632, -0.10503675043582916, 0.012788115069270134, -0.07026731967926025, -0.059088848531246185, -0.08059298992156982, -0.0015689004212617874, -0.1391812562942505, 0.014028158038854599, 0.09983118623495102, 0.08869394659996033, -0.10749121010303497, 0.19180579483509064, 0.10851481556892395, 0.09839195013046265, -0.17202338576316833, -0.007599443197250366, 0.12106527388095856, 0.029513981193304062, 0.2343556135892868, -0.11003389954566956, -0.24498587846755981], [-0.19026964902877808, 0.12772563099861145, -0.25436532497406006, -0.09345558285713196, 0.1582220494747162, 0.12496946007013321, -0.038228556513786316, -0.19104546308517456, 0.16381067037582397, 0.15397776663303375, 0.016071688383817673, -0.30946195125579834, 0.09834007918834686, -0.29142045974731445, 0.1501692831516266, -0.33884167671203613, -0.030060723423957825, -0.0018601010087877512, 0.17700591683387756, -0.09750214219093323, -0.10228438675403595, 0.21673792600631714, 0.008884868584573269, 0.21234667301177979, -0.13681134581565857, 0.07276714593172073, 0.33832553029060364, -0.1631997525691986, 0.07488962262868881, 0.0806545540690422, -0.19042518734931946, 0.25005608797073364], [0.11752165108919144, -0.12604102492332458, 0.2256838083267212, 0.32416194677352905, 0.22097247838974, -0.24134883284568787, -0.11659841239452362, 0.03520779311656952, 0.008674714714288712, 0.11384792625904083, 0.15714091062545776, 0.0058259558863937855, -0.21433855593204498, 0.056408997625112534, -0.15367889404296875, -0.15986360609531403, -0.15287500619888306, -0.2876356840133667, 0.05050378292798996, 0.3841996490955353, 0.06240171194076538, 0.13526375591754913, 0.32608598470687866, 0.2083730697631836, 0.21141380071640015, -0.1240691989660263, -0.08734148740768433, -0.26268965005874634, 0.030191589146852493, 0.13282707333564758, -0.02422051504254341, -0.07730791717767715], [-0.19705596566200256, -0.3131881356239319, 0.010061203502118587, 0.09331360459327698, 0.26620715856552124, -0.1631608009338379, -0.01941150426864624, 0.270413875579834, -0.012852028012275696, -0.11315447092056274, -0.09668949246406555, -0.10305531322956085, 0.0167247224599123, -0.06922097504138947, -0.013430660590529442, 0.04861489683389664, 0.18287351727485657, -0.10644166171550751, 0.17484062910079956, -0.15186306834220886, 0.18092474341392517, -0.12226906418800354, 0.18099620938301086, 0.23611465096473694, 0.10024888813495636, 0.2712971568107605, 0.1467011570930481, 0.2690039277076721, 0.15628057718276978, -0.07507365942001343, 0.1263582706451416, -0.010786785744130611], [0.00693943165242672, -0.24677062034606934, -0.14609187841415405, 0.06928561627864838, -0.030841074883937836, -0.03843928873538971, -0.14364473521709442, -0.05095267295837402, -0.11522860825061798, -0.08827657997608185, -0.1377086043357849, -0.17053547501564026, 0.23829832673072815, 0.2907295227050781, -0.44645339250564575, -0.0905284509062767, 0.27717024087905884, -0.2680460512638092, 0.062377847731113434, -0.15325859189033508, -0.06160189211368561, -0.17102792859077454, -0.05045534670352936, 0.026941239833831787, -0.03510352224111557, -0.04063767194747925, -0.3217264413833618, -0.3536287546157837, 0.029526427388191223, 0.1246490627527237, 0.07629485428333282, -0.03887578845024109], [-0.34244102239608765, 0.16994820535182953, -0.2444155216217041, -0.341941773891449, 0.2228134274482727, 0.08621250838041306, 0.09106132388114929, 0.21688224375247955, -0.22356820106506348, 0.15391778945922852, 0.0736955851316452, 0.32205963134765625, 0.45635509490966797, -0.06562149524688721, 0.07437446713447571, 0.12325587123632431, -0.16371718049049377, -0.46718156337738037, -0.0483304038643837, 0.32655784487724304, -0.012752787210047245, -0.20116186141967773, -0.024316374212503433, -0.0709872841835022, 0.08973729610443115, -0.053075019270181656, 0.07705430686473846, -0.04150377959012985, 0.016128642484545708, 0.09244339168071747, 0.1987171471118927, 0.07675956189632416], [0.03766012191772461, 0.16976699233055115, 0.061868660151958466, -0.10995325446128845, -0.16739484667778015, 0.11203436553478241, 0.017042864114046097, 0.08207149803638458, -0.020986994728446007, -0.17262151837348938, 0.31260356307029724, -0.2498885691165924, -0.1782393753528595, -0.018295718356966972, 0.17423969507217407, 0.07615172863006592, 0.13910260796546936, 0.1189478188753128, 0.10951565206050873, -0.1736554354429245, 0.2376585453748703, 0.047218166291713715, 0.019090993329882622, 0.22325795888900757, 0.19996246695518494, -0.008362412452697754, 0.13898175954818726, 0.37765032052993774, -0.1582205891609192, 0.09055141359567642, -0.3156003952026367, 0.33028948307037354], [0.22681641578674316, -0.29952335357666016, 0.10805559158325195, -0.043115414679050446, -0.20118530094623566, -0.22761082649230957, 0.01733497902750969, -0.09196630120277405, 0.15119212865829468, -0.3776344358921051, -0.2606467604637146, -0.34658247232437134, -0.1533273160457611, -0.11913281679153442, 0.1365204155445099, 0.1345808506011963, 0.23957690596580505, 0.07010221481323242, -0.08771075308322906, -0.1270589679479599, 0.05993281677365303, 0.3909255266189575, 0.22205816209316254, -0.014169888570904732, 0.21771246194839478, -0.20655123889446259, -0.14973445236682892, 0.03377775102853775, -0.26474207639694214, -0.27291595935821533, 0.24069342017173767, -0.283035010099411], [-0.013639828190207481, -0.3542667627334595, 0.19238907098770142, 0.15981650352478027, 0.08772750943899155, -0.024672305211424828, 0.10842530429363251, -0.14657950401306152, -0.14374737441539764, 0.4649062752723694, 0.14617711305618286, -0.08361595869064331, 0.23573315143585205, 0.0353502482175827, 0.2502369284629822, -0.07434937357902527, 0.04435283690690994, 0.18213924765586853, -0.1995546817779541, -0.13511718809604645, -0.15536877512931824, -0.14448460936546326, 0.0941213071346283, -0.003915077541023493, 0.2313196361064911, -0.08576923608779907, -0.09480910003185272, 0.1425206959247589, 0.013542781583964825, 0.22552970051765442, -0.10183659195899963, 0.014407746493816376], [0.009797502309083939, 0.10019233822822571, 0.05404256284236908, -0.08218167722225189, -0.14130929112434387, -0.07865177094936371, 0.12559330463409424, 0.41886788606643677, -0.04485425353050232, -0.051556944847106934, 0.3628675639629364, -0.0822354108095169, 0.014671491459012032, -0.25962507724761963, -0.09661492705345154, 0.10484246909618378, -0.26201093196868896, -0.21028588712215424, 0.01009366288781166, -0.10490527749061584, -0.01897890865802765, -0.03394840657711029, 0.17179319262504578, -0.07476966083049774, 0.022938378155231476, 0.1600276380777359, -0.209975004196167, -0.08656992763280869, 0.012585939839482307, 0.3069918751716614, -0.11641203612089157, -0.21975953876972198], [0.009422431699931622, -0.07628530263900757, 0.026042934507131577, 0.15783384442329407, 0.20334893465042114, -0.12526679039001465, 0.012258484959602356, -0.06696368008852005, -0.19859978556632996, -0.06799796223640442, -0.1529730260372162, -0.09485510736703873, 0.3267638683319092, -0.22490161657333374, -0.1288214921951294, 0.10394871234893799, 0.07842226326465607, -0.284432053565979, -0.2385292798280716, 0.15511825680732727, 0.04981439560651779, -0.2161465287208557, 0.1706407070159912, 0.16427336633205414, -0.000423717952799052, -0.13429492712020874, -0.25788581371307373, 0.0783492773771286, 0.32319438457489014, 0.1751939207315445, 0.20701047778129578, -0.4004868268966675], [0.018384641036391258, 0.09542755782604218, -0.09962819516658783, 0.14901648461818695, -0.041410453617572784, -0.036245301365852356, 0.1772322803735733, 0.25133538246154785, -0.13370540738105774, -0.005350958555936813, 0.12044532597064972, 0.09320343285799026, 0.08869309723377228, -0.2457643449306488, -0.02541682869195938, -0.13042688369750977, 0.28976112604141235, 0.012639007531106472, -0.29920053482055664, -0.041478775441646576, 0.13757315278053284, -0.1412103772163391, 0.1218143031001091, -0.12573283910751343, 0.137583389878273, -0.21410603821277618, -0.08843116462230682, 0.005199860781431198, 0.010068254545331001, -0.09501088410615921, -0.37799718976020813, 0.275318443775177], [0.02043541520833969, 0.22644251585006714, 0.05455158278346062, -0.04645180702209473, -0.1470150649547577, 0.050684187561273575, -0.1534118950366974, 0.25073665380477905, -0.02957962080836296, 0.0767880231142044, -0.16106002032756805, -0.18542440235614777, 0.38734138011932373, -0.030128076672554016, -0.156694233417511, 0.025836244225502014, 0.04731820523738861, -0.09098581969738007, -0.1348831057548523, -0.31356579065322876, 0.12421117722988129, -0.08016054332256317, 0.2564876675605774, 0.07374854385852814, 0.09880580008029938, -0.12293404340744019, -0.383533775806427, -0.20759065449237823, -0.01074574701488018, -0.1793714016675949, 0.13421513140201569, 0.2015809714794159]]}, "2+": {"kernel": [[0.08660366386175156, -0.15465761721134186, -0.094645194709301, 0.09487012773752213, -0.2546003460884094, 0.2690633237361908, 0.1737080216407776, -0.13823117315769196, 0.020019395276904106, 0.21131840348243713, 0.2849297821521759, 0.15716767311096191, -0.27147501707077026, -0.10675238072872162, -0.25971823930740356, 0.05007948726415634, -0.2765970230102539, 0.2545734643936157, -0.3149186670780182, -0.09545440971851349, -0.26388096809387207, -0.15681231021881104, 0.2721235454082489, -0.08164148032665253, -0.05185618996620178, 0.1536683589220047, 0.011841222643852234, -0.0018979581072926521, -0.15773546695709229, -0.059829749166965485, -0.1629297435283661, -0.030542990192770958], [0.1387280523777008, -0.05401897430419922, 0.13454744219779968, 0.028503604233264923, -0.03312231972813606, 0.2920742332935333, 0.34846025705337524, -0.12286409735679626, 0.024652855470776558, 0.07124332338571548, 0.1846250295639038, 0.09369656443595886, 0.14632779359817505, -0.17250573635101318, -0.2451220154762268, -0.06530043482780457, 0.05021626502275467, 0.27141010761260986, -0.23853647708892822, -0.143196702003479, 0.44639045000076294, -0.23215216398239136, 0.09676137566566467, 0.2068423181772232, -0.01414458267390728, 0.4538024067878723, 0.19046416878700256, 0.01956973597407341, 0.09994634985923767, 0.1981053352355957, -0.0048050833866000175, -0.1545461118221283], [0.06368504464626312, 0.360746830701828, -0.11509335041046143, -0.043358415365219116, 0.08861923217773438, -0.26670801639556885, 0.21533755958080292, -0.023257210850715637, 0.06177252531051636, 0.21108677983283997, -0.33432066440582275, 0.09182912856340408, 0.21094699203968048, -0.09920366108417511, -0.31970614194869995, -0.2594013214111328, -0.35555440187454224, -0.1694106161594391, 0.134418785572052, -0.09401452541351318, -0.12027758359909058, -0.046411070972681046, 0.24205031991004944, -0.3537290692329407, -0.0636136382818222, 0.1497996747493744, 0.15342572331428528, -0.22202304005622864, 0.013399207033216953, -0.36559998989105225, -0.09208746254444122, -0.22208267450332642], [-0.04173503816127777, 0.055181294679641724, 0.0664147436618805, 0.061094366014003754, 0.24036234617233276, -0.18469727039337158, 0.14329472184181213, 0.2628878355026245, 0.17557528614997864, -0.16910295188426971, 0.011804141104221344, -0.16681858897209167, 0.15033066272735596, -0.018008297309279442, -0.25249773263931274, -0.027286889031529427, -0.23296146094799042, 0.2842509150505066, -0.14811326563358307, 0.2457617074251175, -0.005536322481930256, 0.07995431870222092, 0.13628330826759338, 0.16765277087688446, 0.13125327229499817, 0.03546535223722458, -0.08509507030248642, -0.13993579149246216, -0.11602757126092911, -0.1776968240737915, 0.12513187527656555, -0.06328341364860535], [-0.2186194211244583, -0.1431151032447815, -0.08257917314767838, -0.16520148515701294, 0.05877300351858139, 0.16690361499786377, -0.00039394234772771597, 0.2653195858001709, 0.11643459647893906, -0.014435680583119392, 0.21424147486686707, 0.11375308781862259, -0.052604060620069504, 0.0808199793100357, 0.23536482453346252, 0.2867310047149658, -0.3377493619918823, 0.025631733238697052, -0.10075559467077255, -0.0007329685613512993, -0.10767418146133423, 0.2991325259208679, -0.31300607323646545, 0.09833154082298279, 0.18239769339561462, 0.1597844958305359, -0.17680348455905914, 0.13671287894248962, 0.24372893571853638, 0.07294073700904846, -0.11020678281784058, -0.3163667917251587], [0.3750877380371094, 0.04829174652695656, 0.0641697496175766, -0.09942051768302917, 0.34483879804611206, -0.2374122142791748, 0.17329955101013184, -0.03942006826400757, -0.25960326194763184, -0.27323997020721436, -0.21091604232788086, 0.04000864923000336, -0.013620198704302311, 0.09234720468521118, 0.12388555705547333, 0.09418028593063354, -0.23945452272891998, 0.11481630802154541, -0.1517758071422577, -0.09199240803718567, 0.03206903487443924, -0.06471452116966248, 0.16416500508785248, 0.01306189876049757, 0.0062651000916957855, -0.20018307864665985, -0.16922980546951294, -0.2640078365802765, -0.26775920391082764, -0.015213248319923878, -0.21442502737045288, -0.2456311285495758], [0.31006598472595215, -0.11842530965805054, -0.17168059945106506, -0.15801604092121124, 0.16968904435634613, -0.12575146555900574, -0.1639004796743393, 0.09590913355350494, 0.08985188603401184, -0.0944843590259552, -0.09897449612617493, -0.20656900107860565, 0.07768571376800537, 0.15784627199172974, -0.05566135048866272, -0.010350486263632774, 0.18525978922843933, 0.08372505009174347, -0.004753405228257179, -0.10857583582401276, 0.03317935764789581, -0.06367246806621552, 0.16619481146335602, -0.16917428374290466, -0.13459628820419312, 0.046428464353084564, 0.13944394886493683, -0.24552121758460999, -0.1216878741979599, -0.008535224944353104, -0.033701784908771515, 0.1777375340461731], [0.047531552612781525, -0.10559441894292831, -0.07916043698787689, 0.22762128710746765, -0.03698676824569702, 0.22596612572669983, 0.17494158446788788, 0.31238335371017456, 0.20173229277133942, 0.2928474545478821, -0.006271767430007458, -0.09564106911420822, 0.12050275504589081, -0.03187340497970581, -0.11943025141954422, 0.2262253314256668, -0.1768856942653656, 0.29033416509628296, -0.15974017977714539, -0.15346574783325195, 0.29030656814575195, -0.0663594901561737, 0.09523102641105652, -0.3773270845413208, 0.4229733943939209, 0.25500309467315674, -0.24091583490371704, -0.007337534800171852, -0.0828973650932312, 0.043280456215143204, 0.20821541547775269, -0.00669782655313611], [-0.21352246403694153, -0.04676046967506409, -0.1685052216053009, -0.09575236588716507, 0.29308146238327026, 0.34734219312667847, -0.17602205276489258, 0.243325874209404, 0.017571119591593742, -0.12686865031719208, 0.16448597609996796, -0.15827403962612152, -0.3639530539512634, 0.35178834199905396, 0.3622662425041199, -0.15027961134910583, 0.12977921962738037, -0.03094557672739029, 0.2735161781311035, 0.1832651048898697, 0.011169154196977615, -0.297010600566864, 0.2098911851644516, -0.28759562969207764, -0.039234358817338943, 0.3697868287563324, 0.13681258261203766, 0.06960651278495789, 0.12373540550470352, 0.37806808948516846, 0.20418840646743774, -0.01784953847527504], [-0.031866490840911865, -0.29230985045433044, -0.017679693177342415, 0.032530948519706726, -0.11293290555477142, 0.2996041178703308, 0.15530355274677277, -0.18404757976531982, 0.09091974794864655, -0.05279035121202469, 0.12240980565547943, 0.15047988295555115, 0.21084392070770264, -0.2692785859107971, 0.015934128314256668, 0.1288791447877884, -0.016368389129638672, -0.14038896560668945, 0.007492026314139366, 0.05211766064167023, 0.3743790090084076, 0.12359189987182617, 0.16605044901371002, -0.01744641736149788, -0.02764955535531044, -0.13174575567245483, -0.20556512475013733, -0.12935763597488403, -0.00031117768958210945, -0.344985693693161, 0.19018305838108063, 0.195331409573555], [-0.2893713116645813, 0.1390884816646576, -0.011039149016141891, 0.11237676441669464, -0.25278741121292114, -0.19639696180820465, -0.05289306491613388, -0.005769108887761831, -0.170343279838562, 0.31573164463043213, 0.2534932494163513, 0.12296600639820099, 0.33817431330680847, 0.07010041922330856, -0.07450610399246216, -0.12619446218013763, -0.05563269555568695, -0.27809780836105347, 0.05182027071714401, -0.30989736318588257, 0.09103188663721085, 0.3492928743362427, 0.1260741651058197, -0.2383723258972168, 0.1402709037065506, -0.011855916120111942, 0.4059118926525116, -0.012046340852975845, 0.2075158804655075, -0.03572715073823929, -0.04255996271967888, -0.14862868189811707], [-0.210056871175766, 0.1262759566307068, 0.3321387767791748, 0.0595988854765892, -0.1849546730518341, -0.25884735584259033, 0.2326115369796753, 0.2047545164823532, 0.15080060064792633, 0.07303281128406525, -0.10063745081424713, -0.2707621455192566, 0.06748250126838684, 0.1836707442998886, -0.08587558567523956, -0.17721247673034668, -0.20943012833595276, -0.04096870869398117, -0.048064544796943665, 0.2444370985031128, -0.23637209832668304, -0.016586773097515106, -0.15192429721355438, -0.18026788532733917, 0.048850733786821365, 0.0399964302778244, 0.311527818441391, -0.06140316277742386, 0.1241389587521553, 0.033384207636117935, -0.35961830615997314, -0.1043398529291153], [-0.3817301392555237, 0.0576898492872715, 0.27304282784461975, -0.02085176855325699, 0.21025799214839935, -0.17468956112861633, -0.11000244319438934, -0.22885762155056, 0.038519032299518585, 0.27252697944641113, 0.29005157947540283, -0.2075941264629364, -0.018161669373512268, 0.42874908447265625, 0.09403933584690094, -0.08735361695289612, 0.18970930576324463, -0.05602570250630379, -0.23737207055091858, -0.04926258698105812, -0.06735656410455704, -0.2944943308830261, -0.25463834404945374, -0.0072503844276070595, -0.09455271065235138, -0.16169539093971252, -0.05319150537252426, 0.12106683850288391, -0.20737934112548828, 0.15763112902641296, -0.17905333638191223, 0.3434731662273407], [0.02495010755956173, 0.20955723524093628, -0.02300557680428028, -0.13203507661819458, -0.05957214534282684, 0.04781337082386017, 0.00930769369006157, -0.2485315203666687, -0.0229790061712265, -0.20106437802314758, -0.19964224100112915, -0.11835487186908722, -0.3346777558326721, 0.27683866024017334, 0.20548158884048462, 0.22761273384094238, 0.05495360866189003, 0.08819206804037094, -0.23166771233081818, -0.013770930469036102, 0.3643960952758789, -0.015586599707603455, 0.5071735382080078, -0.2157314419746399, 0.09461541473865509, -0.33936333656311035, -0.07124029099941254, -0.021165411919355392, -0.11513344198465347, 0.15746092796325684, 0.037115007638931274, -0.22812244296073914], [-0.1970987766981125, -0.2522502839565277, 0.3180055320262909, -0.08801913261413574, -0.11889249086380005, 0.23086392879486084, 0.29887622594833374, -0.2375471144914627, 0.30660128593444824, 0.026013996452093124, -0.3089277744293213, 0.3127020597457886, 0.20229318737983704, 0.2695240378379822, 0.24457070231437683, 0.01882166974246502, -0.2308674156665802, -0.37504905462265015, -0.25141629576683044, 0.08742468059062958, -0.03630825877189636, -0.14916691184043884, 0.30407464504241943, 0.026534821838140488, -0.16837573051452637, -0.2964346408843994, 0.1292586624622345, 0.02415776625275612, 0.3105589747428894, 0.2777627408504486, 0.3307490348815918, 0.29714351892471313], [0.22592467069625854, -0.06329402327537537, 0.044302619993686676, -0.07405415177345276, -0.04591620713472366, 0.09055027365684509, -0.03971068561077118, -0.21075566112995148, -0.0316576324403286, 0.259818434715271, 0.05432464927434921, -0.009375203400850296, -0.47772306203842163, 0.17883096635341644, -0.21095985174179077, 0.16916051506996155, 0.19871550798416138, 0.24898545444011688, 0.002927504712715745, -0.05619494616985321, 0.2554072439670563, 0.05999724194407463, 0.18802136182785034, -0.24882203340530396, 0.21223244071006775, 0.14290453493595123, -0.14764779806137085, 0.13207805156707764, 0.12226288765668869, 0.27359524369239807, -0.064011350274086, -0.19849026203155518], [-0.0013028006069362164, 0.11272770166397095, -0.2538570761680603, -0.09185171872377396, 0.2108961045742035, 0.03355883061885834, -0.05123995989561081, -0.0435224324464798, -0.05641432851552963, 0.01602279394865036, 0.04247206449508667, -0.16416460275650024, 0.17524577677249908, -0.003029010258615017, 0.3052648901939392, -0.20428013801574707, 0.0762258917093277, 0.29403364658355713, 0.00789390504360199, 0.24753338098526, 0.03711105138063431, -0.08367882668972015, 0.02044472098350525, -0.1277109682559967, 0.03640274703502655, -0.010410748422145844, 0.06562355160713196, -0.23964613676071167, 0.208731546998024, -0.1778341382741928, 0.21188336610794067, 0.1559307873249054], [0.1199910044670105, -0.05937927961349487, 0.28815793991088867, -0.30135154724121094, 0.07556158304214478, -0.10643364489078522, 0.33779415488243103, -0.07550474256277084, -0.014324355870485306, -0.0792204812169075, -0.11597248911857605, -0.4218713641166687, 0.09669414162635803, 0.453248530626297, -0.14491204917430878, -0.09754429757595062, 0.05305466055870056, 0.11514885723590851, 0.08212636411190033, -0.057969674468040466, 0.1562890112400055, -0.143064945936203, 0.0845351442694664, -0.10777165740728378, -0.34654420614242554, 0.12522777915000916, 0.12659962475299835, -0.021972153335809708, 0.06455118954181671, -0.09154550731182098, -0.34921836853027344, 0.19715151190757751], [0.1039869487285614, 0.0031766248866915703, -0.3174307942390442, 0.08873225748538971, 0.1253071129322052, 0.021346330642700195, -0.06095940247178078, -0.08154450356960297, 0.15607525408267975, -0.1438332200050354, -0.07906065881252289, -0.08562816679477692, 0.12471891939640045, 0.20231521129608154, 0.08164335787296295, 0.007575834635645151, 0.11693857610225677, 0.05746271461248398, -0.042994700372219086, -0.13696743547916412, -0.11009162664413452, -0.0005742431967519224, 0.016320178285241127, -0.26432374119758606, 0.0883546769618988, 0.15907472372055054, -0.18911339342594147, -0.18557427823543549, 0.06052248924970627, -0.039351604878902435, -0.14427335560321808, 0.3622647523880005], [-0.012027380988001823, 0.06672832369804382, -0.24084492027759552, 0.17327767610549927, -0.05649873614311218, 0.229732483625412, -0.267528235912323, -0.2772980034351349, -0.32479357719421387, -0.08085668832063675, 0.055338699370622635, -0.17741599678993225, 0.03865137696266174, 0.01208304800093174, -0.06584741175174713, 0.15383505821228027, 0.19301436841487885, 0.11467791348695755, -0.17976266145706177, -0.17867228388786316, -0.001651887665502727, 0.07132092118263245, 0.2668510675430298, -0.20217816531658173, 0.04401654005050659, 0.2315647006034851, -0.24842892587184906, 0.13407212495803833, 0.3116411566734314, -0.004375026095658541, -0.2568203806877136, 0.3236941695213318], [0.10283015668392181, -0.03151232749223709, 0.21468853950500488, -0.07026053965091705, -0.025655509904026985, -0.3686346411705017, -0.023288778960704803, 0.008544775657355785, -0.09329169988632202, -0.2730864882469177, 0.13561788201332092, 0.39988118410110474, 0.20024850964546204, -0.16571007668972015, 0.22348569333553314, -0.35125088691711426, 0.12741684913635254, 0.05637044459581375, -0.04506240040063858, -0.254334032535553, 0.2779545187950134, 0.3336940109729767, -0.030534615740180016, -0.16041995584964752, -0.0961482971906662, -0.2893630266189575, -0.016498833894729614, -0.12783467769622803, -0.31231069564819336, 0.10535640269517899, 0.17719294130802155, -0.27394360303878784], [-0.17042414844036102, 0.3128502368927002, 0.44237738847732544, 0.013426464051008224, 0.12435737997293472, -0.1461496502161026, -0.032946232706308365, -0.2370196282863617, -0.0357012078166008, -0.2495344579219818, -0.04761655256152153, -0.1474890410900116, -0.26468855142593384, -0.14956194162368774, 0.0623653307557106, 0.4121076464653015, 0.29276952147483826, -0.31085509061813354, 0.1317196786403656, 0.007044557016342878, 0.019086357206106186, -0.003775188932195306, 0.1957366019487381, -0.0104382848367095, -0.05241655558347702, 0.3757295608520508, 0.21935690939426422, 0.19782927632331848, -0.049124982208013535, 0.18000507354736328, -0.2621641755104065, 0.143909752368927], [0.17502140998840332, -0.00923091173171997, -0.18455344438552856, 0.1952982395887375, -0.2247925102710724, -0.18382593989372253, 0.04902561008930206, -0.03135247528553009, -0.14036110043525696, 0.028398804366588593, -0.19886240363121033, 0.1292586624622345, 0.1962088942527771, 0.0025107478722929955, -0.25333380699157715, 0.18533585965633392, 0.06360863149166107, -0.049098603427410126, -0.12262076139450073, -0.09135924279689789, 0.03419186919927597, -0.053779035806655884, 0.17966151237487793, 0.13399262726306915, 0.16622444987297058, 0.11729742586612701, -0.04645372927188873, -0.05372721329331398, -0.11612123250961304, -0.03581839054822922, 0.05514582619071007, 0.2852024435997009], [0.026386354118585587, 0.2084079086780548, 0.1612962931394577, 0.12771661579608917, -0.10775570571422577, -0.24358710646629333, 0.27394211292266846, -0.05824443697929382, -0.09107843041419983, -0.12093360722064972, -0.10971921682357788, 0.034123316407203674, -0.29351508617401123, 0.2776312232017517, 0.23973330855369568, -0.205597385764122, 0.1392892301082611, -0.16936761140823364, -0.06381560117006302, -0.22225633263587952, 0.10276204347610474, -0.05220533534884453, -0.047165397554636, -0.22584030032157898, -0.02640589140355587, -0.11564340442419052, 0.1309482306241989, -0.04697081446647644, 0.1344214677810669, 0.2437308430671692, -0.18300217390060425, -0.2930496335029602], [0.30635708570480347, 0.04657938331365585, 0.15140563249588013, 0.048263635486364365, -0.06992530822753906, -0.3135625123977661, -0.008940795436501503, -0.1726178228855133, -0.26889556646347046, 0.11041335016489029, -0.0947926789522171, 0.21915476024150848, 0.21265625953674316, -0.09493957459926605, -0.2255556732416153, -0.30568379163742065, 0.09815222024917603, -0.10094502568244934, 0.03682009130716324, -0.10747791826725006, 0.013597842305898666, -0.05417231470346451, -0.0622839480638504, -0.19086158275604248, -0.17017006874084473, -0.043017320334911346, 0.17714127898216248, -0.15705519914627075, -0.207704097032547, -0.25251448154449463, -0.1430715024471283, 0.2654108703136444], [-0.2593691945075989, -0.010477996431291103, 0.07247906923294067, 0.07222586125135422, -0.01858045905828476, -0.3267991244792938, 0.36742669343948364, 0.2062908560037613, -0.2687929570674896, 0.09715536236763, 0.21756146848201752, 0.05907313898205757, 0.3170071840286255, 0.1571047604084015, 0.2755333185195923, 0.05134369432926178, -0.09783186763525009, -0.12920299172401428, -0.26533782482147217, 0.22663332521915436, 0.17144177854061127, 0.1782849282026291, -0.18670912086963654, 0.2732303738594055, 0.1097288653254509, -0.19215027987957, 0.10455454885959625, 0.02334257960319519, 0.35572120547294617, -0.06454713642597198, 0.17398640513420105, -0.22820577025413513], [-0.02588105946779251, -0.19077721238136292, 0.13898850977420807, -0.05264494940638542, -0.16006073355674744, -0.2170182168483734, -0.05516159534454346, 0.12128464132547379, 0.1875998079776764, -0.06989690661430359, -0.3073614835739136, 0.1936723291873932, 0.08310224115848541, -0.23440271615982056, 0.10029574483633041, 0.1389646828174591, -0.19366797804832458, 0.05524081736803055, -0.0370304249227047, 0.08476553857326508, 0.06222578138113022, 0.20793461799621582, -0.1515851765871048, -0.1662370264530182, 0.031077265739440918, 0.12184332311153412, 0.18102200329303741, 0.2030792534351349, 0.30762913823127747, 0.09814375638961792, -0.037717338651418686, -0.05845775455236435], [-0.03520762175321579, -0.03553691878914833, 0.023932499811053276, -0.15685468912124634, -0.13902457058429718, 0.4078557789325714, -0.022091679275035858, -0.04499569535255432, 0.3317710757255554, -0.20001128315925598, 0.037710607051849365, 0.36707574129104614, 0.17531463503837585, 0.24408340454101562, -0.3655044436454773, 0.1207161471247673, -0.023711787536740303, -0.3186642825603485, -0.2757794260978699, 0.12192763388156891, -0.42738795280456543, 0.11575714498758316, 0.06283442676067352, -0.2799277603626251, -0.2560660243034363, -0.44836997985839844, 0.17840217053890228, 0.13419324159622192, -0.026970405131578445, 0.1042311042547226, -0.3050585687160492, 0.1964520663022995], [0.13875332474708557, 0.1496812105178833, -0.028352145105600357, -0.06241296976804733, 0.18285492062568665, 0.19448740780353546, 0.25957828760147095, -0.14603224396705627, -0.02391863614320755, 0.0018030826468020678, -0.22755292057991028, 0.07329198718070984, 0.044775672256946564, -0.17976197600364685, 0.018842358142137527, -0.04702804237604141, -0.15460428595542908, 0.13503527641296387, -0.4399041533470154, 0.23940154910087585, 0.01887301728129387, -0.07071049511432648, -0.017064005136489868, 0.07476909458637238, 0.15196508169174194, -0.12162181735038757, -0.13792064785957336, -0.08614784479141235, 0.004657045938074589, -0.045132577419281006, -0.15196694433689117, 0.07171109318733215], [-0.07949355244636536, -0.15215227007865906, 0.01654241234064102, -0.014589790254831314, 0.04066319763660431, -0.19172143936157227, -0.09699034690856934, -0.16519412398338318, -0.22642439603805542, -0.13077238202095032, 0.2785598039627075, -0.052173908799886703, -0.056800514459609985, -0.3148280382156372, -0.1994425356388092, 0.10276980698108673, 0.19779135286808014, -0.003965234383940697, -0.16044822335243225, 0.06485855579376221, -0.20592349767684937, -0.010481073521077633, 0.02878112718462944, 0.0850633829832077, 0.07342081516981125, 0.20243999361991882, 0.23243695497512817, 0.10394836962223053, -0.0680202841758728, 0.20924103260040283, -0.07191025465726852, 0.030119743198156357], [0.14749716222286224, 0.19503837823867798, 0.19368286430835724, -0.09959840029478073, 0.0345626063644886, -0.0696357861161232, 0.024303695186972618, -0.15942922234535217, 0.22069667279720306, -0.27895140647888184, 0.3549678921699524, -0.12341296672821045, 0.21217700839042664, -0.41446882486343384, 0.04418438300490379, 0.3740929961204529, -0.0170322023332119, 0.023536428809165955, 0.0897318422794342, -0.022219832986593246, -0.12047408521175385, -0.10071255266666412, -0.28659480810165405, -0.06231151148676872, -0.11692379415035248, 0.22447791695594788, 0.00014432544412557036, 0.3365418314933777, -0.06537207961082458, 0.1200646460056305, 0.02052203007042408, -0.28354471921920776], [0.15414339303970337, -0.19532258808612823, -0.07455237209796906, -0.2493557631969452, -0.17665010690689087, -0.06372448801994324, -0.06587091833353043, -0.04595863074064255, 0.08442927896976471, -0.08794349431991577, 0.41941311955451965, 0.16974352300167084, 0.12001034617424011, 0.3636586666107178, 0.20477046072483063, 0.22799217700958252, 0.0183134526014328, -0.11907880008220673, -0.32697659730911255, 0.03577083349227905, -0.18368053436279297, -0.13598471879959106, -0.05504187196493149, -0.025729095563292503, -0.03361738100647926, 0.14901331067085266, -0.03367343544960022, 0.06255077570676804, 0.037587568163871765, 0.09934960305690765, 0.174170583486557, -0.004661601036787033]]}, "3-": {"kernel": [[-0.07136829197406769, -0.13570496439933777, -0.04465301334857941, 0.13495048880577087, 0.07774072885513306, -0.08062707632780075, 0.1767929643392563, 0.10244645178318024, 0.06523030996322632, -0.14273962378501892, -0.2051069438457489, 0.067633256316185, -0.18700158596038818, -0.3550637364387512, -0.20066706836223602, 0.20544327795505524, -0.014969178475439548, 0.05946563929319382, -0.026814671233296394, 0.17646580934524536, -0.005448734387755394, -0.1787378489971161, 0.03663095086812973, 0.08171396702528, 0.38733357191085815, -0.20319154858589172, 0.3983563482761383, -0.06025956571102142, -0.2578945755958557, 0.30503523349761963, -0.16344556212425232, -0.01224963553249836], [0.11098575592041016, 0.14346513152122498, 0.4050960838794708, 0.3718734383583069, 0.21857723593711853, 0.1718425750732422, -0.06229821592569351, -0.028086382895708084, -0.16451802849769592, 0.358192503452301, 0.14787590503692627, -0.17726579308509827, -0.1846810281276703, -0.119596466422081, -0.013097045943140984, -0.2025086134672165, -0.09884564578533173, 0.006399465724825859, -0.08846689760684967, 0.041990164667367935, 0.01202973909676075, -0.23157940804958344, 0.12162142246961594, 0.09816591441631317, -0.2765960395336151, -0.43082112073898315, 0.139439195394516, -0.11882613599300385, 0.2613230347633362, 0.0006883488968014717, 0.008243247866630554, 0.3908637762069702], [0.1472407877445221, -0.053098008036613464, 0.39534080028533936, -0.06707130372524261, -0.12493179738521576, -0.1468786597251892, 0.18753179907798767, -0.1739848554134369, -0.15444761514663696, 0.02398775890469551, 0.14288243651390076, -0.12923896312713623, -0.055873263627290726, 0.15192526578903198, 0.14880609512329102, -0.021955329924821854, 0.4015350043773651, 0.01665552146732807, 0.2063354104757309, 0.26103687286376953, 0.24420644342899323, -0.09861420840024948, -0.277235209941864, -0.15071530640125275, -0.0233724657446146, 0.14869731664657593, -0.07925556600093842, 0.3878658413887024, 0.21567092835903168, -0.14540952444076538, 0.04159282147884369, -0.11418011039495468], [-0.029854044318199158, -0.08047255873680115, 0.13909050822257996, 0.07287347316741943, -0.028071235865354538, -0.039409078657627106, -0.12012405693531036, -0.1982681155204773, 0.25066429376602173, -0.2667168974876404, 0.16478994488716125, -0.14790546894073486, 0.045303694903850555, 0.06109682470560074, 0.1692206859588623, -0.11122235655784607, 0.11398380994796753, -0.34211987257003784, 0.06358715146780014, 0.2712708115577698, -0.210886612534523, -0.03865386173129082, 0.043202511966228485, 0.055819377303123474, -0.22620433568954468, 0.04355458915233612, 0.07717552036046982, 0.23357143998146057, -0.0607646182179451, -0.14286556839942932, 0.0651015117764473, 0.06050761044025421], [0.003768129041418433, -0.11339770257472992, 0.0041808998212218285, -0.2746577560901642, -0.0917864665389061, -0.06581112742424011, 0.114071786403656, -0.046074118465185165, 0.34212884306907654, 0.34801387786865234, 0.042065076529979706, -0.18443980813026428, 0.013018079102039337, -0.21495138108730316, -0.30281782150268555, -0.15578216314315796, 0.3804153800010681, -0.017981767654418945, 0.08268138021230698, 0.23701678216457367, 0.029415450990200043, -0.05760611593723297, 0.16860362887382507, -0.181443452835083, -0.08732140809297562, -0.24987028539180756, 0.2394038438796997, -0.165313720703125, -0.10376562923192978, -0.17048731446266174, 0.07170574367046356, -0.036118797957897186], [-0.0910152792930603, 0.007172510493546724, 0.25613415241241455, 0.2343112826347351, -0.2518117129802704, -0.09305519610643387, -0.0383833646774292, -0.13627490401268005, 0.038599759340286255, -0.0824773907661438, 0.04153900220990181, 0.14512160420417786, -0.00269416649825871, 0.10892403870820999, -0.18837183713912964, 0.2692733108997345, -0.11879393458366394, -0.3411634564399719, -0.1635276973247528, 0.41758930683135986, 0.08423218131065369, -0.22698795795440674, -0.31558042764663696, -0.088915154337883, -0.10591927915811539, 0.18389475345611572, -0.08640344440937042, -0.06276461482048035, -0.30104124546051025, 0.1516757309436798, -0.34242117404937744, -0.17294436693191528], [0.2510635256767273, 0.2744830250740051, 0.05110601335763931, 0.21711593866348267, 0.1941451132297516, -0.5099712610244751, -0.027826182544231415, -0.2563117742538452, -0.24636152386665344, -0.08767054229974747, 0.0564437136054039, 0.07466255128383636, -0.08734341710805893, -0.186355859041214, 0.31951582431793213, -0.20765390992164612, -0.004609377589076757, -0.3572695851325989, 0.2295037806034088, -0.12967437505722046, 0.18253831565380096, -0.004786419216543436, -0.044622182846069336, -0.1969403326511383, -0.008586008101701736, 0.2623400092124939, -0.27508699893951416, 0.19668415188789368, 0.08922884613275528, -0.04831106215715408, -0.07578961551189423, 0.31838658452033997], [0.17259138822555542, 0.13489219546318054, -0.2860005497932434, 0.22058315575122833, -0.03423447906970978, 0.11973859369754791, 0.1425611674785614, 0.054203618317842484, -0.041769418865442276, 0.1182212233543396, 0.2017822563648224, -0.09099702537059784, -0.011114418506622314, -0.3109283745288849, 0.01175699569284916, 0.004379266407340765, -0.1438196301460266, -0.031101461499929428, -0.0607561394572258, 0.04873638227581978, 0.13945135474205017, -0.12615635991096497, 0.1818803995847702, 0.34448325634002686, 0.4065135717391968, 0.10310037434101105, -0.04680344834923744, 0.051936663687229156, 0.19580093026161194, -0.097725510597229, -0.19398203492164612, 0.17293192446231842], [-0.3466576933860779, 0.0009829667396843433, 0.14952844381332397, 0.15822041034698486, 0.30782219767570496, -0.17084726691246033, -0.05771626904606819, -0.3197261691093445, 0.12460330873727798, 0.14127755165100098, 0.15683159232139587, -0.07656235992908478, -0.17233727872371674, 0.11518791317939758, 0.23406758904457092, -0.28939929604530334, -0.25132128596305847, -0.006285747513175011, 0.13746121525764465, -0.1516989767551422, -0.17901186645030975, -0.20980122685432434, 0.020626850426197052, 0.23601341247558594, 0.18348629772663116, -0.19353845715522766, -0.17977109551429749, -0.2894684374332428, 0.26277580857276917, -0.10109588503837585, -0.21084098517894745, 0.08853931725025177], [0.06477075815200806, 0.09652896225452423, 0.05539509654045105, -0.32355543971061707, -0.149969220161438, 0.053412239998579025, -0.15168917179107666, -0.1664409339427948, -0.18001168966293335, -0.20933619141578674, 0.22358879446983337, -0.05159939080476761, 0.2858772575855255, 0.34500008821487427, -0.02747858688235283, -0.218491792678833, 0.16578182578086853, -0.28795236349105835, -0.20816028118133545, 0.06592632085084915, -0.1543411761522293, 0.2402072548866272, -0.00504027446731925, 0.08847131580114365, 0.12337189167737961, 0.1948358714580536, 0.0738261491060257, 0.19368405640125275, -0.26383090019226074, -0.07079029083251953, 0.22534358501434326, 0.15505486726760864], [-0.0010269249323755503, 0.07101979851722717, 0.050996214151382446, 0.0597078874707222, -0.00024971101083792746, 0.08945164084434509, 0.04778841882944107, -0.12794137001037598, 0.06682482361793518, 0.08812341839075089, -0.1427215337753296, 0.0071803308092057705, -0.05684904381632805, -0.055342577397823334, 0.27802929282188416, -0.14762216806411743, 0.18302983045578003, -0.00603027269244194, 0.07619956135749817, 0.26862406730651855, -0.017899787053465843, -0.0737580880522728, -0.16409212350845337, 0.1145683079957962, 0.25389403104782104, -0.31145691871643066, 0.009852735325694084, 0.260528564453125, 0.2004401981830597, -0.08617880940437317, -0.16951745748519897, 0.08472400903701782], [0.21217088401317596, 0.04811374098062515, 0.09890347719192505, 0.05828145146369934, -0.2842974066734314, -0.24260282516479492, 0.25672024488449097, -0.20748820900917053, 0.07029165327548981, -0.3040652275085449, 0.1168774887919426, -0.05505726486444473, -0.022181913256645203, 0.1838795244693756, -0.07048799097537994, 0.22012284398078918, 0.36730435490608215, -0.21560506522655487, 0.26663482189178467, -0.13048289716243744, -0.07876791059970856, 0.15986527502536774, -0.1671333760023117, 0.22082921862602234, -0.33296719193458557, 0.014728201553225517, -0.11551383882761002, 0.21368856728076935, -0.1915607452392578, 0.25179368257522583, 0.060768693685531616, 0.0606783851981163], [-0.055788278579711914, 0.1838991492986679, -0.2527642250061035, -0.19769735634326935, 0.3364912271499634, -0.21558460593223572, 0.1486915647983551, 0.31839168071746826, 0.018952205777168274, -0.175662100315094, 0.08038851618766785, -0.05437760800123215, 0.3878912925720215, 0.314481258392334, 0.028936373069882393, 0.06350189447402954, -0.12891623377799988, -0.013740373775362968, 0.30519288778305054, 0.016898438334465027, -0.16371437907218933, 0.035152871161699295, 0.14828643202781677, -0.05273880809545517, -0.03737147897481918, -0.2553768754005432, -0.0009655862813815475, 0.049106016755104065, -0.21102234721183777, -0.2048375904560089, -0.11763753741979599, -0.10360100865364075], [0.29418909549713135, 0.06809677183628082, -0.17981664836406708, 0.36991873383522034, 0.052473582327365875, 0.09491242468357086, 0.1669783890247345, -0.18640431761741638, -0.19850769639015198, 0.11711876094341278, 0.15925782918930054, 0.07684285938739777, -0.19694656133651733, -0.13038058578968048, 0.026257872581481934, -0.11236497759819031, 0.10482892394065857, 0.09491919726133347, -0.27685391902923584, 0.1681123524904251, -0.14676761627197266, 0.19997656345367432, -0.1540045440196991, -0.06157683581113815, 0.1836036741733551, 0.011578213423490524, -0.10417202115058899, 0.12063314020633698, 0.017817899584770203, 0.008048515766859055, -0.11643316596746445, -0.21774232387542725], [-0.049146901816129684, 0.26412123441696167, -0.08474920690059662, 0.03774276375770569, -0.29632699489593506, -0.031012844294309616, 0.018816187977790833, -0.05630914866924286, 0.09992658346891403, -0.16715262830257416, -0.03506719693541527, 0.22639617323875427, 0.11603421717882156, 0.09681597352027893, -0.07388012856245041, -0.26104646921157837, -0.07188059389591217, 0.09733676165342331, -0.21119758486747742, 0.3757646083831787, 0.10706785321235657, 0.07464580237865448, -0.2576406002044678, -0.18552201986312866, 0.05636243894696236, 0.14635631442070007, 0.3427712917327881, -0.15911445021629333, -0.1462399959564209, 0.00638656597584486, 0.09373127669095993, -0.24052909016609192], [0.38190555572509766, -0.17474307119846344, -0.22470779716968536, -0.13646262884140015, -0.26296985149383545, -0.14438346028327942, 0.09318611025810242, -0.25036609172821045, -0.06749293208122253, -0.06635665893554688, -0.0036617573350667953, 0.16853812336921692, 0.09844430536031723, -0.2549799680709839, -0.14537948369979858, 0.1636374294757843, -0.01560899056494236, 0.3751230835914612, -0.23858848214149475, 0.18098971247673035, -0.07513584196567535, 0.145694762468338, -0.1500934660434723, -0.08443975448608398, 0.15078642964363098, 0.13505664467811584, -0.12331050634384155, -0.18072925508022308, 0.17376354336738586, -0.20773988962173462, -0.15309473872184753, -0.022591175511479378], [-0.17944470047950745, -0.3429648280143738, 0.18441414833068848, 0.3087022304534912, -0.2768322825431824, 0.2076096534729004, -0.17321377992630005, -0.17879894375801086, -0.12377174198627472, 0.17722658812999725, -0.14670896530151367, 0.03835181146860123, -0.10780774056911469, 0.07345722615718842, 0.048731230199337006, 0.07420507073402405, -0.17434364557266235, 0.42124223709106445, 0.23393689095973969, -0.2964838147163391, -0.12351706624031067, 0.2886423170566559, 0.2168874442577362, -0.06269460916519165, -0.03397693485021591, -0.389866441488266, -0.18023444712162018, -0.13433080911636353, 0.05870949476957321, 0.08490289002656937, -0.3613191843032837, 0.022976480424404144], [0.08062709867954254, -0.05013590306043625, 0.1779094934463501, 0.02116040512919426, -0.06645484268665314, -0.17241381108760834, -0.05586940795183182, 0.028365857899188995, 0.08909418433904648, 0.012524164281785488, -0.2452835738658905, -0.3687189817428589, 0.007048145402222872, -0.047150567173957825, 0.20764371752738953, -0.16192884743213654, 0.3137668967247009, 0.19301080703735352, -0.19573745131492615, -0.17615020275115967, 0.1355622112751007, -0.08029134571552277, 0.18189284205436707, -0.18699508905410767, 0.3052539825439453, -0.21640244126319885, 0.3237202763557434, -0.3050844669342041, -0.1313767284154892, 0.2884318232536316, -0.1479800045490265, -0.35265177488327026], [-0.1854824721813202, -0.3474697470664978, 0.04854417219758034, -0.15946577489376068, -0.06795495748519897, -0.02686590515077114, 0.18678727746009827, -0.0634322315454483, -0.09534426033496857, -0.2233867347240448, 0.003739427076652646, -0.10883954167366028, 0.01678147166967392, -0.048904675990343094, -0.10459846258163452, 0.049306705594062805, -0.25036317110061646, 0.09440435469150543, -0.23149777948856354, -0.05164860188961029, -0.09107893705368042, -0.2256532609462738, 0.16419142484664917, -0.13824383914470673, -0.030506767332553864, -0.16823309659957886, 0.16154208779335022, -0.40446901321411133, -0.2604200541973114, 0.08794863522052765, -0.11653990298509598, 0.11448843777179718], [0.28789710998535156, 0.18539553880691528, 0.22425219416618347, -0.27648717164993286, -0.04810488224029541, -0.17252713441848755, -0.2406492829322815, 0.11903667449951172, 0.07206513732671738, -0.23315927386283875, 0.14406105875968933, 0.17679175734519958, 0.13491415977478027, 0.17582808434963226, 0.033407650887966156, -0.10208611190319061, 0.0032325289212167263, 0.001641686074435711, 0.011248022317886353, -0.25972169637680054, 0.2128267139196396, -0.05755023658275604, -0.23321273922920227, 0.04689527302980423, 0.059436023235321045, 0.01105490792542696, 0.1551760584115982, -0.22571897506713867, 0.04785025492310524, 0.09659221768379211, -0.12665598094463348, -0.320149302482605], [-0.06670545041561127, -0.008562007918953896, -0.13097065687179565, 0.002451307140290737, -0.08636016398668289, -0.1632889360189438, 0.1293151080608368, -0.3851863145828247, -0.2982698082923889, -0.13271379470825195, 0.071490079164505, 0.13814395666122437, -0.01651204749941826, -0.03588726371526718, 0.019361689686775208, 0.0950392335653305, 0.09660375118255615, 0.020228704437613487, 0.3681768774986267, -0.1749752163887024, 0.0032851030118763447, -0.10370802879333496, 0.2752833366394043, 0.19924838840961456, 0.20688261091709137, -0.0844903513789177, -0.13085812330245972, 0.16688983142375946, 0.11633207648992538, 0.2580563426017761, -0.2672001123428345, 0.38807207345962524], [0.40417835116386414, 0.20178794860839844, -0.025615347549319267, -0.07619598507881165, -0.3797280788421631, -0.07920929044485092, -0.052932437509298325, -0.3689097464084625, 0.08883804082870483, -0.20643635094165802, 0.09061876684427261, -0.284545361995697, -0.01390104740858078, -0.049472786486148834, 0.1283622682094574, 0.4251214265823364, -0.225993812084198, 0.19313210248947144, 0.11147298663854599, 0.19959741830825806, -0.1148938462138176, -0.059172410517930984, -0.08938091993331909, 0.050154633820056915, -0.13735678791999817, -0.062454111874103546, 0.12655675411224365, -0.29892697930336, 0.03392763063311577, 0.3623688817024231, 0.08662207424640656, 0.1628200113773346], [-0.02997906133532524, -0.036601148545742035, 0.0020190568175166845, -0.11261144280433655, -0.010947209782898426, -0.12997731566429138, 0.22306710481643677, 0.10642744600772858, -0.42357492446899414, 0.1427772045135498, 0.13970550894737244, 0.06466272473335266, 0.18155166506767273, -0.30579179525375366, -0.09781846404075623, 0.3117104172706604, 0.001263907179236412, -0.3431079685688019, 0.08250672370195389, 0.3165278434753418, 0.09660475701093674, -0.10688328742980957, -0.009022805839776993, 0.1347513645887375, -0.0036817314103245735, -0.228578120470047, -0.06027570366859436, 0.1576395034790039, 0.008924839086830616, -0.19453376531600952, 0.22136032581329346, 0.05020973086357117], [0.185801699757576, 0.03826626390218735, 0.13100671768188477, -0.004274467937648296, 0.1899040788412094, -0.21004030108451843, -0.32078444957733154, 0.12362664937973022, -0.01926649734377861, 0.020553912967443466, 0.07256603240966797, -0.2892453670501709, 0.238145649433136, -0.03455023467540741, -0.24580717086791992, 0.29452693462371826, -0.23384034633636475, -0.0426638200879097, -0.3828945755958557, 0.008764304220676422, -0.33807262778282166, 0.1899517923593521, -0.1583205759525299, 0.06530986726284027, -0.1179673969745636, 0.1097923070192337, 0.031118806451559067, -0.12331715226173401, -0.0016959987115114927, -0.32931533455848694, -0.14128154516220093, 0.20629456639289856], [0.32891517877578735, 0.11301423609256744, -0.03858799487352371, 0.10853351652622223, 0.012868248857557774, 0.0757320299744606, -0.12375444173812866, 0.2285958230495453, 0.17161807417869568, -0.7050555348396301, 0.1997678279876709, 0.041080325841903687, 0.2517358660697937, -0.17355236411094666, 7.744575850665569e-05, -0.11309580504894257, -0.10207661986351013, 0.14307843148708344, -0.2869933247566223, 0.06547001004219055, -0.012598884291946888, -0.15178631246089935, -0.1225680559873581, 0.061495933681726456, 0.1473785638809204, 0.353024959564209, -0.12189310789108276, 0.10447219014167786, -0.15086118876934052, 0.009095931425690651, 0.21539711952209473, -0.06708792597055435], [0.07662926614284515, -0.05775636062026024, 0.22259050607681274, -0.15942922234535217, 0.005104895681142807, -0.2519225478172302, 0.03939669206738472, -0.10779318958520889, 0.25345534086227417, -0.20728331804275513, -0.18327847123146057, -0.1398354470729828, 0.3015598654747009, -0.13766901195049286, -0.14491987228393555, -0.17810598015785217, -0.15471969544887543, 0.3525484800338745, -0.09646142274141312, 0.20348966121673584, 0.11909399926662445, 0.12346124649047852, -0.08075115829706192, -0.22561082243919373, 0.3649255037307739, -0.08316805958747864, 0.06681272387504578, -0.16404306888580322, -0.23193490505218506, -0.09027399122714996, 0.33912205696105957, -0.18643805384635925], [0.23964443802833557, -0.0056666480377316475, 0.01211867667734623, -0.20033639669418335, 0.32530421018600464, -0.3438175916671753, 0.023026984184980392, -0.14019928872585297, -0.37472468614578247, 0.06445088982582092, 0.19184377789497375, -0.11557158827781677, -0.17136183381080627, 0.29479360580444336, -0.025559181347489357, -0.14577478170394897, 0.011010099202394485, 0.37046125531196594, -0.1768788993358612, -0.13602519035339355, -0.10743016749620438, 0.03280149772763252, -0.17502132058143616, 0.01354018971323967, -0.27013787627220154, -0.10380738973617554, -0.11200535297393799, 0.050732873380184174, 0.029556311666965485, -0.028881549835205078, -0.09767293930053711, 0.3065553903579712], [0.20273298025131226, -0.03791549429297447, 0.013899005018174648, 0.2652212977409363, -0.2879519462585449, 0.1587250828742981, 0.013284087181091309, 0.036882929503917694, -0.1057562381029129, 0.14418739080429077, 0.10916338860988617, -0.17691388726234436, -0.022366825491189957, -0.18590059876441956, 0.028141971677541733, 0.005913852248340845, -0.025402938947081566, 0.13307532668113708, -0.15669158101081848, 0.2717571258544922, -0.4179110527038574, -0.08328881859779358, -0.1338697075843811, 0.029842913150787354, 0.2068839967250824, -0.16628780961036682, -0.29570281505584717, -0.3291093707084656, -0.38188666105270386, 0.05737023800611496, -0.010953840799629688, -0.2856898903846741], [-0.011352287605404854, -0.37861478328704834, -0.0746321827173233, -0.05805151164531708, -0.1414453387260437, 0.34777939319610596, 0.01861570030450821, 0.03839470446109772, 0.07635615766048431, 0.11963312327861786, -0.3271033465862274, 0.22857879102230072, 0.03781001269817352, 0.33946454524993896, -0.014791326597332954, 0.0014507740270346403, -0.2549293637275696, 0.04144913703203201, -0.06086204946041107, -0.27094513177871704, 0.04173485189676285, 0.06888216733932495, -0.20662111043930054, 0.23297226428985596, -0.16792501509189606, -0.11180683970451355, 0.4368963837623596, -0.44834280014038086, 0.1409355103969574, 0.18046782910823822, -0.16539877653121948, -0.03122808039188385], [0.14241045713424683, 0.03363253176212311, -0.06775613874197006, 0.12193755060434341, -0.05212000757455826, -0.2028292417526245, 0.3185412883758545, 0.16639743745326996, 0.10978344827890396, -0.032986413687467575, -0.03590184450149536, -0.2431192696094513, 0.09519597142934799, 0.28275346755981445, 0.1551637202501297, -0.14469508826732635, 0.054022300988435745, 0.02681136503815651, 0.23978957533836365, -0.03947694972157478, -0.14553502202033997, -0.19103118777275085, -0.17108266055583954, 0.1574530303478241, -0.24533849954605103, 0.08988530933856964, 0.039009761065244675, 0.09097570925951004, -0.04107723385095596, 0.07792321592569351, -0.10308587551116943, -0.1704590618610382], [0.11025756597518921, -0.04096769914031029, -0.011821284890174866, 0.10379107296466827, -0.3337829113006592, -0.063187375664711, -0.20152613520622253, -0.2307690978050232, -0.14012238383293152, -0.13230577111244202, 0.3182961940765381, -0.26705294847488403, 0.10218755900859833, -0.08651091158390045, 0.021391965448856354, -0.07867273688316345, -0.3263934552669525, -0.19261474907398224, -0.20695266127586365, 0.15732142329216003, 0.11755397915840149, -0.20049001276493073, 0.26880237460136414, 0.21078014373779297, -0.28738880157470703, -0.14547587931156158, -0.29122039675712585, -0.09236153960227966, 0.13474422693252563, 0.10192643105983734, -0.33234769105911255, -0.1132582426071167], [-0.34460368752479553, -0.29199934005737305, 0.10062827914953232, 0.20642615854740143, -0.24695849418640137, -0.321391761302948, -0.046047501266002655, 0.010562734678387642, 0.1979541778564453, -0.22142323851585388, -0.0894695445895195, 0.08154137432575226, 0.02351382002234459, 0.23021528124809265, -0.06309705972671509, -0.05593697354197502, -0.16162696480751038, -0.03678743168711662, -0.13085153698921204, 0.05872807651758194, -0.17234650254249573, -0.1707470417022705, 0.08693872392177582, -0.29878121614456177, -0.12688937783241272, -0.031862273812294006, 0.18512296676635742, 0.2504546344280243, -0.05083402991294861, -0.16571824252605438, 0.022715486586093903, 0.19180253148078918]]}, "4+": {"kernel": [[0.21877135336399078, -0.11908455938100815, 0.023419711738824844, -0.6747519969940186, -0.30066990852355957, 0.04248638078570366, -0.3230075240135193, 0.0007718779379501939, -0.031666480004787445, 0.034281328320503235, -0.30248478055000305, -0.06036686897277832, 0.29499852657318115, 0.07578995823860168, -0.14340586960315704, -0.16949228942394257, 0.037440359592437744, -0.012818338349461555, -0.019137676805257797, -0.2191261202096939, -0.02143217623233795, 0.09123855829238892, -0.1558084338903427, -0.32827848196029663, 0.12578630447387695, 0.014216391369700432, -0.14892578125, 0.17840290069580078, -0.16451916098594666, -0.026668235659599304, -0.09312513470649719, 0.15405705571174622], [0.238017737865448, -0.17198669910430908, -0.43003934621810913, 0.34031572937965393, -0.06506563723087311, 0.006253570318222046, 0.026340384036302567, 0.18442359566688538, -0.6128684878349304, 0.12626750767230988, -0.10713866353034973, 0.47673434019088745, -0.1933673769235611, 0.28531816601753235, 0.18229441344738007, -0.4416854679584503, -0.02310386672616005, -0.1868869513273239, -0.21236446499824524, 0.23711968958377838, -0.3132186532020569, -0.15448567271232605, 0.2844899892807007, -0.10806042701005936, 0.035889528691768646, -0.16100645065307617, 0.00877270195633173, -0.16112804412841797, 0.31553104519844055, -0.0031138730701059103, 0.0312679223716259, -0.3479401469230652], [0.07794931530952454, -0.03355194628238678, 0.041599467396736145, 0.1877356767654419, 0.0612567737698555, 0.19581256806850433, -0.16646425426006317, 0.2533475160598755, 0.18092933297157288, 0.05474846810102463, -0.26829805970191956, -0.02375950664281845, 0.13975900411605835, 0.32086628675460815, 0.2625162899494171, 0.23094622790813446, 0.19310487806797028, -0.022770240902900696, -0.16213004291057587, 0.12431062757968903, -0.27859628200531006, -0.044711410999298096, 0.1467088758945465, -0.28662288188934326, -0.20092688500881195, 0.04434659332036972, -0.03659960255026817, -0.11029191315174103, 0.06470994651317596, 0.11169030517339706, 0.10656695812940598, 0.004491154104471207], [-0.07008016109466553, -0.17592477798461914, 0.0014047767035663128, 0.09274733811616898, -0.053765054792165756, 0.00878162495791912, -0.32795777916908264, 0.10517369210720062, 0.11090235412120819, -0.0004682364233303815, 0.17380094528198242, -0.0278630331158638, 0.18680045008659363, -0.1325613558292389, -0.015659909695386887, -0.13664762675762177, 0.35479408502578735, 0.09292440116405487, 0.01671314239501953, 0.034715358167886734, -0.06805036962032318, -0.014223044738173485, 0.17424248158931732, -0.048320651054382324, 0.15922811627388, -0.16234663128852844, -0.1590290665626526, 0.05264832079410553, -0.329330712556839, 0.2100042998790741, 0.2509458661079407, -0.0001553673791931942], [-0.3082031011581421, 0.0488002747297287, 0.1459740698337555, -0.14284589886665344, -0.3364896774291992, 0.17872518301010132, 0.00592664023861289, -0.08205283433198929, -0.11430470645427704, -0.12913590669631958, 0.3521549105644226, -0.2843426465988159, 0.01968790963292122, -0.15922948718070984, 0.025791525840759277, -0.11450628936290741, 0.014695974066853523, 0.2242465615272522, -0.05170350521802902, -0.1509886384010315, 0.11064738780260086, -0.14919525384902954, -0.049888528883457184, -0.06872327625751495, 0.0348866768181324, 0.1716628223657608, -0.1326378583908081, 0.10781773924827576, -0.015281692147254944, 0.09300632774829865, 0.20097246766090393, -0.04313722997903824], [0.18879708647727966, 0.22362937033176422, 0.2520982027053833, -0.049220971763134, 0.06022529676556587, -0.11732631921768188, 0.20793627202510834, 0.2816388010978699, -0.01066356897354126, -0.3633542060852051, -0.13105511665344238, 0.0927390307188034, 0.1234339028596878, 0.03753218054771423, -0.06928849220275879, -0.03263464942574501, -0.3394283652305603, 0.3406227231025696, 0.00921863503754139, 0.06211503967642784, 0.20164883136749268, 0.026255987584590912, -0.24563083052635193, 0.34906435012817383, -0.27403923869132996, -0.04494477063417435, 0.13757142424583435, -0.007012342102825642, 0.38588911294937134, -0.04806095361709595, -0.10142208635807037, -0.3463965058326721], [0.2027963101863861, -0.21200492978096008, 0.07167886197566986, 0.204403817653656, 0.1258922964334488, -0.03662402927875519, 0.08537061512470245, -0.13476428389549255, -0.14621996879577637, -0.3132460117340088, 0.05025723576545715, -0.061298221349716187, 0.1257118582725525, -0.11296410858631134, -0.2917099893093109, -0.059123020619153976, 0.017601191997528076, 0.3138497769832611, 0.04684967175126076, -0.13620984554290771, -0.3277987539768219, 0.07079779356718063, -0.3845013976097107, -0.02047179825603962, 0.2302713245153427, -0.09465806186199188, -0.22758758068084717, 0.009170783683657646, -0.13057345151901245, 0.34953877329826355, 0.2661505937576294, 0.24672020971775055], [-0.029765691608190536, -0.02140367217361927, 0.07303327322006226, 0.05555083230137825, 0.08503546565771103, 0.23985114693641663, -0.16029684245586395, 0.03286920487880707, 0.13106487691402435, 0.08356857299804688, 0.024777840822935104, 0.052757397294044495, 0.07544431835412979, -0.039257604628801346, -0.16976219415664673, -0.025003191083669662, 0.11067342758178711, -0.27549368143081665, 0.02228708192706108, -0.15858125686645508, -0.13498234748840332, -0.11308357119560242, -0.21477891504764557, -0.15999846160411835, 0.07640314102172852, -0.05936570465564728, 0.13415789604187012, 0.26090097427368164, -0.30723947286605835, 0.25881701707839966, 0.040828969329595566, -0.1195828914642334], [0.3220581114292145, 0.14889077842235565, -0.08172719180583954, -0.03853275626897812, -0.05018935352563858, 0.2044941782951355, -0.13318254053592682, 0.007799558807164431, -0.052257902920246124, 0.1889958381652832, 0.05215279012918472, -0.2044806331396103, -0.013556413352489471, -0.1726316511631012, 0.19832706451416016, 0.040075697004795074, -0.3480677008628845, -0.18426361680030823, 0.03945808857679367, -0.04559693485498428, -0.09382808953523636, -0.1113203912973404, -0.1402200311422348, 0.35862046480178833, 0.274697482585907, 0.10817936807870865, -0.11628683656454086, -0.2642747759819031, 0.039009787142276764, -0.1183471605181694, -0.03991268575191498, 0.04357851296663284], [0.3654516339302063, -0.16971927881240845, -0.19125691056251526, -0.4534505307674408, 0.06809541583061218, -0.03707129880785942, -0.4677093029022217, 0.0426018051803112, 0.09049423038959503, -0.06095051020383835, -0.41011667251586914, -0.16818806529045105, 0.3519304394721985, -0.43824732303619385, 0.059143319725990295, 0.31833577156066895, -0.13503780961036682, -0.03874130919575691, 0.19013585150241852, 0.354495108127594, 0.07836830615997314, 0.5080093145370483, 0.3654882311820984, -0.22310572862625122, 0.11190713196992874, 0.05866231769323349, -0.023380324244499207, -0.2104487419128418, 0.20168498158454895, 0.010868893004953861, 0.1835869550704956, 0.33178097009658813], [-0.2308734655380249, 0.07128025591373444, -0.13149210810661316, 0.22276440262794495, 0.02397320419549942, 0.3414558172225952, 0.18748649954795837, -0.021193252876400948, -0.27446600794792175, -0.04809359088540077, 0.13016243278980255, -0.13143983483314514, -0.16128669679164886, 0.1526043564081192, -0.026654239743947983, -0.13761407136917114, 0.14730527997016907, -0.020946413278579712, -0.026600589975714684, 0.33337342739105225, 0.061742208898067474, -0.15036922693252563, -0.24198001623153687, 0.06880559772253036, 0.2519243359565735, 0.18953484296798706, -0.10515706241130829, -0.20465907454490662, 0.03945404291152954, 0.17921419441699982, 0.12593254446983337, 0.21777012944221497], [0.034458525478839874, -0.001971786841750145, 0.07742151618003845, 0.14025631546974182, -0.06068364530801773, -0.23602256178855896, -0.16754476726055145, -0.2828686833381653, -0.105808787047863, -0.09684795141220093, 0.02714594453573227, 0.22870105504989624, -0.23863209784030914, 0.30901700258255005, 0.06218498945236206, -0.15909786522388458, 0.3118046224117279, -0.19527806341648102, 0.05781114101409912, 0.07160748541355133, -0.10789230465888977, 0.1812782734632492, 0.4022379517555237, 0.02350769191980362, -0.24371403455734253, 0.13324490189552307, 0.0420353077352047, -0.26984161138534546, 0.2587767243385315, -0.03604746609926224, -0.0893372893333435, 0.012385581620037556], [-0.08404745161533356, -0.12930376827716827, 0.05519113317131996, 0.18372491002082825, -0.1664053499698639, -0.27697139978408813, 0.15310895442962646, 0.03333023190498352, 0.008071603253483772, -0.37816762924194336, -0.0035068304277956486, 0.010601049289107323, 0.10518966615200043, 0.06039638817310333, -0.23681184649467468, 0.2929018437862396, 0.024855919182300568, 0.1128813624382019, 0.08473643660545349, 0.17722287774085999, 0.09818826615810394, -0.33067989349365234, -0.19801372289657593, 0.00036241469206288457, -0.05629865080118179, 0.07605931162834167, -0.22003966569900513, -0.41228023171424866, -0.21974334120750427, -0.2763773202896118, 0.21625718474388123, 0.26791977882385254], [-0.01427606213837862, 0.0872996598482132, 0.2737199068069458, -0.2942478060722351, -0.2973323464393616, 0.16550037264823914, 0.3571562170982361, -0.169683039188385, -0.11079509556293488, 0.07838061451911926, 0.0590175986289978, -0.17238713800907135, 0.0020140218548476696, 0.030362814664840698, 0.16773894429206848, -0.20676147937774658, 0.15587088465690613, 0.28956034779548645, -0.14093230664730072, -0.1632799208164215, -0.10939990729093552, -0.01926283910870552, -0.3371637761592865, -0.29649341106414795, -0.009314765222370625, 0.1728157252073288, -0.07758964598178864, 0.21359577775001526, -0.06074870377779007, 0.02643084153532982, 0.32315173745155334, 0.12561991810798645], [0.15777865052223206, -0.1047268956899643, 0.0825871154665947, 0.1857970952987671, 0.30824488401412964, -0.10491569340229034, -0.24307681620121002, -0.3443944752216339, -0.14958025515079498, -0.1388288140296936, 0.2762564420700073, -0.11981624364852905, -0.18553617596626282, -0.18115364015102386, -0.2120799869298935, 0.05251782387495041, -0.02545459195971489, 0.4104100167751312, -0.07628513872623444, -0.17317834496498108, -0.10085444152355194, -0.09551110863685608, 0.34001192450523376, 0.0554279163479805, -0.333624929189682, 0.10702216625213623, -0.14927515387535095, -0.24234521389007568, 0.6136866211891174, -0.12570372223854065, -0.5412926077842712, -0.39712610840797424], [0.04725611209869385, 0.06366796791553497, 0.1993262767791748, -0.014047542586922646, -0.040314510464668274, -0.2120504379272461, -0.15486475825309753, -0.13479828834533691, -0.16560551524162292, -0.16214215755462646, -0.03691285848617554, -0.09806667268276215, -0.40327703952789307, -0.03962404280900955, -0.09158076345920563, -0.34891533851623535, 0.014314889907836914, -0.06582257151603699, 0.07888898998498917, -0.09357193857431412, 0.13889464735984802, 0.02066035568714142, -0.1435951292514801, 0.2086227685213089, 0.02381027676165104, 0.05170498043298721, -0.28125256299972534, -0.19511839747428894, -0.2915644943714142, -0.22604602575302124, -0.13248252868652344, 0.08621419966220856], [-0.12841150164604187, -0.21986603736877441, 0.257315069437027, 0.00033530808286741376, -0.04438893869519234, -0.1463707685470581, 0.09435801208019257, -0.07486716657876968, -0.04409339651465416, 